{"model_str": "tree\nversion=v4\nnum_class=1\nnum_tree_per_iteration=1\nlabel_index=0\nmax_feature_idx=161\nobjective=regression_l1\nfeature_names=trade_count total_tx_count cex_inflow cex_outflow cex_tx_count dex_inflow dex_outflow dex_tx_count inst_tx_count usdt_total_tx_count usdt_cex_inflow usdt_cex_outflow usdt_cex_tx_count usdt_dex_inflow usdt_dex_outflow usdt_dex_tx_count usdt_inst_inflow usdt_inst_outflow usdt_inst_tx_count usd_volume total_usd_volume usdt_total_usd_volume body_pct upper_wick_pct lower_wick_pct trade_count_pct_change_1h price_pct_change_1h total_tx_count_pct_change_1h cex_inflow_pct_change_1h cex_outflow_pct_change_1h cex_tx_count_pct_change_1h dex_inflow_pct_change_1h dex_outflow_pct_change_1h dex_tx_count_pct_change_1h inst_tx_count_pct_change_1h usdt_total_tx_count_pct_change_1h usdt_cex_inflow_pct_change_1h usdt_cex_outflow_pct_change_1h usdt_cex_tx_count_pct_change_1h usdt_dex_inflow_pct_change_1h usdt_dex_outflow_pct_change_1h usdt_dex_tx_count_pct_change_1h usdt_inst_inflow_pct_change_1h usdt_inst_outflow_pct_change_1h usdt_inst_tx_count_pct_change_1h usd_volume_pct_change_1h total_usd_volume_pct_change_1h usdt_total_usd_volume_pct_change_1h trade_count_pct_change_3h price_pct_change_3h total_tx_count_pct_change_3h cex_inflow_pct_change_3h cex_outflow_pct_change_3h cex_tx_count_pct_change_3h dex_inflow_pct_change_3h dex_outflow_pct_change_3h dex_tx_count_pct_change_3h inst_tx_count_pct_change_3h usdt_total_tx_count_pct_change_3h usdt_cex_inflow_pct_change_3h usdt_cex_outflow_pct_change_3h usdt_cex_tx_count_pct_change_3h usdt_dex_inflow_pct_change_3h usdt_dex_outflow_pct_change_3h usdt_dex_tx_count_pct_change_3h usdt_inst_inflow_pct_change_3h usdt_inst_outflow_pct_change_3h usdt_inst_tx_count_pct_change_3h usd_volume_pct_change_3h total_usd_volume_pct_change_3h usdt_total_usd_volume_pct_change_3h trade_count_pct_change_6h price_pct_change_6h total_tx_count_pct_change_6h cex_inflow_pct_change_6h cex_outflow_pct_change_6h cex_tx_count_pct_change_6h dex_inflow_pct_change_6h dex_outflow_pct_change_6h dex_tx_count_pct_change_6h inst_tx_count_pct_change_6h usdt_total_tx_count_pct_change_6h usdt_cex_inflow_pct_change_6h usdt_cex_outflow_pct_change_6h usdt_cex_tx_count_pct_change_6h usdt_dex_inflow_pct_change_6h usdt_dex_outflow_pct_change_6h usdt_dex_tx_count_pct_change_6h usdt_inst_inflow_pct_change_6h usdt_inst_outflow_pct_change_6h usdt_inst_tx_count_pct_change_6h usd_volume_pct_change_6h total_usd_volume_pct_change_6h usdt_total_usd_volume_pct_change_6h trade_count_pct_change_12h price_pct_change_12h total_tx_count_pct_change_12h cex_inflow_pct_change_12h cex_outflow_pct_change_12h cex_tx_count_pct_change_12h dex_inflow_pct_change_12h dex_outflow_pct_change_12h dex_tx_count_pct_change_12h inst_tx_count_pct_change_12h usdt_total_tx_count_pct_change_12h usdt_cex_inflow_pct_change_12h usdt_cex_outflow_pct_change_12h usdt_cex_tx_count_pct_change_12h usdt_dex_inflow_pct_change_12h usdt_dex_outflow_pct_change_12h usdt_dex_tx_count_pct_change_12h usdt_inst_inflow_pct_change_12h usdt_inst_outflow_pct_change_12h usdt_inst_tx_count_pct_change_12h usd_volume_pct_change_12h total_usd_volume_pct_change_12h usdt_total_usd_volume_pct_change_12h trade_count_pct_change_24h price_pct_change_24h total_tx_count_pct_change_24h cex_inflow_pct_change_24h cex_outflow_pct_change_24h cex_tx_count_pct_change_24h dex_inflow_pct_change_24h dex_outflow_pct_change_24h dex_tx_count_pct_change_24h inst_tx_count_pct_change_24h usdt_total_tx_count_pct_change_24h usdt_cex_inflow_pct_change_24h usdt_cex_outflow_pct_change_24h usdt_cex_tx_count_pct_change_24h usdt_dex_inflow_pct_change_24h usdt_dex_outflow_pct_change_24h usdt_dex_tx_count_pct_change_24h usdt_inst_inflow_pct_change_24h usdt_inst_outflow_pct_change_24h usdt_inst_tx_count_pct_change_24h usd_volume_pct_change_24h total_usd_volume_pct_change_24h usdt_total_usd_volume_pct_change_24h rel_dist_to_bb_upper rel_dist_to_bb_lower rel_dist_to_ema_20 rel_dist_to_ema_60 rsi rsi_pct_change_1 rsi_pct_change_3 rsi_pct_change_6 rsi_pct_change_12 rsi_pct_change_24 macd macd_pct_change_1 macd_pct_change_3 macd_pct_change_6 macd_pct_change_12 macd_pct_change_24 atr atr_pct_change_1 atr_pct_change_3 atr_pct_change_6 atr_pct_change_12 atr_pct_change_24\nfeature_infos=[550:1592253] [63:5766] [64266698.60185875:32750259788355.508] [427527388.28688312:32747335749442.664] [31:3007] [0:361409392104.92334] [0:377898190207.46753] [1:749] [0:9] [2245:15334] [2916317.1231830004:5115828216.3896236] [3267603.0266999998:5180011117.86765] [874:9044] [1232673.7434360003:315489486.48492789] [1277340.6110969996:363499608.02772105] [289:3107] [0:216629202.79394493] [0:262183244.80804101] [0:463] [114329.52468009999:412393814.62427616] [45931.846607305779:781585785.77859461] [200.90005319010936:143326.53047626748] [0:0.9887640449438202] [0:0.92647058823529493] [0:0.93333333333333335] [-0.92261514666946287:26.581717451523545] [-0.18416523235800353:0.19976289270895076] [-0.90366022099447518:8.7508417508417509] [-0.99886378420818911:12438.969685066233] [-0.99877961089390199:642.46704724365566] [-0.93658187029738449:20.469230769230769] [-1:inf] [-1:inf] [-0.91885441527446299:27.899999999999999] [-1:inf] [-0.56218756248750257:1.6314127861089185] [-0.98430765797093345:83.619020625252517] [-0.98598155013839894:95.615606508492633] [-0.72114108801415311:3.3411821239788564] [-0.93146411833144316:26.1827239671474] [-0.94524211340809805:36.636533678799864] [-0.59170854271356776:1.3979238754325261] [-1:inf] [-1:inf] [-1:inf] [-0.90010323619568655:34.441026737864256] [-0.99684206732046687:378.5427167063562] [-0.95095239641115881:15.131973821419603] [-0.94557483582410917:24.8755586112066] [-0.21337126600284495:0.31268996960486328] [-0.88288288288288286:10.138461538461538] [-0.99931549714111845:724.21756783151466] [-0.99647611183490936:1892.8197199269061] [-0.93665768194070087:22.885245901639344] [-1:inf] [-1:inf] [-0.93317422434367536:35.125] [-1:inf] [-0.6244021799577355:1.4868347338935575] [-0.9844506711926504:53.459350374025604] [-0.98501293914134824:47.340752020367418] [-0.75471406491499227:3.7174934725848567] [-0.92752907740435375:27.627134890418422] [-0.93507467582975889:24.113154962112816] [-0.65226939970717424:2.0831918505942273] [-1:inf] [-1:inf] [-1:inf] [-0.96756711213548496:34.842518107250136] [-0.99394086847503937:237.01479547322162] [-0.94344084057398447:16.72378063040146] [-0.92963191324857841:31.070869565217393] [-0.34734875029198786:0.36112979152656344] [-0.8733733733733734:9.4927536231884062] [-0.99941605044858617:2305.0000705984171] [-0.99851253893248382:2640.1259335736167] [-0.93157894736842106:21.42622950819672] [-1:inf] [-1:inf] [-0.94285714285714284:25.272727272727273] [-1:inf] [-0.64702433304016416:2.9167305236270753] [-0.98425277278344547:131.12806549218018] [-0.98644541239139694:109.87891732675828] [-0.74823087129588672:5.1164522681110363] [-0.92695643887350654:22.502387279143978] [-0.92662172800472276:24.85716813139824] [-0.66666666666666674:2.1903114186851211] [-1:inf] [-1:inf] [-1:inf] [-0.95711957021665439:39.806316234298947] [-0.99665029486712409:876.45879898218891] [-0.95980151491148236:37.829190217792885] [-0.97130501456831775:36.240553940844592] [-0.2651236191478169:0.70136778115501541] [-0.88023088023088025:9.9723183391003456] [-0.99934669065659654:3368.2847223408294] [-0.99850646557024225:1873.7963020081484] [-0.96669248644461658:18.560606060606062] [-1:inf] [-1:inf] [-0.97619047619047616:29.684210526315791] [-1:inf] [-0.66083974573435933:2.1154002438033319] [-0.99361271705842413:124.45761252654552] [-0.99055972116990842:94.181135302992985] [-0.79898162497232672:3.977410468319559] [-0.94491847291012854:28.61370307165274] [-0.9625053078366067:29.2586898997106] [-0.72476340694006303:2.5233644859813085] [-1:inf] [-1:inf] [-1:inf] [-0.98641494766644144:50.224288088429056] [-0.99844040563646075:742.34553794520843] [-0.97224648981024597:25.567145877897975] [-0.9550512114785904:26.773654916512058] [-0.28851540616246507:1.029918404351768] [-0.89876033057851235:11.730434782608695] [-0.99958816917032911:4000.0004539786369] [-0.99969706831906313:15847.395586488805] [-0.95394736842105265:23.745454545454546] [-1:inf] [-1:inf] [-0.94809688581314877:19.222222222222221] [-1:inf] [-0.66100770967993139:1.6735277301315037] [-0.99053517541642033:173.68052252564812] [-0.99475860387297654:114.67882957523902] [-0.80915524104378589:4.1389992057188243] [-0.96953516752729985:24.462492177104309] [-0.97224008306495802:22.652000890399673] [-0.76881134133042528:2.2300531914893615] [-1:inf] [-1:inf] [-1:inf] [-0.98489245726194119:45.516147320743038] [-0.99905090530402829:1201.5331611957508] [-0.96006556923784758:28.339307339201259] [-0.10134712449422134:0.69980976437301312] [-0.097613023006822106:0.53862360355462069] [-0.26972832021676796:0.28242675995429711] [-0.41225586885934234:0.32780250676701012] [9.2920495153759077:91.010441452982263] [-0.5223917445926729:1.4774001239762025] [-0.72307831664922384:2.2958122800305336] [-0.75308471795037912:2.4373795062997647] [-0.83401319524680806:3.3412228393880952] [-0.79137299626581159:3.8695608728438442] [-1.2301255464815632e-06:4.8353990342901452e-06] [-246.44206377636959:1324.125275264503] [-518.51593296437329:1498.5466711704216] [-1138.7698059499755:7515.6245789709092] [-988.93831953925201:29751.324526741693] [-5275.8785688023945:27159.200317150469] [0:3.9838687772860979e-06] [-0.05473200452904603:inf] [-0.13112372683071027:inf] [-0.23428228484666724:inf] [-0.35728520037159672:inf] [-0.47074051202202716:inf]\ntree_sizes=1094 1279 1181 1094 1179 1187 1182 1262 1191 1275 1104 1186 1246\n\nTree=0\nnum_leaves=10\nnum_cat=0\nsplit_feature=49 145 131 145 37 62 49 62 135\nsplit_gain=63.0958 19.2865 13.5283 13.1579 10.7676 10.932 13.5124 14.1631 9.31804\nthreshold=-0.011395479270306595 -0.015064603597039926 0.47471163865979277 -0.086849344061383157 -0.49542995045815297 0.54286920584944809 0.0016763290442946002 -0.04776896307258021 -0.29572699125058149\ndecision_type=8 10 8 10 10 10 10 10 10\nleft_child=3 2 8 -1 -3 6 -6 -8 -2\nright_child=1 4 -4 -5 5 -7 7 -9 -10\nleaf_value=0.000152749614790082 -1.7995321832131596e-05 -5.1975069800391795e-05 5.583489255513996e-05 6.6711148247122767e-05 3.714895428856835e-05 -3.6205654032528402e-05 -4.3066326179541653e-05 2.8843419568147513e-05 3.480682498775423e-05\nleaf_weight=807 1355 1054 886 1169 1172 1130 1289 814 947\nleaf_count=807 1355 1054 886 1169 1172 1130 1289 814 947\ninternal_value=0.00140262 -0.000439459 0.00265056 0.00946356 -0.002244 -0.00115778 0.000305344 -0.00209225 0.000629887\ninternal_weight=10623 8647 3188 1976 5459 4405 3275 2103 2302\ninternal_count=10623 8647 3188 1976 5459 4405 3275 2103 2302\nis_linear=0\nshrinkage=0.05\n\n\nTree=1\nnum_leaves=12\nnum_cat=0\nsplit_feature=146 118 116 145 23 45 123 157 78 116 133\nsplit_gain=48.2915 18.4036 13.404 13.3117 11.7177 14.0154 10.388 8.67385 8.99547 8.22966 7.45795\nthreshold=-0.13583705824273226 -0.036778501969117132 1.014771475272779 -0.086849344061383157 0.24999999999998393 -0.23698909839932633 0.21037181419032605 -0.0033044500176731546 0.15501304602625923 1.8254387606526565 0.062840981431571588\ndecision_type=10 10 10 8 2 10 10 8 10 10 8\nleft_child=3 10 4 -1 7 -6 -7 8 -3 -4 -2\nright_child=1 2 9 -5 5 6 -8 -9 -10 -11 -12\nleaf_value=0.00011155208805575968 2.5987534900195898e-06 2.5987534900195898e-06 -6.7210949600848843e-05 5.2907420322299007e-05 4.5354831854638178e-05 2.301607557456009e-05 -3.1474414536205591e-05 -4.7576867218594997e-05 -4.5077248723828238e-05 -1.6037299355957658e-05 0.00011472825193777682\nleaf_weight=815 713 1160 730 881 972 1126 906 1133 743 739 705\nleaf_count=815 713 1160 730 881 972 1126 906 1133 743 739 705\ninternal_value=0.0014638 -5.60099e-06 -0.000992143 0.00919811 4.96689e-05 0.00226365 -9.84252e-05 -0.00214097 -7.88229e-05 -0.0052757 0.00521862\ninternal_weight=10623 8927 7509 1696 6040 3004 2032 3036 1903 1469 1418\ninternal_count=10623 8927 7509 1696 6040 3004 2032 3036 1903 1469 1418\nis_linear=0\nshrinkage=0.05\n\n\nTree=2\nnum_leaves=11\nnum_cat=0\nsplit_feature=26 146 147 155 135 123 52 5 40 46\nsplit_gain=41.4273 16.809 14.4839 12.5573 11.5568 9.28865 9.70361 9.11998 9.3635 9.09196\nthreshold=-0.0033743409657091545 -0.13583705824273226 -0.0036154148329777254 -2.3181800056273425 -0.31229378337877145 2.4519530624136547 0.5173159320085563 1625140106.955066 -0.28054995277774131 -0.4060421089775445\ndecision_type=10 8 10 8 10 8 10 2 10 10\nleft_child=1 -1 7 -4 -3 6 9 8 -2 -5\nright_child=2 4 3 5 -6 -7 -8 -9 -10 -11\nleaf_value=0.00010385254074935802 -3.2341926550543579e-05 5.6880285228544421e-07 -6.4158644920098598e-05 -5.3788219156558608e-07 5.7429567741564829e-05 2.1618241934447725e-05 8.7418192015320527e-07 6.2979853503748018e-05 2.2981636444455947e-05 -5.9252739634757745e-05\nleaf_weight=1149 726 1172 727 719 975 806 1022 982 1275 1070\nleaf_count=1149 726 1172 727 719 975 806 1022 982 1275 1070\ninternal_value=0.00147322 0.00612864 -0.000620991 -0.00246317 0.00351653 -0.00125795 -0.00261473 0.00206168 0.000124938 -0.0048351\ninternal_weight=10623 3296 7327 4344 2147 3617 2811 2983 2001 1789\ninternal_count=10623 3296 7327 4344 2147 3617 2811 2983 2001 1789\nis_linear=0\nshrinkage=0.05\n\n\nTree=3\nnum_leaves=10\nnum_cat=0\nsplit_feature=49 145 26 36 39 133 85 153 113\nsplit_gain=45.546 14.1624 12.9028 12.2992 11.2296 10.0476 11.0582 12.6683 14.9917\nthreshold=-0.011395479270306595 -0.086849344061383157 0.0053075819133352473 -0.18943881814961708 -0.45406136902722788 0.2546508855716802 -0.31306739950843471 -0.10186195926924534 -0.2132034632034632\ndecision_type=8 10 10 10 8 8 10 10 8\nleft_child=1 -1 4 -4 -2 6 -6 8 -8\nright_child=2 -3 3 -5 5 -7 7 -9 -10\nleaf_value=0.00013434190261032199 -2.4192237496481541e-05 5.8367486273346004e-05 -6.1222772883957088e-05 -1.5101566082989849e-05 3.4626957493401281e-05 4.4074917984835342e-05 3.857028048719258e-05 -3.5945171570438109e-05 -4.1573333153792199e-06\nleaf_weight=807 1177 1169 810 1378 1334 703 782 1332 1131\nleaf_count=807 1177 1169 810 1378 1334 703 782 1332 1131\ninternal_value=0.00150146 0.0083502 -6.36059e-05 -0.00338208 0.00106054 0.00204468 0.00119022 -0.000385208 0.00222164\ninternal_weight=10623 1976 8647 2188 6459 5282 4579 3245 1913\ninternal_count=10623 1976 8647 2188 6459 5282 4579 3245 1913\nis_linear=0\nshrinkage=0.05\n\n\nTree=4\nnum_leaves=11\nnum_cat=0\nsplit_feature=49 37 17 91 132 49 133 152 99 148\nsplit_gain=44.5647 12.8775 15.6437 13.8503 10.9385 10.5956 9.77035 8.94526 9.58246 8.17736\nthreshold=-0.011395479270306595 -0.46201737531711379 85046.624350500017 0.44555233732323168 0.78916765083100282 0.0018137378263108907 0.018678942856077855 -0.31945971964134379 -0.045307917888563025 -0.12923664562248935\ndecision_type=8 8 2 10 10 10 8 10 10 10\nleft_child=9 2 -2 4 6 -5 7 -3 -9 -1\nright_child=1 3 -4 5 -6 -7 -8 8 -10 -11\nleaf_value=0.00010549511036676449 -5.6253617241259235e-05 5.4543195441220868e-05 1.612107281052886e-06 2.103437383106211e-05 5.0095918472293312e-05 -5.2303903985000493e-05 -2.3943056838360235e-05 -2.4179201639850592e-05 3.0792832264063465e-05 4.6963773844477149e-05\nleaf_weight=1252 917 704 959 730 939 1248 1320 925 905 724\nleaf_count=1252 917 704 959 730 939 1248 1320 925 905 724\ninternal_value=0.0013226 -0.000225512 -0.00389126 0.000790134 0.00224285 -0.00273003 0.00106383 0.00288082 0.00103825 0.00809717\ninternal_weight=10623 8647 1876 6771 4793 1978 3854 2534 1830 1976\ninternal_count=10623 8647 1876 6771 4793 1978 3854 2534 1830 1976\nis_linear=0\nshrinkage=0.05\n\n\nTree=5\nnum_leaves=11\nnum_cat=0\nsplit_feature=145 161 87 144 136 109 131 77 159 14\nsplit_gain=36.5689 13.4422 13.6374 12.6445 15.0964 12.5878 12.1441 10.8503 14.2912 8.1812\nthreshold=-0.060261253801400509 0.046007647525888602 0.042203520808202673 56.454362244280937 49.000000000000007 -0.0091112021718451324 0.40942433361004132 -0.62301885357247266 -0.054795520096176879 17692313.692784\ndecision_type=10 8 10 10 8 10 10 10 10 2\nleft_child=1 2 -1 4 6 -5 7 -2 -9 -6\nright_child=3 -3 -4 5 9 -7 -8 8 -10 -11\nleaf_value=5.9166537727981455e-05 -2.325664070403241e-05 0.00010489190060136667 -3.2008378254161035e-06 3.1497510544159047e-07 -4.4631400179350242e-05 -6.2132922822575416e-05 4.7426305863718972e-05 5.1223326441020314e-05 -7.1239134044500655e-06 1.4530500838725403e-06\nleaf_weight=717 1027 1044 754 1203 712 1174 1244 996 1042 710\nleaf_count=717 1027 1044 754 1203 712 1174 1244 996 1042 710\ninternal_value=0.00131319 0.00658052 0.00350102 -0.000320671 0.000950968 -0.00338662 0.00242516 0.000734095 0.00284593 -0.00351617\ninternal_weight=10623 2515 1471 8108 5731 2377 4309 3065 2038 1422\ninternal_count=10623 2515 1471 8108 5731 2377 4309 3065 2038 1422\nis_linear=0\nshrinkage=0.05\n\n\nTree=6\nnum_leaves=11\nnum_cat=0\nsplit_feature=49 37 29 79 84 132 160 153 105 142\nsplit_gain=37.7977 11.073 13.964 12.0288 12.3334 14.8715 9.83185 9.17858 8.57039 8.11151\nthreshold=-0.011395479270306595 -0.46201737531711379 -0.348616273842764 0.46291208791208788 0.31508237220857455 0.75358536001258913 -0.0014681339456563134 -0.19953060399411723 0.29782301949977846 0.01565907156906839\ndecision_type=8 8 10 10 10 8 10 10 10 8\nleft_child=9 2 -2 4 5 6 7 -3 -5 -1\nright_child=1 3 -4 8 -6 -7 -8 -9 -10 -11\nleaf_value=4.2034429271792508e-05 -6.4282579754303449e-05 4.1305723827708842e-05 -8.3981337618570702e-07 8.2392672498025664e-07 -2.3641471232286393e-05 6.4254191901712699e-05 -1.7674727016457619e-05 -6.3850743892596328e-07 -6.3137834684347534e-05 0.00012072564692588574\nleaf_weight=901 721 1136 1155 864 1138 852 1164 907 710 1075\nleaf_count=901 721 1136 1155 864 1138 852 1164 907 710 1075\ninternal_value=0.00120023 -0.000225512 -0.00362473 0.00071629 0.00187608 0.0031658 0.00160586 0.00369555 -0.00311309 0.00743927\ninternal_weight=10623 8647 1876 6771 5197 4059 3207 2043 1574 1976\ninternal_count=10623 8647 1876 6771 5197 4059 3207 2043 1574 1976\nis_linear=0\nshrinkage=0.05\n\n\nTree=7\nnum_leaves=12\nnum_cat=0\nsplit_feature=49 145 12 42 116 128 72 59 63 132 43\nsplit_gain=33.506 11.1891 12.1345 12.9752 8.79844 14.6538 8.74466 15.3804 9.85897 9.97303 7.09253\nthreshold=-0.011395479270306595 -0.015064603597039926 1762.5000000000002 38.995034145441622 1.014771475272779 0.9287987555291336 0.0079983164983165062 -0.15187327281703303 -0.3519750122668221 -0.062960474095584237 -0.44152994319655609\ndecision_type=8 10 2 8 8 8 10 10 10 10 8\nleft_child=10 2 -2 -4 5 6 8 -8 -3 -10 -1\nright_child=1 4 3 -5 -6 -7 7 -9 9 -11 -12\nleaf_value=0.00010977782542827779 3.8151425171037315e-05 -3.7473438966678069e-05 2.7665223358374531e-05 -3.0575705030299866e-05 -5.4495557421216802e-05 4.0545178016091924e-05 -9.2885786862872673e-05 2.5803001392049811e-07 4.3960201639231827e-05 -5.3457071134211653e-06 5.4190317552243454e-05\nleaf_weight=702 990 718 1301 897 1047 859 702 701 700 732 1274\nleaf_count=702 990 718 1301 897 1047 859 702 701 700 732 1274\ninternal_value=0.00105902 -0.000283335 0.00207026 0 -0.00165781 -0.000679964 -0.00209682 -0.0051675 -9.30233e-05 0.00230447 0.0069332\ninternal_weight=10623 8647 3188 2198 5459 4412 3553 1403 2150 1432 1976\ninternal_count=10623 8647 3188 2198 5459 4412 3553 1403 2150 1432 1976\nis_linear=0\nshrinkage=0.05\n\n\nTree=8\nnum_leaves=11\nnum_cat=0\nsplit_feature=49 118 59 146 40 133 127 47 46 120\nsplit_gain=28.8095 10.7435 12.9435 12.6881 10.3523 9.08715 10.5545 8.16875 7.82085 6.95637\nthreshold=-0.011395479270306595 0.023777974216021795 -0.18340925621377371 0.18486042540563044 -0.49281980123156888 -0.22834640870353642 -0.073194758460977935 -0.06294922992257633 -0.064742426735222222 0.31438080282352449\ndecision_type=8 10 10 10 8 10 10 10 10 10\nleft_child=7 3 -3 4 -2 -6 -7 -1 -8 -10\nright_child=1 2 -4 -5 5 6 8 -9 9 -11\nleaf_value=9.2063500778565211e-05 -2.5407393223642025e-05 -7.8281156063170692e-05 -4.4537800700943717e-07 -3.8218116752141394e-05 5.5170139979305845e-05 -1.1203328744724376e-05 3.8256260013858557e-06 5.5691465192909854e-05 6.0649085163189971e-05 1.4499416119793914e-05\nleaf_weight=807 793 875 1360 1042 726 1146 1297 1169 700 708\nleaf_count=807 793 875 1360 1042 726 1146 1297 1169 700 708\ninternal_value=0.00103078 -0.000213947 -0.00319911 0.000826575 0.00180633 0.00272012 0.00175279 0.00647773 0.00345656 0.00603693\ninternal_weight=10623 8647 2235 6412 5370 4577 3851 1976 2705 1408\ninternal_count=10623 8647 2235 6412 5370 4577 3851 1976 2705 1408\nis_linear=0\nshrinkage=0.05\n\n\nTree=9\nnum_leaves=12\nnum_cat=0\nsplit_feature=146 56 149 56 81 39 0 66 133 83 144\nsplit_gain=25.9606 11.0815 10.4733 12.1107 10.8031 13.4401 10.9384 11.4267 10.1945 9.50024 9.56064\nthreshold=-0.14005368954465916 0.073622402890695673 -0.18969422677295814 -0.15331196581196579 -0.13580550534088484 -0.44184720458180249 20741.000000000004 -0.63207887409351782 -0.0026218828980141269 -0.43097625976125253 52.92806700439359\ndecision_type=10 10 10 10 10 10 2 10 10 10 10\nleft_child=1 -1 3 -2 9 -6 -7 -8 -9 -4 -11\nright_child=2 -3 4 -5 5 6 7 8 -10 10 -12\nleaf_value=3.1703349916483075e-05 -8.261717984512211e-06 0.00010152331525092032 -9.3478719512659348e-06 4.4790007034949395e-05 -5.8531955987777668e-05 8.522501505680397e-06 -6.0405311492585491e-05 -3.7771325925320086e-05 3.968514196176111e-05 1.7283179949836914e-06 5.6624502214004858e-05\nleaf_weight=834 757 778 1232 1168 716 820 1396 700 802 713 707\nleaf_count=834 757 778 1232 1168 716 820 1396 700 802 713 707\ninternal_value=0.00091782 0.00676179 -0.000127622 0.00314286 -0.00101609 -0.00252594 -0.00131791 -0.00276052 0.000266312 0.0015083 0.00429577\ninternal_weight=10623 1612 9011 1925 7086 4434 3718 2898 1502 2652 1420\ninternal_count=10623 1612 9011 1925 7086 4434 3718 2898 1502 2652 1420\nis_linear=0\nshrinkage=0.05\n\n\nTree=10\nnum_leaves=10\nnum_cat=0\nsplit_feature=145 161 61 23 111 72 98 0 150\nsplit_gain=23.8558 12.9213 13.9007 11.1833 13.5999 12.5123 8.15371 10.7973 8.36998\nthreshold=-0.060261253801400509 0.046007647525888602 0.0097737254486680598 0.083333333333334356 -0.72914964355959544 0.0043899763678426637 -0.61445811830038888 44023.000000000007 -1.303259667366457e-08\ndecision_type=10 8 10 2 8 10 10 2 10\nleft_child=1 2 -1 -2 5 -5 -6 -8 -9\nright_child=3 -3 -4 4 6 -7 7 8 -10\nleaf_value=5.6614007893385324e-05 -4.2725336427984194e-05 9.5349258921286034e-05 -1.5948280726666245e-05 5.3220991540545479e-05 -3.8033987710647517e-05 -1.2268481686924554e-06 7.3811194643160236e-06 6.1086038051613475e-06 -6.1053205265754955e-05\nleaf_weight=759 1218 1044 712 1309 1042 1147 1361 941 1090\nleaf_count=759 1218 1044 712 1309 1042 1147 1361 941 1090\ninternal_value=0.000974301 0.00522863 0.00220938 -0.000345338 0.000435414 0.0034202 -0.00121786 -2.94811e-05 -0.00233875\ninternal_weight=10623 2515 1471 8108 6890 2456 4434 3392 2031\ninternal_count=10623 2515 1471 8108 6890 2456 4434 3392 2031\nis_linear=0\nshrinkage=0.05\n\n\nTree=11\nnum_leaves=11\nnum_cat=0\nsplit_feature=145 118 128 146 81 98 148 115 21 112\nsplit_gain=23.0527 11.907 18.6914 12.9362 11.2495 8.55118 9.72343 9.42593 9.19379 7.00996\nthreshold=-0.060261253801400509 0.023777974216021795 -0.25036822420697785 0.18486042540563044 0.11081824583114687 -0.80982085461226749 0.037316448445242852 -0.082545197674055423 4563.8643967763646 0.64510940080042145\ndecision_type=10 10 10 10 8 10 8 10 2 8\nleft_child=4 3 -3 5 9 -2 8 -8 -7 -1\nright_child=1 2 -4 -5 -6 6 7 -9 -10 -11\nleaf_value=3.4055556753373661e-05 -2.6884489039236382e-05 -0.00010141944901685431 5.2286264640951822e-07 -4.0808308812740001e-05 7.3936655236096304e-06 1.9348823521293332e-05 5.7172417761424061e-05 7.4256589692299225e-06 -1.9932431256609554e-05 8.3340162342025292e-05\nleaf_weight=711 767 811 1301 982 1024 1352 787 954 1154 780\nleaf_count=711 767 811 1301 982 1024 1352 787 954 1154 780\ninternal_value=0.000927233 -0.000370005 -0.00359848 0.000767178 0.00510934 0.00179497 0.00267247 0.00554279 0.000678372 0.00788062\ninternal_weight=10623 8108 2112 5996 2515 5014 4247 1741 2506 1491\ninternal_count=10623 8108 2112 5996 2515 5014 4247 1741 2506 1491\nis_linear=0\nshrinkage=0.05\n\n\nTree=12\nnum_leaves=12\nnum_cat=0\nsplit_feature=49 37 17 91 80 87 49 3 109 100 21\nsplit_gain=24.0559 11.3168 13.8472 10.2844 11.1481 10.9375 9.65676 8.76562 8.03325 7.51419 6.18939\nthreshold=-0.011395479270306595 -0.46201737531711379 85046.624350500017 0.44555233732323168 inf -0.031735960035452419 0.0018137378263108907 10303457309.377148 -0.3292618345779611 1.0322838675211965 4235.0511863885431\ndecision_type=8 8 2 10 8 10 8 2 8 10 2\nleft_child=9 2 -2 4 5 -3 -5 -6 -9 -1 -10\nright_child=1 3 -4 6 7 -7 -8 8 10 -11 -12\nleaf_value=7.3899204080665986e-05 -5.0245134848429492e-05 5.102346035612862e-05 3.4333187815251071e-06 1.0378037938571126e-05 -2.710871469375426e-05 -1.0726273034065427e-06 -4.6579761833406516e-05 -1.2719457467240043e-05 4.2769069780346089e-05 5.168353248570022e-05 7.4941943064927018e-07\nleaf_weight=1141 917 1203 959 730 703 705 1248 768 710 835 704\nleaf_count=1141 917 1203 959 730 703 705 1248 768 710 835 704\ninternal_value=0.000842512 -0.0002949 -0.00373134 0.000657215 0.00190903 0.00487421 -0.00237614 -5.19931e-05 0.00151237 0.00581984 0.00374823\ninternal_weight=10623 8647 1876 6771 4793 1908 1978 2885 2182 1976 1414\ninternal_count=10623 8647 1876 6771 4793 1908 1978 2885 2182 1976 1414\nis_linear=0\nshrinkage=0.05\n\n\nend of trees\n\nfeature_importances:\nprice_pct_change_3h=10\nrsi_pct_change_1=8\nusdt_dex_tx_count_pct_change_24h=5\nrsi_pct_change_3=5\nusdt_cex_outflow_pct_change_1h=4\nusdt_total_usd_volume_pct_change_12h=3\nprice_pct_change_24h=3\nusdt_dex_outflow_pct_change_24h=3\ntrade_count=2\nusdt_inst_outflow=2\nusdt_total_usd_volume=2\nupper_wick_pct=2\nprice_pct_change_1h=2\nusdt_dex_inflow_pct_change_1h=2\nusdt_dex_outflow_pct_change_1h=2\ntotal_usd_volume_pct_change_1h=2\ndex_tx_count_pct_change_3h=2\nusdt_cex_inflow_pct_change_3h=2\nusdt_dex_inflow_pct_change_3h=2\nprice_pct_change_6h=2\nusdt_total_tx_count_pct_change_6h=2\nusdt_dex_tx_count_pct_change_6h=2\nusd_volume_pct_change_6h=2\ncex_outflow_pct_change_12h=2\nusdt_dex_outflow_pct_change_12h=2\ndex_inflow_pct_change_24h=2\nusdt_cex_inflow_pct_change_24h=2\nusdt_dex_inflow_pct_change_24h=2\nusdt_inst_outflow_pct_change_24h=2\nrsi=2\nrsi_pct_change_12=2\nmacd_pct_change_6=2\natr_pct_change_24=2\ncex_outflow=1\ndex_inflow=1\nusdt_cex_tx_count=1\nusdt_dex_outflow=1\ncex_outflow_pct_change_1h=1\nusdt_cex_inflow_pct_change_1h=1\nusdt_inst_inflow_pct_change_1h=1\nusdt_inst_outflow_pct_change_1h=1\nusd_volume_pct_change_1h=1\nusdt_total_usd_volume_pct_change_1h=1\ncex_outflow_pct_change_3h=1\nusdt_cex_tx_count_pct_change_3h=1\nusdt_dex_outflow_pct_change_3h=1\nusdt_inst_outflow_pct_change_3h=1\ndex_inflow_pct_change_6h=1\ndex_outflow_pct_change_6h=1\ndex_tx_count_pct_change_6h=1\ninst_tx_count_pct_change_6h=1\nusdt_cex_outflow_pct_change_6h=1\nusdt_cex_tx_count_pct_change_6h=1\nusdt_dex_inflow_pct_change_6h=1\ncex_tx_count_pct_change_12h=1\ndex_inflow_pct_change_12h=1\nusdt_cex_inflow_pct_change_12h=1\nusdt_inst_inflow_pct_change_12h=1\nusdt_inst_outflow_pct_change_12h=1\nusdt_inst_tx_count_pct_change_12h=1\ntotal_usd_volume_pct_change_12h=1\ncex_inflow_pct_change_24h=1\nusdt_total_tx_count_pct_change_24h=1\nusdt_inst_tx_count_pct_change_24h=1\nrel_dist_to_ema_20=1\nrsi_pct_change_6=1\nrsi_pct_change_24=1\nmacd=1\nmacd_pct_change_3=1\nmacd_pct_change_24=1\natr_pct_change_1=1\natr_pct_change_6=1\natr_pct_change_12=1\n\nparameters:\n[boosting: gbdt]\n[objective: regression_l1]\n[metric: custom]\n[tree_learner: serial]\n[device_type: cpu]\n[data_sample_strategy: bagging]\n[data: ]\n[valid: ]\n[num_iterations: 2000]\n[learning_rate: 0.05]\n[num_leaves: 15]\n[num_threads: 0]\n[seed: 0]\n[deterministic: 0]\n[force_col_wise: 0]\n[force_row_wise: 0]\n[histogram_pool_size: -1]\n[max_depth: -1]\n[min_data_in_leaf: 700]\n[min_sum_hessian_in_leaf: 0.001]\n[bagging_fraction: 1]\n[pos_bagging_fraction: 1]\n[neg_bagging_fraction: 1]\n[bagging_freq: 0]\n[bagging_seed: 3]\n[bagging_by_query: 0]\n[feature_fraction: 0.6]\n[feature_fraction_bynode: 1]\n[feature_fraction_seed: 2]\n[extra_trees: 0]\n[extra_seed: 6]\n[early_stopping_round: 0]\n[early_stopping_min_delta: 0]\n[first_metric_only: 1]\n[max_delta_step: 0]\n[lambda_l1: 0]\n[lambda_l2: 0]\n[linear_lambda: 0]\n[min_gain_to_split: 0]\n[drop_rate: 0.1]\n[max_drop: 50]\n[skip_drop: 0.5]\n[xgboost_dart_mode: 0]\n[uniform_drop: 0]\n[drop_seed: 4]\n[top_rate: 0.2]\n[other_rate: 0.1]\n[min_data_per_group: 100]\n[max_cat_threshold: 32]\n[cat_l2: 10]\n[cat_smooth: 10]\n[max_cat_to_onehot: 4]\n[top_k: 20]\n[monotone_constraints: ]\n[monotone_constraints_method: basic]\n[monotone_penalty: 0]\n[feature_contri: ]\n[forcedsplits_filename: ]\n[refit_decay_rate: 0.9]\n[cegb_tradeoff: 1]\n[cegb_penalty_split: 0]\n[cegb_penalty_feature_lazy: ]\n[cegb_penalty_feature_coupled: ]\n[path_smooth: 0]\n[interaction_constraints: ]\n[verbosity: -1]\n[saved_feature_importance_type: 0]\n[use_quantized_grad: 0]\n[num_grad_quant_bins: 4]\n[quant_train_renew_leaf: 0]\n[stochastic_rounding: 1]\n[linear_tree: 0]\n[max_bin: 255]\n[max_bin_by_feature: ]\n[min_data_in_bin: 3]\n[bin_construct_sample_cnt: 200000]\n[data_random_seed: 1]\n[is_enable_sparse: 1]\n[enable_bundle: 1]\n[use_missing: 1]\n[zero_as_missing: 0]\n[feature_pre_filter: 1]\n[pre_partition: 0]\n[two_round: 0]\n[header: 0]\n[label_column: ]\n[weight_column: ]\n[group_column: ]\n[ignore_column: ]\n[categorical_feature: ]\n[forcedbins_filename: ]\n[precise_float_parser: 0]\n[parser_config_file: ]\n[objective_seed: 5]\n[num_class: 1]\n[is_unbalance: 0]\n[scale_pos_weight: 1]\n[sigmoid: 1]\n[boost_from_average: 1]\n[reg_sqrt: 0]\n[alpha: 0.9]\n[fair_c: 1]\n[poisson_max_delta_step: 0.7]\n[tweedie_variance_power: 1.5]\n[lambdarank_truncation_level: 30]\n[lambdarank_norm: 1]\n[label_gain: ]\n[lambdarank_position_bias_regularization: 0]\n[eval_at: ]\n[multi_error_top_k: 1]\n[auc_mu_weights: ]\n[num_machines: 1]\n[local_listen_port: 12400]\n[time_out: 120]\n[machine_list_filename: ]\n[machines: ]\n[gpu_platform_id: -1]\n[gpu_device_id: -1]\n[gpu_use_dp: 0]\n[num_gpu: 1]\n\nend of parameters\n\npandas_categorical:[]\n", "hyperparams": {"learning_rate": 0.05, "num_leaves": 15, "feature_fraction": 0.6, "min_data_in_leaf": 700}}