{"model_str": "tree\nversion=v4\nnum_class=1\nnum_tree_per_iteration=1\nlabel_index=0\nmax_feature_idx=161\nobjective=regression_l1\nfeature_names=trade_count total_tx_count cex_inflow cex_outflow cex_tx_count dex_inflow dex_outflow dex_tx_count inst_tx_count usdt_total_tx_count usdt_cex_inflow usdt_cex_outflow usdt_cex_tx_count usdt_dex_inflow usdt_dex_outflow usdt_dex_tx_count usdt_inst_inflow usdt_inst_outflow usdt_inst_tx_count usd_volume total_usd_volume usdt_total_usd_volume body_pct upper_wick_pct lower_wick_pct trade_count_pct_change_1h price_pct_change_1h total_tx_count_pct_change_1h cex_inflow_pct_change_1h cex_outflow_pct_change_1h cex_tx_count_pct_change_1h dex_inflow_pct_change_1h dex_outflow_pct_change_1h dex_tx_count_pct_change_1h inst_tx_count_pct_change_1h usdt_total_tx_count_pct_change_1h usdt_cex_inflow_pct_change_1h usdt_cex_outflow_pct_change_1h usdt_cex_tx_count_pct_change_1h usdt_dex_inflow_pct_change_1h usdt_dex_outflow_pct_change_1h usdt_dex_tx_count_pct_change_1h usdt_inst_inflow_pct_change_1h usdt_inst_outflow_pct_change_1h usdt_inst_tx_count_pct_change_1h usd_volume_pct_change_1h total_usd_volume_pct_change_1h usdt_total_usd_volume_pct_change_1h trade_count_pct_change_3h price_pct_change_3h total_tx_count_pct_change_3h cex_inflow_pct_change_3h cex_outflow_pct_change_3h cex_tx_count_pct_change_3h dex_inflow_pct_change_3h dex_outflow_pct_change_3h dex_tx_count_pct_change_3h inst_tx_count_pct_change_3h usdt_total_tx_count_pct_change_3h usdt_cex_inflow_pct_change_3h usdt_cex_outflow_pct_change_3h usdt_cex_tx_count_pct_change_3h usdt_dex_inflow_pct_change_3h usdt_dex_outflow_pct_change_3h usdt_dex_tx_count_pct_change_3h usdt_inst_inflow_pct_change_3h usdt_inst_outflow_pct_change_3h usdt_inst_tx_count_pct_change_3h usd_volume_pct_change_3h total_usd_volume_pct_change_3h usdt_total_usd_volume_pct_change_3h trade_count_pct_change_6h price_pct_change_6h total_tx_count_pct_change_6h cex_inflow_pct_change_6h cex_outflow_pct_change_6h cex_tx_count_pct_change_6h dex_inflow_pct_change_6h dex_outflow_pct_change_6h dex_tx_count_pct_change_6h inst_tx_count_pct_change_6h usdt_total_tx_count_pct_change_6h usdt_cex_inflow_pct_change_6h usdt_cex_outflow_pct_change_6h usdt_cex_tx_count_pct_change_6h usdt_dex_inflow_pct_change_6h usdt_dex_outflow_pct_change_6h usdt_dex_tx_count_pct_change_6h usdt_inst_inflow_pct_change_6h usdt_inst_outflow_pct_change_6h usdt_inst_tx_count_pct_change_6h usd_volume_pct_change_6h total_usd_volume_pct_change_6h usdt_total_usd_volume_pct_change_6h trade_count_pct_change_12h price_pct_change_12h total_tx_count_pct_change_12h cex_inflow_pct_change_12h cex_outflow_pct_change_12h cex_tx_count_pct_change_12h dex_inflow_pct_change_12h dex_outflow_pct_change_12h dex_tx_count_pct_change_12h inst_tx_count_pct_change_12h usdt_total_tx_count_pct_change_12h usdt_cex_inflow_pct_change_12h usdt_cex_outflow_pct_change_12h usdt_cex_tx_count_pct_change_12h usdt_dex_inflow_pct_change_12h usdt_dex_outflow_pct_change_12h usdt_dex_tx_count_pct_change_12h usdt_inst_inflow_pct_change_12h usdt_inst_outflow_pct_change_12h usdt_inst_tx_count_pct_change_12h usd_volume_pct_change_12h total_usd_volume_pct_change_12h usdt_total_usd_volume_pct_change_12h trade_count_pct_change_24h price_pct_change_24h total_tx_count_pct_change_24h cex_inflow_pct_change_24h cex_outflow_pct_change_24h cex_tx_count_pct_change_24h dex_inflow_pct_change_24h dex_outflow_pct_change_24h dex_tx_count_pct_change_24h inst_tx_count_pct_change_24h usdt_total_tx_count_pct_change_24h usdt_cex_inflow_pct_change_24h usdt_cex_outflow_pct_change_24h usdt_cex_tx_count_pct_change_24h usdt_dex_inflow_pct_change_24h usdt_dex_outflow_pct_change_24h usdt_dex_tx_count_pct_change_24h usdt_inst_inflow_pct_change_24h usdt_inst_outflow_pct_change_24h usdt_inst_tx_count_pct_change_24h usd_volume_pct_change_24h total_usd_volume_pct_change_24h usdt_total_usd_volume_pct_change_24h rel_dist_to_bb_upper rel_dist_to_bb_lower rel_dist_to_ema_20 rel_dist_to_ema_60 rsi rsi_pct_change_1 rsi_pct_change_3 rsi_pct_change_6 rsi_pct_change_12 rsi_pct_change_24 macd macd_pct_change_1 macd_pct_change_3 macd_pct_change_6 macd_pct_change_12 macd_pct_change_24 atr atr_pct_change_1 atr_pct_change_3 atr_pct_change_6 atr_pct_change_12 atr_pct_change_24\nfeature_infos=[158:1798706] [19:7329] [0:192929261483486.09] [16571328.880000001:192687227818415.69] [4:3993] [17636097.915749349:8783852899175.1055] [9.0000000005291074:8636498711458.0547] [5:3501] [0:7] [2477:15334] [2916317.1231830004:5115828216.3896236] [3535470.6997929998:5180011117.86765] [874:9044] [1232673.7434360003:315489486.48492789] [1277340.6110969996:363499608.02772105] [289:3107] [0:216629202.79394493] [0:288641394.375] [0:364] [21965.061746809999:660603173.66185439] [18722.826688089262:4432695691.7873859] [20.090005319010935:114361.78767612182] [0:0.97979797979797911] [0:0.94999999999999996] [0:0.93877551020408212] [-0.87683365624135068:20.67713004484305] [-0.12972714217328873:0.31831610044313141] [-0.92965041001294779:11.80110497237569] [-1:inf] [-0.99975121811388212:4604.5157955292498] [-0.96865203761755492:30.013888888888889] [-0.99921722873909735:3310.8444321116604] [-0.99999999998307365:3742211430.7542491] [-0.92377260981912146:9.4827586206896548] [-1:inf] [-0.56218756248750257:1.6314127861089185] [-0.98430765797093345:83.619020625252517] [-0.98598155013839894:95.615606508492633] [-0.72114108801415311:3.3411821239788564] [-0.93146411833144316:26.1827239671474] [-0.94524211340809805:36.636533678799864] [-0.59170854271356776:1.3979238754325261] [-1:inf] [-1:inf] [-1:inf] [-0.94225246954760589:51.727830464522199] [-0.99081214555957109:90.620191131064018] [-0.95137316335983924:15.034249456158172] [-0.9450432624690176:27.853182104599874] [-0.19558823529411762:0.42762186115214162] [-0.96365042536736267:74.018867924528308] [-1:inf] [-0.99987578166069657:9517.5520992003894] [-0.95566502463054182:30.450704225352112] [-0.99916165035891635:1050.8413292089954] [-0.99999999986686627:70728471.139220715] [-0.97518796992481205:114.30769230769231] [-1:inf] [-0.6244021799577355:1.4868347338935575] [-0.9844506711926504:71.02445044190155] [-0.98501293914134824:63.436698318686012] [-0.75471406491499227:3.7174934725848567] [-0.92752907740435375:27.627134890418422] [-0.93507467582975889:24.113154962112816] [-0.65226939970717424:2.0831918505942273] [-1:inf] [-1:inf] [-1:inf] [-0.96661578815359017:30.281462846970292] [-0.99330685703767341:176.34541615051552] [-0.94197950344048942:23.091021119632519] [-0.95492176668647255:54.605726872246699] [-0.25806451612903225:0.49151234567901225] [-0.98817907444668007:62.111111111111114] [-1:inf] [-0.99993439188970068:55517.510405858142] [-0.9449171518137035:26.567901234567902] [-0.9995336288724137:695.07416184633723] [-0.99999999989849608:1110088337.2314115] [-0.99299533022014674:95.709677419354833] [-1:inf] [-0.64702433304016416:2.9167305236270753] [-0.98425277278344547:131.12806549218018] [-0.98644541239139694:109.87891732675828] [-0.74823087129588672:5.1164522681110363] [-0.92695643887350654:22.502387279143978] [-0.92662172800472276:24.85716813139824] [-0.66666666666666674:2.1903114186851211] [-1:inf] [-1:inf] [-1:inf] [-0.96289553529482341:60.017476725197234] [-0.99529940019954499:158.74966502401932] [-0.96024782223284633:37.377250079467466] [-0.97384073749484257:98] [-0.27002477291494631:0.61373707533234834] [-0.98541990668740276:76.960784313725483] [-1:inf] [-0.99993290468634233:1927.0161273220237] [-0.96462158531124054:23.53846153846154] [-0.99959138834309291:3965.0427776936212] [-0.99999999597214473:55793495230.68309] [-0.99093400801180687:148.90000000000001] [-1:inf] [-0.66083974573435933:2.1154002438033319] [-0.99361271705842413:124.45761252654552] [-0.99055972116990842:94.181135302992985] [-0.79898162497232672:3.977410468319559] [-0.93010874717805159:28.61370307165274] [-0.94077844512515507:29.2586898997106] [-0.72476340694006303:2.5233644859813085] [-1:inf] [-1:inf] [-1:inf] [-0.97469115982396248:108.0693264069582] [-0.99227837962495713:180.74262324288463] [-0.97209409084011666:25.561192333076544] [-0.96029618281629003:45.592788971367973] [-0.2986270022883295:0.8396887159533073] [-0.98616700201207241:32.411764705882355] [-1:inf] [-0.99996979478522263:7474.096360009944] [-0.96327810120913571:41.942307692307693] [-0.9993014364768098:1357.9857436765344] [-0.99999999999193034:27069338911.765614] [-0.99199466310873918:47.625] [-1:inf] [-0.66100770967993139:1.6735277301315037] [-0.99053517541642033:173.68052252564812] [-0.99475860387297654:114.67882957523902] [-0.80915524104378589:4.1389992057188243] [-0.96953516752729985:24.462492177104309] [-0.97224008306495802:22.652000890399673] [-0.76881134133042528:2.2300531914893615] [-1:inf] [-1:inf] [-1:inf] [-0.96656370127303448:74.10334750664758] [-0.99474192198407863:303.26714740398148] [-0.96135186073745282:27.767202128904206] [-0.11334232368256625:0.54865976661764337] [-0.11705219118424941:0.57940987572740843] [-0.25616538146111612:0.25969687227122601] [-0.37647962254894973:0.40507877410126397] [12.414213870363739:90.872897405516795] [-0.40657295400409776:0.97224508268950127] [-0.61097930253116273:1.7729940146434853] [-0.70922722544389849:2.2004757318529351] [-0.74483254191630888:2.8328481217830661] [-0.78097831155103825:2.8953139327450512] [-9.7779257920621574e-07:2.446487384494149e-06] [-623.93794684838008:1359.6390240030098] [-549.48307148542017:3336.424668391629] [-319.430594139785:4961.8153620819694] [-15062.567804376906:7666.34471567541] [-2687.9501951803572:14229.722132540221] [0:1.8022058308161866e-06] [-0.056676260018367675:inf] [-0.13960826884182276:inf] [-0.22147761541755351:inf] [-0.33826774896447509:inf] [-0.48934376575353289:inf]\ntree_sizes=750 788 808 809 814 816 814 809 816 815 812 812 805 817 815 810 820 816 821 817 819 818 821 816 814 813 822 813 812 821 822 820 821 817 811 819 810 811 814 814 821 824 820 806 811 817 811 813 821 814 818 815 816 820 820 818 821 822 818 720 799 818 820 821 814 813 818 816 808 808 820 814 811 817 719 815 817 815 819 822 815 815 817 818 818 811\n\nTree=0\nnum_leaves=7\nnum_cat=0\nsplit_feature=145 49 23 149 25 61\nsplit_gain=55.1568 23.7662 17.2882 12.5237 16.7669 6.50099\nthreshold=0.019676475286781517 -0.019523626561280146 0.20881782945736704 0.11629264902587845 -0.013696512146430305 -0.01325345730046623\ndecision_type=10 8 2 10 10 10\nleft_child=1 -1 -2 4 -3 -4\nright_child=2 3 5 -5 -6 -7\nleaf_value=0.00016163849504664541 -5.3453468717634683e-05 8.9007747010327886e-05 0 0 0 5.3447356913238769e-05\nleaf_weight=1400 1972 1722 1017 1745 1351 1000\nleaf_count=1400 1972 1722 1017 1745 1351 1000\ninternal_value=0.00282159 0.00576552 -0.00176736 0.00409921 0.00602018 0.00148736\ninternal_weight=10207 6218 3989 4818 3073 2017\ninternal_count=10207 6218 3989 4818 3073 2017\nis_linear=0\nshrinkage=0.05\n\n\nTree=1\nnum_leaves=7\nnum_cat=0\nsplit_feature=140 145 23 45 96 42\nsplit_gain=29.6292 20.4284 19.7053 15.2093 15.0615 13.0117\nthreshold=0.10030168893665065 -0.070720009496119271 0.27272727272727049 -0.28727821437500978 0.059065749748406622 -0.9004628143643657\ndecision_type=8 10 2 10 10 10\nleft_child=1 -1 5 -4 -5 -3\nright_child=-2 2 3 4 -6 -7\nleaf_value=7.93719272769522e-05 0.00016631043981760741 0 8.1410253987996835e-05 5.989905272144825e-05 -2.7495263202581556e-05 -5.6171708856709301e-05\nleaf_weight=1757 1177 1916 1038 1459 1024 1836\nleaf_count=1757 1177 1916 1038 1459 1024 1836\ninternal_value=0.00222396 0.00125138 8.24969e-05 0.0027691 0.000644382 -0.0024387\ninternal_weight=10207 9030 7273 3521 2483 3752\ninternal_count=10207 9030 7273 3521 2483 3752\nis_linear=0\nshrinkage=0.05\n\n\nTree=2\nnum_leaves=7\nnum_cat=0\nsplit_feature=146 17 52 42 87 149\nsplit_gain=27.4351 17.4946 13.5836 12.6299 10.7271 10.4711\nthreshold=-0.10504821955370107 908008.33720800013 1.9989330548652682 -0.13822596625365904 0.1237911539740605 0.11314348729031888\ndecision_type=10 2 10 10 8 10\nleft_child=4 2 5 -3 -1 -2\nright_child=1 3 -4 -5 -6 -7\nleaf_value=0.00011831571476977843 -1.6418019076809293e-06 0.00012030967659666203 4.6148198336595675e-05 2.808585442835465e-06 5.7767380567383953e-05 -6.0761369808460591e-05\nleaf_weight=1284 2709 1077 1003 1437 1015 1682\nleaf_count=1284 2709 1077 1003 1437 1015 1682\ninternal_value=0.00189086 0.000493171 -0.00111235 0.00393795 0.00669856 -0.00231155\ninternal_weight=10207 7908 5394 2514 2299 4391\ninternal_count=10207 7908 5394 2514 2299 4391\nis_linear=0\nshrinkage=0.05\n\n\nTree=3\nnum_leaves=7\nnum_cat=0\nsplit_feature=49 24 42 26 66 149\nsplit_gain=27.2697 17.1009 13.7065 14.9226 12.0029 10.3973\nthreshold=-0.0097979216166269572 0.3333333333333301 8.3027724891210593 0.0067057884500802975 -0.5654078024988346 0.10887642360490836\ndecision_type=8 2 8 10 10 10\nleft_child=1 -1 3 4 -2 -4\nright_child=2 -3 5 -5 -6 -7\nleaf_value=0.00012802080671826842 3.0380684904230299e-06 1.3793439851724543e-05 -1.2155145901488142e-06 -5.5729944229824474e-06 0.00013286915504286299 -6.1726585846918176e-05\nleaf_weight=1951 1166 1121 2151 1300 1041 1477\nleaf_count=1951 1166 1121 2151 1300 1041 1477\ninternal_value=0.00156265 0.0055013 -0.000133146 0.00209581 0.004599 -0.00228776\ninternal_weight=10207 3072 7135 3507 2207 3628\ninternal_count=10207 3072 7135 3507 2207 3628\nis_linear=0\nshrinkage=0.05\n\n\nTree=4\nnum_leaves=7\nnum_cat=0\nsplit_feature=49 45 26 96 24 85\nsplit_gain=25.0353 12.1356 13.5404 10.6915 10.621 8.84624\nthreshold=-0.01271816235898404 -0.067969270849825777 -0.0027576700967227859 0.092077736181457773 0.24190177638453522 0.10140653800074852\ndecision_type=8 10 10 10 2 8\nleft_child=4 2 -2 5 -1 -3\nright_child=1 3 -4 -5 -6 -7\nleaf_value=0.00014301524019479073 7.8028764019163642e-05 2.1660610540020571e-05 -4.9052615868276873e-08 -5.2885286518649083e-05 5.3427141399151884e-05 -9.5563202928315176e-06\nleaf_weight=1226 1270 1306 2453 1544 1349 1059\nleaf_count=1226 1270 1306 2453 1544 1349 1059\ninternal_value=0.00150387 6.55136e-05 0.00210851 -0.00188028 0.00576699 0.000232558\ninternal_weight=10207 7632 3723 3909 2575 2365\ninternal_count=10207 7632 3723 3909 2575 2365\nis_linear=0\nshrinkage=0.05\n\n\nTree=5\nnum_leaves=7\nnum_cat=0\nsplit_feature=149 145 23 37 72 24\nsplit_gain=22.5447 13.1891 12.6958 12.1028 10.3142 9.98909\nthreshold=-0.30170399495519595 -0.010141288291991788 0.20881782945736704 0.12831013287986484 -0.0021780575379588547 0.22727272727272843\ndecision_type=10 10 2 10 10 2\nleft_child=-1 3 -3 5 -4 -2\nright_child=1 2 4 -5 -6 -7\nleaf_value=0.00011779659064654358 0.00010851587685053984 -2.7549512836474154e-05 6.2058949205189487e-05 -2.2938986637054777e-06 -2.9613785297949557e-06 3.1463653893549239e-05\nleaf_weight=1346 1023 2169 1010 1562 1978 1119\nleaf_count=1346 1023 2169 1010 1562 1978 1119\ninternal_value=0.00147448 0.000558628 -0.00107621 0.00283477 0.00103748 0.00527544\ninternal_weight=10207 8861 5157 3704 2988 2142\ninternal_count=10207 8861 5157 3704 2988 2142\nis_linear=0\nshrinkage=0.05\n\n\nTree=6\nnum_leaves=7\nnum_cat=0\nsplit_feature=140 49 152 135 77 91\nsplit_gain=25.1742 14.7008 15.5992 12.6604 9.6926 9.59546\nthreshold=0.10030168893665065 0.0088456452508939316 -0.30490235778583236 -0.59083456837866133 -0.7210072980328478 0.093434276765847937\ndecision_type=8 10 8 10 10 8\nleft_child=1 2 -1 -3 -4 -6\nright_child=-2 3 4 -5 5 -7\nleaf_value=6.1594487628931151e-05 0.00014574679594430998 -6.5425076471370826e-05 5.5522775086610069e-05 4.3593291932953268e-06 -1.2062861157245427e-05 2.6783530816900906e-05\nleaf_weight=1738 1177 1521 1013 1468 1831 1459\nleaf_count=1738 1177 1521 1013 1468 1831 1459\ninternal_value=0.0014059 0.000509413 0.00192849 -0.00235865 0.000313735 -0.00100304\ninternal_weight=10207 9030 6041 2989 4303 3290\ninternal_count=10207 9030 6041 2989 4303 3290\nis_linear=0\nshrinkage=0.05\n\n\nTree=7\nnum_leaves=7\nnum_cat=0\nsplit_feature=140 146 24 86 49 123\nsplit_gain=25.0544 12.9307 11.3531 12.3473 9.44223 10.631\nthreshold=0.10030168893665065 0.15976303094973701 0.44444444444444081 -0.43640177506198319 -0.0092592592592593542 -0.3772367798102379\ndecision_type=8 10 2 10 10 10\nleft_child=1 2 3 -1 -5 -6\nright_child=-2 -3 -4 4 5 -7\nleaf_value=7.7951160349323269e-05 0.0001384594561470945 -5.2459398916772947e-05 -9.0560141924137773e-06 5.5529352792561613e-05 3.8506692328579184e-05 -1.1617682942132287e-05\nleaf_weight=1360 1177 1354 1516 1590 1372 1838\nleaf_count=1360 1177 1354 1516 1590 1372 1838\ninternal_value=0.00133732 0.000442968 0.00123762 0.00219156 0.001 -0.000560748\ninternal_weight=10207 9030 7676 6160 4800 3210\ninternal_count=10207 9030 7676 6160 4800 3210\nis_linear=0\nshrinkage=0.05\n\n\nTree=8\nnum_leaves=7\nnum_cat=0\nsplit_feature=49 118 119 133 142 24\nsplit_gain=25.7784 12.9548 16.1723 11.9632 10.8247 10.6416\nthreshold=-0.012422360248447171 0.0073304853255955491 0.033586699613236022 -0.15128602230452906 0.0024273397300631156 0.312499999999999\ndecision_type=8 10 10 10 10 2\nleft_child=5 3 -3 -2 -5 -1\nright_child=1 2 -4 4 -6 -7\nleaf_value=0.0001100203834257363 7.3947197028094918e-05 -4.4092940479955304e-05 2.4150010367925337e-06 2.8008560022654288e-05 -7.6956021089349135e-06 3.6149096087925921e-05\nleaf_weight=1605 1006 1725 1961 1056 1846 1008\nleaf_count=1605 1006 1725 1961 1056 1846 1008\ninternal_value=0.00113158 -0.000342376 -0.0024688 0.00166325 3.4459e-05 0.00541523\ninternal_weight=10207 7594 3686 3908 2902 2613\ninternal_count=10207 7594 3686 3908 2902 2613\nis_linear=0\nshrinkage=0.05\n\n\nTree=9\nnum_leaves=7\nnum_cat=0\nsplit_feature=146 23 96 42 23 130\nsplit_gain=23.0064 14.049 11.8562 11.0716 8.31617 8.20858\nthreshold=-0.13727346695988832 0.27130750605326887 -0.082070417145044025 26.015402776446042 0.076923076923076303 -0.017248476064565695\ndecision_type=10 2 10 10 2 8\nleft_child=-1 3 -3 4 -2 -4\nright_child=1 2 5 -5 -6 -7\nleaf_value=8.9510337940640385e-05 -8.8460239665850927e-06 7.3644306919441293e-05 -1.8112278100674015e-05 -7.7609188839744536e-05 7.2665942385587619e-06 3.9887344464991503e-05\nleaf_weight=1654 1246 1710 1005 1043 2449 1100\nleaf_count=1654 1246 1710 1005 1043 2449 1100\ninternal_value=0.00113158 8.76885e-05 0.002346 -0.00173069 -0.000446549 -0.000166271\ninternal_weight=10207 8553 3815 4738 3695 2105\ninternal_count=10207 8553 3815 4738 3695 2105\nis_linear=0\nshrinkage=0.05\n\n\nTree=10\nnum_leaves=7\nnum_cat=0\nsplit_feature=49 17 111 61 49 117\nsplit_gain=21.3881 11.8308 10.2529 9.69999 9.38008 8.62241\nthreshold=-0.012422360248447171 1011726.1443550001 6.562395178530136 0.032490625316712325 0.0088456452508939316 0.09917438182776607\ndecision_type=8 2 10 10 8 8\nleft_child=3 4 -3 -1 -2 -6\nright_child=1 2 -4 -5 5 -7\nleaf_value=0.00011359243352085336 9.3105354900189696e-07 6.7054704356853101e-05 -3.4546864084159889e-06 3.055368898194998e-05 -8.1289128949690891e-05 -6.6898396043803982e-06\nleaf_weight=1408 3244 1023 1180 1205 1019 1128\nleaf_count=1408 3244 1023 1180 1205 1019 1128\ninternal_value=0.00109239 -0.000250198 0.00283704 0.00499426 -0.00151178 -0.00407545\ninternal_weight=10207 7594 2203 2613 5391 2147\ninternal_count=10207 7594 2203 2613 5391 2147\nis_linear=0\nshrinkage=0.05\n\n\nTree=11\nnum_leaves=7\nnum_cat=0\nsplit_feature=140 26 24 66 118 3\nsplit_gain=21.913 12.7245 14.3642 10.0701 8.53587 8.21037\nthreshold=0.10030168893665065 0.0056298409302509853 0.20689655172413576 0.52721398694553256 -0.0011940404904476896 94549393175.030518\ndecision_type=8 10 2 10 10 2\nleft_child=1 2 5 4 -4 -1\nright_child=-2 -3 3 -5 -6 -7\nleaf_value=2.165279200387514e-05 0.00012128282273901526 -2.3746413909460362e-05 4.7941088302820133e-06 3.9659817578563221e-05 -3.2582312736041925e-05 0.00010541933115963306\nleaf_weight=1010 1177 2810 1256 1416 1306 1232\nleaf_count=1010 1177 2810 1256 1416 1306 1232\ninternal_value=0.00110218 0.000265781 0.00152733 -0.000276521 -0.00214676 0.00472792\ninternal_weight=10207 9030 6220 3978 2562 2242\ninternal_count=10207 9030 6220 3978 2562 2242\nis_linear=0\nshrinkage=0.05\n\n\nTree=12\nnum_leaves=7\nnum_cat=0\nsplit_feature=49 42 118 89 32 24\nsplit_gain=18.5614 11.461 14.7829 14.7053 12.683 9.45504\nthreshold=-0.012422360248447171 6.1760137941486377 0.014206467585188844 24.150583751466041 -0.1644518006496288 0.312499999999999\ndecision_type=8 8 10 8 10 2\nleft_child=5 3 -3 4 -2 -1\nright_child=1 2 -4 -5 -6 -7\nleaf_value=9.7323160894245616e-05 4.3380407232802609e-05 1.7098073481688269e-06 -6.1631050539688083e-05 6.6461514455474761e-05 -1.8288727032452814e-05 2.4853634197774619e-05\nleaf_weight=1605 1045 2327 1626 1330 1266 1008\nleaf_count=1605 1045 2327 1626 1330 1266 1008\ninternal_value=0.0010532 -0.000197524 -0.00206173 0.00182642 -0.000584163 0.0046881\ninternal_weight=10207 7594 3953 3641 2311 2613\ninternal_count=10207 7594 3953 3641 2311 2613\nis_linear=0\nshrinkage=0.05\n\n\nTree=13\nnum_leaves=7\nnum_cat=0\nsplit_feature=146 23 45 158 99 19\nsplit_gain=18.1161 11.8588 19.058 11.3023 10.9309 8.62221\nthreshold=-0.13727346695988832 0.27130750605326887 -0.29192217871350729 -0.044786118864962858 -0.097283677482792527 8166041.3462960711\ndecision_type=10 2 10 10 10 2\nleft_child=-1 3 -3 -2 -4 -5\nright_child=1 2 4 5 -6 -7\nleaf_value=7.5289221877115561e-05 6.0276718964244766e-06 7.2259667875154351e-05 6.5677249587082042e-05 -1.8624298315782009e-05 -1.4855194666032798e-05 -2.0253176091898171e-05\nleaf_weight=1654 1512 1052 1242 1389 1521 1837\nleaf_count=1654 1512 1052 1242 1389 1521 1837\ninternal_value=0.00101401 8.76885e-05 0.00216252 -0.00158295 -1.80963e-05 -0.0032548\ninternal_weight=10207 8553 3815 4738 2763 3226\ninternal_count=10207 8553 3815 4738 2763 3226\nis_linear=0\nshrinkage=0.05\n\n\nTree=14\nnum_leaves=7\nnum_cat=0\nsplit_feature=140 26 22 88 26 25\nsplit_gain=18.262 13.1426 11.6498 11.4823 10.794 10.5047\nthreshold=0.10030168893665065 -0.0011337883055264062 0.33333333333332987 0.97541638467530067 0.0093512597693612438 -0.27404984242639341\ndecision_type=8 10 2 8 10 10\nleft_child=1 5 3 -3 -4 -1\nright_child=-2 2 4 -5 -6 -7\nleaf_value=7.4322313096154835e-05 0.00011381315024416176 3.5241439644648036e-05 -5.6956422660256039e-05 -1.1741225382937562e-05 -1.8602470736724346e-05 1.2557257346372878e-05\nleaf_weight=1016 1177 1035 1053 1385 1658 2883\nleaf_count=1016 1177 1035 1053 1385 1658 2883\ninternal_value=0.000896444 0.00013289 -0.00152992 0.000991736 -0.00378089 0.00232111\ninternal_weight=10207 9030 5131 2420 2711 3899\ninternal_count=10207 9030 5131 2420 2711 3899\nis_linear=0\nshrinkage=0.05\n\n\nTree=15\nnum_leaves=7\nnum_cat=0\nsplit_feature=146 118 155 133 19 45\nsplit_gain=16.4257 11.965 17.227 16.4486 10.2431 12.4846\nthreshold=-0.13727346695988832 0.012895475893155097 -0.53443453105283545 -0.18047827149100185 10990309.631564071 -0.091725687969458222\ndecision_type=10 10 10 10 2 10\nleft_child=-1 3 -3 -2 5 -5\nright_child=1 2 -4 4 -6 -7\nleaf_value=7.1024812188288659e-05 7.5198379037081365e-05 -4.8711455485776837e-05 9.8581569943745262e-06 8.2301609595339475e-06 5.4128956368412992e-05 -2.1470671483291553e-05\nleaf_weight=1654 1026 2069 1558 1392 1288 1220\nleaf_count=1654 1026 2069 1558 1392 1288 1220\ninternal_value=0.000759283 -0.000122764 -0.00230218 0.00148193 0 -0.00179939\ninternal_weight=10207 8553 3627 4926 3900 2612\ninternal_count=10207 8553 3627 4926 3900 2612\nis_linear=0\nshrinkage=0.05\n\n\nTree=16\nnum_leaves=7\nnum_cat=0\nsplit_feature=149 42 43 26 81 149\nsplit_gain=15.3616 11.5152 11.5087 9.79919 9.35226 9.5103\nthreshold=-0.30170399495519595 -1.0000000180025095e-35 13.645613642712862 0.0050861466287341903 -0.14310957683134376 0.11314348729031888\ndecision_type=10 8 10 10 10 10\nleft_child=-1 3 4 -2 -3 -6\nright_child=1 2 -4 -5 5 -7\nleaf_value=8.715567791749856e-05 5.3075026970362164e-05 2.1337048882528871e-06 1.8972635290104357e-05 -8.3619051877072198e-06 -1.0093915705497915e-05 -8.3373435329454467e-05\nleaf_weight=1346 2184 1497 1452 1161 1528 1039\nleaf_count=1346 2184 1497 1452 1161 1528 1039\ninternal_value=0.000818066 6.20697e-05 -0.00134155 0.00237668 -0.00270669 -0.00453837\ninternal_weight=10207 8861 5516 3345 4064 2567\ninternal_count=10207 8861 5516 3345 4064 2567\nis_linear=0\nshrinkage=0.05\n\n\nTree=17\nnum_leaves=7\nnum_cat=0\nsplit_feature=145 45 157 136 151 135\nsplit_gain=14.3603 13.3944 11.8255 9.38649 9.20349 9.06221\nthreshold=-0.070720009496119271 -0.059280253326722258 0.011000304852113342 2.5500000000000003 0.033749191329325197 -0.88198411251097608\ndecision_type=10 10 10 8 10 8\nleft_child=2 3 -1 5 -3 -2\nright_child=1 4 -4 -5 -6 -7\nleaf_value=0.00011189505039912007 2.0672198824376909e-06 -2.2987203074195708e-06 1.7424991078888531e-05 -1.087272109338881e-05 -4.744263475212266e-05 5.850741437453186e-05\nleaf_weight=1037 1270 2478 1104 1295 1424 1599\nleaf_count=1037 1270 2478 1104 1295 1424 1599\ninternal_value=0.000867052 -9.91818e-05 0.00450724 0.0018732 -0.002204 0.00346811\ninternal_weight=10207 8066 2141 4164 3902 2869\ninternal_count=10207 8066 2141 4164 3902 2869\nis_linear=0\nshrinkage=0.05\n\n\nTree=18\nnum_leaves=7\nnum_cat=0\nsplit_feature=149 42 117 135 49 21\nsplit_gain=14.9312 11.5941 10.5721 8.67408 11.2986 9.64704\nthreshold=-0.30170399495519595 -1.0000000180025095e-35 0.059226684277016724 2.5831485867000006 -0.0085470085470085704 2374.7967825425626\ndecision_type=10 8 10 10 10 2\nleft_child=-1 2 -2 4 -3 -6\nright_child=1 3 -4 -5 5 -7\nleaf_value=8.1368858537870541e-05 -2.9793864908232285e-06 2.4208775908839013e-05 6.1144438040505869e-05 7.2458323089264008e-06 -7.779170679203692e-06 -9.0828763191815441e-05\nleaf_weight=1346 1787 1015 1558 1774 1701 1026\nleaf_count=1346 1787 1015 1558 1774 1701 1026\ninternal_value=0.000739688 -5.6427e-06 0.00231689 -0.00141407 -0.00277926 -0.00445545\ninternal_weight=10207 8861 3345 5516 3742 2727\ninternal_count=10207 8861 3345 5516 3742 2727\nis_linear=0\nshrinkage=0.05\n\n\nTree=19\nnum_leaves=7\nnum_cat=0\nsplit_feature=140 146 118 155 152 6\nsplit_gain=15.221 10.9962 10.4642 17.1718 12.6323 12.3921\nthreshold=0.10030168893665065 0.15976303094973701 0.012895475893155097 -0.53443453105283545 -0.28739446694525389 22058239829.944103\ndecision_type=8 10 10 10 10 2\nleft_child=1 2 4 -4 -1 -6\nright_child=-2 -3 3 -5 5 -7\nleaf_value=6.9173047172718988e-05 0.00010154703793977499 -5.1456112249288799e-05 -3.4679867686805616e-05 2.4216053614966823e-05 3.5588376011357486e-05 -1.5132515258761639e-05\nleaf_weight=1499 1177 1354 1952 1522 1350 1353\nleaf_count=1499 1177 1354 1952 1522 1350 1353\ninternal_value=0.000641716 -5.5371e-05 0.000677436 -0.00135291 0.00235602 0.000314465\ninternal_weight=10207 9030 7676 3474 4202 2703\ninternal_count=10207 9030 7676 3474 4202 2703\nis_linear=0\nshrinkage=0.05\n\n\nTree=20\nnum_leaves=7\nnum_cat=0\nsplit_feature=149 66 85 23 147 67\nsplit_gain=13.5723 10.7266 15.6864 13.1027 12.6768 10.5028\nthreshold=-0.30170399495519595 -0.54770644065329199 -0.20996850690926386 0.26315789473684159 0.009862010990317251 -0.16228070175438594\ndecision_type=10 10 10 2 10 8\nleft_child=-1 4 -3 -4 5 -2\nright_child=1 2 3 -5 -6 -7\nleaf_value=7.5405828179688376e-05 3.9327109436764289e-05 6.282454154580239e-05 -2.2082761787267873e-05 5.4443008254203385e-05 -3.0551321319472704e-05 -1.3875708647271287e-05\nleaf_weight=1346 1243 1358 1396 1158 2581 1125\nleaf_count=1346 1243 1358 1396 1158 2581 1125\ninternal_value=0.000671108 -3.94989e-05 0.00191718 -0.000391543 -0.00158618 0.00105574\ninternal_weight=10207 8861 3912 2554 4949 2368\ninternal_count=10207 8861 3912 2554 4949 2368\nis_linear=0\nshrinkage=0.05\n\n\nTree=21\nnum_leaves=7\nnum_cat=0\nsplit_feature=26 89 22 26 40 62\nsplit_gain=14.5284 14.4875 12.6673 12.5279 10.7861 9.75543\nthreshold=-0.0014224779849780764 11.542516007591475 0.33333333333332987 0.0094655890093889878 -0.076597364518632902 0.34952715646153815\ndecision_type=10 10 2 10 10 10\nleft_child=1 5 4 -4 -2 -1\nright_child=2 -3 3 -5 -6 -7\nleaf_value=3.4626595842768107e-05 -9.8983008330327189e-06 0.00010855855866432236 -5.9189376841937313e-05 -8.0871850861580874e-06 3.1800124898071886e-05 -2.0600388704785518e-05\nleaf_weight=2244 1328 1193 1141 1812 1480 1009\nleaf_count=2244 1328 1193 1141 1812 1480 1009\ninternal_value=0.000641716 0.00278902 -0.00101545 -0.00330173 0.00138889 0.00106056\ninternal_weight=10207 4446 5761 2953 2808 3253\ninternal_count=10207 4446 5761 2953 2808 3253\nis_linear=0\nshrinkage=0.05\n\n\nTree=22\nnum_leaves=7\nnum_cat=0\nsplit_feature=118 155 156 152 131 101\nsplit_gain=13.7625 18.9756 16.1341 12.5353 7.22675 10.3165\nthreshold=0.006702424912176764 -0.30887604039420918 3.3053007527503265e-07 -0.32209634129597425 0.58436999816691415 -0.17710949534053264\ndecision_type=10 10 2 10 10 10\nleft_child=2 -2 3 -1 5 -5\nright_child=1 -3 -4 4 -6 -7\nleaf_value=5.4883448436218941e-05 -2.9457270602600589e-05 2.2611669908989004e-05 0.00010579658921290865 8.010357246019955e-06 2.910255331166087e-05 -4.373966427485082e-05\nleaf_weight=1287 2902 1676 1000 1074 1037 1231\nleaf_count=1287 2902 1676 1000 1074 1037 1231\ninternal_value=0.000484961 -0.0015509 0.0021407 0.000896522 -0.000718133 -0.00227766\ninternal_weight=10207 4578 5629 4629 3342 2305\ninternal_count=10207 4578 5629 4629 3342 2305\nis_linear=0\nshrinkage=0.05\n\n\nTree=23\nnum_leaves=7\nnum_cat=0\nsplit_feature=145 24 66 47 99 131\nsplit_gain=12.9662 15.3833 12.5736 10.8351 10.5431 11.8384\nthreshold=0.019676475286781517 0.20000000000000781 -0.5654078024988346 -0.029106183878116084 -0.27934552199258078 0.45462949353947019\ndecision_type=10 2 10 10 10 8\nleft_child=1 3 -3 -1 -2 -6\nright_child=4 2 -4 -5 5 -7\nleaf_value=0.00011041124364529411 1.4303626178948799e-05 -1.3525835376678981e-05 4.6047382021685798e-05 2.2212655845664056e-05 -6.4170514598194505e-05 8.2924210309668854e-06\nleaf_weight=1152 1012 2148 1766 1152 1910 1067\nleaf_count=1152 1012 2148 1766 1152 1910 1067\ninternal_value=0.000582933 0.00201029 0.000102197 0.00525174 -0.00164202 -0.00314075\ninternal_weight=10207 6218 3914 2304 3989 2977\ninternal_count=10207 6218 3914 2304 3989 2977\nis_linear=0\nshrinkage=0.05\n\n\nTree=24\nnum_leaves=7\nnum_cat=0\nsplit_feature=149 43 40 27 118 19\nsplit_gain=13.2082 8.78695 9.6757 12.983 11.0133 12.8212\nthreshold=-0.29879415233205209 13.645613642712862 -0.40493921667038058 -0.14548846675712349 0.012895475893155097 8166041.3462960711\ndecision_type=10 10 8 10 10 2\nleft_child=-1 2 -2 -4 5 -5\nright_child=1 -3 3 4 -6 -7\nleaf_value=6.6699779286603407e-05 -3.7312381736573556e-05 3.1319088356238277e-05 2.8819714875619685e-05 -1.1829152091051936e-05 -3.6878237931949216e-05 5.60531502281309e-05\nleaf_weight=1387 1434 1997 1263 1182 1917 1027\nleaf_count=1387 1434 1997 1263 1182 1917 1027\ninternal_value=0.000475164 -0.000238095 -0.0010919 -0.000120616 -0.00147843 0.000928022\ninternal_weight=10207 8820 6823 5389 4126 2209\ninternal_count=10207 8820 6823 5389 4126 2209\nis_linear=0\nshrinkage=0.05\n\n\nTree=25\nnum_leaves=7\nnum_cat=0\nsplit_feature=140 146 5 86 23 135\nsplit_gain=11.8096 10.3796 9.34472 10.6161 9.67708 9.22889\nthreshold=0.10030168893665065 0.15976303094973701 116134057762.64131 -0.4259779540687007 0.22222222222221888 -0.86778718416340694\ndecision_type=8 10 2 10 2 10\nleft_child=1 2 3 -1 -5 -6\nright_child=-2 -3 -4 4 5 -7\nleaf_value=4.7609619464549817e-05 8.5960759318465672e-05 -4.7869882992128551e-05 -2.3013428280156282e-05 -1.2682973640305114e-05 -3.2577073325372951e-06 5.997071977598027e-05\nleaf_weight=1536 1177 1354 1043 2377 1272 1448\nleaf_count=1536 1177 1354 1043 2377 1272 1448\ninternal_value=0.000514353 -9.96678e-05 0.000612298 0.00130409 0.000206004 0.00224265\ninternal_weight=10207 9030 7676 6633 5097 2720\ninternal_count=10207 9030 7676 6633 5097 2720\nis_linear=0\nshrinkage=0.05\n\n\nTree=26\nnum_leaves=7\nnum_cat=0\nsplit_feature=26 45 136 151 49 118\nsplit_gain=11.6548 10.711 11.8714 8.31659 8.06734 11.2382\nthreshold=-0.013806289662291303 -0.049620788858699576 0.43303571428571436 0.033749191329325197 0.0088456452508939316 0.012895475893155097\ndecision_type=10 10 10 10 8 10\nleft_child=-1 4 3 -3 5 -2\nright_child=1 2 -4 -5 -6 -7\nleaf_value=8.239313598492644e-05 5.1759121569282741e-05 -1.3573414936855458e-05 8.0026366342051725e-06 -6.3799880925998641e-05 -9.9515780430441455e-06 -4.7432118312839195e-06\nleaf_weight=1340 2096 1670 1579 1024 1396 1102\nleaf_count=1340 2096 1670 1579 1024 1396 1102\ninternal_value=0.000504556 -0.00015225 -0.00195413 -0.00397179 0.00152373 0.00290807\ninternal_weight=10207 8867 4273 2694 4594 3198\ninternal_count=10207 8867 4273 2694 4594 3198\nis_linear=0\nshrinkage=0.05\n\n\nTree=27\nnum_leaves=7\nnum_cat=0\nsplit_feature=145 23 157 52 17 21\nsplit_gain=12.3842 19.1343 10.8161 10.4577 9.46666 10.9295\nthreshold=-0.070720009496119271 0.076923076923076303 0.011000304852113342 2.6404621281804812 551811.92767300014 2687.2698486930099\ndecision_type=10 2 10 10 2 2\nleft_child=2 -2 -1 4 5 -3\nright_child=1 3 -4 -5 -6 -7\nleaf_value=9.4015570388770192e-05 -3.7843264980605217e-05 7.613019406848621e-07 2.024198230050233e-06 4.9192852582492093e-05 2.6127462947616297e-05 -6.6206769521933069e-05\nleaf_weight=1037 1269 2423 1104 1059 2055 1260\nleaf_count=1037 1269 2423 1104 1059 2055 1260\ninternal_value=0.000426178 -0.000471113 0.00380663 0.000581139 -0.000261415 -0.00177844\ninternal_weight=10207 8066 2141 6797 5738 3683\ninternal_count=10207 8066 2141 6797 5738 3683\nis_linear=0\nshrinkage=0.05\n\n\nTree=28\nnum_leaves=7\nnum_cat=0\nsplit_feature=145 42 54 35 1 62\nsplit_gain=11.6799 13.4895 9.56726 10.7562 7.41908 8.85335\nthreshold=0.019676475286781517 -0.6220140791041544 -0.29191545239870914 0.017067159709965755 165.50000000000003 -0.11816018046648562\ndecision_type=10 8 8 10 2 10\nleft_child=1 -1 -3 -4 -2 -6\nright_child=4 2 3 -5 5 -7\nleaf_value=6.4628475246553257e-05 4.7009850459023207e-06 3.130083280869128e-05 6.8228380262089044e-06 -4.8680930900771379e-05 -7.907025831710001e-05 -1.0177185240175617e-05\nleaf_weight=1959 1391 1635 1453 1171 1004 1594\nleaf_count=1959 1391 1635 1453 1171 1004 1594\ninternal_value=0.000494758 0.00184947 0.000270016 -0.00160061 -0.00161695 -0.00319477\ninternal_weight=10207 6218 4259 2624 3989 2598\ninternal_count=10207 6218 4259 2624 3989 2598\nis_linear=0\nshrinkage=0.05\n\n\nTree=29\nnum_leaves=7\nnum_cat=0\nsplit_feature=118 155 156 155 61 146\nsplit_gain=11.5749 19.8591 13.8887 11.0241 7.38586 10.2895\nthreshold=0.006702424912176764 -0.30887604039420918 3.3053007527503265e-07 0.37185391334822787 0.086585188153436979 0.01154800263744671\ndecision_type=10 10 2 10 10 8\nleft_child=2 -2 3 4 5 -1\nright_child=1 -3 -4 -5 -6 -7\nleaf_value=4.6154156635099238e-05 -2.9422256954292734e-05 2.1318683712662903e-05 9.7729266298547868e-05 -3.3246183069428791e-05 3.9344235152770731e-05 -1.808372785236824e-05\nleaf_weight=1306 2902 1676 1000 1058 1210 1055\nleaf_count=1306 2902 1676 1000 1058 1210 1055\ninternal_value=0.000338003 -0.00152905 0.00185646 0.000702095 0.00203024 0.000402372\ninternal_weight=10207 4578 5629 4629 3571 2361\ninternal_count=10207 4578 5629 4629 3571 2361\nis_linear=0\nshrinkage=0.05\n\n\nTree=30\nnum_leaves=7\nnum_cat=0\nsplit_feature=149 53 155 49 77 111\nsplit_gain=11.0686 8.89975 11.0261 8.98415 8.8795 6.04745\nthreshold=-0.29879415233205209 0.31072796934865904 -0.52173959345351562 0.0088456452508939316 0.20815637319384886 -0.88235354982270398\ndecision_type=10 10 10 10 10 10\nleft_child=-1 2 3 5 -4 -2\nright_child=1 -3 4 -5 -6 -7\nleaf_value=5.8241014707686939e-05 4.1082657504912077e-06 2.0439533141291865e-05 3.1451385730173647e-05 -6.0923519848055749e-05 -2.3422160811494807e-05 -2.2125957096888718e-05\nleaf_weight=1387 1496 1868 1847 1206 1161 1242\nleaf_count=1387 1496 1868 1847 1206 1161 1242\ninternal_value=0.000426178 -0.000226757 -0.00105006 -0.00278905 0.00123005 -0.00120526\ninternal_weight=10207 8820 6952 3944 3008 2738\ninternal_count=10207 8820 6952 3944 3008 2738\nis_linear=0\nshrinkage=0.05\n\n\nTree=31\nnum_leaves=7\nnum_cat=0\nsplit_feature=149 42 135 27 118 140\nsplit_gain=10.6569 9.11033 10.4773 9.58455 13.4143 10.1706\nthreshold=-0.30559071356261103 -0.48283267616333614 176.36761480989662 -0.19168825561312605 0.012895475893155097 0.019141527643319729\ndecision_type=10 8 8 10 10 10\nleft_child=-1 2 -2 -3 -5 -6\nright_child=1 3 -4 4 5 -7\nleaf_value=5.624450401189417e-05 3.9596611605149668e-05 1.8660881735527691e-05 -1.2022502241418599e-05 1.1963832659976929e-06 -9.8481974681649282e-05 -2.2331934155473892e-05\nleaf_weight=1305 1868 1017 1066 2696 1039 1216\nleaf_count=1305 1868 1017 1066 2696 1039 1216\ninternal_value=0.000416381 -0.000202202 0.00207907 -0.00132373 -0.00223187 -0.00507761\ninternal_weight=10207 8902 2934 5968 4951 2255\ninternal_count=10207 8902 2934 5968 4951 2255\nis_linear=0\nshrinkage=0.05\n\n\nTree=32\nnum_leaves=7\nnum_cat=0\nsplit_feature=26 23 45 102 158 102\nsplit_gain=9.84154 15.3713 15.3912 13.7321 13.6804 9.56931\nthreshold=-0.01506476615172264 0.27130750605326887 -0.29192217871350729 -0.15345368916797483 -0.044786118864962858 0.16145324209840342\ndecision_type=10 2 10 10 8 10\nleft_child=-1 4 -3 -4 -2 -6\nright_child=1 2 3 -5 5 -7\nleaf_value=7.6507724642619135e-05 7.9649202320813781e-06 5.9274422966822301e-05 5.7722105906150285e-05 -2.4913362234011778e-05 -5.1854803344978351e-05 -3.8754307307781815e-06\nleaf_weight=1188 1498 1227 1143 1791 1994 1366\nleaf_count=1188 1498 1227 1143 1791 1994 1366\ninternal_value=0.000435975 -0.000127509 0.00210286 0.000136333 -0.00203788 -0.00380952\ninternal_weight=10207 9019 4161 2934 4858 3360\ninternal_count=10207 9019 4161 2934 4858 3360\nis_linear=0\nshrinkage=0.05\n\n\nTree=33\nnum_leaves=7\nnum_cat=0\nsplit_feature=146 149 85 117 123 85\nsplit_gain=9.98256 10.9907 11.828 13.0869 16.6417 10.5203\nthreshold=0.15976303094973701 -0.29879415233205209 -0.32055349297434138 0.16695040900468075 -0.30687896054273961 -0.55814030369156187\ndecision_type=10 10 10 10 8 10\nleft_child=1 -1 5 4 -4 -3\nright_child=-2 2 3 -5 -6 -7\nleaf_value=6.3841468001952066e-05 -3.551041056015917e-05 -3.5471460370894953e-06 1.0205018043357397e-06 1.6912263251534507e-05 -5.4734222669518127e-05 6.0372834646979451e-05\nleaf_weight=1269 1554 1022 1714 1959 1421 1268\nleaf_count=1269 1554 1022 1714 1959 1421 1268\ninternal_value=0.00027922 0.00094187 0.000203142 -0.00113859 -0.00314195 0.00318777\ninternal_weight=10207 8653 7384 5094 3135 2290\ninternal_count=10207 8653 7384 5094 3135 2290\nis_linear=0\nshrinkage=0.05\n\n\nTree=34\nnum_leaves=7\nnum_cat=0\nsplit_feature=146 62 40 117 23 21\nsplit_gain=9.63461 9.48568 15.7038 10.9598 9.2125 5.59001\nthreshold=0.15593763774719707 0.75241199626333266 -0.076597364518632902 0.17494159241830146 0.24999999999999983 2099.914779984219\ndecision_type=10 8 10 8 2 2\nleft_child=1 2 4 5 -1 -4\nright_child=-2 -3 3 -5 -6 -7\nleaf_value=-2.3037415803677124e-05 -3.0852762876963148e-05 -1.7568640293718533e-05 1.7734963421375026e-05 0.00011355563278803256 2.1287974805118788e-05 -2.4829833610745837e-06\nleaf_weight=1810 1594 1735 1025 1308 1638 1097\nleaf_count=1810 1594 1735 1025 1308 1638 1097\ninternal_value=0.000308612 0.000969465 0.00180285 0.00419825 -0.000580046 0.00197926\ninternal_weight=10207 8613 6878 3430 3448 2122\ninternal_count=10207 8613 6878 3430 3448 2122\nis_linear=0\nshrinkage=0.05\n\n\nTree=35\nnum_leaves=7\nnum_cat=0\nsplit_feature=26 23 22 45 81 153\nsplit_gain=9.46054 12.8964 9.39946 9.47814 9.05587 8.42091\nthreshold=-0.015487470575966165 0.083333333333332829 0.33333333333332987 -0.20450793449256774 0.099868410570241442 -0.10961408450633735\ndecision_type=10 2 2 10 8 8\nleft_child=-1 -2 4 -4 -3 -5\nright_child=1 2 3 5 -6 -7\nleaf_value=7.6756576548429599e-05 -2.4914263599027628e-05 4.4599361358306028e-05 2.5230448370986065e-05 -1.2360523846135195e-06 -5.9428596529430298e-06 -6.4247435911461668e-05\nleaf_weight=1150 1689 2375 1227 1299 1431 1036\nleaf_count=1150 1689 2375 1227 1299 1431 1036\ninternal_value=0.000249829 -0.000292591 0.000610749 -0.00123526 0.00233841 -0.00310493\ninternal_weight=10207 9057 7368 3562 3806 2335\ninternal_count=10207 9057 7368 3562 3806 2335\nis_linear=0\nshrinkage=0.05\n\n\nTree=36\nnum_leaves=7\nnum_cat=0\nsplit_feature=149 43 40 20 25 7\nsplit_gain=9.28398 9.82346 10.8691 9.7177 9.57301 11.5826\nthreshold=0.47834815995570251 6.2711564489603067 -0.065204777752719253 4956021.4344544858 -0.1742463719455303 78.500000000000014\ndecision_type=10 10 8 2 10 2\nleft_child=1 2 3 -1 -4 -6\nright_child=-2 -3 4 -5 5 -7\nleaf_value=-8.9460919064992326e-07 -3.5510528750717734e-05 3.9946529820922967e-05 3.7604826751430297e-05 -7.9424910106834571e-05 -1.4373841907894665e-05 4.3641671285205128e-05\nleaf_weight=1952 1076 2345 1133 1160 1416 1125\nleaf_count=1952 1076 2345 1133 1160 1416 1125\ninternal_value=0.00021064 0.000728288 -0.00023578 -0.00241003 0.00160588 -9.83865e-05\ninternal_weight=10207 9131 6786 3112 3674 2541\ninternal_count=10207 9131 6786 3112 3674 2541\nis_linear=0\nshrinkage=0.05\n\n\nTree=37\nnum_leaves=7\nnum_cat=0\nsplit_feature=7 124 83 145 23 54\nsplit_gain=9.34368 11.009 9.42197 8.61105 8.12555 10.3522\nthreshold=156.50000000000003 0.47121373859299914 -0.48426780599389402 -0.032988898403667692 0.33333333333333742 0.35284148072174243\ndecision_type=2 10 10 8 2 10\nleft_child=1 2 -1 -4 5 -3\nright_child=-2 4 3 -5 -6 -7\nleaf_value=-1.3187481726213506e-05 8.7263581732623357e-05 -6.6033991372429891e-05 5.394856610826803e-05 2.677797978935703e-06 1.3656959920879659e-05 -5.3656332047307689e-06\nleaf_weight=1453 1031 1108 1551 2706 1009 1349\nleaf_count=1453 1031 1108 1551 2706 1009 1349\ninternal_value=0.000191045 -0.000316042 0.00103327 0.00221987 -0.00253895 -0.00409035\ninternal_weight=10207 9176 5710 4257 3466 2457\ninternal_count=10207 9176 5710 4257 3466 2457\nis_linear=0\nshrinkage=0.05\n\n\nTree=38\nnum_leaves=7\nnum_cat=0\nsplit_feature=52 49 112 111 104 72\nsplit_gain=9.61684 14.9094 9.66031 9.17479 9.5557 8.71489\nthreshold=2.0689685946954794 0.0088456452508939316 0.3291680276748275 -0.88235354982270398 0.25219033324667134 -0.0086621295374041934\ndecision_type=10 8 10 10 10 8\nleft_child=1 3 -3 5 -5 -1\nright_child=-2 2 -4 4 -6 -7\nleaf_value=6.23284743736085e-05 2.245838156345583e-05 -6.3236041873384008e-05 -1.1713226161999015e-07 -2.4896896282244657e-05 2.0808111849166933e-05 1.3880429759878823e-06\nleaf_weight=1359 2000 1472 1017 1492 1209 1658\nleaf_count=1359 2000 1472 1017 1492 1209 1658\ninternal_value=0.000191045 -0.000566589 -0.00379671 0.000839454 -0.0012773 0.0027345\ninternal_weight=10207 8207 2489 5718 2701 3017\ninternal_count=10207 8207 2489 5718 2701 3017\nis_linear=0\nshrinkage=0.05\n\n\nTree=39\nnum_leaves=7\nnum_cat=0\nsplit_feature=149 132 154 89 148 21\nsplit_gain=9.28312 9.43495 8.99208 8.74374 8.07739 11.5983\nthreshold=0.45918016356021901 0.77798346931645745 -0.32475939737257498 22877.77370898041 0.073263976698608194 1868.5760870192637\ndecision_type=10 8 10 10 8 2\nleft_child=1 3 -3 4 5 -1\nright_child=-2 2 -4 -5 -6 -7\nleaf_value=2.1327838231902131e-06 -3.3613959905273613e-05 8.1301358331601953e-05 6.0549121894836146e-06 3.2472392273187501e-05 1.2365967299056393e-05 -6.0165482338197748e-05\nleaf_weight=1870 1156 1016 1138 1231 1861 1935\nleaf_count=1870 1156 1016 1138 1231 1861 1935\ninternal_value=0.000240031 0.000778919 0.0036676 -0.000123242 -0.000953053 -0.00227332\ninternal_weight=10207 9051 2154 6897 5666 3805\ninternal_count=10207 9051 2154 6897 5666 3805\nis_linear=0\nshrinkage=0.05\n\n\nTree=40\nnum_leaves=7\nnum_cat=0\nsplit_feature=118 152 27 81 42 26\nsplit_gain=9.23488 14.5518 14.2741 13.4289 12.3141 8.70317\nthreshold=0.0032897460247887094 -0.27444986015559042 -0.15411437373870054 -0.14310957683134376 42.8600842357529 -0.0014224779849780764\ndecision_type=10 10 10 10 8 10\nleft_child=1 -1 -2 -4 -5 -3\nright_child=2 5 3 4 -6 -7\nleaf_value=6.7590081115701838e-05 3.2603098132044787e-05 2.9547352203878862e-05 6.1732835375255015e-06 -1.7157246075743748e-05 -9.2324214360382559e-05 -1.5446157403695463e-05\nleaf_weight=1623 1085 1794 1259 1420 1016 2010\nleaf_count=1623 1085 1794 1259 1420 1016 2010\ninternal_value=0.000200843 0.00161231 -0.00140167 -0.00288227 -0.00504926 -7.88644e-05\ninternal_weight=10207 5427 4780 3695 2436 3804\ninternal_count=10207 5427 4780 3695 2436 3804\nis_linear=0\nshrinkage=0.05\n\n\nTree=41\nnum_leaves=7\nnum_cat=0\nsplit_feature=23 145 53 149 155 150\nsplit_gain=8.59553 10.2368 10.1736 11.7079 13.2885 8.92292\nthreshold=0.076923076923076303 -0.029448536656576093 0.31072796934865904 -0.21984784300968588 -0.53443453105283545 4.4284634925597483e-09\ndecision_type=2 8 10 10 10 10\nleft_child=1 -1 3 -2 5 -5\nright_child=2 -3 -4 4 -6 -7\nleaf_value=1.3144652970188524e-05 4.1258112013569322e-05 -4.0099653958015686e-05 4.3692458351523011e-05 -3.6627037215731016e-06 1.646492040730592e-05 -5.141209719378495e-05\nleaf_weight=1031 1419 1039 1754 1185 2210 1569\nleaf_count=1031 1419 1039 1754 1185 2210 1569\ninternal_value=0.000171451 -0.00270531 0.000903281 -2.34999e-05 -0.00116841 -0.00348584\ninternal_weight=10207 2070 8137 6383 4964 2754\ninternal_count=10207 2070 8137 6383 4964 2754\nis_linear=0\nshrinkage=0.05\n\n\nTree=42\nnum_leaves=7\nnum_cat=0\nsplit_feature=77 62 49 17 44 157\nsplit_gain=10.1892 9.75995 12.3395 9.51013 7.05537 8.01308\nthreshold=-0.78981972897310204 0.71274288534707653 -0.019523626561280146 1011726.1443550001 0.036700336700336685 -0.0094882249752210584\ndecision_type=8 8 10 2 10 10\nleft_child=-1 2 -2 4 5 -4\nright_child=1 -3 3 -5 -6 -7\nleaf_value=1.9920514201034862e-05 6.7991754443914737e-05 -3.0211124097122707e-05 1.3503531470104863e-05 1.8813177681461976e-05 -5.769733848952066e-05 -2.2337305117841928e-05\nleaf_weight=1681 1103 1865 1476 1649 1084 1349\nleaf_count=1681 1103 1865 1476 1649 1084 1349\ninternal_value=0.00027922 -0.000422238 0.000472902 -0.000485786 -0.00182911 -0.000513274\ninternal_weight=10207 8526 6661 5558 3909 2825\ninternal_count=10207 8526 6661 5558 3909 2825\nis_linear=0\nshrinkage=0.05\n\n\nTree=43\nnum_leaves=7\nnum_cat=0\nsplit_feature=45 161 136 21 47 24\nsplit_gain=8.64625 11.3295 9.52726 9.22432 8.3083 7.16632\nthreshold=-0.063455768663506815 0.17914657001639137 2.5500000000000003 1935.281404037082 0.10059090332653343 0.3333333333333301\ndecision_type=10 8 8 2 10 2\nleft_child=2 3 5 -2 -5 -1\nright_child=1 -3 -4 4 -6 -7\nleaf_value=4.4382457355225736e-05 6.760872863232316e-07 3.4929765722291364e-05 -1.0149961838907624e-05 -9.4072894122997663e-05 -1.311330845939651e-05 5.6172367341435238e-07\nleaf_weight=2136 1896 1195 1538 1070 1124 1248\nleaf_count=2136 1896 1195 1538 1070 1124 1248\ninternal_value=0.000259626 -0.00114475 0.00176757 -0.00239609 -0.00460346 0.00325059\ninternal_weight=10207 5285 4922 4090 2194 3384\ninternal_count=10207 5285 4922 4090 2194 3384\nis_linear=0\nshrinkage=0.05\n\n\nTree=44\nnum_leaves=7\nnum_cat=0\nsplit_feature=62 131 24 56 68 19\nsplit_gain=8.41884 10.8971 9.33583 8.08551 9.68447 10.7969\nthreshold=0.75241199626333266 0.46802805849061185 0.085960591133004124 -0.29397825480903256 -0.3240878660744354 10990309.631564071\ndecision_type=8 8 2 10 10 2\nleft_child=1 2 -1 -4 -5 -6\nright_child=-2 -3 3 4 5 -7\nleaf_value=1.99055453814428e-05 -1.4878160323809201e-05 4.6811683728086345e-05 -3.9804951112332793e-05 2.899025739877589e-05 -2.6484938696625176e-05 2.1841716946438073e-05\nleaf_weight=1205 2083 2048 1079 1065 1488 1239\nleaf_count=1205 2083 2048 1079 1065 1488 1239\ninternal_value=0.000171451 0.000898572 -0.000164582 -0.0011394 -5.27426e-05 -0.00163183\ninternal_weight=10207 8124 6076 4871 3792 2727\ninternal_count=10207 8124 6076 4871 3792 2727\nis_linear=0\nshrinkage=0.05\n\n\nTree=45\nnum_leaves=7\nnum_cat=0\nsplit_feature=146 149 86 111 23 112\nsplit_gain=8.4212 9.83528 8.18402 11.4858 13.9658 8.05458\nthreshold=0.15976303094973701 -0.29879415233205209 -0.4259779540687007 -0.99288885888552858 0.26666666666667899 11.967684759019109\ndecision_type=10 10 10 8 2 8\nleft_child=1 -1 -3 -4 5 -5\nright_child=-2 2 3 4 -6 -7\nleaf_value=5.1573542502913098e-05 -3.1709010581172261e-05 2.1187056889376313e-05 1.9278958795272832e-05 -6.1174482142057745e-05 6.1400012251048679e-06 -1.6091017140261733e-05\nleaf_weight=1269 1554 1733 1463 1059 1869 1260\nleaf_count=1269 1554 1733 1463 1059 1869 1260\ninternal_value=0.000171451 0.000780076 8.12568e-05 -0.000840559 -0.00217287 -0.00476498\ninternal_weight=10207 8653 7384 5651 4188 2319\ninternal_count=10207 8653 7384 5651 4188 2319\nis_linear=0\nshrinkage=0.05\n\n\nTree=46\nnum_leaves=7\nnum_cat=0\nsplit_feature=77 118 99 0 88 112\nsplit_gain=9.02578 9.29986 12.0164 15.3383 11.7101 9.73241\nthreshold=-0.78981972897310204 0.001950816217509477 -0.24062353492733232 34610.500000000007 115.27678373204679 -0.49965898378087376\ndecision_type=8 10 8 2 8 8\nleft_child=-1 2 -2 4 -4 -3\nright_child=1 5 3 -5 -6 -7\nleaf_value=1.831501085550919e-05 5.9331385100968975e-05 -4.23287205789478e-05 -4.7658228702261471e-05 6.5462208711921868e-05 4.4366267289378243e-06 -1.3805673992613075e-06\nleaf_weight=1681 1298 1538 1082 1060 1001 2547\nleaf_count=1681 1298 1538 1082 1060 1001 2547\ninternal_value=0.000191045 -0.000469153 0.00111461 -0.000556793 -0.00304849 -0.00219094\ninternal_weight=10207 8526 4441 3143 2083 4085\ninternal_count=10207 8526 4441 3143 2083 4085\nis_linear=0\nshrinkage=0.05\n\n\nTree=47\nnum_leaves=7\nnum_cat=0\nsplit_feature=17 49 111 19 68 23\nsplit_gain=9.24287 10.1676 8.51676 7.76638 8.17885 6.70484\nthreshold=551811.92767300014 0.0088456452508939316 -0.33631858711048546 8500936.4759559315 -0.069406289152288955 0.26315789473684159\ndecision_type=2 8 10 2 10 2\nleft_child=1 3 -2 4 -1 -4\nright_child=2 -3 5 -5 -6 -7\nleaf_value=4.1028724511372069e-06 4.8615505127824559e-05 -4.314097273323839e-05 -1.1914397823428559e-05 3.149837082037302e-05 -3.0412630293541703e-05 3.2247912288530856e-05\nleaf_weight=1630 1256 1951 1425 1861 1021 1063\nleaf_count=1630 1256 1951 1425 1861 1021 1063\ninternal_value=0.000240031 -0.000905152 0.00221688 0.000398936 -0.00133912 0.000522508\ninternal_weight=10207 6463 3744 4512 2651 2488\ninternal_count=10207 6463 3744 4512 2651 2488\nis_linear=0\nshrinkage=0.05\n\n\nTree=48\nnum_leaves=7\nnum_cat=0\nsplit_feature=66 145 147 38 83 21\nsplit_gain=8.23237 14.9256 9.5194 8.93869 8.84713 8.29472\nthreshold=0.041274907476925311 0.041310741141955994 0.0055364285433539004 -0.012701684300853609 -0.42663016882958876 2332.9025832710959\ndecision_type=10 10 10 10 10 2\nleft_child=2 -2 3 -1 -4 -6\nright_child=1 -3 4 -5 5 -7\nleaf_value=3.8614573332295918e-05 4.9188831272561627e-05 -2.7473908367044194e-05 -4.4720387706739365e-05 -1.0281290805757261e-05 7.1390139481709041e-06 -5.1035402082818336e-05\nleaf_weight=1570 2772 1205 1007 1634 1019 1000\nleaf_count=1570 2772 1205 1007 1634 1019 1000\ninternal_value=0.000171451 0.00194871 -0.000963082 0.00093633 -0.00297422 -0.00106488\ninternal_weight=10207 3977 6230 3204 3026 2019\ninternal_count=10207 3977 6230 3204 3026 2019\nis_linear=0\nshrinkage=0.05\n\n\nTree=49\nnum_leaves=7\nnum_cat=0\nsplit_feature=77 62 147 24 155 65\nsplit_gain=8.91668 9.26511 12.0933 9.27146 11.0938 6.94433\nthreshold=-0.78981972897310204 0.71274288534707653 -0.18622012631637255 0.20000000000000781 -0.56527055464931775 159784598.35352948\ndecision_type=8 8 10 2 8 8\nleft_child=-1 2 -2 4 -4 -5\nright_child=1 -3 3 5 -6 -7\nleaf_value=1.7472866392719173e-05 5.6020137812383368e-05 -2.8249813396924515e-05 -9.0574958284790062e-06 -1.5053543902092421e-06 7.3940135585098745e-05 -3.8637010301244947e-05\nleaf_weight=1681 1026 1865 1402 1927 1007 1299\nleaf_count=1681 1026 1865 1402 1927 1007 1299\ninternal_value=0.000151857 -0.00050434 0.000367813 -0.00054126 0.00180573 -0.00229386\ninternal_weight=10207 8526 6661 5635 2409 3226\ninternal_count=10207 8526 6661 5635 2409 3226\nis_linear=0\nshrinkage=0.05\n\n\nTree=50\nnum_leaves=7\nnum_cat=0\nsplit_feature=145 23 22 61 157 66\nsplit_gain=7.8186 13.5547 11.2178 11.2181 9.59195 7.56665\nthreshold=-0.070720009496119271 0.083333333333332829 0.33333333333332987 0.077855647932490016 0.011406987815397731 -0.59800506835711997\ndecision_type=10 2 2 10 10 10\nleft_child=4 -2 5 -4 -1 -3\nright_child=1 2 3 -5 -6 -7\nleaf_value=7.084494673653284e-05 -3.2012757411101581e-05 3.9478303552534364e-07 -4.2059242853554227e-05 2.2961569928567582e-05 -6.6194395574074041e-06 5.7244461898629496e-05\nleaf_weight=1050 1367 2029 1942 1032 1091 1696\nleaf_count=1050 1367 2029 1942 1032 1091 1696\ninternal_value=9.30734e-05 -0.000619886 0.000306016 -0.00198386 0.00277908 0.00213423\ninternal_weight=10207 8066 6699 2974 2141 3725\ninternal_count=10207 8066 6699 2974 2141 3725\nis_linear=0\nshrinkage=0.05\n\n\nTree=51\nnum_leaves=7\nnum_cat=0\nsplit_feature=149 132 42 89 133 125\nsplit_gain=7.79756 8.99289 9.71159 7.60282 9.42944 11.3143\nthreshold=0.47834815995570251 0.77798346931645745 4.2887492607442566 22877.77370898041 -0.088373286844810925 0.066987179487179485\ndecision_type=10 8 8 10 8 10\nleft_child=1 3 -3 4 -1 -6\nright_child=-2 2 -4 -5 5 -7\nleaf_value=8.4939968188000612e-06 -2.5278015862805143e-05 8.4315500747598831e-05 1.1914326623148581e-06 2.6310151173422874e-05 -4.0378533794310198e-05 1.3623038670741342e-06\nleaf_weight=2347 1076 1063 1111 1237 1777 1596\nleaf_count=2347 1076 1063 1111 1237 1777 1596\ninternal_value=0.000122465 0.000596868 0.00340386 -0.000280293 -0.00104895 -0.00274237\ninternal_weight=10207 9131 2174 6957 5720 3373\ninternal_count=10207 9131 2174 6957 5720 3373\nis_linear=0\nshrinkage=0.05\n\n\nTree=52\nnum_leaves=7\nnum_cat=0\nsplit_feature=45 136 149 161 99 60\nsplit_gain=8.01488 10.1162 11.791 8.7301 9.17525 8.46058\nthreshold=-0.019090931659678786 1.4495798319327733 0.12369118793254631 0.17914657001639137 -0.17222840192806818 0.016801855349408593\ndecision_type=10 8 10 8 10 10\nleft_child=1 2 -1 4 -2 -6\nright_child=3 -3 -4 -5 5 -7\nleaf_value=4.8695814834270167e-05 4.3043354300648925e-06 -7.4983411109055368e-06 -6.1099796412575354e-06 3.3157609198084083e-05 -6.2334418256793393e-05 -6.9974705464675605e-06\nleaf_weight=2248 1385 1864 1170 1102 1233 1205\nleaf_count=2248 1385 1864 1170 1102 1233 1205\ninternal_value=0.000161654 0.00151458 0.00313049 -0.00128934 -0.00241957 -0.00426579\ninternal_weight=10207 5282 3418 4925 3823 2438\ninternal_count=10207 5282 3418 4925 3823 2438\nis_linear=0\nshrinkage=0.05\n\n\nTree=53\nnum_leaves=7\nnum_cat=0\nsplit_feature=62 132 37 146 39 35\nsplit_gain=7.46993 11.3377 8.45936 7.93974 8.63435 9.37226\nthreshold=0.75241199626333266 0.69121420540456235 0.051921698113479804 0.14467692876793628 -0.12272519913072198 -0.034150856047867155\ndecision_type=8 8 10 10 10 10\nleft_child=1 3 -2 4 5 -1\nright_child=2 -3 -4 -5 -6 -7\nleaf_value=1.2226098610994627e-05 6.1633960593601461e-06 4.4388318381404271e-05 -4.4458496478290608e-05 -3.6192692902373961e-05 1.7519888526420885e-05 -3.3913596710698802e-05\nleaf_weight=1198 1039 1671 1044 1051 2624 1580\nleaf_count=1198 1039 1671 1044 1051 2624 1580\ninternal_value=0.000102871 0.000787789 -0.00256841 -0.000162715 0.000610885 -0.00133189\ninternal_weight=10207 8124 2083 6453 5402 2778\ninternal_count=10207 8124 2083 6453 5402 2778\nis_linear=0\nshrinkage=0.05\n\n\nTree=54\nnum_leaves=7\nnum_cat=0\nsplit_feature=96 145 63 0 139 45\nsplit_gain=7.7599 9.81285 11.2323 10.7881 10.938 7.83415\nthreshold=-0.32063143046797205 0.018835055384355041 -0.015361057394745912 45849.500000000007 -0.31228271915685207 -0.055294026492627817\ndecision_type=10 10 10 2 10 10\nleft_child=-1 3 -3 4 -2 -6\nright_child=1 2 -4 -5 5 -7\nleaf_value=2.2853463191626245e-05 2.5727386811458406e-05 -5.9682474759454178e-05 2.2823515206535815e-06 9.7982572070649598e-05 1.0015942072567216e-06 -3.2736919854272714e-05\nleaf_weight=1776 1201 1705 1650 1099 1474 1302\nleaf_count=1776 1201 1705 1650 1099 1474 1302\ninternal_value=9.30734e-05 -0.000539675 -0.00263785 0.000847124 -0.000364596 -0.00208934\ninternal_weight=10207 8431 3355 5076 3977 2776\ninternal_count=10207 8431 3355 5076 3977 2776\nis_linear=0\nshrinkage=0.05\n\n\nTree=55\nnum_leaves=7\nnum_cat=0\nsplit_feature=42 158 19 30 104 127\nsplit_gain=7.80242 13.4756 11.6327 10.0264 8.32185 7.37216\nthreshold=-0.6220140791041544 -0.057166372648621781 13298651.978239622 -0.20995925233102766 -0.11811504571414221 0.037481490314630335\ndecision_type=8 10 2 10 10 8\nleft_child=2 -2 -1 -3 -5 -6\nright_child=1 3 -4 4 5 -7\nleaf_value=-1.4412239854686726e-06 1.8567400613044288e-05 1.921778435241496e-05 9.1408921368688555e-05 -7.7896932355411167e-07 -6.0777770611354524e-05 -1.2985313157027863e-05\nleaf_weight=2019 1508 1050 1151 1641 1615 1223\nleaf_count=2019 1508 1050 1151 1641 1615 1223\ninternal_value=5.38846e-05 -0.000873952 0.00211356 -0.00201664 -0.00304756 -0.0046864\ninternal_weight=10207 7037 3170 5529 4479 2838\ninternal_count=10207 7037 3170 5529 4479 2838\nis_linear=0\nshrinkage=0.05\n\n\nTree=56\nnum_leaves=7\nnum_cat=0\nsplit_feature=43 3 42 159 118 35\nsplit_gain=7.17739 11.2797 9.60494 7.36488 7.14861 10.1023\nthreshold=6.2711564489603067 181580702697.1886 -1.0000000180025095e-35 -0.013160387371561553 -0.0089974441707431612 -0.04264167975170146\ndecision_type=10 2 10 8 10 10\nleft_child=2 -2 4 -4 -1 -6\nright_child=1 -3 3 -5 5 -7\nleaf_value=2.2821938268178779e-05 -1.5390140353715631e-06 9.101712477016474e-05 -1.7410733888578311e-06 -6.2768713888463012e-05 1.9477783320513817e-05 -2.4949697945239971e-05\nleaf_weight=2293 1617 1028 1167 1230 1034 1838\nleaf_count=2293 1617 1028 1167 1230 1034 1838\ninternal_value=8.32762e-05 0.00232514 -0.000700873 -0.00331665 0.000513069 -0.00114903\ninternal_weight=10207 2645 7562 2397 5165 2872\ninternal_count=10207 2645 7562 2397 5165 2872\nis_linear=0\nshrinkage=0.05\n\n\nTree=57\nnum_leaves=7\nnum_cat=0\nsplit_feature=149 91 146 54 101 157\nsplit_gain=7.05799 8.47601 11.0787 13.5387 9.93663 7.10458\nthreshold=0.47834815995570251 1.1794669025023721 0.071481706510290968 -0.66944303852184472 0.66040634142756061 -0.013452306687608715\ndecision_type=10 10 10 8 10 10\nleft_child=1 2 3 -1 -5 -4\nright_child=-2 -3 5 4 -6 -7\nleaf_value=4.6635956387392746e-05 -2.540090142497467e-05 3.3615544949083576e-05 -4.2613305478456435e-07 -1.6132513809614075e-05 2.7939499632064577e-05 -6.5067714605176715e-05\nleaf_weight=1336 1076 1500 1054 2694 1431 1116\nleaf_count=1336 1076 1500 1054 2694 1431 1116\ninternal_value=0.000112668 0.000564013 -0.000111388 0.00108954 -0.000327273 -0.00313364\ninternal_weight=10207 9131 7631 5461 4125 2170\ninternal_count=10207 9131 7631 5461 4125 2170\nis_linear=0\nshrinkage=0.05\n\n\nTree=58\nnum_leaves=7\nnum_cat=0\nsplit_feature=140 52 124 45 62 147\nsplit_gain=7.27559 9.68958 13.7084 8.82728 7.10886 8.98448\nthreshold=0.10030168893665065 1.9068223373340256 -0.73334318692603184 -0.29710625988911099 0.42911143876877705 0.019311846397605751\ndecision_type=8 10 10 10 10 10\nleft_child=1 2 -1 -4 5 -5\nright_child=-2 -3 3 4 -6 -7\nleaf_value=1.4360349050670174e-05 5.5687119031165469e-05 1.6829515627395694e-05 6.5221560145820115e-06 4.7094896312681229e-06 -6.135328750042518e-05 -4.9671496133576089e-05\nleaf_weight=1617 1177 1873 1525 1396 1201 1418\nleaf_count=1617 1177 1873 1525 1396 1201 1418\ninternal_value=8.32762e-05 -0.000398671 -0.00123655 -0.00241877 -0.00364882 -0.00227434\ninternal_weight=10207 9030 7157 5540 4015 2814\ninternal_count=10207 9030 7157 5540 4015 2814\nis_linear=0\nshrinkage=0.05\n\n\nTree=59\nnum_leaves=6\nnum_cat=0\nsplit_feature=77 56 77 124 23\nsplit_gain=7.63858 7.65137 9.20074 13.9456 7.37205\nthreshold=-0.78981972897310204 -0.28541033434650448 2.6973858253541816 0.77222457296265201 0.24999999999999828\ndecision_type=8 10 10 10 2\nleft_child=-1 -2 3 4 -3\nright_child=1 2 -4 -5 -6\nleaf_value=1.4289642238459129e-05 -2.3196195989222111e-05 -8.590231358148672e-06 2.3079664770999164e-05 -4.2964138384386961e-05 3.8275137926358101e-05\nleaf_weight=1681 1511 1816 1884 1736 1579\nleaf_count=1681 1511 1816 1884 1736 1579\ninternal_value=0.000161654 -0.000445696 0.000249465 -0.000847788 0.0010162\ninternal_weight=10207 8526 7015 5131 3395\ninternal_count=10207 8526 7015 5131 3395\nis_linear=0\nshrinkage=0.05\n\n\nTree=60\nnum_leaves=7\nnum_cat=0\nsplit_feature=7 1 21 21 19 43\nsplit_gain=7.33885 7.98167 10.3069 9.3183 9.957 7.83313\nthreshold=156.50000000000003 228.50000000000003 3497.7796877866854 3252.3057703913205 7117845.8978984812 -0.45990878527642065\ndecision_type=2 2 2 2 2 10\nleft_child=1 3 -3 4 5 -1\nright_child=-2 2 -4 -5 -6 -7\nleaf_value=-8.1530034126927711e-06 6.6830592106962563e-05 -6.5870053712205207e-05 -7.845820696863825e-07 -4.1486062711344712e-05 6.0150989348361324e-05 1.116951711708105e-05\nleaf_weight=2158 1031 1205 1820 1090 1663 1240\nleaf_count=2158 1031 1205 1820 1090 1663 1240\ninternal_value=0.000122465 -0.00032694 -0.00242975 0.000707202 0.00161035 5.88582e-05\ninternal_weight=10207 9176 3025 6151 5061 3398\ninternal_count=10207 9176 3025 6151 5061 3398\nis_linear=0\nshrinkage=0.05\n\n\nTree=61\nnum_leaves=7\nnum_cat=0\nsplit_feature=140 52 124 52 88 146\nsplit_gain=6.19331 9.43603 11.6405 9.58002 11.9971 8.65922\nthreshold=0.10727937409700998 1.9068223373340256 -0.73334318692603184 -0.75015286123826042 33.553600271610669 0.0084783006676695267\ndecision_type=8 10 10 10 10 10\nleft_child=1 2 -1 -4 5 -5\nright_child=-2 -3 3 4 -6 -7\nleaf_value=1.4077377511520377e-05 5.9147802170504698e-05 1.6197974920623497e-05 1.0580839107453529e-05 6.8825005778958047e-06 -6.6706523862115506e-05 -3.644247402721213e-05\nleaf_weight=1640 1017 1909 1028 1717 1136 1760\nleaf_count=1640 1017 1909 1028 1717 1136 1760\ninternal_value=8.32762e-05 -0.000326442 -0.00114682 -0.00222478 -0.00319749 -0.00174001\ninternal_weight=10207 9190 7281 5641 4613 3477\ninternal_count=10207 9190 7281 5641 4613 3477\nis_linear=0\nshrinkage=0.05\n\n\nTree=62\nnum_leaves=7\nnum_cat=0\nsplit_feature=149 132 154 44 37 145\nsplit_gain=6.08412 6.61991 8.92018 7.11466 7.42981 6.99959\nthreshold=0.47834815995570251 0.77798346931645745 -0.34424568131794397 0.81980519480519487 0.65145262228370082 -0.026573021653398084\ndecision_type=10 8 10 10 10 10\nleft_child=1 3 -3 4 5 -1\nright_child=-2 2 -4 -5 -6 -7\nleaf_value=2.3285663732329621e-05 -2.132892748584013e-05 6.5279352361774357e-05 -2.3753687145961715e-07 1.859710160839694e-05 -4.1505110322426321e-05 -8.0407103337845372e-06\nleaf_weight=1428 1076 1009 1165 1863 1258 2408\nleaf_count=1428 1076 1009 1165 1863 1258 2408\ninternal_value=2.4493e-05 0.000443544 0.00285189 -0.000309041 -0.00127601 -0.000182482\ninternal_weight=10207 9131 2174 6957 5094 3836\ninternal_count=10207 9131 2174 6957 5094 3836\nis_linear=0\nshrinkage=0.05\n\n\nTree=63\nnum_leaves=7\nnum_cat=0\nsplit_feature=77 53 77 153 149 110\nsplit_gain=6.63274 7.68746 10.8487 10.8256 9.03949 8.84942\nthreshold=-0.78981972897310204 0.26593891534084318 1.3910788037907305 -0.10264253666741517 -0.12796366285098923 -0.065628660285148785\ndecision_type=8 10 10 10 10 10\nleft_child=-1 3 -3 4 -2 -6\nright_child=1 2 -4 -5 5 -7\nleaf_value=1.3680976938284011e-05 4.4625756574414656e-05 -1.2522151235027453e-05 5.6202288905552444e-05 -3.3481302527110337e-05 -2.9561173886588665e-05 9.2026056394576362e-06\nleaf_weight=1681 1122 1239 1005 2778 1071 1311\nleaf_count=1681 1122 1239 1005 2778 1071 1311\ninternal_value=1.46958e-05 -0.000551255 0.00196078 -0.00144858 0.000399543 -0.00134341\ninternal_weight=10207 8526 2244 6282 3504 2382\ninternal_count=10207 8526 2244 6282 3504 2382\nis_linear=0\nshrinkage=0.05\n\n\nTree=64\nnum_leaves=7\nnum_cat=0\nsplit_feature=130 146 54 77 100 77\nsplit_gain=7.24053 12.908 9.35501 9.63573 9.53119 8.18453\nthreshold=0.37635061948709764 0.17943672364241006 -0.493568444162655 1.4804808425491929 -0.68652323007550575 0.049883138966914549\ndecision_type=8 10 10 10 10 10\nleft_child=1 2 4 5 -1 -4\nright_child=-2 -3 3 -5 -6 -7\nleaf_value=4.8378906139307899e-05 4.044292450684806e-05 -5.6897041775136635e-05 -5.5747597245859304e-06 1.1413678542698218e-05 6.9605533055986887e-08 -5.1895150023451131e-05\nleaf_weight=1185 1053 1131 2153 1973 1462 1250\nleaf_count=1185 1053 1131 2153 1973 1462 1250\ninternal_value=1.46958e-05 -0.000436967 0.00026798 -0.00093006 0.00270117 -0.00254187\ninternal_weight=10207 9154 8023 5376 2647 3403\ninternal_count=10207 9154 8023 5376 2647 3403\nis_linear=0\nshrinkage=0.05\n\n\nTree=65\nnum_leaves=7\nnum_cat=0\nsplit_feature=0 88 123 120 124 118\nsplit_gain=6.39336 12.2498 10.7209 13.5541 10.69 6.21671\nthreshold=34610.500000000007 2.6451837560326354 4.458447447692345 2.0141841451404008 0.44710589847220689 0.012895475893155097\ndecision_type=2 10 8 10 10 10\nleft_child=2 -2 3 4 5 -1\nright_child=1 -3 -4 -5 -6 -7\nleaf_value=1.6244758456513631e-05 6.0001138507982289e-05 -2.8611064131834416e-05 2.4007030429815005e-05 -4.2875228287917519e-05 -2.7771840233705691e-05 -9.0614735315458282e-06\nleaf_weight=2422 1979 1087 1049 1154 1248 1268\nleaf_count=2422 1979 1087 1049 1154 1248 1268\ninternal_value=-8.32762e-05 0.00182648 -0.000903235 -0.00170716 -0.000567031 0.000785908\ninternal_weight=10207 3066 7141 6092 4938 3690\ninternal_count=10207 3066 7141 6092 4938 3690\nis_linear=0\nshrinkage=0.05\n\n\nTree=66\nnum_leaves=7\nnum_cat=0\nsplit_feature=158 42 43 65 54 158\nsplit_gain=6.19924 11.2961 15.5304 8.86546 8.79745 7.78928\nthreshold=-0.044786118864962858 -0.48283267616333614 13.645613642712862 -0.3780737303964356 0.3291283416845226 -0.073014135658574161\ndecision_type=10 8 10 10 10 8\nleft_child=5 4 3 -3 -2 -1\nright_child=1 2 -4 -5 -6 -7\nleaf_value=-8.9284136039727041e-06 -2.7687131583044896e-06 -7.8654324078238044e-06 2.3700657163447273e-05 -5.6838295431255835e-05 6.6768999671163809e-05 2.4530307089290653e-05\nleaf_weight=1107 1325 1819 1265 1662 1091 1938\nleaf_count=1107 1325 1819 1265 1662 1091 1938\ninternal_value=-3.42902e-05 -0.000837755 -0.00225453 -0.00397874 0.00194536 0.0018555\ninternal_weight=10207 7162 4746 3481 2416 3045\ninternal_count=10207 7162 4746 3481 2416 3045\nis_linear=0\nshrinkage=0.05\n\n\nTree=67\nnum_leaves=7\nnum_cat=0\nsplit_feature=17 136 23 155 155 26\nsplit_gain=6.789 8.30968 10.8669 12.8403 6.60939 5.49223\nthreshold=1465113.0491905001 -0.53813833225597918 0.30303030303030065 -1.0388353725498352 -0.90366814921134753 -0.0039753913305237689\ndecision_type=2 8 2 8 10 10\nleft_child=1 4 3 -3 -1 -2\nright_child=5 2 -4 -5 -6 -7\nleaf_value=2.6636294174676545e-05 7.5889855904329769e-05 -7.1698405494316717e-05 1.2116107976133741e-05 -8.4219964064191939e-06 -5.2387677025956442e-06 1.7097937968985352e-06\nleaf_weight=1200 1035 1235 1756 1764 1465 1752\nleaf_count=1200 1035 1235 1756 1764 1465 1752\ninternal_value=-0.000112668 -0.000902965 -0.00215563 -0.00398466 0.00133208 0.00199139\ninternal_weight=10207 7420 4755 2999 2665 2787\ninternal_count=10207 7420 4755 2999 2665 2787\nis_linear=0\nshrinkage=0.05\n\n\nTree=68\nnum_leaves=7\nnum_cat=0\nsplit_feature=130 21 10 129 32 30\nsplit_gain=6.69524 8.22233 10.252 9.61308 8.60866 10.2334\nthreshold=0.37635061948709764 1868.5760870192637 27430802.878790509 -0.25759146444231579 -0.65320747553277358 0.125492125984252\ndecision_type=8 2 2 10 10 10\nleft_child=1 2 -1 -4 -3 -6\nright_child=-2 4 3 -5 5 -7\nleaf_value=-1.0386821904959383e-05 3.9596836514775443e-05 1.8781807588783599e-05 5.2764440713848016e-05 9.5134989009311203e-07 -4.8660401675478372e-05 9.2355030482120767e-06\nleaf_weight=1585 1053 1037 1050 1432 2718 1332\nleaf_count=1585 1053 1037 1050 1432 2718 1332\ninternal_value=-2.4493e-05 -0.000458816 0.00121711 0.00322321 -0.0017987 -0.00283951\ninternal_weight=10207 9154 4067 2482 5087 4050\ninternal_count=10207 9154 4067 2482 5087 4050\nis_linear=0\nshrinkage=0.05\n\n\nTree=69\nnum_leaves=7\nnum_cat=0\nsplit_feature=24 23 131 56 68 19\nsplit_gain=6.28056 11.0882 10.662 7.0722 10.6311 9.77908\nthreshold=0.085960591133004124 0.083333333333332829 0.5417936799868307 -0.28541033434650448 -0.29673698732992121 10990309.631564071\ndecision_type=2 2 8 10 10 2\nleft_child=-1 -2 3 -3 -5 -6\nright_child=1 2 -4 4 5 -7\nleaf_value=1.9942767195604639e-05 -2.9596425044699509e-05 -3.56171996688188e-05 4.0468600529124895e-05 3.4268770472903574e-05 -3.0154259685187395e-05 1.5963184871952107e-05\nleaf_weight=1964 1813 1001 1875 1012 1342 1200\nleaf_count=1964 1813 1001 1875 1012 1342 1200\ninternal_value=4.8986e-06 -0.00060051 0.00037325 -0.000933041 0.000112549 -0.0016129\ninternal_weight=10207 8243 6430 4555 3554 2542\ninternal_count=10207 8243 6430 4555 3554 2542\nis_linear=0\nshrinkage=0.05\n\n\nTree=70\nnum_leaves=7\nnum_cat=0\nsplit_feature=52 118 119 152 95 35\nsplit_gain=5.92883 7.57612 10.5469 10.4614 6.22468 5.74955\nthreshold=1.9068223373340256 0.0032897460247887094 0.02819741026806 -0.28739446694525389 -1.0000000180025095e-35 -0.014421508376665946\ndecision_type=10 10 10 10 10 10\nleft_child=1 3 -3 -1 -2 -5\nright_child=4 2 -4 5 -6 -7\nleaf_value=5.24369137069671e-05 -2.0385586225344535e-06 -3.9128721632331021e-05 1.8596981495329086e-06 -2.2006710635420303e-05 4.2385066773998936e-05 9.9695601470800706e-06\nleaf_weight=1226 1048 1897 1899 1476 1072 1589\nleaf_count=1226 1048 1897 1899 1476 1072 1589\ninternal_value=4.8986e-06 -0.000612093 -0.0022392 0.000827313 0.00235849 -0.000734095\ninternal_weight=10207 8087 3796 4291 2120 3065\ninternal_count=10207 8087 3796 4291 2120 3065\nis_linear=0\nshrinkage=0.05\n\n\nTree=71\nnum_leaves=7\nnum_cat=0\nsplit_feature=45 136 133 136 79 135\nsplit_gain=6.98372 8.3718 8.25786 8.02745 6.91715 7.2196\nthreshold=-0.019090931659678786 0.49444444444444452 -0.038442591890867732 2.5500000000000003 -0.27039349379774907 -0.91522015502396548\ndecision_type=10 8 10 8 10 10\nleft_child=3 2 -2 4 -1 -6\nright_child=1 -3 -4 -5 5 -7\nleaf_value=-1.7831648887250098e-06 -1.3758661096838313e-06 5.9770839172570312e-06 -5.442113194581058e-05 -1.2346522006118242e-05 4.129864573299827e-06 5.9845898966661467e-05\nleaf_weight=1028 1204 2263 1458 1645 1255 1354\nleaf_count=1028 1204 2263 1458 1645 1255 1354\ninternal_value=2.4493e-05 -0.00132995 -0.00323065 0.00128739 0.0025983 0.00396704\ninternal_weight=10207 4925 2662 5282 3637 2609\ninternal_count=10207 4925 2662 5282 3637 2609\nis_linear=0\nshrinkage=0.05\n\n\nTree=72\nnum_leaves=7\nnum_cat=0\nsplit_feature=21 26 0 45 89 23\nsplit_gain=6.04759 10.8636 10.1569 10.0322 9.26946 8.08946\nthreshold=2429.0994807146103 -0.0014224779849780764 26147.000000000004 -0.087219124574745274 0.72230865612795025 0.13636363636364246\ndecision_type=2 10 2 10 10 2\nleft_child=1 3 -2 -1 -4 -3\nright_child=2 5 4 -5 -6 -7\nleaf_value=8.6930593648957028e-05 -3.6147909729391053e-05 -2.3043569347601565e-05 -2.541964189591127e-05 5.0117572378698577e-06 4.6931480939566141e-05 4.1385184279322719e-06\nleaf_weight=1036 1790 1005 1648 1203 1362 2163\nleaf_count=1036 1790 1005 1648 1203 1362 2163\ninternal_value=-8.32762e-05 0.00106344 -0.001375 0.00372934 0.000398671 -0.000820707\ninternal_weight=10207 5407 4800 2239 3010 3168\ninternal_count=10207 5407 4800 2239 3010 3168\nis_linear=0\nshrinkage=0.05\n\n\nTree=73\nnum_leaves=7\nnum_cat=0\nsplit_feature=77 90 147 85 125 42\nsplit_gain=6.62948 7.29714 7.80816 9.55204 8.25672 7.70834\nthreshold=-0.78981972897310204 3.416666666666667 -0.012436618303321932 -0.17759953780438584 -0.13408348001005779 164.80590471882581\ndecision_type=8 8 10 10 8 8\nleft_child=-1 2 3 -2 -4 -3\nright_child=1 5 4 -5 -6 -7\nleaf_value=1.2257109102673491e-05 4.1493340632100445e-05 5.1282824257042192e-05 -4.5260514130246904e-05 -1.5230230970485549e-05 -1.1578770337135205e-05 -5.6511203960234534e-06\nleaf_weight=1681 1098 1037 1079 1815 2077 1420\nleaf_count=1681 1098 1037 1079 1815 2077 1420\ninternal_value=-4.40874e-05 -0.000609899 -0.00154062 0.000326124 -0.00326362 0.00168905\ninternal_weight=10207 8526 6069 2913 3156 2457\ninternal_count=10207 8526 6069 2913 3156 2457\nis_linear=0\nshrinkage=0.05\n\n\nTree=74\nnum_leaves=6\nnum_cat=0\nsplit_feature=158 43 65 19 127\nsplit_gain=5.79767 8.9067 13.1329 16.8412 7.34571\nthreshold=-0.044786118864962858 4.0956528150591867 -0.3780737303964356 7239297.516794241 -0.090790336983148465\ndecision_type=10 10 10 2 8\nleft_child=4 2 3 -2 -1\nright_child=1 -3 -4 -5 -6\nleaf_value=-3.2249240122960292e-06 -2.6834203630409861e-05 1.397803638895244e-05 -4.4295707146135507e-05 4.0624977677913653e-05 2.790563896595618e-05\nleaf_weight=1213 1241 1982 1962 1977 1832\nleaf_count=1213 1241 1982 1962 1977 1832\ninternal_value=-4.8986e-06 -0.000781904 -0.00187259 9.32256e-05 0.00182266\ninternal_weight=10207 7162 5180 3218 3045\ninternal_count=10207 7162 5180 3218 3045\nis_linear=0\nshrinkage=0.05\n\n\nTree=75\nnum_leaves=7\nnum_cat=0\nsplit_feature=96 145 62 0 21 45\nsplit_gain=5.79152 8.36561 10.6734 9.19468 11.1889 9.84927\nthreshold=-0.32063143046797205 0.018835055384355041 -0.1724516044706709 45849.500000000007 2789.291587643379 -0.087219124574745274\ndecision_type=10 10 10 2 2 10\nleft_child=-1 3 -3 4 5 -2\nright_child=1 2 -4 -5 -6 -7\nleaf_value=1.8993079076777467e-05 3.3751835621479959e-05 -5.6118747804703157e-05 -2.0587240976968061e-06 8.4014995151701765e-05 -3.5425307493213787e-05 -8.3795178798700851e-06\nleaf_weight=1776 1332 1239 2116 1099 1297 1348\nleaf_count=1776 1332 1239 2116 1099 1297 1348\ninternal_value=-4.8986e-06 -0.000551536 -0.00248882 0.00072892 -0.000389741 0.00145522\ninternal_weight=10207 8431 3355 5076 3977 2680\ninternal_count=10207 8431 3355 5076 3977 2680\nis_linear=0\nshrinkage=0.05\n\n\nTree=76\nnum_leaves=7\nnum_cat=0\nsplit_feature=23 52 95 63 145 161\nsplit_gain=6.17961 7.943 9.02374 10.2024 7.77981 6.95742\nthreshold=0.083333333333332829 1.9068223373340256 0.038854700259339466 -0.34243595936945059 -0.026573021653398084 -0.11900809675374295\ndecision_type=2 10 10 8 8 10\nleft_child=4 2 3 -2 -1 -5\nright_child=1 -3 -4 5 -6 -7\nleaf_value=5.6630873504673209e-06 -2.4015222776369156e-05 3.1494747804048272e-05 -2.9903616781876185e-05 -2.3788263201277522e-06 -3.460611626588942e-05 3.8809503026671383e-05\nleaf_weight=1120 1515 1593 1234 1349 1107 2289\nleaf_count=1120 1515 1593 1234 1349 1107 2289\ninternal_value=-7.3479e-05 0.000576441 -0.000211367 0.000708325 -0.00240233 0.00214404\ninternal_weight=10207 7980 6387 5153 2227 3638\ninternal_count=10207 7980 6387 5153 2227 3638\nis_linear=0\nshrinkage=0.05\n\n\nTree=77\nnum_leaves=7\nnum_cat=0\nsplit_feature=77 62 127 40 100 100\nsplit_gain=6.81508 7.81196 9.20141 9.02299 7.57989 6.41216\nthreshold=-0.78981972897310204 0.71274288534707653 0.21042960347264109 0.124920656240619 -0.47834795953045406 0.58314101718939004\ndecision_type=8 8 8 10 10 10\nleft_child=-1 2 3 4 -2 -6\nright_child=1 -3 -4 -5 5 -7\nleaf_value=1.2835558518759275e-05 1.542152099320671e-05 -2.7612334582326741e-05 5.8408084278365889e-05 1.5510413108154187e-05 -5.9762796115453076e-05 -9.2228525541825151e-06\nleaf_weight=1681 1008 1865 1038 2016 1097 1502\nleaf_count=1681 1008 1865 1038 2016 1097 1502\ninternal_value=-2.4493e-05 -0.00059817 0.000202672 -0.000595767 -0.00209315 -0.00352058\ninternal_weight=10207 8526 6661 5623 3607 2599\ninternal_count=10207 8526 6661 5623 3607 2599\nis_linear=0\nshrinkage=0.05\n\n\nTree=78\nnum_leaves=7\nnum_cat=0\nsplit_feature=149 148 120 54 89 147\nsplit_gain=6.12251 7.5191 11.9892 10.0876 8.43833 8.09877\nthreshold=0.48992907383192735 0.070498919985869782 0.30925522499126895 2.9038022284444147 100.73017526361333 -0.031093511378105117\ndecision_type=10 8 10 10 10 10\nleft_child=1 3 -3 4 5 -1\nright_child=-2 2 -4 -5 -6 -7\nleaf_value=1.2375931993751869e-05 -2.4845423139944738e-05 3.8156761749107943e-05 -5.3907750145444214e-06 -4.3320371981986675e-05 4.9501947547611289e-05 -2.6543063920312121e-05\nleaf_weight=2330 1036 1791 1354 1133 1036 1527\nleaf_count=2330 1036 1791 1354 1133 1036 1527\ninternal_value=-2.4493e-05 0.00038709 0.00236884 -0.000647195 0.000337216 -0.000738916\ninternal_weight=10207 9171 3145 6026 4893 3857\ninternal_count=10207 9171 3145 6026 4893 3857\nis_linear=0\nshrinkage=0.05\n\n\nTree=79\nnum_leaves=7\nnum_cat=0\nsplit_feature=24 23 118 119 107 108\nsplit_gain=6.52506 9.68371 7.95304 12.1123 9.11207 9.0375\nthreshold=0.085960591133004124 0.083333333333332829 -0.017837158879423106 0.021239536865319989 0.13610018363142343 -0.05482980298647621\ndecision_type=2 2 10 10 8 10\nleft_child=-1 -2 4 5 -3 -4\nright_child=1 2 3 -5 -6 -7\nleaf_value=1.8102290970336649e-05 -3.0975258749287086e-05 5.1174955424735165e-05 -6.4884285450059109e-05 1.2373708131657138e-05 -4.8276497852353835e-06 -7.477845221664994e-07\nleaf_weight=1964 1813 1512 1080 1824 1013 1001\nleaf_count=1964 1813 1512 1080 1824 1013 1001\ninternal_value=-4.40874e-05 -0.000661167 0.000248834 -0.00116517 0.00243564 -0.00377222\ninternal_weight=10207 8243 6430 3905 2525 2081\ninternal_count=10207 8243 6430 3905 2525 2081\nis_linear=0\nshrinkage=0.05\n\n\nTree=80\nnum_leaves=7\nnum_cat=0\nsplit_feature=62 40 131 133 44 129\nsplit_gain=6.07362 9.69825 8.9277 8.65012 7.5574 7.54002\nthreshold=0.75241199626333266 1.0000000180025095e-35 0.62583232810465084 -0.09061829689572741 0.37840909090909097 0.57941926988467363\ndecision_type=8 10 8 10 8 8\nleft_child=1 5 3 -3 -2 -1\nright_child=4 2 -4 -5 -6 -7\nleaf_value=-1.7341041582417955e-05 -3.2043708509246015e-05 1.9622968030600916e-05 6.1794306906680908e-05 -1.3770577509203614e-05 3.8991325935699359e-06 2.1085824634579323e-05\nleaf_weight=3127 1078 1069 1024 1486 1005 1418\nleaf_count=3127 1078 1069 1024 1486 1005 1418\ninternal_value=-6.36818e-05 0.000553914 0.0025007 0.000919765 -0.0024724 -0.000979098\ninternal_weight=10207 8124 3579 2555 2083 4545\ninternal_count=10207 8124 3579 2555 2083 4545\nis_linear=0\nshrinkage=0.05\n\n\nTree=81\nnum_leaves=7\nnum_cat=0\nsplit_feature=90 42 81 88 141 152\nsplit_gain=5.94693 10.4559 10.1174 9.18199 14.0731 8.66089\nthreshold=3.7222222222222228 164.80590471882581 -0.14310957683134376 1.7831533943604265 0.042034209761528656 0.0082186267492277993\ndecision_type=8 8 10 8 10 10\nleft_child=2 -2 5 4 -4 -1\nright_child=1 -3 3 -5 -6 -7\nleaf_value=2.9498239790383728e-05 5.3982502846239961e-05 -6.8460264642476077e-06 -2.6666620141962987e-05 -3.7593847086994242e-05 4.1078992293151946e-05 -1.0650487945411804e-05\nleaf_weight=1697 1218 1710 1405 1937 1032 1208\nleaf_count=1697 1218 1710 1405 1937 1032 1208\ninternal_value=-2.4493e-05 0.00187842 -0.000789944 -0.0023091 -0.000266721 0.00149742\ninternal_weight=10207 2928 7279 4374 2437 2905\ninternal_count=10207 2928 7279 4374 2437 2905\nis_linear=0\nshrinkage=0.05\n\n\nTree=82\nnum_leaves=7\nnum_cat=0\nsplit_feature=146 116 109 77 141 94\nsplit_gain=6.59893 11.6605 7.63212 12.5597 6.89115 6.7544\nthreshold=0.15976303094973701 1.3883152952760742 -0.18131194932025527 -0.51362021922264456 0.030862873371686094 -0.2562339905129839\ndecision_type=10 10 8 8 10 10\nleft_child=1 2 5 -4 -5 -1\nright_child=-2 -3 3 4 -6 -7\nleaf_value=6.7829782441200682e-06 -2.5107479197176032e-05 -3.6657984922975112e-05 6.866235571860434e-05 -9.5745916725083816e-06 3.5490907602903065e-05 -1.7420508467352033e-05\nleaf_weight=1865 1554 1257 1285 1637 1164 1445\nleaf_count=1865 1554 1257 1285 1637 1164 1445\ninternal_value=-2.4493e-05 0.000514273 0.00127096 0.00271659 0.000838986 -0.000513595\ninternal_weight=10207 8653 7396 4086 2801 3310\ninternal_count=10207 8653 7396 4086 2801 3310\nis_linear=0\nshrinkage=0.05\n\n\nTree=83\nnum_leaves=7\nnum_cat=0\nsplit_feature=21 26 10 120 110 90\nsplit_gain=5.90019 10.5857 9.58745 7.67163 7.41868 6.8366\nthreshold=1868.5760870192637 -0.0013559328266281032 93459234.566459998 0.30925522499126895 -0.0088442530313575501 0.80322580645161301\ndecision_type=2 10 2 10 10 8\nleft_child=1 -1 4 -3 -2 -4\nright_child=2 3 5 -5 -6 -7\nleaf_value=4.1006460589548984e-05 -5.3641206533142324e-05 6.2413744985400509e-06 -1.5852875401851777e-05 -1.8459425316975792e-05 -8.2959777408800884e-06 3.1323873529864055e-05\nleaf_weight=1822 1032 1529 2019 1016 1242 1547\nleaf_count=1822 1032 1529 2019 1016 1242 1547\ninternal_value=-7.3479e-05 0.00131669 -0.00111301 -0.000766208 -0.00364996 0.000504767\ninternal_weight=10207 4367 5840 2545 2274 3566\ninternal_count=10207 4367 5840 2545 2274 3566\nis_linear=0\nshrinkage=0.05\n\n\nTree=84\nnum_leaves=7\nnum_cat=0\nsplit_feature=52 72 77 155 88 110\nsplit_gain=5.93798 10.1595 15.4589 10.2471 11.1068 7.06394\nthreshold=1.9068223373340256 -0.0095082864936352745 0.20815637319384886 -1.0388353725498352 11.474071467884867 -0.020291024925645603\ndecision_type=10 8 10 8 8 8\nleft_child=1 2 -1 4 -3 -5\nright_child=-2 3 -4 5 -6 -7\nleaf_value=5.8902869975990491e-05 1.167446435921661e-05 -9.2129975856441818e-06 -1.6660931480433178e-05 -1.7193864157350695e-05 -5.8343539487253746e-05 1.2628110850751086e-05\nleaf_weight=1637 2120 1103 1296 1568 1000 1483\nleaf_count=1637 2120 1103 1296 1568 1000 1483\ninternal_value=-4.40874e-05 -0.000661556 0.00168769 -0.00199845 -0.00468379 -0.000147493\ninternal_weight=10207 8087 2933 5154 2103 3051\ninternal_count=10207 8087 2933 5154 2103 3051\nis_linear=0\nshrinkage=0.05\n\n\nTree=85\nnum_leaves=7\nnum_cat=0\nsplit_feature=77 90 5 81 84 116\nsplit_gain=5.60926 7.0659 8.5019 7.09573 6.7885 6.0868\nthreshold=-0.82456940521785904 3.416666666666667 43907838046.053436 -0.14310957683134376 -0.25640632156600868 -0.0072811687346598366\ndecision_type=8 8 2 10 10 10\nleft_child=-1 3 -3 4 -2 -5\nright_child=1 2 -4 5 -6 -7\nleaf_value=1.1874657720322221e-05 -8.9046078209673043e-06 -4.244623653011474e-06 5.8807791480872305e-05 -4.2815293618076476e-05 4.2513440994873368e-05 -1.0143372831599297e-05\nleaf_weight=1435 1246 1486 1040 1222 1175 2603\nleaf_count=1435 1246 1486 1040 1222 1175 2603\ninternal_value=6.36818e-05 -0.000410397 0.00182106 -0.00131284 0.000805452 -0.00265359\ninternal_weight=10207 8772 2526 6246 2421 3825\ninternal_count=10207 8772 2526 6246 2421 3825\nis_linear=0\nshrinkage=0.05\n\n\nend of trees\n\nfeature_importances:\nupper_wick_pct=23\nrsi_pct_change_24=22\nusdt_inst_inflow_pct_change_1h=16\ndex_inflow_pct_change_6h=16\nprice_pct_change_24h=16\nrsi_pct_change_3=16\nprice_pct_change_1h=15\nusd_volume_pct_change_1h=15\nprice_pct_change_3h=15\nrsi_pct_change_1=15\nlower_wick_pct=13\nusdt_total_usd_volume=12\nusdt_dex_inflow_pct_change_3h=11\nmacd_pct_change_24=11\nrel_dist_to_bb_upper=10\nusd_volume=9\ncex_outflow_pct_change_3h=9\nusdt_inst_outflow_pct_change_1h=7\nusdt_inst_tx_count_pct_change_24h=7\nusdt_inst_outflow=6\nusdt_dex_outflow_pct_change_1h=6\ndex_inflow_pct_change_3h=6\nusdt_inst_outflow_pct_change_3h=6\nusdt_inst_inflow_pct_change_6h=6\nusdt_inst_outflow_pct_change_6h=6\nusdt_inst_outflow_pct_change_24h=6\nrsi_pct_change_6=6\nmacd_pct_change_3=6\natr_pct_change_3=6\ntrade_count=5\nusdt_total_tx_count_pct_change_6h=5\nusdt_dex_inflow_pct_change_6h=5\ntotal_tx_count_pct_change_12h=5\nusdt_inst_inflow_pct_change_12h=5\ndex_outflow_pct_change_24h=5\nusdt_dex_inflow_pct_change_24h=5\nusdt_dex_tx_count_pct_change_24h=5\natr_pct_change_1=5\nbody_pct=4\nusdt_total_tx_count_pct_change_1h=4\nusdt_cex_tx_count_pct_change_3h=4\nusdt_inst_tx_count_pct_change_6h=4\ncex_tx_count_pct_change_12h=4\ntrade_count_pct_change_24h=4\nusdt_dex_outflow_pct_change_24h=4\ndex_tx_count=3\ntrade_count_pct_change_1h=3\ntotal_tx_count_pct_change_1h=3\nusdt_cex_outflow_pct_change_1h=3\nusdt_inst_tx_count_pct_change_1h=3\ncex_tx_count_pct_change_3h=3\ndex_tx_count_pct_change_3h=3\nusdt_inst_inflow_pct_change_3h=3\nusd_volume_pct_change_3h=3\nprice_pct_change_6h=3\nusdt_dex_outflow_pct_change_6h=3\ndex_inflow_pct_change_12h=3\nusdt_dex_tx_count_pct_change_12h=3\nusdt_inst_outflow_pct_change_12h=3\ntotal_tx_count_pct_change_24h=3\ncex_inflow_pct_change_24h=3\ndex_inflow_pct_change_24h=3\nusdt_total_tx_count_pct_change_24h=3\nusdt_cex_tx_count_pct_change_24h=3\natr_pct_change_24=3\ntotal_tx_count=2\ncex_outflow=2\ndex_inflow=2\nusdt_cex_inflow=2\ncex_tx_count_pct_change_1h=2\ndex_outflow_pct_change_1h=2\nusdt_total_usd_volume_pct_change_1h=2\nusdt_dex_outflow_pct_change_3h=2\nusdt_cex_outflow_pct_change_6h=2\nusd_volume_pct_change_6h=2\nprice_pct_change_12h=2\ndex_outflow_pct_change_12h=2\ndex_tx_count_pct_change_12h=2\nusdt_total_tx_count_pct_change_12h=2\nusdt_total_usd_volume_pct_change_12h=2\ndex_tx_count_pct_change_24h=2\nusdt_cex_outflow_pct_change_24h=2\nrel_dist_to_bb_lower=2\nrsi_pct_change_12=2\nmacd_pct_change_1=2\nmacd_pct_change_6=2\nmacd_pct_change_12=2\natr=2\ndex_outflow=1\ntotal_usd_volume=1\nusdt_cex_tx_count_pct_change_1h=1\nusdt_dex_inflow_pct_change_1h=1\nusdt_cex_outflow_pct_change_3h=1\nusdt_inst_tx_count_pct_change_3h=1\ndex_tx_count_pct_change_6h=1\nusdt_cex_tx_count_pct_change_6h=1\nusdt_dex_tx_count_pct_change_6h=1\ntrade_count_pct_change_12h=1\nusdt_cex_tx_count_pct_change_12h=1\nusdt_dex_inflow_pct_change_12h=1\nusdt_dex_outflow_pct_change_12h=1\nusdt_total_usd_volume_pct_change_24h=1\nrel_dist_to_ema_20=1\nmacd=1\natr_pct_change_6=1\n\nparameters:\n[boosting: gbdt]\n[objective: regression_l1]\n[metric: custom]\n[tree_learner: serial]\n[device_type: cpu]\n[data_sample_strategy: bagging]\n[data: ]\n[valid: ]\n[num_iterations: 2000]\n[learning_rate: 0.05]\n[num_leaves: 7]\n[num_threads: 0]\n[seed: 0]\n[deterministic: 0]\n[force_col_wise: 0]\n[force_row_wise: 0]\n[histogram_pool_size: -1]\n[max_depth: -1]\n[min_data_in_leaf: 1000]\n[min_sum_hessian_in_leaf: 0.001]\n[bagging_fraction: 1]\n[pos_bagging_fraction: 1]\n[neg_bagging_fraction: 1]\n[bagging_freq: 0]\n[bagging_seed: 3]\n[bagging_by_query: 0]\n[feature_fraction: 0.6]\n[feature_fraction_bynode: 1]\n[feature_fraction_seed: 2]\n[extra_trees: 0]\n[extra_seed: 6]\n[early_stopping_round: 0]\n[early_stopping_min_delta: 0]\n[first_metric_only: 1]\n[max_delta_step: 0]\n[lambda_l1: 0]\n[lambda_l2: 0]\n[linear_lambda: 0]\n[min_gain_to_split: 0]\n[drop_rate: 0.1]\n[max_drop: 50]\n[skip_drop: 0.5]\n[xgboost_dart_mode: 0]\n[uniform_drop: 0]\n[drop_seed: 4]\n[top_rate: 0.2]\n[other_rate: 0.1]\n[min_data_per_group: 100]\n[max_cat_threshold: 32]\n[cat_l2: 10]\n[cat_smooth: 10]\n[max_cat_to_onehot: 4]\n[top_k: 20]\n[monotone_constraints: ]\n[monotone_constraints_method: basic]\n[monotone_penalty: 0]\n[feature_contri: ]\n[forcedsplits_filename: ]\n[refit_decay_rate: 0.9]\n[cegb_tradeoff: 1]\n[cegb_penalty_split: 0]\n[cegb_penalty_feature_lazy: ]\n[cegb_penalty_feature_coupled: ]\n[path_smooth: 0]\n[interaction_constraints: ]\n[verbosity: -1]\n[saved_feature_importance_type: 0]\n[use_quantized_grad: 0]\n[num_grad_quant_bins: 4]\n[quant_train_renew_leaf: 0]\n[stochastic_rounding: 1]\n[linear_tree: 0]\n[max_bin: 255]\n[max_bin_by_feature: ]\n[min_data_in_bin: 3]\n[bin_construct_sample_cnt: 200000]\n[data_random_seed: 1]\n[is_enable_sparse: 1]\n[enable_bundle: 1]\n[use_missing: 1]\n[zero_as_missing: 0]\n[feature_pre_filter: 1]\n[pre_partition: 0]\n[two_round: 0]\n[header: 0]\n[label_column: ]\n[weight_column: ]\n[group_column: ]\n[ignore_column: ]\n[categorical_feature: ]\n[forcedbins_filename: ]\n[precise_float_parser: 0]\n[parser_config_file: ]\n[objective_seed: 5]\n[num_class: 1]\n[is_unbalance: 0]\n[scale_pos_weight: 1]\n[sigmoid: 1]\n[boost_from_average: 1]\n[reg_sqrt: 0]\n[alpha: 0.9]\n[fair_c: 1]\n[poisson_max_delta_step: 0.7]\n[tweedie_variance_power: 1.5]\n[lambdarank_truncation_level: 30]\n[lambdarank_norm: 1]\n[label_gain: ]\n[lambdarank_position_bias_regularization: 0]\n[eval_at: ]\n[multi_error_top_k: 1]\n[auc_mu_weights: ]\n[num_machines: 1]\n[local_listen_port: 12400]\n[time_out: 120]\n[machine_list_filename: ]\n[machines: ]\n[gpu_platform_id: -1]\n[gpu_device_id: -1]\n[gpu_use_dp: 0]\n[num_gpu: 1]\n\nend of parameters\n\npandas_categorical:[]\n", "hyperparams": {"learning_rate": 0.05, "num_leaves": 7, "feature_fraction": 0.6, "min_data_in_leaf": 1000}}