{"model_str": "tree\nversion=v4\nnum_class=1\nnum_tree_per_iteration=1\nlabel_index=0\nmax_feature_idx=161\nobjective=regression_l1\nfeature_names=trade_count total_tx_count cex_inflow cex_outflow cex_tx_count dex_inflow dex_outflow dex_tx_count inst_tx_count usdt_total_tx_count usdt_cex_inflow usdt_cex_outflow usdt_cex_tx_count usdt_dex_inflow usdt_dex_outflow usdt_dex_tx_count usdt_inst_inflow usdt_inst_outflow usdt_inst_tx_count usd_volume total_usd_volume usdt_total_usd_volume body_pct upper_wick_pct lower_wick_pct trade_count_pct_change_1h price_pct_change_1h total_tx_count_pct_change_1h cex_inflow_pct_change_1h cex_outflow_pct_change_1h cex_tx_count_pct_change_1h dex_inflow_pct_change_1h dex_outflow_pct_change_1h dex_tx_count_pct_change_1h inst_tx_count_pct_change_1h usdt_total_tx_count_pct_change_1h usdt_cex_inflow_pct_change_1h usdt_cex_outflow_pct_change_1h usdt_cex_tx_count_pct_change_1h usdt_dex_inflow_pct_change_1h usdt_dex_outflow_pct_change_1h usdt_dex_tx_count_pct_change_1h usdt_inst_inflow_pct_change_1h usdt_inst_outflow_pct_change_1h usdt_inst_tx_count_pct_change_1h usd_volume_pct_change_1h total_usd_volume_pct_change_1h usdt_total_usd_volume_pct_change_1h trade_count_pct_change_3h price_pct_change_3h total_tx_count_pct_change_3h cex_inflow_pct_change_3h cex_outflow_pct_change_3h cex_tx_count_pct_change_3h dex_inflow_pct_change_3h dex_outflow_pct_change_3h dex_tx_count_pct_change_3h inst_tx_count_pct_change_3h usdt_total_tx_count_pct_change_3h usdt_cex_inflow_pct_change_3h usdt_cex_outflow_pct_change_3h usdt_cex_tx_count_pct_change_3h usdt_dex_inflow_pct_change_3h usdt_dex_outflow_pct_change_3h usdt_dex_tx_count_pct_change_3h usdt_inst_inflow_pct_change_3h usdt_inst_outflow_pct_change_3h usdt_inst_tx_count_pct_change_3h usd_volume_pct_change_3h total_usd_volume_pct_change_3h usdt_total_usd_volume_pct_change_3h trade_count_pct_change_6h price_pct_change_6h total_tx_count_pct_change_6h cex_inflow_pct_change_6h cex_outflow_pct_change_6h cex_tx_count_pct_change_6h dex_inflow_pct_change_6h dex_outflow_pct_change_6h dex_tx_count_pct_change_6h inst_tx_count_pct_change_6h usdt_total_tx_count_pct_change_6h usdt_cex_inflow_pct_change_6h usdt_cex_outflow_pct_change_6h usdt_cex_tx_count_pct_change_6h usdt_dex_inflow_pct_change_6h usdt_dex_outflow_pct_change_6h usdt_dex_tx_count_pct_change_6h usdt_inst_inflow_pct_change_6h usdt_inst_outflow_pct_change_6h usdt_inst_tx_count_pct_change_6h usd_volume_pct_change_6h total_usd_volume_pct_change_6h usdt_total_usd_volume_pct_change_6h trade_count_pct_change_12h price_pct_change_12h total_tx_count_pct_change_12h cex_inflow_pct_change_12h cex_outflow_pct_change_12h cex_tx_count_pct_change_12h dex_inflow_pct_change_12h dex_outflow_pct_change_12h dex_tx_count_pct_change_12h inst_tx_count_pct_change_12h usdt_total_tx_count_pct_change_12h usdt_cex_inflow_pct_change_12h usdt_cex_outflow_pct_change_12h usdt_cex_tx_count_pct_change_12h usdt_dex_inflow_pct_change_12h usdt_dex_outflow_pct_change_12h usdt_dex_tx_count_pct_change_12h usdt_inst_inflow_pct_change_12h usdt_inst_outflow_pct_change_12h usdt_inst_tx_count_pct_change_12h usd_volume_pct_change_12h total_usd_volume_pct_change_12h usdt_total_usd_volume_pct_change_12h trade_count_pct_change_24h price_pct_change_24h total_tx_count_pct_change_24h cex_inflow_pct_change_24h cex_outflow_pct_change_24h cex_tx_count_pct_change_24h dex_inflow_pct_change_24h dex_outflow_pct_change_24h dex_tx_count_pct_change_24h inst_tx_count_pct_change_24h usdt_total_tx_count_pct_change_24h usdt_cex_inflow_pct_change_24h usdt_cex_outflow_pct_change_24h usdt_cex_tx_count_pct_change_24h usdt_dex_inflow_pct_change_24h usdt_dex_outflow_pct_change_24h usdt_dex_tx_count_pct_change_24h usdt_inst_inflow_pct_change_24h usdt_inst_outflow_pct_change_24h usdt_inst_tx_count_pct_change_24h usd_volume_pct_change_24h total_usd_volume_pct_change_24h usdt_total_usd_volume_pct_change_24h rel_dist_to_bb_upper rel_dist_to_bb_lower rel_dist_to_ema_20 rel_dist_to_ema_60 rsi rsi_pct_change_1 rsi_pct_change_3 rsi_pct_change_6 rsi_pct_change_12 rsi_pct_change_24 macd macd_pct_change_1 macd_pct_change_3 macd_pct_change_6 macd_pct_change_12 macd_pct_change_24 atr atr_pct_change_1 atr_pct_change_3 atr_pct_change_6 atr_pct_change_12 atr_pct_change_24\nfeature_infos=[113:262231] [2:1858] [0:257370149.68112859] [0:254771972.03027612] [0:1843] [0:4440765.7317626439] [0:4228960.1830392722] [0:243] [0:6] [2245:15334] [2916317.1231830004:5115828216.3896236] [3267603.0266999998:5180011117.86765] [874:9044] [1232673.7434360003:315489486.48492789] [1277340.6110969996:363499608.02772105] [289:3107] [0:216629202.79394493] [0:288641394.375] [0:463] [12747.828799999999:85815911.0414] [157.81359578565744:198812211.30303198] [7930082.0295799151:3290969798.615201] [0:0.99999951923100028] [0:0.94117567968430005] [0:0.97999804000391111] [-0.86902379364020454:19.199999999999999] [-0.13336216839677051:0.19553308048883267] [-0.9854682454251884:65.357142857142861] [-1:inf] [-1:inf] [-1:inf] [-1:inf] [-1:inf] [-1:inf] [-1:inf] [-0.56218756248750257:1.6314127861089185] [-0.98430765797093345:83.619020625252517] [-0.98598155013839894:95.615606508492633] [-0.72114108801415311:3.3411821239788564] [-0.93146411833144316:26.1827239671474] [-0.94524211340809805:36.636533678799864] [-0.59170854271356776:1.3979238754325261] [-1:inf] [-1:inf] [-1:inf] [-0.93620510838345217:20.012929820191633] [-0.99932006161573161:1458.2998523285157] [-0.95234952834133313:15.123768057688842] [-0.9439993392252416:38.655650319829427] [-0.17786464695822135:0.31061376737877255] [-0.9935414424111948:52.085714285714289] [-1:inf] [-1:inf] [-1:inf] [-1:inf] [-1:inf] [-1:inf] [-1:inf] [-0.6244021799577355:1.4868347338935575] [-0.9844506711926504:71.02445044190155] [-0.98501293914134824:63.436698318686012] [-0.75471406491499227:3.7174934725848567] [-0.92752907740435375:27.627134890418422] [-0.93507467582975889:24.113154962112816] [-0.65226939970717424:2.0831918505942273] [-1:inf] [-1:inf] [-1:inf] [-0.94951734445984137:43.075729567957943] [-0.99992605840254611:2584.2909513226687] [-0.94345282687301346:22.398063657185364] [-0.95472624185495469:30.439613526570049] [-0.22732843137254899:0.44236475690481636] [-0.98493003229278797:46.641025641025642] [-1:inf] [-1:inf] [-1:inf] [-1:inf] [-1:inf] [-1:inf] [-1:inf] [-0.64702433304016416:2.9167305236270753] [-0.98425277278344547:131.12806549218018] [-0.98644541239139694:109.87891732675828] [-0.74823087129588672:5.1164522681110363] [-0.92695643887350654:22.502387279143978] [-0.92662172800472276:24.85716813139824] [-0.66666666666666674:2.1903114186851211] [-1:inf] [-1:inf] [-1:inf] [-0.95541597389682165:42.050018607664782] [-0.99942102701346702:1795.4477964885064] [-0.95896531402766627:37.597287625973287] [-0.97062305553261197:43.072274881516584] [-0.28067550235143213:0.56672281489799725] [-0.98762109795479014:83.454545454545453] [-1:inf] [-1:inf] [-1:inf] [-1:inf] [-1:inf] [-1:inf] [-1:inf] [-0.66083974573435933:2.1154002438033319] [-0.99361271705842413:124.45761252654552] [-0.99055972116990842:94.181135302992985] [-0.79898162497232672:3.977410468319559] [-0.94491847291012854:28.61370307165274] [-0.9625053078366067:29.2586898997106] [-0.72476340694006303:2.5233644859813085] [-1:inf] [-1:inf] [-1:inf] [-0.97543422043298833:69.62580575117039] [-0.99976158134844217:3970.7457438116498] [-0.97182289322317694:25.866019406065185] [-0.97368198358297364:45.516068052930059] [-0.30186764108810393:0.76443734307235789] [-0.98762109795479014:67.81481481481481] [-1:inf] [-1:inf] [-1:inf] [-1:inf] [-1:inf] [-1:inf] [-1:inf] [-0.66100770967993139:1.6735277301315037] [-0.99053517541642033:173.68052252564812] [-0.99475860387297654:114.67882957523902] [-0.80915524104378589:4.1389992057188243] [-0.96953516752729985:24.462492177104309] [-0.97224008306495802:22.652000890399673] [-0.76881134133042528:2.2300531914893615] [-1:inf] [-1:inf] [-1:inf] [-0.97971079890381341:52.527377483676062] [-0.99933287825368855:7539.5764260716223] [-0.95961979191674784:27.582237431501305] [-0.11353012298888368:0.53272534662175963] [-0.11015345973530856:0.48274862608382607] [-0.25349883473612578:0.2661812996583473] [-0.37111656535180026:0.41294515827578082] [9.1950314551186665:91.308573059389317] [-0.47686295315234895:1.2297006362465535] [-0.69860697953427953:2.4277605251917689] [-0.76313517719082558:3.056134161293115] [-0.81863439245094771:4.4990405879476985] [-0.80869146799130065:4.7393826527596374] [-0.042412602522837961:0.078026606132065801] [-1044.94168080645:180.33223929889735] [-1425.749725229344:393.97232563411734] [-440.08129698056143:1453.5555621708293] [-11735.178137503639:1783.8903371290826] [-16743.801919444231:2856.9110699288776] [0:0.059948720128929191] [-0.055561191272572752:inf] [-0.13692693097527331:inf] [-0.24491440769587502:inf] [-0.40015299886469591:inf] [-0.50413271091969425:inf]\ntree_sizes=1501 1556 1560 1535 1544 1542 1539 1535\n\nTree=0\nnum_leaves=15\nnum_cat=0\nsplit_feature=146 143 70 89 98 109 13 155 42 149 48 70 92 76\nsplit_gain=37.6157 21.96 18.5057 15.9832 15.422 15.3731 14.5812 16.3987 14.3195 21.5601 13.3485 11.0138 10.2666 11.1145\nthreshold=-0.082258257975186086 0.01277528253767061 -0.40647525780148275 -0.25194790511389753 6.267752268508116 -0.43250670607782349 30100169.860139992 -0.90661334752647538 0.43663950866072615 0.53247327707391889 0.13278837721112638 -0.1379124634065125 -0.014761824242708331 -0.24871134020618554\ndecision_type=10 8 10 10 10 8 2 10 8 10 10 10 10 8\nleft_child=3 8 -3 5 10 -1 7 -7 -2 12 11 -4 13 -10\nright_child=1 2 4 -5 -6 6 -8 -9 9 -11 -12 -13 -14 -15\nleaf_value=-4.5558088459074497e-05 0 -5.0344021292403344e-05 8.2223338540643464e-05 8.4921164670959115e-05 -4.7136464854702356e-05 0.0001107197254896164 -2.9435627220664175e-05 1.7503938579466194e-05 -3.4846576454583555e-05 -0.00012313379556871951 0.00010973510798066855 0 -4.8632232937961818e-05 1.8709074356593192e-05\nleaf_weight=329 2184 469 369 1268 301 379 450 471 734 354 501 791 1438 787\nleaf_count=329 2184 469 369 1268 301 379 450 471 734 354 501 791 1438 787\ninternal_value=0.000457275 -0.00132442 0.00263266 0.0053331 0.00476555 0.00205648 0.0045 0.00835294 -0.0030744 -0.00514639 0.00665262 0.0037069 -0.00375127 -0.000887574\ninternal_weight=10825 7928 2431 2897 1962 1629 1300 850 5497 3313 1661 1160 2959 1521\ninternal_count=10825 7928 2431 2897 1962 1629 1300 850 5497 3313 1661 1160 2959 1521\nis_linear=0\nshrinkage=0.05\n\n\nTree=1\nnum_leaves=15\nnum_cat=0\nsplit_feature=49 143 70 24 42 149 149 25 94 108 130 129 161 105\nsplit_gain=32.6881 17.4858 15.8049 15.6818 15.3897 18.6639 12.7451 12.5 14.5646 13.7178 10.6589 15.1376 13.3074 15.1696\nthreshold=-0.010347601309505015 0.013098676492715016 -0.40647525780148275 0.25806396115307445 0.43663950866072615 0.53247327707391889 0.068114621272690537 0.28509773961810597 0.076583044775746748 -0.085258293379713787 0.32366147493334946 -0.13365636284396173 0.1444223498301456 0.92505312021899555\ndecision_type=10 8 10 2 8 10 10 10 8 10 10 10 10 10\nleft_child=3 4 -3 -1 -2 10 7 8 9 -4 11 -6 13 -13\nright_child=1 2 6 -5 5 -7 -8 -9 -10 -11 -12 12 -14 -15\nleaf_value=9.5965362706920142e-05 7.118957728380338e-06 -3.7557344476226725e-05 -3.2594526419416074e-05 1.9156704365741464e-05 -2.5907559756888079e-06 -0.00011243919580010698 7.612457309733145e-05 7.8485726699000229e-05 -8.7805751245468859e-05 7.535834796726704e-05 5.6437017046846446e-05 -4.2191327083855866e-05 2.4316116468980911e-06 -0.00010385363886598499\nleaf_weight=1188 2439 466 329 1051 1610 369 618 310 342 322 313 775 331 362\nleaf_count=1188 2439 466 329 1051 1610 369 618 310 342 322 313 775 331 362\ninternal_value=0.000448037 -0.000955043 0.00268119 0.00582849 -0.00235522 -0.0043617 0.00468506 0.00188028 -0.000855992 0.00353303 -0.00319965 -0.00409357 -0.00776567 -0.0103342\ninternal_weight=10825 8586 2387 2239 6199 3760 1921 1303 993 651 3391 3078 1468 1137\ninternal_count=10825 8586 2387 2239 6199 3760 1921 1303 993 651 3391 3078 1468 1137\nis_linear=0\nshrinkage=0.05\n\n\nTree=2\nnum_leaves=15\nnum_cat=0\nsplit_feature=146 143 98 135 68 89 109 13 155 120 63 159 156 109\nsplit_gain=32.7508 21.5685 17.8286 14.4115 13.8759 13.1984 12.5139 12.5193 15.4898 12.5041 13.1419 12.0594 11.5474 15.5267\nthreshold=-0.082258257975186086 0.010675216140913459 10.982137879274152 -0.64319504463658517 0.061156005833247325 -0.25194790511389753 -0.43250670607782349 30100169.860139992 -0.90661334752647538 49.753656005790823 1.6025711393064057 -0.021790445074645278 0.0034667540777521722 -0.49317523346164216\ndecision_type=10 8 8 10 10 10 8 2 10 10 10 10 2 10\nleft_child=5 9 3 4 11 6 -1 8 -8 10 12 -3 13 -2\nright_child=1 2 -4 -5 -6 -7 7 -9 -10 -11 -12 -13 -14 -15\nleaf_value=-4.4944101464352574e-05 -4.4234844281163533e-05 8.5242777022358492e-06 -8.5923261216521501e-05 6.7186308151576674e-05 4.7404359731444864e-05 7.9255913813540245e-05 0.0001042259039968485 -2.839181186573114e-05 1.1830473515146877e-05 -6.7991631876793693e-05 -7.8419976525765384e-05 -9.6590534507413396e-05 -2.6925152982585137e-05 3.2881852956052176e-05\nleaf_weight=329 347 450 303 1119 418 1268 379 450 471 341 423 345 3070 1112\nleaf_count=329 347 450 303 1119 418 1268 379 450 471 341 423 345 3070 1112\ninternal_value=0.000300231 -0.00136226 0.00233397 0.00381647 4.12201e-05 0.00484984 0.00187231 0.00407692 0.00764706 -0.00320234 -0.00256462 -0.00383648 -0.00177743 0.00188485\ninternal_weight=10825 7928 2635 2332 1213 2897 1629 1300 850 5293 4952 795 4529 1459\ninternal_count=10825 7928 2635 2332 1213 2897 1629 1300 850 5293 4952 795 4529 1459\nis_linear=0\nshrinkage=0.05\n\n\nTree=3\nnum_leaves=15\nnum_cat=0\nsplit_feature=49 42 99 143 28 92 21 109 52 24 20 47 39 100\nsplit_gain=26.8556 16.3864 19.6549 17.052 14.2876 13.3108 13.2966 15.1822 12.7884 11.5954 10.8173 10.433 9.69415 9.16486\nthreshold=-0.010347601309505015 1.0000000180025095e-35 1.7573529411764708 0.028502999180711513 2.7752569857312639 1.2022490782463795 125870652.31061271 -0.33934380371021511 15.30653491183817 0.25531874151271533 227355.27844357979 -0.11519276377514524 -0.061284417002904427 119.39674053981555\ndecision_type=10 8 10 8 8 10 2 10 8 2 2 10 10 8\nleft_child=4 8 3 5 9 -3 7 -7 13 11 -5 -1 -11 -2\nright_child=1 2 -4 10 -6 6 -8 -9 -10 12 -12 -13 -14 -15\nleaf_value=0.00016981147295518897 1.5369647951865775e-05 -9.3704999133478869e-06 -9.9356922444167141e-05 -6.7205138781901047e-06 -1.9230985193644307e-05 -7.4071722521966887e-05 -0.00010930414066333469 5.8874356502201414e-06 7.3140749037156635e-05 -2.7717725232105292e-05 0.00011575715736407801 7.0326230753926211e-05 6.6911250261910028e-05 -3.1819818603253225e-05\nleaf_weight=333 2442 3088 349 356 504 302 355 565 304 340 324 599 463 501\nleaf_count=333 2442 3088 349 356 504 302 355 565 304 340 324 599 463 501\ninternal_value=0.000549654 -0.000722106 -0.00242555 -0.00162325 0.00542653 -0.00278422 -0.00720131 -0.0038639 0.00207884 0.00757925 0.00573529 0.0113734 0.00317559 0.00107034\ninternal_weight=10825 8586 5339 4990 2239 4310 1222 867 3247 1735 680 932 803 2943\ninternal_count=10825 8586 5339 4990 2239 4310 1222 867 3247 1735 680 932 803 2943\nis_linear=0\nshrinkage=0.05\n\n\nTree=4\nnum_leaves=15\nnum_cat=0\nsplit_feature=142 26 115 42 135 25 65 3 123 148 24 47 23 40\nsplit_gain=24.6999 18.6883 15.7833 14.3991 13.2796 13.4234 12.4122 12.1073 12.3149 11.8488 11.3241 10.9508 10.8127 11.4562\nthreshold=-0.0058527890464606753 -0.010454674446333521 14.047491211985326 34.847020402502828 -0.72660774448982002 0.45293015272523468 10.270773235411145 340830.30134787009 -0.25799085733615168 0.087980340211769717 0.11776655162949998 -0.10371988847927026 0.3124991862001269 0.12575364078186715\ndecision_type=8 10 10 8 10 10 8 2 10 10 2 10 2 10\nleft_child=3 6 4 -1 5 12 -2 11 -9 -5 -11 -6 13 -3\nright_child=1 2 -4 9 7 -7 -8 8 -10 10 -12 -13 -14 -15\nleaf_value=-6.333072540792269e-07 0.00017465250258502239 -4.4128676423706566e-05 -6.4858987726283882e-05 -8.9254719970631415e-06 5.1150723007449425e-05 4.8490440427401612e-05 4.3714061341433989e-05 0.00012191301626458882 3.4745538534255052e-05 -1.5818334232026248e-05 -8.7935633783999949e-05 -7.780802880906778e-06 9.4863765404375056e-06 2.5341869327394291e-06\nleaf_weight=2080 516 961 365 647 825 486 456 306 326 313 701 1216 1016 611\nleaf_count=2080 516 961 365 647 825 486 456 306 326 313 701 1216 1016 611\ninternal_value=0.000466513 0.00220215 0.00117801 -0.0028201 0.00181834 -0.000422902 0.00864198 0.00439581 0.010443 -0.00629139 -0.00966469 0.00252327 -0.00185471 -0.00445293\ninternal_weight=10825 7084 6112 3741 5747 3074 972 2673 632 1661 1014 2041 2588 1572\ninternal_count=10825 7084 6112 3741 5747 3074 972 2673 632 1661 1014 2041 2588 1572\nis_linear=0\nshrinkage=0.05\n\n\nTree=5\nnum_leaves=15\nnum_cat=0\nsplit_feature=49 120 56 103 137 157 117 89 69 141 161 61 87 152\nsplit_gain=25.0769 13.7045 12.8353 12.2816 12.8772 11.9499 14.5233 14.9927 11.9608 11.6346 11.4011 14.0415 11.3789 11.3149\nthreshold=-0.00051541276267186287 71.467651021047075 -0.56832298136645953 inf 0.15321042344986982 0.0022050164656656217 1.0569790551209686 -0.62377153891858128 -0.77495599244132329 0.01232002120629527 0.24934215665659235 -0.22512644290655862 -0.0074134411556881488 -0.015561969424171982\ndecision_type=10 10 10 8 10 8 10 10 10 8 8 10 10 10\nleft_child=5 2 3 -2 -5 8 12 -8 -1 -4 11 -11 -7 -12\nright_child=1 -3 9 4 -6 6 7 -9 -10 10 13 -13 -14 -15\nleaf_value=2.8203684779410423e-05 5.8917646496018048e-05 -6.6127242022120185e-05 1.7794704613381499e-05 3.9720371106785824e-05 -6.4436213083074112e-05 0.00011289729810445772 -5.8972739659780246e-05 9.6639298944446191e-05 -6.5645099055100793e-06 -9.3633929491190426e-05 7.5078596692579368e-05 -2.6828999244494872e-05 5.736189930913633e-05 -8.0171844887988594e-05\nleaf_weight=617 320 332 438 640 325 433 335 374 2512 314 368 2574 927 316\nleaf_count=617 320 332 438 640 325 433 335 374 2512 314 368 2574 927 316\ninternal_value=0.000420323 -0.00189266 -0.00127479 0.00307393 0.000259067 0.0029242 0.0058724 7.05219e-05 0.000974752 -0.00266833 -0.00361142 -0.00498615 0.00889706 0.00219298\ninternal_weight=10825 5627 5295 1285 965 5198 2069 709 3129 4010 3572 2888 1360 684\ninternal_count=10825 5627 5295 1285 965 5198 2069 709 3129 4010 3572 2888 1360 684\nis_linear=0\nshrinkage=0.05\n\n\nTree=6\nnum_leaves=15\nnum_cat=0\nsplit_feature=49 42 99 143 85 89 65 92 21 109 56 52 124 87\nsplit_gain=22.5948 14.9016 16.701 14.2356 13.1894 14.9958 14.7464 11.8723 11.4124 14.0916 10.9407 10.9222 10.5406 10.2335\nthreshold=-0.010347601309505015 1.0000000180025095e-35 1.7573529411764708 0.028502999180711513 0.98972184318101653 -0.25194790511389753 0.068185149566932571 1.2022490782463795 125870652.31061271 -0.33934380371021511 0.10263157894736853 15.30653491183817 -0.21470332964060893 0.047042435339291762\ndecision_type=10 8 10 8 10 10 10 10 2 10 8 8 10 10\nleft_child=4 11 3 7 5 10 -7 13 9 -9 -1 -2 -5 -3\nright_child=1 2 -4 12 -6 6 -8 8 -10 -11 -12 -13 -14 -15\nleaf_value=-1.5254878723681528e-05 5.4884009906430295e-06 -1.7680262187779595e-05 -9.1630052408737223e-05 6.9314732216603641e-05 -2.0866850499620729e-05 0.00014781318325746717 4.9526748807609817e-05 -6.7184423265038699e-05 -0.00010246581830523926 5.3313754421152922e-06 7.5029089074650314e-05 7.1036448800546316e-05 -4.9794889052141979e-06 1.6069952933054895e-05\nleaf_weight=501 2943 1956 349 327 490 378 422 302 355 565 448 304 353 1132\nleaf_count=501 2943 1956 349 327 490 378 422 302 355 565 448 304 353 1132\ninternal_value=0.000327945 -0.000838574 -0.00246301 -0.00172345 0.00480125 0.00683248 0.011875 -0.00278422 -0.00695581 -0.0038639 0.00258166 0.00183246 0.005 -0.00113342\ninternal_weight=10825 8586 5339 4990 2239 1749 800 4310 1222 867 949 3247 680 3088\ninternal_count=10825 8586 5339 4990 2239 1749 800 4310 1222 867 949 3247 680 3088\nis_linear=0\nshrinkage=0.05\n\n\nTree=7\nnum_leaves=15\nnum_cat=0\nsplit_feature=49 120 63 85 6 137 115 149 62 56 17 160 23 69\nsplit_gain=19.7802 13.51 12.146 15.4432 14.1301 13.1802 17.0934 12.9262 12.3045 11.6692 12.6213 12.657 15.7253 14.4931\nthreshold=-0.00051541276267186287 71.467651021047075 -0.53103927949087104 -0.25792351595685398 37.136038121373026 -0.32063525904389167 0.57130873867839727 -0.29324627694632455 -0.27490606083058011 -0.67543859649122806 9498385.3430845011 0.1990468302964036 0.39344197796397767 0.20966913579097293\ndecision_type=10 10 8 10 2 8 10 10 8 10 2 8 2 10\nleft_child=2 9 -1 4 -4 -5 7 -7 -6 -2 11 12 -11 -14\nright_child=1 -3 3 5 8 6 -8 -9 -10 10 -12 -13 13 -15\nleaf_value=-2.7431435289894989e-05 3.1182240340933177e-05 -6.1060704885204596e-05 4.9723970842945727e-06 -2.7467579418039789e-05 4.5534781881696393e-05 0.00017499114603026158 -9.8031701189199318e-06 3.4120304424555766e-05 0.00012719775765545911 -4.2127969191048243e-05 6.7047345550879709e-05 2.6845511545146931e-05 4.8660211470456934e-05 -5.220077881852069e-05\nleaf_weight=621 876 332 424 980 328 313 1039 966 527 2534 347 594 491 453\nleaf_count=621 876 332 424 980 328 313 1039 966 527 2534 347 594 491 453\ninternal_value=0.00039261 -0.00166163 0.00261639 0.00350666 0.00817045 0.001698 0.00375324 0.00762314 0.0118713 -0.00104816 -0.00209323 -0.00287328 -0.0040253 0.00148305\ninternal_weight=10825 5627 5198 4577 1279 3298 2318 1279 855 5295 4419 4072 3478 944\ninternal_count=10825 5627 5198 4577 1279 3298 2318 1279 855 5295 4419 4072 3478 944\nis_linear=0\nshrinkage=0.05\n\n\nend of trees\n\nfeature_importances:\nusdt_inst_inflow_pct_change_1h=5\nprice_pct_change_3h=5\nusdt_dex_outflow_pct_change_12h=5\nrel_dist_to_ema_60=5\nusdt_inst_outflow_pct_change_6h=4\nrsi_pct_change_24=4\nlower_wick_pct=3\ndex_tx_count_pct_change_3h=3\nusdt_total_usd_volume_pct_change_3h=3\ntotal_usd_volume_pct_change_6h=3\ncex_inflow_pct_change_24h=3\nusdt_dex_inflow=2\nusdt_total_usd_volume=2\nupper_wick_pct=2\ntrade_count_pct_change_1h=2\nusdt_total_usd_volume_pct_change_1h=2\ncex_outflow_pct_change_3h=2\nusdt_dex_outflow_pct_change_3h=2\nusdt_inst_inflow_pct_change_3h=2\ntotal_usd_volume_pct_change_3h=2\nusdt_dex_inflow_pct_change_6h=2\nusdt_dex_tx_count_pct_change_6h=2\ncex_outflow_pct_change_12h=2\ncex_tx_count_pct_change_12h=2\ntotal_usd_volume_pct_change_12h=2\nusdt_inst_outflow_pct_change_24h=2\nusd_volume_pct_change_24h=2\nrsi_pct_change_3=2\nmacd_pct_change_24=2\natr_pct_change_24=2\ncex_outflow=1\ndex_outflow=1\nusdt_inst_outflow=1\ntotal_usd_volume=1\nprice_pct_change_1h=1\ncex_inflow_pct_change_1h=1\nusdt_dex_inflow_pct_change_1h=1\nusdt_dex_outflow_pct_change_1h=1\ntrade_count_pct_change_3h=1\nusdt_cex_tx_count_pct_change_3h=1\nusdt_dex_inflow_pct_change_3h=1\nusd_volume_pct_change_3h=1\ncex_tx_count_pct_change_6h=1\ntrade_count_pct_change_12h=1\ndex_inflow_pct_change_12h=1\ninst_tx_count_pct_change_12h=1\nusdt_cex_inflow_pct_change_12h=1\nusdt_dex_inflow_pct_change_12h=1\ntrade_count_pct_change_24h=1\ndex_inflow_pct_change_24h=1\ndex_outflow_pct_change_24h=1\nusdt_cex_outflow_pct_change_24h=1\nusdt_cex_tx_count_pct_change_24h=1\nrel_dist_to_bb_lower=1\nrel_dist_to_ema_20=1\nrsi_pct_change_12=1\nmacd_pct_change_3=1\natr=1\natr_pct_change_1=1\natr_pct_change_6=1\natr_pct_change_12=1\n\nparameters:\n[boosting: gbdt]\n[objective: regression_l1]\n[metric: custom]\n[tree_learner: serial]\n[device_type: cpu]\n[data_sample_strategy: bagging]\n[data: ]\n[valid: ]\n[num_iterations: 2000]\n[learning_rate: 0.05]\n[num_leaves: 15]\n[num_threads: 0]\n[seed: 0]\n[deterministic: 0]\n[force_col_wise: 0]\n[force_row_wise: 0]\n[histogram_pool_size: -1]\n[max_depth: -1]\n[min_data_in_leaf: 300]\n[min_sum_hessian_in_leaf: 0.001]\n[bagging_fraction: 1]\n[pos_bagging_fraction: 1]\n[neg_bagging_fraction: 1]\n[bagging_freq: 0]\n[bagging_seed: 3]\n[bagging_by_query: 0]\n[feature_fraction: 1]\n[feature_fraction_bynode: 1]\n[feature_fraction_seed: 2]\n[extra_trees: 0]\n[extra_seed: 6]\n[early_stopping_round: 0]\n[early_stopping_min_delta: 0]\n[first_metric_only: 1]\n[max_delta_step: 0]\n[lambda_l1: 0]\n[lambda_l2: 0]\n[linear_lambda: 0]\n[min_gain_to_split: 0]\n[drop_rate: 0.1]\n[max_drop: 50]\n[skip_drop: 0.5]\n[xgboost_dart_mode: 0]\n[uniform_drop: 0]\n[drop_seed: 4]\n[top_rate: 0.2]\n[other_rate: 0.1]\n[min_data_per_group: 100]\n[max_cat_threshold: 32]\n[cat_l2: 10]\n[cat_smooth: 10]\n[max_cat_to_onehot: 4]\n[top_k: 20]\n[monotone_constraints: ]\n[monotone_constraints_method: basic]\n[monotone_penalty: 0]\n[feature_contri: ]\n[forcedsplits_filename: ]\n[refit_decay_rate: 0.9]\n[cegb_tradeoff: 1]\n[cegb_penalty_split: 0]\n[cegb_penalty_feature_lazy: ]\n[cegb_penalty_feature_coupled: ]\n[path_smooth: 0]\n[interaction_constraints: ]\n[verbosity: -1]\n[saved_feature_importance_type: 0]\n[use_quantized_grad: 0]\n[num_grad_quant_bins: 4]\n[quant_train_renew_leaf: 0]\n[stochastic_rounding: 1]\n[linear_tree: 0]\n[max_bin: 255]\n[max_bin_by_feature: ]\n[min_data_in_bin: 3]\n[bin_construct_sample_cnt: 200000]\n[data_random_seed: 1]\n[is_enable_sparse: 1]\n[enable_bundle: 1]\n[use_missing: 1]\n[zero_as_missing: 0]\n[feature_pre_filter: 1]\n[pre_partition: 0]\n[two_round: 0]\n[header: 0]\n[label_column: ]\n[weight_column: ]\n[group_column: ]\n[ignore_column: ]\n[categorical_feature: ]\n[forcedbins_filename: ]\n[precise_float_parser: 0]\n[parser_config_file: ]\n[objective_seed: 5]\n[num_class: 1]\n[is_unbalance: 0]\n[scale_pos_weight: 1]\n[sigmoid: 1]\n[boost_from_average: 1]\n[reg_sqrt: 0]\n[alpha: 0.9]\n[fair_c: 1]\n[poisson_max_delta_step: 0.7]\n[tweedie_variance_power: 1.5]\n[lambdarank_truncation_level: 30]\n[lambdarank_norm: 1]\n[label_gain: ]\n[lambdarank_position_bias_regularization: 0]\n[eval_at: ]\n[multi_error_top_k: 1]\n[auc_mu_weights: ]\n[num_machines: 1]\n[local_listen_port: 12400]\n[time_out: 120]\n[machine_list_filename: ]\n[machines: ]\n[gpu_platform_id: -1]\n[gpu_device_id: -1]\n[gpu_use_dp: 0]\n[num_gpu: 1]\n\nend of parameters\n\npandas_categorical:[]\n", "hyperparams": {"learning_rate": 0.05, "num_leaves": 15, "feature_fraction": 1.0, "min_data_in_leaf": 300}}