{"hyperparams": {}, "state_dict": {"lstm.weight_ih_l0": [[0.00037033954868093133, -0.0004967374261468649, 0.0007866809610277414, 0.0010819982271641493, 0.0005803100066259503, -0.0006986361695453525, 0.003679996356368065, -0.0012995066354051232, -0.0013392295222729445, -0.001630101935006678, -0.0010254906956106424], [0.0004597788501996547, 0.0010541551746428013, 0.00040430386434309185, 0.00036769339931197464, 0.00033576536225154996, 0.0019530892604961991, 0.0021874778904020786, 0.00194251979701221, 0.0020246822386980057, 0.0018552800174802542, -0.0007942974916659296], [0.0009158925386145711, 0.00020828905689995736, 0.0008959312690421939, 0.0008935689693316817, 0.0008987087057903409, 0.00047824493958614767, 0.0005217486177571118, 0.000429013860411942, 0.0006675272015854716, 0.0003960032481700182, -0.00015120510943233967], [0.0028187790885567665, 0.0016619821544736624, -0.0021087073255330324, -0.0017412763554602861, -0.01654166728258133, 0.0018224994419142604, 0.0033892039209604263, 0.004087667912244797, -0.001049539539963007, 0.00497633870691061, -0.0004613742639776319], [-0.0004421949270181358, -0.0008167101186700165, -0.00045131295337341726, -0.00026405442622490227, -0.0003126592782791704, -0.0012278067879378796, -0.0033278409391641617, -0.004304020199924707, -0.003404323011636734, -0.0037089979741722345, -0.0007995143532752991], [-0.0005298725445754826, -0.00025880426983349025, -0.0005126416217535734, -0.0005036746733821929, -0.0004702357400674373, -0.00015442344010807574, -0.00031915720319375396, -0.000494136183988303, -9.919706644723192e-05, -0.00018897982954513282, -0.0005983412265777588], [0.0004002915811724961, 0.0005590002983808517, 0.0003857303527183831, 0.0004615824727807194, 0.0001582701224833727, 0.0005496580270119011, 0.0004556761996354908, 4.637960228137672e-05, -0.0012391782365739346, -7.944326171127614e-06, -0.000920680002309382], [0.000664472347125411, -0.0005660533206537366, 0.0007134367479011416, 0.000759553222451359, 0.0008212036918848753, -0.0005360229406505823, -0.0005694397259503603, -0.0006798572721891105, -0.0010796592105180025, -0.00117685052100569, -0.0001146778668044135], [-0.009015977382659912, -0.0029066773131489754, -0.005440120119601488, -0.0058343615382909775, -0.005591570399701595, -0.0002621961466502398, -0.000327049259794876, -0.0009813038632273674, -0.0010945560643449426, 0.00021893660596106201, -0.0016143659595400095], [5.6640561524545774e-05, -0.0001243364968104288, 0.00026074060588143766, 0.00020841610967181623, 0.00012922748283017427, -5.1873088523279876e-05, -0.00016277974646072835, -0.0005142600857652724, -0.0005764226079918444, -0.000918768928386271, -0.0005531531060114503], [0.0004300840955693275, -0.00012061576126143336, 0.0004362478794064373, 0.0004475774185266346, 0.00046447868226096034, -8.751422865316272e-05, -0.00018633466970641166, -0.000349601439666003, -0.0001384865608997643, -0.00030547205824404955, 2.15409181691939e-06], [-0.002655361546203494, 0.000278953870292753, -0.002463444834575057, -0.002377456519752741, -0.0021428572945296764, 0.0010949448915198445, 0.0008335068123415112, 0.0003992639831267297, 0.0004411335103213787, 8.120901475194842e-05, -0.00021045206813141704], [0.0026831894647330046, -0.0024765226989984512, 0.009050876833498478, 0.0006724303239025176, 0.00635559344664216, -0.0004852476704400033, -0.002042237902060151, -0.0021494256798177958, -0.003162326291203499, -0.003209702903404832, -0.0021735981572419405], [0.00029868149431422353, -0.0006166173261590302, 0.0003234462928958237, 0.0003375410451553762, 0.0003633897576946765, -0.0008842538227327168, -0.0008678411832079291, -0.0009310387540608644, -0.0009012776426970959, -0.0009285641717724502, 0.00011891248141182587], [0.00024447182659059763, 6.5651556724333204e-06, 0.00023369249538518488, 0.00022903467470314354, 0.00022470756084658206, -2.9065526177873835e-05, -3.227807246730663e-05, -5.356576730264351e-05, -1.8750337403616868e-05, -5.759864507126622e-05, -0.0001215053052874282], [0.0006884070462547243, -0.00022161551169119775, 0.0006711785099469125, 0.0006674066535197198, 0.0006777744274586439, -0.0005164408357813954, -0.000789750658441335, -0.0005087828612886369, -0.000976797309704125, -0.0006761118420399725, -6.357258826028556e-05], [0.009250536561012268, 0.0005747769610024989, 0.009114253334701061, 0.008835535496473312, 0.008863987401127815, 0.0008407075656577945, 0.0006848254706710577, -4.5553824747912586e-06, 0.0001143867993960157, -0.00044982758117839694, 0.0005780464271083474], [-0.00044117573997937143, -0.0011341419303789735, -0.00039616969297640026, -0.0003738214436452836, -0.00033695815363898873, -0.0011907854350283742, -0.0011257651494815946, -0.0011247049551457167, -0.0011355687165632844, -0.001247066305950284, 0.0005748100229538977], [-0.08359893411397934, 0.014839180745184422, 0.004640452563762665, 0.04892913997173309, 0.05229342356324196, -0.012571979314088821, 0.040375519543886185, 0.00023799057817086577, -0.05602943152189255, -0.006024966016411781, 0.033442672342061996], [-0.0011686733923852444, -0.0005030044703744352, -0.0011139950947836041, -0.001079259323887527, -0.0010244721779599786, -0.0007767681963741779, -0.001240160083398223, -0.001543545862659812, -0.0013744551688432693, -0.0014928411692380905, -0.0017592813819646835], [-0.07758813351392746, 0.0332733653485775, -0.035403843969106674, -0.0062953331507742405, -0.04888130724430084, 0.03903583809733391, 0.047055117785930634, -0.004577586892992258, -0.023929724469780922, 0.012763160280883312, -0.0037981572095304728], [0.00038399596814997494, -0.00029860896756872535, 0.0004117909411434084, 0.00043833497329615057, 0.00046554338769055903, -0.0002593690587673336, -0.000218768444028683, -0.00030684404191561043, -0.00018005468882620335, -0.0002943489234894514, -5.564702951232903e-05], [0.0029292728286236525, 0.0007313762907870114, 0.0028937915340065956, 0.002830787096172571, 0.0027862379793077707, 0.0015913520473986864, 0.0018409781623631716, 0.0013963825767859817, 0.002296755788847804, 0.001775542739778757, 0.0005837334902025759], [0.0019489186815917492, -0.0002091152418870479, 0.001993604237213731, 0.0020375452004373074, 0.0020822465885430574, -0.00016883604985196143, -0.00021321492386050522, -0.00047419630573131144, -0.00012157831952208653, -0.0005020186072215438, 0.00017344036314170808], [0.00032202075817622244, -0.00016187170695047826, 0.0003290022141300142, 0.00033288326812908053, 0.0003394658851902932, -0.0001887845719465986, -0.00017816899344325066, -0.0001912865845952183, -0.00015164671640377492, -0.0001824154460337013, 5.261955811874941e-05], [0.0015888772904872894, 0.001897762413136661, 0.0014512111665681005, 0.0013809826923534274, 0.001314813387580216, 0.0029737763106822968, 0.002990204840898514, 0.0026203154120594263, 0.003328402293846011, 0.0030064445454627275, -0.000163242599228397], [0.0001546696003060788, -3.4968528780154884e-05, -0.00025305425515398383, -5.928562313783914e-05, -0.00015695193724241108, -2.2803234969615005e-05, 9.80417553364532e-06, 4.1049206629395485e-05, -3.551849295035936e-05, 2.3861855879658833e-05, -5.7121294958051294e-05], [-0.025617843493819237, -0.001722126267850399, -0.0749678686261177, -0.03891325742006302, -0.10607940703630447, -0.02740955911576748, -0.023647641763091087, -0.0112806037068367, -0.03740500286221504, -0.025201963260769844, -0.009847280569374561], [-0.00020481570390984416, -4.285888280719519e-05, -4.500566137721762e-05, -0.0005081286071799695, -0.0003145869995933026, 1.3003510503040161e-05, -2.622632382554002e-05, -8.593725942773744e-05, -0.00019101687939837575, -0.0001723122113617137, -5.9596037317533046e-05], [-0.005608552601188421, -0.001390711753629148, -0.005356980953365564, -0.005492507480084896, -0.005114380270242691, -0.0013461902271956205, -0.0034076746087521315, -0.003707975847646594, -0.005535423289984465, -0.004950782749801874, -0.0029607596807181835], [-0.0015803881688043475, 2.8196212952025235e-05, -0.0016144518740475178, -0.001635790104046464, -0.0016817388823255897, 0.0005893043125979602, 4.5424094423651695e-05, -0.00019172028987668455, -0.0005577411502599716, -0.0007558119250461459, -0.0019337618723511696], [-0.011818180792033672, -0.000465413904748857, -0.008711447939276695, -0.0102882981300354, -0.00970633514225483, -0.0017772105056792498, -0.0023360890336334705, -0.003852423280477524, -0.003791369963437319, -0.004670730326324701, -0.0046788547188043594], [-0.001159742707386613, 8.161147707141936e-05, -0.0019744024612009525, -0.0013207721058279276, -0.000989438034594059, 0.000236174397286959, 0.00020596037211362273, 0.0001253305235877633, 0.000313379627186805, 0.00016073693404905498, -0.0003130837285425514], [-0.0004752364184241742, 0.0017304244684055448, -0.000597604492213577, -0.0004666374297812581, -0.0004910597344860435, 0.001250256085768342, 0.0007492027943953872, -0.0006219957140274346, -0.002527248580008745, -0.00017766292148735374, -0.0004511812294367701], [0.000263337220530957, -3.560803452273831e-05, 0.0002660342142917216, 0.0002716522431001067, 0.00028520842897705734, 3.5918561479775235e-05, 2.6947682272293605e-05, -4.441026248969138e-05, 7.423764327540994e-05, -1.599232382432092e-05, 1.7731785192154348e-05], [0.0001003757060971111, 5.347935439203866e-05, 9.99726471491158e-05, 0.00010544617543928325, 0.00011628991342149675, 4.6754703362239525e-05, -5.400081136031076e-06, -6.13946103840135e-05, -4.662089850171469e-05, -0.00010182893311139196, -4.947930938214995e-05], [-0.0025726184248924255, -0.00045570675865747035, -0.004310622811317444, -0.004367611836642027, -0.0037691115867346525, -7.750430813757703e-05, -0.00018818900571204722, -0.00032786731026135385, -0.00028851316892541945, -0.00044429549598135054, -0.00010962869419017807], [0.0008094040094874799, -0.00010779029980767518, 0.0008021927205845714, 0.0007885567029006779, 0.00077590107684955, -2.2941794668440707e-05, 8.351220458280295e-05, 5.520808554138057e-05, 0.000406622770242393, 0.00026715119020082057, -0.00013405356730800122], [0.0009506157366558909, -0.0003027011698577553, 0.0009627634426578879, 0.0009776342194527388, 0.0010119727812707424, -0.00035812854184769094, -0.0004986015264876187, -0.000769014295656234, -0.00042689964175224304, -0.0006828911136835814, 9.602848149370402e-05], [-0.009635508991777897, 0.016560565680265427, -0.028206419199705124, -0.03897782042622566, 0.0037236681673675776, 0.01758592762053013, -0.0022917191963642836, 0.01616239733994007, -0.004061021842062473, 0.011049961671233177, 0.004951914306730032], [-0.04522265866398811, 0.021168744191527367, -6.600719643756747e-05, 0.024658484384417534, -0.08015864342451096, -0.0028267493471503258, -0.0041642882861196995, -0.011600792407989502, -0.02186623215675354, -0.04055535048246384, 0.00443405844271183], [-0.041850391775369644, 0.008861198090016842, 0.023831110447645187, 0.026578927412629128, -0.04431750997900963, 0.00657171756029129, 0.004776711575686932, 0.0015029653441160917, -0.004344584420323372, -0.009831015951931477, 0.006908053532242775], [2.5802710297284648e-05, -0.0001794144482119009, 9.199615305988118e-05, -2.5395918783033267e-05, 2.4487526388838887e-05, -1.8663380615180358e-05, 6.162709905765951e-05, -2.087687244056724e-05, 9.180216147797182e-05, -6.173742440296337e-05, 5.5114560382207856e-06], [8.996425458462909e-05, -0.0001728611532598734, 0.00010536717309150845, 0.00011876207281602547, 0.00013839002349413931, -0.00033391203032806516, -0.00040393907693214715, -0.0004830472753383219, -0.0003716310893651098, -0.0005268790409900248, 2.7591860998654738e-05], [0.0005544429295696318, -0.00014931944315321743, 0.0005586140905506909, 0.0005699591129086912, 0.0006005374598316848, 4.667890607379377e-05, -1.7091504560085014e-05, -0.00029668377828784287, -0.00016141960804816335, -0.0003473972319625318, 0.00030244080699048936], [0.00027500686701387167, 0.00033571181120350957, 0.0002141196746379137, 6.760870746802539e-05, -0.00015332308248616755, 0.00028897341690026224, 3.218965866835788e-05, -3.0471785066765733e-05, 0.0005872438196092844, 0.0008212514803744853, -0.00011821707448689267], [0.0005284331855364144, -0.00010203861893387511, 0.0005260868929326534, 0.0005219937884248793, 0.0005219880840741098, -4.9767371820053086e-05, -8.703740604687482e-06, -5.344924647943117e-05, -4.264068411430344e-05, -0.0001513328024884686, 0.00020809272245969623], [9.186789975501597e-05, -1.4832048691459931e-05, 9.219318599207327e-05, 9.122116171056405e-05, 9.109114034799859e-05, 2.1035169993410818e-05, 4.6065517381066456e-05, 4.399117824505083e-05, 6.839245907031e-05, 6.870034849271178e-05, 2.1993791960994713e-06], [-9.058815339813009e-05, 2.8214444682816975e-06, -5.28990822203923e-05, -7.743798778392375e-05, -9.150567348115146e-05, 3.5942590329796076e-05, 4.384530984680168e-05, 3.852490408462472e-05, 2.862306428141892e-05, 2.057713209069334e-05, -1.609103856026195e-05], [-0.11588995158672333, -0.0026124916039407253, 0.005886059254407883, -0.10939259082078934, -0.06861402839422226, -0.016222715377807617, -0.018143469467759132, -0.014259744435548782, -0.017925512045621872, -0.003645331831648946, 0.0025274171493947506], [0.0004509843420237303, -4.8429734306409955e-05, 0.0004423395439516753, 0.000412943831179291, 0.00043569013359956443, 3.6844954593107104e-05, 8.666823123348877e-05, 4.043460648972541e-05, 0.00010117967030964792, 3.6478879337664694e-05, 0.00014218379510566592], [-0.054879385977983475, 0.024274267256259918, -0.06731545925140381, -0.038434818387031555, -0.02160540036857128, -0.0016864665085449815, -0.004317562561482191, 0.047373756766319275, 0.012058303691446781, -0.022835748270154, 0.0011408546706661582], [-7.856184674892575e-05, 7.327061030082405e-05, -0.00012530952517408878, 2.9259550501592457e-05, 0.00023029114527162164, 4.302874731365591e-05, 8.02411450422369e-05, -0.00040976182208396494, -4.181118492851965e-05, -0.0008836861816234887, -0.0006178210023790598], [0.00027147066430188715, -0.0001944422983797267, 7.421008194796741e-05, 9.222730295732617e-05, 0.00021994311828166246, -0.00010616381041472778, -0.00025758755509741604, -0.0005197845166549087, -0.00019165247795172036, -0.0004233492654748261, 4.060964420204982e-05], [-0.00010434345313115045, 0.00016597915964666754, -0.00013610278256237507, -0.00015718014037702233, -0.00011031168105546385, 7.829831884009764e-05, -6.115101132309064e-05, -0.00013472842692863196, 8.541088027413934e-05, 9.724070696393028e-05, -0.0006755045033060014], [-0.000825009832624346, -0.00018171138071920723, -0.0010475526796653867, 0.0005215452401898801, -0.0012339845998212695, 0.0004968380671925843, -0.003493475029245019, -0.0014580590650439262, -0.0026769968681037426, -0.004862844944000244, -0.0004328584182076156], [-0.0013060939963907003, -2.978170959977433e-05, -0.0012997767189517617, -0.0012684186222031713, -0.0012393094366416335, 0.0004588778829202056, 0.00018657285545486957, 9.43695631576702e-05, -0.0002618422731757164, -0.00026713957777246833, -0.0014794139424338937], [0.02036442793905735, 0.02039298787713051, 0.021871216595172882, -0.02343267761170864, 0.007908027619123459, -0.003252078779041767, -0.008716183714568615, -0.009766193106770515, -0.028965530917048454, -0.03173338249325752, -0.008682021871209145], [-0.00048535902169533074, -0.003547486150637269, 0.0012032175436615944, 0.0015808515017852187, -0.000680872704833746, -0.00794769637286663, -0.012987551279366016, -0.001755047356709838, 0.0055119809694588184, -0.00013601835235022008, -0.0023722657933831215], [1.5178522517089732e-05, 1.4362093679665122e-05, 1.322532716585556e-05, 1.401874305884121e-05, 1.5415433153975755e-05, 1.9837289073620923e-05, 8.418977813562378e-06, 1.4273070974013535e-06, 8.19780780147994e-06, 5.067925030743936e-06, -1.3903483704780228e-05], [0.0016692953649908304, -0.00025765609461814165, 0.0016678209649398923, 0.001685995957814157, 0.0017414141912013292, 0.0001597513910382986, 7.887142419349402e-05, -0.0005961632123216987, 0.00013613262854050845, -0.0005991689977236092, 0.0005315425805747509], [-0.00015427118341904134, -0.00021496710542123765, -0.00010961467341985554, -0.0004203491844236851, -0.00042727316031232476, -0.000249447301030159, -0.0006239688955247402, -0.0011788230622187257, -0.002181179588660598, -0.002443270292133093, -0.002124377293512225], [3.269450826337561e-05, -1.5775403880979866e-05, 2.9385579182417132e-05, 3.06592664855998e-05, 3.673050014185719e-05, -3.481314706732519e-05, -6.019967986503616e-05, -6.79727818351239e-05, -6.909857620485127e-05, -7.928693958092481e-05, -4.834013452637009e-05], [0.021802909672260284, 0.013339131139218807, -0.04137631505727768, -0.009871785528957844, -0.031162509694695473, 0.003006436163559556, 0.0006333914934657514, -0.008235564455389977, -0.01671001873910427, -0.019021235406398773, -0.006103181745857], [0.0005918144015595317, 5.6930195569293573e-05, 0.0004288876079954207, 0.0003916231216862798, 0.0005086367018520832, 0.0002945238084066659, -6.752557237632573e-05, -0.002191969659179449, -0.000482266244944185, -0.0008643704932183027, -0.0004991418099962175], [0.00048087950563058257, 0.0004575267084874213, 0.0004507382109295577, 0.0004199353279545903, 0.00038889888674020767, 0.002101932419463992, 0.0022890653926879168, 0.001978628570213914, 0.002303830347955227, 0.001885454636067152, -0.0007667704485356808], [0.0008220026502385736, 0.00020545812731143087, 0.0008066123118624091, 0.0008141188882291317, 0.0008277111919596791, 0.0008493791683577001, 0.0005839272635057569, 0.00035080258385278285, 0.00045872246846556664, 0.00010093508171848953, -0.0006760944379493594], [0.0010979017242789268, -0.0005004385020583868, 0.002065419452264905, -0.004157984163612127, -0.016345839947462082, 0.0007974212639965117, 0.0016980712534859776, 0.0020274361595511436, 0.0004218166577629745, 0.000686658953782171, 3.1236162612913176e-05], [-0.0013518662890419364, -0.0012642492074519396, -0.0011480929097160697, -0.0014395811595022678, -0.0006935448618605733, -0.0013327245833352208, -0.0033427271991968155, -0.004527706187218428, -0.003662362229079008, -0.003867250867187977, -0.0011578882113099098], [-0.0005195522680878639, 0.00012216738832648844, -0.0005447809235192835, -0.000502479902934283, -0.00048401288222521544, -4.734825051855296e-05, -0.00025912674027495086, -0.00043463363545015454, -4.6386663598241284e-05, -0.0001663497241679579, -0.0002800087386276573], [0.0005359372007660568, -0.0001222548889927566, 0.00042761891381815076, 0.0002776705950964242, 0.00030675859306938946, 0.00037970772245898843, 0.00020834982569795102, 2.8712262064800598e-05, 0.00011280609032837674, -0.00011246195208514109, -0.0003583199286367744], [0.0006353177013806999, 3.661459777504206e-05, 0.0006448942585848272, 0.0006926185451447964, 0.0007638466195203364, -0.00026803379296325147, -0.0004733474343083799, -0.0006413934752345085, -0.0010120560182258487, -0.0011202710447832942, -0.0002593513345345855], [-0.002444281242787838, -0.00020140159176662564, 0.0011443780967965722, 0.00031705849687568843, -0.0009301915415562689, 0.0001293731911573559, -0.00030534123652614653, -0.0004999393131583929, 0.000207190154469572, 0.0027597255539149046, -0.00010744108294602484], [0.0003978788445238024, 7.832393021089956e-05, -3.918735092156567e-05, -4.0696766518522054e-05, 5.195885933062527e-06, 2.443764969939366e-05, 6.396685421350412e-06, -0.00031870612292550504, -0.0004775573324877769, -0.0007859131437726319, -0.0001850204134825617], [0.0003959265013691038, 3.056033528991975e-05, 0.000396106974221766, 0.0004021565546281636, 0.00041940633673220873, 0.00010498128540348262, -2.200908784288913e-05, -0.00023834695457480848, -8.10442870715633e-05, -0.00028307121829129755, 1.3277907783049159e-05], [-0.0033999565057456493, 0.00041190418414771557, -0.0027122567407786846, -2.3661805244046263e-05, -0.0037769987247884274, 0.0007015353767201304, 0.0002647347282618284, 0.00010704618762247264, 5.348741979105398e-05, -0.00017330731498077512, -0.00035722358734346926], [-7.06891660229303e-05, -0.00027358997613191605, 0.002228787401691079, 0.007717948406934738, 0.005294025409966707, -0.0006584776565432549, -0.001893538050353527, -0.0021777006331831217, -0.002452318789437413, -0.0023017937783151865, -0.001703453715890646], [0.00019894898287020624, 0.00012658812920562923, 0.00020636434783227742, 0.0002196525747422129, 0.00024911214131861925, -0.00013137838686816394, -0.00046174548333510756, -0.0007980145746842027, -0.0007262337021529675, -0.0008542740833945572, -0.00036646478110924363], [0.0002356366312596947, 6.364689761539921e-05, 0.00023247709032148123, 0.00022383280156645924, 0.00021439585543703288, 5.756962491432205e-05, 5.734376827604137e-06, -3.649316568044014e-05, -1.4607246157538611e-05, -4.711400470114313e-05, -6.936753197805956e-05], [0.0008055040962062776, -0.00015815994993317872, 0.0008085761219263077, 0.0007987595163285732, 0.0008077918901108205, -0.0002990826324094087, -0.0004123979597352445, -0.0006141390767879784, -0.0003545696090441197, -0.0004795925924554467, -0.00013909726112615317], [0.008911528624594212, 0.0012113406555727124, 0.008735107257962227, 0.008646965026855469, 0.008525158278644085, 0.0019418825395405293, 0.0012338345404714346, 0.00015774037456139922, 0.0003283238329458982, -0.0003027771890629083, 0.0004525817057583481], [-0.0005296848248690367, -0.00016106246039271355, -0.0005192551179789007, -0.0004962399252690375, -0.0004535368934739381, 5.294386937748641e-07, -0.0005321683711372316, -0.0008023451082408428, -0.0007012399728409946, -0.0008730242261663079, -0.00019024586072191596], [-0.060252610594034195, -0.04171973466873169, 0.06452998518943787, -0.038409553468227386, -0.03334761783480644, -0.0326334610581398, 0.006303707603365183, -0.020484684035182, -0.020759426057338715, 0.015791336074471474, 0.016327103599905968], [-0.0011135984677821398, -3.925952478311956e-05, -0.0010894049191847444, -0.0010623373091220856, -0.0009884118335321546, -0.0006123672937974334, -0.0010878529865294695, -0.0013327510096132755, -0.001280814758501947, -0.001403811271302402, -0.00043197860941290855], [0.019985949620604515, -0.03505650907754898, 0.04567798599600792, -0.013924927450716496, -0.0810057520866394, -0.032153114676475525, -0.0015528978547081351, 0.007798947859555483, 0.01731521636247635, 0.04425196722149849, 0.004193545784801245], [0.0003739250241778791, 0.0002408700529485941, 0.00037685385905206203, 0.0003985216317232698, 0.0004260800196789205, 0.0002025451831286773, -9.21990504139103e-05, -0.00023899832740426064, -0.00010018503962783143, -0.0002289995609316975, -0.00021736929193139076], [0.002749183215200901, 0.0001817935990402475, 0.002740240888670087, 0.0026964202988892794, 0.0026474641636013985, 0.001098987297154963, 0.0015280263032764196, 0.001245308667421341, 0.0018302893731743097, 0.0013070466229692101, 0.0009269603760913014], [0.0019863457418978214, -0.00010819800809258595, 0.0020088746678084135, 0.0020402546506375074, 0.0020914857741445303, -0.00034692150074988604, -0.0003107427037321031, -0.0005237906007096171, -0.000258355779806152, -0.0006540346657857299, 0.00015468182391487062], [0.00030056442483328283, 3.570337139535695e-05, 0.00030061256256885827, 0.0003067011712118983, 0.0003164943482261151, 5.9435147704789415e-05, -6.68608263367787e-05, -0.00014052326150704175, -8.990961214294657e-05, -0.00017840850341599435, -7.618449308210984e-05], [0.0018150274408981204, 0.0006700331578031182, 0.001735912635922432, 0.001676680869422853, 0.001604399993084371, 0.0028025100473314524, 0.0029628470074385405, 0.0025517221074551344, 0.0032030632719397545, 0.002708009211346507, -0.0008469378808513284], [-0.0006160619086585939, 6.886968094477197e-06, 0.0005045573925599456, -0.0013732535298913717, 0.0008435602649115026, -1.656277345318813e-05, -1.8464015738572925e-05, -2.447264364491275e-07, -5.360215436667204e-05, -2.117610893037636e-05, -7.81346025178209e-05], [-0.059173595160245895, -0.019577259197831154, -0.0003522862680256367, -0.0015952469548210502, -0.036707863211631775, -0.02361874282360077, -0.017967049032449722, -0.011307278648018837, -0.038697320967912674, -0.040552105754613876, -0.007988214492797852], [5.967473771306686e-05, 2.6869241992244497e-05, 0.00014414466568268836, -0.00011540656123543158, 0.0002888532471843064, 5.668243102263659e-05, 3.2454005122417584e-05, -3.644395474111661e-05, -0.0001275227259611711, -0.000131723762024194, -5.215602141106501e-05], [-0.005617490038275719, 0.0011883842526003718, -0.004652306903153658, -0.005141440313309431, -0.005389359779655933, -0.0006798194954171777, -0.003932758700102568, -0.004609541967511177, -0.005872927140444517, -0.006139589007943869, -0.003919790033251047], [-0.0014888104051351547, 0.0009609958506189287, -0.001599636278115213, -0.0015962482430040836, -0.0015570389805361629, 0.0007933083106763661, -0.00034476158907637, -0.0005023550475016236, -0.0005869861925020814, -0.0008238760638050735, -0.0019490020349621773], [-0.00718756765127182, -0.00020139082334935665, -0.0072252280078828335, -0.007642208598554134, -0.00580392312258482, -0.00168277055490762, -0.003288359846919775, -0.004825407639145851, -0.004378345794975758, -0.0055895340628921986, -0.003102792426943779], [-0.0010692606447264552, -0.00010827179357875139, -7.75844746385701e-05, -6.54054238111712e-05, -0.0009400886483490467, 0.00010844163625733927, 0.00014665107300970703, 0.0001278935233131051, 0.00021316512720659375, 0.0001408839743817225, -0.00013617925287690014], [-0.00030333263566717505, -3.551389227141044e-06, -0.00018662693037185818, -0.0002688913082238287, -0.000243353599216789, 0.0008775583119131625, 0.0004275593673810363, 0.00016464792133774608, 0.0003334351349622011, -0.0003918033035006374, -0.0005835338961333036], [0.0003153732686769217, -2.1667989130946808e-05, 0.00031906901858747005, 0.00032688630744814873, 0.00033725370303727686, 4.6867746277712286e-05, 1.719937426969409e-05, -6.978875899221748e-05, 5.3894371376372874e-05, -6.18362391833216e-05, 4.219427864882164e-05], [0.00010202874545939267, 7.107101737346966e-06, 0.00010097357881022617, 0.00010447945533087477, 0.00011527070455485955, 3.670539808808826e-05, -1.4929581084288657e-05, -8.171746594598517e-05, -5.874509224668145e-05, -0.00010601635585771874, -5.520711511053378e-06], [-0.002783701755106449, 2.0538069293252192e-05, -0.002916752127930522, -0.002000401960685849, -0.0018621670315042138, -9.70468099694699e-05, -0.0005004506674595177, -0.0008162796148099005, -0.0006964236381463706, -0.0010161105310544372, -0.0003483534383121878], [0.0008944922010414302, 5.072823114460334e-05, 0.0008886303403414786, 0.0008675343124195933, 0.0008471548208035529, 0.00034001245512627065, 0.00034667522413656116, 0.00023404478270094842, 0.0005517228855751455, 0.0003103224444203079, -9.842968574957922e-05], [0.0008223908953368664, 4.120817538932897e-05, 0.0008298956090584397, 0.0008391008595936, 0.0008703346247784793, 2.6945333956973627e-05, -0.0002633095136843622, -0.0006797935348004103, -0.0003722381661646068, -0.0007126830168999732, -6.442961876018671e-06], [0.002597383689135313, -0.0050099012441933155, 0.009150274097919464, 0.0038955288473516703, -0.02232344076037407, 0.0007176939398050308, 0.0016657672822475433, 0.025096470490098, -0.008613373152911663, -0.0035452616866678, 0.004778839647769928], [-0.06261447072029114, -0.027258146554231644, -0.01877466030418873, -0.05421267822384834, 0.009206905029714108, -0.0344281904399395, -0.03292636200785637, -0.025358811020851135, -0.031085766851902008, -0.021472562104463577, -0.0045869783498346806], [0.023133929818868637, -0.006254157517105341, -0.026759501546621323, -0.03790082409977913, -0.023984337225556374, -0.0003610339481383562, 0.0023595571983605623, 0.008474983274936676, -0.004299526568502188, -0.007321810349822044, 0.004492243751883507], [-7.426892261719331e-05, 0.00012320779205765575, 0.00011225397611269727, 8.117146353470162e-05, 5.395529296947643e-05, 0.0001558848307467997, 8.264608186436817e-05, -4.836482912651263e-05, 6.814648804720491e-05, -7.315249240491539e-05, -3.109662065980956e-05], [6.855354877188802e-05, 4.214160799165256e-05, 7.475908932974562e-05, 8.620834705652669e-05, 0.00010757963900687173, -0.00010695242235669866, -0.0002775080793071538, -0.00041641475399956107, -0.00031972533906809986, -0.0004452041466720402, -3.4853932447731495e-05], [0.0005258514429442585, 5.7790326536633074e-05, 0.0005271952832117677, 0.0005324669764377177, 0.0005676996079273522, 0.00026477506617084146, 0.0001169172246591188, -0.0002411648165434599, -0.00012606382369995117, -0.000422996177803725, -0.00014809185813646764], [0.0002993293746840209, -0.00013439790927805007, 0.00018403175636194646, 0.0001764784537954256, 0.00015716359484940767, -2.9493421607185155e-06, -3.481148087303154e-05, -5.0702285079751164e-05, 0.00014509737957268953, -0.0002376935153733939, -0.00011397131311241537], [0.0005095775122754276, 2.4143139398802305e-06, 0.0005102032446302474, 0.0005076461238786578, 0.000507041928358376, 4.296375118428841e-05, -2.2806862034485675e-05, -8.514372166246176e-05, -4.719468779512681e-05, -0.00016301663708873093, 0.00013217295054346323], [8.629856893094257e-05, 2.4961671442724764e-05, 8.595674444222823e-05, 8.514026558259502e-05, 8.480063115712255e-05, 4.198892929707654e-05, 5.599293581326492e-05, 4.8593676183372736e-05, 6.734658381901681e-05, 6.378645775839686e-05, 2.310378295078408e-05], [-2.937285535153933e-05, -1.0837255786100286e-06, -1.962355054274667e-05, -1.9144321413477883e-05, -4.566732604871504e-05, 4.664969674195163e-05, 5.658061127178371e-05, 4.6868721256032586e-05, 2.622766260174103e-05, 2.063042120425962e-05, -3.9319424104178324e-05], [-0.018382349982857704, -0.03169560432434082, -0.02654176764190197, -0.02332884632050991, -0.0514502190053463, -0.03355386480689049, -0.023032383993268013, -0.011351112276315689, -0.0231024120002985, -0.025537850335240364, -0.006602172739803791], [0.00028919329633936286, -3.948379526264034e-05, 0.000495472049806267, 0.00033242307836189866, 0.00032164878211915493, 9.063795732799917e-05, 9.897431300487369e-05, 3.95958631997928e-05, 8.328098920173943e-05, 2.235648935311474e-05, 8.045698632486165e-05], [0.0544954352080822, -0.02946220524609089, -0.04222860932350159, -0.028705623000860214, -0.04277629032731056, -0.030845176428556442, -0.009248833172023296, 0.004147351253777742, -0.032873183488845825, -0.0323847271502018, 0.0026178567204624414], [-7.077400368871167e-05, 0.00010826173820532858, 6.224402750376612e-05, 3.1800769647816196e-05, -0.00021973902767058462, -1.5959049051161855e-05, 4.253824954503216e-05, 7.622449629707262e-05, 0.00016758897982072085, 3.017030394403264e-05, -0.0003476541896816343], [0.00010423166531836614, -0.00011981208808720112, -7.365007331827655e-05, 0.0005622473545372486, -0.00017620838480070233, -0.00010676689998945221, -0.0002056454395642504, -0.00044792331755161285, -0.00019408100342843682, -0.0004220278933644295, -0.00012583250645548105], [-0.0001238696277141571, 0.00015373002679552883, -9.520267485640943e-05, -0.00010799831943586469, -0.00016383809270337224, 3.6871886550216004e-05, -0.00010646347800502554, -0.00016741045692469925, 0.00010378022125223652, 0.00011471289326436818, -0.00031347788171842694], [-0.00015125281061045825, 1.8272146917297505e-05, -0.000499084300827235, -0.0008736501331441104, -0.0005253321141935885, 0.00038194653461687267, -0.0005189813673496246, 4.418822209117934e-05, -0.001936647342517972, -0.003432133700698614, -0.00024536612909287214], [-0.0012608167016878724, 0.00033157324651256204, -0.0012571049155667424, -0.001215641968883574, -0.0011696257861331105, 8.326591341756284e-05, -0.00020466517889872193, -0.00027173731359653175, -0.0002921319683082402, -0.0003890961525030434, -0.0010765831684693694], [-0.04126253351569176, -0.03008290007710457, -0.0011028649751096964, -0.022711526602506638, 0.021366041153669357, -0.03148934617638588, -0.03009151481091976, -0.02698981575667858, -0.041051626205444336, -0.041366007179021835, -0.008939792402088642], [0.0019009431125596166, -0.0003593614383134991, 0.0012339464155957103, -0.0017901627579703927, 0.003202615072950721, -0.0009046135819517076, -0.0005008013686165214, -0.005143553949892521, 0.002911787712946534, 0.001829396584071219, -0.0006820643320679665], [2.8136450055171736e-05, 1.4298358109954279e-05, 2.739334559009876e-05, 1.6678108295309357e-05, 2.3260514353751205e-05, 1.7167560145026073e-05, 4.149811502429657e-06, -3.98263500756002e-06, 5.9507556215976365e-06, -9.796792710403679e-09, -1.1378618182789069e-05], [0.001445065950974822, 0.0001863002689788118, 0.001432250253856182, 0.0014444136759266257, 0.0015003562439233065, 0.0006050956435501575, 0.00042360680527053773, -0.0004466866375878453, 1.1888801964232698e-05, -0.0007820673054084182, 0.00012202201469335705], [-0.00019962253281846642, 0.00015349815657828003, 6.867924093967304e-05, -0.00015842662833165377, 4.0620383515488356e-05, -0.00020245456835255027, -0.00029715424170717597, -0.0008671902469359338, -0.002046997658908367, -0.0023544984869658947, -0.0013639291282743216], [-1.9827198229904752e-06, 2.2889376850798726e-05, 6.437018600990996e-05, -2.9713180992985144e-05, 1.9450711988611147e-05, -4.748561877931934e-06, -5.471072654472664e-05, -6.452691741287708e-05, -6.75595219945535e-05, -8.599056309321895e-05, -3.721427492564544e-05], [0.03143434226512909, -0.00962657481431961, -0.03872102499008179, 0.013263663277029991, 0.020728686824440956, -0.003687536343932152, -0.0036947820335626602, -0.008871813304722309, -0.015126061625778675, -0.02176731638610363, 0.0022336402907967567], [-0.02461063116788864, -0.0025863538030534983, 0.020051252096891403, -0.014500433579087257, 0.006834791041910648, -0.01023785024881363, -0.007509473245590925, -0.010008861310780048, -0.013927806168794632, 0.04913930967450142, 0.011891431175172329], [0.006481322925537825, -0.006425702944397926, -0.004843384493142366, 0.010713252238929272, -0.0006870136712677777, -0.0046118032187223434, -0.003583929967135191, -0.0015206079697236419, -0.007752064615488052, -0.011404660530388355, 0.007775529287755489], [0.012747245840728283, -0.0035073962062597275, -0.004051974043250084, 0.0035611437633633614, -0.005029196385294199, -0.0025973995216190815, -0.004084980580955744, -0.00010057526378659531, -0.010517178103327751, -0.013099255040287971, 0.001212637173011899], [-0.0006617540493607521, -0.008209106512367725, 0.041919805109500885, -0.04556191712617874, -0.06475052982568741, -0.006002712994813919, -0.010515530593693256, -0.04512852057814598, 0.03522577881813049, -0.009756694547832012, 0.018374880775809288], [0.026662398129701614, 0.005284424405544996, 0.0215676911175251, 0.01209214236587286, -0.010810645297169685, 0.016461428254842758, 0.004808995872735977, -0.008976250886917114, -0.01871047355234623, -0.01686062291264534, 0.0037622693926095963], [-0.01479377318173647, -0.0033875401131808758, -0.0142079321667552, 0.0010246312012895942, 0.024185512214899063, -0.002068563597276807, 0.004406854044646025, -0.004561045207083225, 0.00555300060659647, -0.002375361043959856, -0.005545070860534906], [-0.035526469349861145, -0.011559601873159409, 0.010124089196324348, 0.021892791613936424, -0.0002259475877508521, -0.000320903753163293, 0.011143417097628117, -0.031089408323168755, 0.01800912618637085, 0.013146856799721718, -0.01238405704498291], [-0.0043416703119874, 0.0007998367073014379, -0.003193550044670701, -0.010959598235785961, 0.007889664731919765, -0.0006648971466347575, 0.0006516981520690024, -0.0023467119317501783, 0.009466874413192272, 0.00482720835134387, 0.0022716796956956387], [0.03422139957547188, -0.015730196610093117, 0.049508433789014816, -0.04718843847513199, -0.07603242993354797, -0.025354376062750816, 0.012333381921052933, -0.03969278559088707, 0.02745533548295498, 0.03910123184323311, -0.022938990965485573], [-0.023522289469838142, -4.306528717279434e-05, 0.02864733710885048, -0.022783063352108, 0.025040335953235626, 0.0032192508224397898, -0.011264692060649395, -0.010522655211389065, -0.00039313899469561875, 0.02306145615875721, 0.006511220708489418], [0.015655992552638054, -0.0008960942504927516, -0.000535200466401875, -0.003477552207186818, -0.016580352559685707, -0.00013035241863690317, -0.0025705352891236544, -0.00595973851159215, 0.009105798788368702, 0.011237707920372486, -0.0034254936035722494], [-0.037135981023311615, 0.0068837907165288925, -0.02352723851799965, 0.012381887063384056, 0.03214297816157341, 0.007841301150619984, 0.0076065282337367535, 0.001633997424505651, -0.001155546517111361, 0.01606874167919159, 0.010807707905769348], [-0.024580415338277817, 0.0017889817245304585, 0.036535970866680145, -0.018672293052077293, -0.017737656831741333, 0.0075548868626356125, -0.03778468072414398, 0.006188339553773403, -0.003035149769857526, 0.007818330079317093, -0.01827387511730194], [0.007468962576240301, -0.0003633112646639347, -0.003872324712574482, -0.01621568389236927, 0.016057586297392845, -0.0002427400031592697, -0.00038007760304026306, -0.004992506466805935, -0.0058327969163656235, 0.0004620390245690942, 0.0012295180931687355], [-0.006115627940744162, -0.0008565844036638737, -0.004260861314833164, 0.0022479635663330555, -0.001514166477136314, -0.0016467194072902203, -0.0010036085732281208, -0.0012175417505204678, -0.0007306865300051868, -0.0001873215805971995, 0.0007398451562039554], [-0.0230964794754982, 2.6189820346189663e-05, 0.020068030804395676, 0.03710445761680603, -0.020366257056593895, 0.003184860572218895, 0.0015324839623644948, -0.009638266637921333, -0.010895021259784698, 0.007632264401763678, 0.00023385447275359184], [0.013906612060964108, 0.0010997122153639793, 0.014275223948061466, 0.010803228244185448, 0.012266571633517742, 0.001131041906774044, 0.00250574410893023, 0.004644723143428564, 0.006444908212870359, 0.008350752294063568, 0.002209379803389311], [0.0037177461199462414, -0.0076827239245176315, -0.014364136382937431, -0.00011891934263985604, 0.020609050989151, -0.005741253960877657, -0.006988608743995428, -0.005987462587654591, -0.0034397412091493607, -0.00826001726090908, 0.010256475768983364], [0.16950538754463196, 0.03143442049622536, 0.22157396376132965, 0.21364857256412506, 0.25959861278533936, 0.02269316278398037, 0.014237391762435436, 0.024285657331347466, 0.03377242386341095, -0.047158461064100266, 0.02491554245352745], [0.001684364746324718, 0.003597407601773739, 0.016919266432523727, -0.035201139748096466, 0.011662157252430916, 0.0009218136547133327, -0.00343240681104362, -0.01955832727253437, 0.011262240819633007, 0.015242205001413822, -0.0019060064805671573], [0.26763126254081726, 0.0361470989882946, 0.2697765529155731, 0.19950060546398163, 0.2835613787174225, 0.05064871534705162, 0.046192269772291183, 0.0196529570966959, -0.02683793194591999, 0.038411516696214676, 0.014305607415735722], [-0.0001423777430318296, 0.002338858786970377, 0.01235026866197586, 0.008057117462158203, 0.0004603270208463073, 0.0022124662064015865, 0.001319022965617478, 0.00041258501005358994, -4.470572457648814e-05, 0.002470682142302394, -0.0009863852756097913], [0.008238408714532852, 0.003300915937870741, -0.014565530233085155, 0.021875374019145966, -0.006547968368977308, 0.005577043164521456, -0.003994839731603861, -0.004430266097187996, 0.02407456934452057, 0.0056243035942316055, 0.0005005666753277183], [-0.004376547411084175, 4.194744906271808e-05, 0.009309105575084686, 0.0021680924110114574, -0.013841855339705944, 0.004597663879394531, -0.010332965292036533, 0.0007527742418460548, 0.011635210365056992, 0.0008806312107481062, 0.0018740056548267603], [0.00246985862031579, -0.0026195766404271126, 0.005909624043852091, 0.004142122343182564, -0.006986419670283794, -0.0028118742629885674, -0.000585497822612524, 0.000815069826785475, -0.0071497089229524136, -0.002389319473877549, 0.0030345700215548277], [-0.009091180749237537, 0.007385186851024628, -0.008337890729308128, 0.0011528030736371875, -0.005908273626118898, 0.005073836073279381, 0.0031232000328600407, 0.008744822815060616, 0.017248844727873802, 0.004538918845355511, -0.010350464843213558], [0.0334312878549099, -0.0007733356324024498, -0.024931445717811584, -0.008937828242778778, -0.0032929040025919676, 0.01046129409223795, -0.012651442550122738, 0.011225813068449497, -0.016624584794044495, 0.010118246078491211, 0.00021536785061471164], [-0.17625604569911957, -0.009050900116562843, -0.11418541520833969, -0.08022795617580414, -0.19078649580478668, -0.02120501548051834, 0.031438861042261124, 0.019619841128587723, 0.022383512929081917, -0.0310023445636034, 0.03709585964679718], [-0.01522558182477951, 0.0042853946797549725, 0.007002193946391344, -0.021167472004890442, 0.028235359117388725, -0.001695082406513393, -0.015004370361566544, 0.019000209867954254, 0.01611527055501938, -0.01151541993021965, 0.0007402365445159376], [-0.012418599799275398, 0.018449857831001282, -0.02387615665793419, 0.00023277690343093127, 0.01361082959920168, -0.012644627131521702, 0.022597020491957664, 0.034012570977211, 0.004083439242094755, 0.0008141461294144392, -0.0022095111198723316], [0.013747205957770348, -0.008382344618439674, -0.03154495730996132, 0.014209109358489513, 0.017574002966284752, -0.005252612754702568, -0.011908247135579586, -0.004682736471295357, -0.01206005085259676, -0.0016349421348422766, -0.008863590657711029], [0.02311345562338829, 0.004259735811501741, -0.02936675027012825, 0.05868928134441376, 0.045394930988550186, -0.0009888865752145648, -0.011707738973200321, -0.014496130868792534, 0.013322658836841583, -0.0063897473737597466, -0.026401694864034653], [0.04266273230314255, -0.001990227960050106, -0.015294876880943775, -0.022999651730060577, -0.008463316597044468, -0.0031717419624328613, 0.009514201432466507, -0.01601434499025345, 0.012633136473596096, -8.374372555408627e-06, -0.008902524597942829], [0.02751903049647808, -0.010353725403547287, -0.009422487579286098, 0.006031016819179058, -0.023135120049118996, -0.031599774956703186, 0.0010395291028544307, -0.029992392286658287, 0.015907948836684227, 0.030226415023207664, 0.008524898439645767], [0.014236942864954472, -0.002098263008520007, -0.01380150392651558, -0.0018521128222346306, 0.010385335423052311, -0.0015367668820545077, -0.0005264056962914765, -0.0008534402586519718, -0.0005335627356544137, -0.004599503241479397, 0.0018184459768235683], [0.01605551689863205, -0.0006313725607469678, 0.00977370422333479, -0.00669817253947258, -0.023380262777209282, -0.004059617407619953, 0.00020401697838678956, -4.356302451924421e-05, -0.006201115902513266, 0.00858312752097845, 0.001588003826327622], [-0.008056237362325191, -0.0013680161209776998, -0.028744792565703392, 0.004060495179146528, 0.00010867349919863045, 0.012349087744951248, 0.01889769546687603, -0.010724101215600967, -0.008263157680630684, 0.008567482233047485, 0.008730310015380383], [-0.006584604736417532, 0.0042764898389577866, 0.007893488742411137, -0.006028170231729746, 0.005587561521679163, 0.00032230178476311266, 0.0002150652144337073, 0.002363939071074128, 0.004399103578180075, 0.004594444762915373, -0.010961735621094704], [0.010699967853724957, -0.00039698430919088423, 0.0027743729297071695, 0.009422455914318562, -0.01490505039691925, 0.000521480047609657, 0.0011738002067431808, 0.0010390932438895106, -0.007975231856107712, -0.007474710699170828, 0.0010311385849490762], [-0.1258767694234848, -0.04173437878489494, -0.054954759776592255, -0.02653220109641552, -0.015957843512296677, -0.03247940167784691, -0.06231878325343132, -0.0029330647084861994, 0.061295099556446075, -0.047530513256788254, 0.012749487534165382], [-0.2016913890838623, -0.055858463048934937, -0.17615991830825806, -0.21801257133483887, -0.07421205192804337, 0.02705325372517109, -0.045708924531936646, 0.03851709142327309, -0.016922371461987495, 0.016692599281668663, -0.026626884937286377], [0.016566427424550056, -0.02718042954802513, -0.08508623391389847, -0.08272609859704971, -0.0989282876253128, 0.010640032589435577, -0.03305211290717125, -0.02358720265328884, 0.02156640961766243, 0.0169974397867918, -0.019773762673139572], [-0.015152747742831707, -0.0029752696864306927, 0.030250774696469307, 0.012159265577793121, -0.03322126716375351, -0.002509661950170994, -0.0022128066048026085, -0.003126728581264615, -0.0003600831259973347, -0.0004039127379655838, 0.0025578413624316454], [-0.003252282738685608, -0.001992459874600172, -0.006855503190308809, 0.009864170104265213, -0.0006127463420853019, -0.001215859199874103, 0.00034872067044489086, 0.0010188276646658778, 0.0016371082747355103, 0.005228479392826557, 5.548938588617602e-06], [-0.02265102043747902, 0.0028991408180445433, 0.005492035765200853, 0.012998186983168125, -0.002973673166707158, -0.0006085205241106451, 0.001336440211161971, 0.0012364755384624004, 0.008784838952124119, 0.010375544428825378, -0.004915115423500538], [-0.02641705423593521, -0.003912978805601597, 0.02054024301469326, 0.0044177561067044735, -0.006880596280097961, -0.0066899461671710014, -0.020614570006728172, 0.005460352171212435, 0.012939217500388622, 0.015933597460389137, -0.0032903803512454033], [0.0047855195589363575, 0.0017289987299591303, 0.010801287367939949, 3.7817568227183074e-05, -0.009868916124105453, -0.0006333967903628945, 0.005376238841563463, -0.0060925669968128204, 0.008821784518659115, -0.004857088439166546, -0.0034624156542122364], [0.018310431391000748, 0.00021293375175446272, -0.012673750519752502, 0.012899672612547874, -0.014960710890591145, -0.0004946744884364307, 0.0004883667570538819, -0.0003494264674372971, -0.0006812575738877058, 0.003995692823082209, -0.0013265153393149376], [0.0052079628221690655, -0.0009858235716819763, -0.011378679424524307, 0.01870241016149521, -0.008180737495422363, -0.000996486283838749, 0.006261573638767004, -0.005913851782679558, -0.00627704756334424, -0.0008272345876321197, 0.0048823850229382515], [0.10741522908210754, 0.011653583496809006, 0.17169205844402313, 0.18219690024852753, 0.18419496715068817, 0.019940325990319252, -0.03627762943506241, 0.010650529526174068, 0.0095530916005373, 0.026009006425738335, 0.0013379554729908705], [0.02065637893974781, -0.0019888675305992365, -0.026802996173501015, -0.004360751248896122, 0.017352968454360962, -0.0022587706334888935, -0.002153252949938178, 0.006458122283220291, -0.005173385143280029, -0.007284064777195454, 0.00488309795036912], [-0.1290871798992157, -0.030066080391407013, -0.19468221068382263, -0.1936275213956833, -0.1962222009897232, -0.03403889015316963, -0.01288139633834362, -0.038766007870435715, -0.01660403423011303, 0.0014253497356548905, 0.02012600563466549], [0.03696689382195473, -0.0005037215887568891, -0.055399633944034576, 0.027206474915146828, -0.020777273923158646, -0.013472211547195911, 0.01029327604919672, -0.0023537310771644115, -0.023458046838641167, 0.02979423478245735, -0.02254277653992176], [0.007035437040030956, -0.0015757533255964518, 0.017237069085240364, -0.02252422831952572, 0.020070305094122887, 0.0004993507754988968, 0.0035781811457127333, 9.714326006360352e-05, -0.0074058957397937775, -0.004429353401064873, 0.002306415233761072], [-0.007899676449596882, 0.003661873983219266, 0.014789070934057236, -0.018571846187114716, 0.0025586094707250595, 0.005845541600137949, 0.0041131614707410336, 0.0018911559600383043, -0.005683170165866613, -0.006345840636640787, 0.012211260385811329], [-0.019131841138005257, 0.006154506001621485, 0.03419888764619827, 0.03023814782500267, -0.005864042788743973, -0.002300950000062585, -0.0018825194565579295, -0.00719945365563035, -0.007419768255203962, -0.019867464900016785, 0.01693226397037506], [-0.031229650601744652, 0.005318787414580584, 0.04273362085223198, -0.021203134208917618, 0.004145363811403513, 0.00678577134385705, -0.00021400750847533345, 0.0031689591705799103, -0.011642026714980602, 0.014893090352416039, 0.00955121498554945], [0.18152539432048798, 0.03832569345831871, 0.13306547701358795, 0.09518523514270782, 0.18173106014728546, -0.00120383664034307, -0.017114359885454178, 0.029248518869280815, 0.008091007359325886, -0.05057328939437866, 0.0010595496278256178], [-0.019711297005414963, -0.00632645096629858, -0.010327736847102642, 0.007565301842987537, -0.009304121136665344, -0.0034324307925999165, -0.0022195519413799047, -0.005314166657626629, 0.010746137239038944, -0.00520014064386487, 0.007063022814691067], [0.017391778528690338, 0.0006533091072924435, -0.016232086345553398, -0.011958256363868713, 0.009923971258103848, 0.0002841815585270524, 0.0001764197659213096, 0.00045257501187734306, 0.002577725797891617, 0.0012443669838830829, -0.0011511711636558175], [0.009346726350486279, 0.00188766373321414, -0.015311934985220432, -0.01749018020927906, 0.019010771065950394, -0.0009530325187370181, -0.008952547796070576, 0.011650128290057182, 0.007385205011814833, 0.02057703211903572, 0.0018395170336589217], [0.0012576321605592966, 0.0020829772111028433, 0.03943493217229843, -0.04304534196853638, 0.027116812765598297, 0.000189642290933989, -0.023883434012532234, -0.023024816066026688, 0.03170793503522873, 0.020536372438073158, 0.015235950239002705], [0.0328412689268589, -0.0004500530776567757, -0.010938824154436588, -0.011357790790498257, -0.010211542248725891, 0.00024842313723638654, -0.0005270098336040974, -0.002244560979306698, -0.001013043336570263, -0.003633094485849142, -0.003674894105643034], [0.0668918639421463, 0.025666022673249245, 0.04274510592222214, 0.06960400938987732, 0.10727764666080475, 0.03335869312286377, 0.04299471899867058, -0.05956045165657997, -0.0015271289739757776, -0.039428576827049255, -0.03680126368999481], [-0.0002534996601752937, 0.00021040583669673651, 0.0016005502548068762, 0.00031808760832063854, 0.00037257952499203384, -0.000824052665848285, -0.001036350498907268, -0.000751999847125262, 0.00018112633551936597, -0.002156049944460392, -0.000838280888274312], [0.00046414154348894954, 0.0003459892759565264, 0.00042475733789615333, 0.00038276100531220436, 0.0003474316035863012, 0.001964719733223319, 0.002373102819547057, 0.0020712364930659533, 0.0020816554315388203, 0.001870355918072164, 0.00014067716256249696], [0.0008758748881518841, -0.00014011379971634597, 0.0008626094204373658, 0.0008572078077122569, 0.0008634785190224648, 0.0004909136914648116, 0.0005410670419223607, 0.0004076017066836357, 0.0005629745428450406, 0.00038116457290016115, 0.00018757332873065025], [-0.01370596420019865, 0.00024722988018766046, 0.009819631464779377, -0.013381900265812874, -0.009022561833262444, 0.0010036671301349998, 0.0019793834071606398, 0.005998612847179174, 0.0016776389675214887, 0.003274897811934352, 0.0003038773138541728], [-0.0010993776377290487, -0.002037643687799573, -0.0013712281361222267, -0.0011346758110448718, -0.0010473665315657854, -0.0016919696936383843, -0.002934567630290985, -0.004023896064609289, -0.003308526473119855, -0.0032230261713266373, -0.0005870071472600102], [-0.0004876085731666535, -0.00040680187521502376, -0.0004834159917663783, -0.0004170987522229552, -0.0004833958810195327, -0.0002506398886907846, -0.0004257753898855299, -0.0006559431785717607, -0.00011795265163527802, -0.00040423290920443833, -0.00043793502845801413], [0.00043749954784289, -0.00019741036521736532, 0.0006001574802212417, 0.0003564922953955829, 0.0004123824473936111, 0.00021780963288620114, -3.359983384143561e-05, -0.00033620221074670553, -0.0008394444594159722, -0.0011617087293416262, -0.000883709522895515], [0.0006150029948912561, -0.00040803715819492936, 0.0006434909882955253, 0.0006905887275934219, 0.0007565157138742507, -0.00041383260395377874, -0.0004207146121188998, -0.0005060213734395802, -0.000938010576646775, -0.0009888031054288149, -2.7094898541690782e-05], [-0.004226734396070242, -3.258468132116832e-05, 0.0005696895532310009, -0.0024762493558228016, -0.007422544993460178, 0.00022865556820761412, -0.0002266937808599323, 4.27034028689377e-05, 0.0004676835669670254, -0.002342628315091133, -0.0001227290485985577], [0.0001936324406415224, -7.596413342980668e-05, 9.191546268993989e-05, 0.00017678043514024466, 0.00025591999292373657, -2.6832793082576245e-05, -9.448549099033698e-05, -0.00046774165821261704, -0.0006013669772073627, -0.0010281503200531006, -0.0003773505159188062], [0.000433801586041227, -0.00010071980068460107, 0.00044049081043340266, 0.0004488428821787238, 0.000467801874037832, -5.682220944436267e-05, -0.0001294274115934968, -0.00032491693855263293, -0.00016416881408076733, -0.00033072513178922236, 0.0001350219827145338], [-0.005117121618241072, 0.00023451767629012465, -0.003541921963915229, -0.002467392012476921, -0.0004905129317194223, 0.0009684000979177654, 0.0011204860638827085, 0.0006162263453006744, 0.0006507083307951689, 0.0005776769830845296, -0.00015469682693947107], [-0.0016499796183779836, -0.00038420100463554263, 0.015139935538172722, -0.006189735606312752, 0.010856760665774345, -0.0023625208996236324, -0.0027061053551733494, -0.0025882741902023554, -0.0023876801133155823, -0.002030034549534321, -0.001583926030434668], [0.0002889637544285506, -0.0002991972432937473, 0.000308520277030766, 0.00032131318585015833, 0.0003483961336314678, -0.0006923761102370918, -0.0007174327620305121, -0.0008744188817217946, -0.0008229126106016338, -0.000888683891389519, 0.00019741595315281302], [0.000214679297641851, 7.834415009710938e-05, 0.00020861045049969107, 0.00020281012984924018, 0.0001981591194635257, -5.0707312766462564e-06, -2.0341272829682566e-05, -4.277150219422765e-05, -1.0887556527450215e-05, -4.761510354001075e-05, -7.25792269804515e-05], [0.000835245184134692, -0.00042043067514896393, 0.000840785913169384, 0.0008325116359628737, 0.0008453333284705877, -0.00045329765998758376, -0.0007179593085311353, -0.0006198298069648445, -0.0004730026994366199, -0.0004452690773177892, -1.0950110663543455e-05], [0.009328262880444527, 0.0014668969670310616, 0.009233102202415466, 0.009069186635315418, 0.008959473110735416, 0.001399998553097248, 0.0010977342026308179, 0.00023457122733816504, 0.00017255560669582337, -0.00035427403054200113, 0.0006364008877426386], [-0.0005533088115043938, -0.0012753625633195043, -0.0005007672007195652, -0.0004780227318406105, -0.0004444412770681083, -0.0010677470127120614, -0.0011329693952575326, -0.0011455509811639786, -0.0010782062308862805, -0.001113305683247745, 0.000992586836218834], [-0.02996661700308323, 0.0003775693185161799, -0.033772364258766174, -0.04158369451761246, -0.07626722753047943, -0.03641205281019211, -0.0095685925334692, -0.052305422723293304, 0.016855090856552124, -0.07219871133565903, 0.06383084505796432], [-0.001110743498429656, -0.00017790960555430502, -0.0010939566418528557, -0.0010470029665157199, -0.0009961744071915746, -0.0005181997548788786, -0.0010458168108016253, -0.001349199446849525, -0.0014019919326528907, -0.001561568584293127, -0.0005292365094646811], [-0.033088263124227524, 0.029105067253112793, 0.04387224465608597, -0.05474789813160896, -0.027020521461963654, -0.050145912915468216, 0.0420277863740921, -0.03300068527460098, 0.010143173858523369, 0.01001861784607172, 0.015533259138464928], [0.00038722544559277594, -1.1913275557162706e-05, 0.0004076893092133105, 0.0004276272375136614, 0.00046837751870043576, -0.00013307850167620927, -0.00016298075206577778, -0.0002763122320175171, -0.00017467992438469082, -0.0002612104872241616, -1.4386653674591798e-05], [0.002720876131206751, -3.995937731815502e-07, 0.0027116769924759865, 0.002661772072315216, 0.002616142388433218, 0.0009637992479838431, 0.0015268833376467228, 0.0012144125066697598, 0.00188255135435611, 0.0014796605100855231, 0.000989127205684781], [0.0018653380684554577, -0.000456590874819085, 0.001913440297357738, 0.001956098945811391, 0.0020075729116797447, -0.00043308045133017004, -0.0003389539779163897, -0.0005611060769297183, -0.00023191742366179824, -0.000571993354242295, 0.0005020900280214846], [0.00032074018963612616, -0.00016569271974731237, 0.0003261761739850044, 0.00032897002529352903, 0.0003369047481101006, -0.00012106489884899929, -0.00014792838192079216, -0.00018901214934885502, -0.00013894458243157715, -0.00018097080464940518, 0.0001419698673998937], [0.0016447152011096478, 0.0007248891051858664, 0.0015283917309716344, 0.0014397322665899992, 0.0013657534727826715, 0.0030906738247722387, 0.003305616555735469, 0.00283859227783978, 0.0032014786265790462, 0.0028832603711634874, 0.0006618494517169893], [-0.00015957870346028358, -3.2999836548697203e-05, 0.00011887770961038768, 0.00014135993842501193, 1.950278237927705e-05, -1.9983308447990566e-05, 1.032099225994898e-05, 3.9408438169630244e-05, -3.646557161118835e-05, 1.4462149010796566e-05, -7.823167834430933e-05], [0.059844911098480225, -0.012732351198792458, 0.023052414879202843, 0.008447672240436077, 0.033158425241708755, -0.011374049820005894, -0.01828751340508461, -0.004935955163091421, -0.022254740819334984, -0.022263197228312492, -0.00949698407202959], [-0.00022828228247817606, -7.60021066525951e-05, 0.0002946681634057313, -0.00026187978801317513, -0.0002814795298036188, 2.800184302031994e-05, -1.2493425856519025e-05, -7.784313493175432e-05, -0.00017827814735937864, -0.00017380011558998376, -4.2965148168150336e-05], [-0.0034380480647087097, -0.0006950779934413731, -0.008282897062599659, -0.006759022828191519, -0.006344463210552931, 0.00038675451651215553, -0.0024249455891549587, -0.0026207107584923506, -0.005215815734118223, -0.005908240098506212, -0.0046573118306696415], [-0.0016265325248241425, 0.00036504416493698955, -0.0016723296139389277, -0.001672591781243682, -0.0016444732900708914, 0.0013797798892483115, 0.0004834971623495221, 4.292387166060507e-05, -0.0005371873266994953, -0.0007163438713178039, -0.0015701660886406898], [-0.01464048307389021, -5.3187846788205206e-05, -0.010397559963166714, -0.01134753692895174, -0.011798182502388954, -0.001134229707531631, -0.0022115253377705812, -0.003237720811739564, -0.0034075051080435514, -0.004635119345039129, -0.0031252652406692505], [-0.0006140800542198122, -0.0001377016305923462, -0.0006467996863648295, -0.00023716603755019605, -0.0013967343838885427, 8.665155473863706e-05, 0.00013438829046208411, 0.00015178773901425302, 0.0002319631166756153, 0.0001631466147955507, -0.0002163852914236486], [-0.0005626907222904265, 0.0010195369832217693, -0.000592716212850064, -0.0005970662459731102, -0.00041643381700851023, 0.0011811335571110249, 0.0008021924295462668, 9.656656038714573e-05, 0.0009635169990360737, -0.003653378691524267, -0.00029396763420663774], [0.00025968471891246736, -0.00013692403445020318, 0.00026341501506976783, 0.0002754119341261685, 0.0002807829005178064, -1.2996195437153801e-05, -4.594928668666398e-07, -6.5475185692776e-05, 4.8956713726511225e-05, -2.993879752466455e-05, 0.0002617297286633402], [8.937693201005459e-05, 1.582501135999337e-05, 8.8728622358758e-05, 9.219763160217553e-05, 0.00010229986219201237, 3.749549068743363e-05, 3.861099685309455e-06, -5.512567804544233e-05, -2.9021788577665575e-05, -7.73876381572336e-05, -3.575461596483365e-05], [-0.003550454508513212, -0.0005103798466734588, -0.004495569504797459, -0.0037091944832354784, -0.004403828177601099, -7.565904525108635e-08, -1.3805743947159499e-05, -0.00024240423226729035, -0.00032273391843773425, -0.0004375268763396889, 1.9502713257679716e-05], [0.0007625511498190463, -0.00034360724384896457, 0.0007645258447155356, 0.0007522074738517404, 0.000739583745598793, -0.00019662622071336955, -4.7433117288164794e-05, -6.17668847553432e-05, 0.0003282150428276509, 0.0001990822347579524, 0.00048328889533877373], [0.0008607662748545408, -0.00024653514265082777, 0.0008786014514043927, 0.0008900116663426161, 0.0009217065526172519, -0.0002536141546443105, -0.0004132083849981427, -0.0007496295729652047, -0.00045360566582530737, -0.0007323356694541872, 0.0002863714471459389], [-0.05172094702720642, 0.008734271861612797, 0.008746909908950329, 0.01755428873002529, -0.05129548907279968, 0.019492538645863533, -0.005789040122181177, 0.02420482225716114, 0.007144923321902752, 0.021949540823698044, 0.008547921665012836], [0.055402353405952454, 0.010837859474122524, -0.06674695014953613, -0.07314888387918472, 0.02132420241832733, -0.04118239879608154, -0.012074385769665241, -0.03659532591700554, -0.05804336071014404, -0.025572730228304863, 0.002848259173333645], [0.0012922720052301884, -0.0005957726389169693, -0.010191477835178375, 0.009343748912215233, -0.014361508190631866, -0.0015102807665243745, -0.0009936443530023098, -0.00918351300060749, -0.014445827342569828, -0.008665857836604118, 0.007719275541603565], [3.2041833037510514e-05, -4.5439566747518256e-05, 6.033287718310021e-05, 4.098192584933713e-05, 4.915521640214138e-05, 4.923240703647025e-05, 0.00011126810568384826, 1.4125611414783634e-05, 8.013196202227846e-05, -3.640805516624823e-05, 0.00013000925537198782], [8.663554763188586e-05, -6.007652700645849e-05, 9.95737427729182e-05, 0.00011178808199474588, 0.0001327398931607604, -0.0002830226731020957, -0.000374876573914662, -0.000473871041322127, -0.0003562539641279727, -0.0004899564082734287, -6.24676795268897e-06], [0.0005813682219013572, -0.00030665547819808125, 0.00058921700110659, 0.0005961764836683869, 0.0006274401675909758, 6.943872722331434e-05, 3.776949233724736e-05, -0.00026919078663922846, -0.00019499677000567317, -0.0003792393545154482, 0.0006066436180844903], [0.00029747094959020615, 0.00017233080870937556, 4.623150744009763e-06, 0.0001920669456012547, 0.0002981908619403839, 0.0002016118378378451, 2.955051422759425e-05, -0.0004390405956655741, -0.00011433388863224536, -0.0003753021883312613, -5.537555261980742e-05], [0.0004992400063201785, -0.00011241780885029584, 0.0004998691729269922, 0.0004969785804860294, 0.0004933970049023628, -4.28297535108868e-05, -3.255139017710462e-05, -6.11549403402023e-05, -6.039867002982646e-05, -0.00015495828120037913, 0.00040545701631344855], [9.064219921128824e-05, 2.8057347662979737e-05, 9.074714034795761e-05, 8.993325900519267e-05, 8.951029303716496e-05, 2.6701771275838837e-05, 4.57701098639518e-05, 4.304563481127843e-05, 6.380851846188307e-05, 5.855917697772384e-05, 2.2386619093595073e-05], [-6.960976315895095e-05, -3.795628435909748e-05, -0.00011778852785937488, -0.00012913339014630765, -9.716675413073972e-05, 1.831619920267258e-05, 3.6812642065342516e-05, 3.569616819731891e-05, 1.66306272149086e-05, 1.6517911717528477e-05, 7.688028745178599e-06], [0.053105514496564865, -0.021257027983665466, 0.005198183935135603, -0.00930484663695097, 0.026567192748188972, -0.015884052962064743, -0.017398538067936897, -0.002877074759453535, -0.002532408107072115, -0.020330943167209625, 0.004878236912190914], [0.0004331239906605333, -0.00019233697094023228, 0.0003313308989163488, 0.00037321491981856525, 0.00013845397916156799, -4.376488504931331e-05, 3.5030334402108565e-05, 2.8357400879031047e-05, 5.187836359255016e-05, 1.6762938685133122e-05, 0.00041826008236967027], [0.002197692636400461, 0.007641513366252184, -0.029249506071209908, -0.03338932991027832, -0.015337472781538963, 0.01862354762852192, 0.0168295931071043, 0.04521505534648895, -0.03755277395248413, -0.006294411141425371, 0.029336245730519295], [-0.00018466549227014184, 0.00012610859994310886, 0.00017289664538111538, 0.00013136175402905792, 0.0002703988866414875, 3.456089325482026e-05, 6.895839760545641e-05, -0.00034807081101462245, 2.3754564608680084e-05, -0.0003007655614055693, -0.0006146086379885674], [-0.00023088243324309587, -0.0002889761817641556, 0.00015998365415725857, 0.0004400238685775548, 0.0002029924507951364, -0.0002060558326775208, -0.0002670229587238282, -0.0004641631676349789, -0.00021143557387404144, -0.0003503994666971266, 9.480018343310803e-05], [6.703397957608104e-05, -0.00017261554603464901, 9.346385195385665e-05, -0.00019027279631700367, 1.55285706568975e-05, -0.00011242220352869481, -6.676531484117731e-05, -0.00017378003394696862, 4.575149068841711e-05, 0.0003494448901619762, -0.0006193176959641278], [-0.00014713361451867968, -0.0006783804856240749, 0.0010235487716272473, 0.0002879891835618764, 0.0006743358680978417, -0.0004268136981409043, -0.0009951251558959484, -0.0066498988308012486, -0.0016884197248145938, -0.0015941242454573512, -0.0003713854821398854], [-0.0013217685045674443, -0.0002540233836043626, -0.001318233902566135, -0.0012898864224553108, -0.0012563513591885567, -2.4570055757067166e-05, -7.152717444114387e-05, 2.3431752197211608e-05, -0.0001553584006614983, -0.00013873176067136228, -0.0011266132351011038], [-0.09623531252145767, -0.0018238238990306854, -0.07307244092226028, -0.033395495265722275, 0.005042568780481815, -0.024195298552513123, -0.023694351315498352, -0.014840529300272465, -0.04825868085026741, -0.03463417664170265, 0.01100444607436657], [-0.0010349771473556757, -0.00022143493697512895, 0.0013836818980053067, -0.0004842957714572549, 0.0009399232803843915, 0.00204372382722795, 0.0010016949381679296, -0.008561802096664906, 0.006901410408318043, -0.0016759256832301617, -0.0007985414122231305], [1.4988170732976869e-05, 8.408628673350904e-06, 1.3474294974002987e-05, 1.4051065591047518e-05, 1.6278168914141133e-05, 2.603065331641119e-05, 1.4185062354954425e-05, 2.8798247058148263e-06, 6.9119796535233036e-06, 3.5299751743878005e-06, -7.92794435255928e-06], [0.0016734172822907567, -0.00042430160101503134, 0.0016697193495929241, 0.0016743503510951996, 0.0017360399942845106, 0.00018935657863039523, 0.00021388351160567254, -0.0005161461303941905, 0.0001595398789504543, -0.0005698285531252623, 0.000881988147739321], [-0.00044407337554730475, 8.45908944029361e-05, 8.653329132357612e-05, -0.00030213582795113325, -0.0003503522020764649, -1.5446414181496948e-05, -0.0003847879415843636, -0.0008754322770982981, -0.002025879919528961, -0.0023448581341654062, -0.0019090143032371998], [4.9339076213072985e-05, -7.322883902816102e-06, -2.1811749320477247e-05, -4.506973345996812e-05, 0.00017809882410801947, -2.3946161036292324e-06, -3.3944153983611614e-05, -4.763792094308883e-05, -6.0415302868932486e-05, -7.282853766810149e-05, -4.529645593720488e-05], [-0.0019387458451092243, -0.0015867158072069287, -0.020984606817364693, -0.012116046622395515, 0.030662348493933678, -0.003357183886691928, -0.0013819102896377444, -0.009783492423593998, -0.01618034392595291, -0.025535326451063156, -0.0056765214540064335]], "lstm.weight_hh_l0": [[-9.437355765840039e-05, 0.00014248889056034386, 0.000157668036990799, -6.539867172250524e-06, 0.00013883253268431872, 3.47777058777865e-05, -1.5019933925941586e-05, -0.00011445341806393117, -0.0002555035171099007, -7.408230158034712e-05, -6.492435204563662e-05, -6.815190135966986e-05, 5.309558764565736e-05, 6.467061029979959e-05, -3.6742408155987505e-06, 6.0818805650342256e-05, -3.56544042006135e-05, 0.00014640881272498518, 0.00021331517200451344, -8.72264863573946e-05, 4.7832643758738413e-05, -6.567576292582089e-06, -0.00011595677642617375, -5.803805834148079e-05, 4.758241993840784e-05, -0.00019243187853135169, -9.543975465930998e-06, -0.0002366972912568599, -4.4809075916418806e-05, -0.00013843266060575843, 8.535670349374413e-05, 0.00022870051907375455, -1.5026376786408946e-05, -9.038458665600047e-05, 3.5053639294346794e-05, -3.718899824889377e-05, -5.331746433512308e-05, -2.6250836526742205e-05, 5.4872951295692474e-05, 7.369831109826919e-06, -0.00021948217181488872, -0.00018530154193285853, 1.3440963812172413e-05, -5.743393558077514e-05, -0.00013009556278120726, -7.119255315046757e-05, 1.067655603037565e-06, -1.8345488570048474e-05, 2.7827156372950412e-05, 0.00015255303878802806, 2.2813526811660267e-05, -7.617045775987208e-05, -3.1290754122892395e-05, 4.549461664282717e-05, -1.511814298282843e-05, 9.70734836300835e-05, -7.587502477690578e-05, 0.00019744649762287736, 3.1172535273071844e-06, -1.0014204235631041e-05, -0.00020718017185572535, -0.0001527429703855887, 3.278028452768922e-05, 0.00047231066855601966], [1.4350082892633509e-05, -2.80729746009456e-05, -3.4640477679204196e-05, -3.0900420824764296e-05, -3.244754043407738e-05, -4.349062237452017e-06, 1.5192068531177938e-05, 1.590454667166341e-05, 4.803711999556981e-05, 1.4040727364772465e-05, -4.0671375245437957e-07, -1.8603260514282738e-06, -1.781399805622641e-05, 1.2254445209691767e-06, 3.205298753528041e-06, 1.1739032288460294e-06, -3.1465001484320965e-06, 1.0044058399216738e-05, 0.000488415767904371, 1.951067133632023e-05, 0.0005125393508933485, 9.94273887044983e-06, 6.855876563349739e-06, 2.3428487111232243e-05, 4.158597675996134e-06, 8.558418630855158e-05, -9.1957201675541e-07, -0.00022510156850330532, 6.0572729125851765e-06, 7.378575901384465e-06, -1.4692039258079603e-05, -8.880080713424832e-06, 1.108132528315764e-05, 2.9778177122352645e-05, -5.2369277909747325e-06, -5.728280711991829e-07, -8.450007953797467e-06, 1.2472589332901407e-05, -2.5592540623620152e-05, -8.99451260920614e-05, -0.00019754277309402823, -0.00011481637920951471, -3.072864637942985e-05, 8.31427223602077e-06, 5.8104575145989656e-05, 2.4535182092222385e-05, -1.1355473361618351e-05, 2.8488827297223906e-07, -3.4026361390715465e-06, 0.00034853824763558805, -1.3620192476082593e-06, -0.0005502030835486948, 1.4130043382465374e-05, -3.8541438698302954e-06, 9.96345897874562e-06, -1.280594733543694e-05, 9.104216587729752e-06, -0.00022746706963516772, 1.5873385564191267e-05, 9.515608780930052e-07, 1.3605604181066155e-05, 1.00458346423693e-05, -3.919639311789069e-06, 6.846693577244878e-05], [-5.615597910946235e-05, 9.11122842808254e-05, 0.00010521152580622584, 3.463818211457692e-05, 0.0001261821889784187, 2.3045715352054685e-05, -6.674955557173234e-07, -6.320406828308478e-05, -8.8004584540613e-05, -1.2228127161506563e-05, -4.498222915572114e-05, -0.00010280696005793288, 5.087478712084703e-05, 4.615656871465035e-05, -2.093884177156724e-06, 4.968770008417778e-05, 1.0327678978683252e-07, 0.0001516366464784369, 0.00023584486916661263, -4.081422957824543e-05, 0.00014958322572056204, -7.069051207508892e-06, -6.215387838892639e-05, -2.82642176898662e-05, 4.2646443034755066e-05, -0.00015934060502331704, -3.8061129998823162e-06, -0.0001772893447196111, -3.630337232607417e-05, -0.00017672024841886014, 0.00014159776037558913, 9.847619367064908e-05, -1.7819571439758874e-05, 6.474177780546597e-07, 3.0468811019090936e-05, -1.622509807930328e-05, -6.698033394059166e-05, -1.7660933735896833e-05, 5.133701051818207e-05, 5.219687955104746e-05, -0.00017666367057245225, -5.145032992004417e-05, 1.1120921953988727e-05, -2.6198240448138677e-05, -8.032436744542792e-05, -3.8497430068673566e-05, -4.215122316963971e-06, -9.708368452265859e-06, 2.9031940357526764e-05, 9.108804806601256e-05, 4.496070687309839e-05, -5.5852029618108645e-05, -3.4393651731079444e-06, 5.912502092542127e-05, -2.144517748092767e-05, 0.00012051721569150686, -5.811035225633532e-05, 0.0001561786193633452, 7.3980872912216e-06, -1.5552222976111807e-05, -0.0001096956548281014, -3.655746695585549e-05, 2.423164914944209e-05, 0.00016591729945503175], [-3.5842145734932274e-05, -3.356112938490696e-05, -5.2960498578613624e-05, -0.00014714561984874308, 0.00033486238680779934, 2.3686968688707566e-06, 1.856089693319518e-05, -2.851078170351684e-05, -0.00015675908070988953, 1.5027427252789494e-05, 4.070421255164547e-06, -8.394828182645142e-05, -3.923432086594403e-05, 1.0127576388185844e-05, -6.350671174004674e-05, 6.744554411852732e-05, 0.0003866660699713975, 1.0838626621989533e-05, -5.8608526160242036e-05, -8.389568392885849e-05, -0.00012523926852736622, 0.00012580434849951416, 0.00012688848073594272, -2.7156091164215468e-05, -6.056236998119857e-06, -1.4645173905591946e-05, -2.6838868507184088e-05, -0.0001199773614644073, 1.629877601772023e-06, -0.00016485231753904372, 7.601029210491106e-05, 0.00024441623827442527, -1.2850416169385426e-05, 1.4827694030827843e-05, 1.8184086002293043e-05, -1.58812508743722e-05, -8.11112840892747e-05, 6.777683302061632e-05, 2.6903149773715995e-05, -0.0002747478720266372, -7.18787414371036e-05, -0.00017600832507014275, -5.0078058848157525e-05, 2.045964720309712e-05, 1.944477298820857e-05, -2.9409235139610246e-05, 2.816148662532214e-05, 3.775996810873039e-05, 1.9344690826983424e-06, 9.122557821683586e-05, 1.5170573533396237e-05, -4.473995431908406e-05, -1.018749117065454e-06, 0.00011852281750179827, -2.9400365747278556e-05, 6.123438652139157e-05, -3.8405429222621024e-05, 0.0002768262929748744, -5.10331301484257e-05, 6.768299954273971e-06, 7.321158773265779e-05, 6.032930832589045e-05, -1.0947740520350635e-05, 0.00024886851315386593], [-0.0003433037200011313, 0.0004274118400644511, 0.0006522226613014936, -0.0005672299303114414, 0.00068017648300156, 0.00026207941118627787, 0.0002792704035528004, -0.000619759492110461, -0.0008321470813825727, -0.00012472554226405919, -0.0002959026605822146, -0.00038349704118445516, 0.0008146835025399923, 0.00030159897869452834, -0.00011026836727978662, 0.0003833570808637887, 0.0008274036226794124, 0.00059898552717641, 0.0050476728938519955, -0.000549019081518054, 0.004462318029254675, 0.000272545701591298, 3.6052857467439026e-05, -0.0002759514609351754, 0.00026249856455251575, -0.000694239279255271, -8.953402721090242e-05, -0.004282329231500626, -0.00037011451786383986, -0.0010745235485956073, 0.00045726538519375026, 0.002770627848803997, -0.00012748037988785654, 0.00013763454626314342, 0.00023809322738088667, -0.00024411859340034425, -0.0005997586995363235, -2.4926044716266915e-05, 0.0002774875611066818, -0.00066658592550084, -0.004486273508518934, -0.002744253259152174, -5.448263982543722e-05, -0.00022973910381551832, -0.000426878803409636, -0.0002300749474670738, 4.959500438417308e-05, 1.931439146574121e-05, 0.00017285137437283993, 0.004584030713886023, 0.00017058396770153195, -0.004114828538149595, -2.896544901886955e-05, 0.00031627158750779927, -0.00015176560555119067, 0.0006717002834193408, -0.0005619533476419747, 0.0035154481884092093, 0.00031460332684218884, -4.5740758650936186e-05, -0.0005471418262459338, -0.00022746327158529311, 0.00010884257062571123, 0.00315147009678185], [-2.1836094674654305e-05, 1.7882580323203001e-06, 2.0151301214355044e-05, 1.099977544072317e-05, 4.492007792578079e-05, 4.3041393382736715e-07, 1.0703242878662422e-05, -2.2002661353326403e-05, -2.5907975214067847e-06, -8.503548997396138e-06, -4.36266327596968e-06, -4.854187500313856e-05, 1.63522781804204e-05, 1.6693193174432963e-05, -3.7058214275020873e-06, 5.644011253025383e-06, 8.470042303088121e-06, 2.5809937142184936e-05, 0.0005005344282835722, -2.626620334922336e-05, 9.709040023153648e-05, 3.4955564842675813e-06, 4.475059540709481e-06, -3.154115347570041e-06, 6.309629497991409e-06, -9.834140655584633e-06, -8.260758477263153e-06, 3.504970663925633e-06, -8.0435311247129e-06, -7.807914516888559e-05, 4.819286914425902e-05, 0.0001565018465043977, 9.991207434723037e-07, -4.116826858080458e-06, 5.455433438328328e-06, -7.988984179974068e-06, -5.712725760531612e-05, 4.349984919826966e-06, 9.23378138395492e-06, 5.444192356662825e-05, 2.835641680576373e-05, -3.025337355211377e-05, -2.0913578282488743e-06, -1.1905534847755916e-05, -1.158463601313997e-05, -3.898257546097739e-06, 3.6368505789141636e-06, 1.617783368601522e-06, 3.794884150920552e-06, 0.00015153293497860432, 2.557481593612465e-06, -0.0001757038407959044, 6.3216120906872675e-06, 2.972193578898441e-05, -5.722473815694684e-06, -3.954900876124157e-06, -5.9878781030420214e-05, 7.949781138449907e-05, 1.3555660189012997e-05, -1.511925574959605e-06, -2.456392212479841e-05, -2.5408307919860817e-05, 1.0704097803682089e-05, -1.3061058780294843e-05], [-4.761037416756153e-06, -3.2401567295892164e-05, -1.9627390429377556e-05, -2.647258952492848e-05, 6.281530659180135e-05, 4.627228008757811e-06, 9.148668141278904e-06, -1.2778403288393747e-05, 1.7692846085992642e-05, -2.742601736827055e-06, 2.9214484129624907e-06, -2.6198013074463233e-05, 1.9230150428484194e-05, 2.359397058171453e-06, -5.8118312153965235e-06, 1.869836705736816e-05, 2.5619516236474738e-05, -7.516881851188373e-06, 0.0006122450577095151, -3.689733784995042e-05, 0.0005210615927353501, 1.3421336916508153e-05, 5.4379670473281294e-05, -2.0992642021155916e-05, -7.106985322025139e-06, 2.4752216631895863e-05, -1.7075039068004116e-05, -0.00030349267763085663, -3.0965984478825703e-06, -0.00012238924682606012, 4.7311190428445116e-05, 0.00014990329509600997, 1.3385900956564e-06, 1.5650091881980188e-05, 6.240241873456398e-06, -6.422138085326878e-06, -4.347645881352946e-05, 3.776054654736072e-06, -3.817081505985698e-06, -9.378956019645557e-05, -0.0003349343896843493, -0.00014199066208675504, -1.5497402046094066e-06, 1.0303623412255547e-06, 1.1310080481052864e-05, -4.903825811197748e-06, -9.30432918266888e-07, 8.043645721045323e-06, -1.022769197334128e-06, 0.000410202395869419, 8.044892638281453e-06, -0.0004704147286247462, 1.547318788652774e-05, 1.9050552509725094e-05, -1.995091406570282e-05, 8.288498065667227e-06, -6.73425238346681e-05, 0.0003346337762195617, 3.906954589183442e-06, 2.616710389702348e-06, 1.865152080426924e-05, 6.7037717599305324e-06, 5.221560968493577e-06, 0.00016373462858609855], [-8.563764276914299e-05, 9.409435733687133e-05, 0.00012120722385589033, -7.435038423864171e-05, 0.0002836727653630078, 4.217222158331424e-05, 3.977247979491949e-05, -6.0911559558007866e-05, -0.0001941176742548123, -3.241872400394641e-05, -6.446973566198722e-05, -0.00013315590331330895, 0.00012207357212901115, 5.8644251112127677e-05, -2.1165215002838522e-05, 7.929441198939458e-05, 0.00014490466855932027, 0.00012497918214648962, 0.0010780743323266506, -0.0001415493752574548, 0.0008880622917786241, 3.3959186112042516e-05, -4.87562756461557e-05, -5.596164191956632e-05, 5.824082109029405e-05, -0.0001796716096578166, -1.3596820281236432e-05, -0.0010808799415826797, -6.082598338252865e-05, -0.0003898554714396596, 0.00022499503393191844, 0.00023968913592398167, -2.6005443942267448e-05, 5.396132110035978e-06, 3.652747909654863e-05, -2.9983168133185245e-05, -0.0001810219546314329, -1.7111669876612723e-05, 7.395350257866085e-05, -0.00020515471987891942, -0.0011243915650993586, -0.0003400062851142138, 4.5390447667159606e-07, -2.298617982887663e-05, -9.503212640993297e-05, -5.87709218962118e-05, 4.645324679586338e-06, 7.669852493563667e-06, 4.139510929235257e-05, 0.0009536202996969223, 3.827321415883489e-05, -0.0006559815374203026, 1.6419297026004642e-05, 0.00011472457845229656, -4.731690205517225e-05, 0.000130365471704863, -0.0001144582056440413, 0.0009702181559987366, 3.9802758692530915e-05, -1.570512722537387e-05, -0.00012034880637656897, -9.299805969931185e-05, 1.9851417164318264e-05, 0.0005760664353147149], [-6.547576776938513e-05, 0.00015178394096437842, 0.0001344412303296849, 1.5249384887283668e-05, 7.538449426647276e-05, 3.5033540370932315e-06, -1.0195770300924778e-05, -7.258520054165274e-05, -5.7853972975863144e-05, -2.715120353968814e-05, -4.375661228550598e-05, -3.316838774480857e-05, 5.399168003350496e-06, 4.3419102439656854e-05, -3.808602514254744e-06, 2.1539352019317448e-05, 9.312164365837816e-06, 0.00015213165897876024, -2.7601530746323988e-05, -7.742961315670982e-05, -0.00012446251639630646, 5.96049403611687e-06, -5.878883894183673e-05, -2.3094773496268317e-05, 3.374371226527728e-05, -0.00017062848201021552, -1.1852659554278944e-05, -7.768485374981537e-06, -3.066165663767606e-05, -0.00016822728503029794, 7.174460915848613e-05, 7.362679752986878e-05, -1.5248700037773233e-05, -1.884657103801146e-05, 2.6430849175085314e-05, -1.6912565115489997e-05, -4.041574720758945e-05, -2.743651748460252e-05, 5.586864790529944e-05, -7.827493391232565e-06, 2.1572950572590344e-05, -2.5320307031506673e-05, 7.5494185693969484e-06, -3.383570947335102e-05, -0.00011646167695289478, -2.5765106329345144e-05, -3.3871310733957216e-06, -8.309645636472851e-06, 1.8407165043754503e-05, 1.0076933904201724e-05, 1.9892129785148427e-05, 5.807475099572912e-05, -2.7133568437420763e-05, 3.300315802334808e-05, -4.870327757089399e-06, 2.3218042770167813e-05, -6.609377305721864e-05, 5.530155249289237e-06, 9.553803465678357e-06, -1.0100408871949185e-05, -0.00013512471923604608, -4.912324948236346e-05, 1.681088724581059e-05, 6.38086348772049e-05], [-4.4903634261572734e-05, 1.9096856703981757e-05, 4.7323075705207884e-05, -3.7156969483476132e-06, 4.516567423706874e-05, 3.994096459791763e-06, -8.772623004915658e-06, -1.9503067960613407e-05, -4.7940757212927565e-05, -1.753111428115517e-05, -1.5749410522403196e-05, -3.640999420895241e-05, 1.152782169810962e-05, 2.7840167604153976e-05, 4.255193744029384e-06, 9.211579708789941e-06, -2.5640487365308218e-05, 4.9100868636742234e-05, 0.0002572961675468832, -2.34995659411652e-05, 0.00024802671396173537, -1.739113031362649e-05, -2.1087729692226276e-05, -8.546137905796058e-06, 1.8732143871602602e-05, -4.9732709157979116e-05, -8.61797502693662e-07, -0.0001942223752848804, -7.504512723244261e-06, -5.858835720573552e-05, 3.835328607237898e-05, 3.665992699097842e-05, -7.664084478165023e-06, -2.132261943188496e-05, 4.081681254319847e-06, -1.1604999599512666e-05, -1.050256014423212e-05, -6.7426149144012015e-06, 1.651618913456332e-05, -1.3970335203339346e-05, -0.00022706393792759627, -8.286193769890815e-05, 4.859100954490714e-06, -1.3505972674465738e-05, -2.117690928571392e-05, -2.384384242759552e-05, -9.839951644607936e-07, -4.445860213309061e-06, 7.489702511520591e-06, 0.0001902871736092493, 9.723412404127885e-06, -0.00020538004173431545, -5.081129529571626e-06, 1.6745867469580844e-05, 6.678247927993652e-07, 3.655452383100055e-05, -2.1310315787559375e-05, 0.0002029318711720407, 1.6916076219786191e-06, -3.4586314541229513e-06, -4.3459906009957194e-05, -3.2148269383469597e-05, 9.325356586487032e-06, 0.00013285668683238328], [-2.5299501430708915e-05, 2.3565775336464867e-05, 3.4295193472644314e-05, 9.462509297009092e-06, 3.178724000463262e-05, 3.902361640939489e-06, -7.27013730283943e-06, -1.9909068214474246e-05, -3.1130286515690386e-05, -1.1317974895064253e-05, -1.4602219380321912e-05, -2.3826141841709614e-05, 1.4459305930358823e-06, 1.2377707207633648e-05, -1.5573699840842892e-07, 1.2787357263732702e-05, -5.005109869671287e-06, 2.4698189008631743e-05, 0.00011012910545105115, -1.492486353527056e-05, 0.00012156323646195233, 4.53200618721894e-06, -1.8541426470619626e-05, -7.691663995501585e-06, 1.0740917787188664e-05, -3.5858069168170914e-05, -1.3464504036164726e-06, -7.618903327966109e-05, -1.1154907952004578e-05, -3.952450060751289e-05, 3.6034005461260676e-05, 2.0593928638845682e-05, -6.6253310251340736e-06, -9.39115125220269e-06, 9.4506631285185e-06, -5.11175676365383e-06, -1.523037462902721e-05, -1.246299780177651e-05, 1.9881772459484637e-05, 5.684793450200232e-06, -0.00015786179574206471, -2.7683114240062423e-05, 8.558766239730176e-06, -1.0024784387496766e-05, -2.4328806830453686e-05, -1.2821287782571744e-05, -5.469425104820402e-06, -1.9130686723656254e-06, 5.889040494366782e-06, 3.729852323886007e-05, 1.180858180305222e-05, -3.863638994516805e-05, -6.185293841554085e-06, 1.3011566807108466e-05, -1.6436426903965184e-06, 1.805787906050682e-05, -1.5352561604231596e-05, 0.00010896709864027798, -8.850209951560828e-07, -4.709741006081458e-06, -3.216067489120178e-05, -1.6014790162444115e-05, 6.5652916418912355e-06, 5.5695367336738855e-05], [-4.754673136631027e-05, 0.0001259577547898516, 0.00018887867918238044, 5.99449995206669e-05, -8.117803372442722e-05, 5.908540333621204e-05, 8.034765778575093e-05, -0.0001442822685930878, -0.00011986793833784759, -4.560870729619637e-05, -2.7851099730469286e-05, 9.632029832573608e-05, 0.00011016922508133575, 5.728650648961775e-05, -7.1026292971509974e-06, 9.063444304047152e-05, 2.155878974008374e-05, 0.0001347469660686329, -0.00023790079285390675, -6.590092380065471e-05, -0.0005128190969116986, 9.575260264682584e-07, -8.41081200633198e-05, -6.108364323154092e-05, 5.002512625651434e-05, -0.00017802428919821978, 1.4136277286525e-06, 0.0002740723139140755, -4.070945578860119e-05, 0.00014413449389394373, -6.836660031694919e-05, 0.00022369094949681312, -1.6750720533309504e-05, 1.9024882931262255e-05, 1.7819027561927214e-05, -3.226040644221939e-05, 4.445191007107496e-05, 1.19520036605536e-05, 9.293771654483862e-06, 0.0003001204167958349, 0.00014765947707928717, 0.00012177060125395656, 8.901833098207135e-06, -6.79286167724058e-05, -0.00011880844249390066, -6.220799150469247e-06, 1.63238073582761e-05, -2.560246002758504e-06, 2.00623253476806e-06, -0.00010635684157023206, -8.654165867483243e-06, 0.0002906325680669397, 4.744309626403265e-05, -5.877715375390835e-05, -6.637257320107892e-05, -3.528965316945687e-05, 2.7187197702005506e-06, -0.0003210119903087616, 4.460830314201303e-05, -5.126194992044475e-06, -0.00017573274089954793, -0.0001229365007020533, 1.824437640607357e-05, 3.524049316183664e-05], [-1.7486775050201686e-06, 2.1234177438600454e-06, 8.227703074226156e-05, 5.981125468679238e-06, 0.0005337022594176233, 8.155609975801781e-05, 0.00013753293023910373, -0.00013151401071809232, 4.240095222485252e-05, -1.1737613021978177e-05, -1.1151664693898056e-05, -0.0003534375864546746, 0.0002060612168861553, 9.519027662463486e-05, -3.1610670703230426e-05, 7.412138802465051e-05, 9.25651183933951e-05, 0.0001601052499609068, 0.0023327828384935856, -0.0002793565217871219, 0.0012599935289472342, 5.600540680461563e-05, 2.9086526410537772e-05, -5.403090108302422e-05, 3.837447729893029e-05, -6.65232801111415e-05, -3.7876085116295144e-05, -0.0007925841491669416, -4.839929533773102e-05, -0.0010388899827376008, 0.000536089763045311, 0.0011094289366155863, -2.13445964618586e-05, 0.00011147364421049133, 3.708896110765636e-05, -2.7246391255175695e-05, -0.0003243169921915978, 4.292208541301079e-05, 4.285650356905535e-05, 0.0002656933793332428, -0.0007671527564525604, -0.00034656902425922453, -1.2233280131113133e-06, -3.397112595848739e-05, -5.1178027206333354e-05, 3.535213545546867e-05, 1.0349655894970056e-05, 2.324431625311263e-05, 1.826168954721652e-05, 0.0014113759389147162, 1.534552575321868e-05, -0.001297267503105104, 0.00012705301924142987, 0.00013104898971505463, -0.00010052442667074502, 8.715162493899697e-07, -0.0003781815757974982, 0.0013641325058415532, 0.0001484453387092799, -1.0074741112475749e-05, -5.680798858520575e-05, -0.00013080828648526222, 5.239823440206237e-05, 0.00017017706704791635], [-5.7747831306187436e-05, 4.9765632866183296e-05, 3.050823579542339e-05, -9.098971349885687e-05, 8.083156717475504e-05, 5.900847099837847e-06, -8.233541848312598e-06, -1.1249670023971703e-05, -6.49137218715623e-05, -2.549194687162526e-05, -2.7066666007158346e-05, -3.290609674877487e-05, -1.864523255790118e-07, -2.12136292248033e-05, -2.740302079473622e-05, 1.7790505808079615e-05, 0.00012969689851161093, -2.2673211788060144e-05, 0.0006223387317731977, -2.9730244932579808e-05, 0.0005621964228339493, 5.623824836220592e-05, -3.954985731979832e-05, -2.6259209334966727e-05, 4.818421984964516e-06, -4.610238102031872e-05, -2.510181275283685e-06, -0.0004138867661822587, -1.904537930386141e-05, 8.370458090212196e-06, 3.41245140589308e-05, 8.547326433472335e-05, -6.523107913380954e-06, -3.0459206755040213e-05, 1.774869451764971e-05, -6.506732461275533e-06, -2.515509186196141e-05, 2.2798319605499273e-06, 2.4708700948394835e-05, -0.00028122906223870814, -0.0005192953976802528, -0.00019054389849770814, -3.345548975630663e-05, 1.1296238881186582e-05, -1.815608629840426e-05, -2.9535322028095834e-05, 1.0976140401908197e-05, 1.306562262470834e-05, 7.4229023994121235e-06, 0.0004374817945063114, 1.4897127584845293e-05, -0.000472595653263852, 5.886984581593424e-06, 3.5861259675584733e-05, -5.452907771541504e-06, 2.683585807972122e-05, -6.832768576714443e-06, 0.00039598517469130456, -5.3295570978662e-06, -6.645861049037194e-06, -3.889482104568742e-05, -6.469668733188882e-05, 6.783059689041693e-06, 0.0002800616784952581], [-1.05313283711439e-05, 1.228982819156954e-05, 5.873492227692623e-06, -7.129122968763113e-05, 5.953350046183914e-05, 5.382955350796692e-06, 7.219675808300963e-06, -1.3007225788896903e-05, -2.4947323254309595e-05, -2.4804933218547376e-06, -4.833705588680459e-06, -1.1970385457971133e-05, 8.303491995320655e-06, -4.093010375072481e-06, -7.528216883656569e-06, 1.3460100490192417e-05, 5.792944648419507e-05, -4.5367942220764235e-06, 0.0006811731727793813, -2.6641208023647778e-05, 0.000731412845198065, 2.9774933864246123e-05, 2.8037602533004247e-05, -8.186585546354763e-06, 2.1948305857222294e-06, -2.1548958102357574e-05, -7.185614322224865e-06, -0.0003106922667939216, -7.597981948492816e-06, -3.943611227441579e-05, 2.0881096133962274e-05, 8.807924314169213e-05, -3.1384142857859842e-06, 3.1997885798773495e-06, 1.0596304491627961e-05, -6.4120681599888485e-06, -4.071165312780067e-05, 7.881910732976394e-07, 7.848073437344283e-06, -0.00015804670692887157, -0.00032364457729272544, -0.0002867979055736214, -1.6384672562708147e-05, 3.176981863362016e-06, -9.5747045634198e-06, -6.222773208719445e-06, 4.016959337604931e-06, 1.3427375051833224e-05, 3.972441390942549e-06, 0.0005925287841819227, 4.434997663338436e-06, -0.00046750385081395507, -3.889950221491745e-06, 2.0164938177913427e-05, -1.6077523468993604e-05, 1.0376907084719278e-05, -1.660396264924202e-05, 0.00024002001737244427, 2.326745743630454e-06, -1.1844859955090214e-06, -6.146043233457021e-06, 1.8014975466940086e-06, 2.8643109999393346e-06, 0.0002347044792259112], [-2.6259516744175926e-05, 3.328963430249132e-05, 4.708737105829641e-05, -4.610039104591124e-05, 9.885833424050361e-05, 5.0362805268378e-06, 6.2202134358813055e-06, -3.4927721571875736e-05, -3.318691233289428e-05, -2.3229115413414547e-06, -1.4310066035250202e-05, -5.726011659135111e-05, 2.7344740374246612e-05, 2.405351187917404e-05, -9.943355507857632e-06, 2.4396771550527774e-05, 3.0093005989328958e-05, 4.5141005102777854e-05, 0.0009295766358263791, -4.40463591075968e-05, 0.0007268015178851783, 1.4095319784246385e-05, 5.504850378201809e-06, -2.526210118958261e-05, 1.608338425285183e-05, -4.798493318958208e-05, -1.0352066965424456e-05, -0.0004542279348243028, -1.5465726391994394e-05, -0.0001255569513887167, 5.709063771064393e-05, 0.0002015087375184521, -9.587690328771714e-06, 1.721945227473043e-05, 1.7143061995739117e-05, -9.662186130299233e-06, -7.51250481698662e-05, -6.270478934311541e-06, 3.1911677069729194e-05, -0.0001580495882080868, -0.0004650321789085865, -0.0002859218220692128, 1.2581966757352347e-07, -1.0228233804809861e-05, -2.8715117878164165e-05, -1.3544459761760663e-05, 4.977369485459349e-07, 2.264826889586402e-06, 1.2911060366604943e-05, 0.0005981006543152034, 1.55008183355676e-05, -0.0006502894684672356, 3.557506033757818e-06, 4.9378191761206836e-05, -1.6251982742687687e-05, 4.232350693200715e-05, -5.6774755648802966e-05, 0.0005040690302848816, 6.691934231639607e-06, -4.583185273077106e-06, -4.140392047702335e-05, 3.3488151984784054e-06, 5.8608238759916276e-06, 0.0002621135499794036], [-0.0002827821299433708, 6.331303302431479e-05, -3.4004944609478116e-05, -0.0010122802341356874, 0.0010183844715356827, 6.291538738878444e-05, 0.00011683572665788233, -0.0002092858194373548, -0.00035802999627776444, 2.124026877936558e-06, -5.7649536756798625e-05, -0.00031656178180128336, 0.00012442133447621018, -0.00015726957644801587, -0.00025631507742218673, 0.0001519160286989063, 0.0008539495174773037, -0.00010601076792227104, 0.007612235844135284, -0.00047397756134159863, 0.007800844963639975, 0.00046562368515878916, 0.00030471011996269226, -0.00010465421655680984, -3.6246183299226686e-06, -0.00021208878024481237, -0.0001348521327599883, -0.0049972510896623135, -6.756022048648447e-05, -0.0008938067476265132, 0.00030855415388941765, 0.002201556460931897, -5.385288750403561e-05, 6.531520921271294e-05, 0.00015770219033584, -7.451092096744105e-05, -0.0006515502464026213, 8.014580816961825e-05, 0.00017830867727752775, -0.0027629330288618803, -0.004908606875687838, -0.00414256239309907, -0.00026238453574478626, 8.999639976536855e-05, -4.4973356125410646e-05, -0.00015615683514624834, 0.00015370191249530762, 0.00011750288831535727, 7.582299440400675e-05, 0.006940861232578754, 8.889168384484947e-05, -0.007035222370177507, -6.146089435787871e-05, 0.0005535308737307787, -0.0001962733658729121, 0.00019639346282929182, -0.00035927537828683853, 0.006751824636012316, 4.648610047297552e-05, -9.952563232218381e-06, 5.2937932196073234e-05, 0.00013833781122229993, 1.2958857951161917e-05, 0.003012242028489709], [-5.301121564116329e-05, 1.3335883522813674e-05, 1.8361473848926835e-05, -0.0001076180997188203, 7.432935672113672e-05, 7.10738095222041e-06, 2.6463301310286624e-06, -1.4835150068392977e-05, -5.155807957635261e-05, -2.5539795387885533e-05, -1.7987154933507554e-05, -3.2141251722350717e-05, 8.016723768378142e-06, -1.5542145774816163e-05, -2.0818948542000726e-05, 1.8657818145584315e-05, 8.455297211185098e-05, -2.334616510779597e-05, 0.0005342354997992516, -3.3154170523630455e-05, 0.0004183403216302395, 4.3034684495069087e-05, -2.190740269725211e-05, -2.3189542844193056e-05, 4.4149078348709736e-07, -1.8308421203983016e-05, 1.6001207541194162e-06, -0.00035482386010698974, -1.5313818948925473e-05, -1.5871914001763798e-05, 3.0132976462482475e-05, 8.209508087020367e-05, -2.6517179776419653e-06, -5.9475689340615645e-05, 9.904843864205759e-06, -8.397995770792477e-06, -2.053849311778322e-05, 1.1884104424098041e-05, 1.7621361621422693e-05, -0.00014214246766641736, -0.00046546122757717967, -0.00017791881691664457, -2.1629317416227423e-05, 6.220561772352085e-07, -8.808916390989907e-06, -3.588085019146092e-05, 1.1603623534028884e-05, 1.0087518603540957e-05, 2.3680975118622882e-06, 0.0003672390594147146, 1.2728052752208896e-05, -0.0003002450685016811, 2.5377366910106502e-05, 2.8664126148214564e-05, -7.922482836875133e-06, 1.3057097930868622e-05, -1.34178726511891e-05, 0.000339690683176741, -1.2117613550799433e-05, -3.091925464104861e-06, -2.778306952677667e-05, -6.737282092217356e-05, 9.274106560042128e-06, 0.0002895523211918771], [-0.0036488063633441925, 0.001828194479458034, 0.001575140398927033, -0.0031705303117632866, 0.009716489352285862, 0.009340737946331501, 0.008029531687498093, -0.003621876472607255, -0.003962127957493067, -0.00037054927088320255, -0.0008082112763077021, -0.01221434772014618, 0.008766047656536102, -0.0005604979814961553, -0.0038310291711241007, 0.002483121119439602, 0.014977789483964443, 0.0007449821569025517, 0.02954828180372715, -0.009150641970336437, 0.024361245334148407, 0.004571956116706133, 0.002115224953740835, -0.0001574334892211482, 0.0002535871462896466, -0.004437433555722237, -0.0037454236298799515, -0.016190629452466965, -0.002968325512483716, -0.024317800998687744, 0.013150149025022984, 0.016697920858860016, -0.0012916740961372852, 0.005992778576910496, -0.00029157730750739574, -0.001572833047248423, -0.004713844042271376, 0.001946576521731913, 0.0023044468834996223, -0.0003168189141433686, -0.013442553579807281, -0.02137731947004795, -0.0023724050261080265, 0.00016434122517239302, -0.0020053735934197903, -0.0018008964834734797, 0.0034374604001641273, 0.0021572764962911606, 0.0014820522628724575, 0.024983420968055725, 0.0011690680403262377, -0.032672200351953506, 0.0021600904874503613, 0.004807210061699152, -0.005903869867324829, 0.0031243935227394104, -0.011426737532019615, 0.029795685783028603, 0.0044360472820699215, -0.0006979175959713757, -0.0019555489998310804, -0.002397920237854123, 0.002079517114907503, 0.0073556541465222836], [-0.00010364745685365051, 2.7517695343703963e-05, 9.043447789736092e-05, -1.217598037328571e-05, 0.0001624487340450287, 4.332671960582957e-05, 6.921137537574396e-05, -0.00012156739830970764, -0.00020251104433555156, -4.529614670900628e-05, -5.698700260836631e-05, -0.0001235880918102339, 0.0001781306491466239, 8.291282574646175e-05, -3.3686341339489445e-05, 6.923745240783319e-05, 0.00017472586478106678, 0.00012596731539815664, 0.0015840765554457903, -0.00010335691331420094, 0.000681644189171493, 5.166753544472158e-05, 1.610198523849249e-05, -6.729450251441449e-05, 4.2104427848244086e-05, -8.380231156479567e-05, -2.8626036510104313e-05, -0.00046899711014702916, -5.882578989258036e-05, -0.0003069780650548637, 0.0001390744437230751, 0.0006387911271303892, -2.338477861485444e-05, 3.7873556721024215e-05, 4.356385034043342e-05, -4.7904366510920227e-05, -0.00020985343144275248, 2.0665092961280607e-05, 7.768826617393643e-05, 0.00017009662406053394, -0.000614795892033726, -0.0003437359118834138, -9.670471627032384e-06, -4.697779877460562e-05, -6.267114076763391e-05, -5.218313162913546e-05, 2.9759376047877595e-05, 9.860587852017488e-06, 4.694890230894089e-05, 0.0008098904509097338, 3.9527996705146506e-05, -0.0005678224260918796, 5.006960054743104e-05, 0.00010027686221292242, -1.126421193475835e-05, 7.071669824654236e-05, -0.000162351832841523, 0.0011355095775797963, 0.0001394532882841304, -1.1440750313340686e-05, -9.268773283110932e-05, -0.00011576399992918596, 4.494266977417283e-05, 0.00016276199312414974], [-0.0007817688165232539, -0.0019448163220658898, -0.002220339607447386, -0.002293381839990616, 0.00530407065525651, 0.007666377816349268, 0.008575908839702606, -0.0012320358073338866, -0.002274105092510581, 0.0022847135551273823, 0.0017681170720607042, -0.008861522190272808, 0.0047193970531225204, -0.0023855529725551605, -0.003995472565293312, 0.0007275594398379326, 0.018637876957654953, -0.0026511545293033123, -0.0005522050196304917, -0.00618137838318944, -0.010449645109474659, 0.005935456603765488, 0.005575928371399641, 0.0019386167405173182, -0.0014056831132620573, 0.000214073559618555, -0.003305957652628422, -0.001993607496842742, -0.0015940152807161212, -0.016385886818170547, 0.009525752626359463, 0.011609071865677834, -0.0002979355922434479, 0.005737572908401489, -0.0014850309817120433, -0.0007518739439547062, -0.0023532104678452015, 0.0042122481390833855, -0.0005827886634506285, 0.005350152496248484, 0.00524946441873908, -0.009985676035284996, -0.00357984472066164, 0.0016586600104346871, 0.0015508790966123343, 0.00018042141164187342, 0.003992108162492514, 0.0028963941149413586, 0.0005611651577055454, 0.016517937183380127, -0.000760583789087832, 0.00424717552959919, 0.0018094636034220457, 0.002985218307003379, -0.006306399591267109, -0.0002794927277136594, -0.007590543478727341, 0.01910831406712532, 0.002088327193632722, -6.670119182672352e-05, 0.0027091207448393106, 0.0016490659909322858, 0.0009929775260388851, 0.001067565055564046], [-4.0774233639240265e-05, 1.1963164070039056e-05, -3.005599410244031e-06, -0.00014029267185833305, 0.0001098264183383435, 8.426633939961903e-06, 1.532829446659889e-05, -9.769648386281915e-06, -7.48135571484454e-05, -2.1092978386150207e-06, -1.0432016097183805e-05, -2.921071973105427e-05, 1.5470021025976166e-05, -3.457552884356119e-05, -4.039040140924044e-05, 2.3021599190542474e-05, 0.00017615863180253655, -2.6319705284549855e-05, 0.0007433138671331108, -5.948821853962727e-05, 0.00083565479144454, 5.276056981529109e-05, 4.8819001676747575e-05, -1.687262010818813e-05, -3.6350757000036538e-06, -2.577096165623516e-05, -1.5565170542686246e-05, -0.0008572966908104718, -1.0426359040138777e-05, -6.912779645062983e-05, 3.1182724342215806e-05, 0.0001485357788624242, -5.95993469687528e-06, -4.940620783600025e-06, 1.738551327434834e-05, -1.051359959092224e-05, -5.523766958503984e-05, 1.7129683328676037e-05, 1.7988284525927156e-05, -0.0003922803734894842, -0.000991042354144156, -0.00034938432509079576, -5.0007631216431037e-05, 1.0629695680108853e-05, -2.8340998596831923e-06, -2.8819076760555618e-05, 2.2765680114389397e-05, 2.3812413928681053e-05, 5.956248969596345e-06, 0.0007751202210783958, 1.1366638318577316e-05, -0.0006714520859532058, -6.840798505436396e-06, 4.76585264550522e-05, -2.217752808064688e-05, 2.907370071625337e-05, -2.996249168063514e-05, 0.0007527788984589279, -2.8248598482605303e-06, -1.97725125872239e-06, 1.875735051726224e-06, 1.7740658222464845e-06, 1.6528115338587668e-06, 0.0005730459815822542], [3.532503342285054e-06, 2.3581631012348225e-06, -5.2427774789975956e-05, -7.501710206270218e-05, 6.851015496067703e-05, -4.917661499348469e-06, 2.6943351258523762e-05, -1.1484906281111762e-05, 1.1224778972973581e-05, 1.9293382138130255e-05, 4.594040547090117e-06, -1.294016601605108e-05, -8.203750439861324e-06, -3.7870842788834125e-05, -2.2260672267293558e-05, 3.2913203540374525e-06, 0.00010284365271218121, -7.54258144297637e-05, 0.0010689178016036749, -1.817238808143884e-05, 0.0011255181161686778, 4.850179175264202e-05, 5.40535147592891e-05, -1.5155431356106419e-05, 