{"hyperparams": {}, "state_dict": {"lstm.weight_ih_l0": [[0.03358110412955284, -0.023213479667901993, -0.0551920048892498, -0.015803614631295204, 0.08702310919761658, -0.04572542756795883, -0.0041392045095562935, -0.026356734335422516, -0.04534975066781044, 0.04666495323181152, -0.016348905861377716], [-0.08946525305509567, 0.07099302113056183, 0.03214043378829956, -0.010390899144113064, 0.03349272906780243, 0.046714331954717636, 0.06233348324894905, 0.03853166103363037, -0.07432424277067184, -0.027265353128314018, 0.008061347529292107], [0.043859731405973434, -0.0421098917722702, -0.03473333641886711, -0.04651188477873802, 0.06673634052276611, 0.02350025065243244, -0.04108120873570442, 0.012157688848674297, 0.07564008235931396, 0.07701440900564194, 0.07571627199649811], [0.06653998047113419, -0.011356511153280735, -0.07083654403686523, 0.009833833202719688, -0.060163140296936035, 0.02817453257739544, 0.08339465409517288, 0.0763847604393959, 0.052028704434633255, 0.048300981521606445, 0.00858928170055151], [-0.059712305665016174, 0.060268715023994446, 0.05577940493822098, 0.08776640146970749, -0.057272765785455704, -0.005752348341047764, -0.0345093198120594, -0.057416435331106186, 0.062069784849882126, 0.027537312358617783, -0.04466647654771805], [0.002069457434117794, 0.05517467111349106, 0.062313977628946304, 0.06548546254634857, -0.02212906815111637, 0.07428629696369171, -0.08623159676790237, 0.07908859848976135, -0.014050383120775223, -0.00017759730690158904, -0.05276156961917877], [0.07561054825782776, -0.06819025427103043, 0.012109174393117428, -0.11099188029766083, 0.09750395268201828, 0.04173265025019646, 0.027539538219571114, 0.01983923837542534, 0.10187608748674393, -0.016255659982562065, 0.03948909789323807], [0.107441246509552, -0.08812674134969711, -0.06161634996533394, 0.08526398241519928, -0.02884523756802082, -0.05923556536436081, 0.06289931386709213, -0.07930473238229752, 0.05159658566117287, -0.03581603616476059, -0.0495404489338398], [-0.058360155671834946, 0.03836388140916824, 0.030384061858057976, -0.05811786279082298, -0.057345665991306305, 0.03371168300509453, -0.012964569963514805, -0.07227454334497452, 0.017211055383086205, -0.053651586174964905, -0.03554639220237732], [0.07121814787387848, -0.027247564867138863, 0.014710140414536, 0.02163863182067871, 0.0864856168627739, -0.008080024272203445, 0.007411842700093985, 0.004749341867864132, 0.07785673439502716, -0.0990324467420578, 0.05433216318488121], [0.02497643604874611, 0.09945439547300339, -0.0066043296828866005, 0.024844542145729065, -0.07485421001911163, -0.01312107965350151, 0.02087055891752243, -0.029760489240288734, -0.04082508012652397, -0.02111160196363926, -0.03136667236685753], [-0.09934311360120773, -0.0034828479401767254, -0.09402691572904587, -0.06769294291734695, 0.094661645591259, -0.08844872564077377, 0.01026021409779787, 0.019495876505970955, -0.04047572240233421, 0.07767648994922638, 0.02395240217447281], [-0.029739100486040115, -0.03859791159629822, 0.07060979306697845, -0.04119257256388664, -0.0983683243393898, -0.09361980855464935, 0.10098083317279816, -0.08090309053659439, -0.05346434935927391, -0.10144317895174026, -0.03979162499308586], [-0.06866462528705597, 0.04759031906723976, -0.057953424751758575, -0.01114597450941801, -0.0503900870680809, 0.004097344353795052, 0.10327618569135666, 0.034579403698444366, 0.07664435356855392, -0.02907611057162285, -0.09359495341777802], [-0.04523664712905884, -0.06432682275772095, -0.010527852922677994, 0.002975555369630456, 0.07281354814767838, 0.02259090170264244, -0.09792418032884598, 0.06404447555541992, -0.06815265119075775, -0.04978740215301514, 0.02811158075928688], [0.05296606197953224, 0.10042848438024521, -0.08228059858083725, -0.04339774698019028, -0.08021049201488495, -0.06735920161008835, -0.04021424800157547, 0.0455680713057518, 0.05002756044268608, 0.08777657151222229, -0.03101971372961998], [0.06743510812520981, -0.03440449759364128, 0.07285274565219879, -0.047674696892499924, 0.0009648408158682287, 0.08144865185022354, 0.05095599219202995, -0.03592599555850029, 0.06666989624500275, 0.07059367746114731, -0.04290301725268364], [0.06819869577884674, 0.015688104555010796, -0.01965050771832466, -0.016464270651340485, -0.004349368158727884, -0.07793523371219635, -0.03438498452305794, 0.07365798205137253, -0.016019420698285103, -0.0038027886766940355, -0.03268188610672951], [-0.044810567051172256, 0.0029461560770869255, 0.0513477623462677, 0.06399539113044739, 0.06789439171552658, 0.04115740582346916, 0.03181341663002968, -0.006354243960231543, 0.06615916639566422, 0.0014428280992433429, 0.07223935425281525], [0.04467669874429703, -0.09709575027227402, -0.10297896713018417, -0.0014109419425949454, 0.019647158682346344, 0.05419117212295532, 0.08729325234889984, 0.0021523721516132355, 0.04324726760387421, 0.0757826492190361, -0.08416842669248581], [0.06205970048904419, -0.04818745702505112, -0.06160392239689827, -0.09470608830451965, 0.084951251745224, -0.05532308667898178, -0.02792799100279808, 0.02135259099304676, 0.06189332529902458, -0.08339852839708328, 0.04328775405883789], [-0.03898721933364868, -0.030881179496645927, -0.02252328209578991, -0.08069217205047607, -0.025313658639788628, 0.04000639170408249, -0.0007163966074585915, 0.018111471086740494, -0.05944358557462692, 0.10099973529577255, -0.08177103847265244], [0.03366510197520256, -0.06957314163446426, -0.06126272678375244, -0.06545399129390717, 0.09204055368900299, -0.01742733269929886, 0.040130648761987686, 0.029839016497135162, 0.022477027028799057, 0.031532034277915955, 0.0233351681381464], [-0.013258252292871475, 0.014547946862876415, 0.024143118411302567, -0.01605340465903282, -0.04564709588885307, -0.08531808108091354, 0.0693071261048317, -0.0413442887365818, -0.03480798378586769, 0.034727439284324646, -0.03477953374385834], [0.07755543291568756, -0.0756383091211319, -0.006565130315721035, -0.08928238600492477, -0.09152169525623322, 0.04085218906402588, 0.049347322434186935, 0.019409092143177986, 0.019304925575852394, -0.06614268571138382, 0.07780386507511139], [0.06270678341388702, -0.006052838638424873, -0.11360630393028259, -0.0565401166677475, -0.13881830871105194, 0.05683878809213638, 0.07704813033342361, 0.07817495614290237, -0.08040980994701385, 0.07168915122747421, 0.012966455891728401], [-0.003285808488726616, 0.06855379045009613, -0.10649015009403229, -0.07411868870258331, -0.07708264142274857, 0.09118471294641495, 0.02025770954787731, 0.015009045600891113, 0.042391370981931686, -0.04113306105136871, -0.0005283934879116714], [-0.004328712355345488, 0.06554634124040604, -0.0007595842471346259, 0.06958777457475662, -0.09838903695344925, -0.0001066366457962431, 0.055467378348112106, 0.014571631327271461, 0.05795345455408096, 0.042905885726213455, -0.07376420497894287], [0.003773905336856842, -0.09665433317422867, -0.0013102121884003282, 0.06726031005382538, 0.11444875597953796, 0.08835605531930923, -0.004831444006413221, 0.01174651924520731, -0.053581543266773224, -0.011432635597884655, 0.04525825381278992], [-0.03609248250722885, 0.010549323633313179, -0.030355772003531456, -0.03476472198963165, 0.10015270859003067, -0.09872329980134964, -0.08262056112289429, -0.03659026697278023, -0.06721234321594238, 0.035785458981990814, -0.06972881406545639], [0.004719687160104513, 0.017962481826543808, 0.02961871214210987, -0.03289811313152313, 0.013420000672340393, 0.07874105125665665, 0.0011700323084369302, -0.007638965267688036, -0.008539816364645958, -0.033883389085531235, -0.07246828079223633], [0.042831115424633026, -0.08072668313980103, -0.014404295943677425, -0.016951512545347214, 0.005139132961630821, 0.08426869660615921, 0.08494105935096741, 0.043539248406887054, 0.045621007680892944, 0.10905978828668594, 0.08899037539958954], [0.0844951793551445, -0.075252003967762, -0.05443163588643074, -0.00784822553396225, -0.022644417360424995, -0.05425861477851868, 0.012889344245195389, 0.02004391886293888, -0.042416762560606, -0.011086917482316494, -0.060088835656642914], [-0.11472859233617783, 0.042837630957365036, 0.06985140591859818, -0.08251196891069412, -0.06501903384923935, -0.07365100830793381, 0.03542383387684822, 0.07190536707639694, 0.07949740439653397, 0.011191993951797485, -0.06295529752969742], [-0.08528941124677658, 0.0401214137673378, 0.095367431640625, -0.05052471160888672, 0.06794682890176773, -0.04539606720209122, -0.02332901582121849, 0.042849812656641006, -0.08308728039264679, -0.05608326941728592, -0.04567098617553711], [-0.007493976503610611, -0.080140121281147, -0.06384403258562088, 0.05090930685400963, 0.048923593014478683, 0.059626828879117966, -0.07356151938438416, -0.07634001970291138, -0.08704683184623718, -0.03310934826731682, 0.05933345854282379], [-0.12743908166885376, 0.06828880310058594, 0.03204197809100151, 0.035358987748622894, -0.14235851168632507, 0.09683329612016678, -0.11139679700136185, -0.049758926033973694, -0.039762817323207855, -0.09184617549180984, 0.010211823508143425], [0.04319297894835472, -0.004826173651963472, 0.007856783457100391, 0.03195001184940338, -0.010741019621491432, 0.002050598617643118, 0.01748468540608883, -0.09620224684476852, -0.07300463318824768, 0.08004866540431976, 0.07556869089603424], [-0.08597004413604736, -0.012098651379346848, 0.07123501598834991, 0.07240862399339676, -0.02269294299185276, -0.04760315269231796, 0.0974297821521759, 0.08539091050624847, -0.07716285437345505, 0.03163507953286171, 0.05156129598617554], [0.04627588391304016, 0.03541195020079613, -0.05480751767754555, -0.0015376099618151784, -0.057686325162649155, 0.017629003152251244, 0.05589377507567406, -0.03775007277727127, -0.029519028961658478, -0.07803083956241608, 0.025992223992943764], [-0.04097065329551697, -0.08184009790420532, 0.07698336988687515, -0.09140903502702713, 0.06582015752792358, 0.008545136079192162, 0.036855634301900864, -0.07536265254020691, -0.10754290968179703, 0.05772985890507698, -0.09693428874015808], [-0.06922714412212372, -0.032847825437784195, 0.0921102911233902, -0.09111334383487701, 0.046902019530534744, -0.06075122952461243, 0.01802406646311283, -0.0101800337433815, -0.020133836194872856, -0.041503362357616425, 0.085151806473732], [-0.03568856790661812, 0.044039055705070496, -0.03505123779177666, 0.0012347339652478695, -0.1056492030620575, 0.02341945841908455, -0.011348620988428593, -0.004636987578123808, 0.043745193630456924, -0.049822013825178146, 0.06919915974140167], [0.09963712841272354, 0.04659242555499077, 0.020944977179169655, -0.09075801074504852, 0.08428862690925598, 0.05163531377911568, -0.0557175911962986, 0.0684550330042839, -0.01673392578959465, -0.08063679188489914, -0.013376221060752869], [-0.09879618883132935, 0.05740207061171532, -0.09216663241386414, -0.007469172589480877, -0.03947572782635689, 0.0935630276799202, 0.041576799005270004, 0.11584815382957458, -0.03678090497851372, -0.08072006702423096, -0.03195502609014511], [0.1091291755437851, 0.024813422933220863, -0.06173473224043846, 0.05969936400651932, 0.053547024726867676, -0.017582254484295845, 0.07249528914690018, 0.05318237468600273, 0.02288452535867691, 0.01616535149514675, 0.1026233360171318], [-0.07596009969711304, 0.03170628845691681, 0.10158755630254745, 0.11573648452758789, 0.03357534483075142, 0.01634664461016655, -0.10608651489019394, 0.09721030294895172, 0.10567936301231384, -0.10420563817024231, 0.10189023613929749], [0.022848069667816162, 0.03934333100914955, 0.004781707189977169, 0.07115179300308228, -0.09460936486721039, 0.008493723347783089, -0.004647580906748772, -0.0063173286616802216, 0.05632545426487923, 0.008173657581210136, -0.03952626883983612], [-0.03910829499363899, 0.02857426181435585, -0.019073177129030228, 0.04903622716665268, 0.09534306079149246, -0.04300791397690773, -0.008417103439569473, 0.04520585015416145, 0.030162137001752853, -0.051139626652002335, 0.015021366067230701], [0.04888203740119934, 0.02388826571404934, -0.06941341608762741, 0.035706255584955215, 0.07610278576612473, 0.08281779289245605, 0.06895121932029724, -0.0005332080763764679, 0.10439502447843552, 0.05445859953761101, -0.007985444739460945], [0.04121420904994011, 0.08319789171218872, 0.09066913276910782, -0.028656648471951485, -0.023631615564227104, -0.043769314885139465, 0.027437744662165642, 0.028069550171494484, 0.02804413251578808, 0.07331953197717667, 0.041228532791137695], [0.06259806454181671, 0.05161149799823761, 0.044166602194309235, -0.05275239050388336, -0.11787702143192291, 0.04170795902609825, -0.07864392548799515, 0.03735116124153137, -0.08649034798145294, 0.03411271050572395, -0.019821487367153168], [0.06630345433950424, 0.014419724233448505, -0.03956949710845947, -0.058601707220077515, 0.005266150459647179, -0.06682461500167847, 0.030466493219137192, -0.033423054963350296, 0.07258298993110657, -0.012812468223273754, -0.01625845953822136], [0.043138276785612106, -0.03590821474790573, -0.1006350964307785, -0.09203527122735977, 0.08302442729473114, 0.0233687162399292, 0.0884968489408493, -0.07935309410095215, 0.057558026164770126, -0.07720858603715897, 0.013078399933874607], [-0.009217610582709312, 0.07221062481403351, 0.0918431282043457, 0.06655388325452805, -0.07497943192720413, 0.023451080545783043, 0.05084982514381409, -0.09010478854179382, 0.02783900499343872, -0.037380777299404144, -0.08893463760614395], [-0.04327172785997391, -0.07276460528373718, 0.08641348034143448, 0.04831661656498909, 0.021203653886914253, -0.0016156380297616124, 0.07708393037319183, -0.030634762719273567, -0.03893956169486046, -0.021244831383228302, -0.001539131160825491], [-0.11129454523324966, 0.08197266608476639, -0.12051869183778763, 0.013622581027448177, -0.029828747734427452, -0.02791360206902027, 0.1231132373213768, -0.027469895780086517, 0.1271415650844574, 0.10220185667276382, 0.04110201075673103], [-0.06620136648416519, -0.026541341096162796, -0.05052119120955467, -0.06806004047393799, 0.06333422660827637, -0.05824440345168114, -0.05595149099826813, 0.06138718128204346, 0.035043999552726746, 0.07249752432107925, -0.06062912940979004], [-0.00039908342296257615, -0.05251999944448471, -0.051908012479543686, 0.0019271947676315904, 0.01078128069639206, -0.07388801127672195, -0.0004031412536278367, -0.10313861072063446, -0.06565927714109421, 0.06385454535484314, -0.08513005077838898], [0.002685808576643467, 0.08474957197904587, 0.10617133229970932, -0.03048955462872982, -0.1261305809020996, 0.04378669336438179, -0.05811746418476105, 0.0846625566482544, -0.056275807321071625, 0.02185172587633133, -0.01136112306267023], [0.006988148204982281, -0.008532139472663403, 0.045597806572914124, -0.053481947630643845, -0.04306711629033089, 0.0269673652946949, -0.03239216282963753, -0.016760246828198433, 0.014454003423452377, -0.04810955747961998, -0.024663567543029785], [0.03205563500523567, -0.048364296555519104, 0.03960864618420601, -0.11078052967786789, -0.06166251748800278, -0.04168415069580078, -0.03917039930820465, -0.06413370370864868, -0.06613647192716599, 0.04621565341949463, 0.07510025054216385], [-0.09557697176933289, -0.05221100524067879, -0.014454713091254234, -0.06722365319728851, 0.0707269236445427, -0.0923602432012558, -0.09422563761472702, 0.00537252938374877, -0.0682520940899849, 0.08000387251377106, 0.061731211841106415], [-0.1043490543961525, 0.07299485057592392, 0.005506413523107767, -0.06206328421831131, 0.024896347895264626, -0.01377441268414259, -0.04778170585632324, 0.06367723643779755, 0.018949085846543312, 0.07229502499103546, -0.0553840771317482], [0.021645154803991318, 0.003036719746887684, 0.11047464609146118, -0.004255238920450211, -0.04255765676498413, 0.0573749803006649, 0.07295352220535278, -0.06913872808218002, -0.022263022139668465, -0.05983133614063263, -0.090565025806427], [-0.10717228800058365, 0.00148420175537467, -0.10403141379356384, 0.08055137097835541, 0.0979558527469635, -0.015510269440710545, -0.006504063960164785, 0.06666383892297745, 0.06270978599786758, -0.009992520324885845, -0.0325583778321743], [-0.02676694095134735, 0.0515759140253067, 0.07484010607004166, -0.08268684148788452, 0.09706045687198639, 0.07507248967885971, -0.04216780886054039, -0.024338098242878914, 0.023920295760035515, 0.030723407864570618, 0.06257069855928421], [-0.11808329075574875, 0.0767333135008812, 0.04140283539891243, -0.05900624766945839, -0.05039938539266586, 0.006471704225987196, 0.05440376698970795, 0.011632776819169521, 0.052862003445625305, 0.05011720582842827, 0.005201256833970547], [0.07672139257192612, -0.03179677948355675, -0.04050859436392784, -0.018522538244724274, 0.07337822765111923, -0.007584338542073965, 0.02150646038353443, 0.04506578668951988, 0.057299960404634476, 0.05968480929732323, -0.03290245682001114], [0.09835252910852432, 0.040203243494033813, -0.08472402393817902, -0.08722782135009766, -0.024428846314549446, -0.05948467180132866, -0.010340185835957527, 0.01570691354572773, -0.048974763602018356, -0.06286128610372543, -0.06952919811010361], [-0.10364259034395218, -0.0800020843744278, 0.08346787095069885, -0.04230448976159096, 0.04876689240336418, -0.019711123779416084, 0.08977911621332169, 0.030893610790371895, 0.10476399213075638, -0.058968257158994675, 0.021672531962394714], [0.007443384733051062, 0.06040892004966736, -0.10236658900976181, 0.054093413054943085, 0.09965876489877701, -0.04561632126569748, 0.026573456823825836, 0.10233679413795471, -0.06675892323255539, 0.0077828457579016685, -0.042417820543050766], [0.03317811340093613, -0.015662886202335358, -0.03394124284386635, 0.012365562841296196, 0.015187961980700493, -0.04833623766899109, -0.04764211177825928, -0.06623034179210663, -0.057730622589588165, 0.02876387909054756, -0.03314296156167984], [0.029892969876527786, 0.017730146646499634, 0.026375509798526764, 0.09111027419567108, -0.037075646221637726, 0.06616197526454926, -0.01742895320057869, 0.002937700366601348, -0.04279041290283203, 0.017148112878203392, -0.0668754056096077], [0.08426854014396667, 0.024225063621997833, -0.08470991998910904, -0.05204176530241966, -0.09478243440389633, 0.017435243353247643, -0.03950272500514984, -0.02315332740545273, 0.01861090026795864, 0.03930290415883064, -0.0660254955291748], [-0.037872664630413055, 0.032827865332365036, -0.11198779195547104, -0.09942442178726196, 0.057176388800144196, -0.09144005179405212, -0.09743505716323853, -0.09572887420654297, -0.02030940353870392, -0.047117505222558975, -0.1048971638083458], [0.056755006313323975, -0.07038475573062897, -0.0703406110405922, 0.057813610881567, -0.07475335150957108, 0.10275096446275711, 0.07014977931976318, 0.10305072367191315, -0.0005286920350044966, -0.11107423156499863, 0.024276670068502426], [0.06438374519348145, 0.012651571072638035, -0.07561343908309937, 0.00854125339537859, 0.09505776315927505, -0.028156215324997902, 0.08096334338188171, 0.07777557522058487, 0.08855791389942169, 0.053822487592697144, 0.03367583826184273], [-0.0478215217590332, -0.028305983170866966, -0.09385908395051956, 0.09748439490795135, -0.03924981504678726, -0.06841227412223816, -0.04625631496310234, 0.05894021317362785, -0.08204901963472366, -0.08212491124868393, -0.0021179711911827326], [-0.037681590765714645, 0.02902601845562458, 0.048561837524175644, 0.0886685699224472, -0.07843667268753052, -0.064492367208004, -0.05850771814584732, -0.04629146307706833, -0.011033454909920692, -0.06151057034730911, -0.021943749859929085], [0.05999238044023514, -0.0344853475689888, -0.02160360850393772, -0.04733940213918686, -0.05402698367834091, -0.08433056622743607, -0.0345081202685833, -0.09834961593151093, -0.0016206399304792285, -0.05125199630856514, 0.03128381818532944], [-0.03575094789266586, -0.0072107804007828236, -0.02019621431827545, 0.023163318634033203, 0.021943803876638412, 0.07495871186256409, 0.07659843564033508, -0.0033985425252467394, -0.02230445109307766, -0.054426971822977066, 0.002030374715104699], [0.0764460563659668, -0.040867604315280914, 0.009606532752513885, 0.10243520140647888, 0.032284144312143326, -0.002341272309422493, 0.014136727899312973, 0.037052154541015625, -0.0010370772797614336, -0.06367731839418411, -0.032773248851299286], [0.09842966496944427, 0.011647085659205914, 0.08378246426582336, 0.028494689613580704, -0.024310177192091942, -0.018101874738931656, -0.011924454011023045, 0.010525930672883987, 0.006625524256378412, -0.03650091215968132, -0.030547477304935455], [-0.05292728170752525, -0.02574888803064823, -0.08861401677131653, -0.06254074722528458, -0.0007058846531435847, 0.04985184967517853, -0.07076453417539597, -0.033212922513484955, 0.00629907101392746, -0.00012220669304952025, -0.04707041010260582], [0.09746568650007248, -0.00563850998878479, -0.042353011667728424, -0.05359156057238579, 0.08152952790260315, 0.01033453643321991, 0.0440966933965683, 0.07002779841423035, 0.10259952396154404, 0.09450565278530121, 0.07186917215585709], [-0.04205238074064255, 0.02283591218292713, -0.06345801055431366, 0.00881260633468628, 0.05846455320715904, -0.01262856088578701, -0.06271257251501083, -0.051356326788663864, -0.056310102343559265, -0.04676348343491554, 0.010609999299049377], [0.012758316472172737, -0.024803968146443367, 0.0011486015282571316, 0.004578694235533476, -0.0013281271094456315, -0.061854925006628036, -0.07239034026861191, -0.051995426416397095, -0.07506511360406876, -0.004236253444105387, -0.019717473536729813], [0.10369618982076645, 0.057527851313352585, 0.05591469258069992, -0.010003128089010715, -0.11714641004800797, 0.0460539385676384, -0.07359432429075241, 0.032492298632860184, -0.09617684781551361, -0.044579725712537766, 0.07087840884923935], [-0.02394752763211727, 0.056948620826005936, 0.03199497610330582, -0.0864340141415596, -0.08521253615617752, -0.06784039735794067, -0.10578421503305435, 0.08999825268983841, 0.08192168176174164, -0.08685141056776047, 0.0410759262740612], [0.04483656585216522, -0.045222822576761246, -0.07056674361228943, 0.0903119221329689, -0.015319480560719967, -0.029781725257635117, 0.013376505114138126, 0.024708693847060204, -0.08704154193401337, -0.016486534848809242, 0.07530085742473602], [-0.06728734821081161, 0.03866998106241226, 0.015017161145806313, 0.09683915972709656, 0.0017664857441559434, 0.010765776969492435, -0.035597845911979675, -0.008500165306031704, 0.06936857849359512, 0.08084030449390411, -0.01275648269802332], [-0.06956053525209427, -0.0015345209976658225, -0.08019659668207169, -0.020352330058813095, -0.09216280281543732, 0.006256855558604002, 0.06203559413552284, -0.05026631057262421, -0.03283814713358879, -0.0576249435544014, -0.044231075793504715], [-0.09398651868104935, 0.06734180450439453, 0.0007169655873440206, -0.060452885925769806, 0.040151290595531464, -0.08094716817140579, -0.025048570707440376, -0.014437716454267502, -0.000157242247951217, -0.041373368352651596, 0.014079885557293892], [-0.04196414351463318, -0.004687282256782055, -0.0698048323392868, 0.04183598607778549, -0.008111713454127312, 0.0023228535428643227, 0.02234395407140255, -0.044794630259275436, -4.373668707557954e-05, 0.009905897080898285, -0.0465892069041729], [-0.06371764093637466, -0.047410909086465836, 0.007018854841589928, -0.050954386591911316, -0.012344833463430405, 0.09445607662200928, 0.053593710064888, -0.07623313367366791, 0.032361630350351334, -0.011941257864236832, 0.01842125505208969], [0.047171059995889664, 0.033119380474090576, 0.03970523178577423, 0.02463613823056221, 0.043747320771217346, 0.011083784513175488, 0.07613278925418854, 0.09026838839054108, -0.00798884592950344, 0.07314298301935196, 0.026620963588356972], [-0.07356433570384979, -0.007957007735967636, 0.005629537161439657, 0.08004046231508255, 0.0489480160176754, 0.10162106901407242, -0.028984980657696724, 0.007581684272736311, 0.007496594917029142, 0.060020871460437775, 0.06079123541712761], [-0.05516974255442619, 0.04727214202284813, 0.012674585916101933, -0.10546514391899109, -0.03490079939365387, 0.025343479588627815, -0.0026961953844875097, -0.024407902732491493, -0.05202629789710045, -0.012137819081544876, 0.027782611548900604], [0.054379116743803024, -0.05339335650205612, -0.01639552228152752, -0.04738525301218033, -0.02357662469148636, -0.034768763929605484, 0.04217243194580078, 0.028528643772006035, 0.009210260584950447, 0.013331347145140171, 0.03632282465696335], [-0.02638329565525055, -0.020977867767214775, 0.09260542690753937, -0.03290698677301407, -0.08908318728208542, 0.08484340459108353, -0.09140980988740921, 0.0734575018286705, 0.029296813532710075, -0.06942909955978394, -0.020899435505270958], [0.07941552996635437, -0.07591074705123901, -0.08179114013910294, -0.09909496456384659, 0.033493779599666595, -0.03691422566771507, 0.022308865562081337, 0.07089582085609436, -0.05272582918405533, 0.0405421182513237, -0.009091364219784737], [0.09738708287477493, 0.05865361541509628, -0.035235386341810226, 0.02011273056268692, -0.07259774953126907, 0.049717292189598083, 0.0608539953827858, 0.0295004453510046, 0.012197960168123245, -0.023254575207829475, -0.09958793222904205], [-0.011365347541868687, -0.0024049808271229267, -0.024617113173007965, 0.008914169855415821, -0.03399260714650154, -0.007051545195281506, -0.030884327366948128, 0.07891936600208282, -0.04393330216407776, 0.009705189615488052, 0.028662730008363724], [0.045365165919065475, 0.0680045410990715, -0.09128626435995102, 0.07790276408195496, 0.03356966748833656, 0.08144530653953552, 0.033951640129089355, -0.00879460945725441, 0.07238118350505829, -0.0684458315372467, -0.007958199828863144], [-0.038684502243995667, -0.05672822520136833, 0.027371276170015335, -0.04106742888689041, 0.005379351321607828, 0.016368165612220764, -0.048250727355480194, 0.04549017921090126, 0.061114657670259476, -0.0667000487446785, -0.08430255204439163], [0.06760493665933609, 0.009708181023597717, 0.042278192937374115, -0.059065092355012894, -0.031752459704875946, 0.013335373252630234, -0.03743584081530571, -0.018150130286812782, 0.013150369748473167, 0.03595596179366112, -0.05317161604762077], [-0.06688592582941055, 0.007917208597064018, 0.021411655470728874, 0.007420216221362352, 0.03521823137998581, 0.056714218109846115, 0.03459768742322922, 0.03431079536676407, -0.069343701004982, -0.012351475656032562, 0.06363769620656967], [-0.005869223270565271, 0.011480569839477539, -0.09479459375143051, 0.1012488603591919, 0.07667224854230881, 0.06082416698336601, 0.09550246596336365, 0.008430181071162224, 0.021982824429869652, 0.028646662831306458, -0.06160196289420128], [-0.005120875313878059, -0.029562678188085556, 0.11482052505016327, 0.08407001942396164, -0.020737020298838615, 0.06420780718326569, -0.0928957462310791, 0.006645312998443842, 0.11431471258401871, -0.09829168021678925, 0.0880337506532669], [-0.0003508490917738527, -0.052658479660749435, -0.0036038337275385857, -0.09936893731355667, -0.09701969474554062, 0.01828796975314617, 0.026503246277570724, 0.04202043265104294, -0.06970041245222092, 0.025687219575047493, 0.03938392922282219], [-0.02612701989710331, 0.00017551498604007065, 0.08160562068223953, -0.0038968201261013746, -0.022787468507885933, 0.02594386413693428, 0.028989972546696663, 0.025089429691433907, 0.05590374767780304, 0.06784653663635254, -0.01684410683810711], [-0.04804615676403046, -0.01408764161169529, 0.036226484924554825, 0.022873960435390472, 0.07526641339063644, 0.02937927283346653, -0.09540016204118729, 0.013178828172385693, 0.014619344845414162, -0.047321584075689316, -0.03265315666794777], [0.05769791081547737, 0.0037898884620517492, -0.02434765361249447, 0.05943875387310982, -0.06808383017778397, -0.030972303822636604, 0.04462939500808716, -0.026714719831943512, -0.034624237567186356, 0.065523661673069, 0.03841903805732727], [0.002004616893827915, -0.1146218553185463, -0.1179807111620903, 0.08589565008878708, -0.05457409843802452, -0.04199866205453873, -0.11897429823875427, -0.012839398346841335, 0.07582435011863708, 0.015354270115494728, -0.01217273436486721], [0.07784933596849442, 0.02093159221112728, 0.013831385411322117, 0.012464539147913456, -0.0574670173227787, -0.043660927563905716, -0.09087568521499634, -0.011348649859428406, 0.01185901090502739, 3.4252589102834463e-06, 0.06251569092273712], [-0.01853295974433422, -0.10585492849349976, -0.05183172971010208, -0.02026720531284809, -0.06830337643623352, 0.07548204064369202, -0.08242339640855789, 0.030856991186738014, 0.06311026215553284, 0.06046180799603462, 0.09526902437210083], [0.04598356410861015, 0.05506846681237221, -0.018214324489235878, 0.08768601715564728, -0.10708165913820267, 0.05560186132788658, 0.09128409624099731, -0.10998076945543289, -0.08745180070400238, 0.10603991150856018, 0.008019283413887024], [0.059919796884059906, -0.021754926070570946, -0.07904572784900665, 0.08309036493301392, 0.09653396904468536, 0.013991556130349636, -0.10519877821207047, -0.10919753462076187, 0.061079684644937515, 0.08266229927539825, 0.04910256713628769], [0.02639790065586567, 0.07393579930067062, -0.08474958688020706, -0.03724953904747963, 0.0419125035405159, -0.009585765190422535, -0.00138532230630517, -0.11191027611494064, 0.06186671182513237, 0.09060566872358322, -0.12037775665521622], [0.05289611965417862, -0.03468003869056702, 0.039289508014917374, 0.04585612565279007, 0.0036306316033005714, 0.07603900134563446, -0.0400419682264328, 0.010729105211794376, -0.05317554250359535, -0.010172279551625252, 0.005666892509907484], [0.03462260589003563, -0.022288426756858826, 0.05368313193321228, -0.04421716183423996, -0.06257975846529007, -0.03518952429294586, 0.024684982374310493, -0.043435849249362946, -0.09200454503297806, 0.08791163563728333, 0.0031267397571355104], [0.04251233860850334, 0.007074633613228798, 0.03103826940059662, 0.06256916373968124, 0.06310431659221649, -0.021458003669977188, -0.04357605427503586, 0.04768603295087814, 0.045824311673641205, 0.04904724657535553, -0.00848470814526081], [-0.0960952639579773, -0.08848903328180313, -0.06156045198440552, 0.038231734186410904, 0.000520828296430409, -0.11216454952955246, -0.11613957583904266, 0.0895373523235321, 0.05301330238580704, 0.02850865200161934, -0.017459005117416382], [-0.026402687653899193, 0.006595845799893141, -0.06132949888706207, -0.06955230981111526, -0.020418910309672356, -0.004484867677092552, 0.006340778898447752, 0.0035038688220083714, -0.011904786340892315, -0.01075738575309515, -0.0058327121660113335], [-0.027422698214650154, -0.04701950028538704, -0.10625360161066055, 0.07885470241308212, -0.10834746807813644, -0.012664703652262688, -0.005481334403157234, 0.06023077666759491, -0.056907642632722855, -0.06451475620269775, -0.05725701153278351], [0.05508808419108391, 0.04633907228708267, -0.11087444424629211, 0.07768866419792175, -0.02273147739470005, -0.050112657248973846, -0.042856816202402115, 0.07810591161251068, 0.06819485127925873, 0.06769471615552902, -0.056757137179374695], [-0.026179639622569084, -0.014908217824995518, 0.10996979475021362, 0.037041570991277695, 0.09219920635223389, -0.02632005140185356, -0.011467186734080315, -0.04691559821367264, 0.02013574168086052, 0.10185390710830688, -0.07523076981306076], [-0.12472295016050339, -0.028923319652676582, 0.027867065742611885, 0.07659527659416199, 0.045320793986320496, 0.09705086052417755, 0.06043817847967148, -0.10232914239168167, -0.0918913409113884, 0.06493055820465088, -0.01797599159181118], [-0.08287867903709412, 0.0685647502541542, 0.08176223188638687, -0.051670610904693604, -0.04295209422707558, 0.08858276158571243, -0.03242236003279686, -0.011170181445777416, 0.012863288633525372, -0.05903276801109314, -0.05549989268183708], [0.036281101405620575, -0.09606300294399261, 0.01315626036375761, -0.08071202784776688, -0.01704796962440014, -0.028574811294674873, 0.0223777387291193, -0.045204050838947296, 0.013149397447705269, 0.022165341302752495, -0.011952288448810577], [-0.08645757287740707, 0.005270719528198242, -0.06483756750822067, 0.06883721798658371, 0.10118483752012253, -0.045742008835077286, -0.045247528702020645, 0.035502009093761444, -0.05155659839510918, -0.06646590679883957, -0.09938428550958633], [-0.08203895390033722, -0.045468226075172424, -0.00866678636521101, 0.06240170821547508, -0.10131266713142395, -0.0440470390021801, 0.06271768361330032, -0.09250890463590622, 0.11560667306184769, -0.07108424603939056, 0.06004229560494423], [-0.09987378120422363, -0.012665702030062675, -0.11177707463502884, 0.09822123497724533, -0.06422347575426102, -0.08177249133586884, -0.07229368388652802, -0.024165363982319832, 0.10775774717330933, -0.06674189865589142, -0.08586765080690384], [0.12422100454568863, -0.04043513908982277, 0.1272735595703125, -0.09269626438617706, -0.05590835586190224, -0.02777630090713501, -0.08081569522619247, -0.0503021702170372, -0.040536925196647644, -0.08107853680849075, 0.10435206443071365], [-0.04966164007782936, 0.049681082367897034, -0.02414311096072197, -0.10942041128873825, 0.05776050686836243, 0.11012765765190125, -0.08953031152486801, 0.10131267458200455, -0.11867722868919373, -0.07965049892663956, 0.08971678465604782], [0.059130579233169556, -0.04259961098432541, -0.12454564869403839, 0.03150366246700287, -0.003991311881691217, -0.10967155545949936, -0.09857804328203201, 0.019185101613402367, 0.06277361512184143, 0.006911789532750845, -0.09492959082126617], [0.03782634064555168, -0.010180593468248844, -0.011680585332214832, -0.022553524002432823, -0.09967193752527237, -0.04979512467980385, -0.023130999878048897, 0.07060890644788742, 0.07659143209457397, 0.022412016987800598, 0.014058218337595463], [-0.08417956531047821, -0.03954104334115982, 0.02200033888220787, 0.06952530890703201, -0.11258447915315628, -0.04239203408360481, -0.07332474738359451, 0.01630309969186783, 0.10328693687915802, 0.008382943458855152, 0.05071225389838219], [0.10706444829702377, 0.13355308771133423, -0.061360914260149, 0.12424114346504211, -0.08924118429422379, 0.060138724744319916, -0.11599664390087128, 0.07548156380653381, -0.03393583744764328, 0.041356779634952545, 0.009642243385314941], [0.02678031474351883, 0.15171560645103455, 0.06075211241841316, -0.09472066909074783, -0.0630175918340683, -0.04015897586941719, 0.002305583329871297, -0.0581517294049263, -0.06294822692871094, 0.11240212619304657, -0.023640334606170654], [0.09344323724508286, 0.1034911721944809, -0.055730268359184265, -0.06393399834632874, 0.07778282463550568, -0.006343284156173468, -0.01094981748610735, -0.04380033165216446, 0.03928857296705246, -0.07696914672851562, -0.06787434965372086], [0.060052160173654556, -0.0550043098628521, -0.10716155171394348, 0.07395470142364502, -0.07559451460838318, 0.04984300956130028, 0.1080709770321846, -0.09446631371974945, 0.004727342166006565, -0.008027342148125172, 0.013844999484717846], [0.016441844403743744, 0.07095426321029663, 0.12256962060928345, -0.026751715689897537, 0.05195535346865654, 0.06949637085199356, 0.09394589811563492, 0.043113190680742264, -0.011167468503117561, 0.04318680241703987, -0.031348198652267456], [0.03061259165406227, 0.058182962238788605, 0.11028667539358139, -0.08213572204113007, -0.07479511946439743, -0.06868232786655426, -0.0047080074436962605, -0.0487130768597126, -0.027506807819008827, 0.02128525637090206, 0.06943932920694351], [0.09649447351694107, -0.10346612334251404, -0.11704602092504501, -0.0541531965136528, 0.1166037917137146, -0.11135079711675644, -0.06641455739736557, 0.07365285605192184, -0.02242855913937092, 0.10851357132196426, 0.002477968344464898], [0.11984486132860184, 0.012353657744824886, -0.03531965985894203, -0.03707526624202728, 0.14824891090393066, 0.027974877506494522, -0.11957155913114548, 0.06207345053553581, -0.10189971327781677, 0.08324327319860458, 0.06544501334428787], [-0.007540858816355467, 0.03807341307401657, -0.07266315817832947, -0.08193431794643402, 0.06384382396936417, 0.005009626038372517, 0.08314848691225052, -0.11576070636510849, 0.1140209510922432, 0.008704506792128086, 0.044394467025995255], [0.10464818775653839, 0.11029445379972458, 0.09731905162334442, -0.059296127408742905, 0.03879854828119278, -0.05009527504444122, 0.04169939085841179, -0.005630787927657366, -0.05795809254050255, 0.010581538081169128, -0.04490624740719795], [-0.057484306395053864, -0.05208038538694382, -0.09057716280221939, 0.10910648107528687, -0.07760152965784073, 0.012397348880767822, -0.05119679868221283, -0.10394610464572906, -0.09355911612510681, 0.11319106072187424, -0.07316707074642181], [0.11283064633607864, -0.08667534589767456, -0.11237549781799316, -0.07811105996370316, 0.10887138545513153, 0.005098668392747641, -0.056830812245607376, 0.11802709847688675, 0.08229967206716537, -0.11584880203008652, -0.03992524743080139], [0.12251090258359909, 0.03228189796209335, -0.1090397834777832, 0.06410159915685654, -0.09241621196269989, 0.03827669844031334, -0.012441634200513363, 0.014020477421581745, -0.038700953125953674, 0.02712305262684822, 0.08888772875070572], [-0.13207609951496124, -0.09937296062707901, -0.10134939849376678, 0.055291548371315, -0.042234260588884354, -0.0020359361078590155, -0.024999871850013733, -0.06660144031047821, 0.10609038919210434, -0.1055227667093277, -0.0992744192481041], [-0.1100926622748375, -0.010848971083760262, -0.1373102366924286, 0.08585639297962189, -0.04478200525045395, 0.05023544654250145, -0.10441272705793381, 0.1037726104259491, -0.08675429224967957, -0.046708595007658005, -0.010070327669382095], [0.06692943722009659, -0.0488089844584465, -0.08429870009422302, 0.05223307013511658, -0.018909554928541183, -0.05412628874182701, 0.025985566899180412, -0.11016685515642166, 0.11042055487632751, 0.067740298807621, -0.0346672460436821], [0.05472461134195328, -0.008894211612641811, 0.08291549980640411, 0.08401176333427429, 0.12219347804784775, 0.06952442973852158, -0.07460732758045197, 0.0009084442863240838, -0.07914390414953232, -0.0681433454155922, 0.0171698946505785], [0.058416884392499924, -0.07662549614906311, 0.06047388166189194, 0.05249246209859848, -0.06439771503210068, -0.11343859136104584, 0.057185180485248566, -0.02750643715262413, 0.058660052716732025, -0.0712926909327507, 0.11734290421009064], [0.07472246140241623, -0.06461285054683685, -0.13225294649600983, -0.032665055245161057, -0.05226307734847069, -0.10124433040618896, 0.050135623663663864, 0.06393808871507645, 0.05801176652312279, -0.10488525032997131, 0.034092966467142105], [0.07946700602769852, -0.0413874015212059, -0.03259475156664848, -0.018106840550899506, -0.045598555356264114, 0.07815013080835342, 0.0988326445221901, 0.011159083805978298, -0.08134882897138596, 0.032569773495197296, -0.12191510200500488], [0.10481613874435425, 0.049339067190885544, 0.061149243265390396, 0.0006295711500570178, 0.06603740900754929, 0.018831413239240646, 0.05730467289686203, 0.014651518315076828, 0.05843991041183472, 0.06510542333126068, 0.10027402639389038], [-0.03576948121190071, 0.09777714312076569, -0.05369803309440613, 0.1047036200761795, 0.007900127209722996, -0.08860225975513458, 0.0716198980808258, -0.07332265377044678, 0.10178113728761673, -0.004620278719812632, -0.04028144106268883], [0.09185022115707397, 0.05278663709759712, 0.06279768794775009, -0.0005206465139053762, 0.1042693629860878, 0.04378429055213928, -0.0779532715678215, 0.014944979920983315, -0.021346433088183403, -0.07618223875761032, -0.030551394447684288], [0.11684854328632355, -0.020811589434742928, -0.07783229649066925, 0.0736423060297966, 0.047818440943956375, -0.03403191640973091, -0.033554621040821075, 0.11513415724039078, -0.045380931347608566, 0.10046925395727158, -0.03441980481147766], [-0.10956981778144836, -0.048679400235414505, 0.01890402100980282, 0.04270714521408081, 0.051386334002017975, 0.021404899656772614, 0.05996224656701088, -0.04708032310009003, -0.06858084350824356, -0.04503798112273216, -0.0003561665362212807], [0.0377940833568573, 0.0776260495185852, -0.028410466387867928, 0.008057517930865288, 0.06835947930812836, 0.07190103083848953, 0.061673395335674286, 0.1112755537033081, 0.11489656567573547, 0.04116913676261902, -0.08267776668071747], [-0.06039629131555557, 0.03675782307982445, 0.13388146460056305, 0.10298052430152893, 0.02381942793726921, 0.0277792289853096, -0.10873755812644958, 0.09301435202360153, -0.013903500512242317, 0.004731747787445784, 0.07862093299627304], [0.014500676654279232, 0.05841760337352753, 0.02862919680774212, -0.020201213657855988, 0.10623611509799957, -0.03810667619109154, 0.11815449595451355, 0.0028598953504115343, -0.0073830364271998405, 0.012729785405099392, 0.010837388224899769], [-0.009033220820128918, -0.06822021305561066, 0.014221038669347763, -0.0859469398856163, 0.10632288455963135, 0.07274774461984634, -0.07894301414489746, -0.0018440952990204096, 0.10069648176431656, 0.05760568007826805, -0.10192254930734634], [-0.0947735458612442, 0.08356064558029175, -0.0634564533829689, -0.09832682460546494, -0.0376807264983654, 0.0736456885933876, 0.08327402174472809, -0.01685376651585102, 0.06136985123157501, 0.05555626377463341, 0.025545112788677216], [0.0035667652264237404, -0.018729599192738533, -0.11328762024641037, -0.0328730084002018, -0.0983085185289383, -0.03570873662829399, 0.10394372791051865, -0.08091304451227188, -0.05747203901410103, 0.06635256856679916, -0.08822285383939743], [0.0615922287106514, 0.003161659697070718, -0.04449310153722763, -0.125974640250206, -0.10263989120721817, -0.11107378453016281, -0.0501343235373497, 0.06590248644351959, 0.10237262398004532, -0.10785360634326935, 0.07766657322645187], [0.10648465156555176, 0.0652611255645752, -0.08736685663461685, 0.08232353627681732, -0.09689455479383469, -0.03371773660182953, -0.08244775980710983, 0.008008602075278759, -0.07730535417795181, 0.11197192966938019, -0.03564121946692467], [0.061504773795604706, -0.07702166587114334, -0.11151174455881119, -0.06304631382226944, 0.06830412149429321, 0.02770245261490345, -0.006459880154579878, -0.04436182603240013, -0.025084583088755608, 0.1000543087720871, 0.024362659081816673], [-0.10958295315504074, -0.009282105602324009, 0.09348327666521072, -0.013977287337183952, -0.08800746500492096, 0.06392265856266022, -0.08925796300172806, 0.02892824448645115, -0.10460478812456131, -0.05423511937260628, -0.08632304519414902], [0.03456270694732666, 0.1136903241276741, 0.015032002702355385, -0.011848456226289272, -0.09275757521390915, -0.034591905772686005, -0.06122930347919464, -0.059323448687791824, -0.05387033894658089, 0.07335864752531052, -0.08781573921442032], [-0.03373422473669052, -0.06743264943361282, 0.0067511252127587795, -0.06588135659694672, -0.005846471060067415, 0.04787984862923622, 0.014524254947900772, 0.03788135200738907, -0.021030571311712265, 0.016699589788913727, 0.09403618425130844], [0.10198928415775299, -0.02494652010500431, -0.039198607206344604, 0.10460883378982544, -0.11992426961660385, 0.04061860963702202, 0.07142676413059235, -0.036363761872053146, -0.07867258787155151, -0.10838092863559723, -0.11189389228820801], [0.03940374031662941, 0.025572966784238815, -0.020934753119945526, -0.07088452577590942, 0.02219453826546669, -0.010805009864270687, -0.06704965978860855, 0.04117033630609512, -0.10708023607730865, 0.002444481709972024, -0.07378025352954865], [0.07645069807767868, -0.0037502238992601633, -0.06940151751041412, 0.09149393439292908, 0.109400175511837, 0.054161567240953445, -0.005371979437768459, -0.02246670424938202, -0.024065904319286346, 0.007286141626536846, -0.07882079482078552], [-0.10246247798204422, -0.07287006825208664, -0.010963110253214836, -0.01700923591852188, 0.03231695666909218, -0.022805530577898026, 0.14490771293640137, 0.11770396679639816, -0.0700918659567833, -0.07392150163650513, 0.07265883684158325], [0.11974440515041351, -0.07238557189702988, -0.049447495490312576, 0.023549262434244156, -0.03513137251138687, 0.09935309737920761, 0.09529442340135574, -0.056686557829380035, -0.07821623980998993, -0.005325956270098686, 0.09951093792915344], [-0.028492605313658714, 0.11966204643249512, 0.09045431017875671, -0.07150623947381973, 0.10530984401702881, -0.02665032632648945, 0.10804350674152374, 0.06412756443023682, 0.11724063754081726, -0.05704750865697861, -0.021917669102549553], [0.03496410697698593, -0.006026049144566059, -0.04116484150290489, -0.06216476485133171, -0.08333013951778412, 0.10118857026100159, 0.10145190358161926, 0.00829028058797121, 0.014242858625948429, 0.004663893021643162, 0.01925085484981537], [0.02598341554403305, 0.025971222668886185, -0.07694002985954285, 0.11906895786523819, -0.04196249693632126, -0.06848802417516708, 0.00024219063925556839, 0.09814058244228363, 0.1044137105345726, -0.09379540383815765, 0.1282881796360016], [-0.057615481317043304, 0.04633604362607002, -0.05101580172777176, -0.0600401870906353, -0.015111240558326244, 0.09920995682477951, 0.08326171338558197, 0.12663036584854126, 0.11159896850585938, -0.10916770249605179, 0.02819700352847576], [0.051367927342653275, -0.06793597340583801, -0.08522671461105347, -0.05831132084131241, 0.10895499587059021, -0.0880713164806366, 0.06746741384267807, 0.0868065282702446, 0.07482887804508209, -0.06521729379892349, 0.05003729090094566], [0.11961068212985992, -0.049664456397295, -0.07620543986558914, 0.020788269117474556, -0.06162311136722565, -0.04430022090673447, 0.03574339672923088, 0.0479704886674881, 0.0009600049233995378, 0.017449548467993736, 0.058451272547245026], [-0.03354436159133911, -0.1382463574409485, -0.016111740842461586, -0.04943408817052841, -0.07911591231822968, 0.009962508454918861, 0.08269262313842773, 0.04204164445400238, 0.05032546818256378, -0.07487059384584427, -0.0016631489852443337], [-0.08970337361097336, 0.017367161810398102, 0.10523023456335068, -0.05885985493659973, -0.0453035794198513, -0.014530870132148266, 0.099667489528656, -0.057697102427482605, -0.0331595242023468, -0.03883949667215347, 0.037486426532268524], [-0.10652551800012589, 0.028147060424089432, -0.12172768265008926, 0.03125717490911484, -0.1102440282702446, -0.06282372772693634, -0.05103284865617752, -0.08486592769622803, -0.04125542938709259, 0.11858277022838593, 0.061652593314647675], [0.11562170088291168, -0.005170561373233795, -0.006615791004151106, 0.07285548001527786, -0.047265633940696716, -0.01364278793334961, 0.03224100545048714, -0.0678679347038269, 0.1007346659898758, -0.09157409518957138, 0.06418899446725845], [-0.022264545783400536, -0.06546904146671295, -0.03611602261662483, 0.08200635761022568, -0.025261107832193375, 0.08236826956272125, -0.08868110179901123, -0.013691401109099388, 0.08462058007717133, 0.013213980942964554, 0.08030496537685394], [0.021996360272169113, -0.05853261053562164, -0.026847854256629944, -0.03463927283883095, -0.04276623576879501, -0.036694105714559555, -0.06178035959601402, -0.036247871816158295, -0.03656671568751335, -0.05393490940332413, -0.0063813491724431515], [0.09292715787887573, -0.06371038407087326, -0.11469108611345291, -0.08900460600852966, 0.09646712243556976, 0.11122892796993256, 0.02216353453695774, -0.02359033189713955, 0.005659638438373804, 0.032187219709157944, -0.055951330810785294], [0.02384461648762226, -0.06310752034187317, -0.09970928728580475, 0.09165582060813904, -0.10063030570745468, 0.03203039616346359, -0.008724449202418327, 0.07372903823852539, -0.00012565725774038583, -0.010083973407745361, 0.0835198387503624], [-0.0015941171441227198, -0.09358157962560654, 0.048885323107242584, 0.007988529279828072, 0.05475546419620514, 0.07559336721897125, -0.007523717358708382, -0.10791441053152084, 0.09632474184036255, -0.008573723025619984, -0.009066235274076462], [-0.09256167709827423, 0.0038205112796276808, -0.10022459924221039, -0.06080704182386398, 0.06134071946144104, -0.058889370411634445, -0.02807627245783806, 0.01130924466997385, 0.029681313782930374, -0.05373185873031616, -0.01138815563172102], [-0.11433589458465576, -0.007229231297969818, 0.09220991283655167, -0.010057379491627216, 0.021634738892316818, 0.017872106283903122, 0.07398412376642227, 0.03505638986825943, 0.08929304033517838, 0.004282880574464798, 0.06492765992879868], [0.07493559271097183, 0.04060601070523262, -0.09821830689907074, -0.08832129091024399, 0.0845230370759964, 0.03121236339211464, 0.004387761000543833, 0.09562144428491592, 0.03848729655146599, 0.08951354026794434, -0.10203392803668976], [0.047498587518930435, -0.06504940986633301, -0.06446567922830582, 0.02717657759785652, 0.0007395815337076783, 0.05446302890777588, 0.008877074345946312, -0.09840056300163269, -0.034178800880908966, -0.09583902359008789, 0.04636957496404648], [-0.03211890906095505, 0.04023076221346855, 0.06534140557050705, 0.04213623329997063, -0.040698759257793427, 0.03622260317206383, -0.06459615379571915, 0.011053476482629776, -0.0018705693073570728, -0.0001598765520611778, -0.03769528120756149], [0.049824297428131104, 0.058340489864349365, 0.04117473214864731, -0.09312396496534348, 0.09901665151119232, 0.012748745270073414, -0.020141540095210075, 0.011180718429386616, 0.104954294860363, 0.0006724743288941681, 0.042440060526132584], [0.08227664232254028, 0.04099256545305252, -0.052710067480802536, -0.007404620759189129, 0.030120624229311943, 0.021261638030409813, -0.04234134405851364, -0.020142117515206337, -0.002872953424230218, -0.03601878508925438, -0.004171034786850214], [-0.10002665966749191, 0.03695422410964966, 0.07803671807050705, 0.08338814228773117, -0.005065717734396458, 0.060972295701503754, -0.1056201159954071, 0.01302255317568779, 0.010315253399312496, 0.04072462394833565, -0.07573585957288742], [0.03768935054540634, -0.09607481956481934, -0.05271472409367561, 0.03761358931660652, -0.08963565528392792, 0.04336276650428772, 0.0716358944773674, 0.05395186319947243, 0.05855417996644974, -0.008361637592315674, -0.04802737012505531], [0.09150874614715576, 0.047457512468099594, -0.029058333486318588, 0.07920465618371964, -0.014185965061187744, -0.06914488971233368, -0.08959432691335678, -0.03652295470237732, 0.08596914261579514, -0.05144846439361572, 0.017706377431750298], [-0.0685109794139862, 0.05107487365603447, -0.04770372435450554, 0.012704810127615929, 0.076287180185318, -0.04481026530265808, 0.062286678701639175, -0.014335248619318008, 0.04387490451335907, -0.06431396305561066, 0.042488276958465576], [0.10042496770620346, 0.05584943667054176, 0.05626713111996651, -0.009301617741584778, 0.05038817599415779, 0.018632516264915466, 0.08920078724622726, -0.04304101690649986, -0.004095165058970451, 0.05379513278603554, -0.05970011278986931], [0.026078132912516594, -0.052308179438114166, -0.055979326367378235, 0.08855444937944412, -0.009333000518381596, -0.030918557196855545, 0.001434485544450581, 0.059598568826913834, 0.048023518174886703, 0.0238968376070261, -0.06265485286712646], [-0.0779581144452095, -0.05093548446893692, 0.013253102079033852, -0.0160770732909441, 0.046694446355104446, -0.037430789321660995, -0.03552043437957764, 0.05085724592208862, 0.0083460109308362, -0.013222206383943558, -0.00010238165850751102], [-0.08293160796165466, -0.08555151522159576, 0.10572956502437592, 0.056167952716350555, 0.033992525190114975, -0.019420519471168518, -0.019585955888032913, 0.0526563785970211, -0.0341096930205822, 0.020915696397423744, -0.08738155663013458], [-0.07334163039922714, -0.05764210596680641, 0.07028111815452576, -0.006714852526783943, -0.006330703850835562, 0.08030139654874802, 0.04373560845851898, 0.07022362947463989, -0.06825855374336243, -0.06635532528162003, -0.06039179116487503], [-0.06712012737989426, 0.014001543633639812, 0.017135366797447205, -0.018661897629499435, 0.12013822793960571, 0.06276750564575195, 0.04689710959792137, -0.09921976178884506, -0.09752433001995087, -0.08209765702486038, -0.09845517575740814], [0.026403287425637245, -0.02707849256694317, -0.07230749726295471, -0.01673164777457714, -0.034614447504282, -0.11744093894958496, 0.02214774489402771, -0.07853759825229645, -0.09042715281248093, 0.05921945348381996, -0.001479840138927102], [-0.0370483435690403, -0.003948155324906111, -0.0772819072008133, 0.008820720948278904, -0.07322387397289276, -0.07510966807603836, -0.06127702072262764, 0.006407297682017088, 0.027132371440529823, 0.028181934729218483, 0.060852181166410446], [0.024878887459635735, 0.04921594262123108, -0.02508774772286415, -0.03499118983745575, 0.030844811350107193, -0.02490532211959362, -0.037159472703933716, 0.05467095971107483, -0.05460138991475105, -0.09349008649587631, -0.02774047665297985], [-0.07231887429952621, 0.024123165756464005, 0.041427597403526306, -0.05605865642428398, 0.07773644477128983, 0.08978459984064102, 0.05541811138391495, -0.06611580401659012, 0.09445033222436905, 0.049279700964689255, -0.011397329159080982], [-0.1147279143333435, -0.07034888118505478, 0.007987168617546558, -0.07922947406768799, -0.11687210947275162, -0.1225535124540329, -0.13456103205680847, 0.0709037333726883, -0.07626133412122726, 0.07072943449020386, 0.08246853947639465], [0.0012843766016885638, -0.098060742020607, 0.008045349270105362, -0.013107049278914928, -0.097928985953331, -0.020894311368465424, -0.04336125776171684, -0.04401451349258423, 0.07075543701648712, -0.10597473382949829, -0.10460095852613449], [-0.10834094136953354, -0.07317328453063965, -0.10821112990379333, 0.12098117917776108, 0.09433543682098389, -0.0898355022072792, -0.029263338074088097, 0.03414783626794815, 0.025353604927659035, -0.05483280122280121, 0.004903167486190796], [0.10148327052593231, -0.008126880042254925, 0.1139846220612526, 0.02344168908894062, 0.0007710887584835291, 0.018870694562792778, 0.014057053253054619, -0.037707727402448654, -0.0016327836783602834, -0.05129658803343773, 0.058482471853494644], [0.03679148852825165, -0.0757952332496643, -0.11294729262590408, -0.12533999979496002, -0.07626399397850037, 0.05426894500851631, 0.07166415452957153, 0.007878645323216915, 0.05596161261200905, 0.029255686327815056, -0.01742502860724926], [0.035651057958602905, -0.04786418750882149, -0.05584678053855896, -0.009009713307023048, 0.005734657868742943, -0.013049030676484108, -0.038074154406785965, 0.0716756135225296, 0.07098779082298279, -0.02315177209675312, 0.027830826118588448], [0.05714638903737068, -0.07145866006612778, 0.005007908679544926, 0.06709394603967667, -0.07271469384431839, -0.0033004251308739185, -0.07689440995454788, 0.10185444355010986, -0.10180969536304474, -0.04722153767943382, 0.05873611569404602], [-0.08530476689338684, 0.011279674246907234, 0.061715949326753616, -0.029162945225834846, -0.08854623883962631, 0.040181513875722885, -0.02524815872311592, -0.048663727939128876, -0.03166097775101662, -0.02854824811220169, 0.02640691213309765], [0.09092232584953308, -0.045956164598464966, 0.06495565921068192, 0.11274411529302597, 0.09574007242918015, -0.0771590918302536, 0.10715194046497345, -0.05466402694582939, 0.08867120742797852, -0.08971109241247177, 0.03860251232981682], [-0.018385913223028183, 0.04565301537513733, -0.07583843171596527, -0.10961037129163742, 0.010251390747725964, -0.009746075607836246, 0.019133316352963448, -0.09043270349502563, 0.06492053717374802, -0.06635303050279617, 0.05666528642177582], [-0.07600530982017517, 0.01569616235792637, 0.06643400341272354, 0.024100961163640022, 0.055909737944602966, 0.043918218463659286, 0.0863533616065979, -0.057304564863443375, -0.04774021357297897, 0.10498295724391937, 0.029156742617487907], [0.054143939167261124, 0.014366853050887585, 0.10696856677532196, 0.01858561486005783, 0.03929116576910019, -0.0787632018327713, -0.10125034302473068, 0.10788954049348831, -0.09246828407049179, 0.06559276580810547, -0.02880875952541828], [-0.04010431468486786, -0.011592026799917221, -0.017614945769309998, -0.024783900007605553, 0.0173992570489645, -0.0667477548122406, 0.004712666384875774, -0.026127757504582405, -0.009671879932284355, 0.037673626095056534, 0.005879232659935951], [0.06834416836500168, -0.037764035165309906, -0.0828830823302269, -0.03768143057823181, -0.035342298448085785, -0.04709388688206673, -0.10716273635625839, 0.000820046931039542, 0.10756827890872955, -0.030766939744353294, 0.07215654850006104], [-0.05396442487835884, 0.01627921313047409, -0.07162147760391235, 0.07156867533922195, 0.0072953710332512856, -0.03353811427950859, 0.02466934733092785, -0.09233849495649338, -0.014807072468101978, -0.10083316266536713, -0.03390839695930481], [-0.021429693326354027, -0.03521242365241051, 0.07136743515729904, -0.006802260875701904, -0.07696330547332764, 0.04163052514195442, -0.10428385436534882, -0.10336151719093323, -0.02987075410783291, 0.07292551547288895, 0.0778004452586174], [0.05590341240167618, -0.043734580278396606, -0.06230403110384941, -0.02875661477446556, -0.0051617976278066635, 0.08403537422418594, -0.04804948717355728, 0.054712578654289246, -0.050869785249233246, -0.014200614765286446, -0.10204443335533142], [0.0022801333107054234, 0.041152212768793106, -0.035609208047389984, 0.09709116816520691, -0.1070750281214714, -0.026461640372872353, 0.028654955327510834, 0.017378978431224823, -0.022992828860878944, -0.013482317328453064, 0.083697609603405], [0.012278485111892223, 0.015524103306233883, -0.08991404622793198, -0.0790930986404419, 0.09503398090600967, -0.024933716282248497, -0.09408767521381378, 0.003921711351722479, -0.047452982515096664, -0.00020712058176286519, 0.08793690800666809], [-0.10069113224744797, -0.10450081527233124, -0.07313241064548492, -0.10841009020805359, 0.04460592940449715, -0.12081452459096909, -0.09716228395700455, 0.08138709515333176, 0.07147489488124847, -0.0572090744972229, -0.03285948932170868], [-0.03358829393982887, 0.057368598878383636, 0.018521692603826523, 0.10463918000459671, -0.015092328190803528, -0.04927552863955498, -0.11307238787412643, 0.0540606863796711, -0.07585857063531876, -0.05531010404229164, -0.10240484029054642], [0.11032812297344208, 0.0630912333726883, -0.08894474804401398, 0.058121997863054276, 0.05534282326698303, 0.010421563871204853, 0.043439965695142746, 0.09996789693832397, -0.007826661691069603, 0.08540397882461548, 0.09549599885940552], [-0.06545639783143997, 0.026862945407629013, 0.060560405254364014, -0.0024382907431572676, -0.029607975855469704, 0.009788071736693382, -0.029438087716698647, 0.06154189258813858, -0.0034648743458092213, -0.049160514026880264, 0.03831571713089943], [-0.02445562183856964, -0.06013290584087372, 0.025503093376755714, -0.011182552203536034, 0.06820236146450043, -0.08735902607440948, -0.01654873415827751, 0.06758259236812592, -0.0407378152012825, -0.10408192873001099, -0.03637276589870453], [0.019425705075263977, -0.016463134437799454, 0.06995002925395966, -0.07431747019290924, -0.014174534007906914, 0.012342936359345913, -0.02165619097650051, -0.0867733433842659, 0.04613324627280235, -0.0937451496720314, -0.04774915426969528], [-0.0820961520075798, -0.0690661370754242, -0.12619920074939728, 0.005206726491451263, -0.0673457458615303, -0.03451698273420334, 0.07504970580339432, 0.0323917493224144, 0.016353433951735497, -0.028920013457536697, -0.1094503402709961], [-0.09349333494901657, 0.011615902185440063, -0.09145070612430573, -0.0980466678738594, 0.07172870635986328, -0.01783423125743866, -0.07980460673570633, 0.022991856560111046, -0.012786326929926872, -0.08066705614328384, 0.09984885156154633], [0.059257663786411285, 0.015294474549591541, -0.02039739303290844, -0.05052461475133896, -0.00815390795469284, -0.0634550005197525, -0.04050363600254059, -0.04821262136101723, 0.02750970795750618, 0.03536047041416168, 0.0074590346775949], [-0.07183632254600525, 0.030403511598706245, 0.0746481642127037, 0.0032235151156783104, 0.0707029178738594, 0.10464780777692795, -0.06260039657354355, 0.10814958065748215, -0.07819300144910812, -0.04066154733300209, -0.0498557947576046], [-0.06184089556336403, 0.06357910484075546, 0.02730468660593033, -0.11198902130126953, 0.020104214549064636, -0.03096126765012741, 0.053855206817388535, -0.0032601733691990376, -0.06813594698905945, -0.0951336920261383, -0.06818576902151108], [0.03134793043136597, -0.10859440267086029, -0.04919986426830292, 0.07832464575767517, -0.055161457508802414, -0.07211263477802277, 0.050183773040771484, 0.0050722407177090645, 0.029733406379818916, -0.08635035902261734, 0.0811518058180809], [-0.008321566507220268, -0.04718496650457382, -0.06663230806589127, 0.040573298931121826, 0.02659456804394722, 0.10498097538948059, 0.0890437662601471, -0.01118485163897276, -0.07041815668344498, 0.09819888323545456, 0.08507987856864929], [-0.043664492666721344, 0.019979026168584824, -0.0417623333632946, 0.05817646533250809, -0.045909468084573746, -0.05261693149805069, 0.04286970943212509, -0.045538004487752914, -0.0475015789270401, -0.022312190383672714, -0.031877122819423676], [-0.03068874217569828, 0.01087833009660244, -0.003662730334326625, 0.07190367579460144, 0.034658074378967285, -0.0017241921741515398, -0.03459418937563896, -0.033528175204992294, -0.054992906749248505, -0.006298694759607315, 0.05144445225596428], [-0.10603763908147812, 0.002394861774519086, 0.005626767408102751, 0.08459901064634323, 0.03316231071949005, 0.01486827153712511, -0.12011875212192535, 0.0004687895707320422, -0.017699938267469406, 0.0797257125377655, 0.029689738526940346], [0.09192925691604614, -0.006592368707060814, -0.00290989363566041, 0.003625408047810197, 0.04949799180030823, -0.014544053934514523, -0.0019934033043682575, -0.03214821219444275, -0.010265433229506016, -0.023718714714050293, -0.007197805214673281], [0.0767575204372406, -0.07294341921806335, -0.07328528165817261, -0.03661160543560982, -0.11310779303312302, -0.06157778203487396, 0.005073624197393656, 0.10924133658409119, 0.031994570046663284, 0.004054991528391838, 0.032879386097192764], [0.057585254311561584, -0.09446028620004654, 0.0524403415620327, -0.10606849938631058, 0.09956727921962738, 0.017807066440582275, 0.077776238322258, 0.060628049075603485, -0.013394013047218323, 0.030362702906131744, -0.003803206142038107], [-0.11128882318735123, -0.08902968466281891, 0.024282747879624367, -0.07345547527074814, 0.054323624819517136, 0.01556895487010479, -0.02643233723938465, -0.08428338915109634, -0.057689979672431946, -0.0014476071810349822, -0.07367726415395737]], "lstm.weight_hh_l0": [[-0.060016971081495285, -0.0019196198554709554, -0.0068819038569927216, 0.007185687310993671, 0.021945826709270477, 0.009554920718073845, -0.010286964476108551, 0.06164855137467384, 0.002431318163871765, 0.04895531386137009, -0.057068679481744766, -0.04113813117146492, 0.03899906575679779, 0.003664338029921055, 0.0219951830804348, -0.022734887897968292, -0.01937117613852024, 0.01655564457178116, -0.09560660272836685, -0.0678606629371643, -0.08087918907403946, -0.01770150661468506, 0.023910721763968468, 0.013986987061798573, -0.03081985004246235, 0.014964185655117035, -0.00381671916693449, -0.052166253328323364, 0.005857012700289488, 0.02561550959944725, 0.0038696422707289457, 0.024144552648067474, 0.0019681416451931, 0.050723426043987274, -0.02905510552227497, 0.05283147841691971, 0.04960021376609802, -0.03442027419805527, -0.01552626583725214, 0.0004630073963198811, 0.06735097616910934, -0.037591781467199326, 0.006722642574459314, -0.020215405151247978, -0.041857656091451645, -0.019918523728847504, 0.016395391896367073, 0.007882179692387581, 0.004017536994069815, -0.002126255538314581, 0.030535312369465828, -0.0401812344789505, 0.0011868783039972186, -0.008118478581309319, -0.03044072724878788, 0.03764728829264641, -0.056568410247564316, -0.007692815735936165, -0.014777314849197865, -0.002917629899457097, -0.004614212550222874, 0.012251450680196285, 0.021689074113965034, 0.004510781727731228], [0.013474796898663044, -0.04898729920387268, -0.005779443774372339, 0.036658965051174164, 0.02189003676176071, -0.04541800543665886, 0.005704952869564295, 0.04410982504487038, 0.007652268745005131, -0.013945725746452808, 0.0069089531898498535, -0.022038321942090988, -0.05504566803574562, 0.004393103998154402, 0.006618012674152851, -0.03029402159154415, -0.023403149098157883, -0.03655104711651802, -0.0059411549009382725, 0.015081599354743958, -0.007118407171219587, -0.02859761193394661, 0.021332960575819016, -0.0027573273982852697, 0.04236681014299393, -0.05507954582571983, -0.034650977700948715, -0.029220446944236755, -0.0054403021931648254, -0.017337093129754066, -0.0014119232073426247, -0.06225606054067612, -0.005506779067218304, 0.03687440603971481, -0.0191959161311388, -0.0031288163736462593, -0.03977671265602112, 0.04512755200266838, -0.03007354587316513, -0.017266009002923965, -0.014441895298659801, 0.06403624266386032, 0.02390502393245697, 0.02532726153731346, 0.017773574218153954, 0.032190751284360886, 0.0042318678461015224, -0.005070868413895369, -0.0011826034169644117, 0.0030295648612082005, -0.02246907167136669, 0.0055348873138427734, 0.014837109483778477, 0.010244978591799736, -0.022486556321382523, 0.028303107246756554, 0.041498780250549316, 0.035484760999679565, -0.005390833131968975, -0.032610006630420685, -0.016477245837450027, -0.03535667434334755, -0.030575010925531387, 0.022624319419264793], [-0.0014549951301887631, 0.02391672693192959, 0.014470587484538555, -0.04032207652926445, 0.009955838322639465, 0.004771025385707617, 0.027937209233641624, -0.01647217944264412, -0.023289287462830544, -0.014398124068975449, 0.0028919128235429525, -0.011817177757620811, -0.022674914449453354, 0.04130801558494568, -0.026281945407390594, 0.039957400411367416, -0.003805191023275256, 0.014453764073550701, -0.007525427732616663, 0.012691125273704529, 0.0099710151553154, 0.021686449646949768, -0.024264439940452576, -0.012256263755261898, -0.023375891149044037, 0.014248794876039028, 0.03429393470287323, 0.02625025063753128, -0.020826103165745735, 0.0214884914457798, -0.0023953646887093782, 0.01282419916242361, 0.00515038101002574, 0.04744316264986992, -0.03696306049823761, 0.018311787396669388, 0.009670771658420563, -0.018518807366490364, -0.004419232718646526, -0.0004456151800695807, 0.012725242413580418, 0.01012644823640585, -0.018168354406952858, 0.006987974047660828, -0.029009969905018806, -0.0157147329300642, 0.020930159837007523, -0.04170903190970421, -0.018496155738830566, -0.01720123551785946, 0.07201249897480011, -0.02569485642015934, -0.0234097708016634, 0.0032038772478699684, -0.029220441356301308, -0.0007246708264574409, 0.02627544105052948, -0.0019516806351020932, 0.009778349660336971, 0.03338640555739403, 0.000301496300380677, 0.007233831565827131, -0.024094969034194946, -0.028278062120079994], [0.001638810383155942, 0.0008847515564411879, 0.02327203005552292, 0.012998714111745358, -0.007255849428474903, -0.004294366575777531, 0.038280121982097626, -0.008749173954129219, 0.006055555772036314, -0.021385395899415016, 0.0020117645617574453, 0.016762416809797287, 0.00284726545214653, -0.03277650475502014, -0.021558672189712524, -0.005326651502400637, -0.0007481650682166219, 0.0006543698254972696, -0.014596385881304741, 0.006094478536397219, 0.009143637493252754, -0.01675817370414734, 0.0005050470936112106, 0.0174954142421484, -0.02783651277422905, -0.00978026818484068, -0.0005735326558351517, -0.03205164894461632, 0.0011351852444931865, -0.006654240190982819, -0.0010411111870780587, -0.026451561599969864, 0.0005576953990384936, -0.017132438719272614, -0.004699332639575005, -0.04007870703935623, -0.030840709805488586, 0.0019766520708799362, 0.002324651461094618, -0.016881076619029045, -0.05489301308989525, -0.004381618928164244, 0.003873610869050026, -8.438449731329456e-05, 0.00725920032709837, 0.054334912449121475, 0.026714026927947998, -0.008447879925370216, 0.015013348311185837, -0.003166179172694683, -0.03677862137556076, -0.004298263695091009, -0.0003660184738691896, 0.005411120597273111, 0.02915162220597267, 0.016487322747707367, -0.010850116610527039, 0.013342897407710552, -0.007519488222897053, -0.02690793387591839, 0.011751563288271427, 0.002730253152549267, 0.0023804388474673033, 0.0016943567898124456], [0.003740486456081271, -0.0002998903801199049, -0.00048557823174633086, -0.007272724993526936, -0.01599743589758873, -0.00038614473305642605, 0.000907299923710525, 0.007852509617805481, 0.00030940171563997865, 0.003524663858115673, -0.0010009428951889277, -6.651518197031692e-05, -0.016453631222248077, -0.007461309898644686, -6.688484427286312e-05, -0.01880047097802162, -0.0044056265614926815, 0.00019754628010559827, -0.008246384561061859, -0.002918511861935258, -0.018569502979516983, -0.0002521792193874717, -4.8368647185270675e-06, -7.568653381895274e-05, 0.012972150929272175, 0.0017119317781180143, 0.001816988573409617, 0.01373380608856678, 0.00044694668031297624, 0.0021837111562490463, 6.705550185870379e-05, 0.001035174704156816, 0.0008707508677616715, 0.012235600501298904, 0.0006869466742500663, 0.00042678843601606786, -0.00019559133215807378, 0.0018470268696546555, 9.358008537674323e-05, 0.0008218434522859752, -0.003501453436911106, -0.0027525597251951694, -0.0031089256517589092, -0.00021429535991046578, 0.00490133510902524, -0.00011498718231450766, -0.009396935813128948, -0.00012575428991112858, 0.00045176412095315754, -0.002015708712860942, -1.5145173165365122e-05, -0.000981805962510407, -8.638435247121379e-06, 0.00040819161222316325, -0.004061522893607616, -0.0008247056393884122, -0.002745778765529394, 0.0006898706196807325, 0.00011480072134872898, -0.0012743129627779126, -0.0019267876632511616, -0.0007266491884365678, 0.0017344292718917131, 0.005972468294203281], [0.013482404872775078, -0.005360839422792196, -0.011281193234026432, -0.025571711361408234, 0.01914038136601448, -0.0021486764308065176, 0.0017646843334659934, 0.019446058198809624, -0.013006183318793774, 0.01034183893352747, 0.009805988520383835, 0.044212546199560165, 0.055140141397714615, -0.013732746243476868, 0.005336738657206297, -0.021173184737563133, 0.015962854027748108, -0.004443558864295483, -0.031019190326333046, 0.0025823586620390415, 0.0053826672956347466, -0.01768314093351364, 0.002573986304923892, 0.0006145209190435708, 0.022473616525530815, -0.025203995406627655, 0.02563721314072609, 0.010797683149576187, -0.0040618618950247765, -0.07347322255373001, -0.005183584988117218, 0.006296311505138874, -0.00534271402284503, -0.01588227041065693, 0.0020556028466671705, 0.010669877752661705, 0.0073068710044026375, 0.0748346820473671, -0.026949096471071243, -0.015959877520799637, 0.015171753242611885, 0.03564513474702835, 0.043288033455610275, -0.016938121989369392, -0.028686486184597015, 0.014735186472535133, 0.009953731670975685, 0.00620796624571085, -0.0006843329756520689, -0.01058893371373415, 0.04068884998559952, 0.004125627223402262, 0.0203055739402771, -0.026343470439314842, 0.011067569255828857, -0.0321904681622982, 0.008784951642155647, 0.02193453721702099, -0.0033609136007726192, -0.03312811627984047, -0.0145290307700634, 0.04011186584830284, -0.01163376122713089, -0.017897486686706543], [-0.017159799113869667, 0.01861945539712906, 0.009784027934074402, -0.02366366982460022, 0.002719743410125375, 0.001520266872830689, -0.010867566801607609, 0.005827919580042362, 0.009323948062956333, 0.005757625214755535, 0.0018530746456235647, 0.0018615896115079522, -0.006946810055524111, 0.025484396144747734, 0.015525641851127148, -0.025197433307766914, 0.015055710449814796, 0.00012362157576717436, -0.028829649090766907, 0.01421115268021822, 0.02742917649447918, -0.01293888222426176, 0.0012255501933395863, 0.015707964077591896, 0.005222009960561991, -0.007055850699543953, 0.017591945827007294, -0.047053392976522446, 0.009435649029910564, -0.03183360770344734, 0.006398947909474373, 0.007419858127832413, 0.008545799180865288, -0.001635654247365892, 0.0024181578774005175, -0.032163579016923904, 0.03341672942042351, -0.01782088913023472, 0.0007530017755925655, -0.0002444079436827451, -0.0551038458943367, -0.01805223897099495, 0.010564716532826424, 0.014429724775254726, -0.00019533403974492103, -0.03799165412783623, 0.0257687047123909, 0.028026144951581955, 0.002770313760265708, 0.04549261927604675, 0.004945427179336548, -0.009772434830665588, 0.0014344032388180494, -0.03369686380028725, 0.048021722584962845, -0.004323111847043037, -0.0031378944404423237, -0.0018197207245975733, -0.0071771410293877125, -0.011069081723690033, -0.010290027596056461, -0.003051742911338806, -0.006679365411400795, 0.0030935874674469233], [0.02827390655875206, 0.0573047399520874, -3.4525895898696035e-05, -0.014477760531008244, 0.01515321247279644, -0.008630302734673023, 0.0036013973876833916, -0.09937448799610138, -0.021457167342305183, -0.0569206103682518, 0.007431843783706427, 0.008694260381162167, 0.017017127946019173, 0.06336938589811325, -0.0006205548415891826, -0.02835877612233162, -0.05452334135770798, -0.022430285811424255, 0.04760238900780678, 0.014041031710803509, 0.020412473008036613, -0.043192289769649506, -0.0324300080537796, 0.0023925804998725653, 0.0003882379678543657, -0.10649804770946503, -0.005100985523313284, 0.04624662920832634, 0.009994171559810638, -0.09474630653858185, -0.0013116453774273396, 0.012620027177035809, 0.01199741754680872, -0.02494795061647892, 0.0068761021830141544, -0.022701244801282883, -0.028006477281451225, 0.02628251165151596, -0.0018706880509853363, 0.03649137169122696, 0.03158954158425331, -0.04044938459992409, 0.039701227098703384, -0.02241353504359722, -0.07654093950986862, 0.012829134240746498, 0.07334103435277939, 0.0010331867961212993, -0.000639131641946733, -0.011712789535522461, 0.07965464890003204, -0.01774420589208603, -0.032411761581897736, 0.09902767091989517, 0.03158848360180855, 0.03792146220803261, -0.0029561384581029415, 0.011098450049757957, -0.024953395128250122, -0.002011431148275733, -0.009851514361798763, 0.007513316813856363, -0.030972758308053017, 0.05132780596613884], [-0.0021510592196136713, -0.001036326983012259, 0.0009899913566187024, 0.004141688346862793, 0.0011058318195864558, 0.001455851481296122, 0.0010151414899155498, 0.009343961253762245, 0.0014048349112272263, -0.0008666214416734874, 0.0013535808539018035, -0.0005417708307504654, -0.005025709979236126, 0.0011803985107690096, -0.0002817359927576035, -0.0035908387508243322, 0.00022026075748726726, 0.002106891479343176, -0.0036999485455453396, -0.0008933969074860215, -0.0004147695144638419, 0.0007831380935385823, 0.001164152636192739, -0.0018394262297078967, -0.00014912667393218726, 0.00048537959810346365, 0.005056244786828756, -0.00046489975648000836, -0.0012113283155485988, -0.0027061467990279198, -0.0004614870122168213, -0.009479031898081303, -0.000817691208794713, -0.00133388617541641, -0.00026489602169021964, -0.0003664281393866986, 9.381674317410216e-05, -0.003074228996410966, -0.0008550062193535268, 0.0007628213497810066, -0.0016945195384323597, -0.0036188450176268816, 0.0006929701194167137, 0.0003053559048566967, -0.0022164667025208473, 0.0022845871280878782, -0.004064107313752174, -0.0013069137930870056, 0.000586216279771179, 0.0016349509824067354, -0.0019251909106969833, -0.0009132027043960989, -0.0017319690668955445, -0.0060074711218476295, -0.0012493666727095842, -0.0008190606022253633, -0.002853365847840905, -0.0002981327415909618, 0.00013180397218093276, 0.0002941043640021235, -0.0056045204401016235, 0.003925617318600416, 0.0006691063172183931, 0.0011499362299218774], [-0.04548844322562218, 0.000850774347782135, 0.0015629790723323822, 0.015221423469483852, 0.004100984428077936, -0.00823213905096054, 0.004732935689389706, 0.0033633108250796795, -3.1612686143489555e-05, 0.0375242680311203, 0.012661894783377647, 0.0059996736235916615, 0.005004030652344227, -0.009201067499816418, -0.023862767964601517, 0.010048523545265198, -0.0021574601996690035, -0.0011706057703122497, 0.01972171477973461, 0.010262059047818184, 0.039006005972623825, -0.008765751495957375, 0.003063598647713661, -0.011559461243450642, -0.015415010042488575, 0.0027545697521418333, 0.016660133376717567, 0.0049865273758769035, -0.01279660314321518, 0.001414332538843155, -3.510207898216322e-05, -0.004649661015719175, -0.006148234941065311, -0.05162710323929787, -0.0022576365154236555, 0.025517821311950684, 0.0355212427675724, -0.014290026389062405, 0.002940470352768898, 0.005593208130449057, 0.0211179219186306, -0.004595463629812002, 0.0038754958659410477, 0.00018543210171628743, 0.00044119448284618556, 0.018235214054584503, 0.013234749436378479, 0.0037571729626506567, 0.005176768638193607, 0.025491580367088318, 0.027413494884967804, -0.004746613092720509, -2.733441215241328e-05, 0.0025833623949438334, 0.00014705925423186272, -0.020144645124673843, -0.017809735611081123, -0.01109346654266119, 0.0009127308148890734, 0.004064416978508234, 0.001869723666459322, 0.00603004964068532, -0.0003627725236583501, 0.009758519008755684], [-0.021265113726258278, 0.0008722350466996431, 0.0009127678931690753, -0.0016761103179305792, 0.0008838535868562758, 0.0004839763860218227, -0.0005583259626291692, 0.0036227034870535135, -0.0013975962065160275, -0.00487943971529603, -0.016558563336730003, -0.00014745941734872758, -0.009611868299543858, -6.395799573510885e-05, 0.0040828813798725605, -0.011204235255718231, -0.0005412594182416797, -0.00028739412664435804, 0.01680062524974346, 0.0005387273849919438, 0.03424923121929169, 0.001154523342847824, -0.000261626293649897, -0.00015188746328931302, -0.010275667533278465, 0.0014984413282945752, -0.0020136884413659573, -0.033750128000974655, -0.005039054900407791, 0.00048498433898203075, 0.0007827426306903362, -0.0008359764469787478, 0.00029596034437417984, -0.011137734167277813, -0.003708973526954651, -0.0021626376546919346, 0.004260178655385971, -0.0002016073849517852, -0.0007049833657220006, 0.001203522551804781, 0.021280016750097275, -0.0009542092448100448, -0.01766187511384487, -0.0006114144925959408, 0.0001489556598244235, -0.0006915864069014788, 0.006258112378418446, -0.001577715273015201, -0.000268899166258052, -0.0009126950753852725, 0.0031024247873574495, 0.0011618378339335322, -0.0007848304812796414, 0.002770524239167571, 0.021794844418764114, -0.0007207713788375258, 0.016873575747013092, 0.0002422011166345328, 0.00042796446359716356, 0.0009363029384985566, -0.00027094234246760607, 0.007875880226492882, -0.0009871526854112744, 0.0037008831277489662], [-0.04608473926782608, -0.009936497546732426, 0.005008779466152191, 0.014594225212931633, 0.03142433613538742, -0.02311241440474987, -0.020734230056405067, -0.04357936978340149, 0.013638508506119251, 0.05343705415725708, 0.017159033566713333, 0.06675449758768082, -0.060213204473257065, 0.003378241788595915, -0.004124895203858614, 0.06662191450595856, -0.04637732729315758, -0.005115358158946037, 0.03704296424984932, 0.01104829553514719, -0.07466640323400497, -0.06535539776086807, 0.020099621266126633, -0.024426192045211792, -0.0578274205327034, 0.09787556529045105, -0.03891649842262268, -0.02970822900533676, -0.016771387308835983, -0.06840148568153381, 0.0033087620977312326, 0.023879408836364746, -0.00416965875774622, -0.0270039401948452, 0.06080550700426102, -0.010319805704057217, 0.08288924396038055, 0.019903581589460373, -0.06685984879732132, -0.02831871435046196, -0.040446687489748, -0.06326083093881607, 0.056787122040987015, 0.027708832174539566, -0.03115730732679367, 0.013308960013091564, 0.02202613279223442, -0.0038933400064706802, -0.012367798946797848, 0.03904768452048302, -0.009841655381023884, 0.006536944303661585, -0.0014149838825687766, -0.04426121339201927, -0.028069304302334785, 0.016319209709763527, 0.0026548306923359632, 0.03960529342293739, -0.011562475003302097, -0.029912693426012993, -0.004123884253203869, -0.03663552552461624, -0.016222860664129257, -0.006150608416646719], [0.06103701516985893, 0.061010945588350296, -0.05985359847545624, 0.02796824648976326, 0.029603686183691025, 0.05253678187727928, -0.027131861075758934, -0.04650483652949333, 0.06833482533693314, 0.0808783695101738, 0.035725995898246765, -0.051239974796772, 0.03682813420891762, -0.07556470483541489, 0.0157990250736475, -0.010356778278946877, 0.06767129898071289, -0.014639920555055141, 0.0965396910905838, 0.04866519570350647, -0.055450163781642914, -0.06867577880620956, 0.05224476754665375, 0.02737531065940857, -0.03304990381002426, -0.006721775513142347, 0.06181510537862778, -0.06315939128398895, 0.03672158718109131, -0.046055108308792114, -0.012036880478262901, -0.08919090777635574, -0.05151812359690666, 0.04494546353816986, -0.05821395292878151, -0.04977233335375786, 0.0231863372027874, -0.06586373597383499, -0.03206464275717735, -0.01335414219647646, -0.06713934987783432, 0.01647331193089485, -0.02508290857076645, 0.0023699647281318903, 0.08236537128686905, 0.07100891321897507, -0.06147089600563049, 0.0002588135248515755, -0.0036626227665692568, 0.0704297348856926, -0.02320612594485283, -0.03198426216840744, -0.022031554952263832, 0.056018535047769547, 0.01789451390504837, -0.020389365032315254, -0.04520128667354584, 0.03599204495549202, -0.048508014529943466, -0.0836770161986351, 0.042732223868370056, 0.04710527881979942, -0.005915221758186817, -0.09024697542190552], [-0.00014055341307539493, -0.021486060693860054, 0.042676761746406555, 0.051233772188425064, 0.0002867744187824428, 0.0014108269242569804, 0.013165287673473358, -0.009943265467882156, 0.029208529740571976, -0.027966778725385666, 0.00019020287436433136, -0.0007543570827692747, -0.030872859060764313, 0.04406591132283211, -0.020497305318713188, -0.034503836184740067, 0.001843100762926042, -0.011795896105468273, 0.014380770735442638, -0.0033663681242614985, -0.0041726515628397465, -0.0013892754213884473, -0.007725197821855545, -0.033472273498773575, -0.012520851567387581, -0.0067640938796103, 0.006184596102684736, -0.021045206114649773, 0.008130533620715141, 0.05564843490719795, -0.0005124825984239578, 0.004093150608241558, 0.006310435477644205, 0.0029791942797601223, 0.0030173887498676777, 0.024389876052737236, -0.01099659875035286, 0.028653349727392197, -0.0034187943674623966, 0.000994242960587144, 0.05505707487463951, 0.014737068675458431, -0.003334841225296259, -0.010782008059322834, 0.055202968418598175, -0.017997348681092262, 0.015223097056150436, 0.0017990096239373088, 0.02350016124546528, 0.06176717206835747, -0.07302091270685196, -0.0005305676022544503, -0.0025670407339930534, 0.002571621211245656, 0.04071395471692085, -0.007280624471604824, 0.05020568519830704, -0.002436297247186303, -0.011085063219070435, 0.0420677550137043, 0.007652352098375559, -0.006319453939795494, 0.006771013606339693, -0.018807440996170044], [-0.025666331872344017, -0.0025652535259723663, -0.0015629990957677364, -0.007676096633076668, -0.012283599004149437, 0.0006882832385599613, -0.00630157208070159, -0.020930569618940353, 0.00018283288227394223, 0.03268187493085861, -0.0029403481166809797, 0.003318312345072627, 0.008020048961043358, -0.0005480569088831544, 0.011372117325663567, -0.0004931864677928388, 0.00046376721002161503, -0.00886864960193634, -0.047093816101551056, 0.006427287589758635, -0.01597643829882145, -0.0003761710540857166, 0.00047496164916083217, 0.0017150839557871222, 0.0024353843182325363, 0.017971917986869812, 0.005463027395308018, -0.04076692834496498, -0.022401293739676476, 0.0014479332603514194, -0.00011019158409908414, 0.0005414430634118617, 0.0047083362005651, 0.01969463750720024, 0.023301273584365845, 0.006645182613283396, -0.010215545073151588, 0.013588830828666687, -0.0005413980688899755, -0.0007469056290574372, 0.04786183685064316, -0.005337512120604515, -0.0380348302423954, 0.0061908382922410965, -0.0014747194945812225, -0.0002845663111656904, 0.004514799918979406, 0.013686995021998882, -0.00012209943088237196, -0.006137457210570574, 0.0030544602777808905, -0.0011334228329360485, -0.0009739156230352819, 0.004716213326901197, -0.02860564924776554, 0.0001355454878648743, -0.04056869447231293, -1.1661919415928423e-05, 8.9057139120996e-06, 0.006582180503755808, 0.002407170832157135, 0.006154984701424837, -0.0006196086760610342, -0.01057093869894743], [-0.00416530529037118, -0.00230493419803679, 0.002499084221199155, 0.007211839780211449, -0.024392466992139816, 0.00031351138022728264, 0.0008235156419686973, -0.0012226119870319963, 0.009553437121212482, 0.008833013474941254, 0.007691479288041592, -0.0035144577268511057, -0.02081519179046154, -0.01743890345096588, 0.00034696172224357724, 0.039969705045223236, -0.002683773636817932, 0.005119309760630131, 0.039324235171079636, -0.003253026632592082, -0.018930669873952866, -0.015584160573780537, -4.582426481647417e-05, -0.00078681850573048, 0.019675536081194878, 0.01952430233359337, 0.0024908643681555986, 0.00489466730505228, -0.0022626479621976614, -0.007159874774515629, 0.0012086626375094056, -0.022347845137119293, 0.0016201185062527657, -0.016575662419199944, 0.005526244640350342, 0.011823222041130066, 0.0053277467377483845, 0.019806833937764168, -0.00016634870553389192, 0.004753390792757273, -0.0008962016436271369, -0.007456077262759209, -0.005121512338519096, -0.009715610183775425, 0.0019318355480208993, -0.017991064116358757, 0.01081924606114626, 0.0022109118290245533, -0.005443189758807421, -0.0016891678096726537, -0.0008927719318307936, 0.0011021301615983248, -0.004447618965059519, 0.0002894015342462808, -0.002714859787374735, -0.0029675716068595648, -0.002057099249213934, 0.0010568066500127316, 0.003851867513731122, -0.0024001868441700935, -0.011606975458562374, -0.0004975638585165143, 0.00676458515226841, 0.012367798946797848], [-0.019012248143553734, -0.004568286240100861, 0.03806694969534874, -0.0006184185622259974, 0.014837672002613544, -0.016490532085299492, -0.0030537648126482964, 0.034639984369277954, -0.0020850501023232937, -0.0007902825018391013, -0.00190760288387537, 0.02813923917710781, -0.06075728312134743, 0.008578263223171234, -0.0010312023805454373, 0.009957357309758663, -0.02234305441379547, 0.0038228603079915047, 0.026927240192890167, -0.0016571979504078627, 0.024018149822950363, -0.00825844518840313, 0.004692897200584412, -3.217806442989968e-05, -0.0012851699721068144, -0.004220395814627409, 0.011430421844124794, 0.006658598314970732, 0.002196712652221322, 0.04660681635141373, 0.0019090244313701987, 0.03288762643933296, 0.006570727564394474, 0.002004481852054596, -0.0006506550125777721, 0.003719639265909791, -0.0033093385864049196, -0.027328066527843475, -0.0018024585442617536, -0.0007422055350616574, -0.010763706639409065, -0.04007759317755699, -0.0023538335226476192, -0.0318014919757843, -0.017661649733781815, 0.012981999665498734, -0.035047631710767746, 0.00465185334905982, 0.0026660116855055094, -0.008230730891227722, 0.05738380551338196, -0.003949865698814392, 0.004672681912779808, -0.007321080192923546, -0.003527764230966568, 0.002509922720491886, 0.003664660733193159, -0.001984858652576804, -7.348030339926481e-05, 0.012110135518014431, 0.0003357398381922394, -0.003578322473913431, 0.024048836901783943, -0.031182466074824333], [-0.001071305014193058, -0.0008196438429877162, -0.0001240884157596156, -0.013432333245873451, 0.0031454514246433973, -0.0027441021520644426, -0.0009595698793418705, -0.008728578686714172, -0.0002793827443383634, 0.0029004875104874372, 0.000496913562528789, -0.002560468390583992, 0.0015520607121288776, -0.0020478377118706703, 2.4460301574436016e-05, -0.0007198730600066483, -0.00113584753125906, -0.0034892838448286057, -0.0014173919335007668, -0.00046709305024705827, -0.004097174387425184, -0.0032924124971032143, 0.00034491444239392877, 0.00037787677138112485, 0.008765090256929398, -0.007404847536236048, 0.0013833889970555902, -0.0012515789130702615, -0.0018804558785632253, -0.001585622550919652, 0.0009419496636837721, -0.008095968514680862, 3.7867390346946195e-05, -0.0012094553094357252, -0.01410472672432661, 0.005647600628435612, 0.01120688859373331, -0.01828795112669468, 0.0014847508864477277, -0.0015313298208639026, -0.000880968349520117, 0.0025005608331412077, -0.007018203381448984, 0.0013785784831270576, -0.0002624222543090582, 0.005954779218882322, 0.007022373843938112, 0.00015243494999594986, -0.0007980423979461193, 0.005271560046821833, 0.0006256999331526458, 0.0007021550554782152, 0.00010500427742954344, 0.0008399082580581307, 0.0016137463971972466, -0.0008096396923065186, 0.00404244614765048, -0.0038483026437461376, 0.0012702296953648329, -0.0007747135241515934, -0.005408185999840498, 0.008711631409823895, 0.0010122074745595455, 0.00038683373713865876], [-0.04278168827295303, -0.0010845884680747986, 0.0008970609051175416, -0.01204261276870966, -0.020777080208063126, -0.0020304208155721426, 0.0007401939365081489, -0.021950984373688698, -0.006193274166435003, 0.02556295320391655, 0.008328362368047237, 0.004595726262778044, -0.040086355060338974, 0.0014833193272352219, -0.01580960489809513, 0.03024144098162651, 0.03545144945383072, 0.0019213407067582011, -0.006536298431456089, -0.0005540267447941005, -0.008022429421544075, -0.007271046284586191, 0.006483287550508976, 0.0007808819063939154, -0.03545491769909859, 0.016419140622019768, 0.0008336292230524123, -0.014424285851418972, -0.00040387059561908245, -0.008440205827355385, 0.0016582823591306806, 0.014026385731995106, -0.0012252068845555186, -0.022184908390045166, -0.013073433190584183, 0.0013208038872107863, -0.02619246020913124, 0.02845926024019718, 0.004331822507083416, 0.006759237498044968, -0.020597418770194054, -0.012289543636143208, 0.017144834622740746, 0.005003052763640881, 0.007353387773036957, 0.01573067158460617, -0.015860076993703842, -0.001932380604557693, 0.004449822474271059, 0.0002770501596387476, -0.0009854427771642804, -0.0011300335172563791, -0.003019494004547596, -0.009480227716267109, -0.0035074797924607992, 0.013170742429792881, 0.031830448657274246, 0.0024064555764198303, 0.001978483283892274, 0.0006557327578775585, 0.0018641386413946748, 0.0134404506534338, -0.004737777169793844, -0.03335970640182495], [-0.04153512790799141, -0.006266608368605375, -0.00016839844465721399, -0.006294784601777792, -0.021450988948345184, -0.00918307714164257, 0.0009426483884453773, -0.002078877529129386, 0.0028219465166330338, 0.002101751510053873, 0.015121536329388618, 0.0016831634566187859, -0.00012452175724320114, -0.002487369580194354, -0.027937419712543488, 0.030583443120121956, 0.011205696500837803, -0.006846762727946043, 0.042352475225925446, -0.018004201352596283, -0.05325203761458397, -0.011891985312104225, 0.000685409118887037, 0.0015232772566378117, 0.007470049895346165, -0.024580158293247223, 0.010917853564023972, 0.01629793643951416, -0.021825483068823814, -0.006116943433880806, 0.0011820856016129255, 0.023623019456863403, -0.001824352191761136, 0.0077933669090271, -0.02858598344027996, -0.003145074239000678, -0.009980829432606697, -0.02630036324262619, 0.0019272919744253159, 0.009747731499373913, -0.016454089432954788, 0.0048361304216086864, 0.03395044431090355, 0.002724927617236972, -0.001072079874575138, -0.004998319316655397, -0.006430449895560741, -0.01607503555715084, -0.0008218137663789093, -0.0010714912787079811, -0.033542849123477936, 0.002674027578905225, -0.0009682035888545215, 0.002274859696626663, -0.05961932614445686, 0.0013459294568747282, 0.024493802338838577, -0.004372526425868273, 0.0007448592805303633, 0.008411500602960587, -0.010345698334276676, 0.02060523070394993, -0.0012166398810222745, 0.02536965347826481], [0.0149580929428339, -0.011387049220502377, -0.009340805001556873, -0.0014214268885552883, 0.06182380020618439, -0.025793764740228653, -0.008192270062863827, -0.07918550074100494, -0.033068571239709854, 0.07122232764959335, 0.03271110728383064, 0.01170465350151062, 0.04129740968346596, -0.026501983404159546, 0.03924121335148811, 0.012740031816065311, -0.03611539304256439, -0.02974361926317215, 0.03510856255888939, -0.030762039124965668, 0.0046201604418456554, -0.010654402896761894, 0.004950030241161585, 0.03387407585978508, 0.018599634990096092, -0.07674947381019592, 0.005134183447808027, 0.054681457579135895, 0.05476722493767738, 0.03402137756347656, -0.004237548913806677, 0.023374075070023537, -0.024818697944283485, 0.07012725621461868, -0.031202813610434532, 0.040655795484781265, -0.056001968681812286, -0.04002098739147186, 0.06232468783855438, -0.009191923774778843, 0.012888437137007713, -0.051532771438360214, -0.04596446454524994, -0.0011391389416530728, -0.057248204946517944, -0.004627738147974014, 0.007805530447512865, -0.015397575683891773, -0.00963048730045557, 0.015991289168596268, -0.01089351624250412, 0.016049455851316452, 0.012395835481584072, -0.055438827723264694, 0.026300426572561264, -0.04548873007297516, -0.06612564623355865, 0.017593953758478165, -0.02510208822786808, 0.017619360238313675, 0.023209115490317345, -0.022544998675584793, 0.06743646413087845, -0.06665666401386261], [0.015657423064112663, 0.008291684091091156, -0.025337550789117813, 0.06289849430322647, 0.03706912696361542, 0.022375883534550667, -0.03194975480437279, 0.02965707518160343, 0.0028664476703852415, 0.06703442335128784, 0.0038789145182818174, 0.05045304447412491, -0.03218049928545952, -0.016387658193707466, 0.00035898969508707523, 0.04404522106051445, -0.013103672303259373, -0.009385217912495136, -0.026887064799666405, 0.005077375564724207, 0.014177927747368813, -0.020846359431743622, -0.014412260614335537, 0.02989608235657215, -0.009570757858455181, -0.0015684349928051233, 0.05341231822967529, -0.01251167617738247, 0.0058561391197144985, -0.02884010225534439, -0.004523039795458317, 0.031629130244255066, -0.011158891022205353, -0.014881124719977379, -0.012464320287108421, 0.05439385771751404, 0.07597430050373077, -0.04505746439099312, -0.07869605720043182, -0.013222020119428635, 7.978936628205702e-05, 0.051546160131692886, -0.03417196124792099, -0.03744655102491379, 0.0449850931763649, -0.05858283117413521, -0.01122262328863144, -0.016103798523545265, -0.000653617549687624, -0.047057196497917175, 0.03850563243031502, 0.002792385406792164, -0.04961026459932327, -0.028342118486762047, 0.045864589512348175, 0.07466951757669449, -0.03735611215233803, 0.011047529987990856, 0.028905844315886497, -0.044692713767290115, -0.005663599353283644, 0.049042921513319016, -0.001286725397221744, 0.07496528327465057], [-0.041877035051584244, 0.0004408832755871117, 0.02271493710577488, -0.0005342593067325652, -0.004572446458041668, 0.0032131432089954615, -0.0024595283903181553, -0.005442802794277668, 0.0022081579081714153, -0.005470610223710537, -0.00027486347244121134, 0.032460201531648636, -0.03896054998040199, 0.03387868031859398, 0.004228855948895216, 0.002628990216180682, 0.02435038611292839, 0.00030162514303810894, -0.00861367303878069, 0.002253943122923374, 0.03131207078695297, 0.008602800779044628, 0.004507483448833227, -0.0008168093045242131, 0.002052006544545293, -0.06605372577905655, -0.001741011394187808, -0.001595107140019536, -0.0032952625770121813, 0.004859703127294779, 0.0005875724600628018, 0.023053152486681938, 0.0009648881969042122, -0.002306255279108882, 0.0060169328935444355, -0.0042884983122348785, 0.04794832319021225, 0.03386595472693443, -0.025488868355751038, 0.0009502010070718825, 0.007405961863696575, 0.02055753394961357, 0.005629625637084246, -0.013155657798051834, 0.014917124062776566, 0.00023206710466183722, -0.002514161169528961, -0.0010368891526013613, 0.008701089769601822, -0.0016090223798528314, 0.011683166958391666, -0.0019001585897058249, 0.006553994957357645, -0.028341108933091164, 0.004271053709089756, -0.008830594830214977, -0.0030362100806087255, -0.0028435352724045515, -7.671809726161882e-05, -0.0033311243169009686, 0.0015571950934827328, -0.014334866777062416, 0.02580445073544979, 0.0038484428077936172], [-0.0009589855326339602, -0.0005301898927427828, -0.0004962551756761968, -0.004110478796064854, -0.00011390527652110904, -0.00022457342129200697, -0.0007482172804884613, -0.002674860181286931, 0.0008219165611080825, -0.0011155483080074191, -7.199241372290999e-05, 0.0008174789254553616, 0.002958292607218027, 0.002638133941218257, 0.0001250920322490856, 0.0028051009867340326, -0.005871396977454424, 0.0003761464904528111, -0.0019235953222960234, 6.599198968615383e-05, -0.000781673938035965, -0.0009989023674279451, 0.0012473688693717122, -0.0004416384908836335, -0.0006766380975022912, -0.0013580656377598643, 0.0015775086358189583, 0.0003739910025615245, -0.0009642368531785905, -0.0003732670738827437, 0.000833471363876015, 0.0002343139349250123, -4.733686364488676e-05, 0.0015258253552019596, 0.0006746748695150018, -0.003821169026196003, -0.0004126106505282223, 0.00010206754814134911, 0.0007396008586511016, 0.001096763531677425, -0.006262753624469042, 0.00020367441175039858, 0.0005836220225319266, 0.0001888568513095379, -0.001033500418998301, 0.0011879925150424242, 0.005085058975964785, -0.0024029582273215055, 0.0008037063525989652, 0.00171866815071553, -0.0028940190095454454, 0.00011489303142298013, -0.000685562496073544, 0.0016181929968297482, 0.004368827678263187, -0.0007254582596942782, 0.002316566649824381, 0.00014410751464311033, 0.00029295778949745, -0.00046655331971123815, -0.000506117008626461, -0.0007145035197027028, 0.0001765892084222287, 0.0003012470551766455], [-0.020516663789749146, 0.0007072323351167142, -0.0020094027277082205, -0.018639523535966873, 0.05035670846700668, 0.0018707693088799715, 0.0022685646545141935, -0.009396245703101158, -0.0035680292639881372, -0.001139700529165566, 0.02206610143184662, -0.009308887645602226, 0.018715182319283485, -0.012861017137765884, 0.0004829686658922583, 0.030309461057186127, 0.010022365488111973, -0.028750909492373466, -0.005569996777921915, 0.02798622101545334, 0.0017398843774572015, -0.005337608512490988, -0.00040561077184975147, 0.005538347642868757, -0.03324485197663307, 0.019729945808649063, 0.0024062178563326597, 0.007435563486069441, 0.00027975894045084715, -0.002327305730432272, 0.0006789097678847611, -0.01264304481446743, 0.0001874866138678044, 0.04020523652434349, 0.019295459613204002, -0.006256127264350653, 0.025794118642807007, 0.0028771907091140747, -5.124846938997507e-05, 0.008257994428277016, 0.0014394336612895131, 0.044950276613235474, -0.0032496086787432432, -0.0017083337297663093, 0.012532303109765053, 0.039999473839998245, -0.02358376234769821, 0.0007847512606531382, 0.011112023144960403, 0.03929939121007919, -0.000283110945019871, -0.0002258903405163437, -0.0002917593519669026, 0.03772885352373123, -0.0061813173815608025, 0.002124148653820157, 0.022104181349277496, -0.011094095185399055, 0.010380527935922146, -0.0013361411402001977, -0.01113066729158163, 0.013736216351389885, 0.00036940607242286205, 0.01811477728188038], [-0.022165464237332344, 0.06498365849256516, -0.053652942180633545, -0.028101325035095215, -0.04044651240110397, 0.06808757781982422, 0.03363387659192085, 0.09006261825561523, 0.01921188086271286, -0.046323321759700775, 0.017646558582782745, -0.0062970807775855064, 0.058743666857481, -0.048194773495197296, 0.02359168604016304, -0.053681932389736176, 0.04109160974621773, 0.05392811447381973, -0.07079251110553741, 0.010487308725714684, -0.003044558921828866, -0.02060440555214882, -0.05937442556023598, 0.0033407334703952074, 0.09293623268604279, -0.050885025411844254, -0.026689080521464348, 0.028871120885014534, 0.020867956802248955, 0.08390604704618454, -0.013648697175085545, 0.05640667304396629, -0.03767887130379677, -0.09825100749731064, 0.0665951669216156, 0.018674040213227272, 0.08459772914648056, -0.07403907179832458, -0.019348416477441788, 0.011944958008825779, -0.037036504596471786, 0.11779162287712097, 0.011398731730878353, -0.08655588328838348, 0.05309077352285385, 0.06954427808523178, -0.045715223997831345, 0.026846323162317276, -0.01151951402425766, 0.07002077996730804, 0.03652689978480339, 0.07825598120689392, -0.02150045521557331, -0.09106548875570297, 0.03338686749339104, -0.08091454207897186, 0.053523775190114975, -0.07231594622135162, -0.038875509053468704, -0.041489120572805405, 0.005485961213707924, 0.02296208217740059, -0.015310357324779034, 0.0867748036980629], [-0.09982549399137497, 0.009376474656164646, -0.010471115820109844, 0.03189314529299736, 0.00695315096527338, 0.0013270784402266145, 0.022373167797923088, -0.05969933792948723, 0.006478922441601753, -0.07260140031576157, -0.019439756870269775, 0.0790887102484703, -0.030850974842905998, -0.0029757574666291475, 0.011303331702947617, 0.005433464422821999, -0.008261723443865776, 0.005265042185783386, -0.02393096685409546, -0.011298350989818573, 