{"hyperparams": {}, "state_dict": {"lstm.weight_ih_l0": [[0.09547197073698044, -0.04474339634180069, 0.08668002486228943, 0.018451539799571037, 0.01908966712653637, -0.08004148304462433, -0.07120971381664276, -0.0808207243680954, -0.028327852487564087, 0.04016624018549919, -0.07339175790548325], [-0.024202313274145126, -0.026996508240699768, 0.07750546932220459, 0.043276358395814896, -0.10452374815940857, 0.0501222088932991, 0.003459004685282707, 0.042059678584337234, -0.09721668809652328, -0.09095056354999542, 0.049981459975242615], [0.05591746047139168, -0.01563262566924095, 0.018646059557795525, 0.062284789979457855, -0.030892372131347656, -0.05326182022690773, 0.07445218414068222, 0.021114042028784752, -0.0017737989546731114, 0.012757405638694763, -0.025362644344568253], [-0.003702472662553191, 0.08879491686820984, 0.08760345727205276, 0.07148681581020355, 0.0363297313451767, -0.07053060084581375, -0.030848879367113113, -0.001496469951234758, 0.0011546348687261343, -0.08045736700296402, -0.06295382976531982], [-0.11523404717445374, 0.10977119952440262, -0.10434399545192719, -0.0576794296503067, -0.04883157089352608, 0.04737557843327522, 0.03891777992248535, 0.03327092155814171, -0.06501143425703049, -0.06231358274817467, -0.06330610066652298], [-0.06980551034212112, 0.03685569390654564, -0.08473610877990723, -0.05260854214429855, 0.021366477012634277, -0.017775414511561394, -0.016310371458530426, 0.06462927162647247, -0.02198132872581482, 0.06285777688026428, -0.02618265151977539], [0.022939583286643028, -0.028346959501504898, 0.007239211816340685, 0.04739395156502724, 0.037543293088674545, -0.00308339879848063, 0.012932052835822105, -0.03859282284975052, 0.06367115676403046, -0.0022720899432897568, -0.04634223133325577], [-0.11464019864797592, 0.07180307060480118, 0.08537522703409195, -0.0052457544952631, -0.06708270311355591, -0.062122322618961334, -0.01358890626579523, 0.03704173117876053, 0.04658674821257591, -0.01576952263712883, 0.05935359001159668], [0.05097002908587456, 0.10358567535877228, 0.037805262953042984, 0.03784678876399994, -0.06463513523340225, 0.08526095002889633, 0.1020001694560051, 0.10399512946605682, 0.040185749530792236, 0.060102690011262894, -0.04390531778335571], [0.046640872955322266, 0.027469102293252945, -0.08674399554729462, -0.08076906949281693, 0.04564851522445679, -0.03139393776655197, 0.09935115277767181, 0.06179949268698692, -0.006295361090451479, 0.09632603824138641, 0.03971494734287262], [0.03070090338587761, 0.04463997855782509, -0.06102563813328743, 0.044204164296388626, -0.01850079372525215, -0.037307120859622955, -0.02345132827758789, -0.01000130269676447, -0.0368177592754364, -0.021229464560747147, 0.04341350868344307], [0.08670823276042938, -0.027710119262337685, -0.04844307899475098, 0.09589089453220367, 0.035043783485889435, 0.09652654081583023, -0.058167047798633575, 0.10589282959699631, 0.08603937178850174, -0.06600658595561981, 0.039486560970544815], [0.02917088381946087, 0.025922076776623726, -0.044217679649591446, -0.04099307209253311, 0.011786479502916336, -0.03743258863687515, -0.008156759664416313, -0.08980638533830643, -0.021503908559679985, -0.07173742353916168, -0.06570229679346085], [0.01521642878651619, 0.04961444064974785, -0.029549438506364822, -0.03464039787650108, -0.06269200146198273, -0.026588309556245804, -0.0461755245923996, -0.00689498009160161, 0.06163672357797623, -0.05065891519188881, 0.02673938497900963], [-0.021806053817272186, 0.00011846593406517059, -0.023988276720046997, -0.036626338958740234, -0.006274740677326918, -0.02767431177198887, 0.012187240645289421, 0.04017204791307449, -0.022964967414736748, 0.04210309684276581, -0.015996595844626427], [-0.04173515737056732, 0.04813803732395172, 0.0919598713517189, 0.051010970026254654, 0.0901535302400589, -0.028433769941329956, -0.05099067464470863, 0.0473611019551754, -0.06710650771856308, 0.025908539071679115, -0.010611511766910553], [-0.015855876728892326, -0.024304060265421867, 0.005843783263117075, 0.0034452311228960752, 0.05560295283794403, 0.015454285778105259, 0.051691003143787384, 0.01235880795866251, -0.008452017791569233, 0.04629718139767647, 0.02283979021012783], [0.10880503803491592, -0.005014789756387472, -0.092839315533638, 0.015178297646343708, 0.08914380520582199, -0.10226930677890778, -0.023065809160470963, -0.048456814140081406, -0.04500887915492058, 0.08384820818901062, -0.03745018318295479], [-0.07639072090387344, -0.05805100128054619, 0.09200487285852432, 0.1094682440161705, -0.04927871748805046, -0.022442903369665146, -0.001268706750124693, -0.008699585683643818, -0.08728096634149551, -0.08611374348402023, 0.0076278457418084145], [0.007167775649577379, 0.0011121385032311082, -0.04755182936787605, -0.07356724888086319, 0.01776519976556301, -0.0010009828256443143, 0.0006620331550948322, 0.03131810203194618, 0.052795350551605225, 0.07120506465435028, -0.0017274848651140928], [0.061694178730249405, 0.0677734985947609, -0.034723568707704544, -0.11112005263566971, 0.06056642159819603, -0.005711933132261038, 0.08250094950199127, 0.07010217756032944, -0.03137148171663284, -0.026819845661520958, 0.07715548574924469], [-0.04668255150318146, 0.05530059337615967, 0.00939305778592825, -0.036239657551050186, 0.03750355541706085, 0.09735840559005737, 0.052317190915346146, 0.02012861706316471, 0.03376369923353195, 0.0022433700505644083, -0.04099569097161293], [-0.052643388509750366, 0.006076927296817303, 0.07649362832307816, -0.0110488785430789, -0.04609912261366844, 0.05814121291041374, -0.05892706662416458, 0.011185551062226295, 0.016575543209910393, 0.08162941038608551, -0.07153230905532837], [0.08932238817214966, 0.06151624768972397, -0.014095011167228222, -0.013726498000323772, -0.10956177860498428, 0.036906078457832336, 0.031820379197597504, -0.011151543818414211, 0.01773081347346306, -0.05343930423259735, 0.0056221806444227695], [0.02562749944627285, 0.09281127899885178, 0.11286335438489914, -0.12068037688732147, 0.04167979210615158, -0.03269729018211365, -0.08591017127037048, -0.050377409905195236, -0.021815577521920204, -0.03607785701751709, -0.035661954432725906], [0.07006341218948364, 0.029319144785404205, -0.021478287875652313, 0.06760857254266739, -0.06266895681619644, -0.04828190058469772, -0.04205464944243431, 0.03557472676038742, -0.03802084922790527, 0.04660221189260483, -0.06253790110349655], [-0.07014953345060349, -0.03861141949892044, -0.10506794601678848, 0.005775558762252331, 0.059962011873722076, 0.06591079384088516, -0.08102323859930038, -0.08411591500043869, 0.08841457217931747, 0.02038671262562275, -0.0732821673154831], [0.01445225439965725, -0.04708108305931091, 0.01036246120929718, 0.008602220565080643, 0.007916665636003017, -0.04194286838173866, 0.031289663165807724, -0.049600180238485336, -0.008493365719914436, 0.019897837191820145, 0.027696112170815468], [0.07762493193149567, -0.013492484577000141, -0.07420630007982254, -0.02748360112309456, 0.04325926676392555, 0.05767147243022919, 0.08349620550870895, 0.05242437124252319, 0.07220298796892166, 0.019103756174445152, 0.029743341729044914], [0.0270786564797163, -0.018858598545193672, -0.012500972487032413, -0.04168257489800453, 0.03884068503975868, -0.026671795174479485, 0.010229790583252907, 0.045530688017606735, 0.024215776473283768, 0.006328210234642029, 0.002284571062773466], [0.0187402181327343, -0.08217668533325195, -0.10874691605567932, 0.06547851115465164, 0.0010475153103470802, -0.07224039733409882, 0.03416873887181282, -0.0731530711054802, -0.012431498616933823, -0.06361948698759079, 0.0833701342344284], [0.014044342562556267, -0.013102001510560513, -0.08489672094583511, 0.017745768651366234, 0.05879262462258339, -0.009885979816317558, -0.04021396487951279, -0.05206621065735817, -0.017075935378670692, -0.06253819912672043, 0.04826177656650543], [-0.0758381187915802, 0.004763144068419933, 0.09448257833719254, 0.04082099720835686, 0.0029535565990954638, 0.0003148962859995663, -0.016730694100260735, 0.04385446384549141, -0.006358584854751825, 0.05067877843976021, -0.11732933670282364], [-0.014226755127310753, -0.010253746062517166, 0.06095576286315918, -0.04761558398604393, -0.02531689591705799, 0.005826450884342194, -0.06967303156852722, 0.04825683310627937, -0.0039810542948544025, 0.012444094754755497, -0.06963846832513809], [0.009003167040646076, 0.08841677010059357, -0.07791800051927567, -0.031086046248674393, 0.03687823936343193, -0.02605760656297207, 0.05287397652864456, -0.07987797260284424, 0.055225588381290436, -0.07707248628139496, 0.004911576863378286], [-0.012029209174215794, 0.028307341039180756, 0.008767981082201004, 0.03204020485281944, -0.034545548260211945, -0.026291843503713608, -0.016559649258852005, -0.059094756841659546, -0.03982091695070267, -0.026578230783343315, -0.050744976848363876], [0.03902334347367287, 0.03536457195878029, 0.025478381663560867, -0.06312798708677292, 0.0388488806784153, 0.04442353919148445, -0.0019415413262322545, 0.08555528521537781, -0.01698957197368145, -0.028665490448474884, -0.02446325495839119], [-0.01814369298517704, -5.630185114569031e-05, -0.005759575869888067, -0.015870768576860428, -0.005994576960802078, 0.03817833587527275, -0.010522968135774136, 0.005843178369104862, -0.005677950102835894, -0.007057215087115765, -0.0030574158299714327], [-0.01797248050570488, 0.03315916284918785, -0.02292739227414131, -0.05808195099234581, -0.07918402552604675, 0.04608380049467087, -0.010729207657277584, 0.018545888364315033, 0.038583122193813324, 0.02799457125365734, -0.005196781363338232], [0.0114205377176404, -0.014149005524814129, 0.019080281257629395, 0.025591587647795677, 0.01483829040080309, -0.01663629151880741, -0.030967852100729942, -0.04548211395740509, -0.0020750060211867094, 0.04722213372588158, -0.01619284600019455], [-0.08343907445669174, 0.08919047564268112, -0.08165661245584488, -0.06927851587533951, -0.03037784993648529, 0.04646308720111847, -0.05206410214304924, -0.016499696299433708, 0.022521745413541794, 0.06651724129915237, 0.01867622137069702], [-0.055182695388793945, 0.001017351751215756, 0.08935413509607315, 0.009886380285024643, -0.034263674169778824, 0.018161287531256676, -0.04368782415986061, 0.031238948926329613, 0.006424784194678068, 0.012396534904837608, 0.05451961234211922], [-0.07390514016151428, -0.035967111587524414, -0.049902401864528656, -0.03086911514401436, -0.06938299536705017, -0.055357426404953, 0.05598113685846329, -0.056204814463853836, 0.05501430854201317, 0.02037949301302433, -0.1053934246301651], [-0.08324924856424332, -0.024301650002598763, -0.008721278980374336, -0.043397240340709686, -0.06826148182153702, 0.02369607239961624, 0.06021065637469292, 0.048749834299087524, 0.02546391636133194, -0.03872835636138916, 0.07534640282392502], [0.04293820634484291, 0.004700835328549147, -0.06253422051668167, 0.06080074608325958, 0.060380224138498306, 0.0319170244038105, 0.01775532402098179, 0.02481413446366787, -0.01942501775920391, 0.07613635063171387, 0.07140420377254486], [0.06696094572544098, -0.0642356276512146, -0.01639520190656185, 0.07504365593194962, -0.07258125394582748, -0.028287753462791443, 0.04582604393362999, 0.03538815304636955, -0.03246893361210823, 0.041716739535331726, 0.0504382848739624], [0.006731582339853048, -0.08922184258699417, -0.10850708186626434, 0.0015989617677405477, -0.06423025578260422, -0.0004277510161045939, 0.07221788913011551, -0.0709519013762474, -0.03463773429393768, -0.004545997362583876, 0.01666942797601223], [0.015594800002872944, -0.012543346732854843, -0.058311283588409424, -0.07648888975381851, -0.00662836292758584, 0.08001649379730225, 0.0700390562415123, 0.00943435076624155, 0.07302853465080261, -0.066230408847332, -0.0659349337220192], [-8.601324952905998e-05, -0.048531513661146164, -0.058544937521219254, -0.07001255452632904, -0.050563447177410126, -0.08231154084205627, -0.002992721274495125, -0.01624179817736149, -0.04648842290043831, -0.008830654434859753, -0.034320078790187836], [0.09828728437423706, 0.007521047722548246, -0.0031781757716089487, 0.05742032080888748, 0.07768398523330688, 0.014305983670055866, -0.05725698545575142, 0.012235503643751144, 0.0011622519232332706, 0.033359281718730927, 0.004253811668604612], [-0.04371213540434837, 0.05365549400448799, 0.04241302236914635, -0.016709765419363976, -0.04582265764474869, -0.0386592261493206, -0.009773376397788525, 0.13431745767593384, 0.11074841022491455, 0.06995490193367004, -0.047610849142074585], [-0.03212185576558113, 0.06443952769041061, -0.028627445921301842, -0.06297339498996735, -0.03606894612312317, 0.025817789137363434, 0.020899789407849312, 0.009981028735637665, 0.009557739831507206, 0.0023683630861341953, -0.06326905637979507], [0.010249950923025608, 0.030623720958828926, -0.08587978780269623, 0.05178189277648926, 0.08324173837900162, 0.08467475324869156, 0.09670047461986542, -0.033729974180459976, 0.09913938492536545, 0.0930473804473877, 0.015603558160364628], [-0.01849023438990116, -0.00928427278995514, 0.04946819692850113, 0.04380834847688675, -0.04813667759299278, -0.033384598791599274, 0.04520793259143829, -0.041778866201639175, -0.028691360726952553, -0.011744269169867039, -0.008783075027167797], [-0.08546938002109528, 0.010222076438367367, -0.10425117611885071, -0.07411768287420273, -0.07203026115894318, -0.05761140584945679, -0.07783098518848419, 0.0406937450170517, 0.09414532780647278, -0.008702429942786694, -0.007475428748875856], [0.06093692034482956, -0.0002448309678584337, 0.06223800405859947, -0.06572825461626053, -0.03487337753176689, 0.030597539618611336, -0.04702781140804291, 0.0007488866685889661, 0.07196326553821564, 0.01453323382884264, -0.06720419228076935], [-0.05445588752627373, 0.02015119418501854, 0.0032600457780063152, -0.07640355825424194, -0.09469336271286011, -0.03481113538146019, -0.02358960174024105, -0.07757200300693512, -0.0008433316252194345, -0.0180620476603508, -0.09775932133197784], [-0.060231368988752365, -0.11142681539058685, -0.052075065672397614, 0.06556279212236404, -0.013323579914867878, -0.09073187410831451, 0.0612051896750927, 0.02667505480349064, -0.0033776545897126198, 0.07207681983709335, 0.06850592792034149], [0.010348941199481487, 0.007037659175693989, -0.021169334650039673, -0.030153580009937286, 0.012709380127489567, -0.049528568983078, 0.02574814110994339, -0.06450194865465164, 0.021745949983596802, 0.07023634016513824, 0.061398204416036606], [0.014957060106098652, 0.04578949511051178, -0.09809032082557678, 0.036531053483486176, 0.046609364449977875, -0.05957196280360222, 0.030562441796064377, -0.005973104387521744, -0.036677539348602295, -0.015660563483834267, -0.07926715165376663], [0.03465820103883743, -0.03941735997796059, -0.06507836282253265, 0.004412700422108173, 0.032888755202293396, -0.058848731219768524, -0.03270609304308891, -0.02839549258351326, -0.03172320872545242, -0.03124711662530899, -0.008234040811657906], [-0.02844543568789959, 0.0732601210474968, -0.006408507004380226, 0.03892191872000694, -0.027732279151678085, -0.0626959353685379, 0.06782492995262146, 0.09597668796777725, 0.0029467130079865456, 0.07528789341449738, 0.001696700812317431], [0.09527665376663208, -0.09099392592906952, 0.03595030680298805, 0.10322070866823196, 0.02759985625743866, 0.0085991732776165, -0.05768085643649101, 0.06602426618337631, -0.024926921352744102, -0.08867453038692474, -0.02237837202847004], [0.009847426787018776, -0.03204764053225517, -0.08172641694545746, 0.10394828021526337, 0.07494448870420456, -0.06409579515457153, -0.06365114450454712, 0.027663199231028557, -0.10162883251905441, 0.033947478979825974, -0.05237884446978569], [-0.10314743220806122, -0.051154062151908875, 0.036734145134687424, -0.039773739874362946, 0.09106174856424332, 0.039070095866918564, 0.09379398077726364, 0.013257653452455997, -0.008756603114306927, 0.020336134359240532, 0.09315825253725052], [0.01560187991708517, 0.0014604474417865276, -0.01665019430220127, -0.030608195811510086, 0.08961526304483414, -0.05443362146615982, 0.04644538089632988, 0.07947485148906708, 0.06537123769521713, -0.007517196238040924, 0.06881815195083618], [0.04335460811853409, -0.02574199065566063, -0.012435843236744404, 0.011211158707737923, 0.004036654252558947, 0.02312842570245266, 0.025585303083062172, -0.009448236785829067, 0.0016286069294437766, -0.02314656972885132, 0.014961565844714642], [-0.09741321206092834, 0.050992246717214584, -0.11121334135532379, -0.022992940619587898, -0.11521000415086746, 0.04741344228386879, 0.006017935927957296, -0.0017433327157050371, -0.02700961008667946, 0.006466622930020094, -0.034059926867485046], [0.0766492560505867, 0.08963032811880112, 0.03660660609602928, 0.06906053423881531, 0.031214065849781036, 0.13806048035621643, -0.050563495606184006, 0.018888235092163086, -0.03588063269853592, 0.07632163166999817, -0.0049713184125721455], [0.07099375873804092, 0.003085133619606495, 0.032705195248126984, -0.09223387390375137, -0.024920916184782982, 0.010137011297047138, 0.0333370678126812, -0.050065778195858, 0.04187704250216484, 0.05636439844965935, -0.018528124317526817], [0.004444735124707222, 0.012400291860103607, -0.03818201646208763, -0.006878423038870096, -0.053514834493398666, -0.03318239375948906, -0.07260418683290482, 0.045265600085258484, -0.029938403517007828, 0.03429592400789261, -0.054796695709228516], [-0.03813778609037399, 0.026869619265198708, -0.009114213287830353, 0.03637481480836868, 0.016754306852817535, 0.06586837768554688, -0.03270705044269562, 0.07203704863786697, -0.06443682312965393, -0.011839351616799831, -0.03703250735998154], [-0.00415134197100997, -0.007945933379232883, -0.08246858417987823, -0.08605345338582993, -0.008074991405010223, 0.025861937552690506, 0.031738050282001495, -0.09450638294219971, -0.033995434641838074, 0.047611188143491745, 0.1283639371395111], [-0.10120566934347153, -0.0367107130587101, 0.003551055444404483, -0.06714224815368652, -0.055309150367975235, -0.020918967202305794, -0.017891494557261467, 0.03922555595636368, -0.047693103551864624, 0.046318426728248596, 0.025310400873422623], [-0.03872862830758095, 0.001216525794006884, -0.08762718737125397, -0.010894333943724632, 0.03539140895009041, 0.01571541652083397, -0.04391276836395264, 0.013050580397248268, -0.048222221434116364, -0.03800862282514572, 0.04205010086297989], [-0.0026571843773126602, 0.07569334656000137, -0.02635188028216362, -0.04518267139792442, -0.045653559267520905, 0.05004061758518219, 0.09904786944389343, -0.04120773822069168, -0.02689720131456852, -0.08702432364225388, 0.00411164341494441], [0.05697697401046753, -0.01543822605162859, 0.0167570561170578, 0.01815340667963028, -0.07615341991186142, -0.0012183297658339143, 0.03606312721967697, -0.0727086141705513, -0.022293630987405777, -0.01813410222530365, 0.009121041744947433], [-0.006036944687366486, 0.010368499904870987, -0.03909697011113167, -0.023569628596305847, 0.029990926384925842, 0.047192640602588654, -0.002637305064126849, -0.003728987881913781, -0.042987238615751266, -0.0102523909881711, 0.049338310956954956], [0.002399122342467308, -0.004882392007857561, 0.023269526660442352, -0.05289415642619133, -0.021038122475147247, -0.004614732228219509, -0.023555196821689606, -0.019285840913653374, -0.017476588487625122, -0.03430092707276344, 0.0012802762212231755], [-0.0953410267829895, -0.033237725496292114, -0.009046371094882488, 0.06266628205776215, -0.032496362924575806, -0.053543854504823685, 0.012526541016995907, -0.08085489273071289, 0.059068482369184494, 0.015025297179818153, 0.04807364568114281], [-0.02210594154894352, 0.00758036132901907, 0.026630394160747528, -0.055954575538635254, -0.06745018064975739, -0.006269749253988266, 0.009580012410879135, 0.03507416322827339, 0.03705284371972084, -0.016742132604122162, -0.015449115075170994], [0.06453472375869751, -0.0027820433024317026, -0.07596421241760254, 0.10369834303855896, -0.1104014441370964, -0.06405768543481827, -0.011449934914708138, -0.06315349042415619, 0.05804397538304329, 0.06027115136384964, 0.0872202217578888], [0.10528575628995895, 0.08776716887950897, -0.10663376748561859, -0.012067635543644428, 0.12033499032258987, 0.08619216829538345, 0.03980359435081482, -0.12439949810504913, -0.07955079525709152, -0.011839327402412891, 0.04452911764383316], [0.011056377552449703, 0.0019462723284959793, -0.07632472366094589, -0.08919079601764679, 0.035091474652290344, 0.03171445056796074, -0.0145995719358325, 0.03382550925016403, 0.019317468628287315, 0.05178919434547424, 0.007747592870146036], [0.033113993704319, 0.01060359738767147, -0.10870639234781265, 0.06547817587852478, 0.09718787670135498, -0.0540936179459095, 0.01353936456143856, 0.05844620242714882, 0.07030756771564484, 0.0653546005487442, -0.05284123122692108], [-0.04375182092189789, 0.003688693279400468, -0.044385652989149094, -0.05087243393063545, 0.028671015053987503, 0.07938028126955032, -0.0827479213476181, -0.030583424493670464, 0.10066527873277664, -0.09275015443563461, 0.082720085978508], [-0.0596117340028286, 0.029250862076878548, -0.07517945766448975, 0.018178580328822136, -0.08971131592988968, 0.0718095526099205, 0.06553533673286438, -0.022736772894859314, 0.08338224142789841, 0.027931703254580498, 0.0913676843047142], [0.08875256776809692, 0.019972646608948708, -0.012700654566287994, -0.0510290190577507, -0.0750332921743393, 0.04391222074627876, -0.03025122545659542, 0.006401423364877701, 0.0030853941570967436, -0.045377716422080994, 0.01083752978593111], [0.06266634166240692, -0.008310054428875446, -0.017275409772992134, -0.04062720388174057, -0.03861553221940994, 0.018806692212820053, 0.06681954115629196, 0.0055113546550273895, 0.05572662875056267, -0.0016103555681183934, 0.09881480783224106], [-0.07290604710578918, 0.00525116641074419, 0.01527825091034174, -0.08108367770910263, -0.06075045093894005, 0.04304347559809685, 0.043751515448093414, 0.06696690618991852, -0.0015265099937096238, 0.056859683245420456, 0.032983146607875824], [-0.044828131794929504, -0.013213105499744415, -0.10782892256975174, -0.07493866235017776, 0.06860357522964478, 0.014040972106158733, 0.10330206900835037, 0.017787979915738106, -0.047970160841941833, 0.1007123589515686, 0.04069231078028679], [0.00790029764175415, 0.0069728996604681015, -0.010180836543440819, -0.009893856942653656, -0.003191289957612753, -0.005334663670510054, -0.017201848328113556, -0.020744550973176956, -0.015161210671067238, -0.02195919305086136, -0.0067840442061424255], [-0.06987397372722626, 0.00822595413774252, -0.007034824695438147, 0.024461952969431877, -0.01610487699508667, -0.0166414063423872, 0.011157318949699402, 0.040238287299871445, -0.03772469982504845, 0.02629864774644375, -0.017812317237257957], [-0.04147343710064888, -0.007003139238804579, 0.002495676511898637, 0.04017592966556549, 0.025875214487314224, -0.014098674058914185, 0.02377849817276001, -0.056723564863204956, -0.025143571197986603, -0.021836761385202408, -0.012964563444256783], [-0.07291967421770096, -0.018549645319581032, -0.06293493509292603, 0.03452569991350174, 0.0005228672525845468, 0.057324789464473724, 0.05805450677871704, 0.0031656003557145596, 0.08240994065999985, 0.038058578968048096, -0.08684863895177841], [-0.05270972102880478, -0.017631808295845985, 0.022526144981384277, 0.07827424257993698, -0.06545724719762802, 0.06616063416004181, 0.0638888031244278, -0.06259000301361084, -0.029226314276456833, -0.04279401898384094, 0.028385577723383904], [0.03582772985100746, 0.00045023224083706737, 0.05256318673491478, -0.056234750896692276, -0.023748360574245453, 0.1263129562139511, 0.04336726292967796, -0.018733013421297073, 0.024898290634155273, -0.0836673453450203, -0.04199039936065674], [-0.015973875299096107, 0.022587604820728302, -0.006739392876625061, 0.005196000915020704, -0.09869272261857986, 0.03969622030854225, -0.009416170418262482, 0.03445011377334595, 0.09545953571796417, 0.0006686967681162059, -0.011567213572561741], [0.09392639994621277, 0.027055557817220688, 0.06627597659826279, -0.027805276215076447, 0.06100322678685188, 0.0933748260140419, -0.08999799937009811, 0.006123867351561785, -0.061935584992170334, 0.042059123516082764, 0.035865843296051025], [0.017627418041229248, -1.0985506378347054e-05, 0.058959051966667175, -0.036057960242033005, 0.020846499130129814, -0.0007246126187965274, -0.017974333837628365, 0.02800869010388851, -0.02155901864171028, 0.012262056581676006, 0.010682852007448673], [0.04855456203222275, -0.011324356310069561, 0.03665008395910263, 0.06299802660942078, -0.05378229543566704, -0.012682630680501461, 0.02398250624537468, 0.05719209089875221, 0.05734508857131004, -0.03658084198832512, 0.04376642033457756], [-0.0072434511967003345, -0.006839354522526264, 0.00803409144282341, 0.012059406377375126, -6.076731006032787e-05, 0.0002692720736376941, 0.003681556088849902, -0.008749544620513916, 0.004298827610909939, -0.005830197595059872, -0.0018170210532844067], [0.07071264088153839, 0.034252557903528214, -0.03378622233867645, 0.002536211861297488, -0.010196689516305923, -0.0010794108966365457, -0.0013327162014320493, 0.06108112260699272, -0.0288370493799448, 0.015237723477184772, -0.006175754126161337], [-0.0277104452252388, 0.010940506123006344, -0.03215746581554413, 0.02215566486120224, 0.01828005351126194, 0.006881033070385456, -0.03730453923344612, -0.03756926953792572, -0.01940496638417244, -0.031039971858263016, 0.0024870571214705706], [0.06242327019572258, 0.06596364825963974, -0.07444177567958832, -0.06398652493953705, 0.04366738349199295, -0.04065881296992302, -0.061637211591005325, 0.0850931704044342, 0.07633082568645477, -0.005756133235991001, -0.008619584143161774], [-0.08127091079950333, 0.0548393577337265, -0.0015853132354095578, -0.03607157617807388, 0.010177788324654102, 0.0013317230623215437, -0.01545266155153513, -0.03960312530398369, 0.05825977399945259, 0.008679990656673908, 0.08738885819911957], [-0.018038172274827957, 0.025396527722477913, -0.059349432587623596, 0.05579055845737457, -0.024486158043146133, 0.010214235633611679, 0.05150419846177101, 0.05468668416142464, 0.0213948804885149, 0.0020382090006023645, 0.020737232640385628], [-0.05180836468935013, -0.027765702456235886, -0.008731650188565254, 0.012034991756081581, 0.044543441385030746, -0.0029774371068924665, -0.05018002912402153, -0.07869283854961395, 0.045598674565553665, 0.006638005841523409, 0.06491091102361679], [-0.041059937328100204, 0.0006751631153747439, -0.05381792038679123, -0.02645254321396351, -0.0666574165225029, -0.008240578696131706, 0.04978310689330101, -0.02325592190027237, -0.02098817378282547, -0.048229701817035675, -0.04597385600209236], [-0.06008542701601982, 0.011111005209386349, 0.07214395701885223, 0.01053886953741312, -0.04298791661858559, -0.001877102884463966, 0.04316972568631172, 0.06449900567531586, 0.029073361307382584, -0.041601911187171936, -0.04378446564078331], [0.03240438923239708, 0.002588815987110138, -0.03271601349115372, -0.016034947708249092, 0.07067746669054031, -0.017906131222844124, -0.03246679529547691, -0.05335841700434685, 0.07471533864736557, -0.07509546726942062, -0.060683395713567734], [0.101381316781044, 1.0812207619892433e-05, 0.0010804933262988925, 0.08726678043603897, -0.1176108792424202, 0.04712820425629616, 0.09136530011892319, 0.01093980111181736, -0.06366618722677231, 0.0811161920428276, -0.07088933140039444], [0.036635417491197586, -0.01079384796321392, -0.03621569648385048, 0.0490715317428112, -0.07032153010368347, -0.030263973399996758, 0.004938480909913778, 0.006781177595257759, 0.04307369887828827, -0.0035623086150735617, -0.0023117526434361935], [-0.018445726484060287, 0.04428979009389877, 0.044139813631772995, 0.08791061490774155, -0.0022823160979896784, 0.06480289250612259, -0.01125748548656702, 0.053682129830121994, -0.021635349839925766, -0.06441571563482285, 0.008578931912779808], [0.0011543725850060582, -0.06251394748687744, -0.020574238151311874, 0.07873113453388214, 0.047388408333063126, 0.0670824944972992, 0.06389310210943222, -0.023556172847747803, 0.011440649628639221, 0.06588511168956757, 0.0991213321685791], [0.04277747496962547, -0.014217033050954342, -0.030813125893473625, -0.02979465387761593, -0.03337198495864868, 0.0015570686664432287, 0.006883828900754452, 0.00790498498827219, 0.0023836663458496332, -0.004233068320900202, 0.012286808341741562], [0.02353760227560997, 0.04087643697857857, -0.07095956802368164, -0.09691733121871948, -0.07177114486694336, 0.018411308526992798, 0.0878058597445488, 0.0037152254953980446, 0.030046170577406883, 0.03890611603856087, 0.03303195536136627], [0.03688206523656845, 0.02933819405734539, -0.05235406011343002, 0.063735730946064, -0.037281010299921036, 0.032394737005233765, 0.021350419148802757, -0.00991169922053814, 0.03818757086992264, 0.039256319403648376, 0.018419766798615456], [0.0785306766629219, 0.07295922935009003, -0.03848736360669136, -0.11867155134677887, -0.10735489428043365, 0.014109696261584759, -0.06556044518947601, -0.052358463406562805, -0.0317128486931324, 0.06816762685775757, 0.059731774032115936], [-0.04186970368027687, 0.005258281249552965, -0.03932182490825653, 0.023832404986023903, 0.047314852476119995, 0.02765878289937973, -0.06118888780474663, -0.0728287473320961, -0.013527415692806244, -0.028199180960655212, 0.019534366205334663], [0.07663919776678085, -0.024651750922203064, 0.07972324639558792, 0.10175169259309769, 0.10568817704916, -0.07289090752601624, -0.07296978682279587, 0.06544830650091171, 0.06793491542339325, -0.10201327502727509, 0.03526804968714714], [-0.09588559716939926, -0.04978491738438606, 0.09743192046880722, 0.07995995879173279, -0.03996658697724342, -0.038328319787979126, -0.12436976283788681, 0.07180172204971313, -0.013301662169396877, -0.05483273044228554, -0.0968967080116272], [0.001618450740352273, 0.040713194757699966, -0.021981462836265564, 0.027934229001402855, -0.11112772673368454, -0.014127911068499088, -0.012599064968526363, 0.06741134077310562, 0.010505535639822483, -0.07337294518947601, -0.01884094439446926], [0.02948249690234661, -0.005781356245279312, 0.07677816599607468, 0.063046894967556, -0.03468739613890648, -0.012647181749343872, -0.04459218308329582, 0.014349141158163548, 0.04758754372596741, -0.08051017671823502, -0.02667826972901821], [-0.050611741840839386, -0.00033042166614905, 2.935763632194721e-07, -0.03429979458451271, -0.018277166411280632, 0.002685802523046732, -0.0023373900912702084, -0.004472930915653706, 0.00906221754848957, -0.00872590858489275, -0.01499723456799984], [-0.06046236678957939, -0.008797689341008663, -0.05206936597824097, -0.0411464162170887, -0.0725792646408081, -0.0539962500333786, 0.06572803854942322, 0.08467607945203781, 0.06023385748267174, -0.09707188606262207, 0.04391971603035927], [-0.059593118727207184, -0.01239023171365261, -0.06163851544260979, -0.03474068641662598, -0.08470559865236282, 0.07154211401939392, 0.08833656460046768, 0.05824419856071472, -0.026543980464339256, 0.09665079414844513, 0.05219847708940506], [-0.04253894090652466, -0.030529499053955078, 0.07838154584169388, -0.009810889139771461, 0.08871874958276749, -0.04969416931271553, -0.0038731852546334267, 0.0012404995504766703, 0.029752952978014946, -0.020918479189276695, -0.018996642902493477], [-0.11531518399715424, -0.018177365884184837, -0.11705359816551208, -0.07702673971652985, -0.13646283745765686, -0.08929058909416199, -0.10679846256971359, 0.06793372333049774, -0.0008817348862066865, 0.04436422884464264, -0.04640469327569008], [-0.15109878778457642, -0.013317770324647427, -0.038875218480825424, -0.0742732360959053, -0.18168550729751587, -0.021116599440574646, -0.03789347782731056, 0.030650237575173378, 0.025581330060958862, 0.04974498972296715, 0.06799892336130142], [-0.041445232927799225, 0.03878187760710716, 0.0875619575381279, -0.05671493336558342, -0.09000225365161896, 0.10564803332090378, 0.03297673538327217, 0.10595578700304031, -0.10256774723529816, -0.0903521254658699, 0.025748474523425102], [0.09799782186746597, -0.007840610109269619, 0.16655899584293365, 0.08644910901784897, 0.07754504680633545, 0.01061704009771347, -0.06149057298898697, 0.04975881800055504, 0.054898496717214584, -0.060838423669338226, 0.1034984290599823], [-0.17612941563129425, -0.028239496052265167, -0.14148779213428497, -0.08858013153076172, -0.134142205119133, -0.05817561224102974, -0.03911035507917404, -0.026499081403017044, 0.048052702099084854, 0.10112451761960983, -0.08456382900476456], [-0.029785646125674248, 0.07814011722803116, -0.1046694964170456, -0.05877196788787842, 0.039081547409296036, -0.015153974294662476, -0.07783446460962296, 0.0033018486574292183, -0.020218500867486, -0.08712209761142731, 0.01141664944589138], [0.11708570271730423, 0.10839366912841797, 0.04238740727305412, -0.04093996435403824, 0.11424709856510162, 0.04164669290184975, 0.017573708668351173, 0.059995103627443314, -0.029330438002943993, 0.002836880274116993, 0.06121880188584328], [-0.10281841456890106, -0.0687464252114296, -0.10616837441921234, -0.1150786504149437, 0.0239464920014143, 0.04370276257395744, 0.05128581449389458, -0.05933210626244545, -0.06423936784267426, 0.08107629418373108, -0.03447290137410164], [0.001798598445020616, 0.01985977217555046, 0.15818220376968384, -0.009865904226899147, 0.17252463102340698, -0.09456344693899155, 0.07241316884756088, -0.04189414903521538, 0.011454612948000431, 0.07581207156181335, 0.020252536982297897], [-0.1544952392578125, -0.03823143243789673, 0.017754901200532913, 0.021008901298046112, -0.011120030656456947, 0.0659656748175621, 0.05669417232275009, 0.056002743542194366, -0.016187338158488274, 0.020505515858530998, -0.08249355852603912], [0.06872637569904327, -0.010309129022061825, -0.010834544897079468, 0.017187396064400673, 0.05394640564918518, -0.07509186863899231, 0.06909330189228058, -0.03846394643187523, -0.05897904187440872, 0.003100318368524313, -0.015539905987679958], [-0.17928119003772736, 0.020743057131767273, -0.0598357617855072, -0.1264069676399231, -0.13198280334472656, -0.06496010720729828, -0.07252473384141922, 0.02333185449242592, 0.04283510893583298, -0.07632888108491898, 0.07766977697610855], [-0.043639108538627625, -0.05213112756609917, 0.0210952777415514, 0.11470738798379898, -0.04137413203716278, -0.009600367397069931, 0.02393508329987526, -0.014689628034830093, 0.007963089272379875, -0.056369803845882416, -0.11051560193300247], [-0.08691886067390442, 0.0863986387848854, 0.10517255961894989, 0.09586795419454575, 0.02677234448492527, -0.09513872861862183, -0.1037030890583992, 0.003802022896707058, 0.056832458823919296, -0.1182311475276947, 0.09505893290042877], [-0.10683503746986389, 0.00045188507647253573, -0.0016044408548623323, 0.10600981116294861, -0.09158606827259064, -0.004873091820627451, 0.000496966764330864, 0.10598339885473251, -0.11413786560297012, -0.053071558475494385, 0.08345438539981842], [0.14805980026721954, 0.08284585177898407, 0.058040790259838104, 0.1808725893497467, 0.08703913539648056, -0.010506299324333668, -0.06519924104213715, -0.05578946694731712, -0.07062116265296936, 0.09620821475982666, -0.056317295879125595], [0.017163312062621117, 0.058982785791158676, -0.0783548504114151, -0.0078081246465444565, 0.018829401582479477, 0.03906622156500816, -0.04785168543457985, -0.03146033734083176, 0.08126119524240494, -0.050480734556913376, 0.024140778928995132], [0.04714766889810562, 0.06524751335382462, 0.10578618943691254, 0.18280993402004242, -0.02227381430566311, -0.10815561562776566, -0.00275317276827991, 0.01862550899386406, -0.07981635630130768, 0.07843377441167831, 0.0569191537797451], [0.04872661828994751, -0.04367126151919365, -0.029158880934119225, 0.016936736181378365, 0.17230843007564545, -0.06610643863677979, 0.06551864743232727, -0.09514176845550537, 0.02736864984035492, 0.007249971851706505, 0.08430242538452148], [0.06941547989845276, 0.007116737775504589, 0.027725594118237495, -0.10868765413761139, -0.10419145226478577, -0.0760779082775116, -0.023052852600812912, 0.05302909389138222, 0.10999143123626709, -0.022495314478874207, -0.007652767468243837], [-0.05055845528841019, -0.051840972155332565, 0.06609543412923813, -0.14073330163955688, -0.09019042551517487, -0.11806877702474594, 0.09013126790523529, 0.04814435541629791, -0.10362525284290314, 0.015478379093110561, -0.04329278692603111], [-0.004270654637366533, -0.02328920178115368, 0.09328371286392212, 0.050758909434080124, -0.11400486528873444, -0.00047077768249437213, 0.07325107604265213, 0.11651835590600967, 0.053573496639728546, 0.10141537338495255, -0.05279592424631119], [0.10667561739683151, -0.07878664880990982, 0.10818832367658615, 0.03961824253201485, 0.18880999088287354, 0.06002519652247429, -0.0005786698311567307, 0.05273490399122238, 0.053442664444446564, -0.046390075236558914, -0.033932529389858246], [0.05281386151909828, 0.05355999991297722, 0.08133703470230103, 0.0881713405251503, 0.03557409718632698, 0.07426619529724121, -0.09812753647565842, 0.08887162059545517, 0.07697374373674393, -0.067361019551754, -0.04693428426980972], [-0.11244799941778183, -0.005966441240161657, -0.15394972264766693, -0.018219860270619392, -0.0835801512002945, 0.01943572238087654, 0.016536017879843712, -0.01788749359548092, 0.06300970166921616, -0.10291771590709686, 0.021396324038505554], [-0.014545336365699768, 0.015583135187625885, 0.04960697889328003, -0.08339643478393555, 0.004052234347909689, -0.05538323521614075, 0.042984262108802795, -0.09685470908880234, 0.05681132152676582, 0.12315287441015244, -0.06931853294372559], [0.06292297691106796, -0.031201042234897614, 0.061217229813337326, 0.120871901512146, 0.04565010964870453, -0.025800351053476334, -0.09444758296012878, -0.02331710234284401, -0.034767452627420425, 0.006736396811902523, -0.023162392899394035], [0.0067277769558131695, 0.06220850348472595, 0.047483496367931366, -0.04144293814897537, 0.039628274738788605, -0.027355074882507324, 0.08974757790565491, 0.08566265553236008, 0.008122211322188377, -0.09703296422958374, 0.0006312336772680283], [0.01209790725260973, 0.009877422824501991, 0.07422171533107758, 0.061011914163827896, 0.10663637518882751, 0.026705700904130936, 0.06777777522802353, 0.03977005183696747, -0.09001225978136063, 0.04993671551346779, -0.08316461741924286], [0.10004419833421707, -0.0022304824087768793, -0.015379040502011776, 0.019951939582824707, -0.011743384413421154, -0.027949189767241478, -0.06728541851043701, 0.04981706663966179, 0.09065839648246765, -0.03218590468168259, -0.040517810732126236], [0.18030527234077454, 0.12503044307231903, 0.025932352989912033, 0.05808652937412262, 0.1174057275056839, -0.05422937497496605, -0.05359683558344841, -0.07841778546571732, -0.06452775001525879, 0.09520898014307022, -0.012536981143057346], [0.014676883816719055, -0.0214996337890625, -0.003128079464659095, 0.06122734770178795, -0.004078933037817478, 0.010198846459388733, 0.06658124178647995, 0.022842684760689735, 0.003533954732120037, -0.0802517905831337, -0.04117490351200104], [-0.17793208360671997, 0.05253171920776367, 0.02588939666748047, 0.009084378369152546, -0.16631251573562622, -0.0817524790763855, 0.02761853300035, 0.00950927659869194, -0.04242636635899544, 0.1253875494003296, -0.10944542288780212], [0.18582764267921448, -0.05584866553544998, 0.06647399067878723, 0.10589667409658432, 0.11062552779912949, -0.02749507687985897, 0.062049537897109985, 0.03429814428091049, -0.046327024698257446, -0.021465616300702095, 0.09852291643619537], [-0.012207843363285065, -0.003072681138291955, 0.15195457637310028, -0.015765059739351273, 0.1536639779806137, 0.07146436721086502, -0.06049900874495506, -0.0302044115960598, -0.07700763642787933, 0.05711299180984497, 0.07305607199668884], [0.09024246037006378, 0.05455123260617256, 0.029460730031132698, -0.061615485697984695, -0.11588151752948761, -0.07974692434072495, -0.06646186858415604, -0.016856592148542404, 0.07980116456747055, 0.04436948150396347, -0.04679650068283081], [0.1252131313085556, 0.06458154320716858, 0.012129608541727066, 0.1103518009185791, -0.0794873833656311, -0.08221632242202759, -0.12596257030963898, 0.06745385378599167, -0.03237099200487137, 0.04506859928369522, 0.008068817667663097], [0.09907177835702896, 0.017185943201184273, -0.016683893278241158, -0.055703695863485336, 0.023556850850582123, -0.10172632336616516, -0.05689803510904312, 0.06876611709594727, 0.059828709810972214, -0.10629633814096451, 0.046341072767972946], [-0.04277767241001129, -0.0995369479060173, -0.03581097722053528, 0.10617507249116898, 0.14999496936798096, 0.0905146598815918, 0.040987469255924225, 0.05424048751592636, -0.07681949436664581, -0.04585522413253784, 0.09343818575143814], [-0.04108135402202606, -0.012692649848759174, -0.12141440808773041, 0.005026870872825384, 0.0730854719877243, -0.0865195021033287, -0.0856141746044159, 0.09560928493738174, -0.00996997021138668, -0.0647001639008522, 0.015629073604941368], [-0.16787932813167572, 0.05636325478553772, 0.016824688762426376, -0.0012465917970985174, -0.030733462423086166, -0.07576685398817062, -0.0372265987098217, -0.0931316465139389, -0.014399580657482147, 0.07594233006238937, -0.04099093750119209], [0.013998004607856274, -0.01083996333181858, 0.03831466659903526, -0.15369120240211487, -0.166669100522995, 0.018438449129462242, 0.004007810726761818, 0.08054103702306747, -0.11535951495170593, -0.09349996596574783, -0.011002331040799618], [-0.08222124725580215, -0.09308294951915741, 0.018461525440216064, 0.1020951196551323, 0.060469772666692734, 0.09124518930912018, -0.014464999549090862, -0.009913294576108456, -0.010192104615271091, 0.0107434606179595, 0.029514426365494728], [-0.13546177744865417, 0.01881956122815609, 0.024113180115818977, -0.10003972053527832, -0.020165525376796722, -0.031973812729120255, 0.0417708158493042, 0.025760825723409653, -0.016865145415067673, 0.016418034210801125, 0.03465607017278671], [-0.0712025910615921, 0.037730515003204346, -0.03832251578569412, 0.146808922290802, 0.06230122596025467, -0.019011257216334343, 0.09803181886672974, -0.1118500754237175, 0.005925796926021576, -0.053654566407203674, -0.07551879435777664], [0.03845089301466942, -0.05050205439329147, 0.04702083393931389, 0.06091875582933426, -0.03031241148710251, -0.019485753029584885, -0.0715099424123764, 0.04692688211798668, -0.010146155022084713, 0.04478386044502258, -0.10452780872583389], [0.05350707098841667, -0.029137497767806053, -0.10588300228118896, -0.16008800268173218, -0.1435641646385193, -0.05458623170852661, 0.03807511180639267, -0.04979211464524269, -0.07688611000776291, -0.041451502591371536, 0.08019259572029114], [0.14553368091583252, -0.05917404592037201, 0.15795184671878815, 0.10511802136898041, 0.16530145704746246, 0.09117209911346436, -0.01884216070175171, 0.06893206387758255, -0.11289270222187042, -0.004627260845154524, 0.05966678634285927], [0.14933103322982788, 0.09980657696723938, 0.1050630584359169, 0.03677132725715637, 0.001990907359868288, -0.00037096443702466786, 0.054427359253168106, -0.1064084991812706, 0.004881208296865225, 0.0068946885876357555, 0.07748401165008545], [-0.048018671572208405, -0.0818890929222107, 0.015566827729344368, -0.13776332139968872, -0.014047002419829369, 0.006989967543631792, 0.10286762565374374, 0.03466484695672989, -0.08251677453517914, 0.017630400136113167, -0.11040709912776947], [0.15677662193775177, -0.05680398270487785, 0.07585100084543228, 0.1566154509782791, 0.1661340296268463, -0.05030160769820213, 0.0444507896900177, -0.011928288266062737, 0.009075654670596123, 0.11075235903263092, 0.029942981898784637], [-0.13534899055957794, 0.08901390433311462, 0.03198394179344177, 0.06262969225645065, -0.032646819949150085, -0.04021700099110603, 0.04296441748738289, 0.0001827369851525873, 0.00786757841706276, -0.011182285845279694, -0.05682257562875748], [-0.17479462921619415, 0.06261149793863297, 0.004056729841977358, -0.14517855644226074, -0.11210159957408905, 0.015592167153954506, -0.056325074285268784, -0.07642259448766708, 0.010297832079231739, -0.04285985976457596, -0.06950339674949646], [0.03621507063508034, 0.00959246139973402, 0.05693676322698593, 0.14071647822856903, 0.017588777467608452, 0.06664412468671799, -0.0873018354177475, 0.039542268961668015, 0.055720455944538116, -0.1188134104013443, 0.044424351304769516], [0.011821553111076355, 0.023721881210803986, 0.05325422063469887, 0.1238221600651741, 0.08122891187667847, 0.043614741414785385, 0.05103476718068123, -0.09524469077587128, -0.060790661722421646, -0.09514814615249634, 0.0007600329117849469], [-0.03188686445355415, 0.01845637336373329, -0.0717872828245163, -0.030573174357414246, 0.08124230802059174, 0.007364735007286072, 0.02810456044971943, -0.0026481521781533957, -0.007052621804177761, 0.05249201878905296, 0.06257008016109467], [-0.0047493912279605865, -0.005464018322527409, -0.06366858631372452, -0.13274498283863068, -0.12514808773994446, -0.02020121179521084, -0.06774135679006577, 0.03724716603755951, 0.10620027035474777, 0.013456190936267376, 0.08970073610544205], [-0.1506713181734085, -0.036854397505521774, -0.18811406195163727, -0.2066740244626999, -0.004618717823177576, -0.04443252459168434, -0.062300898134708405, -0.0004136417992413044, 0.04151679202914238, 0.004411898087710142, -0.036289557814598083], [-0.1201089471578598, -0.0736130103468895, -0.16392894089221954, -0.0009950802195817232, -0.032520610839128494, -0.1061101034283638, 0.07117445766925812, 0.09997962415218353, -0.06344295293092728, -0.08116795867681503, 0.022624410688877106], [-0.06782945990562439, 0.05621785297989845, -0.040373921394348145, -0.03818734735250473, -0.14086711406707764, 0.037423502653837204, -0.015011373907327652, -0.010488987900316715, -0.10257145017385483, -0.01973474957048893, -0.10345803946256638], [-0.05852949246764183, -0.08995898813009262, 0.023339560255408287, -0.018671773374080658, -0.019661996513605118, 0.04360157996416092, -0.011664098128676414, 0.033432647585868835, -0.10416051000356674, 0.03551933169364929, 0.016400430351495743], [0.013000959530472755, 0.07490798830986023, 0.13198070228099823, -0.03752369061112404, -0.09155772626399994, 0.10096283257007599, 0.011004019528627396, 0.10379597544670105, -0.0668981671333313, 0.03959503769874573, -0.09728065133094788], [-0.0590214803814888, -0.11731912940740585, -0.06307918578386307, -0.10181543231010437, -0.16354426741600037, -0.0066443197429180145, 0.04031161591410637, 0.000968371401540935, -0.01654851622879505, 0.11289220303297043, -0.07625576853752136], [0.0855417251586914, -0.0018409776967018843, 0.06188337877392769, -0.011258925311267376, 0.1000140979886055, 0.0021266471594572067, -0.04443992301821709, 0.07120668143033981, 0.06914997845888138, 0.09287278354167938, -0.007539085112512112], [0.01909703016281128, -0.0025689234025776386, 0.03734080493450165, -0.06766755878925323, 0.04988493397831917, 0.08663807064294815, 0.12218078225851059, -0.011664596386253834, -0.06937060505151749, 0.08138228207826614, 0.019297748804092407], [-0.003972145263105631, 0.01784801296889782, -0.06698306649923325, -0.08350184559822083, 0.09544141590595245, -0.0009078144212253392, -0.048768747597932816, -0.0850488543510437, -0.07721128314733505, -0.01948639750480652, 0.025580840185284615], [-0.021886158734560013, -0.008022118359804153, -0.06154574453830719, -0.00516158901154995, -0.07246294617652893, 0.0035371670965105295, 0.011431876569986343, -0.0005470087635330856, -0.02734672650694847, -0.02518383041024208, 0.04703318700194359], [-0.05498156324028969, 0.055865198373794556, -0.03651569411158562, -0.012210897170007229, -0.02769552916288376, -0.03659633919596672, 0.048873256891965866, -0.010930241085588932, -0.013810735195875168, -0.06019734963774681, 0.003888592356815934], [0.029989399015903473, 0.10169704258441925, 0.09254785627126694, 0.05417126044631004, -0.06692288815975189, -0.021523669362068176, 0.11928439885377884, 0.021911753341555595, 0.09527244418859482, 0.06338008493185043, 0.013469264842569828], [-0.07247252017259598, 0.023700358346104622, -0.02421809919178486, -0.058174017816782, 0.006614626385271549, 0.003158247796818614, 0.020211048424243927, -0.027735838666558266, 0.026175441220402718, 0.003692765487357974, -0.011363562196493149], [0.01963183283805847, -0.0008260535541921854, -0.035390712320804596, 0.04063192009925842, -0.011706462129950523, 0.052841391414403915, -0.010433202609419823, -0.034392040222883224, -0.07589404284954071, 0.0051380330696702, 0.04853455722332001], [0.009069690480828285, 0.059604838490486145, -0.11849328875541687, 0.0661725252866745, -0.060273438692092896, -0.029962681233882904, -0.02997719682753086, 0.02352430485188961, -0.05767393484711647, -0.0705755278468132, -0.017862139269709587], [-0.004711160436272621, 0.09622471034526825, 0.024422282353043556, -0.09783205389976501, 0.06827108561992645, 0.08515266329050064, 0.10101039707660675, 0.08742079883813858, -0.07358449697494507, 0.0769280195236206, 0.08255249261856079], [0.08342207968235016, 0.016344385221600533, -0.011206762865185738, -0.02238149382174015, 0.09022888541221619, -0.057836323976516724, -0.03211861476302147, -0.05502679571509361, 0.035901885479688644, -0.03494129329919815, -0.04701853543519974], [0.03193162754178047, 0.010087752714753151, 0.08096256852149963, -0.03904829919338226, 0.08296627551317215, -0.010724508203566074, 0.07407979667186737, 0.031836993992328644, -0.01767801120877266, -0.023251740261912346, -0.0031027228105813265], [-0.10322835296392441, 0.007598428521305323, 0.02996349334716797, -0.11043111979961395, -0.10160212218761444, 0.0370221883058548, 0.08642058819532394, -0.07389487326145172, 0.01872236654162407, 0.09888160228729248, -0.0073141553439199924], [0.0011207141214981675, -0.035855550318956375, -0.0653841644525528, -0.011943690478801727, 0.016665251925587654, -0.05688106268644333, 0.04427945986390114, -0.014926750212907791, -0.06591270118951797, 0.05373167619109154, 0.005694522988051176], [-0.015574858523905277, 0.03768417611718178, 0.008757034316658974, 0.03928559273481369, -0.025817034766077995, -0.0607774443924427, 0.00969880260527134, 0.0185844823718071, 0.006693607661873102, -0.06665411591529846, 0.04052681848406792], [-0.010418672114610672, -0.002326510613784194, -0.03756687790155411, 0.013593198731541634, 0.005553469993174076, 0.00019597835489548743, -0.01748943328857422, -0.02173721231520176, 0.011853176169097424, 0.032250117510557175, -0.01720193773508072], [0.002112550660967827, -0.009005856700241566, 0.07423334568738937, -0.10082338005304337, 0.08918485790491104, 0.06331918388605118, 0.06286250799894333, 0.09405817836523056, -0.055436551570892334, -0.11641531437635422, 0.033071987330913544], [-0.014743305742740631, 0.012783505953848362, 0.007641245611011982, -0.013178836554288864, 0.04434049502015114, 0.036395568400621414, 0.004353476222604513, 0.046074993908405304, 0.0403711311519146, 0.03140496462583542, -0.026245122775435448], [-0.11423379927873611, 0.0295088030397892, 0.10377830266952515, -0.1157752200961113, -0.10714097321033478, -0.033534225076436996, -0.10456234961748123, 0.06949609518051147, -0.053218550980091095, 0.0559752956032753, 0.017697880044579506], [0.07415314763784409, 0.0280669666826725, -0.045950911939144135, 0.09152600169181824, -0.04435281455516815, 0.12204974889755249, -0.07600130140781403, 0.09953712671995163, -0.05889511480927467, 0.04624635726213455, 0.045189812779426575], [-0.07826970517635345, -0.0016467751702293754, -0.02888481505215168, -0.06594403833150864, -0.04523313418030739, 0.029115455225110054, -0.01869462989270687, 0.014817271381616592, 0.01366623304784298, 0.003629476297646761, -0.011729883961379528], [0.058958448469638824, -0.04208214208483696, 0.047594547271728516, 0.07553447037935257, 0.08760109543800354, 0.03970668837428093, -0.041342128068208694, -0.006143386010080576, 0.03172263503074646, -0.05370618775486946, -0.05747444927692413], [-0.028895767405629158, 0.04691467434167862, 0.041820283979177475, -0.022031687200069427, -0.06205945834517479, -0.04824277013540268, -0.025995688512921333, 0.012723293155431747, -0.013878395780920982, -0.09340609610080719, 0.09698386490345001], [-0.00882641226053238, 0.0035599363036453724, 0.058837972581386566, -0.01413349062204361, 0.017435884103178978, 0.038281768560409546, 0.10146486759185791, 0.07408521324396133, 0.09615381807088852, -0.05649932101368904, -0.06647983193397522], [-0.0013874011347070336, 0.04323944076895714, -0.012660647742450237, 0.023124083876609802, 0.09053013473749161, -0.002594492631033063, -0.0477328822016716, -0.06696222722530365, 0.06194455921649933, 0.03066439926624298, -0.023946037515997887], [2.070685150101781e-05, -0.08815130591392517, -0.02393924817442894, 0.10852459818124771, 0.00032171281054615974, 0.08702635765075684, -0.06876529008150101, 0.04619301110506058, 0.10675851255655289, 0.008656787686049938, -0.0484471470117569], [-0.05578668415546417, 0.015457610599696636, 0.03312035650014877, 0.09223484992980957, 0.01411525160074234, 0.028326556086540222, -0.013722936622798443, -0.058983754366636276, 0.01428217813372612, 0.06445379555225372, -0.025078076869249344], [0.06990841031074524, 0.08645216375589371, 0.03856310620903969, 0.0012717520585283637, -0.11395668238401413, 0.05026475712656975, -0.022968517616391182, -0.08481768518686295, 0.04378765448927879, 0.10036350786685944, 0.08575177192687988], [0.0025404230691492558, 0.012019295245409012, -0.012734045274555683, 0.0017167857149615884, 0.012683596462011337, -0.00501381978392601, -0.027669526636600494, -0.03376090154051781, 0.007339055649936199, 0.003131554927676916, 0.025538723915815353], [0.013304640538990498, -0.010955356992781162, -0.019639745354652405, 0.01756245270371437, -0.048207417130470276, 0.07868582010269165, 0.041939832270145416, 0.05402573198080063, -0.005981174297630787, -0.058729950338602066, -0.017393803223967552], [-0.020058896392583847, -0.017437633126974106, 0.021882617846131325, -0.008398838341236115, -0.061428334563970566, -0.03373127803206444, -0.001612930791452527, 0.03275720775127411, -0.014697869308292866, 0.019070379436016083, 0.03356074169278145], [-0.11368921399116516, -0.02335556223988533, 0.057298142462968826, 0.053542446345090866, 0.012152831070125103, 0.010812330059707165, 0.020854532718658447, 0.03191342204809189, 0.03697797656059265, 0.01080496795475483, 0.0015279510989785194], [0.03677248954772949, -0.016836585476994514, 0.004945090040564537, -0.0763692706823349, -0.07465659826993942, 0.05642476677894592, 0.06348802894353867, -0.07486807554960251, -0.055738259106874466, -0.009951846674084663, 0.059520043432712555], [-0.011994153261184692, -0.0021931070368736982, 0.06851676106452942, 0.102278932929039, 0.041885897517204285, 0.12697073817253113, 0.03002799116075039, 0.022861184552311897, 0.05410243198275566, -0.07261630147695541, -0.059004295617341995], [-0.08561739325523376, 0.02885054238140583, -0.0653507336974144, 0.020437967032194138, 0.0021428053732961416, 0.06218300759792328, -0.02482510171830654, -0.038442324846982956, 0.019927991554141045, 0.08147597312927246, 0.012121548876166344], [0.021292956545948982, 0.036111634224653244, 0.07688117772340775, 0.02431296743452549, -0.08314458280801773, 0.01783854328095913, 0.0922217071056366, 0.08991717547178268, -0.02029688097536564, 0.046868663281202316, 0.08584345132112503], [-0.03761696442961693, 0.017542323097586632, -0.036287691444158554, 0.0007936756010167301, -0.010513285174965858, -0.01700637675821781, 0.009391671977937222, 0.0494900643825531, -0.021460380405187607, -0.013819285668432713, -0.0660766139626503], [0.06087543070316315, -0.01972152665257454, -0.07383228838443756, 0.07303775101900101, 0.09359894692897797, -0.03323836252093315, 0.002635001437738538, 0.02875545248389244, -0.009566199965775013, 0.018966203555464745, 0.0012282091192901134], [-0.029205041006207466, -0.00805808324366808, -0.029137302190065384, -0.02302868850529194, -0.02808404341340065, 0.014488529413938522, 0.013056160882115364, -0.013926142826676369, -0.016725925728678703, 0.002307615475729108, 0.006235872860997915], [0.01029935758560896, 0.026686839759349823, -0.07097193598747253, -0.07661565393209457, -0.06669790297746658, 0.006295379251241684, 0.005066349171102047, 0.07096488773822784, 0.0031182265374809504, 0.05517984926700592, -0.0833180695772171], [0.0037498727906495333, 0.0018214380834251642, 0.02581693045794964, 0.0024404339492321014, 0.011446112766861916, 0.020131437107920647, 0.04083671048283577, 0.005076494533568621, -0.011767450720071793, 0.05309143289923668, 0.0009404781740158796], [0.003959530033171177, -0.0406724214553833, 0.017835386097431183, -0.02464783564209938, 0.028401071205735207, -0.07157591730356216, 0.015595155768096447, 0.06852765381336212, -0.0783233642578125, -0.08494175225496292, 0.024876177310943604], [0.10481742024421692, 0.018361158668994904, -0.10445809364318848, -0.10684450715780258, 0.008424481377005577, 0.08754055947065353, -0.0058928076177835464, -0.06568504124879837, 0.0042419531382620335, -0.06039877608418465, 0.02604597993195057], [-0.011732317507266998, 0.038053303956985474, 0.03148908540606499, -0.02799849398434162, 0.004500231239944696, 0.005401087459176779, -0.028398726135492325, 0.06182660907506943, 0.023264087736606598, -0.004876321647316217, 0.015982037410140038], [-0.06838501244783401, -0.045478638261556625, 0.08757121115922928, -0.030097540467977524, -0.024941394105553627, -0.05735049024224281, 0.07203644514083862, -0.06739138066768646, 0.02472652867436409, 0.03994298726320267, -0.05422919616103172], [0.07888756692409515, -0.00039299781201407313, 0.06816001981496811, 0.02434592694044113, 0.08337529748678207, -0.025341138243675232, -0.05049653351306915, -0.0036104158498346806, 0.05115453153848648, -0.04015287384390831, 0.006866787560284138], [-0.007240909151732922, -0.024874994531273842, 0.033291615545749664, -0.036064889281988144, 0.003209424437955022, 0.047934822738170624, -0.0792236477136612, -0.04257482290267944, 0.05486498773097992, -0.03247100114822388, 0.06853939592838287], [-0.01703972928225994, 0.04481378197669983, -0.02178734540939331, -0.08679736405611038, -0.07036834955215454, 0.049923527985811234, 0.06592068821191788, 0.01080414280295372, -0.04535367712378502, 0.09513672441244125, -0.03342919796705246], [-0.017561428248882294, 0.03440963104367256, 0.10917382687330246, -0.012943117879331112, -0.01860128715634346, 0.028300432488322258, 0.08391468226909637, -0.06990815699100494, -0.014515064656734467, 0.02411031536757946, 0.0674658715724945], [0.09138854593038559, 0.014347393997013569, 0.03576379269361496, 0.0749603733420372, -0.007903826422989368, -0.03184060752391815, -0.04999925568699837, -0.03664785996079445, 0.03257354721426964, -0.000631430244538933, -0.053242817521095276], [0.0009515487472526729, 0.001937157823704183, 0.031709663569927216, 0.0680786520242691, 0.060024019330739975, 0.10653640329837799, 0.013365862891077995, -0.05988314002752304, 0.004870491102337837, -0.0006274242768995464, -0.043837931007146835], [-0.019437385722994804, -0.010715309530496597, 0.09561465680599213, -0.043143343180418015, -0.12106577306985855, -0.04188814386725426, -0.006373553536832333, 0.04589883238077164, -0.044080596417188644, 0.12117031961679459, 0.0473044253885746], [-0.007964990101754665, 0.003416983876377344, 0.008089937269687653, 0.04649053141474724, 0.009853516705334187, 0.004567916039377451, -0.013717456720769405, -0.011433238163590431, 0.009801357984542847, 0.0019308245973661542, -0.00041719243745319545], [-0.007493722718209028, -0.034108396619558334, 0.03682541847229004, 0.0851849839091301, 0.0763871893286705, 0.10502076148986816, -0.05034640058875084, 0.055658016353845596, 0.07842249423265457, 0.12463650107383728, 0.04378628730773926], [0.03621441125869751, 0.010265540331602097, 0.017507990822196007, -0.04926122725009918, 0.0029783148784190416, -0.03593907877802849, 0.023590222001075745, -0.07812177389860153, 0.041034139692783356, -0.024976268410682678, -0.04335692152380943], [0.022747088223695755, 0.04731143265962601, 0.003543613478541374, -0.10832390189170837, -0.08088213205337524, 0.08463381975889206, -0.018840501084923744, 0.060860514640808105, 0.03210880979895592, -0.08770185708999634, 0.06283776462078094], [-0.0563034825026989, -0.019839100539684296, 0.026235606521368027, -0.01127584744244814, -0.033529575914144516, -0.03077078051865101, -0.04862336069345474, -0.053496647626161575, -0.02163039706647396, -0.005723954178392887, 0.028470708057284355], [0.06388714909553528, -0.019263947382569313, 0.0785374641418457, 0.047030434012413025, -0.04675476998090744, -0.05785103142261505, -0.04419878497719765, 0.047836918383836746, 0.05169904604554176, 0.07876422256231308, 0.018692633137106895], [-0.026145435869693756, -0.02471333183348179, -0.10335222631692886, -0.07902511954307556, -0.013828366063535213, -0.06405409425497055, -0.06356324255466461, 0.09456001222133636, 0.07957817614078522, 0.05310371145606041, 0.08212762326002121], [0.04583923518657684, 0.030274277552962303, 0.06786077469587326, 0.0372031033039093, -0.02694658935070038, 0.008353594690561295, 0.07312121987342834, -0.022491438314318657, -0.06612727046012878, -0.05757159739732742, 0.06500732898712158], [-0.1099257692694664, -0.019811872392892838, -0.06372936815023422, 0.05302377790212631, -0.03213854879140854, -0.03593430295586586, -0.07478521764278412, 0.0654754713177681, -0.030113039538264275, -0.05931975692510605, -0.036888159811496735], [-0.03914545103907585, -0.007827642373740673, -0.048892538994550705, 0.005850157234817743, 0.04326684772968292, 0.0037498530000448227, -0.021571362391114235, -0.025611568242311478, -0.0005509986076503992, -0.02563665434718132, 0.027784554287791252], [-0.06555745005607605, 0.07132910192012787, -0.054983869194984436, -0.00042334041791036725, -0.0665389820933342, 0.04483747482299805, 0.08395256847143173, -0.034300547093153, 0.016552049666643143, -0.08323068171739578, -0.010637876577675343], [-0.0841865986585617, 0.048049524426460266, -0.02473832666873932, 0.03186871483922005, 0.01647423394024372, 0.09256353974342346, -0.05244991183280945, 0.014659215696156025, -0.003250853391364217, 0.03537798672914505, 0.004234063904732466], [0.06794442236423492, 0.03225226327776909, 0.013477018103003502, 0.04675113037228584, 0.07393685728311539, 0.0320499949157238, -0.0358038991689682, -0.047338128089904785, 0.0969347208738327, 0.05637318268418312, 0.022756898775696754]], "lstm.weight_hh_l0": [[-0.06501217931509018, 0.03365551307797432, 0.024690261110663414, -0.031634967774152756, 0.06518441438674927, 0.0002356194017920643, -0.02704387903213501, 0.04163019731640816, 0.02815234661102295, 0.04181313142180443, -0.014744609594345093, -0.041169051080942154, -0.045709289610385895, 0.0006609971169382334, 0.012048503383994102, 0.009011923335492611, 0.010982530191540718, -0.05034695193171501, -0.04260734096169472, -0.0590045265853405, 0.01241896953433752, -0.010323072783648968, 0.001124280970543623, 0.06454166769981384, 0.0007327421335503459, 0.030254432931542397, -0.05496188998222351, -0.010343431495130062, 0.02777438797056675, -0.00807227659970522, -0.013431194238364697, -0.021090861409902573, -0.015977123752236366, -0.08052171021699905, 0.028971146792173386, -0.0058828541077673435, -0.06334758549928665, 0.0026160322595387697, 0.05477618798613548, 0.007661862764507532, 0.020369315519928932, 0.03889111056923866, -0.02588476613163948, 0.04369179904460907, 0.04965066909790039, -0.03290856257081032, -0.015073359943926334, -0.02643812634050846, -0.03226473182439804, 0.000982851954177022, -0.03850080072879791, -0.016848262399435043, -0.06955669820308685, -0.01929359883069992, 0.042441606521606445, -0.0020760009065270424, -0.015143830329179764, 0.028653062880039215, -0.08506838232278824, -0.0259043388068676, -0.014082498848438263, 0.03819160908460617, 0.027969732880592346, -0.05877342075109482], [-0.0432526133954525, 0.02220112457871437, 0.00869582500308752, 0.011700378730893135, -0.03889722377061844, -0.004420568235218525, 0.0038080131635069847, -0.018540270626544952, -0.03591819480061531, 0.009175763465464115, -0.02395503595471382, -0.013366199098527431, 0.030570728704333305, 0.010824811644852161, 0.000929966161493212, -0.0009189042029902339, 0.008941064588725567, 0.02983519248664379, -0.047771621495485306, 0.007167700212448835, -0.006857085973024368, -0.024595538154244423, 0.004196208901703358, -0.027503909543156624, -0.05331425368785858, -0.009721657261252403, 0.054239533841609955, 0.002389676868915558, -0.014249918982386589, -0.003512284019961953, 0.040402330458164215, 0.039749860763549805, 0.061283864080905914, -0.01617557182908058, 0.0015728522557765245, 0.001947053475305438, -0.03211022913455963, -0.0014700747560709715, 0.0007172728655859828, 0.012302465736865997, -0.020674318075180054, 0.008823555894196033, -0.008663305081427097, -0.03709113597869873, -0.04708101972937584, 0.012131021358072758, 0.007333762943744659, -0.01637572981417179, -0.015070497989654541, -0.021427590399980545, 0.010577009059488773, 0.0009737281361594796, -0.030841173604130745, -0.004001537803560495, -0.017493458464741707, -0.01744765043258667, 0.004646816290915012, 0.02378791570663452, 0.018150601536035538, -0.0007160790846683085, 0.0011203443864360452, 0.029264986515045166, 0.026277022436261177, -0.01406108122318983], [0.004223068244755268, 0.0022389700170606375, -0.0077362204901874065, -0.0011215034173801541, 4.375824210001156e-05, -0.01635327935218811, -0.0021586401853710413, 0.0003371438360773027, -0.0021410014014691114, 0.0008227354264818132, -0.0082677211612463, 0.0025142852682620287, -0.002150386106222868, 0.0012876418186351657, 0.002275033388286829, 0.001903142430819571, 0.00258561410009861, -0.001554591697640717, -0.0013917661271989346, 0.00016397669969592243, 0.002155567053705454, -0.0018000780837610364, -0.00198743911460042, -0.0003856941475532949, 0.0017364450031891465, 0.003159640356898308, 0.0020323314238339663, -0.0012589347315952182, -0.0015733677428215742, 0.0008198805153369904, -0.0016769134672358632, -0.002901154337450862, 0.0018685066606849432, -0.007781190797686577, -0.000796482665464282, -0.0007984613184817135, -0.0025345711037516594, 0.0010223003337159753, 0.0001178730817628093, 0.0012611921411007643, 0.0011908668093383312, -0.00014654005644842982, 0.0005546965403482318, -0.000500629423186183, -0.0013986617559567094, -0.0037822278682142496, 0.0020536500960588455, 0.0003126835508737713, -0.0011650549713522196, 0.0025646197609603405, -0.01967719942331314, -0.0002714160655159503, 0.0037270875182002783, -0.002195042325183749, 0.00041226009489037097, -0.0013132209423929453, 0.0018974050180986524, 0.0005944281001575291, 0.0012813565554097295, 0.0022364906035363674, 0.0009358287206850946, -0.002838201355189085, -5.0289061618968844e-05, -0.0033695418387651443], [0.03147758170962334, 0.055396322160959244, 0.01258847489953041, -0.04067876935005188, -0.04166379198431969, 0.0016180450329557061, -0.004558879882097244, 0.0060942876152694225, 0.05058624967932701, -0.019731950014829636, -0.03522081673145294, -0.046602994203567505, -0.021072963252663612, -0.012448053807020187, -0.006804310716688633, -0.057600025087594986, -0.006496819201856852, 0.04819817095994949, 0.03378008306026459, -0.05206794664263725, 0.023655418306589127, -0.032171737402677536, -0.027786049991846085, -0.020590271800756454, 0.023359794169664383, 0.0034709463361650705, -0.0020666385535150766, -0.003939040470868349, -0.043108027428388596, -0.008815455250442028, -0.0370822548866272, 0.015734052285552025, -0.02726006880402565, -0.05910733714699745, -0.0551174134016037, -0.011704984121024609, -0.027371570467948914, 0.001252603717148304, -0.02260667085647583, 0.03162489831447601, 0.052178170531988144, 0.009729662910103798, 0.00611267052590847, -0.015083950012922287, 0.010733225382864475, -0.010050470009446144, -0.006939055863767862, 0.038322918117046356, -0.036790478974580765, 0.016483763232827187, -0.006976964883506298, -0.007238978985697031, -0.017251363024115562, -0.02939591184258461, -0.0024112104438245296, 0.009051225148141384, 0.028804341331124306, -0.023673586547374725, -0.03321560099720955, 0.015436979942023754, 0.009233665652573109, 0.03332570567727089, 0.07033584266901016, -0.014670787379145622], [0.03613123670220375, 0.0475517213344574, -0.012687001377344131, 0.008906295523047447, 0.019532911479473114, -0.01390164252370596, 0.0023510323371738195, -0.06586399674415588, 0.06092682480812073, -0.033944178372621536, -0.01714780367910862, 0.02781343273818493, 0.030909927561879158, -0.037962548434734344, 8.503028220729902e-05, 0.04120863601565361, 0.0017967198509722948, -0.031534481793642044, 0.08541679382324219, 0.02960234135389328, 0.04871785268187523, 0.02481290139257908, -0.0021268310956656933, 0.03163604438304901, 0.007897826842963696, 0.02867104671895504, -0.04462270811200142, -0.003979288972914219, -0.011038854718208313, -0.0241425558924675, -0.0477798692882061, 0.012987731955945492, -0.09776806086301804, 0.031725846230983734, 0.09263921529054642, 0.0473656989634037, 0.031574152410030365, 0.003017837880179286, -0.03146650269627571, 0.04623723775148392, -0.014349491335451603, -0.00492448965087533, -0.029473723843693733, -0.03442290052771568, -0.03980336710810661, -0.002238699235022068, 0.022707326337695122, 0.05852583423256874, -0.05471254885196686, 0.005660185124725103, 0.013004099950194359, 0.0012779777171090245, 0.09236486256122589, -0.0562312938272953, 0.05922912061214447, -0.027516033500432968, -0.06077611446380615, -0.024931617081165314, -0.045654863119125366, 0.07287449389696121, -0.019197681918740273, -0.027461225166916847, 0.06594214588403702, -0.06632725149393082], [0.007931388914585114, 0.01412446703761816, 0.0015390928601846099, -0.006231299135833979, 0.004774758592247963, 0.0008550198399461806, -0.00016714658704586327, 0.001692169695161283, -0.005368509329855442, 0.004676458425819874, -0.006892116274684668, -0.00029827069374732673, -0.002944926032796502, 0.0008392908493988216, 0.001288974191993475, -0.006123740691691637, 0.006006609182804823, -0.0015883344458416104, -0.005063386168330908, -0.00611714506521821, -0.0006683125393465161, 0.016931604593992233, -0.012052405625581741, -0.0025310092605650425, 0.003466051071882248, 0.008868314325809479, 0.0028417448047548532, -0.0018295844784006476, -0.0038445049431174994, -0.0018538546282798052, -0.001064438372850418, 0.005338891409337521, 0.0072738975286483765, 0.0112793343141675, -0.0036429099272936583, 0.001979877706617117, -0.0020564026199281216, 0.00032382088829763234, -0.0028518233448266983, 0.002681388519704342, 0.010738779790699482, 0.0035505194682627916, -0.002427005209028721, -0.003148482646793127, -0.004620663821697235, 0.006373497191816568, 0.005531088914722204, -0.007704936899244785, 0.0009697940549813211, 0.001134194782935083, -0.011776100844144821, -0.0003581647470127791, 0.007625180296599865, -0.00478242477402091, 0.002366136759519577, -0.0013920406345278025, 0.004228743724524975, 0.005928709637373686, 0.004939862992614508, 0.0024523914325982332, 0.00017940452380571514, -0.001768192509189248, 0.002609007526189089, -0.004868629854172468], [-0.0031111636199057102, -0.004081966821104288, -0.001513453433290124, 0.004044839181005955, -0.0033778988290578127, -0.0015900017460808158, -0.0037040647584944963, -0.0018626003293320537, 0.001701406785286963, -0.0041234297677874565, 0.0016209660097956657, -0.0036007945891469717, 0.0018435651436448097, 0.0029293515253812075, 8.050042379181832e-05, 0.0019494377775117755, -0.0019070227863267064, 0.003237321740016341, 0.0034239983651787043, -0.0010940833017230034, -3.153241050313227e-05, -0.004225290846079588, 0.0037438480649143457, 0.0011066546430811286, -0.002733147470280528, -0.001208821078762412, 0.0001927264383994043, -0.0005370323779061437, -0.0003584283113013953, 0.0017180019058287144, 0.0019542821682989597, 0.002098160795867443, -0.004708085674792528, 0.004825807176530361, 0.0030213939025998116, -0.0024044553283602, 0.003982387017458677, 0.00014274814748205245, 0.0019799962174147367, -0.0001468906702939421, -0.003074194537475705, -0.0036214939318597317, 0.0014256195863708854, -0.0008234832203015685, 0.003418054198846221, 3.1793602829566225e-05, -0.0021392148919403553, 0.003101873677223921, 0.001463277847506106, -0.001888082129880786, 0.004921804182231426, -0.001691438490524888, 0.006125476211309433, 0.0038484870456159115, 0.002329912967979908, 0.0006263808463700116, -0.00313550909049809, -0.004128152504563332, -0.0034904798958450556, -0.0009921869495883584, 3.24066131724976e-05, -0.006259370595216751, -0.002791123930364847, 0.0005446859286166728], [0.042108386754989624, 0.00045161243178881705, 0.0037094177678227425, -0.02311510592699051, 0.04401671886444092, 0.01003962941467762, -0.0010881827911362052, -0.010716618038713932, 0.010933141224086285, 0.039121903479099274, -0.0022451416589319706, -0.013587446883320808, -0.020593762397766113, 0.008873889222741127, 0.0011032315669581294, -0.005389597732573748, 0.00041980890091508627, 0.012271475978195667, -0.05576341226696968, 0.017456000670790672, -0.009779023006558418, 0.01495282631367445, -0.01621191017329693, 0.018696995452046394, -0.008128125220537186, -0.0128470528870821, -0.032503556460142136, -0.0008355856407433748, 0.0011734095169231296, -0.002214588690549135, -0.029286257922649384, -0.009173262864351273, 0.023980876430869102, 0.01675214059650898, -0.0359957255423069, -0.0015067427884787321, -0.016840223222970963, -0.002399065066128969, -0.0037814148236066103, 0.0006290901801548898, 0.013698483817279339, -0.010204968973994255, -0.0008589527569711208, 0.019996926188468933, -0.01865077018737793, -0.00217839446850121, -0.008435223251581192, 0.004182919859886169, 0.024101460352540016, 0.012892112135887146, -0.006595865823328495, 0.00226312642917037, 0.04793032258749008, -0.003233635565266013, -0.0058506932109594345, -0.0032168482430279255, -0.006129788234829903, 0.014737325720489025, 0.03464467450976372, -0.02342015691101551, 0.0010729701025411487, -0.004491024184972048, 0.039006005972623825, -0.046965450048446655], [-0.07943592965602875, 0.03418431803584099, 0.01527293398976326, -0.029360651969909668, 0.07424204796552658, 0.005333431530743837, 0.03241633251309395, 0.0016145047266036272, 0.041550301015377045, -0.02340455912053585, -0.029588328674435616, 0.07698089629411697, -0.026095839217305183, -0.009819700382649899, 0.00991391483694315, -0.004440702497959137, -0.01896826922893524, -0.0369156152009964, -0.04652217775583267, 0.01906490884721279, -0.0369819775223732, -0.014811297878623009, 0.021513167768716812, 0.03090408258140087, -0.028879303485155106, -0.026859549805521965, -0.001161790220066905, -0.00021071743685752153, 0.0320485383272171, 0.007037927862256765, 0.03987770527601242, 0.038501348346471786, 0.01693885773420334, -0.014922332018613815, 0.0010166794527322054, -0.027168411761522293, 0.034880541265010834, -0.001521859667263925, 0.010432939976453781, -0.03223299980163574, 0.06242292746901512, 0.013498646207153797, -0.021706007421016693, -0.004890839569270611, -0.03129156678915024, -0.0061060842126607895, -0.02013103850185871, 0.05756647512316704, 0.04442323371767998, 0.030369756743311882, -0.05601882562041283, 0.0006050952943041921, 0.03314358368515968, -0.03750695660710335, 0.056812696158885956, 0.042656756937503815, 0.04152316227555275, -0.07201415300369263, -0.007273143623024225, -0.0007891939603723586, -0.014399969018995762, 0.042463574558496475, -0.04765455052256584, -0.07790317386388779], [0.023326510563492775, -0.010460621677339077, 0.00867634080350399, -0.012318761087954044, -0.030210549011826515, 0.017100727185606956, 0.006219274364411831, -0.0156941507011652, -0.002813745988532901, -0.005328909028321505, -0.011484554037451744, 0.02325597032904625, -0.001406184397637844, -0.011313685216009617, 0.0010579698719084263, 0.0414980985224247, 0.003033542074263096, -0.012323048897087574, 0.011467105709016323, -0.011604727245867252, -0.0014094100333750248, 0.009473126381635666, -0.023593412712216377, 0.004389590583741665, 0.03286062553524971, -0.022995246574282646, 0.018987135961651802, 0.002390374196693301, -0.0027020068373531103, -0.0020758979953825474, 0.02107195183634758, 0.025966376066207886, -0.0018622787902131677, -0.016903968527913094, 0.024182379245758057, 0.0015931633533909917, -0.007821179926395416, -0.00035237992415204644, 0.002678321208804846, 8.994575182441622e-07, 0.019869331270456314, -0.0077252816408872604, -0.0008507560705766082, -0.02120290696620941, -0.0019540449138730764, -0.0028596860356628895, -0.001759050297550857, -0.02339852787554264, -0.01704360358417034, -0.015962747856974602, 0.02885095402598381, 0.0011743727372959256, 0.004883493296802044, -0.0004146419814787805, 0.006557815242558718, 0.003213205374777317, 0.005793165415525436, -0.014141012914478779, -0.02185823582112789, 0.0037506655789911747, -0.0045860689133405685, 0.01364029012620449, 0.030866438522934914, 0.007274919655174017], [0.00692313676699996, 0.005884429439902306, 0.001981888897716999, 0.00486384890973568, -0.0020291469991207123, 0.004104026593267918, -0.00040146641549654305, -0.0026721449103206396, -0.003114528488367796, 0.002889706054702401, -0.004862213507294655, 0.01301602553576231, 0.000807194912340492, 0.0013921876670792699, 0.00015722781245131046, -0.010271582752466202, 0.0002152019296772778, 0.0033590092789381742, -0.005659176968038082, 0.0001072123704943806, -3.865966573357582e-05, -0.00324017321690917, -0.004721601959317923, -0.00012588297249749303, 0.0056090825237333775, -0.0018383200513198972, 0.0038403822109103203, -0.0011262403568252921, -0.0016961093060672283, 0.00017073402705136687, 0.0006257385248318315, 0.0009441920556128025, -0.00591503968462348, -0.015221704728901386, -0.0008374701719731092, -0.0005856679053977132, -0.0013412466505542397, 0.0015517977299168706, 0.0008513311040587723, 0.0011907655280083418, -0.006014286074787378, 0.004088676534593105, 0.000770995335187763, -0.0005949928308837116, -0.0030489254277199507, -0.001359045272693038, 0.0014993124641478062, -0.009899133816361427, 0.0002609453222248703, 0.0010332808597013354, -0.0037991513963788748, -0.0009324122220277786, 0.00702282041311264, -0.00204281834885478, 0.0027661623898893595, -0.0009971780236810446, 0.002197297289967537, -0.003970014397054911, 0.0012573886197060347, 0.005367610603570938, -0.0002650531241670251, -0.007040209136903286, -0.004027594346553087, -0.004815088585019112], [0.07506828755140305, 0.012891632504761219, 0.013266700319945812, -0.055849235504865646, 0.030985014513134956, -0.0004109314759261906, -0.002783817471936345, -0.018616007640957832, 0.0032414263114333153, 0.01456825528293848, -0.019447539001703262, -0.03448145091533661, 0.009261026978492737, -0.013193229213356972, -0.003161116736009717, -0.005651338025927544, 0.012418651953339577, 0.06270060688257217, 0.026613138616085052, -0.00800657831132412, 0.020799320191144943, -0.006052989512681961, -0.026907028630375862, 0.05225891247391701, -0.043179698288440704, -0.023714274168014526, -0.013334337621927261, 0.0048800124786794186, -0.013674836605787277, -0.001699634944088757, -0.03598633036017418, 0.025622757151722908, 0.03289012983441353, 0.030158670619130135, 0.038388218730688095, -0.025269968435168266, -0.04380400851368904, -0.004061779472976923, 0.011874985881149769, 0.02005065605044365, 0.04189637675881386, -0.06294751912355423, 0.008123486302793026, -0.007847899571061134, -0.028800975531339645, -0.01678173616528511, 0.019454997032880783, -0.06011340767145157, 0.05511064827442169, -0.024874277412891388, 0.060730885714292526, -0.0019495084416121244, -0.06458545476198196, 0.0004008439718745649, 0.00822054035961628, 0.002227762946859002, 0.018931489437818527, 0.015366996638476849, -0.012414507567882538, -0.005511985160410404, -0.017814166843891144, 0.05914298817515373, -0.016821058467030525, 0.0058406051248312], [-0.002847418189048767, -0.005976000800728798, -0.0012646028771996498, 0.0030438643880188465, -0.005215896759182215, 0.0014173409435898066, -0.0018617500318214297, -0.0019359543221071362, 0.0003908251819666475, -0.0013511183205991983, 0.0006224712124094367, -0.001990813296288252, 0.0015240043867379427, 0.0016267464961856604, -0.00018361516413278878, 0.006269071716815233, -0.00012468842032831162, 0.0016771940281614661, 0.0011751347919926047, -0.001624494674615562, -0.0003039695438928902, -0.003118999768048525, 0.0037600432988256216, 0.0017943138955160975, -0.005846239160746336, -0.003277740441262722, 0.002356187906116247, -0.0015099358279258013, -0.0009123734198510647, 0.0002657735603861511, 0.00326874409802258, 0.0025805095210671425, -0.008183526806533337, 0.002021416323259473, 0.005511317402124405, -0.001398592721670866, 0.0014682930195704103, 0.001825613551773131, 0.0022185945417732, 0.0009077018476091325, -0.0009556289296597242, -0.0018796457443386316, 0.0011713278945535421, -0.0008053483325056732, 8.354385499842465e-06, 6.824200681876391e-05, -0.0003209103306289762, 0.00317325908690691, 0.0014107853639870882, -0.0010765562765300274, -0.0025333864614367485, -9.588226384948939e-05, -0.003194803139194846, 0.0023978808894753456, 0.0016633286140859127, -0.0012151850387454033, -0.00016383240290451795, -0.003245662897825241, -0.0008127400651574135, -0.0008256402215920389, 0.0006328033050522208, -0.00042658409802243114, -0.006380470469594002, -0.0011015355121344328], [0.008247273042798042, 0.006727143656462431, -0.000602125539444387, 9.409795165993273e-05, 0.005741401109844446, 0.0018349429592490196, -0.0016699536936357617, 0.0006795646622776985, -0.005769338924437761, 0.0012003167066723108, -0.000316875841235742, 0.007914548739790916, -0.0011674107518047094, 0.0028533965814858675, -0.00019495206652209163, -0.004141417797654867, 0.0012042701710015535, -0.0010116671910509467, -0.0022418778389692307, -0.0005968919140286744, 0.0009186477982439101, -0.004298175685107708, -0.004725798964500427, -0.0016928958939388394, 0.0021519199945032597, 0.0006953603588044643, 0.0006878181011416018, 0.0007854369468986988, -0.003914855886250734, 0.0001558040821691975, -0.0026458699721843004, -0.0007381225586868823, 0.008622942492365837, -0.0053352126851677895, -0.002194085158407688, -0.00014615106920246035, -0.0014419190119951963, 0.0005695827421732247, -0.0002818712964653969, 0.0005521702114492655, 0.0053627872839570045, 0.0027567101642489433, 0.0002808452118188143, 0.0014498298987746239, -0.0018605567747727036, -0.0001735484111122787, 0.003738838480785489, -0.007518078666180372, -0.0012673833407461643, 0.003128333482891321, -0.0016849952517077327, -0.000329206814058125, 0.009582702070474625, -0.003645640332251787, 0.003582550445571542, -0.0008689665701240301, 0.0036000972613692284, 0.002686574123799801, 0.006333159748464823, 0.0042915730737149715, 0.00019646171131171286, -0.010182222351431847, 0.0022205335553735495, -0.004893084522336721], [0.0012772526824846864, 0.0009314381168223917, 0.0005743013462051749, -0.0001243937003891915, -0.00018192910647485405, -0.00014829279098194093, 9.340610995423049e-05, -0.0002497127861715853, -0.0016468798276036978, 0.0007400807226076722, -0.0003969277604483068, 8.622349560027942e-05, -0.0002446303842589259, -0.0006527195801027119, 2.9529095627367496e-05, -0.0012088578660041094, 0.00025429067318327725, 8.702232662471943e-06, -0.001510212430730462, 0.0006821421557106078, -3.28192109009251e-05, 0.001631618826650083, -0.001713524223305285, 0.00022815218835603446, 0.0005539955454878509, 0.0012591832783073187, -0.0013307849876582623, -5.472741031553596e-05, 0.0007665336015634239, -0.0003328701131977141, -0.0003468981303740293, -0.0008696115692146122, 0.0012316902866587043, -0.0012434822274371982, -0.0007198316743597388, -4.961474405718036e-05, -0.0019333051750436425, -0.00017669951193965971, 0.0004483288212213665, -0.0006327390437945724, -0.0004053026787005365, -5.434801278170198e-05, -0.00016396443243138492, 0.0012634315062314272, -0.0020934396889060736, 2.2052454369259067e-06, -0.0003001557488460094, -4.6511740947607905e-05, -0.001429437892511487, 0.0013729381607845426, -0.0020776097662746906, 0.0005041211261413991, -8.609225187683478e-05, -0.001205210923217237, -0.00043452950194478035, -0.00016716755635570735, 0.0009982578922063112, -9.877277625491843e-05, 0.00020549884357023984, 0.00038165596197359264, 0.00012995017459616065, 0.001213660230860114, 0.0006418934208340943, -0.0010010506957769394], [0.02886989526450634, 0.016926366835832596, 0.01371729001402855, -0.06360691040754318, -0.06683075428009033, -0.02007514238357544, 0.002689642133191228, -0.01729295402765274, 0.002590116113424301, 0.07338665425777435, 0.03991274908185005, 0.003815804608166218, 0.029788533225655556, -0.0032358758617192507, -0.011014479212462902, 0.041328441351652145, 0.007245572283864021, -0.0692945122718811, -0.012501145713031292, -0.04020872712135315, 0.03401545062661171, -0.016318753361701965, -0.02417675219476223, -0.05891317129135132, -0.004410521127283573, -0.04416859149932861, -0.06998611986637115, 0.003906839527189732, 0.015439637936651707, 0.030438022688031197, -0.06006569415330887, -0.014240608550608158, -0.038797713816165924, 0.0150285754352808, 0.05924644321203232, 0.002470907522365451, -0.008494390174746513, -0.010469023138284683, -0.03129873797297478, 0.00977998599410057, 0.06294243037700653, -0.07310348749160767, -0.004482573363929987, -0.0372394435107708, -0.02446660026907921, -0.041184358298778534, -0.004328523762524128, -0.07301627099514008, -0.0030788632575422525, 0.012557948008179665, -0.09168920665979385, -0.01780802011489868, 0.02140987478196621, -0.06579151004552841, 0.059833697974681854, 0.014279822818934917, -0.03096076101064682, 0.05615147203207016, -0.001309899496845901, -0.048724979162216187, 0.013974734582006931, 0.014651970006525517, -0.01326708309352398, 0.02153613232076168], [0.00073759735096246, -0.0039373100735247135, 0.0027668389957398176, 0.007773807272315025, -0.0013640547404065728, -0.0033476881217211485, 0.0005412736791186035, -0.0007364879129454494, 0.0023673761170357466, 0.000986073282547295, 0.006606901064515114, 0.0022805891931056976, 0.0006212402367964387, 0.000258088402915746, -0.003572265151888132, -0.001008717343211174, -0.001540717319585383, -0.0028104607481509447, 0.004368888679891825, 0.002782572526484728, 0.0005904562422074378, -0.013850771822035313, -0.008577208034694195, 0.0013881385093554854, -0.0013178391382098198, 0.0015773295890539885, -0.0010131908347830176, 0.000653887283988297, 0.003037505317479372, 0.0016151098534464836, 0.00025236263172701, 0.0011342022335156798, -0.0032150254119187593, 0.017710652202367783, 0.0003160996420774609, -0.0024902247823774815, -0.0015639462508261204, 0.000510900397785008, 0.001641488284803927, -0.002380550606176257, -0.004801071714609861, -0.0027877152897417545, 0.0001588229788467288, -0.003315436653792858, 0.0008434380870312452, -0.0014710614923387766, -0.007225183770060539, 0.0042744772508740425, 0.0008569119963794947, 0.0017684140475466847, -0.020084867253899574, -0.001098930835723877, 0.001983125228434801, 0.0015520250890403986, 0.0008193723042495549, 0.0018207624088972807, -0.0026990873739123344, -0.005899094045162201, -0.0026598339900374413, -0.0005021967808715999, 0.00027398517704568803, -0.003402579575777054, -0.00046084949281066656, 0.00031261242111213505], [-0.05824166536331177, -0.009826607070863247, 0.002532124752178788, 0.06553557515144348, 0.023625364527106285, 0.015664169564843178, -0.0314963199198246, -0.016666630282998085, -0.007869125343859196, 0.03350470960140228, -0.011518661864101887, -0.026117658242583275, 0.012564894743263721, -0.0007374087581411004, -0.01752707175910473, -0.037818655371665955, -0.005004961509257555, -0.014811555854976177, -0.030236879363656044, -0.015879115089774132, -0.023850325495004654, -0.015208324417471886, 0.0584595613181591, -0.013324851170182228, 0.03920746222138405, -0.02547365427017212, 0.04089350998401642, -0.006967888213694096, 0.039704471826553345, -0.005400793626904488, -0.0007575852214358747, 0.004065826069563627, 0.04630361869931221, 0.05055111274123192, 0.024181894958019257, -0.00805299635976553, -0.043261587619781494, -0.004489637445658445, 0.021122055128216743, -0.00013116191257722676, 0.001024696626700461, -0.06228887289762497, -0.002805554773658514, -0.06814928352832794, 0.004250682424753904, 0.002535000443458557, -0.006830379832535982, -0.02227039262652397, 0.05285434052348137, -0.019484644755721092, -0.07459418475627899, 0.007650324609130621, -0.0014302030904218554, -0.0281627606600523, -0.03981059789657593, -0.0072669521905481815, -0.025244466960430145, 0.04713135585188866, -0.03348818048834801, 0.002423949772492051, 0.006561413872987032, 0.033635832369327545, 0.04888536408543587, 0.06614087522029877], [-0.03288447856903076, -0.047062087804079056, 0.015911612659692764, -0.047552671283483505, 0.030213117599487305, -0.0158354714512825, 0.011159796267747879, 0.05926799401640892, -0.05525866150856018, -0.03580944612622261, -0.03070836141705513, -0.009053916670382023, 0.015526573173701763, 0.0004112940514460206, -0.0030304293613880873, 0.006410602945834398, 0.023358244448900223, 0.034093406051397324, 0.0728234127163887, -0.058796875178813934, 0.049894243478775024, 0.022698713466525078, 0.04845856502652168, -0.005458564031869173, -0.05098748952150345, 0.047565098851919174, 0.013317526318132877, -0.005758421961218119, -0.047513097524642944, -0.04187200963497162, -0.009018859826028347, 0.028058068826794624, 0.09168978780508041, -0.04418369382619858, 0.022165164351463318, -0.029250523075461388, -0.0748705044388771, 0.00794893130660057, 0.04125894606113434, 0.021453827619552612, 0.00155862036626786, -0.035400912165641785, -0.014885490760207176, -0.0372345894575119, -0.052683621644973755, -0.022696083411574364, -0.05148490145802498, -0.030961034819483757, 0.0401153601706028, -0.07674449682235718, -0.0804763063788414, 0.015966830775141716, 0.08388489484786987, 0.017026612535119057, 0.05780846253037453, 0.030213626101613045, 0.06328057497739792, 0.06529006361961365, 0.015779023990035057, 0.05310223251581192, -0.035660646855831146, 0.05757295340299606, 0.044252894818782806, 0.03132200986146927], [0.0011664154008030891, 0.005378450267016888, -0.004536913707852364, 0.0015785960713401437, 0.008669737726449966, 0.02610575407743454, -9.350233085569926e-06, 0.001680102082900703, 0.0029207421466708183, 0.0048108394257724285, -0.001333670923486352, -0.008893324062228203, 0.0005324463709257543, -0.000702734338119626, 0.00013584064436145127, -0.02069980464875698, 0.001617887057363987, -0.003124617040157318, 0.023752393200993538, 0.005717014893889427, 0.002471709856763482, 0.031064391136169434, -0.02214711904525757, -0.005236056167632341, 0.01586897298693657, -0.004585310351103544, 0.011994323693215847, -0.0009661897202022374, -0.0015566454967483878, -0.000527038355357945, 0.0011066750157624483, 0.002537446329370141, -0.004239135421812534, -0.008040305227041245, 0.0007756500854156911, 0.006373729556798935, -0.0024284017272293568, -0.00031346679315902293, -0.0030365819111466408, 0.00026769383111968637, 0.009843345731496811, 0.00040165273821912706, -8.696891745785251e-05, 0.0022334910463541746, -0.015575145371258259, 0.00424204720184207, -0.0013480809284374118, -0.024491295218467712, -0.00876611191779375, 0.007146953605115414, 0.014531903900206089, 0.0013204222777858377, 0.021562710404396057, -0.015606780536472797, 0.014275182969868183, -0.004404154140502214, 0.013068605214357376, -0.0035984476562589407, 0.016857579350471497, 0.015770748257637024, 0.0029347832314670086, -0.004903789144009352, -0.012622104026377201, -0.0035194228403270245], [0.06438282877206802, 0.04716354236006737, -3.5275184018246364e-06, -0.028968732804059982, -0.03519260138273239, 0.0037935026921331882, -0.00023128223256208003, 0.01277935691177845, -0.01932990923523903, -0.021023621782660484, -0.0007309600478038192, -0.022381355985999107, -0.010360948741436005, 0.004450930282473564, 0.0020398313645273447, 0.0013768738135695457, -0.0007711674552410841, -0.009189166128635406, 0.045820314437150955, -0.007707621436566114, 0.0018031880026683211, -0.001726910239085555, -0.030441220849752426, 0.025966593995690346, 0.061011604964733124, -0.007060106843709946, -0.012292791157960892, -0.00014976396050769836, 0.0019094208255410194, -0.001060162903741002, -0.00788111612200737, -0.009170887991786003, 0.052401088178157806, 0.004168565850704908, 0.046725351363420486, 0.008759665302932262, 0.011288373731076717, 5.67801580473315e-05, 0.005853770766407251, 0.0078025744296610355, 0.009860558435320854, 0.02114194631576538, -0.00041030600550584495, 0.05030946061015129, 0.006908699870109558, -0.000244796829065308, 0.008541877381503582, -0.015100529417395592, 0.011223917827010155, 0.04769691824913025, -0.0736621618270874, 0.005457391496747732, 0.04600562900304794, -0.011717496439814568, 0.029733648523688316, -0.0216441061347723, 0.015307949855923653, -0.0359608419239521, 0.032471831887960434, 0.026822594925761223, -0.00582334166392684, -0.009243637323379517, 0.03404466062784195, -0.05663993954658508], [0.013391759246587753, 0.020713569596409798, -0.002029562136158347, -0.0075256433337926865, -0.00618046335875988, 0.02427017316222191, 0.023660145699977875, 0.0005850082379765809, 0.01338141318410635, -0.022623807191848755, 0.0013131283922120929, 0.0030313802417367697, 0.010962686501443386, 0.005449031945317984, 0.0006951016839593649, 0.02100345678627491, 0.0031414413824677467, -0.01080008689314127, 0.00669314619153738, 0.012165576219558716, 0.003329696599394083, 0.016246045008301735, -0.002398755168542266, -0.0006982157938182354, 0.0220712348818779, -0.018389876931905746, -0.017812542617321014, 0.0038457284681499004, 0.014249629341065884, 0.003401479683816433, 0.004494075197726488, -0.00701844273135066, 0.013980181887745857, 0.004437640774995089, -0.0321727879345417, -0.0024825953878462315, -0.004435273818671703, 0.0006693395553156734, 0.003095689695328474, -0.007821460254490376, -0.036795925348997116, -0.007738412357866764, 0.0035297307185828686, 0.03200770542025566, 0.0012584435753524303, 0.0033146250061690807, 0.006638647522777319, -0.0018557705916464329, -0.02579321525990963, 0.006110618822276592, -0.012129644863307476, -4.78306355944369e-05, -0.002135309623554349, -0.001227890606969595, 0.013927084393799305, 0.0022992545273154974, -0.010024107061326504, 0.007174754980951548, 0.012309548445045948, -0.008052741177380085, 0.0007958220667205751, -0.002987723797559738, -0.029334545135498047, 0.0076839919202029705], [-0.017931999638676643, 0.016035469248890877, 0.004811153281480074, 0.0004627599264495075, -0.01715993694961071, 0.014805927872657776, -0.000329793052515015, -0.008971082046627998, 0.036514539271593094, -0.0008749956614337862, -0.006965977605432272, 0.01860884577035904, -0.009856367483735085, -0.0003587453975342214, 0.002911664778366685, -0.009947818703949451, 0.010801618918776512, -0.0071237096562981606, -0.002182677621021867, -0.014452597126364708, -0.0030410888139158487, -0.0072675952687859535, -0.03120943158864975, 0.009762363508343697, -0.0068083470687270164, -0.0002655414573382586, 0.014110729098320007, -0.002545625204220414, -0.007695598527789116, -0.0039046190213412046, 0.003082223469391465, 0.002665235660970211, -0.00044722401071339846, -0.042120903730392456, 0.015350284054875374, 0.0020600378047674894, -0.013996685855090618, 0.0006807130412198603, 0.0022361360024660826, 0.006075939629226923, 0.008935502730309963, 0.00039197070873342454, 0.0018776332726702094, -0.012816550210118294, -0.005645121913403273, -0.006896115839481354, 0.01453336700797081, 0.031856685876846313, 0.010769450105726719, 0.002196120098233223, -0.02451023831963539, -0.002442586002871394, 0.03086441196501255, -0.0052716382779181, 0.015174760483205318, 0.009477807208895683, 0.013541036285459995, -0.014895420521497726, -0.025616003200411797, -0.007484658155590296, -0.0042693582363426685, 0.01971014030277729, 0.01925588771700859, 0.0018957062857225537], [-0.018652308732271194, 0.00707924272865057, 0.001357257948257029, -0.006482812575995922, 0.05465124920010567, 0.0016865321667864919, -0.0003772267955355346, 0.01440112292766571, 0.032309841364622116, 0.00798197090625763, -0.0011353138834238052, 0.04219253361225128, -0.013453486375510693, 0.0005645009805448353, 0.0007267221226356924, -0.003866401733830571, 0.0018161488696932793, -0.03765984997153282, 0.03216961398720741, 0.01220764871686697, -0.016921795904636383, 0.005005956627428532, -0.02157071977853775, -0.04725087061524391, -0.017393028363585472, -0.025234311819076538, -0.03765728697180748, -0.00038009590934962034, -0.01549763698130846, -0.002703913953155279, 0.011262912303209305, -0.03139619156718254, 0.02826690673828125, -0.025412922725081444, -0.046564072370529175, -0.0005151426885277033, -0.03658130392432213, -0.0005206405185163021, -0.013792422600090504, 0.0025265710428357124, 0.004775115288794041, 0.0360695905983448, -0.0008299498003907502, 0.0036980046425014734, -0.01713133230805397, -0.0007910528802312911, -0.014082004316151142, 0.0018475994002074003, -0.014617646113038063, 0.02525416947901249, 0.022775504738092422, 0.00538241770118475, -0.01617584377527237, -0.024474505335092545, -0.03356969356536865, -0.0033440219704061747, 0.02324443869292736, -0.025708859786391258, -0.04186883941292763, 0.014617029577493668, -0.00046535267028957605, 0.0038310489617288113, -0.008021226152777672, -0.036858730018138885], [0.029960796236991882, -0.05535417050123215, -0.007317271549254656, -0.08521973341703415, 0.0286250039935112, 0.02605733834207058, 0.012226401828229427, 0.058549512177705765, -0.07182618230581284, 0.05858522281050682, -0.04116445407271385, -0.006648151203989983, -0.01466061919927597, -0.003932552877813578, 0.007602967321872711, -0.0902649536728859, -0.003509128000587225, -0.047454118728637695, 0.07737952470779419, -0.038308870047330856, 0.0398535393178463, -0.0331869013607502, 0.03554832935333252, 0.007394611835479736, -0.01602662168443203, -0.029509518295526505, 0.06580329686403275, -0.00740306219086051, -0.017447298392653465, 0.03050336241722107, -0.028423992916941643, -0.0075301481410861015, -0.0498117059469223, 0.018012093380093575, -0.03469305485486984, -0.01303044892847538, 0.04047929123044014, -0.0015429671620950103, 0.02409258484840393, 0.037620771676301956, -0.005218205973505974, 0.002526805503293872, -0.02271840162575245, -0.033868610858917236, 0.028498465195298195, -0.0010361875174567103, -0.0014488903107121587, -0.0010322207817807794, -0.0786348357796669, 0.016042476519942284, -0.04743334278464317, -0.00035767059307545424, -0.029914695769548416, -0.0610191747546196, 0.011220773681998253, 0.01642453856766224, 0.05322623625397682, -0.007973747327923775, -0.031325019896030426, 0.037184566259384155, -0.021254826337099075, 0.02239370159804821, -0.03917347267270088, 0.07372746616601944], [-0.03649795055389404, 0.01756865903735161, 0.016883108764886856, 0.006410704925656319, -0.006564212031662464, 0.010738727636635303, -0.00475577637553215, 0.009318970143795013, -0.009822145104408264, 0.008609207347035408, -0.0005644288612529635, -0.009140914306044579, -0.002577061764895916, 0.0015894757816568017, -0.001385070034302771, -0.01091068610548973, -0.002617261605337262, -0.014381666667759418, -0.052333999425172806, 0.03613713011145592, -0.010462090373039246, 0.015103964135050774, -0.019570672884583473, -0.005696121137589216, -0.030780591070652008, -0.007305412087589502, -0.019004343077540398, -0.004936425946652889, -0.007034493610262871, 0.0011970954947173595, 0.018160106614232063, 0.036034926772117615, -0.04274141788482666, 0.027262907475233078, -0.038910917937755585, -0.006483349949121475, 0.0007447996758855879, 0.0006551874103024602, 0.0011187968775629997, 0.004681482445448637, 0.009710130281746387, -0.03389207273721695, 0.002878053579479456, -0.0007241437560878694, 0.00437749782577157, -0.0019355935510247946, 0.010974395088851452, 0.0005391499144025147, -0.04445063695311546, -0.018342915922403336, -0.011457206681370735, -0.002281233901157975, -0.008987698704004288, -0.0028612264432013035, -0.027923008427023888, -0.018911875784397125, -0.01370166800916195, -0.02637461945414543, -0.029196172952651978, 0.019410787150263786, 0.005230330862104893, -0.04431380331516266, -0.013749303296208382, 0.010229171253740788], [-0.02544291503727436, -0.007954520173370838, -0.001341744908131659, -0.0358702652156353, -0.010230361483991146, 0.004953018389642239, 0.0005543064908124506, 0.007207237184047699, 