{"hyperparams": {}, "state_dict": {"lstm.weight_ih_l0": [[-0.00045679352479055524, -0.0002532761718612164, -0.000403235899284482, -0.00038775004213675857, -0.00036622644984163344, -0.0005951845087110996, -0.00029045797418802977, -0.00013519135245587677, -1.6943840819294564e-05, 0.00012165799853391945, -0.00039175720303319395], [-0.038790181279182434, 0.0020423296373337507, -0.032134704291820526, 0.02044193260371685, -0.020552916452288628, -0.012856893241405487, 0.00362221198156476, -0.001903885742649436, -0.019516069442033768, -0.004838658031076193, -0.009624005295336246], [-0.0050632222555577755, -0.0017676891293376684, -0.005733034107834101, -0.005613368470221758, -0.005464091431349516, -0.002488271100446582, -0.002550552599132061, -0.002713295165449381, 0.0007455511367879808, 0.0008119021658785641, 0.0005646109930239618], [-0.03306035324931145, -0.000368232314940542, -0.0018219638150185347, 0.023100201040506363, -0.031102225184440613, -0.0004404638602863997, 0.000882533669937402, -0.0022320759017020464, -0.0010909209959208965, 0.003535375464707613, 0.009990677237510681], [-0.07688295096158981, -0.009892315603792667, -0.05295363813638687, -0.03200335055589676, -0.048940952867269516, 0.02525482140481472, -0.03083052486181259, -0.03890388086438179, 0.01655479148030281, 0.022393595427274704, 0.005292917136102915], [-5.800920553156175e-05, 5.164767571841367e-06, 0.00016361885354854167, -4.00657081627287e-05, -3.63955223292578e-05, 0.00012187221000203863, 8.42714580358006e-05, 3.4960721677634865e-05, -0.00017519580433145165, -0.0006065570050850511, -7.37546433811076e-05], [0.00023114097712095827, -4.813905979972333e-05, 0.0002297165192430839, 0.0002272303681820631, 0.00022885629732627422, -5.193315519136377e-05, -3.84100349037908e-05, -5.120188870932907e-05, -0.00018566724611446261, -0.00015448281192220747, -2.996076909766998e-05], [-0.10142511129379272, 2.1765081328339875e-05, -0.020098572596907616, 0.010411661118268967, 0.005751585587859154, 0.06489565968513489, 0.025682007893919945, 0.05431443452835083, 0.016822898760437965, 0.03296276926994324, 0.05045585334300995], [0.009317300282418728, -0.0021901093423366547, -0.022093381732702255, -0.008142621256411076, -0.022499676793813705, -0.002467648359015584, -0.0020232470706105232, -0.0010567337740212679, 0.0011677599977701902, -0.0013178227236494422, -0.00263569550588727], [-9.186726674670354e-05, 3.426530383876525e-05, -0.0028092286083847284, -0.0014590311329811811, -0.002833944046869874, -9.612480062060058e-05, 0.00040140075725503266, -0.002193283522501588, -0.0009101000614464283, -0.0021652234718203545, 0.002648824593052268], [0.0001978992368094623, 1.521606736787362e-05, 0.00019847223302349448, 0.00020208196656312793, 0.0002002052206080407, -8.893651283869985e-06, -1.2085787602700293e-05, 2.1743258912465535e-05, 0.00011795236059697345, 0.00020765274530276656, -0.00015699864889029413], [0.008792274631559849, 0.0013277495745569468, -0.01889958046376705, 0.022691257297992706, 0.0007350870291702449, 0.0005899601965211332, 0.00028048636158928275, -3.260862285969779e-05, 0.0019096508622169495, -0.0002920686383731663, 0.0003720085369423032], [-0.00024015779490582645, -0.000544041336979717, -0.00025086128152906895, -0.00020634799147956073, -0.00017523339192848653, -0.0006635388126596808, -0.0008441482204943895, -0.0009084837511181831, -0.0002062188577838242, -0.0004316972626838833, -0.0001804102212190628], [-0.027232155203819275, 0.00556924007833004, 0.02025514841079712, 0.05003093555569649, 0.031203381717205048, -3.057659341720864e-05, -0.001942342845723033, 0.005741202738136053, -0.008770911954343319, -0.00440842192620039, 0.0005191578529775143], [0.018601277843117714, -0.0022590183652937412, 0.0018046279437839985, -0.03373409062623978, -0.0527588352560997, 0.005987919867038727, -0.0029951746109873056, 0.0017879187362268567, 0.005761273670941591, 0.007270874921232462, 0.012416530400514603], [-0.00162330805324018, -0.0008921241387724876, -0.0017268814845010638, -0.0016952566802501678, -0.0016358158318325877, -0.001190069131553173, -0.0005306453676894307, -4.625336077879183e-05, -0.0020591288339346647, -0.0022339033894240856, -0.0004939633654430509], [-9.924128971761093e-05, -0.00018414137593936175, -7.892992289271206e-05, -7.631788321305066e-05, -7.870837725931779e-05, 7.467991963494569e-05, 0.00011955190711887553, -3.1371149816550314e-05, -0.00024318229407072067, -0.0002537290274631232, -0.00017201942682731897], [-0.005838205572217703, 0.002788273151963949, 0.01139519177377224, -0.022041264921426773, -0.017845356836915016, -0.0035914455074816942, 0.0034597257617861032, -0.004775375593453646, 0.009233874268829823, 0.009848430752754211, -0.005859087686985731], [-0.012771143577992916, -0.0022575389593839645, 0.008196194656193256, -0.010166601277887821, -0.011028501205146313, 0.0005101359565742314, 0.0017847690032795072, -0.003660693299025297, -0.00417272699996829, -0.004465053789317608, -0.0009607672109268606], [0.04972824454307556, 2.2146883566165343e-05, 0.05248637497425079, -0.06983379274606705, 0.042961299419403076, 0.0003069139493163675, 0.0028180403169244528, 0.0033984093461185694, 0.006393869407474995, -0.010985823348164558, 0.0034270016476511955], [-0.052159424871206284, 0.004658362828195095, -0.10312128067016602, -0.02738366462290287, -0.11891910433769226, 0.0038748818915337324, 0.018936805427074432, 0.012080597691237926, 0.038474082946777344, 0.03473501279950142, 0.01797417737543583], [-1.3480697816703469e-05, -8.067573071457446e-05, -2.2392345272237435e-05, -2.7064577807323076e-05, -2.465686520736199e-05, -3.8010468415450305e-05, 1.589388193679042e-05, 1.692735168035142e-05, 3.6087170883547515e-05, 0.00034198875073343515, 6.778300303267315e-05], [-0.014529977925121784, 0.004139027092605829, -0.033879220485687256, -0.045866429805755615, -0.05238383263349533, 0.013256385922431946, 0.01785106025636196, 0.010698367841541767, 0.02657528780400753, 0.023568984121084213, 0.016417093575000763], [-0.0005286159575916827, -0.00030845936271362007, -0.0005068149184808135, -0.0004914399469271302, -0.00047644638107158244, -0.0004904831876046956, -0.000542755238711834, -0.0005143442540429533, -0.00022840584279038012, -0.00018585743964649737, -0.0001916694745887071], [-0.026969945058226585, 0.007344066631048918, -0.07327785342931747, -0.041197821497917175, -0.029255062341690063, 0.025755180045962334, 0.01172231137752533, 0.030152730643749237, -0.022830167785286903, -0.032395102083683014, 0.006896493025124073], [-0.0005840215599164367, -0.0004348762158770114, -0.00022593590256292373, -0.00036409124732017517, -0.0003535076102707535, -0.00048286840319633484, -0.00020101155678275973, 0.00012782643898390234, -5.092539868201129e-05, -0.00023433797468896955, 0.0004208122263662517], [-0.0007215799996629357, -0.000985200167633593, -0.0007793709519319236, -0.0016570715233683586, -0.0020938513334840536, -0.0012863771989941597, -0.0011795233003795147, -0.0011227810755372047, -0.0005963664152659476, -0.0007053539156913757, -0.0005215440760366619], [1.5151536899793427e-05, -6.763014243915677e-05, 8.384589455090463e-05, 0.00021735634072683752, 0.0001471547584515065, -0.00019201351096853614, -0.0002247273805551231, -0.00021404658036772162, -0.0003822741564363241, -0.00039757159538567066, 0.00024882983416318893], [0.00012278000940568745, 6.831774953752756e-05, 0.000119467091280967, 0.00011768676631618291, 0.00011379633360775188, 9.530589886708185e-05, 0.0001382879272568971, 0.00016158241487573832, -2.671612719495897e-06, 2.8180498702568002e-05, -2.867258899641456e-06], [-0.0009878854034468532, -0.0002654153504408896, -0.000971469096839428, -0.0010276533430442214, -0.0009632547735236585, 0.0023266547359526157, -0.0002703455975279212, -0.001910615712404251, 0.0037927369121462107, -0.0011751767015084624, 0.0009224005043506622], [0.003889557672664523, -0.0007656636880710721, -0.006748381070792675, 0.026429209858179092, -0.008958591148257256, 0.024198949337005615, -0.004528264980763197, -0.010861292481422424, 0.0053617628291249275, 0.0020441857632249594, 0.00590896513313055], [-0.001257126685231924, -0.003431690623983741, -0.0014437725767493248, -0.0006995846633799374, -0.0007413432467728853, -0.0023055970668792725, -0.004088335670530796, -0.003730244003236294, -0.0018009482882916927, -0.0014999770792201161, -0.0008163066813722253], [-0.00017416474292986095, -0.0009602774516679347, -7.252952491398901e-05, -4.741930388263427e-05, -3.011391527252272e-07, -0.0015663858503103256, -0.0008132533403113484, -0.002067376859486103, -0.00010699682025006041, -0.00106632465030998, -0.00020826210675295442], [-0.0028435674030333757, -0.0014359230408445, 0.006966400425881147, 0.0032776601146906614, 0.007863027974963188, -0.0005966853350400925, -0.0002603860921226442, -0.0003035860718227923, 0.000337047764332965, -0.0005568831693381071, 0.002898740814998746], [-2.5218201699317433e-05, -0.0010595433413982391, -5.0755148549797013e-05, -5.809803769807331e-05, -6.880224827909842e-05, -0.001005428610369563, -0.00352953327819705, -0.001490765600465238, 0.005634348373860121, -0.00016417904407717288, 3.91109315387439e-05], [-0.05779079720377922, -0.02041102945804596, -0.12175369262695312, 0.011976294219493866, -0.05300057306885719, -0.027200499549508095, -0.02242274209856987, -0.03933370113372803, -0.010295122861862183, -0.0036229928955435753, 0.019421769306063652], [-0.004878469742834568, -0.0017021934036165476, -0.006682707462459803, -0.009469584561884403, -0.011057885363698006, -0.011831036768853664, -0.0002686771040316671, -0.013760722242295742, -0.005946408957242966, -0.016408205032348633, 0.01914554089307785], [-0.1182229146361351, 0.00920179020613432, -0.06491602212190628, -0.012644244357943535, -0.006141257006675005, -0.01225094310939312, 0.01841883361339569, 0.005723704118281603, 0.012452228926122189, -0.015347990207374096, -0.016210589557886124], [-0.0006959792226552963, -9.422611765330657e-05, -0.000276115199085325, -0.00045565931941382587, 0.0002668651577550918, -0.0007405452197417617, -0.0007674925145693123, -0.0008292299462482333, -7.990430458448827e-05, -0.00010295941319782287, -0.00026661265292204916], [-2.7533040338312276e-05, 0.0003434860846027732, -1.221846105181612e-05, -6.380203558364883e-05, -5.0305108743486926e-05, 0.0004986269632354379, 0.0005605646292679012, 0.0006393608637154102, -2.226059586973861e-05, 6.989327812334523e-05, 9.033804235514253e-05], [-0.10449209809303284, -0.009093300439417362, -2.0079707610420883e-05, -0.05574710667133331, 0.0003751806798391044, 0.011702246963977814, 0.016139669343829155, 0.005127226933836937, 0.0380689762532711, 0.006890329532325268, 0.004970966838300228], [-0.13337431848049164, -0.0152696892619133, -0.08159586787223816, -0.0978071540594101, -0.0884672999382019, -0.015006840229034424, -0.008793420158326626, 0.0011484009446576238, 0.02208883687853813, 0.013729778118431568, 0.001690615783445537], [-0.00042449714965187013, 0.001530310488305986, -0.0005500999977812171, -0.00031166241387836635, -0.0002584715257398784, 0.0016994117759168148, 0.001369804609566927, 0.0012184836668893695, -0.00014922115951776505, -6.123331695562229e-05, 0.00035280411248095334], [-0.000686743704136461, -0.000614852411672473, -0.0006529600359499454, -0.0006736720097251236, -0.000651997746899724, -0.00030426643206737936, -8.04075079940958e-06, -0.00041621766285970807, 0.0011780357453972101, 0.001007069949992001, 9.783423593034968e-05], [-0.05375753343105316, -0.02303566038608551, -0.050156090408563614, -0.03174921125173569, -0.07186637818813324, -0.0007629378815181553, -0.010641075670719147, -0.021279549226164818, -0.023868782445788383, -0.004939715843647718, 0.0037121449131518602], [-0.00044686353066936135, -0.0012666546972468495, -0.0004840287729166448, -0.0006646767142228782, -0.00017709724488668144, -0.0012866617180407047, -0.0019750031642615795, -0.0020589844789355993, -0.0012664947425946593, -0.001406084280461073, -0.001541841309517622], [-3.12059091811534e-05, 0.0005635767593048513, -0.00015993273700587451, -0.00020024280820507556, -0.00032950693275779486, 0.0009743942646309733, 0.0013869545655325055, 0.0016655402723699808, 0.001813379698432982, 0.0017414955655112863, -0.00026875032926909626], [7.929997082101181e-05, 0.000509740668348968, 4.661226921598427e-05, 4.234004154568538e-05, 4.004200309282169e-05, 0.000516529253218323, 0.00037920818431302905, 0.0002784421667456627, -7.870495755923912e-05, -0.0001768882793840021, -0.00020647137716878206], [-0.0012681835796684027, -0.0006652509327977896, -0.0003626024699769914, -0.0006447564228437841, -0.0007952363230288029, -0.0006597756291739643, -0.0005178538267500699, -0.0006565325893461704, -0.0016576694324612617, 0.0026017974596470594, 0.0002585221081972122], [-0.00533346738666296, -0.0005484410794451833, -0.0074491724371910095, -0.008402341045439243, -0.007809452246874571, -0.0011044335551559925, 3.571300840121694e-05, -0.00046027585631236434, 0.001802070182748139, 0.0018573872512206435, -0.0004271938232704997], [1.3368882719078101e-05, 1.6930349374888465e-05, 3.662110975710675e-05, 4.7174431529128924e-05, 4.439601980266161e-05, 3.1813280656933784e-05, -2.1928531168668997e-06, -3.4256616345373914e-05, -7.594740054628346e-06, -3.076197026530281e-05, -7.181084947660565e-05], [0.00010512158769415691, 0.00023026601411402225, 9.016524563776329e-05, 7.364608609350398e-05, 5.920037074247375e-05, 0.00038376476732082665, 0.0005203813780099154, 0.0005878647789359093, 0.00020802808285225183, 0.00022145056573208421, 0.00013324967585504055], [-0.028505662456154823, -0.0003161863423883915, -0.027571367099881172, 0.019387690350413322, 0.010541817173361778, -0.000550278287846595, -0.001014523091726005, -0.0019770583603531122, 0.0005673706764355302, -0.000844262249302119, -0.0019943800289183855], [-0.02213919907808304, 0.001902316464111209, -0.007145360112190247, -0.027267659083008766, -0.01574660837650299, 0.013399102725088596, 0.025543618947267532, -0.005862962920218706, 0.03309391066431999, 0.010372701101005077, 0.0030922316946089268], [0.001912189880385995, 0.0004012138524558395, 0.0014617136912420392, 0.00016527180559933186, 0.0010645840084180236, 0.001069352263584733, 0.0009412741637788713, 0.0005684521165676415, 0.001442078617401421, 0.0012044038157910109, 0.0007775163394398987], [-0.0005981005961075425, -0.0003920129965990782, -0.0004763735632877797, -0.0005702674388885498, 0.00021628882677759975, -0.001578145893290639, -0.0005241412436589599, -0.002336382633075118, 0.0011010003508999944, -0.0025371841620653868, -0.0004017617320641875], [0.03611021116375923, -0.005731076933443546, 0.036071859300136566, 0.02819020301103592, -0.029666388407349586, -0.00421028770506382, -0.00802348367869854, -0.00548002403229475, -0.0013815503334626555, -0.0017667466308921576, -0.002660745056346059], [-0.020577464252710342, 0.006150249391794205, -0.12123797088861465, -0.059849027544260025, -0.10728710889816284, 0.020152084529399872, 0.022589152678847313, 0.002921296749264002, 0.016308361664414406, 0.014139198698103428, 0.0018745146226137877], [0.00015758101653773338, 9.338163181382697e-06, 0.0001620049588382244, 0.00016188847075682133, 0.00016580265946686268, 9.425989264855161e-05, 5.83294931857381e-05, -3.780964470934123e-05, -0.00021596804435830563, -0.00026819229242391884, 5.508948743226938e-05], [-0.0050292289815843105, 0.005648977588862181, -0.00846888218075037, -0.006906652357429266, -0.01420866884291172, 0.007820400409400463, 0.00483274320140481, -0.001045110053382814, 0.020296044647693634, 0.013051771558821201, -0.0015969593077898026], [-0.005013792309910059, -0.0014641284942626953, -0.0027864889707416296, -0.004335438366979361, -0.007544367108494043, -0.0014374115271493793, -0.002014047233387828, 0.0040100133046507835, -0.0025016258005052805, 0.011885924264788628, -0.0012968156952410936], [-0.09721814841032028, 0.02633977122604847, -0.14861944317817688, -0.11026037484407425, -0.07872331142425537, 0.09676958620548248, 0.07414234429597855, 0.004129493143409491, 0.04557862877845764, -0.020512716844677925, 0.037417251616716385], [-0.05728745087981224, 0.0003374004445504397, -0.08937831968069077, -0.021988941356539726, -0.040720779448747635, 0.015537452884018421, 0.011216467246413231, -0.00829272624105215, 0.023898974061012268, 0.03312879055738449, 0.01489562913775444], [0.001379659166559577, 0.007345953956246376, -0.000743689073715359, 0.0011346630053594708, 0.0010446482338011265, 0.00011697049194481224, -0.0010944975074380636, -0.002068874891847372, -0.0038754725828766823, -0.006440324708819389, -0.004016508348286152], [-0.0004746615595649928, -0.00046909929369576275, -0.00044008955592289567, -0.0004457426257431507, -0.00044143552077002823, -0.00036291658761911094, 7.386157085420564e-05, 0.0002950799243990332, 0.00021561318135354668, 0.00030687928665429354, -0.00014806694525759667], [0.015295188874006271, 0.0012815592344850302, 0.027153881266713142, 0.03095329739153385, 0.011303026229143143, -0.0024850370828062296, -0.0016555205220356584, -0.003787567839026451, -0.0068323989398777485, -0.0020879125222563744, 0.0013040255289524794], [-0.0040856883861124516, -0.0015188257675617933, -0.004200367722660303, -0.0042128050699830055, -0.004043262451887131, -0.0012980172177776694, -0.0006818301044404507, -0.0007968510617502034, 0.0011596095282584429, 0.0011919557582587004, 0.0013244770234450698], [-0.03823499754071236, 5.780134233646095e-05, 0.03754344955086708, -0.003934997133910656, 0.011526343412697315, -0.0008778709452599287, -0.002088528126478195, -0.00395231693983078, -0.0007292164955288172, -0.00289975106716156, -0.0015379406977444887], [-0.06388528645038605, 0.0008574074599891901, -0.06257159262895584, -0.011999213136732578, -0.01912502944469452, 0.003751513082534075, -0.009703588671982288, -0.0032743518240749836, 0.02029789239168167, -0.02057337947189808, -0.007103854790329933], [-0.00016592189786024392, 8.269408135674894e-05, 0.00011615946277743205, -0.00019520056957844645, 1.1798923878814094e-05, 0.00011822090164059773, 0.00011637011630227789, 0.00012514088302850723, -4.806365177500993e-05, -0.00023396206961479038, -0.00017516901425551623], [0.00022872118279337883, -5.461465843836777e-05, 0.0002280415064888075, 0.00022436468861997128, 0.0002253541024401784, -7.482738146791235e-05, -4.41107913502492e-05, -4.853895370615646e-05, -0.0002006359281949699, -0.0001528578723082319, -2.684183527890127e-05], [-0.03630766645073891, -0.010925360955297947, -0.050812728703022, 0.02765762247145176, -0.1145734116435051, 0.03830841928720474, 0.02933145873248577, 0.003029016312211752, -0.004742056131362915, -0.001969138393178582, 0.04170646890997887], [-0.013574390672147274, -0.00041135799256153405, -0.013354791328310966, -0.015944886952638626, 0.01409254688769579, -0.0009715402266010642, -0.0015121742617338896, -0.0035276846028864384, -0.003953073639422655, 0.0018826782470569015, -0.0012583158677443862], [-0.0012390580959618092, -0.0017240883316844702, -0.010107149370014668, -0.004377450793981552, -0.0010797923896461725, -0.0010300916619598866, -0.0005965070449747145, -0.0013258152175694704, -0.0009984442731365561, -0.0015926816267892718, 0.00046208486310206354], [0.0002089313929900527, -3.393049701116979e-05, 0.00020897199283353984, 0.00021228837431408465, 0.00021173800632823259, -3.4468281228328124e-05, -3.8896119804121554e-05, -2.2376934794010594e-06, 0.00010558094072621316, 0.00016289885388687253, -0.0001727795897750184], [-0.012903445400297642, 0.002207443816587329, -0.004285650327801704, -0.010821172967553139, 0.003823121776804328, 0.000213042032555677, -0.0004190671897958964, -0.0009728480945341289, -0.00020858246716670692, 0.0007708239136263728, 0.00034094395232386887], [-0.00029973825439810753, 0.0001506166736362502, -0.00017981539713218808, -0.000250441167736426, -0.00014137497055344284, -0.00024159226450137794, -0.0006417114636860788, -0.0008306874660775065, -1.9287010218249634e-05, -0.0003519952588248998, -0.0004049051203764975], [0.027047963812947273, 0.0016281064599752426, -0.0037912470288574696, -0.016745515167713165, 0.052333515137434006, -0.004407383501529694, -0.00594179704785347, 0.00800330750644207, -0.006198783405125141, -0.007125539239495993, -0.0018387053860351443], [-0.0665283277630806, -0.001278771087527275, -0.03441718965768814, 0.03900900110602379, -0.027919434010982513, -0.001982478192076087, 0.0008544577867724001, -0.010072428733110428, 0.004147052299231291, -0.00013370996748562902, 0.012975254096090794], [-0.0017391027649864554, 0.00044397692545317113, -0.001749770250171423, -0.0017703381599858403, -0.0017270410899072886, -0.0004016551829408854, -0.0006793192005716264, -0.0004124848637729883, -0.0021197753958404064, -0.002428530715405941, -0.0008480561664327979], [-6.004951865179464e-05, 3.605608071666211e-05, -5.205952766118571e-05, -4.308629286242649e-05, -4.09588246839121e-05, -0.00022345797333400697, -0.00020551876514218748, -9.683347889222205e-05, 6.15192620898597e-05, 0.00013991646119393408, -0.00011591778456931934], [0.006385034881532192, 0.003278773743659258, -0.00910760648548603, -0.0317317396402359, 0.010582322254776955, 0.002066031564027071, -0.003128879005089402, 0.0034983796067535877, -0.008070437237620354, -0.0070823123678565025, -0.0008626558701507747], [-0.011131406761705875, 0.00015520112356171012, 0.005899257492274046, -0.018355101346969604, -0.0008567590266466141, -0.0006094506825320423, -0.003769520903006196, 0.0013876321027055383, -0.0022492907010018826, -0.0006902571185491979, -0.0004115560441277921], [-0.05401240661740303, 0.0016295609530061483, -0.050257518887519836, -0.011556196957826614, 0.034362323582172394, 0.0024407224263995886, 0.001789226196706295, -0.005902286618947983, 0.010124877095222473, 0.00348028726875782, 0.0021877146791666746], [-0.0758679136633873, 0.001969719072803855, -0.08086476475000381, -0.0813935175538063, 0.02697889320552349, 0.001517243217676878, 0.016047978773713112, 0.011569928377866745, 0.01508420705795288, 0.020821817219257355, 0.01633337140083313], [-2.3342316126218066e-05, 7.515091510867933e-06, -2.003102417802438e-05, -3.751501571969129e-05, -3.4655513445613906e-05, 0.00011553819786058739, 0.00012270131264813244, 5.569804852711968e-05, 0.00016953240265138447, 4.641575287678279e-05, 9.143973147729412e-05], [-0.07788197696208954, 0.003354796674102545, -0.03302972391247749, -0.02046528272330761, 0.012968252412974834, 0.00899695884436369, 0.015447918325662613, 0.013687480241060257, 0.025021817535161972, 0.02000339701771736, 0.013915261253714561], [-0.0005020743701606989, -2.779936221486423e-05, -0.0004885768867097795, -0.0004759712901432067, -0.00046346886665560305, -0.0002737515314947814, -0.00035103820846416056, -0.00033910886850208044, -0.00016174644406419247, -0.0001535228657303378, -0.0001062324590748176], [0.025701843202114105, 0.0031699889805167913, -0.05184606835246086, -0.041519805788993835, -0.006419228855520487, 0.005802399478852749, 0.010641809552907944, 0.015131887048482895, 0.002192456042394042, -0.0017525928560644388, 0.008681094273924828], [-0.000389247783459723, 0.00010947592090815306, -0.0003077916335314512, -0.0004929222050122917, -0.00043091957923024893, -0.0002304738445673138, -0.0002127184416167438, 0.00013518960622604936, 0.0001443329529138282, 0.0005649455706588924, 7.529777940362692e-05], [-0.000862860819324851, -0.0002663620689418167, -0.0015266675036400557, -0.00161168712656945, -0.0010792597895488143, -0.0006853599334135652, -0.0007454516016878188, -0.0005730671691708267, -0.0003818972036242485, -0.000517146778292954, -0.0002727395622059703], [0.00019234906358178705, 1.000155862129759e-05, 5.4382871894631535e-05, 7.579259545309469e-05, -1.1239694686082657e-05, -7.977747009135783e-05, -0.0001701091678114608, -0.00017507938900962472, -0.00030428916215896606, -0.0003545405634213239, 6.451147055486217e-05], [0.00011673966218950227, 5.4071959311841056e-05, 0.00011340545461280271, 0.00011027532309526578, 0.00011011572496499866, 7.36531728762202e-05, 0.00015551570686511695, 0.00018039772112388164, 9.344013960799202e-06, 4.298199201002717e-05, 3.06102228933014e-05], [-0.0011082731653004885, 0.00038480470539070666, -0.0012734741903841496, -0.0012192255817353725, -0.0010946692200377584, -6.616209429921582e-05, 0.0014972578501328826, 0.0013926033861935139, 0.00017860799562186003, 0.0001684028102317825, 0.0003009573556482792], [-0.010273627936840057, 0.00026558898389339447, 0.01570160873234272, 0.021478330716490746, 0.015466834418475628, 0.004755865316838026, 0.005380038637667894, 0.024457231163978577, -0.0013510056305676699, -0.0009366458980366588, 0.009284398518502712], [-0.0006740731187164783, -0.0016213138587772846, -0.0015609089750796556, -0.00018393094069324434, -0.0017736988374963403, -0.002450714586302638, -0.003323528915643692, -0.00132395897526294, -0.0010850720573216677, -0.0011395442998036742, -0.00040105212246999145], [-0.00018259677744936198, -0.0016386349452659488, -0.00011830012226710096, -0.0001238331460626796, -0.00010987508721882477, -0.001037381123751402, -0.0005515881930477917, -0.0011382052907720208, 0.00020235433476045728, -0.0001282896555494517, 0.00015141881885938346], [0.005067718680948019, -0.0018983209738507867, 0.006486272905021906, 0.0024383680429309607, 0.0007973716710694134, -0.0014092434430494905, -0.0007672523497603834, -0.0012873320374637842, -0.0011680038878694177, -0.0016227075830101967, 0.0017889292212203145], [-4.680978963733651e-05, 0.00011756860476452857, -5.676249566022307e-05, -6.276506610447541e-05, -6.483929610112682e-05, 0.00011039038508897647, -0.0010968775022774935, -0.0007182045374065638, 0.00029977899976074696, 0.0005817469791509211, 0.0001143415502156131], [-0.05590241774916649, -0.01523592695593834, -0.056189682334661484, -0.10206983238458633, -0.032845452427864075, -0.021102577447891235, -0.030939040705561638, -0.033449895679950714, 0.004224150907248259, -0.04677663370966911, 0.018822407349944115], [-0.006244633812457323, -0.0004639360122382641, -0.012843197211623192, -0.006813568528741598, -0.011290178634226322, -0.0028475706931203604, -0.0020291474647819996, -0.0016198849771171808, -0.006138990633189678, -0.00017625978216528893, 0.0015719062648713589], [-0.0719890370965004, 0.0017939823446795344, 0.011588706634938717, -0.09384389966726303, -0.021556023508310318, 0.0029843635857105255, -0.008115998469293118, -0.014529415406286716, -0.011644501239061356, 0.00928973127156496, 0.00813065655529499], [-0.001043102820403874, -0.0005122516304254532, -0.0001513700990471989, 0.000310397706925869, -0.00028515179292298853, -0.00045620815944857895, -0.0005070974002592266, -0.0006292387843132019, -4.195093788439408e-05, -4.09554922953248e-05, -0.00018650981655810028], [-1.3872600902686827e-05, 0.00024851993657648563, -2.5145836843876168e-05, -4.5304459490580484e-05, -6.732891779392958e-05, 0.00028779570129700005, 0.00038898218190297484, 0.0004461715288925916, 9.588463399268221e-06, 6.319910607999191e-05, 4.2691201088018715e-05], [0.021731555461883545, 0.006638745777308941, -0.013167121447622776, -0.09747438132762909, 0.059348214417696, 0.008519983850419521, 0.0035181744024157524, 0.017466530203819275, 0.03468283265829086, 0.013774030841886997, 0.009530697017908096], [-0.10676303505897522, -0.011323035694658756, 0.025420181453227997, -0.03375206142663956, 0.0006797700189054012, 0.006207722704857588, 0.012825846672058105, -0.000302059663226828, 0.00329347001388669, 0.009366265498101711, -0.0037503368221223354], [-0.0013261949643492699, 0.000535891973413527, -0.0010158579098060727, -0.0018243471859022975, -0.001624672906473279, 0.0008136429241858423, 0.0007054046727716923, 0.0005435179336927831, -0.0001854734873631969, -0.00015119924501050264, -6.64605904603377e-05], [-0.0006281037349253893, -0.0008592532249167562, -0.000607068301178515, -0.0006318559753708541, -0.0006168291438370943, -0.0002834436309058219, 0.0001944797986652702, -0.00016074911400210112, 0.0010568472789600492, 0.0010217914823442698, 0.00043290251051075757], [-0.1085357666015625, -0.0020570431370288134, 0.03363906592130661, -0.1266811192035675, 0.04718736186623573, -0.004702559672296047, -0.029399432241916656, -0.0015360527904704213, -0.058257292956113815, -0.06621626019477844, 0.012393664568662643], [-0.00060607073828578, -1.5511792298639193e-05, -0.0007825393695384264, -0.0007142893737182021, -0.0004931307630613446, -0.0009694363106973469, -0.0020741280168294907, -0.0024242838844656944, -0.0010869381949305534, -0.0013973534805700183, -0.0015578281600028276], [4.0061218896880746e-05, -0.00023634926765225828, 3.92260481021367e-05, 1.7921409380505793e-05, -2.9632037694682367e-05, 0.00024026830215007067, 0.0007032488356344402, 0.0012781298719346523, 0.0012041212758049369, 0.0012919193832203746, -0.00028266204753890634], [3.890012521878816e-05, 2.7190295440959744e-05, 3.0142498872010037e-05, 2.9181768695707433e-05, 3.5547531297197565e-05, 0.00016284381854347885, 8.966726454673335e-05, 1.890682597149862e-07, -0.0001270210777875036, -0.0002159292926080525, -0.0002843122056219727], [0.0007137263892218471, 5.8344053286418784e-06, -0.0015700174262747169, 0.00017483095871284604, -0.0009664719109423459, -7.408479723380879e-05, -0.00022366383927874267, -0.00011359109339537099, -0.0007172446930781007, -0.0014164396561682224, 0.0003262172394897789], [-0.010092763230204582, 0.00046860193833708763, -0.003562116762623191, -0.0058938730508089066, -0.006046900525689125, -0.0011938008246943355, 3.906970960088074e-05, 0.00028909227694384754, 0.0018285479163751006, 0.0018225068924948573, 0.0004104210529476404], [-4.2358613427495584e-05, 2.8275080694584176e-05, -1.1713983440131415e-05, 1.0516108886804432e-05, -2.3480997697333805e-05, 1.4023819858266506e-05, -3.207905683666468e-05, -6.554699939442798e-05, -2.3037640858092345e-05, -6.025963739375584e-05, -0.00010478245530975983], [6.873188976896927e-05, 0.00028652511537075043, 5.851529203937389e-05, 4.6948465751484036e-05, 4.1468709241598845e-05, 0.00040031602839007974, 0.0004412269627209753, 0.0004594776837620884, 0.00023284205235540867, 0.00021101422316860408, 4.03344638471026e-05], [0.009648813866078854, -0.00010407894296804443, -0.03478292375802994, 0.02102816291153431, -0.027523335069417953, -0.0006566335214301944, -0.0015053830575197935, -0.0029586446471512318, -0.0006876796251162887, -0.0012289414880797267, -0.001405984745360911], [-0.010525797493755817, -0.00043248146539554, 0.011142967268824577, -0.008232914842665195, 0.0020489601884037256, 0.004544406663626432, -0.0032043741084635258, -0.0003917925641871989, -0.005043794400990009, -0.003139623673632741, 0.005384556949138641], [0.0005081698182038963, -4.751554297399707e-05, 0.0006127768428996205, 0.0024240792263299227, 9.914887777995318e-05, 0.0003493298136163503, 0.0007602893747389317, 0.00035526102874428034, 0.0012844281736761332, 0.0010774468537420034, 0.001011869520880282], [-0.0004032495489809662, -0.0006136173033155501, -0.0003884813340846449, -0.00019841021276079118, -2.3964830688782968e-05, -0.0008793919696472585, -0.0008980404236353934, -0.0009354546200484037, -0.0003107031516265124, -0.0006356933736242354, -0.00021585072681773454], [0.004341202322393656, -0.0013177378568798304, -0.026466410607099533, 0.01165707316249609, 0.013600137084722519, -0.002886101370677352, -0.002729490166530013, -0.0020074076019227505, -0.0014186021871864796, -0.003555100644007325, 0.001599967246875167], [-0.08172543346881866, 0.00593195017427206, -0.05844369903206825, -0.021624606102705002, 0.0026560991536825895, 0.00566539540886879, 0.007131629157811403, -0.003855727147310972, 0.005795347969979048, 0.015695219859480858, 0.008515593595802784], [0.0001894615706987679, -1.2145945220254362e-05, 0.00019370373047422618, 0.00020009122090414166, 0.00020758580649271607, -4.939384962199256e-05, -4.4601012632483616e-05, -9.92076747934334e-05, -0.0002251996920676902, -0.0002996311814058572, -4.774247281602584e-05], [-0.006990259513258934, 0.0036643825005739927, -0.006395443342626095, -0.008318505249917507, -0.002986280946061015, 0.0027605073992162943, 0.007196146063506603, 0.0032746142242103815, 0.0008126980974338949, 0.007967059500515461, -0.0008555032545700669], [-0.0023510134778916836, 0.0013754251413047314, -0.004554090555757284, -0.0025441173929721117, -0.002920634113252163, -0.0005487731541506946, -0.0008875782950781286, -0.00015926714695524424, 0.003183034248650074, -0.0034038987942039967, -0.0004820568428840488], [-0.15935979783535004, -0.033298298716545105, -0.06153060495853424, 0.015645703300833702, 0.0025012365076690912, 0.022138061001896858, 0.03598441556096077, -0.028471559286117554, -0.021655214950442314, 0.03039286471903324, 0.05759435519576073], [0.019848568364977837, 0.0007294630631804466, 0.018313001841306686, -0.09755654633045197, -0.07119707018136978, 0.0019602207466959953, 0.008648378774523735, -0.006367283407598734, 0.021294159814715385, 0.02961643785238266, 0.021063612774014473], [0.006101897452026606, -0.0015861444408074021, 0.006245556753128767, -0.008535182103514671, 0.0014581267023459077, -0.0004609517636708915, -0.0012465191539376974, -0.0007431898848153651, 0.0002476335794199258, 0.0008876576321199536, -0.002868757816031575], [0.0328817144036293, 0.003023061202839017, 0.017896132543683052, -0.00020686315838247538, -0.060035061091184616, 0.013525784946978092, 0.007866908796131611, 0.0152207026258111, -0.01267662737518549, -0.0008120382553897798, 0.007716537918895483], [0.07139068096876144, -0.028453055769205093, 0.009029713459312916, 0.06588909775018692, 0.09240835905075073, -0.050212420523166656, 0.0163054708391428, -0.009845111519098282, -0.05573933199048042, 0.004478304646909237, -0.0675964280962944], [0.04259897395968437, 0.00031218238291330636, -0.06621887534856796, 0.00903335865586996, -0.017608609050512314, -0.013652602210640907, -0.03273396193981171, 0.009275012649595737, -0.006306549534201622, 0.010266575962305069, 0.0017134733498096466], [-0.0016381245804950595, 0.006846350617706776, 0.06563500314950943, 0.0012883273884654045, 0.0375274121761322, -0.05109662190079689, 0.0035792961716651917, -0.0063638812862336636, -0.006960358936339617, 0.02934228628873825, -0.060957904905080795], [0.021111849695444107, -0.007559140212833881, 0.010264907963573933, 0.07355399429798126, 0.050200216472148895, 0.010423793457448483, -0.004185008350759745, -0.05076603591442108, -0.023516865447163582, 0.02633271925151348, -0.05174746364355087], [-0.04456536844372749, 0.004154307302087545, 0.04270496964454651, -0.03654574602842331, 0.028949759900569916, 0.0001903698721434921, -0.009756798855960369, 0.010483751073479652, -0.0021087615750730038, 0.015618279576301575, -0.005507057998329401], [-0.004164461512118578, 5.408261495176703e-05, -0.009062808938324451, 0.0073345983400940895, 0.009056740440428257, -0.0012620453489944339, 0.002502113115042448, 0.003783638821914792, 0.00017282126646023244, -0.006445132661610842, -0.0022110063582658768], [-0.2311507910490036, -0.008828382007777691, -0.22324742376804352, -0.21237340569496155, -0.09777271002531052, -0.06291884928941727, -0.05237601697444916, -0.1045958623290062, 0.002996644005179405, 0.010118221864104271, -0.004893855657428503], [0.017180046066641808, 0.006218912545591593, -0.01276539359241724, -0.01319707091897726, -0.026663828641176224, -0.007460980210453272, -0.048808395862579346, -0.020359408110380173, 0.030874958261847496, 0.029224973171949387, -0.000608822563663125], [0.03263078257441521, -0.0009844301966950297, 0.07383117824792862, -0.02746519260108471, -0.056387871503829956, 0.00935219693928957, 0.04199407622218132, -0.030068375170230865, 0.02449112758040428, -0.045447032898664474, 0.026368996128439903], [-0.011906555853784084, -0.0005986208561807871, -0.026154402643442154, 0.002969894791021943, 0.012282757088541985, -0.0026617294643074274, 0.002796972868964076, 0.00513285119086504, 0.00022582043311558664, -0.01215650700032711, 0.0023969945032149553], [0.045548178255558014, 0.00027624471113085747, 0.039944540709257126, 0.0702526643872261, -0.05541105940937996, 0.0018660445930436254, -0.03184053301811218, -0.021960627287626266, 0.01876162365078926, 0.02484322339296341, -0.0013081018114462495], [0.027116823941469193, -0.004405546002089977, 0.014110318385064602, 0.0108159389346838, -0.05783853307366371, -0.022661292925477028, 0.017671195790171623, 0.00820425245910883, 0.00575643964111805, -0.04505191370844841, 0.012031333521008492], [-0.06777764111757278, -0.0011018539080396295, 0.004746423568576574, 0.0013086824910715222, -0.05469636619091034, -0.046995602548122406, 0.013166699558496475, -0.01771439053118229, -0.0487118698656559, 0.07155165821313858, 0.016761159524321556], [0.09920503199100494, -0.02102229930460453, 0.12495812028646469, 0.06765220314264297, 0.1255275458097458, -0.04534883797168732, 0.029995471239089966, -0.07064375281333923, 0.014206350781023502, 0.038025323301553726, 0.019816918298602104], [0.03314695134758949, -0.001345927594229579, -0.02136310748755932, 0.007528447546064854, -0.01867211051285267, -0.0016329260542988777, 0.008981440216302872, 0.016994215548038483, -0.012623350135982037, 0.002260696142911911, -0.012019998393952847], [0.0045632775872945786, -0.0021008409094065428, -0.00047260994324460626, 0.03350590914487839, -0.013266287744045258, -0.003595771035179496, -0.0022099874913692474, 0.003929034806787968, -0.01058347150683403, 0.012001429684460163, 0.00036915813689120114], [-0.09402556717395782, 0.0077982377260923386, 0.00895661860704422, -0.036393389105796814, -0.037880729883909225, -0.03481465205550194, 0.03742774575948715, 0.038409799337387085, -0.011010549031198025, 0.04317532852292061, 0.037939175963401794], [0.0060783387161791325, -0.0034882263280451298, -0.017661910504102707, 0.00858644675463438, -0.04533468186855316, -0.01614343747496605, -0.022848453372716904, -0.0005440907552838326, 0.010326795279979706, -0.018866784870624542, -0.013436713255941868], [-0.11916723847389221, -0.026666391640901566, -0.0024275523610413074, -0.09910710901021957, 0.01815682277083397, 0.023507382720708847, -0.01693105138838291, 0.008504016324877739, 0.019697437062859535, 0.03432122990489006, -0.00949038751423359], [0.20297478139400482, 0.001834987080655992, 0.1680607944726944, 0.1530473530292511, 0.20690986514091492, 0.014348895289003849, -0.042081210762262344, 0.0034592400770634413, 0.06145360320806503, 0.039256464689970016, 0.022379493340849876], [0.041106704622507095, 0.0005675092106685042, -0.04163838177919388, -0.008835211396217346, 0.010191630572080612, 0.0024977712891995907, -0.009477723389863968, 0.006868200842291117, -0.011782852932810783, -0.006056999787688255, -0.0016132623422890902], [0.12652020156383514, -0.01303057000041008, 0.10075236856937408, 0.09484446793794632, 0.09681382030248642, 0.047536734491586685, -0.05582960695028305, 0.07265537977218628, 0.03359946236014366, -0.041496533900499344, 0.016433261334896088], [-0.0036706042010337114, 0.001012792345136404, -0.0001365894277114421, 0.00916772335767746, -0.006418951787054539, 0.001133571844547987, 0.0017386844847351313, 0.0009067896171472967, -0.005538824945688248, 0.010720156133174896, 0.0028861945029348135], [0.08881177753210068, -0.0026719679590314627, -0.0025289736222475767, 0.05412709712982178, 0.05250917747616768, 0.037583477795124054, -0.05653849616646767, 0.039979059249162674, 0.037390004843473434, 0.04395909979939461, 0.012877251021564007], [-0.03132124990224838, 0.002820151625201106, -0.03768428787589073, 0.005719078239053488, 0.033209118992090225, 0.003089887322857976, -0.0013227744493633509, 0.007769539952278137, -0.01023702323436737, -0.004814432933926582, -0.011339391581714153], [0.0034428504295647144, -0.0039785485714674, 0.019224615767598152, 0.004326143302023411, -0.03275972977280617, -0.0016139395302161574, 0.012174881063401699, 0.012997660785913467, -0.015897799283266068, -0.008111502043902874, 0.006992173381149769], [0.04037291929125786, -0.000568283605389297, 0.019661754369735718, -0.006230000872164965, -0.026353435590863228, 0.0002101389254676178, -0.007429900113493204, 0.009508060291409492, -0.0035465583205223083, -0.009982231073081493, 0.008449765853583813], [-0.005987816024571657, 0.0016992127057164907, -0.003417201107367873, 0.026385625824332237, -0.029372993856668472, -0.0016452023992314935, 0.004233008250594139, 0.006027350667864084, -0.00415467144921422, 0.002238374436274171, -7.209535397123545e-06], [-0.05793170630931854, -0.008454258553683758, -0.009098772890865803, -0.020482486113905907, 0.03726169094443321, -0.013708694837987423, -0.00961295049637556, -0.011575771495699883, -0.020887283608317375, -0.0030134867411106825, -0.004940990824252367], [0.08257749676704407, 0.007306104525923729, 0.07168873399496078, 0.05582535266876221, 0.023380111902952194, 0.05126313120126724, 0.01644950546324253, 0.06589662283658981, 0.03762035816907883, -0.026545723900198936, 0.048235222697257996], [0.004703324753791094, 0.00901523046195507, -0.00610717386007309, 0.02241743914783001, -0.021509617567062378, 0.02185993455350399, 0.02316955476999283, 0.015655364841222763, -0.0026701062452048063, -0.004302931018173695, 0.0025742603465914726], [-0.04497043415904045, -0.002682581078261137, 0.004857503343373537, 0.0502328984439373, 0.004668084904551506, -0.004037966951727867, -0.0135761434212327, -0.010222210548818111, 0.010846556164324284, -0.022673996165394783, -0.005583818070590496], [0.049590956419706345, 0.004673721734434366, -0.003763302229344845, 0.043638065457344055, 0.05126570165157318, -0.014205041341483593, -0.014012922532856464, 0.023990118876099586, -0.030956383794546127, -0.04181724414229393, -0.003176322439685464], [-0.05137820541858673, -0.0022041380871087313, 0.052207715809345245, -0.04163141921162605, 0.04748460650444031, -0.008482949808239937, -0.0038711002562195063, 0.003584823803976178, 0.017380982637405396, -0.022511152550578117, -0.008658689446747303], [-0.22554004192352295, -0.018209924921393394, -0.14351841807365417, -0.20889973640441895, -0.20668092370033264, 0.11412705481052399, 0.04946416988968849, -0.02742103673517704, -0.09772099554538727, 0.03969282656908035, 0.02009393274784088], [0.0020584245212376118, -0.02836790680885315, 0.06323804706335068, -0.07842747867107391, -0.016328269615769386, 0.01664043962955475, 0.005262406077235937, -0.05942166596651077, 0.017549920827150345, 0.05910499766469002, -0.06496430188417435], [-0.09111683815717697, -0.00696088932454586, -0.1431598663330078, -0.08760982751846313, -0.08040782809257507, 0.052506718784570694, -0.042733632028102875, 0.07186316698789597, -0.08746213465929031, 0.07401467114686966, 0.04210483655333519], [0.009762515313923359, 0.004473145119845867, 0.031490176916122437, -0.02699638344347477, -0.033345289528369904, -0.0007950520957820117, 0.01941070891916752, -0.027498746290802956, -0.01493049319833517, 0.011210418306291103, -0.002072475617751479], [0.009516253136098385, 0.0028015580028295517, -0.006789254955947399, -0.009505018591880798, 0.010360054671764374, -0.010707596316933632, 0.017997052520513535, -0.02237222157418728, 0.008830421604216099, 0.005551129579544067, 0.001309509389102459], [-0.09883680194616318, -0.05510025471448898, -0.05468268319964409, -0.08079299330711365, -0.12333070486783981, -0.02020583674311638, 0.03381726145744324, -0.07779215276241302, -0.008093784563243389, 0.06194370612502098, -0.03385116532444954], [0.22085393965244293, -0.018237115815281868, 0.227576345205307, 0.1582670956850052, 0.25697842240333557, 0.04307102784514427, -0.07528527081012726, 0.02097310870885849, 0.06118932366371155, -0.016944333910942078, -0.05633781477808952], [-0.00964648649096489, 0.0033656018786132336, 0.008435731753706932, 0.03037320449948311, -0.03472193703055382, 0.007960381917655468, 0.004053447395563126, 0.018726034089922905, -0.013640985824167728, -0.008935305289924145, 0.007033375091850758], [0.000930272217374295, -0.003702935529872775, -0.05176154151558876, 0.034382324665784836, 0.01947125792503357, 0.0028469725511968136, 0.027464324608445168, -0.024885814636945724, 0.0017846059054136276, 0.029903719201683998, -0.001800371566787362], [-0.19117413461208344, -0.03652086853981018, -0.11815118044614792, -0.2049587368965149, -0.12656347453594208, -0.05632321909070015, 0.07451364398002625, 0.0018297081114724278, -0.015566174872219563, 0.025138841941952705, 0.011613261885941029], [0.03186482936143875, -0.006514966953545809, -0.05334508419036865, 0.05344955995678902, -0.014874186366796494, 0.0034497599117457867, 0.017017515376210213, 0.0009643726516515017, -0.019361142069101334, -0.02269342727959156, 0.0073313163593411446], [0.06508255749940872, 0.0019454486900940537, 0.012726152315735817, -0.018114358186721802, -0.03578956052660942, -0.0011422132374718785, -0.00405302457511425, 0.013537506572902203, 0.01120814960449934, 0.018731163814663887, 0.0012767239240929484], [-0.04155905917286873, 0.0005883242702111602, -0.0014624630566686392, 0.015302367508411407, 0.020764382556080818, 0.008128820918500423, 0.009870966896414757, -0.00013334109098650515, -0.008931202813982964, -0.009678428992629051, 0.008162337355315685], [-0.05431152507662773, -0.016070391982793808, 0.012844434939324856, 0.056795068085193634, 0.038029592484235764, 0.02220865711569786, -0.042873527854681015, 0.036465421319007874, -0.0356501005589962, 0.024386269971728325, 0.0007836308213882148], [-0.037343062460422516, -0.016737602651119232, 0.016794953495264053, -0.045273084193468094, 0.015095304697751999, 0.00011191880912519991, 0.0436435230076313, -0.04730691388249397, -0.021565543487668037, 0.024906598031520844, -0.022872935980558395], [-0.0007467891555279493, -0.0009023597231134772, -0.0004972957540303469, 0.0019278893014416099, -0.004173561464995146, 0.004212081898003817, 0.0039163087494671345, 1.1906346117029898e-05, -0.0033852201886475086, -0.009952304884791374, 0.004856051877140999], [-0.026665285229682922, 0.0014129218179732561, -0.027040937915444374, 0.03228858858346939, 0.027181286364793777, -0.00043772748904302716, -0.0037337266840040684, -0.008278141729533672, 0.013447088189423084, 0.014036739245057106, 0.00356823718175292], [0.02017713151872158, -0.0010292724473401904, 0.08969583362340927, -0.02596774324774742, 0.060516588389873505, -0.021071281284093857, -0.04461488872766495, 0.0009920450393110514, 0.06361901760101318, -0.029287410899996758, -0.030059538781642914], [0.03706095740199089, 0.03391077741980553, -0.05542505905032158, 0.08430146425962448, 0.05750787630677223, 0.04254740849137306, -0.03053106740117073, 0.005192237440496683, 0.051958952099084854, 0.01991719752550125, 0.034006088972091675], [0.037389129400253296, 0.0030416774097830057, 0.020902810618281364, 0.0007831000257283449, -0.01762322336435318, 0.0009996442822739482, -0.009411714039742947, 0.016032308340072632, -0.02683475986123085, -0.023243166506290436, -0.01469399593770504], [-0.030681151896715164, -0.004591374658048153, -0.001697058673016727, 0.012698031030595303, 0.018237115815281868, 0.01624603010714054, -0.011636589653789997, -0.028166504576802254, -0.023228494450449944, 0.007385471370071173, -0.008637086488306522], [-0.03341950103640556, 0.0074724359437823296, 0.03284892439842224, -0.02787899598479271, -0.0855046808719635, 0.027102654799818993, 0.06635754555463791, -0.05071793869137764, 0.04117879271507263, -0.011240668594837189, 0.036154281347990036], [0.10603465139865875, 0.033658627420663834, 0.056594811379909515, 0.09647288173437119, 0.09477202594280243, 0.030681461095809937, 0.05344206839799881, -0.03495033457875252, -0.060301970690488815, 0.04984899237751961, -0.02558090165257454], [0.017489731311798096, -0.001581439282745123, 0.0013750017387792468, -0.038946427404880524, 0.034029606729745865, 0.004235203843563795, -0.0007989986333996058, 0.003644437761977315, -0.004748549312353134, -0.01033867709338665, 0.005452632438391447], [-0.02817229926586151, 0.0037262181285768747, 0.04503263533115387, -0.03408809378743172, -0.021630825474858284, 0.0285491980612278, 0.015251499600708485, 0.02930407039821148, 0.041331782937049866, -0.006288987118750811, -0.014912442304193974], [0.05473952367901802, -0.012120778672397137, -0.008412722498178482, 0.0008104917360469699, -0.040438681840896606, 0.01228297408670187, -0.05114824324846268, 0.025936730206012726, -0.005905302707105875, 0.03029760718345642, -0.022413220256567], [-0.2639899253845215, -0.006320290267467499, -0.2575345039367676, -0.19002285599708557, -0.2599431872367859, -0.093063585460186, -0.06538018584251404, 0.035648081451654434, -0.08783348649740219, 0.048461947590112686, 0.01611030101776123], [0.18378719687461853, -0.02135457657277584, 0.17568178474903107, 0.13783209025859833, 0.16838927567005157, 0.04341557249426842, 0.04364406690001488, -0.06085502356290817, 0.06010914593935013, -0.015097071416676044, 0.012764920480549335], [0.09546329081058502, 0.03509163856506348, 0.10815692692995071, -0.04268386960029602, -0.05602582171559334, -0.020328406244516373, -0.012817110866308212, -0.04081030935049057, -0.018503358587622643, 0.07670769095420837, -0.045462530106306076], [-0.0005227449000813067, -0.000442132237367332, -0.0004445777740329504, -0.00041328545194119215, -0.0003850377688650042, -0.000797498447354883, -0.000564025656785816, -0.00035115296486765146, -3.673985702334903e-06, 0.0001074390675057657, -0.00019245945441070944], [-0.057901330292224884, -0.002209665020927787, -0.00011065663420595229, -0.02748902142047882, -0.059915170073509216, -0.0003609270497690886, -0.008645781315863132, -0.008632855489850044, -0.005016266368329525, -0.001754856202751398, 0.005428603384643793], [-0.006570849567651749, -0.0021776871290057898, -0.005880288779735565, -0.005531899631023407, -0.005563138052821159, -0.0030975148547440767, -0.0026760464534163475, -0.00333514716476202, 0.0007269448251463473, 0.0006915050907991827, 0.001497525256127119], [-0.03764769434928894, -0.0002095232339343056, -0.013632792979478836, -0.04491760581731796, -0.025661461055278778, 0.0015560828614979982, 0.0010874200379475951, -0.00047189401811920106, -0.0002008075825870037, -0.004820735193789005, 0.0049970257095992565], [0.035756465047597885, 0.004231523722410202, 0.0061726197600364685, 0.02181614749133587, 0.008613739162683487, 0.03071143664419651, 0.015730103477835655, 0.002858491148799658, -0.016486557200551033, 0.03761676326394081, 0.004526626784354448], [4.949937647324987e-05, 5.597087510977872e-05, -4.9523983761901036e-05, 1.7560381593284546e-06, -3.0264875022112392e-05, 0.00012653821613639593, 0.00010118322097696364, 4.5719069021288306e-05, -0.0001194597571156919, -0.00043919109157286584, -9.12943432922475e-05], [0.00022195649216882885, -3.3263750083278865e-05, 0.00022106851974967867, 0.00021753319015260786, 0.00021806187578476965, -5.46617156942375e-05, -3.845401806756854e-05, -4.182175689493306e-05, -0.00018955947598442435, -0.00015352012997027487, -1.9629051166702993e-06], [-0.07139411568641663, -0.0010488948319107294, 0.00629552872851491, -0.08107099682092667, -0.0420849472284317, 0.0816255584359169, 0.08333943784236908, 0.07100047171115875, 0.04806903749704361, -0.013229225762188435, 0.03439822047948837], [-0.010932386852800846, -0.0013165766140446067, -0.014290791936218739, -0.0046506766229867935, -0.012862246483564377, -0.002713951747864485, -0.0008696180302649736, 0.0008115097880363464, -0.0012016365071758628, -0.0027423552237451077, -0.0030207964591681957], [-0.010265244171023369, -0.0011898295488208532, -0.001337262336164713, -0.0047940779477357864, -0.0038853760343044996, 0.0003285129205323756, -0.0005564828170463443, -0.0018389319302514195, -0.000895258504897356, -0.002119429176673293, 0.001501319813542068], [0.0001986322895390913, -6.474059773609042e-06, 0.00019919360056519508, 0.00020318507449701428, 0.00020277875592000782, -2.6966325094690546e-05, -1.6189289453905076e-05, 7.475098755094223e-06, 0.00011168972559971735, 0.00017328272224403918, -8.209860970964655e-05], [-0.008290723897516727, 0.0038792542181909084, -0.0031659514643251896, -0.011154900304973125, 0.011882392689585686, 0.001685849390923977, 0.0012762692058458924, 0.0007603543344885111, 0.00024634262081235647, -2.7401221814216115e-05, 0.0012895845575258136], [-0.0003622800577431917, -0.0003420316497795284, 2.2996164261712693e-06, -0.00034635423799045384, -8.654656994622201e-05, -0.0004933277959935367, -0.0006598409963771701, -0.0008782143704593182, -0.0001301266747759655, -0.0004633077478501946, -0.00014474507770501077], [0.06460396945476532, 0.0005290406988933682, -0.027437089011073112, 0.023193996399641037, 0.03921419382095337, -0.007303738035261631, -0.0015319125959649682, -0.0005225885543040931, -0.005950053688138723, 0.0011271288385614753, -0.0052451821975409985], [-0.06536013633012772, -0.010956712067127228, 0.024275409057736397, 0.028480738401412964, -0.020908648148179054, -0.0010861578630283475, -0.0032693406101316214, 0.004662031773477793, 0.018299035727977753, 0.005468265153467655, 0.021441610530018806], [-0.0016446150839328766, 0.000277171959169209, -0.001626540906727314, -0.0016780269797891378, -0.0017342115752398968, -0.00013808686344418675, 0.0004790867678821087, 0.0009651895379647613, -0.0017893434269353747, -0.001938744680956006, -0.0013128004502505064], [-9.865826723398641e-05, -1.7715270587359555e-05, -8.422006794717163e-05, -8.164682367350906e-05, -8.077607344603166e-05, 0.000369209359632805, 0.0003301778342574835, -0.001542711746878922, 0.00047150778118520975, 0.0013041278580203652, -8.252504630945623e-05], [0.007524674758315086, 0.0027376122307032347, -0.026195377111434937, -0.025568688288331032, -0.04316515102982521, 0.006009030155837536, 0.008170392364263535, -0.00494347931817174, 0.004023433197289705, 0.01086787786334753, -0.005698808003216982], [-0.003747418290004134, -0.0005959590198472142, -0.006850482430309057, 0.004325711168348789, 0.002485295059159398, -0.00013668184692505747, -0.002877995138987899, 0.00106344697996974, -0.0008658546721562743, -0.0007760548032820225, -0.0009947239886969328], [-0.02931123785674572, -2.7747373678721488e-05, -0.06756040453910828, 0.06027648225426674, 0.02248251996934414, 0.0018136162543669343, 0.007058636751025915, -0.015295705758035183, -0.020165299996733665, 0.00571356900036335, 0.004375964868813753], [-0.040188856422901154, -0.02616405487060547, -0.07855875045061111, 0.027819549664855003, -0.0886915922164917, -0.012144804932177067, 0.011801834218204021, -0.010365290567278862, 0.027147039771080017, 0.02781297080218792, 0.02546202950179577], [-1.1402941709093284e-05, -0.00010834085696842521, -1.1766443094529677e-05, -1.4783836377318949e-05, -2.307953400304541e-05, -9.397598478244618e-05, -4.935703327646479e-05, -2.500699110896676e-06, 0.0001803306513465941, 6.938076694495976e-05, 0.0001345879427390173], [-0.08470772206783295, -0.0027361393440514803, -0.09483980387449265, 0.021428320556879044, 0.013072492554783821, 0.009173143655061722, 0.01840551383793354, 0.004831008147448301, 0.026456288993358612, 0.024101072922348976, 0.01331318635493517], [-0.0005279710749164224, -7.85200682003051e-05, -0.0005072936764918268, -0.0004909558338113129, -0.0004734444955829531, -0.00041127478471025825, -0.0004906467511318624, -0.0005519450642168522, -0.00019858656742144376, -0.0001773494586814195, -0.00022895311121828854], [0.02033621072769165, -0.002102028112858534, 0.03807205334305763, -0.06753721088171005, -0.009681333787739277, -0.0029886565171182156, -0.013600336387753487, -0.03176508843898773, -0.00011854475451400504, 0.022042950615286827, 0.012872938998043537], [-0.00024080554430838674, -1.3342307283892296e-05, -0.000804075098130852, -0.0012941400054842234, -0.0009652779554016888, -0.0003016907721757889, -0.00018682311929296702, -0.00025724503211677074, -0.0001262632431462407, -0.0005532019422389567, 0.0004994006594642997], [-0.0009368234314024448, -0.0004246879543643445, -0.0005432156613096595, -0.001614406006410718, -0.001326923375017941, -0.0006672440795227885, -0.0001568234001751989, -0.0015937861753627658, -0.00041509969742037356, -0.00045690947445109487, -0.0005139268469065428], [8.212784450734034e-05, -0.00019350697402842343, -3.2769319659564644e-05, 0.00012791140761692077, 0.00016544753452762961, -0.00021193937573116273, -0.00020370505808386952, -0.0001937141496455297, -0.00033497560070827603, -0.000393453286960721, 0.00011792695295298472], [0.00011303774954285473, 0.00011205517512280494, 0.00011394920875318348, 0.00011161605652887374, 0.00010892159480135888, 0.00010999513324350119, 0.00013637680967804044, 0.00014682969776913524, 2.5722586087795207e-06, 2.892472912208177e-05, 3.4636414056876674e-05], [-0.0013698693364858627, 0.0005196845741011202, -0.0011930251494050026, -0.001181990490294993, -0.0011217753635719419, 0.0012228634441271424, 0.0009722447721287608, 0.00016384050832130015, -7.800901948940009e-05, -0.0007435734150931239, 0.001704914728179574], [-0.004175086040049791, -0.00418478436768055, -0.04534035548567772, 0.02606344223022461, 0.01320017222315073, 0.0055503821931779385, -0.008880230598151684, -0.008964894339442253, 0.014540713280439377, -0.005460396409034729, 0.01060026977211237], [-0.0016901266062632203, -0.0031583886593580246, -0.0023559543769806623, -0.0015761401737108827, -0.0019049661932513118, -0.005850759334862232, -0.003651839215308428, -0.006750871427357197, -0.0012089313240721822, -0.0014403096865862608, -0.00012835778761655092], [-0.0003382015274837613, -0.0018148545641452074, -0.00018218181503470987, -0.00012468417116906494, -6.344453140627593e-05, -0.0018646031385287642, -0.0020113028585910797, -0.004174208268523216, -0.001250791596248746, 0.0003788952890317887, 9.522166692477185e-06], [0.009439804591238499, -0.0024412977509200573, -0.00019845996575895697, 0.009510253556072712, 0.009981028735637665, -0.0009011142537929118, 0.00013710054918192327, -0.0004681636346504092, -0.0023883995600044727, 0.00016266874445136636, 0.002126759849488735], [-2.0585162928909995e-05, 0.00018329577869735658, -4.657605677493848e-05, -5.269761459203437e-05, -6.382153515005484e-05, 0.000402714591473341, -0.00344606745056808, -0.00018063581956084818, 0.002720169024541974, -0.0021133609116077423, 2.8684395147138275e-05], [-0.046602945774793625, -0.01142211351543665, -0.05792910233139992, 0.06334647536277771, -0.000182596588274464, -0.023022137582302094, 0.0355241484940052, 0.02468194253742695, -0.02599949762225151, -0.02509327046573162, 0.04145362600684166], [-0.003871011780574918, 0.0019534598104655743, -0.0043707662262022495, -0.004993273876607418, -0.010716712102293968, -0.0008335498860105872, -0.0004473722947295755, -0.0010430559050291777, -0.0035311717074364424, 0.0026591066271066666, -0.00776508217677474], [-0.03903200849890709, -0.007548793219029903, -0.09862370043992996, -0.050984565168619156, 0.05052149295806885, 0.021943161264061928, 0.03517384082078934, 0.003935256507247686, 0.020814061164855957, -0.0012701454106718302, 0.018338367342948914], [-0.0003376374370418489, -0.00027115081320516765, -0.0016094278544187546, 0.00011705711222020909, -0.0006415560492314398, -0.0007359381997957826, -0.0007890270208008587, -0.0009025561157613993, -6.742052937624976e-05, -0.00010325689072487876, -0.00018121430184692144], [1.1454916602815501e-05, 0.00048742658691480756, -3.662613016786054e-05, -3.894512246915838e-06, -3.349455801071599e-05, 0.0005090116173960268, 0.0005256583681330085, 0.0005927399033680558, -1.4700332030770369e-05, 5.445325223263353e-05, 6.586185190826654e-05], [-0.06741411238908768, -0.005967738106846809, -0.11067245900630951, -0.08535554260015488, 0.03666498512029648, 0.005103102419525385, -0.0037325751036405563, 0.010617862455546856, -0.005631137639284134, 0.04020201042294502, 0.03083319589495659], [-0.030072074383497238, -0.0009975567227229476, -0.03400023654103279, 0.05115659534931183, -0.0013988231075927615, 0.006602263543754816, -0.013787555508315563, -0.040291424840688705, -0.024212604388594627, -0.004137673880904913, -0.002190106548368931], [0.0008432190516032279, 0.0017699572490528226, -0.00020675927225966007, -0.0005014827474951744, -0.0012231046566739678, 0.0019889420364052057, 0.0016145771369338036, 0.0015084658516570926, -8.317186438944191e-05, -1.528490611235611e-05, 0.00029148056637495756], [-0.0006276452913880348, -0.0012464877218008041, -0.0005997412954457104, -0.0005769918789155781, -0.0005933255888521671, -0.0010228065075352788, -0.0004444370570126921, -0.0006671715527772903, 0.0007434344151988626, 0.0007312718662433326, 0.00012180372868897393], [0.008106428198516369, 0.005116518121212721, -0.008112591691315174, -0.008709751069545746, -0.07892988622188568, 0.015220621600747108, 0.03718731179833412, 0.0038056091871112585, -0.012583843432366848, 0.021374542266130447, 0.026028193533420563], [-0.00022850856475997716, -0.0005687266238965094, -0.0008824365795589983, -0.00030625119688920677, -0.0003177451726514846, -0.0008379073697142303, -0.0016344233881682158, -0.001976354978978634, -0.0008845119155012071, -0.0012534933630377054, -0.0012094206176698208], [-6.248147110454738e-05, -3.484492845018394e-05, -6.211142317624763e-05, -0.00022339372662827373, -0.0002983743615914136, 0.0005017825751565397, 0.0010598850203678012, 0.0015570293180644512, 0.001629617647267878, 0.0018485747277736664, -0.0001307101920247078], [6.447214400395751e-05, 0.00037941400660201907, 3.64687257388141e-05, 2.8638334697461687e-05, 2.608808244985994e-05, 0.0004642026615329087, 0.0003479610022623092, 0.00025163922691717744, -6.079584272811189e-05, -0.00018215650925412774, -0.0002735191083047539], [-0.0013397835427895188, -0.0005759353516623378, -0.00019906432135030627, 0.00112235639244318, 0.00033119303407147527, -0.0006349989562295377, -0.0008203763864003122, -0.0019427859224379063, -0.00024207087699323893, -0.0012102641630917788, 0.0004997936193831265], [-0.007068193051964045, 0.0009943371405825019, -0.009671807289123535, -0.005127718672156334, -0.007859922014176846, -0.0014978989493101835, -0.000511080608703196, -0.0003662063099909574, 0.0021372518967837095, 0.0018428114708513021, 0.0009025337058119476], [-5.1192535465816036e-05, 3.12315060000401e-05, 3.7700715438404586e-07, -1.2010951877527987e-07, -6.53873648843728e-05, 5.105407035443932e-05, 1.9527537006069906e-05, -2.346337350900285e-05, 3.9858223317423835e-06, -7.721922156633809e-05, -5.127592521603219e-05], [0.00010776459384942427, 0.00026743675698526204, 9.107209189096466e-05, 7.486849062843248e-05, 5.6362823670497164e-05, 0.0003815139352809638, 0.0005162719171494246, 0.0005658456939272583, 0.000213905397686176, 0.00021016885875724256, 0.0001009363986668177], [-0.03643995523452759, -0.0003099622845184058, 0.01753554306924343, -0.03282618895173073, -0.018079005181789398, 0.0007191334734670818, -2.0831654182984494e-05, -0.0022518946789205074, 0.00014760861813556403, -0.0008552849758416414, -0.0014400958316400647], [-0.018324336037039757, -0.0005934231448918581, -0.003183067310601473, 0.010927931405603886, -0.0043679350055754185, 0.0019376261625438929, -0.01698370836675167, -0.022105269134044647, 0.023976221680641174, 0.00826980546116829, 0.0035239537246525288], [0.0024078574497252703, -0.0001620777475181967, 0.0008368285489268601, 0.0031496097799390554, 0.0020130204502493143, 0.0003614477172959596, 0.000980715500190854, 0.0006518877344205976, 0.001245200983248651, 0.001053508254699409, 0.0005743028013966978], [9.936796413967386e-05, -0.0007574824849143624, -9.010645044327248e-06, -0.00043927779188379645, -0.0008659836021251976, -0.001163990469649434, -0.002046511974185705, -0.0030847745947539806, -0.0035271230153739452, -0.001967119984328747, -0.0006212562439031899], [0.03792990371584892, -0.003978617023676634, -0.0271797813475132, 0.026564665138721466, -0.02571619302034378, -0.0033904940355569124, -0.0037168723065406084, -0.004775533452630043, -0.0005240860627964139, -0.0019463482312858105, 5.9360179875511676e-05], [-0.09472988545894623, -0.008479285053908825, -0.01784459874033928, 0.012908708304166794, -0.06131507456302643, -0.007424104493111372, 0.003347434103488922, -0.022583790123462677, 0.021965473890304565, 0.011948617175221443, 0.0037262130063027143], [0.0001651760539971292, -2.082730134134181e-05, 0.00016861024778336287, 0.00016662079724483192, 0.00017062417464330792, 4.8280264309141785e-05, 6.578594911843538e-05, 2.0504023268586025e-05, -0.00016305175086017698, -0.00025906687369570136, 4.5544795284513384e-05], [-0.018081173300743103, 0.004004891961812973, -0.02008364535868168, -0.010883753187954426, -0.019129538908600807, 0.011320734396576881, 0.004081981722265482, 0.004097874276340008, 0.008677173405885696, 0.0018635165179148316, -0.0009458278655074537], [-0.004422181751579046, 0.0005425928393378854, -0.005035689566284418, -0.0032793001737445593, -0.004082869738340378, -0.001266616047360003, -0.0012883422896265984, -0.0026102049741894007, 0.001624670927412808, 0.005537085700780153, -0.0007906774990260601], [-0.054074179381132126, -0.0059829819947481155, 0.064232736825943, 0.05827851593494415, 0.046539969742298126, 0.0196517463773489, -0.011722292751073837, 0.05110641196370125, -0.02864842861890793, 0.008315465413033962, 0.010096203535795212], [-0.1019006073474884, -0.0064617726020514965, -0.024648964405059814, -0.02972644381225109, 0.04949158430099487, 0.005424012895673513, 0.023007946088910103, 0.009017160162329674, 0.03379468247294426, 0.024629298597574234, 0.016621043905615807], [-0.012269332073628902, -0.0014744573272764683, -0.011195593513548374, 0.0006522687617689371, -0.0008301841444335878, -0.0011934153735637665, -0.001533418777398765, -0.006222536321729422, -3.9033406210364774e-05, -0.012783569283783436, -0.009981152601540089]], "lstm.weight_hh_l0": [[-3.4256026992807165e-05, 4.3194027966819704e-05, 3.861778895952739e-05, 3.1902145565254614e-05, 3.844288949039765e-05, 2.381113972660387e-06, -1.0327538575438666e-06, 0.00012130039976909757, 7.21693504601717e-05, 1.111572146328399e-05, 4.5776886281601037e-07, 1.734615580062382e-05, 6.929140909051057e-06, 7.5850824941881e-05, -1.2735206837533042e-05, -3.18130842060782e-05, 4.242080194671871e-06, -4.641470513888635e-05, 5.3891391871729866e-05, -1.530584086140152e-05, -3.0493240046780556e-05, 2.697832542253309e-06, -6.0521193518070504e-05, -2.7570420115807792e-06, -8.205467747757211e-05, -5.2706122914969455e-06, -2.584358662716113e-05, -1.715563712423318e-06, -1.6344033610948827e-06, 3.166975875501521e-05, -5.153516394784674e-05, -5.7369659771211445e-05, 3.171795833623037e-05, -6.922938155184966e-06, 1.0839494279935025e-05, 1.0743191523943096e-05, 1.0493346053408459e-05, -3.5594490327639505e-05, 6.510508683277294e-06, 8.832210482978553e-07, 3.302752156741917e-05, -2.926361958088819e-05, -1.1849459042423405e-05, -1.1046735380659811e-05, 1.9423405319685116e-05, -1.0328588359698188e-05, -2.2521728169522248e-05, -5.80359574087197e-06, 1.6228066670009866e-05, -4.343849013821455e-06, -2.572934818090289e-06, 3.843110334855737e-06, 3.0979081202531233e-05, -2.3476161004509777e-05, 1.1007082321157213e-05, 9.103841875912622e-06, -5.716560553992167e-05, -2.208107616752386e-05, -1.56315661570261e-06, -4.956742714057327e-07, 6.414400559151545e-05, 0.00012413955118972808, -5.2470808441285044e-05, 3.943635965697467e-05], [-0.00024082035815808922, 0.0019114685710519552, -0.0008094015647657216, 0.0008932023774832487, 0.0017017950303852558, 8.93677570275031e-05, 0.0005036019720137119, -0.010476859286427498, -0.0021322262473404408, -0.00020389060955494642, -0.0003570838598534465, 0.0011891198810189962, -0.0007110316073521972, -0.0015147363301366568, 0.003518017241731286, 0.0013463477371260524, -0.00012439023703336716, -0.001199117861688137, -0.00252735847607255, -0.0016186978900805116, 0.006060545798391104, 0.00015516523853875697, 0.0037971348501741886, -0.0004940168000757694, 0.0017346920212730765, 0.0005489554023370147, 0.0010207407176494598, -4.1068709833780304e-05, 0.00021452187502291054, -0.0014858870999887586, 0.0013084069360047579, 0.0017017676727846265, 0.00018061997252516448, 0.00150469655636698, 7.472366996807978e-05, -0.0038435054011642933, 1.771467213984579e-05, -0.0073722247034311295, -0.00018205237574875355, -0.00017734781431499869, -0.0016703412402421236, -0.0028216270729899406, -0.000513188075274229, -0.00010217893577646464, -0.009729327633976936, -0.0008396127377636731, -0.0001843484496930614, -0.000332504918333143, 0.00011523823195602745, -0.0012942892499268055, -9.240111103281379e-05, -0.0004716130206361413, 0.0012573428684845567, 0.0010003488278016448, 0.0005185694899410009, 0.0002556755207479, -0.0012899930588901043, 0.006602213717997074, -0.000252693920629099, -0.001960138324648142, -0.001918002963066101, 0.0028413874097168446, 0.005454210098832846, -8.770599379204214e-05], [-0.000197485918761231, 0.0005319191259332001, 1.0877336535486393e-05, 0.00029460954829119146, 0.0004370823735371232, -2.071235576295294e-05, 0.00012979580787941813, 2.401092933723703e-05, 3.2367843232350424e-05, -0.000264518748736009, -2.0083694835193455e-05, 0.00040180934593081474, -3.3012154744938016e-05, -0.0002371003502048552, 0.0006107817171141505, -9.953616245184094e-05, -6.933401164133102e-05, -0.0005365462857298553, -0.00010029067198047414, -0.0004223833966534585, 0.0004976552445441484, 7.791708412696607e-06, 0.0003479787555988878, -2.3275400963029824e-05, 0.0002413999754935503, 2.5616000129957683e-05, -6.210734136402607e-05, -8.788015838945284e-05, 2.4037208277150057e-05, 3.023093995579984e-05, 5.332497676135972e-05, -7.184675632743165e-05, 0.0002467079320922494, 0.0003703946713358164, 6.987935194047168e-05, -0.0004008787509519607, 0.0004964455729350448, -0.0006194059387780726, 7.660468691028655e-05, -9.609135304344818e-06, -0.00035351840779185295, 0.000358997582225129, -0.0002613367687445134, 3.2258490136882756e-06, -0.00037895317655056715, -0.00015830295160412788, -0.00019911908020731062, -1.6873647837201133e-05, -0.00019751103536691517, -0.0001039456037688069, -2.550251520005986e-05, -3.5073913750238717e-05, 0.0005401315866038203, -3.9093596569728106e-05, 0.00011146223550895229, 0.00021706199913751334, -0.0005442538531497121, 0.0004050476127304137, -7.316785195143893e-05, -0.0006096800789237022, -0.00025495971203781664, -0.00011016374628525227, 0.0004185059806331992, -0.00011141914001200348], [3.96666546294e-05, 0.0005134408711455762, -0.0001583576377015561, 0.0005152758094482124, 0.00046524597564712167, 5.387777855503373e-05, 3.7795176467625424e-05, -0.0026567401364445686, -3.9918741094879806e-05, 0.0001832124253269285, -6.5131280280184e-05, 0.00012452028749976307, -0.00011186091433046386, -0.00013825675705447793, 0.0011356008471921086, 0.00018325918063055724, 1.502218765381258e-05, -0.0002525308809708804, -0.00012982725456822664, -0.00030719549977220595, 0.0018639324698597193, -2.676226358744316e-06, 0.000998341478407383, -3.7841447920072824e-05, 0.00026279379380866885, 6.014893369865604e-05, 8.543718286091462e-05, -1.4823028323007748e-05, 4.9014892283594236e-05, -0.00021768794977106154, 0.00034972463618032634, 0.00013519125059247017, -7.819630263838917e-05, 0.00025435772840864956, -1.757067184371408e-05, 0.0012146320659667253, -5.6023167417151853e-05, -0.00185663893353194, -4.290302240406163e-05, -4.489836283028126e-05, -0.0005387715646065772, -0.000583943969104439, -5.7914721764973365e-06, 2.7867539756698534e-05, -0.0011625861516222358, -9.136907465290278e-05, 0.00010604569979477674, -8.823375537758693e-05, 3.060313611058518e-05, -0.00023327232338488102, -2.523653529351577e-05, -4.630543480743654e-05, 0.0002498478861525655, 0.0002891439653467387, 5.0377500883769244e-05, -4.4588916352950037e-05, -0.0003502476029098034, 0.002514226594939828, -6.797544483561069e-05, -0.00010386759822722524, 8.051852637436241e-05, 0.0004780534654855728, 0.0005371241713874042, 0.00019423829508014023], [-0.0002221927570644766, 0.00032193216611631215, -0.0006650755531154573, 0.0007549345609731972, 0.0012795242946594954, 4.0894268749980256e-05, 0.00048231123946607113, 0.007329454179853201, -0.0005239765159785748, 0.00023995820083655417, -0.0004811235121451318, 0.0008000833913683891, -0.0006543116178363562, -0.0006767284939996898, -0.0017595740500837564, 0.0006511188112199306, 0.00017628812929615378, -0.00034465102362446487, -7.709499914199114e-05, -0.0002667606167960912, -0.0037395572289824486, 0.0002857217623386532, -0.00029854191234335303, -0.00021682618535123765, 0.0005732814315706491, 0.00048473672359250486, 0.00047731903032399714, 3.9736947655910626e-05, 0.0002506177988834679, -0.00042435378418304026, 0.000427933206083253, 0.0004509619320742786, 0.00015969597734510899, 0.0005936124362051487, 0.00018351749167777598, 0.0066679539158940315, -0.0005110455676913261, 0.0007741829031147063, -0.0001899667695397511, -0.00033647261443547904, -0.0011931231711059809, -0.008519314229488373, -0.00021590368123725057, -6.773458153475076e-05, 0.007624976336956024, -0.00043592115980573, -4.2297266190871596e-05, -0.0003106010553892702, 0.0005793966120108962, -0.000993300462141633, -0.00016006542136892676, -0.0005402335082180798, 0.0004962879465892911, 0.0008060120162554085, 0.0008583248709328473, 0.0003667962155304849, -0.0009281273814849555, 0.0008510833140462637, -0.0001946557458722964, -0.0007732391241006553, -0.0006139125325717032, 0.010430397465825081, -0.002422190271317959, 0.0006664776592515409], [1.4907943750586128e-06, 2.040430081251543e-05, 6.841485628683586e-06, 9.027116902871057e-06, 3.118244421784766e-05, -8.203542734008806e-08, 1.8624755284690764e-06, -7.653177453903481e-05, 1.486205746914493e-05, 1.7903203115565702e-05, -6.13799875281984e-06, 4.69484484710847e-06, 4.350539711595047e-06, 9.012592272483744e-06, 8.460814569843933e-06, -5.034912192058982e-06, 2.4285957351821708e-06, -2.148093335563317e-05, 1.6443675121990964e-05, -1.3616084288514685e-05, 4.606733637047e-05, -4.523646111920243e-06, 2.401888559688814e-05, 3.7167656046221964e-06, -1.3532438060792629e-05, -3.96384893974755e-06, -6.858658707642462e-06, 9.066684469871689e-07, 1.5575415091007017e-06, 6.604136160603957e-06, 1.3577445315604564e-05, -1.5830011761863716e-05, 7.272311449924018e-06, 1.038954815157922e-05, 1.86448573913367e-07, -4.040023486595601e-05, -3.294729367553373e-06, -5.8155612350674346e-05, 1.7862050754047232e-06, -5.443213240141631e-07, -4.773623732035048e-05, 4.6936758735682815e-05, 4.150255335844122e-06, -2.6642283046385273e-06, -5.518078614841215e-05, 8.724575309315696e-06, 6.1650321185879875e-06, -6.671193659713026e-07, 6.150900844659191e-06, 6.8283088694442995e-06, -8.602348771091783e-07, 7.057676157273818e-06, 7.060722509777406e-06, 8.502923265041318e-06, 7.595152055728249e-06, 5.714276994694956e-06, -1.4083905625739135e-05, 5.672585029969923e-05, -2.851474619092187e-06, 4.466337941266829e-06, 2.8173682949272916e-05, -4.7281606384785846e-05, 2.396769377810415e-05, 3.208790076314472e-05], [-1.3877483979740646e-06, 0.0001638787507545203, -4.638157406589016e-05, 4.1423427319386974e-05, 0.0001597205555299297, -1.3092775361656095e-06, 1.209597394336015e-05, -0.0003482347237877548, -1.668743061600253e-05, 8.679897291585803e-06, -7.550776899734046e-06, 5.532523209694773e-05, 2.0788413621630752e-06, -3.8569407479371876e-05, 0.00022521153732668608, 1.201358281832654e-05, -3.610215344451717e-06, -9.717224747873843e-05, -2.0199657228658907e-05, -0.00013345321349333972, 0.0002805789699777961, 7.251490387716331e-06, 0.0002909078320953995, -6.695813226542668e-06, 0.00010357507562730461, 9.698311259853654e-06, 1.7517164451419376e-05, 2.1769492377643473e-06, 1.273845828109188e-05, -3.523366103763692e-05, 0.00011780991189880297, 1.903657721413765e-05, 7.79512083681766e-06, 8.19861888885498e-05, 4.6009751031306223e-07, -0.00033819672535173595, -4.317633283790201e-05, -0.0002446919970680028, -9.300139822698839e-07, -9.804994988371618e-06, -0.0002762124640867114, 0.00027405147557146847, -2.56342718785163e-06, -5.61049637326505e-06, -0.0003456802514847368, -1.3622153574033291e-06, -1.2910200894111767e-05, 4.190620188637695e-07, -6.965447596485319e-07, -6.937432772247121e-05, -1.319700004387414e-06, -1.6973226593108848e-05, 6.936577847227454e-05, 6.694373587379232e-05, 1.9114224414806813e-05, 1.546479506941978e-05, -8.360661013284698e-05, 0.00028550700517371297, -4.823863946512574e-06, -5.031118416809477e-05, -2.893702549044974e-05, -0.0003095207503065467, 0.0002999563585035503, 5.455423433886608e-06], [-7.379863382084295e-05, -0.022353187203407288, 0.0020418353378772736, -0.0036758137866854668, -0.019584625959396362, 0.001335639739409089, 0.0009334637434221804, 0.08207152038812637, -0.007747308351099491, -0.0035902541130781174, -0.00028866654611192644, -0.005754746031016111, -0.0022469840478152037, -0.005455362610518932, 0.0006528454832732677, 0.0045429980382323265, -0.002788966754451394, 0.024464188143610954, -0.006582646630704403, 0.013656076975166798, -0.028084561228752136, 0.00047171564074233174, -0.012725291773676872, -0.001079343375749886, -0.020446399226784706, 0.001974096056073904, 0.002406209707260132, -0.0002062200801447034, -0.00020364121883176267, -0.0015208510449156165, 0.0056060426868498325, 0.006717416923493147, 0.0003000866563525051, -0.0073795681819319725, 0.0004602095577865839, 0.07770808786153793, 0.006548590492457151, 0.02559160813689232, -0.0002504241419956088, -0.00032931682653725147, -0.010630418546497822, 0.01743009127676487, -0.002624223241582513, -0.0029030607547611, 0.0439206063747406, -0.0033281068317592144, 0.001244323910214007, -0.0024838850367814302, 3.6479705158853903e-05, 0.003411293961107731, -0.0005802790983580053, -0.00045798413339070976, -0.003452160395681858, -0.012741128914058208, 0.0008292098063975573, -0.002868466777727008, 0.0015785163268446922, -0.04512478783726692, -0.00036021386040374637, 0.0019444838399067521, -0.006792972330003977, 0.011213637888431549, -0.003056332701817155, -0.008791030384600163], [-0.00017172582738567144, -0.0009300059173256159, 0.0005293340655043721, -0.0002342701336601749, -1.1766538591473363e-05, -3.320629184599966e-05, -7.83483701525256e-05, 0.003133020829409361, 0.0006962124025449157, 0.0005867602885700762, 1.2211079592816532e-05, -0.0006980205653235316, 8.794191671768203e-05, 0.0008550378843210638, -0.002123268088325858, -0.0004080365761183202, 8.026571595109999e-05, 0.00034707976737990975, 0.0006330659962259233, 0.0012288803700357676, -0.0024154591374099255, -1.2793273072020384e-06, -0.002132975962013006, 0.0001214008589158766, -0.0018646233947947621, -0.00010553023457759991, -0.0002869402233045548, -3.76586576749105e-05, -8.409746806137264e-05, 0.0008152147638611495, -0.001210761838592589, -0.0005573878879658878, 0.00013441903865896165, -0.0005970131605863571, 3.501494575175457e-05, 0.0026403411757200956, -0.0004371079267002642, 0.0010823726188391447, 0.00011098304821643978, 7.280417048605159e-05, 0.0018120260210707784, -0.0026332358829677105, 9.68445383477956e-05, 9.309851884609088e-05, 0.002574931364506483, 0.00025835877750068903, -7.236724923131987e-05, -2.341432627872564e-05, 2.5905148504534736e-05, 0.0008744524675421417, -1.1404156794014852e-05, 0.00010858471796382219, -0.0008576067048124969, -0.00013790030789095908, -0.00013909224071539938, 0.00016255301306955516, 0.0007851680857129395, -0.001349817612208426, -2.9122180421836674e-05, 0.0006729451124556363, 0.0010019287001341581, 0.002811577869579196, -0.002455086912959814, 0.000491206010337919], [1.409433252774761e-06, -4.162433106102981e-05, 7.47424055589363e-05, -1.3021863196627237e-05, 0.00025362081942148507, -2.59088228631299e-05, 6.4576124714221805e-06, -0.00011805516987806186, 0.00028583742096088827, 0.00026808088296093047, 1.4714267308590934e-05, -4.573571277433075e-05, 6.485228368546814e-05, 0.0005281990161165595, -0.00019994720059912652, -0.00012805568985641003, 1.813955168472603e-05, -0.00013551180018112063, 0.00029296864522621036, 4.3175325117772445e-05, 9.853972005657852e-05, 1.8060620277537964e-05, -8.799429633654654e-05, 2.2316233298624866e-05, -0.00030773429898545146, -2.5179437216138467e-05, -7.293327507795766e-05, 1.3142315765435342e-05, -2.1918315269431332e-06, 0.00015323821571655571, 2.620556188048795e-05, -0.00018851118511520326, 2.23542629100848e-05, -0.0001417195744579658, 2.0466334262891905e-06, -0.00010122564708581194, -0.0002984796592500061, -0.0004385737411212176, 2.110148489009589e-05, -1.0866133379749954e-05, -0.00021172685956116766, 8.751702989684418e-05, 6.534225394716486e-05, 1.3531298463931307e-05, -0.00018208361871074885, 0.00010529687278904021, -2.350870090594981e-05, 2.909672366513405e-05, -6.8281888161436655e-06, 9.863485320238397e-05, 1.2922499990963843e-05, -1.5834068108233623e-05, -0.000129889405798167, 0.00011279486352577806, -1.7196462067659013e-05, 3.4847715141950175e-05, 5.153060919838026e-05, 0.0003263845283072442, 1.3635506547871046e-05, 0.00024611662956885993, 0.0002937173703685403, 9.134165338764433e-06, -0.00014883028052281588, 0.00015476340195164084], [-3.92660604120465e-06, 0.00013061620120424777, -4.477930997381918e-05, 5.307510946295224e-05, 0.0001257645635632798, 1.4668995390820783e-05, 1.1781385182985105e-05, -0.0002186480414820835, 2.647894507390447e-05, 1.5752395938761765e-06, -1.5060003534017596e-05, 6.235422188183293e-05, -3.374260995769873e-05, -1.9741632058867253e-05, 0.0001471439900342375, 9.63200000114739e-06, 4.173429715592647e-06, -6.145809311419725e-05, -1.449307455914095e-05, -8.068917668424547e-05, 0.00022216899378690869, -1.1146103133796714e-05, 0.00022940132475923747, 3.4604850043251645e-06, 0.00010004379146266729, -1.3846462934452575e-05, -4.24487006966956e-06, -2.9385032576101366e-06, 1.3544336070481222e-05, -4.804336276720278e-05, 0.00010385617497377098, 6.598570962523809e-06, -1.0056281098513864e-05, 5.381668597692624e-05, -4.522438302956289e-06, -0.0002519835252314806, 1.095440711651463e-05, -0.00019154221809003502, -1.0065888091048691e-05, -4.523787083599018e-06, -0.0001890653948066756, 0.0001801176549633965, -9.776029401109554e-06, 2.2100806745584123e-05, -0.00023935984063427895, -3.0469522243947722e-05, 3.134325743303634e-05, -2.212133040302433e-05, 9.977821719076019e-06, -4.997424184693955e-05, -1.2052743841195479e-05, 1.3822792425344232e-05, 8.207964856410399e-05, 9.024211612995714e-05, -3.901848685927689e-06, -1.6115782273118384e-05, -7.581656245747581e-05, 0.00018906804325524718, -1.5145137695071753e-05, 3.310754550511774e-07, 2.1158028175705113e-05, -0.00018640176858752966, 0.00019896545563824475, 8.292569691548124e-05], [-3.0112447348074056e-05, 0.0005868009757250547, -0.0001752793468767777, 0.0002483268908690661, 0.0006017881678417325, 4.86531644128263e-05, 5.1459555834298953e-05, -0.0033156329300254583, 8.088562753982842e-05, 0.00010013852443080395, -5.489191607921384e-05, 0.00036327619454823434, -0.00010733014642028138, -0.00019225743017159402, 0.0008285123039968312, 0.0001068997080437839, -5.152970061317319e-06, -0.00038562508416362107, -0.00013101125659886748, -0.0004534244944807142, 0.0016148271970450878, 6.636539183091372e-06, 0.001226669643074274, -1.950169462361373e-05, 0.0005333710578270257, 7.920774805825204e-05, 4.434150469023734e-05, -3.521026155794971e-05, 4.817627996089868e-05, -0.00021412930800579488, 0.0005590980872511864, 0.00010245265730191022, -4.500260274653556e-06, 0.00031864194897934794, 1.3077563380647916e-05, -0.0019108778797090054, -4.928657290292904e-05, -0.0019081267528235912, -2.2068341422709636e-05, -3.3031821658369154e-05, -0.0011775321327149868, 0.0020019514486193657, -3.970473335357383e-05, 3.390038546058349e-05, -0.001635275548323989, -9.165329538518563e-05, 4.088206696906127e-05, -8.991493086796254e-05, -1.2663955203606747e-05, -0.00025101707433350384, -3.128482057945803e-05, -5.498642349266447e-05, 0.00032580370316281915, 0.00035915637272410095, 4.662432911572978e-05, 2.1406542145996355e-05, -0.00035088587901555, 0.0017271836986765265, -9.559720638208091e-05, -0.00023825066455174237, 6.720244709867984e-05, -0.0003036199777852744, 0.0013040710473433137, 0.00021435628877952695], [-1.6334935935446993e-05, 1.757746395014692e-05, 2.994497299368959e-05, 5.282806159812026e-05, 5.282334313960746e-05, 7.531612027378287e-06, -4.938731308357092e-06, 0.00013429246610030532, 0.00010154155461350456, 1.3229081559984479e-05, -3.0410761610255577e-05, 1.3802606190438382e-05, -2.2726958377461415e-06, 7.041254139039665e-05, -7.437146996380761e-05, -3.3126449125120416e-05, 1.0798975381476339e-05, -4.7561759856762365e-05, 6.678756471956149e-05, 2.7991083697997965e-05, -7.270646892720833e-05, -4.562002868624404e-05, -0.00010630215547280386, 2.0936900909873657e-05, -7.681181887164712e-05, -2.1004281734349206e-05, -5.678244269802235e-05, -8.467316547466908e-06, 1.8474946045898832e-05, 3.3673186408123e-05, -4.6570308768423274e-05, -6.735070928698406e-05, -5.6393306294921786e-05, -4.3697215005522594e-05, 9.520268577034585e-06, 8.63569148350507e-05, 4.261700451024808e-05, -3.185400055372156e-05, 5.578438504016958e-06, 4.511333827394992e-06, 4.2259514884790406e-05, -4.163986159255728e-05, -2.9902814731030958e-06, 4.059010279888753e-06, 7.45796351111494e-05, 7.674401786061935e-06, 1.3833445336786099e-05, -2.9311024263733998e-05, 2.7611686164163984e-05, 5.2955543651478365e-05, -1.5979569070623256e-05, 8.293047721963376e-05, 3.079087400692515e-05, -5.416042768047191e-06, -2.1342495529097505e-05, -6.0632610257016495e-06, -4.99747293360997e-05, -1.4693354387418367e-05, -3.156216916977428e-05, 0.00010291265789419413, 0.00010847177327377722, 0.0001270659704459831, -0.00012203018559375778, 0.00014565812307409942], [-1.905171484395396e-05, -0.0003265400882810354, 0.0003662389935925603, -0.00034747342579066753, 6.789341568946838e-06, -7.688016194151714e-05, -3.7904417695244774e-05, 0.001983253052458167, 0.0008584866882301867, 0.0007852137787267566, 4.0327249735128134e-05, -0.0006821416900493205, 0.00021166390797588974, -0.0014699555467814207, -0.0010913372971117496, -0.0003670788137242198, 0.00014097674284130335, 4.6406526962528005e-05, 0.0010408159578219056, 0.0006902753375470638, -0.0016403660411015153, 3.4598792808537837e-07, -0.0014568631304427981, 7.627697777934372e-05, -0.0013037070166319609, -3.4479613532312214e-05, -0.00019001941836904734, -5.423035327112302e-05, 1.5253718629537616e-05, 0.0008335182210430503, -0.0013964039972051978, -0.0004558787913993001, -6.242073868634179e-05, 0.0013008177047595382, 2.0465617126319557e-05, 0.001553076202981174, -0.0005651062820106745, 0.0010185143910348415, 0.0001380943285766989, 2.7317088097333908e-05, 0.0015761726535856724, -0.0016223822021856904, 0.0002962553990073502, 0.00019164156401529908, 0.0014946907758712769, 0.0003545779036357999, -9.306602441938594e-05, 0.00011788589472416788, -0.00011290911061223596, 0.0007208051974885166, 2.5012435798998922e-05, -7.698818080825731e-06, -0.0007445449009537697, -0.00036658704630099237, -0.000281200569588691, 0.00023222059826366603, 0.00043294456554576755, -0.001309148850850761, -1.743769462336786e-05, 0.0004124053521081805, 0.0008776331087574363, 0.0017749682301655412, -0.0016807045321911573, 0.0005757437902502716], [-0.0008225575438700616, -0.0007242273422889411, -0.00031068435055203736, 0.0003229097346775234, -0.0010257803369313478, 0.0005015000933781266, 0.0011415304616093636, 0.014545214362442493, -0.004374717827886343, -0.00309189734980464, -0.0006632955628447235, 0.001938974717631936, -0.001957972999662161, -0.002469239989295602, -0.0004777278227265924, 0.0029397825710475445, -0.0009765716968104243, 0.0007602984551340342, -0.0037657765205949545, 0.0005544181913137436, -0.0034575823228806257, 0.00033831008477136493, -0.000231459503993392, -0.0009384191362187266, 0.00021678177290596068, 0.0015843667788431048, 0.001880624913610518, -0.00019652320770546794, 0.0002873303019441664, -0.0017141241114586592, -0.001477895537391305, 0.0038095833733677864, 0.0007559389341622591, 0.0006861147121526301, 0.00047475643805228174, 0.016121206805109978, 0.0031033488921821117, -0.0020968301687389612, -0.00042080224375240505, -0.0004153845948167145, 0.0015415358357131481, 0.004509991500526667, -0.0019511968130245805, -0.0009371734922751784, 0.010828794911503792, -0.0023934547789394855, -0.00033413126948289573, -0.0010663134744390845, 0.00025018193991854787, -0.0008336078026331961, -0.00032298584119416773, -0.001091853599064052, 0.000811526202596724, -0.00011720901966327801, 0.0013813287951052189, 0.00023585805320180953, -0.0002671855909284204, 0.0033243021462112665, -0.000668447813950479, -0.002900737104937434, -0.003795346710830927, 0.003852489637210965, 0.0034082243219017982, -0.0030418066307902336], [-5.4865333368070424e-05, 3.927804937120527e-05, 0.00012248843268025666, 6.761095573892817e-05, 0.00011483220441732556, -3.910421582986601e-06, -6.1071832533343695e-06, 0.0006607659161090851, 0.00020783953368663788, 8.489770698361099e-05, 1.6683390640537255e-05, -3.2704370823921636e-05, 7.106715202098712e-05, 0.00030166664510034025, -0.0002240872709080577, -0.00012154274736531079, 6.590444172616117e-06, -0.00010798350558616221, 0.0002284799120388925, 1.911866092996206e-05, -0.0002637722063809633, 1.6813486581668258e-05, -0.0003504875930957496, 2.393857721472159e-05, -0.0003412558580748737, -1.345946566289058e-05, -9.005674655782059e-05, 7.179267413448542e-06, -6.0374304666765966e-06, 0.00020694849081337452, -0.00034802767913788557, -0.00020452428725548089, 3.311450927867554e-05, -4.125146006117575e-05, 3.7612207961501554e-05, 0.00020428237621672451, -7.109950092853978e-05, -3.088422090513632e-05, 2.712626155698672e-05, -4.766203801409574e-06, 0.00023099708778318018, -0.0002456441579852253, 2.0877926090179244e-06, -5.2946463256375864e-05, 0.00020075860084034503, 4.554379120236263e-05, -7.16463036951609e-05, 8.566469659854192e-06, 4.997615178581327e-06, 4.4695945689454675e-05, 7.653637112525757e-06, -1.7351387214148417e-05, -1.0050271157524548e-06, -0.00014209972869139165, 4.5838369260309264e-05, 6.388797191902995e-05, -8.088785398285836e-05, -0.0001828076201491058, 5.912983397138305e-06, 1.0463497346790973e-05, 0.00021171625121496618, 0.00045146726188249886, -0.0003863586171064526, 0.000128459301777184], [-3.5181712974008406e-06, 7.64834931032965e-06, 3.4332001632719766e-06, 1.0701355677156243e-05, 8.687540685059503e-06, 3.678281643715309e-07, 3.0813527018835885e-07, 3.139432374155149e-05, 1.5919229554128833e-05, 2.9246564281493193e-06, 1.0788365898406482e-06, 1.5128621271287557e-06, -1.3064221775493934e-06, 6.823763214924838e-06, -1.251545108971186e-05, 2.721960470353224e-07, 3.977364485763246e-06, -4.275685114407679e-06, -9.856986480372143e-07, 2.2401573005481623e-06, -1.1484399692562874e-05, 3.5589033586802543e-07, -9.71874214883428e-06, -2.5417721190024167e-06, -1.4757138160348404e-05, 2.1955065676593222e-07, -1.6368949218303896e-07, -6.524285822706588e-07, -1.526544792795903e-06, 3.440487944317283e-06, -1.163541674031876e-05, -1.9160438569088e-06, 2.0409027001733193e-06, -4.5905735532869585e-06, 1.3523390407499392e-06, -3.5249001939519076e-06, 1.2596789929375518e-05, -9.651897016738076e-06, -2.805556960083777e-07, 2.6197685087936406e-07, 1.6252801287919283e-05, -6.30890144748264e-06, -1.1240456387895392e-06, 3.9121024997257337e-07, 9.107486221182626e-06, -1.440172582078958e-06, 1.437048808838881e-06, -2.374129735471797e-06, 5.627447990264045e-06, 3.770995249396947e-07, -1.379792138322955e-06, -1.2574380434671184e-06, 5.091333150630817e-06, -1.8915231976279756e-06, 1.3386429600359406e-06, 3.3035350952559384e-06, -8.327857358381152e-06, 9.578754855965599e-08, -5.431392082755337e-07, 7.811483555997256e-06, 2.1933372408966534e-05, 2.5099134290940128e-05, -1.552588219055906e-05, 1.717772647680249e-05], [-0.0002300161140738055, 0.0012420454295352101, -0.0007055027526803315, 0.0008087049354799092, 0.0013218579115346074, -2.8108202968724072e-05, 0.00030591836548410356, 0.0005741327186115086, -0.0011665095807984471, -0.0002982823643833399, -0.00029236054979264736, 0.0010088642593473196, -0.0003316451911814511, -0.0011375797912478447, 0.0009605188970454037, 0.0006971028633415699, 1.0722424121922813e-05, -0.0009805503068491817, -0.0011321393540129066, -0.0010586438002064824, 0.0012106152717024088, 0.0003139303298667073, 0.0015392756322398782, -0.00033820097451098263, 0.0015567104564979672, 0.0003733478661160916, 0.000639955629594624, 3.0111097657936625e-05, 0.00017838753410615027, -0.000747548183426261, 0.0011129251215606928, 0.0008213226101361215, 0.0002648289082571864, 0.0008879253873601556, 0.00016764993779361248, -0.0005752482102252543, 4.4243861339055e-05, -0.0017068097367882729, -0.0001245270250365138, -0.00016288383631035686, -0.0016407357761636376, -4.628569877240807e-05, -0.0003081791219301522, -0.00020180977298878133, -0.0005645564524456859, -0.00043565614032559097, -0.0002073580981232226, -0.000185720797162503, 0.00027397373924031854, -0.0010766800260171294, -6.21162325842306e-05, -0.0003741653636097908, 0.0009475044207647443, 0.0006739392410963774, 0.000531048804987222, 0.00030290058930404484, -0.0011254469864070415, 0.0020958217792212963, -0.000159095783601515, -0.001103581627830863, -0.0014724303036928177, 0.0008747466490603983, 0.0010640330146998167, 0.0002012948098126799], [-0.0001381844049319625, 0.0002907918533310294, 0.00012729407171718776, 0.00017490000755060464, 0.00014408498827833682, -6.064563785912469e-05, 4.487473051995039e-05, 0.0002565719769336283, 0.0001578396768309176, 1.93686100828927e-05, -5.25068480783375e-06, 0.00014345622912514955, 9.77554518613033e-05, 0.000257218285696581, -1.1013438779627904e-05, -0.00012811504711862653, -1.5680383512517437e-05, -0.0003419073764234781, 0.00019838300067931414, -0.00024154051789082587, 7.674665539525449e-05, 6.882900197524577e-05, -0.00013247181777842343, 4.793047264683992e-05, -0.00026096790679730475, -2.3003167370916344e-05, -0.00011296891898382455, 3.0586572393076494e-05, -3.075831773458049e-05, 0.00022119439381640404, -0.0002824119001161307, -0.00018782148254103959, 0.00020632841915357858, 3.0980780138634145e-05, 7.091744191711769e-05, -0.0002885300200432539, -5.446743216452887e-06, -0.00017225497867912054, 6.466135528171435e-05, -5.488052011060063e-06, 3.177539474563673e-05, 0.00022001309844199568, -2.2572963644051924e-05, -0.0001005562735372223, -0.00022512904251925647, 0.00012740322563331574, -9.50876492424868e-05, 1.0861484952329192e-05, 4.18936979258433e-05, 9.928591316565871e-05, 1.0539540198806208e-05, -5.78482577111572e-05, 0.00023265162599273026, -0.000174130909726955, 6.326766742859036e-05, 0.00019052236166317016, -0.00035147654125466943, -1.2649284144572448e-05, 1.1416188499424607e-05, -0.00010026134987128899, 0.00015119570889510214, 7.09340674802661e-05, -0.00012129973038099706, 0.00010061413195217028], [-0.0002705464721657336, 0.0022066556848585606, -0.0005635432316921651, 0.0010356028797104955, 0.001105821575038135, -2.1353894226194825e-06, 0.0002068674220936373, -0.005381668917834759, -0.0010589086450636387, -8.054934733081609e-05, -0.00019117827469017357, 0.00236543663777411, -0.00040328691829927266, -0.0009636299218982458, -0.0023777764290571213, 0.0006788025493733585, -8.134662493830547e-05, 0.0006102680345065892, -0.0014087408781051636, -0.0027179934550076723, 0.005987395066767931, 9.892492380458862e-05, 0.009962259791791439, -0.0002733332512434572, 0.0032460077200084925, 0.00027184680220671, 0.0005289138644002378, -3.3355703635606915e-05, 9.884005703497678e-05, -0.0007144926348701119, 0.001011114683933556, 0.0008786606485955417, 0.0001770234521245584, 0.00044479244388639927, 9.433654486201704e-05, -0.0029749658424407244, -0.00026321125915274024, 0.007912278175354004, -7.9751705925446e-05, -5.340903589967638e-05, -0.005603285972028971, 0.002117094350978732, -0.0002238409942947328, -7.46826408430934e-05, -0.002708734478801489, -0.00041750911623239517, -0.00015577502199448645, -0.0001689867494860664, 4.533355968305841e-05, -0.0010830721585080028, -5.0391510740155354e-05, -0.00018975662533193827, 0.0016539250500500202, 0.0013297114055603743, 0.0002580556320026517, 0.0002491235500201583, -0.0006853796076029539, 0.007634309586137533, -0.00011762313806684688, -0.001366137177683413, -0.000930360343772918, 0.01321949902921915, 0.0006273559993132949, 0.00022220741084311157], [-0.0005546784377656877, -0.008178708143532276, 0.0016935293097048998, -0.004592450335621834, -0.011151846498250961, 0.0012687373673543334, 0.0012201793724671006, 0.031639084219932556, -0.006107643712311983, -0.006318581290543079, -0.0006600526976399124, -0.0032844459637999535, -0.00274623092263937, -0.003976583946496248, -0.003175347112119198, 0.004271673504263163, -0.0025596285704523325, 0.005876688286662102, -0.005219325888901949, 0.002573649864643812, 9.139376925304532e-05, 0.00038688743370585144, -0.010367641225457191, -0.0012099186424165964, -0.0043722656555473804, 0.002183839213103056, 0.002277324441820383, -0.00043158180778846145, 3.348711470607668e-05, -0.0011888165026903152, -0.011858831159770489, 0.005656115245074034, 0.0006101742619648576, -0.0015097311697900295, 0.0008913479396142066, 0.037987735122442245, 0.006703989580273628, 0.03571224585175514, -0.00044126802822574973, -0.0004899845225736499, -0.00018116095452569425, -0.026436135172843933, -0.0031760449055582285, -0.0021480792202055454, 0.021375402808189392, -0.003626338904723525, 0.0006858326960355043, -0.0022671844344586134, -9.846000466495752e-06, 0.0018342045368626714, -0.0006846270989626646, -0.0009652676526457071, -0.002940046600997448, -0.004564490169286728, 0.0012308574514463544, -0.0015732751926407218, 0.004340880084782839, -0.016534920781850815, -0.0007127367425709963, -0.0013469586847350001, -0.005285485181957483, 0.00864975992590189, 0.002143081044778228, -0.007128935772925615], [1.7140483805633266e-06, -2.4585793653386645e-05, 2.9246925805637147e-06, 2.8165618459752295e-07, -2.719952817642479e-06, 4.304443336877739e-06, -2.0992226836824557e-06, -1.6732064977986738e-05, 2.2988664568401873e-05, 1.2057880667271093e-05, -3.7208371850283584e-06, 2.3899613097455585e-06, -1.3994546861795243e-05, 2.32238326134393e-05, -1.2790293112630025e-05, 5.53222434973577e-07, 5.648792580359441e-07, 1.6595213310210966e-05, 1.0507656952540856e-05, 2.0112300262553617e-05, 4.4230032472114544e-06, -3.373236495463061e-06, -2.1433485017041676e-05, 3.688500100906822e-06, 1.2249049632373499e-06, -6.2336312112165615e-06, -8.712485396245029e-06, -2.3406403215631144e-06, 1.5822828913769627e-07, -1.9013098153664032e-06, 2.139306889148429e-05, -7.77473997004563e-06, -2.268417347295326e-06, -2.7155529096489772e-05, -1.0930613143500523e-06, -7.383036972896662e-06, 1.8303033357369713e-05, -7.419050689350115e-06, -1.9150577372784028e-06, 3.973562797909835e-06, 8.644635272503365e-06, 2.8645417842199095e-06, -1.3586341083282605e-06, 1.62634296430042e-05, 3.6816256852034712e-06, -1.4235167327569798e-05, 2.0384255549288355e-05, -3.0696423891640734e-06, -2.300849018865847e-06, 6.277746251726057e-06, -2.586424443506985e-06, 9.567770575813483e-06, -1.0148806950383005e-06, 2.618300095491577e-05, -1.1664009434753098e-05, -1.0163546903640963e-05, 1.476409215683816e-05, 1.027502275974257e-05, -5.109389348945115e-06, 3.9384005503961816e-05, 2.2395806809072383e-05, -2.5966828616219573e-06, -2.210656020906754e-05, 1.83630454557715e-05], [-0.0009769485332071781, -0.0038630657363682985, -0.0003321062831673771, -0.00013080492499284446, -0.003990977071225643, 0.0006928375223651528, 0.0017356290481984615, 0.007980229333043098, -0.004585033282637596, -0.005578157491981983, -0.0007077474147081375, 0.0003706746210809797, -0.001847664243541658, -0.003192983567714691, -0.00717540318146348, 0.0032534541096538305, -0.001700268010608852, 0.0027739624492824078, -0.004281944129616022, 0.002212352119386196, -0.010327896103262901, 0.0006718061631545424, -0.004462270997464657, -0.001037274720147252, 0.00012290893937461078, 0.0018044792814180255, 0.0022110051941126585, -0.00018116076535079628, 0.0003472785756457597, -0.0021461842115968466, -0.0018519519362598658, 0.004354633390903473, 0.0012838799739256501, 7.820155587978661e-05, 0.0007816203287802637, 0.011176720261573792, 0.0051928018219769, 0.00829173531383276, -0.0005042780539952219, -0.0006913098623044789, 0.005426200572401285, -0.014211349189281464, -0.0026675432454794645, -0.0019118686905130744, 0.014047754928469658, -0.003007801715284586, -0.0003527856897562742, -0.001260459772311151, 0.00016777303244452924, -0.000703298719599843, -0.0004169760795775801, -0.0014281750191003084, -0.0001614134234841913, -0.0007640268304385245, 0.0019295781385153532, -0.00015461268776562065, 0.0006831390783190727, -0.00564334262162447, -0.0008003972470760345, -0.0021098817232996225, 