{"hyperparams": {}, "state_dict": {"lstm.weight_ih_l0": [[0.0012086060596629977, -0.007189018651843071, 0.0016219860408455133, 0.001936001586727798, 0.002107428852468729, -0.008623601868748665, -0.009245052933692932, -0.007643908262252808, -0.0021144887432456017, -0.0028163189999759197, 0.004674020688980818], [-0.0008341026259586215, -0.0045034149661660194, -0.0004391997936181724, 0.0008252159459516406, -0.0005629485822282732, 0.000847268442157656, 0.001862826058641076, 0.002531646750867367, 0.0008627090137451887, 0.0012697515776380897, -0.004274166654795408], [-0.020297715440392494, 0.00028523901710286736, 0.024014361202716827, 0.02579604648053646, 0.005857523065060377, 0.00040805377648212016, 0.003490414936095476, -0.0010641221888363361, 0.0172348003834486, 0.0027391796465963125, -0.0024194964207708836], [-0.008309075608849525, -0.01181203592568636, -0.00699144322425127, -0.005988778546452522, -0.00535132410004735, -0.02574857510626316, -0.03334576636552811, -0.03126288205385208, -0.022747714072465897, -0.015492024831473827, -0.00141625024843961], [0.003666048403829336, 0.0023916102945804596, 0.0037490464746952057, 0.003788366913795471, 0.0038022033404558897, -0.0006103278137743473, 0.0005428611766546965, 0.0007929543498903513, 0.002460094168782234, 0.00268887379206717, -0.002302343724295497], [0.011559434235095978, -0.009049634449183941, 0.011741765774786472, 0.011974593624472618, 0.012195696122944355, -0.010696346871554852, -0.00937946792691946, -0.008593467064201832, -0.005989824887365103, -0.005677014123648405, 0.0007068335544317961], [0.0192281361669302, -0.021351996809244156, 0.02035140059888363, 0.021065153181552887, 0.022014372050762177, -0.02105848863720894, -0.019970782101154327, -0.018167154863476753, -0.013438839465379715, -0.01380225084722042, 0.011654435656964779], [0.00521146459504962, -0.0038452441804111004, 0.005419400054961443, 0.005656877998262644, 0.0057183243334293365, -0.006851467303931713, -0.008915289305150509, -0.008437557145953178, -0.00480822566896677, -0.004270019009709358, 0.0025878525339066982], [0.03826114162802696, 0.008159601129591465, 0.03864450752735138, 0.03353433310985565, 0.03711741045117378, 0.002196898451074958, 0.0010191808687523007, 0.006316553335636854, -0.007906903512775898, -0.006121307145804167, -0.0015230256831273437], [0.00545140914618969, -0.0006860583089292049, -0.005203646142035723, 0.003588286926969886, 0.00038459221832454205, -0.001932221930474043, 0.000786471355240792, 8.098321268334985e-05, 0.00022478465689346194, 0.002197506371885538, 0.0020357798784971237], [0.05674564465880394, 0.016422078013420105, 0.03125370293855667, 0.014248020015656948, 0.053213801234960556, 0.031036844477057457, -0.002946309046819806, 0.022171536460518837, -0.0019518913468346, -0.002162636024877429, 0.004377911798655987], [0.01664181426167488, 0.011636581271886826, -0.0033758189529180527, 0.017572617158293724, -0.014463813044130802, 0.010696959681808949, -0.007770712953060865, -0.00438431603834033, 0.03847944736480713, 0.035856038331985474, 0.002138652605935931], [0.01200932264328003, -0.00711769238114357, 0.012557010166347027, 0.01295359618961811, 0.01333850622177124, -0.00840819627046585, -0.011652798391878605, -0.013756747357547283, -0.008483943529427052, -0.010452760383486748, 0.005247332155704498], [-0.0016918124165385962, -0.001071284874342382, -0.0017273139674216509, -0.0014464494306594133, -0.0013342167949303985, 0.00313581177033484, -0.0002687576343305409, 0.003474579891189933, -0.005952476989477873, -0.013505853712558746, -0.0037106138188391924], [0.048813797533512115, -0.004004061222076416, 0.012439209967851639, -0.007577729877084494, 0.021267741918563843, -0.020670657977461815, -0.02329324372112751, -0.01293332502245903, -0.0304960235953331, 0.019312933087348938, 0.01784340851008892], [-0.022531598806381226, -0.0022188578732311726, -0.020882107317447662, -0.045751385390758514, -0.02167859673500061, -0.004519524518400431, -0.006853299215435982, -0.012476242147386074, -0.010280230082571507, -0.006436730269342661, -0.0023334890138357878], [-0.000443126424215734, 0.00674414774402976, 0.018949033692479134, 0.042907942086458206, 0.04562428593635559, -0.0030332866590470076, 0.0071779643185436726, -0.0017302698688581586, 0.019154537469148636, 0.018680309876799583, 0.0046218098141252995], [-0.003493516705930233, 0.00021597303566522896, -0.005377678666263819, -0.005011012777686119, -0.007648725528270006, -0.001947064884006977, -0.004581506829708815, -0.005660380236804485, -0.002439165720716119, -0.004141004756093025, 0.0009828787297010422], [0.0024678786285221577, -0.0013483921065926552, 0.002819536253809929, 0.0029447644483298063, 0.003242683131247759, -0.0035000236239284277, 0.004401637241244316, -0.0029030332807451487, -0.0023284349590539932, -0.001545421313494444, 0.0013989605940878391], [-0.013267237693071365, -0.005706120282411575, -0.012484935112297535, -0.011820248328149319, -0.011423411779105663, -0.018082279711961746, -0.021686511114239693, -0.019033780321478844, -0.012031057849526405, -0.006428368855267763, -0.01418753806501627], [0.0026099265087395906, 0.0037236851640045643, 0.002462997566908598, 0.002422354882583022, 0.002409476786851883, 0.0038476823829114437, 0.0028932278510183096, 0.001855487935245037, -0.00027483320445753634, -0.00035868294071406126, -0.000492015213239938], [0.007606757804751396, 0.0135177131742239, 0.1591767966747284, 0.0760166123509407, 0.09728721529245377, 0.04808935150504112, 0.034625403583049774, -0.037112392485141754, -0.056172411888837814, -0.048183951526880264, 0.018314840272068977], [0.016227198764681816, 0.00856234971433878, 0.013866620138287544, 0.013783406466245651, 0.021687796339392662, 0.007828915491700172, 0.01291440799832344, 0.007529105059802532, 0.0074983397498726845, 0.014755493961274624, 0.003607075894251466], [0.01315877865999937, -0.015539501793682575, 0.013902018778026104, 0.014609022065997124, 0.015329941175878048, -0.020829781889915466, -0.022768711671233177, -0.022752737626433372, -0.015581158921122551, -0.01487866509705782, 0.007364179473370314], [0.07543442398309708, 0.0671013817191124, 0.14281700551509857, 0.15394312143325806, -0.02415664680302143, 0.04457006976008415, 0.022148050367832184, -0.03295304626226425, -0.021743129938840866, -0.04566403850913048, 0.011771454475820065], [0.018063904717564583, -0.01982649601995945, 0.01886884495615959, 0.019369175657629967, 0.0198038462549448, -0.02379518747329712, -0.02501683495938778, -0.023973438888788223, -0.018156398087739944, -0.019441800191998482, 0.016068601980805397], [0.0013633309863507748, 0.001734753604978323, -0.004786151926964521, -0.0005263475468382239, -0.0014858775539323688, -0.017964854836463928, -0.0012497586430981755, 0.000786547374445945, 0.00044752159737981856, 0.004016308579593897, 0.015917077660560608], [0.0011625145561993122, -0.002767189871519804, 0.001484167412854731, 0.0014759411569684744, 0.0016025207005441189, -0.005824471823871136, -0.005390659440308809, -0.0038431156426668167, -0.005900082178413868, -0.0032624024897813797, 0.0024325719568878412], [-0.004378325305879116, -0.008956566452980042, 0.04708423838019371, 0.0073853302747011185, -0.015054402872920036, -0.003942600451409817, -0.013817709870636463, 0.01027300301939249, 0.0076187471859157085, -0.0032229262869805098, 0.015273183584213257], [0.040139827877283096, -0.010017755441367626, 0.040686871856451035, -0.0012365643633529544, 0.025414280593395233, -0.01643303781747818, 0.0014967855531722307, -0.010748016647994518, 0.010348408482968807, -0.00550739886239171, -0.0010821657488122582], [0.02341492660343647, 0.010895183309912682, 0.01677386276423931, 0.03452778607606888, 0.03230563551187515, 0.013441172428429127, -0.0005372979212552309, 0.022597497329115868, -0.007720869965851307, -0.004996590781956911, 0.003093512263149023], [0.01847081631422043, -0.0003191543510183692, 0.01842801459133625, 0.018492422997951508, 0.01865057274699211, -0.0027982392348349094, -0.005068283528089523, -0.007807218004018068, -0.010108950547873974, -0.012131687253713608, 0.0027337088249623775], [0.020963899791240692, 0.0071410140953958035, 0.024862190708518028, 0.05529588460922241, -0.009555933065712452, 0.008483055047690868, 0.005793520715087652, 0.01412089541554451, 0.005110609345138073, 0.005056872498244047, 0.0005522178253158927], [0.0003144914808217436, 0.004861869849264622, 0.0005741392378695309, -0.000970421067904681, -0.0003746452566701919, -0.01675419509410858, -2.2829972294857726e-06, 0.0019294435624033213, 0.006558102089911699, -0.019812647253274918, 0.003525995183736086], [0.0032356474548578262, -0.011374079622328281, 0.003243350191041827, 0.003710452001541853, 0.003845186671242118, -0.015388879925012589, -0.018229400739073753, -0.017172666266560555, -0.013401228934526443, -0.009804993867874146, 0.0024145140778273344], [0.01674673520028591, -0.035358939319849014, 0.01831597276031971, 0.019649608060717583, 0.020704219117760658, -0.0494326688349247, -0.052214592695236206, -0.0501636303961277, -0.03486999496817589, -0.039032548666000366, 0.005202651955187321], [0.014771931804716587, -0.007867330685257912, 0.015125079080462456, 0.01547118742018938, 0.015735473483800888, -0.00954192504286766, -0.011907211504876614, -0.011674455367028713, -0.007658717688173056, -0.00914757326245308, 0.002928360365331173], [-0.006040486507117748, -9.82225828920491e-05, 0.003427863819524646, 0.00947088748216629, 0.0014204643666744232, 0.0013175701024010777, -0.0007092567393556237, 0.0020108497701585293, -0.006535984575748444, -0.008115246891975403, -0.003566544270142913], [0.005681579001247883, -0.005346987396478653, 0.00483716232702136, -0.011063365265727043, -0.0035072562750428915, 0.009362264536321163, 0.0068380022421479225, 1.734972101985477e-05, 0.00468977028504014, 0.0011858497746288776, -0.00048518722178414464], [0.0016207791632041335, -0.003288546809926629, 0.0017203992465510964, 0.001805153558962047, 0.0016846671933308244, -0.0017999635310843587, 0.0005217018770053983, 0.0030855073127895594, -0.00020267920626793057, -1.5142984921112657e-05, -0.006460317876189947], [0.0535321943461895, 0.011639906093478203, 0.06693525612354279, 0.09250770509243011, 0.07966141402721405, 0.0028277018573135138, 0.001924028038047254, 0.041125960648059845, -0.018266690894961357, -0.022367969155311584, -0.004007686395198107], [0.0014724958455190063, 0.0017827582778409123, 0.002824251540005207, 0.002840507309883833, 0.0012956580612808466, 0.0013135861372575164, -0.0007110461010597646, -0.001513704308308661, -0.002146595623344183, -0.0028084595687687397, -0.002362932777032256], [0.005121446680277586, -0.001805926556698978, 0.005182413849979639, 0.005179878789931536, 0.005233427509665489, -0.0026013662572950125, -0.0017311645206063986, -0.0020161704160273075, -0.0009980843169614673, -0.001685964409261942, 0.0007916772156022489], [0.0016648564487695694, -0.003632638370618224, 0.0018259603530168533, 0.0021731629967689514, 0.0022877196315675974, -0.003461317392066121, -0.007406070828437805, -0.006990367546677589, -0.0006109505775384605, -0.001784091000445187, 0.0022765835747122765], [-0.005074482876807451, 0.00397320045158267, 0.031617872416973114, 0.0013938521733507514, 0.0016448800452053547, 0.005519042257219553, 0.0019000713946297765, 0.008779597468674183, 0.0003606491372920573, 0.0028670895844697952, -0.004451893735677004], [0.0026348175015300512, -0.0015824601287022233, 0.002757397945970297, 0.0028844443149864674, 0.002972142305225134, -0.0023611465003341436, -0.0036284455563873053, -0.003971822559833527, -0.004263745620846748, -0.004028151743113995, -0.00046028028009459376], [0.06774450093507767, 0.061463695019483566, 0.09154146164655685, 0.0013863937929272652, 0.00530836870893836, 0.016467096284031868, -0.02624361217021942, 0.006638034246861935, 0.019148724153637886, 0.0109367361292243, -0.0398767814040184], [-0.0002654233539942652, -0.002839265391230583, -4.862734203925356e-05, 0.0001282784651266411, 0.00031807326013222337, -0.005827082321047783, -0.006987791508436203, -0.007211558986455202, -0.004713176749646664, -0.00440252898260951, -0.0003882590099237859], [0.03644721955060959, 0.011473276652395725, 0.036557868123054504, 0.019291602075099945, 0.04259781539440155, -0.0011802192311733961, 0.022611238062381744, -0.0032234720420092344, -0.01132342591881752, 0.0029828050173819065, -0.007159604225307703], [0.003239571815356612, 0.0036853342317044735, 0.0030311793088912964, 0.003444486064836383, 0.003281607059761882, -0.0004736580012831837, -0.0029662344604730606, -0.0024177341256290674, -0.0003505843924358487, -0.0006411091890186071, -0.00024478501291014254], [0.011108644306659698, 0.012019031681120396, 0.009493347257375717, 0.009766139090061188, 0.008869219571352005, 0.012922187335789204, 0.01926896534860134, 0.013878170400857925, 0.015388723462820053, 0.010181057266891003, 0.0018237701151520014], [-0.0001517438649898395, -0.003251221962273121, -0.005909719504415989, 0.0030421086121350527, 0.0037318533286452293, -0.004019117448478937, 0.0038964152336120605, -0.00011596233525779098, 0.002965751104056835, -0.004957986064255238, -0.006134567782282829], [0.00290124979801476, -0.004343301057815552, -0.038335904479026794, -0.046595849096775055, -0.06256719678640366, 0.004186857491731644, -0.0038034922908991575, -0.014960329979658127, 0.003009855980053544, -0.0021742493845522404, -0.005081419833004475], [0.021979888901114464, -0.020033059641718864, 0.02324821799993515, 0.024277646094560623, 0.025033894926309586, -0.02362513728439808, -0.026551011949777603, -0.026647569611668587, -0.01822710409760475, -0.018998363986611366, 0.01189684309065342], [0.00857859943062067, -0.002963390201330185, 0.008591892197728157, 0.008688559755682945, 0.00873964000493288, -0.0020905223209410906, -0.0036740759387612343, -0.002602324355393648, 0.001539365272037685, -0.00044813717249780893, 0.002327271969988942], [-0.0017814532620832324, 0.0014097263338044286, -0.0010867303935810924, -0.000825663679279387, -0.0022192648611962795, 0.0009408587939105928, 0.0008014540653675795, 0.0008988096960820258, 0.00034451691317372024, -0.0001450483687222004, -0.005717530380934477], [0.02040058560669422, -0.005568243097513914, 0.021032007411122322, 0.02160274237394333, 0.02211887203156948, -0.007908500730991364, -0.01273683924227953, -0.013944490812718868, -0.01910148188471794, -0.01963425613939762, 0.006953067611902952], [0.0025842315517365932, -0.002193169202655554, 0.002635439857840538, 0.0025407783687114716, 0.0025023072957992554, -0.0036875701043754816, -0.0001742567546898499, 0.0005138276610523462, -0.0014256596332415938, -0.0003922604664694518, 0.00705656036734581], [0.011548368260264397, 0.0036319915670901537, -0.00045988947385922074, -0.00021938118152320385, 0.0058780270628631115, 0.0035859013441950083, 0.003620738396421075, 0.005812943447381258, 0.004226822406053543, 0.0053999777883291245, -0.00841164868324995], [-0.01784154400229454, -0.029154445976018906, -0.014976554550230503, -0.013063762336969376, -0.01163961086422205, -0.045458387583494186, -0.05102173984050751, -0.04543249309062958, -0.028282327577471733, -0.023326510563492775, 0.025336425751447678], [-0.002448913175612688, 0.00011355146125424653, -0.002348376903682947, -0.002200798597186804, -0.002041078405454755, -0.002058501588180661, -0.0032703897450119257, -0.003625511424615979, -0.0024046374019235373, -0.002398240379989147, -0.00047339446609839797], [0.0009016225812956691, -0.0007149411831051111, -0.0016939357155933976, -0.0009618829935789108, 0.0007911261054687202, 0.0005353172309696674, 0.0009677077177911997, -0.000519970606546849, -0.0002922666899394244, 0.0016637035878375173, 0.004297482315450907], [-0.004510021768510342, -0.005128671880811453, -0.0014582559233531356, 0.006487886421382427, 0.008277089335024357, -0.009147170931100845, 0.005652716848999262, -0.0011216755956411362, -0.006706883665174246, 0.00014396464393939823, 0.000426342012360692], [0.0014488291926681995, 0.004141962621361017, 0.0006982889026403427, 0.00038437158218584955, 0.00037483253981918097, 0.005584447644650936, 0.005169631913304329, 0.005826987326145172, 0.010493839159607887, 0.009144466370344162, 0.0077321953140199184], [0.0013329708017408848, 0.001020895317196846, 0.001550018321722746, 0.0020227341447025537, 0.0023240959271788597, -0.009079980663955212, -0.011819683946669102, -0.010085313580930233, -0.002979731885716319, -0.0031446150969713926, 0.003072661580517888], [0.0012297392822802067, 0.005238245241343975, 0.0013137970818206668, 0.0009479398722760379, 0.0010892197024077177, 0.004584871232509613, 0.005084413103759289, 0.004885819740593433, 0.0029657213017344475, 0.003383181057870388, 0.002338060410693288], [0.031114134937524796, 0.005357420537620783, 0.016605447977781296, -0.013184604234993458, 0.02962890826165676, 0.0036252886056900024, 0.012571394443511963, -0.01270757894963026, 0.0036966647021472454, 0.0001543415419291705, 0.003121169051155448], [-0.009362190030515194, -0.022478831931948662, -0.008510597981512547, -0.007128529250621796, -0.006098156329244375, -0.03303085267543793, -0.043001435697078705, -0.039971865713596344, -0.02478877268731594, -0.020323507487773895, -0.003204704262316227], [0.004055265337228775, -0.00626426050439477, 0.004190876614302397, 0.0042804391123354435, 0.004319882486015558, -0.0043233842588961124, -0.0020514612551778555, -0.0002844383125193417, 0.0006564080831594765, 0.0013038140023127198, -0.001151068601757288], [0.011704686097800732, 0.002091693226248026, 0.011783291585743427, 0.012082398869097233, 0.012398001737892628, -0.012491157278418541, -0.012648058123886585, -0.010246618650853634, -0.006943076848983765, -0.0063260020688176155, -0.0009366616141051054], [0.02002149634063244, -0.0038418180774897337, 0.020560575649142265, 0.021632056683301926, 0.02290233224630356, -0.022202054038643837, -0.025119690224528313, -0.022920867428183556, -0.01400911994278431, -0.015362207777798176, 0.007656184025108814], [0.005047263111919165, 0.00016725149180274457, 0.0051514338701963425, 0.005443245638161898, 0.005619012750685215, -0.007906411774456501, -0.011057284660637379, -0.010327828116714954, -0.005292236804962158, -0.005252157337963581, 0.0022595878690481186], [0.031085774302482605, 0.0030812465120106936, 0.02732064202427864, 0.030326643958687782, 0.02564452774822712, 0.000525551731698215, 0.0013982325326651335, 0.003058262635022402, -0.0033470347989350557, -0.005497786216437817, 0.013052860274910927], [-0.0007488420815207064, -0.0002891956828534603, -0.009837683290243149, 0.0021529830992221832, -0.012203220278024673, -0.0007172654150053859, -0.0023551257327198982, 0.0001396435109199956, 0.00044950563460588455, 0.0008958004182204604, 0.0010308920172974467], [0.025726614519953728, -0.0014727420639246702, -0.010986077599227428, 0.05991385504603386, -0.0535661019384861, 0.004740977194160223, 0.004195085726678371, 0.0017269705422222614, 0.00940194632858038, 0.00280225882306695, 0.012326947413384914], [-0.029556656256318092, 0.006792309228330851, -0.013819558545947075, 0.020577438175678253, 0.010150233283638954, 0.002107638167217374, -0.0074006421491503716, -0.01321667991578579, 0.022482283413410187, 0.005535084288567305, 0.0014505313010886312], [0.01206193957477808, 0.0031492728739976883, 0.012323673814535141, 0.01288340799510479, 0.013478678651154041, -0.012268658727407455, -0.016346534714102745, -0.018224092200398445, -0.010476578027009964, -0.01237536035478115, 0.004033114295452833], [-0.00030764631810598075, -0.00023278282606042922, -0.0003779407707042992, -0.00019803048053290695, -0.00012633594451472163, -0.0002783804084174335, 0.0003651666338555515, 0.0074612293392419815, 0.0004061688086949289, -0.0027981840539723635, 0.0005537296528927982], [0.017209134995937347, -0.0013263175496831536, 0.015026144683361053, 0.03140135109424591, -0.05924209579825401, 0.006111498922109604, 0.03670688346028328, 0.04784717038273811, 0.023649754002690315, -0.04960629343986511, 0.014483314007520676], [-0.006687547080218792, 0.0005079617258161306, -0.006476836744695902, 0.010418985970318317, -0.021629247814416885, 0.00019386284111533314, -0.00041065688128583133, -0.0009937250288203359, -0.002039769198745489, -0.004145851358771324, -0.0009974903659895062], [0.011667960323393345, 0.010616863146424294, 0.0002073723590001464, 0.03773566707968712, 5.68992763874121e-05, 0.002948744222521782, -0.0017964649014174938, 0.0129891661927104, 0.009431927464902401, 0.0033008961472660303, 0.0006597925676032901], [0.004595904145389795, 0.0007289062486961484, -0.0010097393533214927, 0.006867107003927231, 0.0020602052100002766, -0.002834390616044402, -0.006039356347173452, -0.0073829046450555325, -0.0023544442374259233, -0.0043074460700154305, 0.00231796782463789], [0.0029644486494362354, 0.0036884169094264507, 0.0026203144807368517, 0.0034657020587474108, 0.0033182583283632994, -0.00031764409504830837, 7.235005614347756e-05, -0.0025471169501543045, -0.00048014469211921096, -0.0008952408679760993, -0.00040514676948077977], [-0.013812505640089512, -0.02223825454711914, -0.013346090912818909, -0.01277149561792612, -0.012385222129523754, -0.017634142190217972, -0.019672783091664314, -0.016382446512579918, -0.010432151146233082, -0.0065816855058074, -0.016614830121397972], [0.002873803721740842, 0.0010475828312337399, 0.0028493632562458515, 0.0028821451123803854, 0.0029474489856511354, 0.002319276798516512, 0.0007124144467525184, -7.697445835219696e-05, -0.0009051889646798372, -0.0007285595638677478, -0.002424282021820545], [0.17944423854351044, 0.027990447357296944, 0.07993515580892563, 0.11039929836988449, 0.15933004021644592, 0.038845475763082504, -0.0272662453353405, 0.0036580567248165607, -0.05015818402171135, -0.06100843846797943, 0.05268464237451553], [0.012489644810557365, -0.0014278949238359928, 0.021806444972753525, 0.011783197522163391, 0.0200073029845953, 4.2808536818483844e-05, 0.004161622375249863, 0.012090584263205528, 0.003911904525011778, 0.013659249991178513, 0.002469064202159643], [0.013244430534541607, 0.0038106271531432867, 0.013588136062026024, 0.014435968361794949, 0.015399309806525707, -0.0244134608656168, -0.02946220338344574, -0.028349727392196655, -0.017507098615169525, -0.018124006688594818, 0.006061800755560398], [0.16853134334087372, 0.004024367313832045, 0.03104686550796032, 0.13438402116298676, 0.03154690936207771, 0.02238599956035614, 0.07168832421302795, -0.0011993483640253544, 0.11585278064012527, 0.08430367708206177, 0.02124744839966297], [0.01875852793455124, 0.00420802878215909, 0.019080745056271553, 0.01985989511013031, 0.02058429643511772, -0.019774122163653374, -0.028092455118894577, -0.027946384623646736, -0.01701315864920616, -0.019634470343589783, 0.014588193967938423], [-0.000651078182272613, 0.0032667152117937803, -0.011847763322293758, -0.006310116034001112, -0.010175317525863647, -0.004986701067537069, -0.0026738939341157675, 0.0021122347097843885, 0.006395941134542227, 0.0009857048280537128, 0.0028971924912184477], [0.0015065171755850315, -0.001083405571989715, 0.001190371811389923, 0.0014748392859473825, 0.0015997719019651413, -0.005328238010406494, -0.007899338379502296, -0.006584476213902235, -0.005475284997373819, -0.004537543747574091, 0.0016719051636755466], [-0.06685268878936768, -0.009675958193838596, -0.040878500789403915, 0.013873179443180561, -0.052560701966285706, -0.008052002638578415, -0.001938034314662218, -0.004930316004902124, 0.012254114262759686, 0.012626651674509048, 0.005696712527424097], [-0.04680781066417694, 0.00031033833511173725, 0.0015201626811176538, -0.03721088171005249, -0.04411909729242325, 0.0022338395938277245, 0.004251273814588785, 0.019140975549817085, 0.016973501071333885, 0.018246660009026527, 0.002676266012713313], [0.003723361762240529, 0.0032320290338248014, 0.013862566091120243, 0.026276811957359314, 0.031361695379018784, 0.010750039480626583, 0.013079293072223663, 0.020727291703224182, 0.01458923052996397, 0.019084507599473, 0.012130064889788628], [0.019390558823943138, -0.0011725646909326315, 0.019431818276643753, 0.019609378650784492, 0.01989060826599598, -0.006610042881220579, -0.008967239409685135, -0.011544417589902878, -0.010269146412611008, -0.012429073452949524, -0.0015199653571471572], [0.055745307356119156, -0.0006968456436879933, 0.05633237957954407, 0.011767988093197346, -0.004718490410596132, 0.006237154360860586, 0.010264450684189796, 0.01389693096280098, 0.003615480847656727, 0.009361456148326397, 0.0082770437002182], [-0.0009883445454761386, 0.0008523218566551805, -0.0017420528456568718, -0.0026918125804513693, -0.000821028312202543, -0.0012197644682601094, -0.011569259688258171, -0.032685503363609314, 0.013622857630252838, 0.021690407767891884, -0.0006347968010231853], [0.00287330849096179, 0.0017764084041118622, 0.003248617984354496, 0.004660590551793575, 0.005340875592082739, -0.013081594370305538, -0.018246399238705635, -0.016563355922698975, -0.010095220990478992, -0.009379466064274311, 0.0018740752711892128], [0.014327495358884335, -0.007074403576552868, 0.01514702569693327, 0.01711883209645748, 0.01898379437625408, -0.04082735255360603, -0.051370371133089066, -0.05002029240131378, -0.03282353654503822, -0.03783794865012169, 0.007499936502426863], [0.016034329310059547, 0.008719964884221554, 0.01601303182542324, 0.016399424523115158, 0.01675858534872532, -0.0009298560908064246, -0.008561150170862675, -0.009701528586447239, -0.006708573084324598, -0.008560585789382458, 0.0008863763068802655], [0.0039896429516375065, -0.00081276660785079, -0.0012409917544573545, 0.007341308053582907, 0.004898657090961933, -0.00011418069334467873, 0.00021076695702504367, -0.004047777969390154, -0.0004826742806471884, -0.0019598559010773897, -0.001937676453962922], [0.023589301854372025, 0.001430446864105761, 0.0004094008472748101, -0.0039359829388558865, -0.008995394222438335, 0.0017980163684114814, 0.00760960066691041, 0.0032492605969309807, -0.002665495267137885, -0.0002937839017249644, 0.0002427438594168052], [0.003388200653716922, -0.0005625181365758181, 0.0034539224579930305, 0.0023180628195405006, 0.0024819120299071074, 0.0009231431758962572, 0.0027317318599671125, 0.005144237540662289, -0.0003025464538950473, 0.0017849523574113846, -0.003964373841881752], [0.09502220898866653, -0.004231635015457869, 0.042930155992507935, 0.03356378152966499, 0.0005070327897556126, -0.0056277052499353886, -0.00840297807008028, 0.0034416439011693, 0.02185482159256935, -0.0025105238892138004, 0.016803573817014694], [0.001759812468662858, 0.0013193703489378095, 0.0028463832568377256, 0.002847488736733794, 0.003087045857682824, 0.00031203849357552826, -0.0028229409363120794, -0.003203722881153226, -0.0024142200127243996, -0.002523730741813779, -0.003490077331662178], [0.0049994634464383125, -0.0029948188457638025, 0.0050713494420051575, 0.005123176146298647, 0.005210798233747482, -0.005697755143046379, -0.004567219875752926, -0.004096733871847391, -0.0019898144528269768, -0.0022648379672318697, 0.0002910901966970414], [0.0015885874163359404, 0.010369869880378246, 0.0015880416613072157, 0.0020702132023870945, 0.0024372912012040615, -0.0005578406271524727, -0.009206605143845081, -0.010953224264085293, -0.002153345150873065, -0.003494030563160777, -0.0005689944955520332], [0.05109303072094917, 0.0017156540416181087, -0.012169144116342068, 0.04352806136012077, 0.021190710365772247, 0.002319854684174061, 0.003141003428027034, 0.007043302990496159, -0.0007933746092021465, 0.0012036697007715702, -0.0002342538209632039], [0.0030340352095663548, 0.0008289989200420678, 0.0030952247325330973, 0.0032633496448397636, 0.003402427304536104, -0.002975618001073599, -0.005346182268112898, -0.0053737573325634, -0.004616112448275089, -0.004282001871615648, -0.002224171767011285], [0.044484276324510574, 0.03344947472214699, 0.05533503368496895, 0.12743547558784485, 0.03205851465463638, 0.037411343306303024, 0.06308190524578094, 0.00531106349080801, 0.06797350943088531, -0.00045144176692701876, -0.012032604776322842], [-0.00013480387860909104, -0.001962722511962056, 1.2855613022111356e-05, 0.00023121858248487115, 0.00045212500845082104, -0.008445018902420998, -0.009093886241316795, -0.008274661377072334, -0.004834736697375774, -0.004757350776344538, 0.0006927491049282253], [0.024538038298487663, 0.007490890100598335, 0.028808293864130974, 0.005672929342836142, 0.04416222125291824, 0.008803197182714939, -0.002514240564778447, -0.01433334220200777, -0.009408845566213131, -0.003476544050499797, -0.0019243614515289664], [0.002751437248662114, 0.0003451002121437341, 0.003223104402422905, 0.0030060592107474804, 0.003445872338488698, -0.0038804414216428995, -0.004650663118809462, -0.0032469283323735, 0.000823864946141839, 0.0006765908328816295, 0.005781014449894428], [0.009839213453233242, 0.002325209556147456, 0.009032802656292915, 0.00832565501332283, 0.008540239185094833, 0.009482141584157944, 0.012752375565469265, 0.011657563038170338, 0.009067237377166748, 0.009168463759124279, 0.006230456288903952], [0.00681679043918848, 0.0027532996609807014, 0.00471749110147357, -0.004509706050157547, 0.0005418684449978173, -0.0020464942790567875, -0.0003766414010897279, -0.005036432296037674, -0.0014585449825972319, 0.00231015682220459, -5.797443736810237e-05], [0.028218809515237808, -0.0069551472552120686, -0.0038072606548666954, -0.06420794129371643, -0.030661121010780334, -0.01137217041105032, -0.013256600126624107, -0.01239681150764227, -0.0021660414058715105, 0.0001360117457807064, 0.004058765713125467], [0.021983738988637924, 0.0007939862553030252, 0.022604327648878098, 0.02399817295372486, 0.025185421109199524, -0.02314409613609314, -0.03037799522280693, -0.02976546809077263, -0.01803525909781456, -0.01993808150291443, 0.005528447683900595], [0.008569355122745037, 0.0009229641873389482, 0.008612183853983879, 0.008745165541768074, 0.008842364884912968, -0.0042540836147964, -0.005438607186079025, -0.004946661647409201, -0.0007713704835623503, -0.0007241914281621575, 0.0018245246028527617], [-0.00096799002494663, -0.0019447178347036242, -0.0021657398901879787, -0.0020267171785235405, -0.003480450017377734, 0.0019999525975435972, 0.0023981344420462847, 0.0024725564289838076, 0.0011802867520600557, 0.0007073812885209918, 0.001885838690213859], [0.021824700757861137, 0.008583419024944305, 0.022027362138032913, 0.022683434188365936, 0.023286806419491768, -0.004937064368277788, -0.012999705970287323, -0.014809397049248219, -0.01706060953438282, -0.01852891780436039, 0.0017375973984599113], [0.0022357036359608173, -0.00563976401463151, 0.0022843892220407724, 0.0022852157708257437, 0.002320521976798773, -0.006482542026787996, -0.0031323712319135666, -0.0020070166792720556, -0.0017334456788375974, -0.001071553211659193, 0.002508149715140462], [0.0034105349332094193, 0.006071622483432293, -0.00039218468009494245, 0.0176224447786808, -0.0021892136428505182, 0.00875011645257473, 0.008023475296795368, 0.00964859127998352, 0.00682657677680254, 0.007969789206981659, -0.002903066109865904], [-0.015747103840112686, -0.02938663400709629, -0.014341485686600208, -0.012369268573820591, -0.01086031086742878, -0.04235033318400383, -0.05070824548602104, -0.043395936489105225, -0.023830028250813484, -0.019635386765003204, 0.009453725069761276], [-0.0024591078981757164, -0.003978456370532513, -0.0023754665162414312, -0.0022148028947412968, -0.0020404739771038294, -0.0033715523313730955, -0.004523746203631163, -0.004633389879018068, -0.002737723756581545, -0.0028504871297627687, -0.0008756151655688882], [-0.0006678396021015942, 0.0017053851624950767, 0.0009456317056901753, -0.0038010617718100548, 0.0037130406126379967, -0.00024832182680256665, 0.0007030221750028431, 0.001305144396610558, 0.002073909854516387, 0.0033475765958428383, 0.0016812243266031146], [0.00919643510133028, 0.00048417417565360665, -0.005572331137955189, -0.004593685269355774, -0.008336530067026615, 0.0025208748411387205, 0.001116917934268713, 0.003158824983984232, -0.001363116200082004, 0.0005269207758828998, 0.0032875644974410534], [0.0018600240582600236, 0.001318573486059904, 0.001168259303085506, 0.0013173545012250543, 0.0016814169939607382, 0.006214830093085766, 0.006985097657889128, 0.0020799972116947174, 0.0069258385337889194, 0.005816733464598656, 0.008037305437028408], [-0.04447247087955475, -0.011988479644060135, -0.0006601024069823325, 0.009870964102447033, 0.027967117726802826, -0.02089003659784794, -0.0346493162214756, -0.008578481152653694, 0.005430631805211306, 0.02485363557934761, 0.0030192644335329533], [0.05346912145614624, -0.0002070521004498005, -0.011949094943702221, -0.043506499379873276, 0.006031039170920849, -0.021012676879763603, -0.018417730927467346, -0.01301696989685297, -0.017420422285795212, 0.02135111391544342, -0.01977688819169998], [-0.010811839252710342, -0.01215137168765068, 0.028879545629024506, -0.08886071294546127, -0.10225900262594223, -0.017121708020567894, -0.06619781255722046, 0.029506321996450424, 0.059577226638793945, -0.03260288015007973, -0.011583761312067509], [-0.01201570313423872, -0.021779635921120644, -0.02476058155298233, 0.003446961985900998, -0.024361683055758476, -0.02260388806462288, -0.03483547642827034, -0.01148976106196642, -0.009427470155060291, 0.012473310343921185, -0.006595246028155088], [0.02998454123735428, 0.004718522075563669, -0.04153648763895035, -0.025221237912774086, -0.05034789443016052, -0.005107378587126732, 0.01275339163839817, -0.022228771820664406, 0.028820322826504707, 0.03958197310566902, -0.008349953219294548], [0.01686166040599346, -1.7460552044212818e-05, -0.019741754978895187, 0.044196754693984985, -0.03442542999982834, -0.014472400769591331, -0.015253875404596329, -0.009223823435604572, -0.019694847986102104, 0.0021943298634141684, 0.0022614775225520134], [-0.018663015216588974, -0.020068759098649025, -0.002738733310252428, -0.006303198169916868, 0.041801903396844864, -0.024112200364470482, 0.000620518927462399, -0.02437223121523857, -0.013750537298619747, -0.0175052247941494, 0.02219291590154171], [-0.046949926763772964, 0.003544900566339493, 0.038813576102256775, 0.015113183297216892, -0.003058267291635275, 0.0080783786252141, 0.03420029580593109, 0.0026033828034996986, 0.008479900658130646, -0.01667756214737892, -0.011907962150871754], [0.09171867370605469, 0.01724853552877903, 0.04022195190191269, 0.12298949807882309, 0.08520438522100449, 0.019633235409855843, 0.02223273366689682, -0.017811156809329987, 0.0094216950237751, -0.020362120121717453, 0.04174693301320076], [-0.010162158869206905, 0.011166217736899853, 0.06760283559560776, 0.024079307913780212, -0.052114374935626984, 0.005163916386663914, -0.006356163881719112, -0.005664951168000698, 0.006290265824645758, -0.03781593218445778, -0.024636149406433105], [0.15515363216400146, 0.033063970506191254, 0.011410101316869259, 0.10352102667093277, 0.08509157598018646, -0.00412019481882453, 0.08609827607870102, -0.007137794513255358, -0.05275849252939224, -0.020722048357129097, 0.04006311669945717], [-0.048732638359069824, 0.005300047341734171, -0.09454973042011261, -0.05769990757107735, 0.058112625032663345, -0.02113707922399044, -0.03611563891172409, 0.045335542410612106, 0.03700025752186775, 0.06639953702688217, 0.024841176345944405], [-0.010819974355399609, -0.0011748679680749774, 0.024768350645899773, 0.05335737019777298, -0.04669639840722084, -0.01883060671389103, -0.028857670724391937, -0.004251805599778891, -0.027144482359290123, 0.006647861562669277, 0.007475861813873053], [-0.03184714540839195, 0.04044152423739433, 0.003420427441596985, 0.05109739676117897, -0.035231344401836395, 0.04168252646923065, -0.005829828325659037, 0.0323665626347065, -0.028747452422976494, -0.020159419625997543, -0.011555634438991547], [-0.030047202482819557, 0.013112245127558708, 0.14904914796352386, 0.011119475588202477, 0.043088193982839584, -0.014325972646474838, 0.0004287021001800895, 0.046563081443309784, -0.0333254411816597, -0.04139731079339981, 0.08994871377944946], [0.007687306962907314, 0.0058202482759952545, 0.000830276170745492, 0.025843415409326553, 0.06181176379323006, -0.02467241697013378, -0.033141445368528366, 0.028989825397729874, 0.055461540818214417, -0.02444281242787838, 0.023190263658761978], [0.05774535983800888, 0.019311564043164253, 0.08784858137369156, 0.06179902330040932, 0.010832966305315495, -0.014142194762825966, 0.07940662652254105, -0.0023807408288121223, -0.049195270985364914, -0.031464796513319016, -0.027497712522745132], [-0.0042943572625517845, 0.002343636704608798, -0.014874430373311043, -0.04736722633242607, -0.006510402541607618, -0.004958418197929859, 0.004820182919502258, 0.047347430139780045, -0.02070826292037964, -0.014147327281534672, -0.013822652399539948], [0.03412804752588272, -0.004320995882153511, -0.028101477771997452, -0.06443909555673599, 0.013395706191658974, 0.011802722699940205, 0.03494034707546234, 0.03698611631989479, -0.0033075381070375443, -0.04623829945921898, 0.009540943428874016], [0.05579027533531189, 0.011976971291005611, 0.007459258660674095, 0.0034314088989049196, 0.013735685497522354, -0.008707040920853615, 0.014348214492201805, 0.01723571866750717, 0.008960146456956863, -0.041650865226984024, 0.006755176931619644], [0.011109591461718082, 0.01637948863208294, -0.01512184552848339, -0.01353539526462555, 0.02406592294573784, 0.009874514304101467, -0.018585918471217155, 0.0028010604437440634, 0.010332145728170872, 0.018330438062548637, -0.01840130053460598], [0.3748505413532257, 0.10247616469860077, 0.35069096088409424, 0.30452826619148254, 0.3419615626335144, 0.010592329315841198, -0.0321916900575161, 0.010400925762951374, 0.09736569225788116, 0.008137024007737637, 0.010910195298492908], [-0.03793663531541824, 0.05293848365545273, 0.03167552873492241, -0.01763908937573433, 0.04561936482787132, -0.028524013236165047, 0.02698160894215107, 0.06659134477376938, -0.0607801117002964, -0.04104229062795639, -0.03156381472945213], [-0.004151631146669388, -0.005654856096953154, 0.036915529519319534, -0.027474313974380493, 0.006169312167912722, -0.024542825296521187, -0.028664605692029, -0.025122418999671936, -0.016635112464427948, 0.016322534531354904, 0.0006843911833129823], [-0.3082595467567444, -0.02519025094807148, -0.3130216598510742, -0.2512114644050598, -0.27959364652633667, -0.05598778277635574, 0.01952570304274559, -0.06844805181026459, 0.060331374406814575, -0.005833935458213091, -0.005704829934984446], [0.035493724048137665, -0.019618263468146324, 0.010455881245434284, 0.0053841727785766125, -0.018277615308761597, -0.031153177842497826, -0.012149118818342686, -0.02845344878733158, -0.02839631773531437, 0.006024432368576527, 0.0369749516248703], [0.03705132380127907, 0.04724695160984993, -0.027183949947357178, 0.03227783739566803, -0.03403797000646591, 0.06316763907670975, 0.04277452081441879, -0.07402238994836807, -0.038945190608501434, 0.012460261583328247, -0.05743172764778137], [-0.03884068876504898, -0.005193040240556002, 0.021714307367801666, 0.02124187722802162, -0.018285557627677917, -0.007403343915939331, -0.02305327169597149, 0.013659997843205929, -0.03504123538732529, 0.017967017367482185, 0.01332140900194645], [-0.02961033396422863, 0.020779505372047424, -0.0714157372713089, -0.07456852495670319, -0.005519947037100792, -0.06082259863615036, -0.015194088220596313, -0.05971119925379753, 0.03051523119211197, 0.05107881501317024, 0.033285245299339294], [0.019396569579839706, -0.015793966129422188, 0.059085868299007416, 0.04563726857304573, -0.019699376076459885, 0.005696745123714209, 0.04338006675243378, -0.07283620536327362, 0.033963706344366074, 0.037855114787817, 0.053824473172426224], [0.09418610483407974, 0.035085976123809814, 0.027660999447107315, -0.014097132720053196, 0.07382982969284058, 0.0011975686065852642, 0.0500430203974247, -0.006505983881652355, -0.013282222673296928, -0.02283119596540928, 0.054310232400894165], [0.01382760051637888, -0.011472009122371674, 0.0010153792100027204, -0.01799810491502285, 0.02299608662724495, 0.00042282778304070234, -0.0013770030345767736, -0.007974007166922092, -0.004119412042200565, -0.017150208353996277, 0.01184957567602396], [-0.10056893527507782, -0.016421053558588028, -0.03539802134037018, -0.00019029396935366094, -0.08129876106977463, 0.034901320934295654, -0.007118637673556805, -0.023452650755643845, -0.029592841863632202, -0.011539660394191742, -0.011920838616788387], [-0.04362688958644867, 0.021252663806080818, 0.058435481041669846, -0.053114622831344604, 0.07005240023136139, -0.02742801606655121, -0.0037524597719311714, 0.03280124068260193, 0.005077581852674484, 0.011670917272567749, -0.011391726322472095], [-0.03988158702850342, 0.007489478215575218, 0.0012176602613180876, 0.057164885103702545, 0.005624403711408377, 0.012191369198262691, 0.015243223868310452, 0.02725992351770401, 0.027899732813239098, -0.03428398072719574, -0.0019915993325412273], [0.011790603399276733, 0.0325385257601738, -0.029854442924261093, 0.004852443467825651, -0.007435536943376064, 0.042468272149562836, 0.04328904673457146, 0.04103904962539673, -0.0012767736334353685, 0.0245994720607996, 0.007930075749754906], [0.03767864406108856, 0.003972580190747976, -0.01678292080760002, 0.006440549623221159, 0.03896355628967285, -0.024817420169711113, -0.010793925262987614, -0.024276401847600937, -0.01915574073791504, -0.016941865906119347, -0.016965879127383232], [-0.053392887115478516, 7.922829536255449e-05, -0.06174767017364502, 0.06208930164575577, 0.03180702403187752, 0.010124598629772663, 0.02238438092172146, -0.02023097686469555, 0.0024460917338728905, -0.023612454533576965, -0.014063859358429909], [-0.011118867434561253, 0.003001642180606723, 0.08252336084842682, -0.047615014016628265, -0.02038756012916565, -0.006346111185848713, -0.005908227059990168, -0.033362578600645065, 0.004121717996895313, 0.055650368332862854, 0.016395414248108864], [0.013635031878948212, -0.018224596977233887, 0.03431146964430809, -0.06233653798699379, 0.008370917290449142, 0.0038213375955820084, 0.006686226464807987, 0.010720917955040932, -0.03286270424723625, -0.036171890795230865, -0.011621607467532158], [0.18365360796451569, 0.04372154548764229, 0.15761646628379822, 0.052369169890880585, 0.04758992791175842, 0.06401345878839493, -0.04254293069243431, -0.03264640271663666, -0.0053901406936347485, -0.02823271043598652, 0.02401433326303959], [-0.04903772100806236, 0.004421256948262453, -0.0030009623151272535, 0.014483468607068062, 0.01567077450454235, 0.007386553566902876, 0.005706909112632275, 0.00846679974347353, 0.008746535517275333, 0.01110452227294445, -0.007922058925032616], [0.04917215555906296, 0.015193679369986057, -0.017487425357103348, 0.003693093778565526, -0.043426528573036194, 0.010950067080557346, -0.003033032640814781, 0.0055318125523626804, -0.011819729581475258, 0.011499793268740177, -0.008369599469006062], [0.04892163723707199, -0.009457087144255638, -0.03690040111541748, 0.025941502302885056, 0.01768418960273266, -0.02025591768324375, -0.0524432547390461, -0.00471643777564168, 0.0052156709134578705, 0.025084109976887703, 0.00778190977871418], [0.02988201193511486, 0.007118816487491131, -0.040036410093307495, -0.07332103699445724, -0.07051972299814224, -0.022639386355876923, -0.03040064126253128, 0.014891846105456352, 0.010832729749381542, -0.03986167162656784, -0.03292539715766907], [-0.031130589544773102, 0.0005177287384867668, 0.0284676942974329, -0.004087422508746386, 0.0007078589405864477, -0.0048438976518809795, -0.010992501862347126, -0.006861235946416855, -0.018666496500372887, 0.010070955380797386, 0.006696693599224091], [-0.2884652316570282, -0.011525185778737068, -0.2977944016456604, -0.3129161596298218, -0.2799442708492279, -0.034874703735113144, -0.04731316119432449, 0.031582172960042953, -0.037787605077028275, -0.0001637687673792243, -0.06108073517680168], [-0.029848454520106316, 0.006288326811045408, 0.027835188433527946, -0.02439015544950962, -0.015588954091072083, 0.018668312579393387, 0.011180159635841846, 0.00529783358797431, 0.0011507380986586213, 0.02364484779536724, -0.011141675524413586], [-0.06434373557567596, -0.0007385887438431382, 0.03563004732131958, -0.029251938685774803, -0.060995735228061676, 0.005541982129216194, -0.0481945276260376, -0.00819458533078432, 0.028156226500868797, 0.031147094443440437, -0.006149828899651766], [0.034618958830833435, 0.02267344295978546, -0.01637435518205166, -0.013954716734588146, -0.006394496187567711, 0.0055643608793616295, 0.006484051235020161, 0.03953314945101738, -0.01657956652343273, -0.017544565722346306, -0.008419250138103962], [-0.07963234186172485, 0.002059121849015355, 0.040903929620981216, -0.032777152955532074, 0.026773743331432343, -0.00016033941938076168, 0.05474799871444702, 0.018407421186566353, 0.03002552129328251, -0.01578843966126442, 0.012314332649111748], [-0.0010446300730109215, -0.006493513006716967, 0.015712732449173927, -0.024984227493405342, -0.015180544927716255, -0.050281740725040436, 0.004618212580680847, -0.008148103021085262, -0.005358963273465633, 0.01936045102775097, -0.009145483374595642], [0.0655718669295311, -0.023914633318781853, 0.0765426903963089, 0.01805027574300766, 0.0725235641002655, 0.050371553748846054, -0.028032086789608, 0.07471192628145218, 0.03223712742328644, -0.07335968315601349, 0.0033453358337283134], [0.04168039560317993, 0.025721242651343346, -0.046231694519519806, -0.008941778913140297, 0.014122787863016129, 0.02787838503718376, 0.03168491646647453, 0.020433934405446053, 0.018894493579864502, -0.004444940015673637, -0.012457008473575115], [0.0305309034883976, 0.005759450141340494, 0.0029887445271015167, -0.02533525414764881, 0.0062133194878697395, -0.013219205662608147, -0.009100835770368576, -0.020079413428902626, -0.019231745973229408, 0.014717843383550644, 0.008249656297266483], [0.03999042883515358, -0.012757580727338791, -0.03474370017647743, -0.003833827329799533, 0.052018359303474426, 0.0265842042863369, 0.019337177276611328, -0.03918565437197685, 0.01839488185942173, 0.023050827905535698, 0.02586897648870945], [0.01978253573179245, -0.024643441662192345, -0.0028633715119212866, -0.009300964884459972, 0.03278442099690437, -0.031522393226623535, -0.015565957874059677, -0.007440829649567604, -0.001823939150199294, -0.025802480056881905, 0.02814921922981739], [-0.006762130185961723, 0.02117433212697506, 0.025508547201752663, -0.01387198269367218, 0.0056228237226605415, 0.014862540178000927, -0.008234638720750809, -0.00046931341057643294, -4.714755050372332e-05, 0.004170479718595743, -0.014857827685773373], [0.008075639605522156, 0.019519304856657982, -0.001959903398528695, 0.0012834214139729738, 0.010558857582509518, 0.002490946091711521, 0.008019032888114452, 0.006388511508703232, 0.04044157639145851, -0.016307810321450233, 0.022955233231186867], [-0.024766597896814346, 0.051901720464229584, 0.01015833206474781, 0.011915300041437149, 0.03834665194153786, 0.021274182945489883, 0.02379542961716652, 0.025642866268754005, 0.023646976798772812, 0.015069111250340939, -0.030242104083299637], [-0.01280098408460617, -0.0013702220749109983, 0.0005734891165047884, -0.005940850358456373, -0.0251291636377573, 0.010086821392178535, 0.011186168529093266, 0.011435778811573982, -0.008486965671181679, 0.014132806099951267, -0.004959882237017155], [0.05600506439805031, 0.010467738844454288, -0.03887704014778137, -0.012882883660495281, -0.004140953999012709, 0.018670357763767242, -0.0018127697985619307, 0.029160108417272568, -0.0247628353536129, 0.006945898290723562, 0.0026627203915268183], [-0.0516943521797657, 0.013614793308079243, 0.013712698593735695, -0.05224592983722687, -0.05405101180076599, -0.009639125317335129, -0.04802422970533371, -0.054303817451000214, -0.003347790567204356, 0.05649810656905174, -0.06933696568012238], [0.0704355463385582, 0.021377580240368843, 0.003674254519864917, -0.034585461020469666, 0.04113743081688881, 0.02877967432141304, 0.015686705708503723, -0.08498943597078323, -0.01591470278799534, -0.0009549334645271301, -0.023898378014564514], [0.0011896570213139057, -0.0036451993510127068, 0.0013866082299500704, 0.0017582529690116644, 0.00198149960488081, -0.004690229892730713, -0.007898962125182152, -0.006598073057830334, -0.001442680018953979, -0.0028604893013834953, 0.002546989591792226], [-0.0001950126315932721, -0.00027676200261339545, -0.0004945567925460637, 0.0002476046502124518, 0.0008821432711556554, -0.0001945988042280078, 0.0010711954673752189, 0.0011441566748544574, -0.0011515949154272676, 0.0015057564014568925, -0.005857499781996012], [-9.637103357817978e-05, 0.013075210154056549, 0.006431904621422291, -0.007339855656027794, 0.007636433467268944, 0.020023858174681664, 0.0183347687125206, -0.0004961717058904469, -0.0030950000509619713, 0.008918976411223412, -0.005624047480523586], [-0.008876650594174862, -0.021041495725512505, -0.007947934791445732, -0.0067793079651892185, -0.005960493814200163, -0.02211086079478264, -0.03312261775135994, -0.03234279900789261, -0.022607902064919472, -0.016827525570988655, -0.0022558760829269886], [0.003486314322799444, -0.0032982705160975456, 0.003622784512117505, 0.0037099113687872887, 0.0037250681780278683, -0.0029353739228099585, -0.0013899683253839612, -0.00014895040658302605, 0.001541508361697197, 0.0019893657881766558, 0.0008789087878540158], [0.011673660948872566, -0.007170629687607288, 0.011681421659886837, 0.011935897171497345, 0.01217675395309925, -0.007757606916129589, -0.00892446655780077, -0.007227770518511534, -0.005425782408565283, -0.004482490010559559, 0.0015546083450317383], [0.01866764761507511, -0.013538837432861328, 0.019402269273996353, 0.020222852006554604, 0.021248679608106613, -0.015943855047225952, -0.01784082129597664, -0.016934530809521675, -0.012755034491419792, -0.013302191160619259, 0.009791538119316101], [0.005347734782844782, -0.0016736460383981466, 0.005354701541364193, 0.005553530994802713, 0.005778100807219744, -0.004398780409246683, -0.008076716214418411, -0.00791566539555788, -0.00470711849629879, -0.0044266595505177975, 0.002185979625210166], [0.03236251696944237, 0.01922633871436119, 0.0418839305639267, 0.03396495804190636, 0.033875733613967896, 0.009867515414953232, 0.002377852099016309, 0.002745554782450199, -0.002368784276768565, -0.005833839066326618, -0.002534573432058096], [-0.007894223555922508, -0.00017962905985768884, -0.01147329993546009, -0.0028867898508906364, -0.006787765771150589, -0.0027569232042878866, -0.0026080086827278137, -0.0007111227605491877, 0.0007491806172765791, 0.0020255360286682844, 0.001918756403028965], [0.09252630174160004, 0.005949870683252811, -0.002829394768923521, -0.02367207780480385, 0.04863227903842926, 0.027168279513716698, -0.0047818818129599094, -0.01661015674471855, -0.0007835527649149299, 0.012593193911015987, 0.01102472748607397], [0.012858805246651173, 0.005337127018719912, -0.03985169157385826, -0.00837195198982954, -0.01877306029200554, 0.011427050456404686, 0.020107977092266083, 0.024003755301237106, -0.0019044678192585707, -0.015219499357044697, 0.002861784305423498], [0.012098508886992931, -0.006558377295732498, 0.012414809316396713, 0.012869970872998238, 0.013313873670995235, -0.00830276869237423, -0.011909279972314835, -0.013767409138381481, -0.00897885300219059, -0.01019324455410242, 0.006188458763062954], [-0.0017424061661586165, -0.007409051991999149, -0.0016368982614949346, -0.001488839159719646, -0.001262016943655908, 0.0009619008051231503, 0.00040197806083597243, 0.0021643361542373896, -0.0056158509105443954, -0.0018951467936858535, -0.005493730306625366], [0.007995093241333961, -0.00056347536155954, 0.023410629481077194, -0.05523928254842758, 0.019304485991597176, -0.012123782187700272, -0.025400981307029724, 0.05758910998702049, 0.001571642467752099, -0.02801639586687088, 0.029239853844046593], [0.014830845408141613, -0.004394385498017073, -0.006295662373304367, -0.03544234484434128, -0.018673207610845566, -0.005126446019858122, -0.00485906470566988, -0.006793919485062361, -0.004095049109309912, -0.0020924292039126158, -0.0002478229580447078], [-0.013069335371255875, 0.0218550655990839, -0.004978233482688665, 0.010367975570261478, 0.021707314997911453, 0.01984906569123268, 0.012584964744746685, 0.0020549946930259466, 0.0010162827093154192, 0.003566250903531909, -0.001619231072254479], [0.004702892154455185, 0.00161319924518466, 0.0018583489581942558, 0.0014925000723451376, 0.006870942190289497, -0.0010183841222897172, -0.004234769381582737, -0.006365216337144375, -0.0022872083354741335, -0.004398738499730825, 0.0009671493899077177], [0.0022556211333721876, -0.0007823322666808963, 0.0022360614966601133, 0.0022314228117465973, 0.0019259641412645578, 0.005111582111567259, 0.006800351198762655, -0.0024390481412410736, -0.0019837399013340473, -0.0015377929667010903, 0.0004896853351965547], [-0.01355224009603262, -0.01817767322063446, -0.012957938015460968, -0.012257957831025124, -0.01180392224341631, -0.01671287789940834, -0.020804433152079582, -0.0185816902667284, -0.011826570145785809, -0.007625853177160025, -0.013466311618685722], [0.002397853182628751, 0.0019161244854331017, 0.0022743060253560543, 0.0022428608499467373, 0.0022465779911726713, 0.004618560429662466, 0.003123309463262558, 0.0017373342998325825, -0.00034852849785238504, 2.7288886485621333e-05, -0.0018598800525069237], [0.0884227454662323, 0.03539413958787918, -0.040395308285951614, 0.05087065324187279, -0.052197087556123734, 0.04479856789112091, -0.02875025011599064, -0.04162265732884407, -0.057716820389032364, -0.10980308055877686, 0.006144973915070295], [0.02916792966425419, 0.007547955494374037, 0.01828833483159542, 0.03403571993112564, 0.028618434444069862, 0.0066327680833637714, 0.005681039299815893, 0.01208116952329874, 0.007184012793004513, 0.0070615666918456554, 0.002610195428133011], [0.013119448907673359, -0.00828640814870596, 0.013522341847419739, 0.01429513655602932, 0.01510380394756794, -0.016689561307430267, -0.021881887689232826, -0.022125571966171265, -0.01469127181917429, -0.014680351130664349, 0.007452944293618202], [0.08723470568656921, -0.006637171842157841, -0.02014263905584812, -0.05964169278740883, 0.054743051528930664, 0.023611705750226974, -0.021518021821975708, 0.05873829871416092, 0.06537569314241409, 0.07649218291044235, 0.07108011096715927], [0.018184363842010498, -0.017899414524435997, 0.018712032586336136, 0.01930016279220581, 0.019805142655968666, -0.018477747216820717, -0.023403514176607132, -0.023225858807563782, -0.017989542335271835, -0.01921183429658413, 0.015735846012830734], [-0.004076805431395769, -0.005767776630818844, -0.0017493813065811992, -0.0038996695075184107, -0.0040875766426324844, 0.00630303006619215, -0.002642823150381446, -0.0045938193798065186, 0.006939365994185209, 0.00029703002655878663, 0.015542021952569485], [0.0015532451216131449, -0.004373953677713871, 0.0010298731504008174, 0.001781512051820755, 0.0017156237736344337, -0.004029456060379744, -0.004537678323686123, -0.0034700818359851837, -0.0050806147046387196, -0.0031694802455604076, 0.0021759681403636932], [-0.08113793283700943, -0.007625638972967863, 0.06320834159851074, -0.043017882853746414, 0.05175177380442619, 0.008940507657825947, -0.011383505538105965, -0.04799389839172363, -0.002492318395525217, 0.022590765729546547, 0.013948269188404083], [0.054424893110990524, -0.010151788592338562, -0.04328275844454765, 0.037286266684532166, 0.03921019658446312, 0.002861100947484374, 0.015542634762823582, -0.01336214505136013, -0.019058484584093094, 0.02665361389517784, -0.007023517973721027], [0.030016114935278893, 0.009356627240777016, 0.0026633774396032095, 0.03730260208249092, 0.004960827529430389, 0.013005746528506279, 0.003207654459401965, 0.03179290145635605, -0.008684865199029446, -0.009758601896464825, 0.0016290661878883839], [0.018126092851161957, -0.0008131827926263213, 0.018083596602082253, 0.018163003027439117, 0.018312273547053337, -0.0011412196327000856, -0.003766248933970928, -0.006560583598911762, -0.008900199085474014, -0.010559004731476307, 0.0018411511555314064], [0.05498666688799858, 0.0011071503395214677, 0.06428976356983185, 0.05838455632328987, 0.015217979438602924, 0.0037686177529394627, 0.010534302331507206, 0.00692091416567564, 0.011259873397648335, -0.004511111415922642, -0.00048813153989613056], [0.00012119468010496348, 0.002067958004772663, 0.0016574774635955691, -0.001155912526883185, 0.001693897764198482, -0.009011145681142807, 0.023028943687677383, -0.016874780878424644, -0.0032961524557322264, -0.01939838007092476, 0.0005410260637290776], [0.002618326572701335, -0.006017484236508608, 0.003993821330368519, 0.0027234007138758898, 0.0036314707249403, -0.010594078339636326, -0.01669643446803093, -0.016503533348441124, -0.012688490562140942, -0.010427325032651424, 0.0003930411476176232], [0.01403750292956829, -0.025990726426243782, 0.014833723194897175, 0.01650817319750786, 0.017963329330086708, -0.03538885712623596, -0.04828499257564545, -0.048739414662122726, -0.033055372536182404, -0.038692280650138855, 0.004101478960365057], [0.014815190806984901, -0.0007105589611455798, 0.014913106337189674, 0.015271368436515331, 0.015551144257187843, -0.0029926917050033808, -0.00793570838868618, -0.00847195740789175, -0.005673026200383902, -0.006702857557684183, 0.00012751674512401223], [0.01085587963461876, -0.0010047740070149302, -0.0006133417482487857, -0.004037352744489908, -0.0004854368162341416, -0.0007769818184897304, 0.0008592031081207097, 0.0037101407069712877, 0.006694831885397434, -0.010182429105043411, -0.0024948364589363337], [-0.006117289885878563, -0.0012671155855059624, -0.005427872762084007, -0.007145066745579243, -0.008898724801838398, 0.003183141350746155, 0.0021418367978185415, -0.0016466674860566854, -0.00037860151496715844, 0.0018115714192390442, 0.000502822338603437], [0.0022905103396624327, -0.004465285688638687, 0.0007428833050653338, 0.0022504222579300404, 0.0006508812075480819, -0.002780909650027752, -0.00048171551316045225, 0.0007170839817263186, -0.0015262453816831112, -0.0014177595730870962, -0.00679995771497488], [0.0825146734714508, 0.013130544684827328, 0.08647755533456802, 0.06484004110097885, 0.006392253562808037, -0.007790104020386934, 0.022870276123285294, 0.00021778579684905708, 0.014986872673034668, -0.038926564157009125, 0.009121845476329327], [0.003982103429734707, 0.0005401088274084032, 0.0008919041720218956, 0.0022840711753815413, 0.0029869885183870792, 0.003439108142629266, 0.0012221290962770581, 0.0003776919038500637, -0.0014097096864134073, -0.0013854196295142174, -0.004226181656122208], [0.005145988892763853, -0.001381400041282177, 0.005191159434616566, 0.005201239138841629, 0.005254105664789677, -0.0025917107705026865, -0.0020035335328429937, -0.002075434196740389, -0.00127715477719903, -0.0018201516941189766, 0.0010223075514659286], [0.0019187710713595152, -0.0011773343430832028, 0.0018198718316853046, 0.002177856396883726, 0.0023094818461686373, 0.0007549198344349861, -0.0053878179751336575, -0.0056618088856339455, -0.0004160059615969658, -0.0014305270742624998, -0.0018569742096588016], [0.016646647825837135, 0.0035164905712008476, -0.004811699502170086, -0.007500419858843088, 0.04666319489479065, 0.004507673904299736, 0.004352058283984661, 0.00731201097369194, -0.0026727220974862576, 0.0015863149892538786, -0.005794675555080175], [0.0027046119794249535, -0.001200212980620563, 0.002759350696578622, 0.002880524378269911, 0.0029725441709160805, -0.0010441828053444624, -0.0027301968075335026, -0.0032370907720178366, -0.003593974746763706, -0.0033578325528651476, -0.0016560485819354653], [0.027455270290374756, 0.01597294583916664, 0.07288604229688644, 0.005793051328510046, 0.08144235610961914, 0.0036735599860548973, 0.026195785030722618, -0.07192980498075485, 0.07954493910074234, 0.012371070683002472, 0.02797708846628666], [-0.0003057187423110008, -0.0030273108277469873, -0.00015029848145786673, 6.103037594584748e-05, 0.000275357102509588, -0.00538906455039978, -0.007243511267006397, -0.00736488401889801, -0.004743969067931175, -0.004450933542102575, 0.00043434795225039124], [0.007680871523916721, 0.014472653158009052, 0.04932928457856178, 0.009409219026565552, 0.04712671786546707, 0.017201045528054237, 0.00542715797200799, 0.0231394674628973, -0.026600709185004234, -0.001689209952019155, -0.005170618183910847], [0.003026228863745928, 0.008696361444890499, 0.0032245481852442026, 0.003615760477259755, 0.0035571465268731117, 0.001264813356101513, -0.0023561748676002026, -0.00244142091833055, -0.00013556337216868997, -0.0008820788352750242, -0.0024209022521972656], [0.012374253943562508, 0.0017283079214394093, 0.013607189990580082, 0.013849630020558834, 0.013720851391553879, 0.012206965126097202, 0.010269662365317345, 0.010840837843716145, 0.012452129274606705, 0.010658640414476395, -0.00030332000460475683], [0.005916861817240715, 0.0006505746860057116, -0.002243572846055031, -0.008397509343922138, 0.0019171462627127767, 3.038414433831349e-05, -0.0022824336774647236, 0.0026618174742907286, -0.00056100869551301, 0.0009468737407587469, -0.008428982459008694], [-0.056077297776937485, -0.0021856992971152067, 0.011712582781910896, 0.009643626399338245, -0.04028965160250664, -0.004939940758049488, -0.016833096742630005, -0.010618655011057854, -0.010642307810485363, 0.0019141902448609471, -0.0018113866681233048], [0.02198190428316593, -0.019648738205432892, 0.02280997857451439, 0.024070214480161667, 0.025043249130249023, -0.020091166719794273, -0.026569556444883347, -0.0267297625541687, -0.01994071528315544, -0.020384931936860085, 0.01055549643933773], [0.008911550976336002, -0.001756284269504249, 0.008857645094394684, 0.008952554315328598, 0.008996772579848766, -0.0004825573123525828, -0.002270526485517621, -0.0011017450597137213, 0.001119244727306068, 0.0008201869204640388, 0.00024070573272183537], [0.000479429290862754, -0.003438668791204691, -0.0008503476856276393, -0.004405434243381023, -0.002573989797383547, -0.0005650777602568269, -3.175136589561589e-05, 0.0006138979806564748, 0.0007586653809994459, -0.00032913091126829386, -0.003833604510873556], [0.02092106081545353, -0.003121434710919857, 0.021101852878928185, 0.021679406985640526, 0.02222301810979843, -0.0019535720348358154, -0.009166702628135681, -0.011314296163618565, -0.01917833648622036, -0.019065283238887787, 0.0028182328678667545], [0.0025376719422638416, -0.004794388543814421, 0.0026115921791642904, 0.002522422233596444, 0.00247929897159338, -0.005340051371604204, -0.0011390706058591604, 0.00012466969201341271, -0.0016141625819727778, -0.00046843342715874314, 0.006235400214791298], [0.004777943715453148, -0.0013936716131865978, 0.01621008664369583, 0.007815100252628326, 0.014522431418299675, 0.0029344181530177593, 0.0029750254470854998, 0.0053931293077766895, 0.0033942165318876505, 0.004470390733331442, -0.01253332756459713], [-0.018796630203723907, -0.0553012415766716, -0.016698358580470085, -0.01451171189546585, -0.012849739752709866, -0.03993956372141838, -0.0512571707367897, -0.04759994149208069, -0.029010500758886337, -0.02473420463502407, 0.019695697352290154], [-0.0023910340387374163, -0.0014613474486395717, -0.0023020608350634575, -0.0021601179614663124, -0.001993428450077772, -0.0022768585477024317, -0.0035974793136119843, -0.003938363865017891, -0.002348722191527486, -0.0022963215596973896, -0.0003193687298335135], [-0.005597683601081371, -0.0015053165843710303, 0.010019729845225811, 0.004048047121614218, 0.0025071040727198124, 0.0017218132270500064, -0.0020625039469450712, -0.0015824533766135573, 0.004029127769172192, 0.007009039167314768, 0.0024545681662857533], [-0.0018816136289387941, -0.0066421604715287685, 0.004446639213711023, 0.015853693708777428, 0.019453171640634537, 0.0019360189326107502, 0.0038893509190529585, 0.007798613049089909, -0.00461590476334095, -0.0016208428423851728, -0.004258465487509966], [0.0023278447333723307, 0.00011449290468590334, 0.0015039964346215129, 0.0018419650150462985, 0.0008230955572798848, 0.006249754223972559, 0.008176514878869057, 0.005184507928788662, 0.008688898757100105, 0.009103382006287575, 0.006618873216211796]], "lstm.weight_hh_l0": [[0.0007533262250944972, 0.0006553187849931419, -6.168114487081766e-05, 0.0025056712329387665, -0.0005942645948380232, 0.002105589723214507, 0.001683235284872353, -0.0011594935785979033, 0.0007997159846127033, 0.00017320401093456894, 0.00046401546569541097, -0.0003853632078971714, 0.002049241214990616, -0.0008721642079763114, 0.000590137264225632, 0.0013408322120085359, 0.0002195453125750646, -0.0013351833913475275, -0.0017167298356071115, -0.0008385757682844996, -0.00031237895018421113, 0.0011079570977017283, -0.000453560845926404, 0.002813423750922084, -0.0014479750534519553, 0.003118274500593543, -0.0011949209729209542, 0.0008839817019179463, 0.0015394791262224317, 0.000582038308493793, 0.0001416611485183239, 0.0012299158843234181, -0.0008820451330393553, -9.711148777569178e-06, -0.0016161510720849037, -0.0037265708670020103, 0.000943737686611712, -0.000212075567105785, 0.000541454239282757, -7.283277227543294e-05, 0.0007871085545048118, -0.0005015251226723194, -0.0009348573512397707, 0.002414243295788765, -0.00019559574138838798, 0.0006568465614691377, -0.0018056078115478158, -0.002062915125861764, -2.2560820070793852e-05, -0.0009102550684474409, -0.0011795359896495938, 0.0007879466866143048, -0.00036115015973336995, -0.002849031239748001, 0.0008800245122984052, -0.00010321829904569313, 0.0027965635526925325, -0.0008387119742110372, -0.00016324801254086196, -0.005137384403496981, -0.0012587676756083965, -0.0011431836755946279, 0.0004072438459843397, 0.0002012551558436826], [-0.00010676665260689333, -0.0001785819185897708, 2.0382269212859683e-05, 0.0006894312100484967, -9.808060713112354e-05, 0.0001530211156932637, 6.879778084112331e-06, -0.00014468393055722117, 0.0003510637616273016, -1.2970864190720022e-05, 0.00038378164754249156, 0.00015328392328228801, 0.00020772036805283278, 0.00010234038927592337, 0.00013799128646496683, 5.9180925745749846e-05, 0.00017300892795901746, -8.96043457032647e-06, 8.20433342596516e-05, -0.0003139156906399876, 0.00018177361926063895, -0.0004890690906904638, -0.00042851665057241917, 0.00016896844317670912, 0.00026271084789186716, 0.0006074123084545135, -0.00027746500563807786, -3.786310844589025e-05, 4.668565088650212e-05, 8.403664833167568e-05, 0.000360666133929044, -0.00034931639675050974, -0.00012943244655616581, -8.903606067178771e-05, 0.00014036514039617032, 0.00014636569540016353, -3.072411345783621e-05, -0.00012377124221529812, 0.00011122009891550988, -0.0004060464270878583, -0.0006353823700919747, 0.0002861843095161021, 1.5292040188796818e-05, -5.8848636399488896e-05, -0.00018241521320305765, -9.539612074149773e-05, 1.928452547872439e-06, -0.0006071164389140904, -0.00043647352140396833, -3.8779471651650965e-05, 0.0002812714665196836, -0.00010218529496341944, 0.00011607167107285932, -0.0005109893972985446, -3.531525180733297e-06, -3.0284436434158124e-05, -0.0002413212787359953, 3.963788185501471e-05, 0.00030436128145083785, -0.0006499561131931841, -0.00031200319062918425, -0.0003585807862691581, -0.00011443578114267439, -0.00012644441449083388], [7.441043271683156e-05, 4.568042641039938e-05, 0.0011869663139805198, -0.0020971754565835, -0.0012897438136860728, -0.0003129710676148534, 6.937631405889988e-05, -0.00014907651348039508, -0.0005288762040436268, -0.00029758174787275493, -0.00036321108927950263, 0.0012679980136454105, 0.0002423930272925645, -0.0002896097721531987, -0.0013202463742345572, -0.00012452770897652954, -0.0012980680912733078, 2.8926773666171357e-05, 0.0001315468252869323, 0.0030042394064366817, 0.00029028806602582335, -0.0023598859552294016, -0.0008561713621020317, 0.0007201617117971182, 0.00491658179089427, 0.001006735721603036, -0.0009728440782055259, 0.00011492050543893129, 0.000891621399205178, -0.00027634247089736164, -0.0005185680347494781, -0.0004903682274743915, 0.0004275517712812871, -0.0003166266833432019, 0.0001371081598335877, 0.0006964709609746933, 0.0007631240878254175, -0.00046528992243111134, 0.00018095124687533826, 8.656545105623081e-06, -0.005472784396260977, 0.0005076235975138843, 0.00028798525454476476, -1.6274025256279856e-05, 0.0002482085255905986, -0.00016827126091811806, -0.002061590552330017, -0.002103805774822831, -0.001772383344359696, 0.00013529662101063877, 0.0012266768608242273, -1.2181624697404914e-05, -0.0005801769439131021, 0.00012448616325855255, 6.29151618340984e-05, -0.0006010383367538452, 0.0006629553390666842, 0.00030038232216611505, -2.41675807046704e-05, 0.0029906751587986946, -0.0012201425852254033, -0.00023101257102098316, 0.0003560484037734568, -0.0006668552523478866], [0.0033088033087551594, 0.0024145720526576042, 0.0039519052952528, 0.008011551573872566, 0.002402297919616103, 0.002689711283892393, 0.004611637908965349, -0.0030333595350384712, -0.007707463577389717, 0.0003659621870610863, -0.007884683087468147, 0.0008345389505848289, 0.0036089131608605385, -0.0022755891550332308, -0.0009169976692646742, 0.000629270332865417, -0.005067504942417145, -4.4037995394319296e-05, -0.0027688092086464167, -0.006173683796077967, -0.0007246928871609271, -0.008428654633462429, 0.0012848246842622757, 0.004880470223724842, 0.006766905542463064, 0.0049151270650327206, -0.002419155091047287, 0.0029114012140780687, 0.00404692254960537, -0.0017054054187610745, -0.005119489971548319, 0.0021102363243699074, 0.005756249651312828, -0.0002987172920256853, -0.004286800045520067, -0.009959463961422443, 0.0006841190624982119, 3.157414175802842e-05, 0.0008099334663711488, -0.0008305074879899621, -0.003253757953643799, -0.0017192390514537692, -0.0015048403292894363, 0.0028586110565811396, 0.005605150945484638, 0.0024428144097328186, 0.0077296774834394455, 0.0005500521510839462, 0.007013450842350721, -0.00355339958332479, -0.0050429473631083965, 0.0033365129493176937, -0.006213805638253689, -0.006229359656572342, 0.0021672022994607687, -0.0007218625396490097, 0.0015719428192824125, -0.002913942327722907, -0.00299926963634789, -0.013134235516190529, 0.001597521360963583, -0.001327003468759358, 0.004954333882778883, 0.0002086716704070568], [0.00023963343119248748, -0.0001523441751487553, -0.0006919465376995504, 0.0006051863892935216, -0.0007963415700942278, 0.000987889594398439, 0.0012958780862390995, -0.00037988173426128924, 0.0022477079182863235, 0.0006641087238676846, 0.002139247488230467, -0.0011788812698796391, 0.0008952117059379816, -0.00025084521621465683, 0.0005527351750060916, 0.00022745293972548097, 0.0015301626408472657, -0.00013612021575681865, -0.000577931001316756, -0.00010924023808911443, -0.00029068818548694253, 0.0036599605809897184, 0.0001668104960117489, 0.0005889195599593222, -0.0020804996602237225, 0.0012809296604245901, 0.0005447330186143517, 0.00038935060729272664, -0.0005657663568854332, 0.00030649526161141694, 0.0007972677703946829, 0.0013990842271596193, -0.0018432121723890305, 5.048121965955943e-05, -0.00037403072929009795, -0.0016278303228318691, 0.0018126466311514378, 0.000191742175957188, -0.00040241589886136353, 0.0007985014817677438, 0.0015873948577791452, -0.0007213094504550099, -0.0005900137475691736, 0.0003766042063944042, -0.0010051450226455927, 0.00046155627933330834, -0.0031493983697146177, 0.0002237893349956721, -0.0014896836364641786, 0.0005115728708915412, -0.0003575143637135625, -0.00017877400387078524, 0.001083891955204308, -0.0012716318015009165, 0.0003501584578771144, -5.843322287546471e-05, 0.0016444619977846742, -0.0005975156673230231, 0.00012897740816697478, -0.0014947836752980947, -2.6464156690053642e-05, -0.00021001530694775283, -0.0006560012116096914, 0.0008621972519904375], [0.004104909021407366, 0.002202345058321953, -0.004953625611960888, 0.004204552620649338, -0.006166678387671709, 0.0033896234817802906, 0.01038635615259409, -0.002713641384616494, 0.010362808592617512, 0.0024385075084865093, 0.0067024994641542435, -0.00710521312430501, 0.004788098856806755, -0.0021975773852318525, 0.007257200311869383, 0.00342448684386909, 0.006526724435389042, -0.0028415685519576073, -0.0056781345047056675, 0.0039895265363156796, -0.0025796464178711176, 0.008376001380383968, 0.0012456035474315286, 0.005820835940539837, -0.009981183335185051, 0.00944262184202671, -0.002362188883125782, 0.0024309640284627676, 0.0003287901054136455, 0.0029021338559687138, 0.005473454017192125, 0.007643748540431261, -0.006177880801260471, -0.0002676408039405942, -0.0030182262416929007, -0.016273824498057365, 0.006576813757419586, -0.0003649159916676581, 0.0009714403422549367, 0.00399267952889204, 0.010201951488852501, -0.003576480085030198, -0.0022403423208743334, 0.004222388379275799, -0.0037458857987076044, 0.002188221551477909, -0.009534263983368874, -0.005536499433219433, -0.005494967103004456, -0.0003362485149409622, -0.0017244769260287285, 0.0009249515715055168, 0.0031284792348742485, -0.009474304504692554, 0.002139138290658593, -0.0008757020113989711, 0.009657989256083965, -0.0020203576423227787, 0.0007650372572243214, -0.010511215776205063, -0.004742547404021025, -0.004553776700049639, -0.0021803160198032856, 0.0035792728886008263], [0.004105609841644764, 0.003237934084609151, -0.011682095006108284, 0.008195123635232449, -0.01056259498000145, 0.01410350389778614, 0.010097270831465721, -0.007746530696749687, 0.02300526201725006, 0.005285821855068207, 0.02094077318906784, -0.013471333310008049, 0.012818274088203907, -0.001993238925933838, 0.010350923985242844, 0.005329261068254709, 0.01872074417769909, -0.006829835940152407, -0.00650091702118516, 0.006337030325084925, -0.003532388247549534, 0.025675255805253983, 0.0016311577055603266, 0.016624577343463898, -0.02597283571958542, 0.0154698072001338, -0.0027831115294247866, 0.004057536832988262, -0.00013947849220130593, 0.005106194410473108, 0.013101702556014061, 0.01229789573699236, -0.014600930735468864, -0.000592465978115797, -0.009496690705418587, -0.022494670003652573, 0.01648937352001667, -0.00010370914242230356, 0.0009756462532095611, 0.005723199341446161, 0.022503884509205818, -0.007569504901766777, -0.007805059663951397, 0.010400043800473213, -0.012229781597852707, 0.005977300461381674, -0.027038149535655975, -0.014994243159890175, -0.01254337839782238, -5.6617143854964525e-05, -0.0014174949610605836, 0.00048790386063046753, 0.009973745793104172, -0.01566806249320507, 0.004237235989421606, -0.001301223412156105, 0.020358704030513763, -0.004539039917290211, 0.002660077530890703, -0.017025679349899292, -0.00747162289917469, -0.0029982549604028463, -0.006141159683465958, 0.0070023732259869576], [0.0015978800365701318, 0.0009309540037065744, -0.0010699392296373844, 0.0021938090212643147, -0.0021630178671330214, 0.0019118072232231498, 0.0042908815667033195, -0.001133935060352087, 0.0035942995455116034, 0.00042459959513507783, 0.0021484375465661287, -0.0014048926532268524, 0.0027867683675140142, -0.0008533880463801324, 0.0018155841389670968, 0.0013010797556489706, 0.001676977495662868, -0.001014814362861216, -0.0022975720930844545, 0.0006627253023907542, -0.0009633184527046978, 0.003317400813102722, 5.4005686251912266e-05, 0.003500827355310321, -0.003859141143038869, 0.004677033517509699, -0.0014133271761238575, 0.000897264399100095, 0.0005713961436413229, 0.0010797460563480854, 0.0012836754322052002, 0.0028598059434443712, -0.0021890036296099424, 4.8921087000053376e-05, -0.0012776844669133425, -0.00590392155572772, 0.003122915280982852, -0.00030596647411584854, 0.000708774896338582, 0.0010068173287436366, 0.002555377781391144, -0.0010362048633396626, -0.0012162806233391166, 0.0017594577511772513, -0.000949489010963589, 0.0009803831344470382, -0.004138203337788582, -0.002626267494633794, -0.0015897570410743356, -0.0004665960150305182, -0.001038158661685884, 0.0005642541800625622, 0.0006628712289966643, -0.004127024672925472, 0.0012164587387815118, -0.00019924735534004867, 0.003918183036148548, -0.0012141579063609242, 0.00013046654930803925, -0.004827029537409544, -0.0011477663647383451, -0.0015535634011030197, -0.0002986159233842045, 0.0008747110259719193], [-0.00022142894158605486, -0.0017573900986462831, -0.006561206188052893, -0.0047189584001898766, -0.012492501176893711, 0.006094891577959061, 0.010069982148706913, -0.002907204208895564, 0.009183780290186405, 0.0028146454133093357, 0.00790174026042223, -0.005000089295208454, 0.007441485300660133, 0.001611631247214973, 0.00569325452670455, 0.003957283683121204, 0.006425148341804743, -0.0036075508687645197, -0.0038703035097569227, 0.01368948258459568, -0.001580634736455977, 0.014227633364498615, 0.0024475003592669964, 0.008935743011534214, -0.014330265112221241, 0.012270196340978146, -0.001243390142917633, 0.002401971025392413, -0.0032057478092610836, 0.005346690304577351, 0.0060823638923466206, 0.009315311908721924, -0.008335759863257408, 0.0010818206937983632, -0.0019460124894976616, -0.010761204175651073, 0.008560191839933395, -0.0016782184829935431, 0.0011421155650168657, 0.0038409559056162834, 0.008394865319132805, -0.0007155690109357238, -0.0038330182433128357, 0.0017505561700090766, -0.008340919390320778, 0.0006035978440195322, -0.013223516754806042, -0.014662962406873703, -0.007868701592087746, 0.0032985962461680174, 0.005637294612824917, -0.004849686287343502, 0.006373599637299776, -0.00783013179898262, 0.0008134658564813435, 0.00043913739500567317, 0.01049367617815733, -0.0026258749421685934, 0.004779146984219551, 0.0025185688864439726, -0.010283618234097958, -0.002818987239152193, -0.00770025746896863, 0.000378674129024148], [0.0002329085546080023, 7.752790406811982e-05, 0.00015815877122804523, 0.0006470573716796935, -0.0008561747381463647, 0.0004710177599918097, 0.0010384974302724004, -0.0002014198835240677, 0.00015291744784917682, 2.141628647223115e-05, -1.2222695659147575e-05, 6.449836655519903e-05, 0.000846941489726305, -0.00010113088501384482, -0.0001188950554933399, 7.201542757684365e-05, -0.00014503156126011163, -0.00021527950593736023, -0.00023971601331140846, 8.583503949921578e-05, -0.00024882747675292194, -0.0002976857649628073, -0.00011948194878641516, 0.0011665066704154015, 0.0005365103133954108, 0.0013021706836298108, -0.00012503140897024423, 0.00011464028648333624, 0.0002277852618135512, 6.534191925311461e-05, -7.854122668504715e-05, 0.0007516284822486341, -4.787426223629154e-05, -0.00012357006198726594, -0.00017544670845381916, -0.0010938980849459767, 0.0007217337260954082, -1.332569354417501e-06, -2.337452860956546e-05, 0.00041293876711279154, -0.0005418568616732955, -0.00029035049374215305, -0.000394392351154238, 0.00026001656078733504, -4.117190474062227e-05, 0.00029485824052244425, 0.0001011611966532655, -0.0008098135003820062, -0.0004604279820341617, -0.00013042317004874349, -0.00030265835812315345, 5.0242277211509645e-05, -0.00016836030408740044, -0.0008469898020848632, 0.00028368111816234887, -7.190512405941263e-05, 0.000566548143979162, -0.0002288326941197738, 1.500913731433684e-05, -0.0012097255093976855, -0.00026087561855092645, -0.0003383550501894206, 2.7107058485853486e-05, 0.00021291733719408512], [0.00045562227023765445, 0.00020223655155859888, -0.000395167269743979, -0.005441409535706043, -0.009094012901186943, 0.004351138602942228, 0.0035839169286191463, -0.001048960955813527, -5.0925533287227154e-05, -0.0008066114387474954, 0.005287191830575466, 0.0010663954308256507, 0.005159403197467327, -0.000123911740956828, -0.0027625118382275105, -0.0012640574714168906, -0.0031334105879068375, -0.0021659419871866703, -0.0025423504412174225, 0.011134161613881588, -0.002182138618081808, 0.03387190401554108, 0.002368527464568615, 0.005782736465334892, -0.01441885158419609, 0.006161137018352747, -0.002062903018668294, 0.0005619791918434203, 0.0021411399357020855, -0.001439939602278173, 0.0009118799935095012, 0.005762222222983837, -0.0010512354783713818, 0.0006199026247486472, 0.0002228777448181063, -0.00331495120190084, 0.00560349365696311, -0.002329660579562187, -0.00010774481052067131, 0.0009276971104554832, -0.007966773584485054, -0.0005132111255079508, -0.0023104280699044466, 0.002382739679887891, 0.0006306126015260816, 0.00045245676301419735, 0.006427541840821505, -0.007454913575202227, -0.003114785300567746, -0.0014652195386588573, 0.0007461929344572127, -0.0009549119859002531, -0.0025476107839494944, -0.0040114023722708225, 0.0010253380751237273, -0.0011744919465854764, 0.005653688218444586, -0.0008667368092574179, 0.001521166181191802, 0.006309616379439831, -0.005361732095479965, -0.0015555651625618339, -0.002588404342532158, -0.000686155108269304], [0.00034975481685251, 0.0003408488992135972, 0.00312978052534163, -0.00026264056214131415, -0.0014744419604539871, 0.0006114774150773883, 0.0012588754761964083, -0.00039116485277190804, -0.004081156104803085, -0.0004922169027850032, -0.004104791674762964, 0.0027383845299482346, 0.0009581449558027089, -0.0007924638921394944, -0.0034631742164492607, -0.0009677758207544684, -0.003944137133657932, -0.0004969575675204396, 6.499649316538125e-06, 0.0016368594951927662, -0.0004112203314434737, -0.007560942322015762, -0.0014726941008120775, 0.0019789014477282763, 0.0067310817539691925, 0.0021489965729415417, -0.001245085964910686, 0.00018670350254978985, 0.0015614689327776432, -0.0009333742782473564, -0.0033159004524350166, 0.0014434386976063251, 0.002272933255881071, -0.00031906849471852183, -0.00020159526320639998, -0.001103903166949749, 0.001992827747017145, -0.00040157311013899744, -0.00014741852646693587, 0.0005791260628029704, -0.005550233647227287, -0.0003470839001238346, -0.0005003156838938594, 0.0005645130295306444, 0.001413889229297638, 0.00013471455895341933, 0.007567353546619415, -0.001974634360522032, 0.000548028212506324, -0.0007459390326403081, 0.0001767937937984243, 0.0002597243874333799, -0.002500120084732771, -0.0008613346144556999, 0.00024173411657102406, -0.0010771865490823984, 0.0016607304569333792, -0.00038397242315113544, -0.00047794420970603824, 0.00040411402005702257, -0.0009567662491463125, -0.00044421450002118945, 0.0011138824047520757, -0.0004535778716672212], [0.0052895997650921345, 0.0034049642272293568, -0.007000149693340063, 0.006067435257136822, -0.00815094169229269, 0.005317566450685263, 0.012954765930771828, -0.004461141303181648, 0.012777814641594887, 0.0036677001044154167, 0.009108136408030987, -0.011452984996140003, 0.006225553806871176, -0.004399069119244814, 0.00924393255263567, 0.004848102107644081, 0.008306605741381645, -0.005216588266193867, -0.00856160931289196, 0.0033852197229862213, -0.0032706493511795998, 0.010994433425366879, 0.0006244596443139017, 0.008688542060554028, -0.012996785342693329, 0.012060601264238358, -0.003040930489078164, 0.0031544193625450134, 0.0014309214893728495, 0.003987712785601616, 0.007878506556153297, 0.009558608755469322, -0.008771508000791073, -0.0001527669228380546, -0.006010455545037985, -0.020512780174613, 0.008654288947582245, -0.0008155997493304312, 0.0011805192334577441, 0.004060638137161732, 0.014734259806573391, -0.0038670897483825684, -0.003306726226583123, 0.006220668088644743, -0.005415927618741989, 0.0029174077790230513, -0.012461545877158642, -0.009635687805712223, -0.00603949511423707, -0.0009860136779025197, -0.0028138638008385897, 0.002414904534816742, 0.003909176681190729, -0.012550430372357368, 0.0032278026919811964, -0.0019495707238093019, 0.013316276483237743, -0.003134514205157757, 0.0007767067290842533, -0.014600844122469425, -0.005336384754627943, -0.004793880507349968, -0.0024921807926148176, 0.0031116721220314503], [7.869085675338283e-05, 0.00011521942360559478, 0.0006650356808677316, -0.00044292863458395004, -0.00020910876628477126, -9.977682202588767e-05, -0.0001984696718864143, 4.466550308279693e-05, -0.00045637344010174274, 0.000269496813416481, -0.0006333122146315873, 0.00010286290489602834, 4.3860018195118755e-06, -0.00018547520448919386, -0.0005080624832771719, -0.00045817854697816074, -0.0004957757773809135, 0.00011014604388037696, -4.808300582226366e-05, 0.0002482995914760977, 0.00010112840391229838, -0.0018207153771072626, -0.0007069939165376127, -0.00010909835691563785, 0.0017573796212673187, -0.00023261885507963598, -5.566139589063823e-05, -6.94721529725939e-05, 0.00044334708945825696, -0.0006581941270269454, -0.0005278802709653974, -0.0003836392716038972, 0.0008846755954436958, -0.00016772569506429136, 0.0002467474259901792, 0.0004824548086617142, 0.00014993570221122354, 9.889623470371589e-05, -0.00015950841770973057, -1.6126396076288074e-06, -0.001428168616257608, 0.00014496134826913476, 0.0002508358156774193, -0.00012754778435919434, 0.0005883921403437853, 3.999478394689504e-06, 0.0013732650550082326, -0.00038159964606165886, 1.3282618965604343e-05, 3.444658068474382e-05, -0.0004621052066795528, 0.00012636420433409512, -0.000577138620428741, 8.884690032573417e-05, 0.00014821943477727473, -0.0003391837526578456, -0.00014176676631905138, 0.00029023285605944693, -8.688579691806808e-05, 0.00011970211926382035, -0.00032634558738209307, -8.119489393720869e-06, 0.0006531596300192177, 0.0004884224035777152], [0.00034265927388332784, 0.0008198331343010068, 0.0055074249394237995, -0.0008189614163711667, -0.0021881647408008575, 0.0013038323959335685, 0.00030230425181798637, -0.00032163705327548087, -0.008439246565103531, -0.0009768686722964048, -0.01214540284126997, 0.006407891865819693, 0.001009959727525711, -0.0012897857232019305, -0.008921554312109947, -0.0036594003904610872, -0.010747360065579414, -0.0007442798232659698, 0.00013333302922546864, 0.002559155458584428, -0.001479701604694128, -0.0137121407315135, -0.0022416620049625635, 0.0022843496408313513, 0.0006312701152637601, 0.00215748674236238, -0.0012088882504031062, 0.00036028859904035926, 0.00408534612506628, -0.004106360953301191, -0.005055835470557213, 0.0012460042489692569, 0.006863877642899752, -0.0017116181552410126, 0.0002061414415948093, -0.00018906540935859084, 0.0019376607378944755, -0.00041420277557335794, -0.0007224022410809994, 0.0008274404099211097, -0.02566000632941723, -0.0007398109300993383, -0.00011322930367896333, 0.0004102210223209113, 0.006647514179348946, 0.00045886472798883915, 0.006144678220152855, -0.002843176946043968, 0.0011581451399251819, -0.003029801417142153, -0.0014785161474719644, 0.00037797167897224426, -0.007196125108748674, -0.0011099816765636206, 0.00039266585372388363, -0.0022497910540550947, 0.002947177505120635, 0.00020846808911301196, -0.0016903989017009735, 0.0012633200967684388, -0.0021786531433463097, -0.0006400569109246135, 0.0021835777442902327, 0.0004928564885631204], [-5.0551010644994676e-05, 9.382045391248539e-05, 0.0016251364722847939, -0.0001970380253624171, -0.00041372899431735277, 0.0005811237497255206, -0.00015776613145135343, -5.059685281594284e-05, -0.001951521378941834, -0.00019404034537728876, -0.0030024510342627764, 0.0008680192404426634, 0.0005442710244096816, -0.0002207863872172311, -0.002063957741484046, -0.000880238541867584, -0.0019566244445741177, -0.00013071668217889965, -7.367731450358406e-05, 0.0006505763158202171, -0.0001951933081727475, -0.005057163070887327, -0.0005835305200889707, 0.0004907374968752265, 0.005871766712516546, 0.0006999555043876171, -0.00020249144290573895, -6.513022526632994e-05, 0.0013318149140104651, -0.001164719695225358, -0.002107159001752734, 0.0004177959344815463, 0.0017178585985675454, -0.0003005470207426697, 0.00017153346561826766, 3.702392859850079e-05, -4.1247312765335664e-05, -8.059745596256107e-05, 6.531309918500483e-05, 5.0760463636834174e-05, -0.005487311165779829, -0.0001435335143469274, -0.0005279766046442091, 0.0004416290030349046, 0.0014629887882620096, 0.00017693225527182221, 0.006353507284075022, -0.00046524329809471965, -0.0001268435880774632, -0.0004433868161868304, 0.00014161183207761496, 0.0001255602401215583, -0.001764996675774455, -0.0006592741701751947, 0.00010850894614122808, -0.00038805301301181316, 0.0007898038602434099, 4.895121674053371e-05, -0.0003819949633907527, 0.0006722878315486014, -0.00040576214087195694, -0.00018895187531597912, 0.0008267061202786863, -4.667973189498298e-05], [-0.00032629843917675316, -0.0016182116232812405, -0.001968956086784601, -0.0007208421593531966, -0.002466117264702916, 0.0005384766845963895, 0.0033738708589226007, -0.0003401006106287241, 0.005303699057549238, 0.000350797432474792, 0.004365628119558096, -0.0009949972154572606, 0.0014842306263744831, 0.0006711481255479157, 0.0018477017292752862, 0.002184272510930896, 0.0032327596563845873, 0.0003185757959727198, -0.000716947193723172, 0.0029802408535033464, 0.0001826970255933702, 0.012129132635891438, -0.000930823152884841, 0.0032074563205242157, -0.008265839889645576, 0.0037694007623940706, -0.000710847438313067, -2.4309811124112457e-06, -0.00028491971897892654, 0.002388940192759037, 0.0024194580037146807, 0.0011906945146620274, -0.00415040785446763, 8.882103429641575e-05, 0.0004123779362998903, -0.002199070528149605, 0.0021805348806083202, -0.0003675401967484504, 0.0009333556517958641, -0.000668700085952878, 0.0008950744522735476, 0.0009975434513762593, -0.0006546794902533293, -0.001424733200110495, -0.0021910700015723705, -6.698969809804112e-05, -0.008774969726800919, -0.003579870332032442, -0.005820108111947775, 0.0018026140751317143, 0.004915832541882992, -0.001141250948421657, 0.0033098922576755285, -0.0004928662674501538, -0.00027753959875553846, 0.000948675035033375, 0.00041029579006135464, -0.0009583230130374432, 0.002171505242586136, 0.001141247572377324, -0.0019433342386037111, -0.0005083704018034041, -0.0020177902188152075, -0.0007604329148307443], [0.0004791410465259105, 0.00017563975416123867, -5.2587227401090786e-05, 0.001115814782679081, -0.0007897232426330447, 0.0006378030520863831, 0.0008506312733516097, -0.0004297186678741127, 0.0010280843125656247, 9.19751837500371e-05, 0.000386308558518067, -0.0003107079246547073, 0.0011394763132557273, -0.0003398663247935474, 0.0003495871787890792, 0.0003060671151615679, 0.00034463428892195225, -0.0003612397995311767, -0.0005851672613061965, -0.00017085322178900242, -0.0001068623605533503, 0.00012703577522188425, -0.00021731788001488894, 0.001423973124474287, -0.000394764996599406, 0.0020603251177817583, -0.0003493459371384233, 0.00017547806783113629, 0.00033428851747885346, 0.00021164894860703498, 0.00026098432135768235, 0.0006378462421707809, -0.0002616681740619242, -0.0001377360604237765, -0.00036087766056880355, -0.0012338249944150448, 0.0006548636010847986, -0.0001449723931727931, 0.0005234964773990214, 5.314723603078164e-05, 5.698773748008534e-05, -0.00037142515066079795, -0.0005517979152500629, 0.0006874190294183791, -8.75965561135672e-05, 0.00039236529846675694, -0.0006603013607673347, -0.0009229184943251312, -0.0005090601043775678, -0.00022859033197164536, -0.00035969895543530583, 0.00016810270608402789, -2.992371082655154e-05, -0.0014954499201849103, 0.0005059578106738627, 2.0142037101322785e-05, 0.0009104229393415153, -0.0002084216830553487, -2.917419624282047e-05, -0.0016627468867227435, -0.0003282979887444526, -0.0009078928851522505, 9.835138189373538e-05, 0.00042348436545580626], [0.0010104482062160969, 0.0005574608803726733, -0.0005201637977734208, 0.0026046426501125097, -0.0016911672428250313, 0.002369910478591919, 0.0028957317117601633, -0.0016075789462774992, 0.003632589243352413, 0.0003087616933044046, 0.0026172646321356297, -0.0008076995145529509, 0.0027593025006353855, -0.000610185437835753, 0.0006187702529132366, 0.001085677300579846, 0.0017270523821935058, -0.0007536713965237141, -0.0006957821897231042, 9.093408152693883e-05, -0.0006122594350017607, 0.004038793034851551, -6.318726809695363e-05, 0.0051016355864703655, -0.0031151408329606056, 0.0056686364114284515, -0.0005296273157000542, 0.000516739150043577, 0.0006061333115212619, 0.0007117863860912621, 0.0007224497385323048, 0.002522990806028247, -0.0017140870913863182, 6.648204362136312e-06, -0.0013429925311356783, -0.0031153736636042595, 0.0014969490002840757, -0.0002248350065201521, 0.00035541068064048886, 0.00023614073870703578, 0.0011977931717410684, -0.0006013097008690238, -0.0016315690008923411, 0.0025316914543509483, -0.000900877348612994, 0.0010545275872573256, -0.005324568133801222, -0.002934511285275221, -0.0006162496865727007, -0.0006708773435093462, -0.0005048119928687811, 0.0005362094379961491, 0.0007946011610329151, -0.003301377175375819, 0.0007487133261747658, -0.00011284247739240527, 0.0018030127976089716, -0.0013070214772596955, -5.19509230798576e-05, -0.0032211632933467627, -0.0012105385540053248, -0.0004209473845548928, -1.5784895367687568e-05, 0.0003903823089785874], [0.00013083158410154283, -0.0003225792315788567, 0.006551586091518402, 0.003428426571190357, 0.00702291913330555, -0.00384083716198802, -0.003447209484875202, 0.0014974159421399236, -0.012580811977386475, -0.001439012004993856, -0.010861038230359554, 0.005530301947146654, -0.004471199586987495, 0.00037067499943077564, -0.005381288938224316, -0.002085520885884762, -0.008159460499882698, 0.0025822273455560207, 0.0031234531197696924, -0.004254054743796587, 0.0015198480105027556, -0.011576835997402668, 0.0006152469431981444, -0.0037027921061962843, 0.012677372433245182, -0.006671389099210501, 0.001371172838844359, -0.0006208671838976443, 0.002187190344557166, -0.003259938908740878, -0.008018065243959427, -0.003019088413566351, 0.008821372874081135, 5.076478191767819e-05, 0.0012784100836142898, 0.0038268635980784893, -0.005926641169935465, 0.0006024528411217034, -0.0002333619340788573, -0.003600890515372157, -0.008685239590704441, 0.0015575189609080553, 0.001679623732343316, -0.003496678313240409, 0.007739459630101919, -0.0008749988628551364, 0.012717613950371742, 0.0042829024605453014, 0.007835648953914642, -0.0014813453890383244, -0.0008802447700873017, 0.0009744043345563114, -0.007155429571866989, 0.00490746833384037, -0.0016350153600797057, 0.0007279134006239474, -0.009323414415121078, 9.892461821436882e-05, -0.0022533114533871412, -0.0005413175676949322, 0.00467316061258316, 0.0018625154625624418, 0.004422588739544153, -0.002294897800311446], [-0.00017127346654888242, -0.00012598132889252156, -0.00022367219207808375, 8.487197919748724e-05, -0.00041828129906207323, 0.00047094124602153897, 0.00021274687605910003, -0.00021487948833964765, 0.0006595969316549599, 0.00013523788948077708, 0.0007146626012399793, -0.0007826518267393112, 0.000525560462847352, 0.00016350705118384212, 0.0006104632630012929, -8.920767868403345e-05, 0.00041989394230768085, -4.9622805818216875e-05, -9.827016037888825e-05, 0.000271696102572605, 3.972938429797068e-06, 0.0013460837071761489, -4.82708855997771e-05, 0.00033146116766147316, -0.0007208828465081751, 0.000660704739857465, 0.00010900494089582935, 0.0001359458692604676, -0.00019098076154477894, 1.522834281786345e-05, 0.00045902765123173594, 0.0003475660923868418, -0.00023936368233989924, -9.282127393817063e-06, -0.000207360673812218, -0.0003874593530781567, 0.00010291566286468878, 5.0832575652748346e-05, -0.00013007479719817638, 0.00038639604463241994, 0.0004412313282955438, -7.228221511468291e-05, -0.00020307324302848428, 0.00029365287628024817, -0.00024076481349766254, 0.0001091927188099362, -0.0010178799275308847, -0.0005169459036551416, -0.0004273111990187317, -0.0001156804064521566, -0.00026860478101298213, -0.000199605492525734, 0.0002984085585922003, -0.0005362624651752412, 8.232903928728774e-05, -7.095296314219013e-05, 0.000973349844571203, -9.12066680029966e-05, 0.00010077985643874854, -0.0006634994642809033, -0.00025206952705048025, -0.00019192215404473245, -0.0002477197558619082, 0.0001885688106995076], [-0.00026971378247253597, -0.0017318292520940304, -0.02783753164112568, -0.018287166953086853, -0.005481930915266275, -0.004461102187633514, -0.0014633177779614925, 0.0006550346734002233, 0.017741035670042038, 0.000463707692688331, 0.04836554080247879, -0.019025322049856186, -0.0006377804093062878, 0.009055924601852894, 0.035593848675489426, 0.009756673127412796, 0.01714172773063183, -0.009663265198469162, -0.004776332527399063, 0.016808463260531425, 0.0030356564093381166, 0.0690503865480423, 0.049876078963279724, 0.0006614121957682073, -0.06363558024168015, -0.0003632386797107756, 0.0032262986060231924, -0.0023785734083503485, -0.015180598944425583, 0.02117929235100746, 0.032864492386579514, 0.0050104232504963875, -0.01864202879369259, 0.014025087468326092, 0.005113054066896439, 0.004844005685299635, 0.002099950797855854, -0.013602051883935928, -0.0002795347827486694, -0.009442498907446861, 0.048554956912994385, 0.0005592817324213684, -0.0022236905060708523, 0.006217303220182657, -0.029930943623185158, -0.0062031373381614685, -0.0680653303861618, -0.0073736500926315784, 0.015487494878470898, 0.0011087539605796337, 0.003938179928809404, -0.012682211585342884, 0.014875917695462704, 0.0025713525246828794, -0.0008853749604895711, 0.002219016198068857, 0.00419732928276062, 0.00030482670990750194, 0.013037672266364098, 0.017712503671646118, -0.012105932459235191, -0.0022156767081469297, -0.030336324125528336, -0.002240980276837945], [-4.0528768295189366e-05, -6.364271939673927e-06, 0.0015971283428370953, -0.00221018074080348, 8.355586032848805e-05, -0.00126412243116647, -0.001426965813152492, 0.00045609267544932663, -0.0016242702258750796, -0.0003222019877284765, -0.00018815146177075803, 0.001579189207404852, -0.0009684654651209712, -0.0002649821399245411, -0.0014696554280817509, -0.0004637775127775967, -0.0015787228476256132, 3.181838837917894e-05, 0.0003844406164716929, 0.0013678835239261389, 4.310841904953122e-05, 0.0015237469924613833, -0.0030176970176398754, -0.0013305259635671973, -0.0004165864665992558, -0.0010366694768890738, -0.0010863360948860645, -0.00020261621102690697, 0.0008165613980963826, -0.00021706911502406, -0.0005864171544089913, -0.001968072261661291, 0.0006588841206394136, -0.0007144708069972694, 0.0006940378225408494, 0.0016322177834808826, -0.00033176381839439273, 0.00014680452295579016, 0.00013958934869151562, -0.00020388938719406724, -0.004494847729802132, 0.0003990671248175204, 0.0010578971123322845, -0.00023864328977651894, 0.0005169801879674196, -0.00042976633994840086, -0.0005729084368795156, -0.0007230234914459288, -0.0014891611644998193, -0.0001578123337822035, 0.000439036957686767, 0.0003397578257136047, -0.00038276962004601955, 0.0015104390913620591, -0.0003417871776036918, -0.00011807744158431888, -4.026314854854718e-05, 0.0008561265422031283, -0.00010263625154038891, 0.0026508045848459005, -0.0006928471848368645, -0.00030429105390794575, 0.0007012884598225355, -0.0004919247585348785], [0.004790615756064653, 0.0033249843399971724, -0.011422799900174141, 0.008189300075173378, -0.009663859382271767, 0.007295696064829826, 0.01292798575013876, -0.006304267328232527, 0.016391323879361153, 0.004172195214778185, 0.012529619038105011, -0.01658789999783039, 0.009399864822626114, -0.0047194818034768105, 0.0144913699477911, 0.006601579487323761, 0.012757650576531887, -0.007572646252810955, -0.012203321792185307, 0.0037036817520856857, -0.0030135847628116608, 0.015547534450888634, 0.0018775976495817304, 0.010555858723819256, -0.0177865382283926, 0.01675073616206646, -0.003494430333375931, 0.006014188751578331, 0.001825139275752008, 0.004741777200251818, 0.011665860190987587, 0.009824445471167564, -0.01159636303782463, -7.934025052236393e-05, -0.008710912428796291, -0.02206602320075035, 0.009280933998525143, -0.000765071774367243, 0.0018654410960152745, 0.005738586653023958, 0.020238839089870453, -0.00520448898896575, -0.004532972350716591, 0.008369676768779755, -0.009142440743744373, 0.003965618554502726, -0.01727217063307762, -0.012338224798440933, -0.006433205213397741, -0.0016362399328500032, -0.0031514717265963554, 0.0018152864649891853, 0.00580641208216548, -0.015826717019081116, 0.0041654761880636215, -0.0011715018190443516, 0.018716411665081978, -0.003770747920498252, 0.0016468537505716085, -0.019273431971669197, -0.008312157355248928, -0.006868529599159956, -0.002589109819382429, 0.004033949691802263], [0.0032344700302928686, -0.004047707188874483, -0.019690223038196564, -0.012110772542655468, -0.006551817059516907, -0.0011984773445874453, 0.0011081179836764932, -0.0016717634862288833, 0.01675010472536087, 0.005539756268262863, 