{"hyperparams": {}, "state_dict": {"rnn.weight_ih_l0": [[0.10231518000364304, -0.0710403099656105, 0.037684496492147446, -0.035835906863212585, 0.026014866307377815, -0.01561562716960907, 0.006977009121328592, -0.10537714511156082, 0.07657076418399811], [0.040098562836647034, 0.029685836285352707, 0.020672572776675224, 0.06400278210639954, 0.05613591521978378, 0.13641859591007233, -0.013095598667860031, 0.043652769178152084, 0.018403157591819763], [-0.005118624307215214, -0.08268792182207108, -0.10370796173810959, -0.012192283757030964, 0.037188466638326645, -0.04346928745508194, 0.11959873884916306, -0.04163919389247894, 0.014416246674954891], [0.11034569144248962, -0.12612517178058624, -0.05365302041172981, 0.09239803999662399, 0.08734603971242905, -0.059173569083213806, -0.03724293038249016, 0.019713331013917923, 0.08298227936029434], [-0.10317917168140411, 0.07803160697221756, 0.0051850732415914536, 0.06397172063589096, -0.024206768721342087, -0.0014359281631186604, -0.10552851855754852, 0.0064559499733150005, 0.09611204266548157], [0.12953755259513855, -0.02676861360669136, -0.04608965292572975, 0.023288877680897713, 0.001287443214096129, 0.00869185570627451, -0.03404610604047775, -0.03828407824039459, -0.054304223507642746], [-0.05896967649459839, 0.08789324760437012, 0.001242864760570228, 0.001381492125801742, -0.04079076275229454, -0.019627166911959648, 0.06408895552158356, -0.058405134826898575, -0.07496202737092972], [-0.07243947684764862, 0.15131154656410217, -0.015581921674311161, 0.0005732639110647142, -0.08771183341741562, -0.04933825507760048, -0.03760996833443642, -0.037055853754282, -0.06723472476005554], [-0.02491011843085289, 0.04135468974709511, -0.05723953619599342, 0.001728014089167118, -0.028711281716823578, 0.042807817459106445, 0.03920401260256767, 0.00629473477602005, -0.1083160787820816], [-0.0013608065200969577, 0.11877582967281342, -0.10731551051139832, 0.008273161947727203, 0.057905178517103195, -0.07991725206375122, -0.011549391783773899, -0.05363760516047478, -0.01518994476646185], [0.117499940097332, -0.0013281104620546103, -0.052566856145858765, 0.06874440610408783, -0.04580695182085037, 0.028911050409078598, 0.09749271720647812, -0.057734448462724686, -0.08300686627626419], [0.012931489385664463, 0.07615475356578827, -0.015386326238512993, 0.027280431240797043, 0.002637497615069151, -0.010218458250164986, -0.09601809829473495, -0.0035511760506778955, 0.07404186576604843], [-0.027262350544333458, 0.025633221492171288, -0.015840014442801476, -0.03214344382286072, -0.04802566394209862, 0.03847036138176918, -0.09870415925979614, 0.03750605881214142, 0.06285830587148666], [-0.08402832597494125, 0.0033909378107637167, -0.0053725880570709705, 0.04616843909025192, 0.026904378086328506, -0.10338836908340454, -0.04301584139466286, 0.07962450385093689, 0.06458592414855957], [-0.05555780977010727, -0.05478980019688606, 0.061730507761240005, -0.0021273703314363956, -0.09936366975307465, 0.10666686296463013, 0.08247607201337814, -0.030457837507128716, -0.005754034500569105], [-0.024438655003905296, 0.0995238870382309, -0.06651192158460617, 0.08791147917509079, 0.00849086232483387, 0.05432024225592613, 0.07438937574625015, -0.11315646022558212, 0.09779222309589386], [-0.04269970580935478, 0.010059618391096592, 0.015297668986022472, 0.034565430134534836, 0.015470187179744244, -0.09124503284692764, -0.07143116742372513, -0.04387936368584633, 0.038134537637233734], [0.05610428377985954, 0.06861961632966995, -0.07746593654155731, 0.04733388498425484, -0.0419614315032959, 0.025230787694454193, -0.0073347617872059345, -0.0378849133849144, -0.038973260670900345], [0.10107648372650146, -0.05735165998339653, 0.0326508954167366, -0.009304945357143879, -0.011826619505882263, 0.03210306167602539, -0.10083486884832382, -0.0752222090959549, 0.03380557894706726], [-0.08408940583467484, 0.06408673524856567, -0.11930098384618759, 0.012103816494345665, -0.028568509966135025, 0.0019339157734066248, 0.03844136744737625, 0.07306373119354248, 0.02159072831273079], [-0.05824197828769684, 0.009794232435524464, -0.05747003108263016, -0.014223935082554817, 0.04910613223910332, 0.0026805636007338762, 0.008011572062969208, 0.06824088096618652, 0.04921205714344978], [0.09789683669805527, -0.07733466476202011, -0.015034964308142662, -0.048882611095905304, 0.07386812567710876, 0.047545336186885834, -0.02813112735748291, -0.03866810351610184, 0.014359252527356148], [0.039054349064826965, 0.11601328104734421, 0.03753536194562912, 0.09774363785982132, -0.1005452573299408, -0.05388535559177399, 0.047273486852645874, -0.027320586144924164, -0.07751449942588806], [0.035606954246759415, 0.081235870718956, 0.06634826958179474, 0.05217872932553291, 0.010499543510377407, -0.0048687695525586605, -0.030161278322339058, -0.0382208377122879, 0.025995727628469467], [-0.030850574374198914, -0.08505292236804962, 0.005134515929967165, 0.0528222918510437, 0.017668358981609344, -0.03785774111747742, 0.06473708152770996, 0.07867059111595154, -0.10856152325868607], [0.023365585133433342, -0.10551067441701889, 0.004524614196270704, 0.05375121161341667, -0.029476547613739967, -0.0240534245967865, 0.06187525764107704, 0.05593035742640495, 0.05533817410469055], [0.08064420521259308, 0.043029408901929855, -0.044691767543554306, 0.07841543108224869, -0.11216427385807037, 0.059509385377168655, 0.039264801889657974, -0.017549553886055946, -0.007013405207544565], [0.024439340457320213, 0.016062576323747635, 0.07016706466674805, -0.03440525010228157, 0.03277219831943512, -0.02011791802942753, -0.06207426264882088, -0.06870356947183609, 0.05054319649934769], [-0.06752016395330429, -0.01753050647675991, -0.0686715841293335, 0.10856778174638748, 0.02805199660360813, 0.01689767837524414, 0.0019173725740984082, 0.042631104588508606, 0.08965331315994263], [-0.03497834876179695, 0.11405275762081146, 0.036793097853660583, 0.042971447110176086, -0.04593511298298836, 0.025534208863973618, -0.0021910963114351034, -0.08614174276590347, -0.08864827454090118], [0.036445535719394684, -0.0831616148352623, 0.029378367587924004, 0.035456664860248566, 0.058606818318367004, -0.07888124883174896, 0.08688366413116455, -0.006008297670632601, 0.00683773634955287], [0.03007652796804905, -0.02320663258433342, -0.008786975406110287, -0.03305691480636597, -0.0051333289593458176, 0.05152358114719391, -0.06701523810625076, 0.06906131654977798, 0.035624273121356964], [-0.046539630740880966, -0.0717109739780426, -0.054921623319387436, -0.011587096378207207, -0.043923020362854004, 0.06608758121728897, -0.012908006086945534, 0.0712200477719307, 0.026976734399795532], [0.04496655613183975, -0.007652355823665857, -0.011462285183370113, 0.0346294604241848, -0.07798825949430466, 0.027901213616132736, -0.0423552542924881, -0.06894537061452866, 0.03116524964570999], [-0.05493437498807907, 0.03342810645699501, 0.040391840040683746, -0.028142329305410385, 0.04869754612445831, -0.0659438893198967, -0.05178502947092056, -0.007925901561975479, -0.004029265604913235], [-0.0051036314107477665, 0.05408512055873871, 0.03720849007368088, 0.0184056106954813, -0.009201105684041977, 0.001489825895987451, -0.07054238766431808, 0.10272672772407532, -0.06604890525341034], [0.011673820205032825, -0.05850359424948692, 0.07915566116571426, -0.010528345592319965, 0.08653781563043594, -0.08421075344085693, -0.05285497382283211, -0.03889791667461395, 0.048945244401693344], [-0.09995538741350174, 0.02938476949930191, 0.04303590580821037, -0.09029499441385269, 0.085736483335495, 0.01802060380578041, 0.049413423985242844, -0.028425822034478188, -0.007564060855656862], [-0.01567571423947811, 0.08627315610647202, 0.02326853759586811, 0.0758175402879715, -0.0768205001950264, 0.08758168667554855, -0.02396523393690586, 0.025392794981598854, -0.010154914110898972], [0.007541117258369923, -0.10284525901079178, 0.047708675265312195, -0.022429142147302628, 0.08635607361793518, -0.06149371340870857, 0.05216092988848686, -0.01714232936501503, 0.02081148326396942], [0.089073047041893, -0.043587978929281235, 0.00731209572404623, 0.0024675424210727215, 0.08382599800825119, -0.055100053548812866, -0.09097366034984589, -0.0011383023811504245, 0.0962943434715271], [-0.0777912512421608, -0.06499940901994705, 0.007937120273709297, -0.015764746814966202, 0.09855766594409943, -0.018617363646626472, 0.012039760127663612, -0.05494190379977226, 0.014683750458061695], [-0.011196701787412167, 0.011894356459379196, -0.008425748907029629, 0.026912130415439606, 0.037933021783828735, 0.0966021716594696, -0.006264825817197561, -0.014204727485775948, 0.07786653935909271], [-0.04335644096136093, 0.02863571047782898, -0.027249006554484367, 0.053974613547325134, 0.0018494268879294395, 0.06036614999175072, -0.05520712584257126, -0.031979095190763474, 0.09485587477684021], [0.007935670204460621, -0.10175429284572601, 0.07225801795721054, 0.025124566629529, -0.018134839832782745, -0.0023538300301879644, 0.052719250321388245, -2.006423528655432e-05, -0.03874984011054039], [-0.014224627986550331, -0.03812311217188835, 0.06970471143722534, -0.01711895503103733, -0.07192234694957733, -0.02106602117419243, -0.11203712970018387, 0.04326378181576729, 0.0023486334830522537], [-0.024382954463362694, 0.07055502384901047, 0.004063459578901529, -0.08635920286178589, 0.10976879298686981, 0.09251468628644943, -0.07951880991458893, 0.05237466096878052, -0.06319121271371841], [-0.054647669196128845, 0.023061538115143776, -0.01758316159248352, -0.022961826995015144, 0.030382566154003143, 0.030080869793891907, 0.07510007172822952, 0.06643125414848328, -0.11081966012716293], [-0.06074311584234238, 0.09175855666399002, 0.1326494961977005, 0.009322725236415863, -0.045558467507362366, 0.09655078500509262, 0.0027744928374886513, -0.09244965016841888, -0.019663305953145027], [-0.07346566766500473, 0.11595762521028519, -0.0400913767516613, 0.0024669235572218895, -0.00022079297923482955, 0.01935471035540104, -0.009475520811975002, -0.08305204659700394, 0.021152103319764137], [-0.07488726079463959, 0.053789008408784866, 0.06305988878011703, 0.08951282501220703, 0.024577582255005836, 0.05224822461605072, 0.060745105147361755, 0.020843079313635826, -0.0627753958106041], [0.11491575092077255, -0.07054126262664795, 0.0612802691757679, -0.06527268141508102, 0.07500459998846054, -0.00543765164911747, 0.04850680008530617, -0.051505424082279205, -0.05895412340760231], [0.04487002640962601, -0.040682367980480194, -0.039658185094594955, 0.004380453377962112, -0.10289235413074493, 0.016550539061427116, 0.030020995065569878, 0.022893164306879044, 0.06493469327688217], [-0.16954533755779266, -0.1663433015346527, -0.11449559777975082, -0.06420889496803284, 0.09262920916080475, -0.10153815895318985, -0.13154886662960052, -0.09613757580518723, -0.08659620583057404], [-0.05262523889541626, 0.022157220169901848, 0.018893741071224213, -0.01091386005282402, -0.05700160935521126, 0.10187975317239761, 0.022131025791168213, 0.05171400308609009, -0.024438660591840744], [-0.026313772425055504, -0.06488659232854843, -0.06673163175582886, -0.07631523907184601, -0.022675100713968277, 0.019359756261110306, 0.05717642977833748, -0.04563041776418686, 0.11369208991527557], [0.058851320296525955, -0.1325346976518631, 0.04870758205652237, -0.029168836772441864, 0.007153730373829603, 0.005485208239406347, 0.004116016905754805, 0.010670964606106281, 0.021128136664628983], [-0.09382510185241699, -0.07041548937559128, 0.07549551129341125, -0.05068854242563248, -0.10062813013792038, 0.04558390751481056, 0.08833032846450806, 0.08721507340669632, 0.08734603226184845], [0.023551197722554207, -0.025163231417536736, -0.009055227041244507, -0.07077477127313614, 0.05048653483390808, 0.03103451617062092, 0.033920373767614365, 0.036642637103796005, -0.01688057743012905], [-0.0627037063241005, 0.030338307842612267, 0.1250385046005249, 0.009434511885046959, -0.0023709179367870092, -0.058840349316596985, 0.0754491537809372, 0.11860929429531097, -0.05286913737654686], [0.04799489676952362, -0.005907315295189619, -0.0310823991894722, 0.02799246832728386, -0.059780221432447433, 0.047039374709129333, 0.08397317677736282, -0.0005703156348317862, -0.053113218396902084], [0.04163941740989685, 0.08138664811849594, -0.10333557426929474, 0.06433230638504028, -0.02768806554377079, -0.06345133483409882, 0.0563095286488533, -0.07524621486663818, 0.014041421934962273], [-0.030713913962244987, -0.04842086508870125, 0.00820737611502409, -0.09606406837701797, 0.08416658639907837, 0.04897376522421837, 0.025870593264698982, 0.04471243917942047, -0.024740688502788544], [-0.05730794370174408, -0.021550707519054413, 0.0031079736072570086, 0.017939722165465355, 0.07813110947608948, -0.07608548551797867, -0.07730702310800552, -0.03849270939826965, 0.1035938411951065]], "rnn.weight_hh_l0": [[0.032167889177799225, -0.04948726296424866, -0.05493561550974846, 0.09681935608386993, 0.08256075531244278, 0.0912511795759201, 0.07411254197359085, -0.0559147410094738, -0.01792665384709835, -0.07668354362249374, -0.008344286121428013, 0.0056050303392112255, -0.03502944856882095, 0.10069958865642548, 0.07793909311294556, 0.04046206921339035, 0.11476961523294449, 0.051333896815776825, -0.07327116280794144, 0.020719628781080246, -0.03573523834347725, -0.04584667459130287, 0.07683320343494415, 0.029732557013630867, -0.08074846118688583, -0.0011145730968564749, 0.10077475011348724, -0.10971967875957489, -0.015062719583511353, 0.00727769685909152, 0.0154741071164608, -0.045876167714595795, -0.11847952008247375, -0.034931909292936325, 0.09054303169250488, -0.017522456124424934, 0.07891912013292313, 0.0006773812929168344, 0.0011071607004851103, 0.009202436544001102, -0.0685710683465004, 0.05683363974094391, 0.1100691556930542, -0.09412800520658493, -0.09531481564044952, 0.02162076160311699, 0.049362994730472565, 0.004130331799387932, -0.0554964654147625, -0.005962745286524296, 0.02485189586877823, 0.0637843906879425, -0.11326858401298523, 0.09899936616420746, 0.08114942163228989, 0.05089613422751427, 0.08478400111198425, -0.019383862614631653, 0.01600673608481884, 0.0075650871731340885, -0.041282810270786285, -0.08371368050575256, 0.005338227842003107, 0.054156091064214706], [0.07264861464500427, 0.05755864828824997, -0.014182152226567268, 0.057108815759420395, 0.004428122192621231, 0.04057684168219566, -0.008433140814304352, 0.009256119839847088, -0.06304426491260529, 0.11547419428825378, 0.020702216774225235, -0.050536636263132095, 0.08101128786802292, -0.06955639272928238, 0.03877716884016991, -0.1201208233833313, 0.11698216944932938, -0.05608149617910385, 0.06590280681848526, -0.019371291622519493, 0.10221271216869354, 0.1283213347196579, -0.037965625524520874, 0.11678727716207504, -0.00965147465467453, 0.07373122125864029, -0.07101195305585861, 0.005049842409789562, -0.06300133466720581, -0.13263267278671265, 0.01644996739923954, 0.02235071361064911, -0.028216011822223663, -0.06650702655315399, -0.02395462431013584, 0.02961270697414875, 8.967358007794246e-05, -0.13558954000473022, -0.006794057320803404, -0.0825456753373146, 0.0961839109659195, -0.01139828097075224, -0.04959637671709061, -0.048360519111156464, -0.08288206160068512, -0.024524925276637077, 0.12573310732841492, 0.029268041253089905, 0.04198167100548744, 0.03876974433660507, 0.007992852479219437, 0.05308989807963371, -0.06926745176315308, 0.06743113696575165, 0.09471222758293152, -0.16163013875484467, 0.13371415436267853, -0.027349185198545456, 0.03231622651219368, 0.04458855092525482, 0.05353183671832085, 0.022706324234604836, 0.0488530658185482, 0.07214083522558212], [0.05492538586258888, 0.05773194134235382, 0.015251314267516136, 0.08977901190519333, -0.04493622109293938, -0.039177339524030685, 0.03706043213605881, 0.08272908627986908, 0.038275785744190216, 0.05074348300695419, -0.07755913585424423, -0.0009791412157937884, -0.015816891565918922, 0.009435571730136871, -0.0762079507112503, -0.04725995287299156, -0.06368205696344376, 0.019401993602514267, -0.016585439443588257, 0.01308052334934473, -0.01991809904575348, 0.07516089826822281, 0.04332806169986725, 0.11869588494300842, 0.016673583537340164, 0.056243035942316055, 0.04997861385345459, -0.03183906525373459, -0.01931208372116089, -0.10775327682495117, 0.0292971134185791, -0.04797755554318428, 0.12509839236736298, -0.016238119453191757, 0.038171011954545975, -0.01969076693058014, -0.06745638698339462, -0.036370355635881424, 0.10061658918857574, -0.06266176700592041, 0.08886432647705078, -0.10376843065023422, 0.015649931505322456, 0.005834946408867836, -0.0793626680970192, 0.08735557645559311, -0.019565030932426453, -0.012273232452571392, 0.002689337357878685, 0.026609351858496666, -0.07194794714450836, 0.05006876960396767, -0.02565155178308487, -0.06988396495580673, 0.014477734453976154, 0.07741338759660721, -0.05386348441243172, 0.055652178823947906, 0.1093355193734169, -0.10432864725589752, -0.025442520156502724, 0.05648982152342796, -0.0349237434566021, 0.015596756711602211], [-0.09248828887939453, -0.02651814930140972, -0.033477481454610825, 0.07654328644275665, 0.13110727071762085, -0.08199817687273026, -0.007588499691337347, -0.050985317677259445, -0.057782258838415146, -0.010575770400464535, 0.11105275899171829, 0.03655802831053734, -0.11676467210054398, -0.0403817854821682, 0.034637827426195145, -0.014447447843849659, 0.010530919767916203, -0.09938552230596542, 0.042223501950502396, 0.09446427971124649, 0.0015964509220793843, 0.03457127884030342, -0.013546040281653404, 0.008165172301232815, 0.0011137851979583502, -0.012602902948856354, -0.04285877197980881, -0.016324078664183617, 0.07785278558731079, -0.03242510184645653, -0.05783062055706978, 0.05736159905791283, -0.14030902087688446, -0.058471787720918655, -0.034713294357061386, -0.04478825628757477, -0.05830642580986023, 0.04351707920432091, -0.08400626480579376, 0.015079312957823277, -0.06638237833976746, 0.09682541340589523, 0.10190967470407486, -0.10645674914121628, -0.049193911254405975, 0.08749055862426758, 0.09639537334442139, -0.0626155287027359, -0.008421838283538818, -0.043496761471033096, -0.1539880931377411, -0.06871001422405243, -0.034797124564647675, -0.10809127241373062, -0.06779254227876663, 0.08642744272947311, -0.12134767323732376, -0.07168155908584595, 0.008267372846603394, -0.045300815254449844, -0.07628358155488968, -0.0015066596679389477, -0.010974409058690071, 0.05904470011591911], [-0.05131183937191963, 0.012398730963468552, -0.054045066237449646, -0.07479804009199142, -0.07360786944627762, 0.017844421789050102, -0.037346892058849335, -0.008819942362606525, 0.05384272709488869, -0.007083407137542963, 0.06821858882904053, 0.01640309765934944, -0.05714373290538788, -0.008983914740383625, -0.03166307881474495, -0.0006713511538691819, 0.07266761362552643, 0.11658092588186264, -0.03027544915676117, 0.023145906627178192, -0.07231561094522476, -0.01733160950243473, -0.0208857711404562, -0.009854051284492016, -0.05271241441369057, -0.056584835052490234, 0.05477968230843544, -0.0022048905957490206, 0.011126406490802765, -0.0763285905122757, 0.06738916784524918, -0.03346504271030426, -0.05161161720752716, -0.08388562500476837, -0.09357702732086182, 0.038547318428754807, 0.00679263100028038, -0.00984177552163601, 0.06455936282873154, 0.04524770379066467, 0.03136489912867546, -0.08318202197551727, 0.05555516853928566, -0.051185980439186096, -0.05385122448205948, -0.0628952831029892, -0.06737753748893738, 0.009240156039595604, 0.0860564261674881, -0.03276492655277252, -0.008792337961494923, 0.06691121309995651, 0.06414827704429626, 0.03930392488837242, 0.022610586136579514, 0.06238899752497673, -0.03993644937872887, 0.03348122909665108, 0.04153715446591377, -0.029528986662626266, 0.030045514926314354, -0.001925358665175736, 0.09292778372764587, -0.006881472654640675], [-0.020032169297337532, -0.04362959414720535, -0.027050357311964035, 0.012270993553102016, -0.031179221346974373, -0.009781942702829838, -0.0218522772192955, 0.03196871280670166, 0.028514117002487183, 0.01350962370634079, 0.06277093291282654, -0.056831929832696915, 0.0026029518339782953, -0.014082228764891624, -0.015776606276631355, 0.027606714516878128, -0.028806177899241447, -0.0035847891122102737, -0.02259874902665615, 0.04035771265625954, 0.028958750888705254, 0.03440302610397339, 0.048628926277160645, 0.020879559218883514, 0.00019594840705394745, -0.051530707627534866, 0.06223228946328163, 0.019547540694475174, -0.023140620440244675, -0.048051491379737854, 0.005448405630886555, -0.026560083031654358, -0.09403160959482193, 0.001724625239148736, 0.04169665649533272, -0.003171897493302822, -0.04104657098650932, 0.07490220665931702, 0.05732530355453491, 0.023899178951978683, 0.04690356180071831, 0.06394191831350327, -0.05843492969870567, -0.039564281702041626, 0.004359767306596041, 0.04508989676833153, 0.025924639776349068, -0.00787070021033287, -0.03830045089125633, 0.014778300188481808, 0.019930848851799965, 0.050840895622968674, 0.025724196806550026, -0.015310859307646751, -0.004491589963436127, 0.042246606200933456, 0.006652148440480232, 0.0599362887442112, -0.0008390037692151964, 0.0709708034992218, 0.006165993399918079, -0.06039746105670929, -0.06885211169719696, -0.02374417707324028], [0.026165669783949852, 0.0024017714895308018, 0.021900540217757225, 0.01479287538677454, 0.04296397045254707, 0.04958396404981613, 0.020667562261223793, -0.0815233439207077, 0.07228481769561768, -0.08077514916658401, -0.05466543883085251, -0.005715739913284779, 0.01733456738293171, -0.04241308197379112, 0.02722867578268051, 0.03525230661034584, -0.025926681235432625, 0.0739068016409874, -0.03112855553627014, 0.025756677612662315, -0.0016943239606916904, 0.06572823226451874, -0.06963196396827698, 0.08435649424791336, -0.053811393678188324, 0.05106585472822189, -0.07127595692873001, -0.05201822519302368, -0.04806237295269966, 0.034159280359745026, -0.058831579983234406, 0.028871959075331688, -0.06296991556882858, -0.04667428135871887, -0.0011110221967101097, 0.06037230044603348, 0.08877886831760406, 0.03985074907541275, 0.05600805953145027, 0.025660261511802673, 0.014111345633864403, 0.09915892779827118, 0.01949501968920231, 0.028963414952158928, 0.059759609401226044, 0.03580101951956749, 0.03379472717642784, 0.024830173701047897, -0.11213458329439163, 0.05194084346294403, -0.06189728155732155, -0.008735409006476402, -0.059071268886327744, -0.06889016926288605, 0.041530970484018326, -0.07640007883310318, -0.07095854729413986, 0.024320809170603752, 0.018601955845952034, -0.041484177112579346, 0.021308448165655136, 0.05107855424284935, -0.036707621067762375, 0.06585092842578888], [0.10557860136032104, 0.04444330930709839, -0.05543134734034538, 0.049343500286340714, -0.014430642127990723, -0.0037002204917371273, 0.022255076095461845, -0.108450748026371, -0.06242818012833595, -0.05698557198047638, -0.07928693294525146, 0.04714381694793701, -0.05905815213918686, -0.026735782623291016, -0.1224900409579277, -0.04106750339269638, 0.04786359891295433, 0.04540424421429634, -0.0027765973936766386, -0.06278339773416519, 0.03060019016265869, 0.03294822573661804, 0.041108131408691406, 0.14208905398845673, 0.044597409665584564, 0.018997272476553917, -0.048087283968925476, -0.00044406449887901545, 0.08134496212005615, -0.15170475840568542, -0.056874703615903854, 0.09163302183151245, -4.9474561819806695e-05, 0.11254739761352539, 0.057552799582481384, -0.08767800033092499, -0.051527317613363266, -0.08862879127264023, 0.14765238761901855, -0.08253907412290573, 0.08203749358654022, -0.143514022231102, -0.05812937393784523, -0.10364890098571777, -0.07023406028747559, 0.033469680696725845, 0.057639822363853455, -0.04021405428647995, 0.1383780688047409, -0.07712117582559586, 0.062331754714250565, -0.016715243458747864, -0.14702288806438446, -0.0739019513130188, -0.0518878735601902, -0.021098440513014793, 0.01381058432161808, -0.02880982495844364, 0.05993278697133064, -0.07090708613395691, 0.010496956296265125, 0.04511905089020729, -0.19023661315441132, -0.06874866038560867], [-0.02294457145035267, -0.0666574165225029, 0.004760735668241978, -0.0550101138651371, -0.005019858945161104, 0.046329665929079056, -0.05322849377989769, 0.00466108089312911, -0.10746551305055618, 0.0048308768309652805, 0.0426807776093483, -0.0005325422389432788, 0.07344385236501694, -0.020663965493440628, -0.04172713682055473, 0.0218792911618948, 0.08375733345746994, -0.05425546318292618, -0.04860590025782585, 0.018448635935783386, -0.04291456937789917, -0.04255775362253189, 0.07500668615102768, 0.03498592600226402, -0.025415126234292984, 0.03494391590356827, 0.053373243659734726, -0.003991508856415749, 0.06815134733915329, 0.03147824853658676, -0.047225646674633026, 0.03846479952335358, 0.002087112981826067, 0.05791877955198288, 0.0037361609283834696, -0.0018569447565823793, -0.006388495676219463, -0.028527000918984413, 0.06964397430419922, 0.0630943700671196, -0.04306399077177048, -0.08081445842981339, 0.018328001722693443, -0.07768257707357407, -0.0856131836771965, -0.04173929989337921, 0.06416657567024231, 0.011316642165184021, -0.0864877924323082, 0.00818654615432024, -0.0007955784676596522, 0.01234915480017662, -0.03817154839634895, -0.10006644576787949, 0.004376516677439213, 0.05937980115413666, -0.04229516163468361, -0.05623408406972885, 0.050188370048999786, 0.057186760008335114, 0.02447165548801422, -0.04751281440258026, -0.046260569244623184, -0.03860708698630333], [-0.05806102231144905, 0.02932768315076828, 0.026628663763403893, -0.0595804862678051, -0.008180233649909496, -0.006342599168419838, -0.08448982983827591, 0.02511674538254738, 0.07026206701993942, -0.12008952349424362, 0.047008126974105835, 0.05073128268122673, 0.06284648180007935, 0.07938408851623535, -0.01946907304227352, 0.060920555144548416, -0.07752161473035812, -0.018401911482214928, -0.06114519014954567, 0.10860911011695862, -0.08555972576141357, -0.09642548859119415, -0.09414264559745789, 0.010630837641656399, 0.05528493598103523, 0.10430499911308289, 0.02305954322218895, -0.0333961546421051, 0.048489660024642944, -0.05235821008682251, -0.0229437667876482, -0.0034036957658827305, 0.1279636174440384, -0.09957680851221085, 0.023422060534358025, 0.0729924887418747, -0.07677808403968811, 0.021942168474197388, 0.0808584913611412, 0.05054698884487152, 0.10811684280633926, -0.009628748521208763, -0.011052146553993225, -0.0532195083796978, -0.06760981678962708, -0.09947741776704788, 0.08263858407735825, -0.0009123181807808578, -0.09023334085941315, 0.008893131278455257, -0.04758080467581749, -0.0006222239462658763, -0.009531223215162754, -0.07272887229919434, -0.02192550338804722, 0.09669852256774902, -0.0180657971650362, -0.07800176739692688, -0.052321333438158035, -0.07394429296255112, -0.034836601465940475, -0.03353459760546684, 0.08760329335927963, -0.011767653748393059], [-0.08967450261116028, 0.034112315624952316, -0.018524231389164925, -0.09949138760566711, -0.05774001404643059, -0.011078600771725178, -0.08394192904233932, -0.083565354347229, -0.03143581748008728, -0.028562717139720917, 0.05370500311255455, -0.057295434176921844, -0.10554316639900208, -0.023895172402262688, 0.0581149086356163, -0.03044334053993225, -0.04417478293180466, -0.038042668253183365, -0.06652508676052094, 0.012256789952516556, 0.015086228959262371, -0.03213097155094147, 0.12293806672096252, -0.11449899524450302, -0.08921239525079727, 0.07110630720853806, 0.07513478398323059, 0.032619547098875046, -0.11931709945201874, 0.08360869437456131, -0.041888244450092316, 0.016210375353693962, -0.0016118641942739487, 0.03966117650270462, 0.03442271053791046, -0.02531328983604908, -0.00880182720720768, 0.011288503184914589, -0.004552678670734167, 0.06277619302272797, 0.002576749539002776, -0.0268674548715353, 0.014573887921869755, -0.03286847099661827, -0.06588263064622879, 0.020476313307881355, 0.03249909728765488, -0.030030962079763412, 0.06763561815023422, 0.05851343646645546, -0.08381816744804382, -0.0090019004419446, 0.09586747735738754, 0.0887618213891983, 0.07057114690542221, -0.031037362292408943, 0.050730057060718536, -0.05467010289430618, 0.05005505308508873, 0.021163148805499077, 0.07077377289533615, 0.05865553393959999, 0.006667487323284149, 0.014916322194039822], [-0.045513052493333817, -0.13475212454795837, 0.0429941825568676, 0.054162412881851196, -0.000206186028663069, -0.044949278235435486, -0.060008976608514786, 0.03260175511240959, 0.009114067070186138, -0.04310319945216179, -0.050890397280454636, -0.11004072427749634, -0.014147776179015636, -0.027280891314148903, 0.06691516935825348, 0.059881843626499176, -0.04456258565187454, 0.07545758038759232, -0.004445453640073538, -0.07734955847263336, 0.08501619845628738, -0.005578771699219942, -0.07117965817451477, 0.03779292851686478, 0.04298025742173195, -0.055245138704776764, -0.055071040987968445, 0.026832839474081993, 0.002074922202154994, 0.0018860745476558805, -0.017270997166633606, -0.0564962662756443, 0.019755516201257706, 0.06370675563812256, 0.005546002183109522, -0.03625528886914253, 0.05199703946709633, -0.07913343608379364, -0.0038720823358744383, 0.04295593500137329, -0.050290126353502274, 0.06428442150354385, 0.040152933448553085, -0.0812249407172203, 0.04790854454040527, 0.026857785880565643, 0.04839332774281502, 0.0021857323590666056, 0.08956316113471985, -0.0010824193013831973, 0.059955354779958725, 0.05866049975156784, 0.011225195601582527, 0.012756469659507275, 0.033381905406713486, -0.07116658240556717, -0.052960075438022614, -0.009722093120217323, -0.02531597949564457, -0.0685715302824974, 0.06942387670278549, -0.06312176585197449, -0.01682944968342781, -0.04144031181931496], [0.04033796116709709, 0.06192557141184807, 0.09126640856266022, 0.09158225357532501, 0.03704100474715233, 0.005649992730468512, 0.001939772511832416, 0.02666211873292923, 0.02339363284409046, 0.05191796272993088, -0.016117293387651443, -0.0034795773681253195, -0.0035063058603554964, 0.061411745846271515, 0.08157633990049362, 0.014565686695277691, 0.09172780066728592, -0.08007212728261948, -0.0912267193198204, 0.0496840700507164, 0.005541890859603882, 0.05064249411225319, 0.0481194406747818, -0.019123699516057968, 0.04211461916565895, -0.08896847069263458, -0.04814442619681358, 0.06345640867948532, 0.04631473124027252, -0.0018977770814672112, 0.11075203120708466, -0.07775726914405823, 0.07392618805170059, 0.04305803030729294, -0.08413869887590408, -0.06831741333007812, -0.07892663776874542, -0.06632553786039352, 0.07272589206695557, -0.032772716134786606, 0.05126200616359711, -0.07544281333684921, -0.04219957813620567, 0.05317751690745354, 0.054831456393003464, -0.06617406755685806, 0.10838184505701065, -0.08057212084531784, 0.017599740996956825, 0.07644587755203247, 0.03138375282287598, 0.07801013439893723, -0.07620503008365631, -0.01689239963889122, 0.030716683715581894, 0.0754736140370369, -0.056256864219903946, -0.0704553946852684, -0.04597631096839905, 0.07496394962072372, -0.08587047457695007, -0.0838368609547615, -0.011783278547227383, -0.08505695313215256], [0.010973968543112278, 0.04380713775753975, -0.04029679670929909, 0.10329628735780716, -0.03044159896671772, 0.017350422218441963, 0.04884788766503334, 0.027860049158334732, 0.029401713982224464, -0.08945224434137344, -0.03089778870344162, -0.014834059402346611, -0.014360496774315834, -0.08895907551050186, 0.01935902237892151, 0.0065345303155481815, -0.04366191476583481, -0.04621293768286705, -0.038465846329927444, 0.03811999037861824, -0.07585544139146805, -0.02135462686419487, -0.13558442890644073, 0.09334880113601685, -0.039167460054159164, 0.02062838152050972, 0.02854900248348713, -0.029120687395334244, -0.06381804496049881, 0.028296584263443947, 0.019985338672995567, -0.006743884179741144, 0.08625780791044235, 0.06486783176660538, 0.06692934781312943, 0.04824795573949814, 0.026906007900834084, -0.0037633113097399473, 0.006728257983922958, -0.0626143217086792, 0.01443194504827261, 0.008026646450161934, 0.054443396627902985, -0.022807665169239044, -0.051552336663007736, 0.0425797663629055, 0.11135140061378479, 0.06184962019324303, -0.04793592169880867, 0.017768358811736107, 0.06781413406133652, 0.06757520884275436, -0.06363179534673691, 0.029807191342115402, 0.020833861082792282, -0.08857370167970657, 0.0763612911105156, -0.0028692339546978474, -0.043121080845594406, -0.06962673366069794, 0.06058211997151375, -0.0838320329785347, -0.11286017298698425, -0.044978585094213486], [0.030019231140613556, -0.11554235965013504, 0.010196584276854992, 0.05671875551342964, 0.03195847198367119, 0.012887422926723957, 0.03106674924492836, -0.09485049545764923, -0.10458061844110489, -0.026506058871746063, -0.023617129772901535, 0.03523435443639755, 0.0978168249130249, 0.044466763734817505, 0.03972173109650612, -0.08706562966108322, -0.041951220482587814, 0.014669314958155155, -0.007824715226888657, 0.002499813912436366, 0.023048924282193184, 0.021680304780602455, -0.010526645928621292, 0.0852515920996666, 0.07631894201040268, 0.05188003554940224, 0.06375513225793839, -0.00500271562486887, -0.042771659791469574, -0.0022624379489570856, 0.05313694849610329, 0.003830226603895426, 0.0949491560459137, 0.10669200122356415, -0.008553760126233101, -0.0033946563489735126, -0.06177615001797676, -0.014744766056537628, 0.052672259509563446, -0.12865179777145386, 0.1350579857826233, 0.08279551565647125, -0.014309395104646683, -0.010018606670200825, 0.006803808268159628, -0.06033262982964516, -0.011323771439492702, -0.016163410618901253, 0.016189314424991608, 0.004719390533864498, -0.038064200431108475, -0.019616590812802315, 0.04239829629659653, -0.011729863472282887, -0.04713546112179756, -0.08741458505392075, -0.01015420164912939, 0.14972606301307678, 0.07535757124423981, 0.11163315922021866, -0.022380448877811432, 0.0014099517138674855, -0.0984688401222229, -0.009971204213798046], [0.10247180610895157, 0.03994377329945564, 0.09727256745100021, 0.02980996109545231, 0.05383512005209923, -0.09747820347547531, -0.06223584711551666, -0.13317161798477173, 0.02731102891266346, 0.046059802174568176, -0.037318482995033264, -0.02835724875330925, 0.15600033104419708, -0.11376307904720306, -0.12579791247844696, -0.0949239730834961, 0.10874594002962112, -0.00029226785409264266, 0.08723214268684387, -0.0690726563334465, 0.06712394207715988, 0.05941849201917648, -0.12417586892843246, 0.16590270400047302, 0.05448215454816818, -0.08607752621173859, -0.14948156476020813, 0.1007613092660904, -0.011422223411500454, -0.034127749502658844, -0.06295649707317352, 0.12271903455257416, 0.1369159072637558, 0.011151078157126904, 0.13776446878910065, 0.04268576204776764, -0.07869014889001846, -0.05336366966366768, 0.06257732957601547, -0.14484195411205292, -0.06317292898893356, -0.0630333423614502, 0.03969983384013176, 0.05199919641017914, -0.04949362203478813, -0.032915227115154266, 0.030100597068667412, -0.006304290611296892, -0.007764858193695545, 0.058588188141584396, 0.05601891875267029, -0.02759130671620369, -0.0722726359963417, 0.033896781504154205, 0.026113461703062057, 0.0013276338577270508, -0.049086011946201324, 0.056350864470005035, -0.06428850442171097, 0.024996234104037285, 0.030562980100512505, 0.06082676351070404, 0.017809569835662842, 0.07590441405773163], [-0.008546151220798492, 0.015778768807649612, 0.017746562138199806, -0.06230147182941437, 0.01746070571243763, 0.07091394811868668, 0.03542758524417877, 0.06907381117343903, 0.02666974812746048, -0.016228515654802322, 0.11196042597293854, 0.012352108024060726, -0.1245102658867836, 0.0725502297282219, 0.05397036671638489, 0.059462301433086395, -0.12810738384723663, -0.054028261452913284, 0.003970413003116846, 0.029685260728001595, -0.06871795654296875, 0.007406805641949177, 0.10341066122055054, -0.04212183505296707, 0.034403134137392044, 0.08602225035429001, 0.06298387795686722, -0.09665966778993607, 0.024946393445134163, 0.09393931180238724, 0.04625207185745239, -0.05070279538631439, -0.13348351418972015, -0.00858187023550272, 0.015793651342391968, 0.038748063147068024, -0.0012905881740152836, 0.028351916000247, 0.07292860001325607, -0.013369952328503132, -0.10016985982656479, -0.03793191909790039, 0.12403930723667145, -0.04618949443101883, -0.09636808931827545, -0.08027075231075287, 0.02971515990793705, 0.04695330187678337, 0.036526285111904144, 0.02034779265522957, -0.01921289786696434, -0.0054457359947264194, 0.08671913295984268, -0.09746764600276947, 0.014861512929201126, 0.10829941928386688, -0.11618431657552719, 0.05065813660621643, 0.07064533233642578, -0.05832010507583618, 0.08308607339859009, -0.05467846617102623, -0.004496845882385969, 0.030890140682458878], [0.05434199795126915, 0.028874792158603668, 0.06287797540426254, -0.029708892107009888, -0.08264386653900146, -0.016658779233694077, -0.030804339796304703, -0.06967093795537949, 0.0341293103992939, -0.004226347431540489, -0.06773040443658829, -0.05959805101156235, 0.05790331959724426, -0.02262161485850811, 0.015172804705798626, -0.09747131913900375, -0.0061383903957903385, 0.008453965187072754, -0.018772874027490616, 0.0309139396995306, -0.05032093822956085, 0.05448169633746147, -0.11999770253896713, -0.003420626511797309, -0.002382986480370164, 0.004957296885550022, -0.03717781603336334, 0.06581870466470718, 0.06769031286239624, -0.11055101454257965, -0.0781949982047081, 0.026526570320129395, 0.0846281349658966, 0.06778471171855927, 0.0708773285150528, 0.03808612748980522, -0.020935051143169403, -0.06844978779554367, 0.00437469407916069, -0.03094564378261566, -0.044411756098270416, 0.02613028697669506, 0.04409072548151016, -0.015868136659264565, 0.03204444795846939, 0.07061708718538284, 0.15133868157863617, -0.03719053044915199, 0.06335867196321487, -0.057351451367139816, 0.019956661388278008, -0.0719699040055275, -0.039285626262426376, -0.10475998371839523, -0.06692949682474136, 0.020002519711852074, -0.006206572987139225, 0.07424254715442657, 0.03326764702796936, -0.04346587136387825, 0.023793121799826622, 0.034520696848630905, -0.053557608276605606, 0.005616535432636738], [-0.02071511000394821, 0.005844146013259888, 0.003332572290673852, -0.08510427922010422, 0.04696604609489441, -0.017405657097697258, -0.05245068296790123, 0.09538620710372925, 0.0363357737660408, -0.020961346104741096, -0.08788395673036575, -0.018701540306210518, -0.03706342354416847, -0.05028880387544632, -0.008188284933567047, 0.04302693530917168, 0.07036492973566055, -0.058109965175390244, 0.00624567735940218, -0.06626249104738235, -0.008370145224034786, 0.005719884764403105, -0.013786501251161098, -0.031424082815647125, 0.03803655877709389, -0.04493148252367973, -0.036555223166942596, 0.017991406843066216, 0.05025554448366165, 0.04236884042620659, 0.052876681089401245, -0.05103527382016182, 0.029829904437065125, -0.014290465973317623, -0.06169133260846138, 0.019130706787109375, 0.0536993108689785, 0.008294044993817806, 0.03944384306669235, 0.013330791145563126, 0.06103857234120369, -0.09457556903362274, 0.007098711561411619, 0.06583013385534286, -0.06839855015277863, 0.052892640233039856, -0.030440064147114754, 0.029625743627548218, 0.05922561138868332, 0.0053183152340352535, 0.03282393515110016, 0.09185908734798431, -0.07757294178009033, -0.03916167840361595, 0.06713414937257767, 0.08921477198600769, -3.2133222703123465e-05, 0.0783415213227272, 0.01655096560716629, -0.06326594203710556, 0.020278774201869965, 0.03909781575202942, -0.049427978694438934, 0.0525849424302578], [-0.0026493920013308525, 0.04291862994432449, 0.03966403007507324, 0.05512163043022156, 0.007545650005340576, 0.007429515011608601, -0.009821043349802494, -0.019284991547465324, 0.03204011172056198, -0.020698191598057747, -0.03920881822705269, -0.0065300920978188515, 0.04744545370340347, 0.04183647409081459, 0.03192655369639397, 0.06967788934707642, 0.04242699593305588, 0.04592011123895645, 0.026932306587696075, -0.05790695920586586, -0.0042375726625323296, -0.02752261608839035, 0.04115873947739601, -0.09258583188056946, 0.040339481085538864, -0.05059505254030228, 0.07322967052459717, -0.02543753758072853, 0.007511030416935682, 0.02271559089422226, -0.032313812524080276, -0.01684563420712948, 0.0751177966594696, -0.0009320208919234574, -0.001127029536291957, 0.03956330195069313, 0.06372883915901184, 0.044762689620256424, -0.04811510071158409, 0.059693511575460434, -0.050627000629901886, 0.08437831699848175, -0.036934107542037964, 0.05268052965402603, 0.0548812635242939, 0.05093841254711151, -0.08621684461832047, 0.022879624739289284, 0.06814821809530258, 0.042274653911590576, -0.01970873959362507, 0.05403115600347519, -0.0004451134300325066, -0.036084745079278946, -0.0051592024974524975, 0.02574300393462181, 0.01782253012061119, 0.04842759296298027, -0.017604349181056023, -0.07445155084133148, -0.042442094534635544, -0.07216735929250717, 0.04339424520730972, 0.011266729794442654], [-0.0028858082368969917, -0.07741493731737137, -0.04659831151366234, -0.05522344633936882, -0.0017324414802715182, -0.08622559159994125, 0.029444504529237747, -0.10896638035774231, -0.078193299472332, -0.08100446313619614, -0.06213655322790146, -0.05162757262587547, 0.019724490121006966, -0.049128975719213486, 0.07487115263938904, 0.011394329369068146, 0.057894933968782425, -0.09506994485855103, -0.06689514219760895, 0.06816655397415161, -0.08008784055709839, -0.05872407555580139, -0.09541510790586472, 0.13291385769844055, 0.02066751942038536, 0.035382431000471115, 0.025436000898480415, 0.10376772284507751, 0.07471253722906113, -0.07066009938716888, -0.036110054701566696, -0.020015830174088478, 0.12114783376455307, 0.04253281280398369, 0.06476352363824844, -0.0544639527797699, 0.07254353910684586, -0.13052445650100708, 0.06909027695655823, -0.11488992720842361, 0.13566461205482483, -0.06955055147409439, -0.11648984253406525, 0.004682618193328381, -0.051442231982946396, 0.0507943369448185, 0.12108104676008224, 0.018073266372084618, 0.0830969512462616, -0.057550761848688126, -0.0004601495456881821, -0.027141449972987175, 0.0329599604010582, 0.055852171033620834, -0.05364598333835602, -0.07837977260351181, 0.08639168739318848, -0.023855287581682205, -0.06397750973701477, 0.05747193470597267, -0.03381423279643059, -0.08352819085121155, -0.1438164860010147, -0.08447238057851791], [0.016013480722904205, 0.009684099815785885, -0.08063755929470062, 0.03017357736825943, 0.05681955814361572, -0.05358666554093361, -0.04025448113679886, -0.09883712232112885, 0.006506906822323799, -0.09144210070371628, 0.03421761468052864, -0.0332561731338501, 0.08342736214399338, 0.03602004796266556, -0.055089619010686874, 0.026919469237327576, 0.07306894659996033, -0.05683911591768265, 0.008326118811964989, 0.002621669555082917, 0.03946089372038841, -0.023628655821084976, 0.0055681262165308, 0.02175583317875862, 0.07317521423101425, -0.05832745134830475, -0.006350508891046047, -0.022644301876425743, -0.08905280381441116, -0.04725725203752518, -0.005178340245038271, 0.039743222296237946, -0.0071816835552453995, -0.022857515141367912, 0.04304463043808937, 0.026628106832504272, -0.016745157539844513, 0.04040830582380295, -0.07615067064762115, -0.07007484883069992, 0.03852987661957741, 0.052075207233428955, -0.06068115308880806, -0.11142772436141968, -0.017003392800688744, -0.04500396549701691, -0.08270985633134842, -0.06455829739570618, -0.05125631392002106, -0.033927515149116516, 0.022346319630742073, -0.0788852721452713, -0.11057644337415695, -0.029345747083425522, 0.03473708778619766, -0.04119914770126343, 0.02131042815744877, 0.009113839827477932, 0.03483622893691063, 0.060330700129270554, -0.05850966274738312, -0.09186477959156036, 0.03427673876285553, 0.08588230609893799], [0.022419707849621773, -0.08888301253318787, 0.09153861552476883, -0.03774682804942131, -0.016102086752653122, 0.0616004504263401, 0.012895804829895496, 0.06121782958507538, -0.10585030168294907, -0.08115512877702713, -0.13704313337802887, -0.03913768008351326, 0.027717113494873047, -0.0313728041946888, -0.07873433083295822, 0.04511946812272072, -0.11300834268331528, 0.07869825512170792, -0.08321947604417801, -0.057424094527959824, -0.017269184812903404, 0.06304572522640228, -0.01323122251778841, 0.013340318575501442, -0.06515121459960938, 0.0780918076634407, 0.02707301266491413, 0.0613667257130146, 0.005812737625092268, -0.11706642061471939, -0.10079993307590485, -0.05857910215854645, 0.14302144944667816, -0.035989101976156235, 0.037311162799596786, -0.007499761879444122, 0.03878019377589226, -0.05358517915010452, -0.013203466311097145, -0.031096352264285088, 0.013992574997246265, 0.02561008930206299, -0.053863655775785446, 0.0483117438852787, 0.02953147515654564, 0.108489029109478, 0.08938823640346527, 0.051596201956272125, 0.053161706775426865, 0.035162635147571564, 0.1516876518726349, -0.09437434375286102, -0.06339104473590851, -0.005293693393468857, -0.07608266919851303, -0.0006231803563423455, -0.07282954454421997, -0.0039057633839547634, -0.08211815357208252, -0.044514164328575134, -0.0031333197839558125, -0.037392158061265945, -0.026557577773928642, -0.06472348421812057], [-0.005524971056729555, 0.00032822444336488843, -0.04455744847655296, 0.062140341848134995, 0.10116210579872131, 0.033113427460193634, -0.08711441606283188, -0.07130138576030731, 0.022565146908164024, -0.11618771404027939, 0.08328748494386673, 0.045002155005931854, 0.047173622995615005, 0.04671860486268997, -0.052654437720775604, -0.11768873035907745, 0.05095312371850014, -0.003974620718508959, 0.03162258863449097, 0.04573499411344528, 0.01352822594344616, 0.003736871760338545, -0.08696192502975464, 0.08637896180152893, -0.07390420883893967, 0.06485854834318161, -0.09029178321361542, -0.07221362739801407, 0.04393855482339859, -0.007163995876908302, -0.04035224765539169, 0.10518795996904373, 0.046415600925683975, 0.017221858724951744, -0.04641832783818245, -0.02858774922788143, -0.05970960110425949, 0.05336675047874451, -0.056598495692014694, 0.02860628254711628, 0.03910505026578903, 0.034233205020427704, 0.13777293264865875, 0.012620041146874428, -0.0977284237742424, 0.024907410144805908, 0.10101243853569031, -0.028777075931429863, -0.10399337857961655, -0.0021361347753554583, 0.011047827079892159, 0.059623658657073975, -0.014841730706393719, 0.10061904788017273, 0.009168434888124466, -0.04814491793513298, 0.03361101821064949, 0.10341987013816833, 0.006715575698763132, -0.028983917087316513, 0.051898837089538574, -0.09201154857873917, 0.05876537412405014, 0.06092188507318497], [-0.014302506111562252, 0.09054794907569885, -0.09334000200033188, -0.04465853050351143, -0.005738867912441492, -0.05369602143764496, 0.030004026368260384, 0.040887054055929184, -0.00854670349508524, 0.039817094802856445, -0.015932496637105942, -0.06462884694337845, 0.04404686018824577, 0.04843618720769882, 0.0878867357969284, -0.04104987531900406, -0.02760368399322033, 0.00859608594328165, -0.03894209489226341, -0.05287998914718628, 0.019975369796156883, 0.02404811978340149, 0.11816777288913727, -0.013807084411382675, -0.05363853648304939, 0.11308854073286057, -0.0665750578045845, 0.03860875219106674, -0.0861210897564888, 0.002076314063742757, 0.014088975265622139, -0.10304129868745804, 0.08700421452522278, -0.060498129576444626, -0.11114910989999771, -0.029082568362355232, 0.011882397346198559, -0.08420272916555405, -0.12856417894363403, 0.0008151551010087132, -0.0669957846403122, -0.10244189202785492, 0.07560413330793381, 0.012906399555504322, -0.08284531533718109, -0.02727673202753067, -0.045622456818819046, -0.0333014540374279, -0.09322995692491531, 0.00783438142389059, 0.07677394151687622, -0.068296879529953, -0.07954602688550949, -0.07759873569011688, 0.00523169944062829, 0.13375018537044525, 0.03817398101091385, -0.09821882843971252, 0.06625929474830627, -0.060417693108320236, 0.02819896675646305, -0.05043156072497368, 0.05814937874674797, 0.08529389649629593], [-0.046718779951334, 0.10472032427787781, -0.0774339884519577, -0.07149673253297806, -0.015368694439530373, -0.06158190593123436, -0.036274198442697525, -0.08283235877752304, 0.03614393249154091, -0.06774567067623138, -0.055743105709552765, -0.03658178076148033, -0.0003204352397006005, 0.06016743928194046, -0.006019681226462126, 0.07930000871419907, 0.02440831810235977, 0.09350493550300598, 0.01989029534161091, -0.024060022085905075, -0.00970008410513401, -0.03781065344810486, 0.10959566384553909, -0.09847621619701385, -0.057612765580415726, -0.0706615075469017, 0.019703464582562447, -0.02454741671681404, 0.04162954166531563, 0.08168498426675797, 0.06844841688871384, 0.0911654531955719, 0.026635251939296722, -0.0865250900387764, -0.01366454642266035, 0.016393929719924927, -0.09178722649812698, -0.06899318844079971, -0.06918659061193466, -0.017685145139694214, -0.0056388224475085735, -0.007863535545766354, -0.03712015971541405, 0.07524994760751724, -0.00020563130965456367, -0.02078094519674778, -0.061972204595804214, -0.025357022881507874, 0.04167723283171654, 0.04656817018985748, -0.08137411624193192, -0.06505458801984787, 0.08442679792642593, 0.12087657302618027, 0.01349975448101759, 0.06275410205125809, 0.04667819291353226, -0.031454168260097504, -0.007324260659515858, 0.031914930790662766, -0.01931614615023136, -0.019053881987929344, 0.0759296864271164, -0.07149825245141983], [0.03231450915336609, -0.09102931618690491, 0.026934077963232994, -0.07099304348230362, -0.12093007564544678, -0.02089129202067852, 0.055740971118211746, -0.03309045359492302, 0.06775083392858505, -0.0931972935795784, -0.042078647762537, 0.008940225467085838, -0.01991494745016098, -0.07924587279558182, 0.0023253238759934902, 0.00880745891481638, -0.03713865578174591, 0.06639255583286285, -0.0951058566570282, 0.02871723286807537, -0.08654340356588364, 0.07706333696842194, 0.041542887687683105, 0.09741466492414474, 0.12998083233833313, 0.0003316305228509009, -0.12598316371440887, -0.02968946099281311, 0.08940497785806656, -0.09864277392625809, 0.028563842177391052, 0.07471814751625061, 0.03929756209254265, -0.07334250211715698, 0.04863579943776131, 0.08758240193128586, 0.04068148508667946, -0.11395334452390671, 0.01720961183309555, -0.08459311723709106, -0.0823032408952713, 0.024333562701940536, -0.03558821976184845, 0.06765542179346085, 0.07966988533735275, -0.06494005024433136, 0.06446857005357742, 0.06343144923448563, -0.027375027537345886, -0.11526735126972198, 0.14205418527126312, -0.08016941696405411, 0.03506128117442131, 0.007468288764357567, -0.09444522112607956, -0.04271969944238663, 0.12370393425226212, -0.007667099125683308, 0.04386785998940468, -0.09665294736623764, 0.06729795038700104, -0.014564106240868568, -0.0425124354660511, -0.021714873611927032], [0.027216874063014984, -0.014874407090246677, 0.02352260798215866, 0.0792672261595726, -0.04879319295287132, -0.042236294597387314, 0.07492277026176453, -0.07669489085674286, 0.008102763444185257, 0.05433648079633713, 0.011059503071010113, -0.025187157094478607, 0.007424690295010805, 0.021153002977371216, 0.058843374252319336, -0.015502968803048134, -0.011409234255552292, -0.01062415074557066, -0.012935549952089787, 0.02872280962765217, -0.029352881014347076, -0.057225167751312256, -0.0767810270190239, 0.03296171501278877, 0.039664097130298615, -0.051397647708654404, -0.010334637947380543, 0.005195460747927427, -0.02231203392148018, -0.07643662393093109, -0.04164750501513481, 0.07620521634817123, 0.03574977070093155, 0.07504422217607498, -0.017306188121438026, 0.015850873664021492, -0.05763907730579376, -0.06840915232896805, 0.05720606818795204, -0.09439609944820404, -0.026753855869174004, 0.08769376575946808, -0.0896240696310997, 0.03202034533023834, -0.01891471818089485, 0.014165998436510563, 0.05636882036924362, -0.022967271506786346, -0.044942207634449005, -0.07682803273200989, 0.05290700122714043, 0.013388367369771004, -0.07395204156637192, -0.043971799314022064, -0.01221678126603365, -0.06086140125989914, -0.027919137850403786, 0.0002761097566690296, -0.07679565250873566, -0.11601776629686356, 0.036630380898714066, 0.08513965457677841, 0.034742455929517746, -0.02998599410057068], [0.02590350992977619, 0.12388671934604645, 0.07646273821592331, -0.08824018388986588, 0.1281854659318924, -0.029277177527546883, -0.05297356843948364, -0.04604651778936386, -0.018075140193104744, 0.05558222532272339, 0.13915492594242096, -0.05373220145702362, -0.10947154462337494, 0.14707452058792114, 0.0006789978360757232, 0.05933712050318718, 0.01991710439324379, -0.10730640590190887, -0.059498053044080734, -0.052483804523944855, -0.02293434366583824, -0.14672906696796417, -0.10299190133810043, -0.11846955865621567, -0.09617407619953156, 0.15125872194766998, -0.07040122896432877, 0.07399886101484299, 0.029878966510295868, 0.1352594643831253, 0.13955983519554138, 0.005385039374232292, -0.028987359255552292, -0.007096745539456606, -0.1282060295343399, 0.11962468177080154, 0.06617631018161774, 0.09141375869512558, 0.10192587971687317, 0.1138845682144165, 0.08847805112600327, 0.11611394584178925, 0.0010109845316037536, 0.1262391060590744, -0.058473557233810425, -0.07257093489170074, -0.023644795641303062, 0.07737258076667786, -0.021276384592056274, -0.02722114697098732, -0.04610178619623184, 0.13320809602737427, -0.023639729246497154, -0.07137130200862885, 0.0017530315089970827, 0.01941165141761303, -0.006698429584503174, -0.1214350238442421, -0.04231227934360504, -0.11619164794683456, 0.07416535913944244, 0.09445614367723465, 0.1433870941400528, -0.01729714311659336], [0.11758998781442642, -0.07335707545280457, 0.03751662001013756, 0.04085546359419823, -0.11964660882949829, -0.09830956906080246, 0.11130581796169281, 0.06596743315458298, -0.09781308472156525, -0.04393807053565979, -0.032358501106500626, -0.057809360325336456, -0.04866132512688637, -0.04923023283481598, -0.02954205684363842, -0.07320930808782578, -0.005857335869222879, 0.05651649087667465, -0.067782461643219, -0.04506922885775566, 0.03526769578456879, -0.04544506222009659, 0.08168388903141022, 0.07208383828401566, 0.026820793747901917, 0.06494428217411041, 0.02474256046116352, -0.05392582714557648, -0.057672303169965744, -0.13623617589473724, 0.020615534856915474, 0.08014404773712158, 0.14173945784568787, 0.10710418224334717, 0.012436455115675926, -0.08598139137029648, -0.0970340445637703, -0.045682527124881744, 0.09892826527357101, -0.050025735050439835, 0.11678481847047806, 0.01965334638953209, 0.013430017046630383, -0.0549778938293457, 0.09416044503450394, 0.055694837123155594, -0.0023590042255818844, 0.08196195214986801, -0.00645698606967926, 0.06758951395750046, 0.023032553493976593, -0.0285132247954607, -0.05458452180027962, 0.08952668309211731, 0.040250420570373535, -0.021054886281490326, -0.0684390440583229, 0.1467639058828354, -0.06615012139081955, -0.03793711215257645, -0.07366029173135757, 0.012794414535164833, 0.053607046604156494, 0.05671438202261925], [0.07747197151184082, 0.024915656074881554, 0.021133333444595337, -0.02248118631541729, -0.05741078779101372, 0.04396256059408188, 0.0814342200756073, -0.0034589990973472595, -0.06445734947919846, -0.08401184529066086, -0.030522512272000313, 0.007072590757161379, -0.07262930274009705, 0.07117625325918198, -0.03059248998761177, -0.06569735705852509, 0.0073533132672309875, -0.055302657186985016, -0.008863748051226139, -0.07028160989284515, -0.024584457278251648, -0.03642960265278816, -0.003470342606306076, -0.03267080709338188, 0.0013454044237732887, 0.03033209592103958, 0.1078559160232544, -0.04647422209382057, -0.029124120250344276, -0.01739383488893509, -0.030989622697234154, -0.04359931871294975, -0.004402712918817997, 0.08388721942901611, -0.0418047197163105, -0.01374281570315361, -0.08650390058755875, 0.1049712523818016, -0.004964589606970549, -0.033874012529850006, -0.0598357729613781, -0.04114273563027382, -0.018465973436832428, 0.07909069210290909, 0.08529223501682281, 0.0061596455052495, 0.02863446995615959, -0.02919015847146511, -0.014919399283826351, -0.06591671705245972, -0.05941913276910782, 0.05245673283934593, 0.02030644752085209, 0.08802194148302078, -0.04337533563375473, -0.009130513295531273, -0.06645474582910538, -0.09569784998893738, 0.02809181995689869, -0.030528275296092033, -0.03843330219388008, 0.04432261735200882, 0.051921773701906204, -0.07987198978662491], [0.030161261558532715, -0.14206217229366302, 0.0676506906747818, 0.01568220928311348, -0.016383517533540726, -0.018688881769776344, 0.05095631256699562, 0.019862448796629906, 0.018595881760120392, -0.008489958010613918, 0.058198899030685425, -0.05175919458270073, 0.05505060404539108, -0.10089696198701859, -0.004752319771796465, -0.03809395432472229, 0.0607527457177639, 0.004886175971478224, 0.07184987515211105, 0.003895568661391735, 0.05036929249763489, 0.08569459617137909, -0.07078994065523148, 0.11337538808584213, 0.055483050644397736, -0.009317887015640736, 0.015708310529589653, -0.011944569647312164, 0.06015603244304657, -0.01330638863146305, -0.0856703594326973, -0.05259990319609642, -0.014470936730504036, 0.06909845769405365, 0.09865186363458633, -0.05932117626070976, -0.028762998059391975, 0.006054803729057312, -0.05192314460873604, 0.03412647917866707, 0.0722336545586586, 0.008849075995385647, -0.09942001104354858, -0.021431859582662582, 0.021015319973230362, 0.028037292882800102, 0.06387681514024734, -0.023112447932362556, 0.011417059227824211, -0.02027490921318531, 0.10995911806821823, 0.0374000184237957, 0.013685192912817001, 0.013562966138124466, 0.03731928765773773, -0.09069722145795822, 0.035157736390829086, 0.06125757843255997, -0.01612478867173195, -0.04277157038450241, -0.016619613394141197, -0.05032101273536682, -0.07314546406269073, 0.013909854926168919], [-0.07055234163999557, 0.08106351643800735, 0.022205758839845657, -0.1364588886499405, -0.003745633875951171, 0.0224059596657753, -0.08998051285743713, 0.13614711165428162, 0.02634713053703308, -0.06375203281641006, 0.04847297817468643, -0.01999145932495594, -0.03081985004246235, 0.12463272362947464, -0.01613910123705864, -0.07523077726364136, 0.07476459443569183, 0.019333716481924057, -0.052480533719062805, -0.10381539165973663, -0.07900182902812958, 0.03309911489486694, -0.052699651569128036, -0.01404434535652399, -0.03255228325724602, 0.09484326839447021, -0.03907248377799988, 0.023219671100378036, 0.007549336180090904, -0.024120505899190903, -0.043510060757398605, -0.018069211393594742, -0.04901706054806709, 0.05877281725406647, 0.07600844651460648, -0.06315585970878601, 0.015908466652035713, 0.032588470727205276, 0.03624018281698227, 0.032395120710134506, -0.07121854275465012, 0.12651926279067993, -0.06652941554784775, -0.032238032668828964, -0.0005171657539904118, 0.04808109253644943, -0.11476882547140121, 0.0022019653115421534, 0.013777695596218109, 0.10947173088788986, 0.024927761405706406, -0.041539959609508514, -0.03862409666180611, -0.09319843351840973, -0.1135447546839714, -0.0381501279771328, 0.07687850296497345, 0.016859684139490128, -0.08846220374107361, 0.10322845727205276, 0.03615991771221161, 0.11460573971271515, 0.12334831804037094, 0.1031327024102211], [0.05368099361658096, 0.028636718168854713, -0.040852345526218414, -0.010203828103840351, 0.10014823824167252, 0.06754092127084732, -0.07521335035562515, -0.05389155074954033, -0.07756511867046356, -0.011259912513196468, 0.12521079182624817, 0.0741407573223114, -0.009451382793486118, -0.05632255598902702, 0.035681597888469696, -0.08273055404424667, -0.11451642960309982, 0.05421620234847069, 0.07472064346075058, 0.0549805648624897, -0.07903452217578888, -0.1037108451128006, -0.10825558751821518, -0.03564145416021347, -0.035366374999284744, 0.08011234551668167, -0.019218726083636284, -0.01583241857588291, -0.08033797144889832, 0.020907973870635033, -0.061871062964200974, -0.025447893887758255, -0.10084381699562073, 0.0006055468693375587, 0.022696204483509064, 0.09055913984775543, -0.0046796901151537895, -0.08774001896381378, -0.050450120121240616, 0.0723760575056076, -0.0644499808549881, -0.09023243933916092, 0.04847235977649689, -0.020778685808181763, -0.10063564032316208, -0.13147439062595367, -0.12687250971794128, -0.09613212943077087, -0.09767241030931473, 0.032481834292411804, 0.0442262627184391, 0.06903788447380066, -0.09713204950094223, -0.05022049695253372, 0.010618629865348339, 0.09246662259101868, 0.05221732333302498, -0.07308898866176605, -0.030712278559803963, 0.05876050516963005, -0.05481439456343651, 0.08801156282424927, -0.01919170469045639, -0.03230016306042671], [0.060357023030519485, 0.1305982768535614, -0.014485012739896774, -0.008652130141854286, -0.03908158093690872, -0.03159831464290619, 0.026532573625445366, 0.09051447361707687, 0.04893036559224129, -0.11435838043689728, -0.05811940133571625, 0.06441297382116318, -0.01877511665225029, -0.046276457607746124, -0.03498850390315056, -0.05300832912325859, -0.002079557627439499, -0.076878622174263, -0.05414552241563797, 0.0017956322990357876, 0.0575268492102623, 0.040900953114032745, 0.02672739326953888, -0.004970756825059652, 0.03164014220237732, 0.06198091432452202, -0.013808345422148705, -0.07622667402029037, 0.058202166110277176, -0.05513504520058632, -0.0363750122487545, -0.049384232610464096, -0.12197815626859665, -0.07160036265850067, 0.04034856706857681, 0.01627560704946518, -0.08046679943799973, -0.045634739100933075, -0.09582002460956573, 0.023722108453512192, -0.038092900067567825, -0.09271079301834106, 0.06918158382177353, 0.02029859833419323, -0.006639755330979824, 0.03696349635720253, 0.010003040544688702, -0.02922528237104416, -0.08019275218248367, -0.012692534364759922, -0.08024170249700546, -0.0468895323574543, -0.033804092556238174, -0.07434876263141632, -0.058929990977048874, -0.011991430073976517, -0.021828707307577133, -0.09727052599191666, -0.005653956439346075, -0.020626958459615707, 0.007916480302810669, -0.02689356915652752, -0.015621955506503582, 0.03467950597405434], [-0.010347867384552956, -0.050439510494470596, 0.00401528412476182, -0.059406593441963196, -0.010354655794799328, 0.05402439460158348, -0.017562348395586014, -0.06503810733556747, 0.03629793971776962, -0.06047305092215538, 0.01737302355468273, 0.008799063973128796, 0.026837823912501335, -0.00606547761708498, 0.046251870691776276, 0.0016880324110388756, -0.06251634657382965, -0.07814975827932358, 0.016470445320010185, 0.004574772901833057, 0.0004451120621524751, -0.004244953393936157, -0.02623819187283516, 0.015900423750281334, 0.0403863862156868, 0.002704798709601164, -0.04274047911167145, -0.0030261268839240074, 0.005919608287513256, 0.07727639377117157, 0.023393597453832626, -0.022168664261698723, -0.0766616016626358, 0.00995942484587431, -0.023047031834721565, -0.036733392626047134, -0.06930205225944519, 0.08667293936014175, -0.014115242287516594, -0.001795102609321475, 0.028603333979845047, 0.02201325260102749, 0.050815656781196594, 0.06596539914608002, -0.05924610793590546, -0.027830304577946663, -0.11327379941940308, -0.009527967311441898, 0.029872745275497437, 0.006486068479716778, -0.05334040895104408, 0.06385442614555359, -0.07226110249757767, 0.0654318556189537, 0.028335027396678925, -0.040439821779727936, 0.06133635714650154, 0.052527643740177155, -0.05665118247270584, -0.043802328407764435, -0.04044979065656662, 0.02252723090350628, -0.07835947722196579, -0.032592929899692535], [0.036880604922771454, 0.05476517230272293, -0.002009776420891285, 0.03145552799105644, 0.03702355548739433, 0.0328383669257164, 0.015501182526350021, 0.06728621572256088, 0.06659428030252457, 0.048709969967603683, 0.011374303139746189, -0.007568049244582653, 0.04601017013192177, 0.030263466760516167, -0.041731517761945724, 0.03765458986163139, -0.09989610314369202, 0.06584924459457397, -0.02071470394730568, -0.004464386031031609, -0.03071458265185356, -0.06421595066785812, 0.02835392765700817, -0.06604866683483124, -0.057357825338840485, 0.039233867079019547, 0.0378914549946785, -0.01888089068233967, -0.06553511321544647, 0.050640687346458435, -0.07039671391248703, 0.004822179675102234, -0.1161704957485199, -0.08355958014726639, -0.060841772705316544, 0.035978276282548904, -0.021885240450501442, 0.08608224242925644, 0.08171898126602173, 0.005581670440733433, -0.029829520732164383, 0.0034612941090017557, 0.061228327453136444, -0.06444735080003738, 0.0873652771115303, -0.034857653081417084, -0.050976622849702835, 0.05867862328886986, 0.02024996094405651, 0.023619581013917923, -0.06883924454450607, -0.04982233792543411, 0.032131657004356384, 0.015522436238825321, -0.03736824169754982, -0.042821213603019714, 0.08162549883127213, 0.033537548035383224, -0.027427690103650093, 0.02210186794400215, 0.010196249932050705, -0.05296187847852707, -0.040282562375068665, -0.00545418681576848], [-0.03589339181780815, 0.07299867272377014, -0.05333864688873291, 0.03876221552491188, -0.01544231828302145, -0.03268231078982353, 0.0021618101745843887, -0.06290784478187561, 0.037334613502025604, 0.12069287896156311, 0.011144696734845638, 0.10892880707979202, 0.02439107932150364, -0.0044500320218503475, 0.05892665311694145, -0.07223471999168396, -0.05828142911195755, 0.03448406606912613, 0.12898512184619904, 0.06284496933221817, 0.0018920297734439373, 0.06227925047278404, -0.03704087436199188, 0.1496094912290573, 0.13054776191711426, 0.01536823995411396, -0.005187005735933781, 0.08683371543884277, -0.07238776236772537, 0.07228872179985046, 0.02591339312493801, 0.041880711913108826, 0.10059764236211777, 0.02144467830657959, 0.030874190852046013, -0.0874633640050888, -0.023674312978982925, 0.08805379271507263, 0.128053680062294, -0.01048059482127428, 0.0934504047036171, -0.0986141487956047, 0.05021250620484352, -0.11092907190322876, -0.04664063826203346, 0.0991121158003807, 0.04319103807210922, -0.08166112750768661, 0.008466092869639397, -0.07629452645778656, -0.01950647123157978, 0.03384330868721008, -0.08072908967733383, 0.012775145471096039, 0.030608581379055977, -0.021948695182800293, 0.10677362978458405, -0.054976701736450195, -0.08419136703014374, 0.0781417265534401, -0.08054954558610916, 0.0953141376376152, -0.007705406751483679, 0.08799375593662262], [-0.06509637087583542, -0.06038499251008034, -0.03277863934636116, -0.12318506091833115, 0.044670332223176956, 0.011684710159897804, 0.04270700365304947, 0.08741184324026108, 0.052865102887153625, 0.04147174581885338, 0.10227487981319427, -0.016283079981803894, -0.07674840837717056, 0.005706551484763622, 0.15592804551124573, 0.10886990278959274, -0.1271483153104782, -0.019451117143034935, 0.007918504066765308, 0.09677145630121231, -0.0071251471526920795, 0.03106939233839512, 0.04031788557767868, -0.052456483244895935, -0.09796830266714096, 0.05653322860598564, 0.09978560358285904, -0.08112480491399765, -0.07420273870229721, 0.14523397386074066, 0.04381220415234566, -0.07484228909015656, -0.06465186178684235, 0.010751360096037388, 0.06731843948364258, 0.10737541317939758, -0.082964688539505, -0.018794896081089973, 0.08105477690696716, 0.024955324828624725, -0.05217265710234642, 0.006054005119949579, -0.041800569742918015, 0.03647453710436821, 0.07588663697242737, 0.06954467296600342, 0.08518586307764053, -0.11367294937372208, -0.042135585099458694, 0.09800883382558823, -0.13452385365962982, 0.03044624999165535, 0.11069957166910172, -0.09404846280813217, 0.03440837562084198, 0.13278114795684814, -0.08956170827150345, 0.0015060479054227471, -0.031011663377285004, -0.006669621914625168, 0.10087622702121735, -0.023423416540026665, -0.0031840456649661064, -0.08366747200489044], [-0.028371231630444527, -0.07712148874998093, -0.04761180654168129, -0.11055327206850052, -0.021899059414863586, -0.03443831950426102, 0.026209836825728416, -0.06587319076061249, 0.015654325485229492, -0.0010673955548554659, 0.059632040560245514, -0.009748246520757675, 0.07609151303768158, 0.03180042281746864, 0.07516258209943771, -0.06075326353311539, -0.07627513259649277, 0.006498615723103285, -0.029207400977611542, 0.015227521769702435, -0.05401292070746422, -0.0010434562573209405, -0.0311414934694767, -0.031278401613235474, 0.0020816668402403593, -0.05032490938901901, 0.048736147582530975, 0.04338403046131134, -0.08709803968667984, -0.000563120236620307, 0.04781392589211464, -0.09521780908107758, 0.07615762203931808, -0.020064745098352432, -0.058686304837465286, 0.0193169005215168, -0.03158682584762573, -0.06477773934602737, 0.01990816928446293, -0.02074742130935192, -0.058281365782022476, 0.08723390102386475, -0.0661553367972374, 0.07374992221593857, -0.05151505395770073, -0.028848925605416298, -0.10648113489151001, -0.060475803911685944, 0.04001086950302124, 0.035340260714292526, 0.014515848830342293, 0.045322492718696594, 0.0012172183487564325, 0.000259736436419189, -0.059783924371004105, 0.011604217812418938, 0.02583066001534462, -0.015310903079807758, -0.08024491369724274, 0.02873072773218155, 0.07449518144130707, -0.06080705672502518, 0.03683817759156227, 0.06861981749534607], [0.05003967881202698, 0.10462217032909393, -0.03713342547416687, 0.038384705781936646, -0.07106470316648483, 0.04397699236869812, 0.020481854677200317, 0.12409592419862747, 0.02049294114112854, 0.02686271443963051, -0.07308591902256012, 0.0050406260415911674, 0.056514497846364975, 0.08817243576049805, -0.060421496629714966, 0.00044734805123880506, -0.062231652438640594, -0.10141363739967346, -0.0793728232383728, 0.009701069444417953, -0.06423108279705048, -0.018298257142305374, -0.08868961781263351, -0.007373873144388199, -0.0689711794257164, -0.030144862830638885, 0.013412865810096264, 0.003666689619421959, 0.015118359588086605, -0.0050115641206502914, 0.04565483704209328, 0.06759244203567505, 0.003989101853221655, 0.045448608696460724, 0.06357426196336746, -0.0888412594795227, -0.06113574281334877, 0.05103818327188492, -0.03970804437994957, 0.10901666432619095, 0.04937611147761345, -0.03940599784255028, -0.0021522582974284887, -0.0998542308807373, 0.10445529967546463, -0.06373371183872223, -0.10546820610761642, -0.06042676791548729, 0.06990590691566467, 0.042946893721818924, -0.00954044982790947, 0.01932407170534134, -0.06368661671876907, 0.06582909822463989, 0.020174318924546242, 0.029020177200436592, -0.04492029547691345, -0.07336236536502838, 0.008073803968727589, 0.008835394866764545, -0.008816016837954521, 0.11052148789167404, 0.047384489327669144, 0.02609076164662838], [-0.033582184463739395, -0.006788818631321192, 0.06158686429262161, 0.0027477750554680824, 0.00805373303592205, 0.06475873291492462, 0.025684881955385208, 0.04609799012541771, 0.011406906880438328, 0.06709132343530655, -0.16840095818042755, 0.10674697160720825, 0.13138093054294586, -0.12196313589811325, 0.07843117415904999, -0.12568479776382446, 0.0351412408053875, 0.10237440466880798, -0.08928471803665161, -0.10621488839387894, -0.02408558502793312, 0.07007960975170135, -0.12403810024261475, 0.03772306069731712, 0.0002976393443532288, 0.08689548820257187, -0.01825776882469654, 0.044059813022613525, -0.03859425708651543, -0.11065161228179932, -0.11767348647117615, 0.08337514102458954, 0.031213603913784027, 0.05381258949637413, -0.020918333902955055, 0.035702817142009735, -0.06365598738193512, -0.009341414086520672, 0.06876832246780396, -0.10878721624612808, -0.01974322646856308, -0.02918269671499729, -0.12391699850559235, 0.047005895525217056, 0.04115423187613487, 0.1209578588604927, 0.021097663789987564, 0.06358201801776886, 0.15115612745285034, 0.035655561834573746, 0.006545413285493851, 0.020550129935145378, -0.07151374220848083, 0.08375782519578934, 0.10254524648189545, -0.09291230887174606, 0.15291127562522888, 0.07523743063211441, -0.05783556401729584, -0.05061511695384979, -0.016139907762408257, 0.08385850489139557, -0.18616628646850586, 0.08263187110424042], [-0.08227123320102692, 0.09541366249322891, -0.07936876267194748, -0.03056585043668747, 0.02714897133409977, 0.05046093463897705, -0.03374558314681053, 0.05789942294359207, 0.04951339587569237, -0.048937615007162094, 0.01987726055085659, 0.04671747609972954, 0.09135804325342178, -0.039136409759521484, -0.002710175234824419, 0.017372218891978264, 0.06644299626350403, -0.06728414446115494, 0.10790230333805084, 0.08613432198762894, -0.013922040350735188, 0.04620014503598213, 0.06045284867286682, 0.030534692108631134, -0.0170732531696558, -0.04967249184846878, 0.059890758246183395, -0.021534498780965805, -0.11141521483659744, 0.02021387405693531, 0.006780823227018118, -0.02938626892864704, 0.09364405274391174, 0.0037824753671884537, 0.02277442254126072, -0.06686386466026306, -0.0007099167560227215, 0.13331638276576996, -0.0722653940320015, 0.10887735337018967, -0.019477536901831627, 0.09291116893291473, -0.12454670667648315, 0.08146481215953827, -0.023272279649972916, 0.08942320942878723, 0.004030717071145773, -0.07828299701213837, -0.07099384069442749, 0.036655306816101074, 0.022812718525528908, -0.07801076024770737, -0.036975789815187454, 0.08126167207956314, 0.09549736976623535, 0.04671325907111168, 0.06568024307489395, 0.05543795973062515, -0.05604875832796097, 0.08331704139709473, -0.022980138659477234, -0.08096794039011002, -0.07948222756385803, 0.054898764938116074], [0.017348453402519226, 0.017743786796927452, 0.0830211341381073, -0.0448165126144886, -0.1138257384300232, -0.03234362602233887, 0.1190117597579956, -0.13077771663665771, -0.05103182792663574, -0.04495314881205559, 0.011877818964421749, -0.073415108025074, -0.027004322037100792, -0.04006551206111908, 0.07981930673122406, -0.010913140140473843, -0.057168710976839066, 0.10529711097478867, 0.027427103370428085, -0.09453364461660385, -0.058680806308984756, -0.01438911259174347, -0.061532627791166306, -0.07156962156295776, -0.054383207112550735, 0.06288105249404907, -0.04881048575043678, -0.010002384893596172, 0.11423343420028687, 0.022725313901901245, 0.023468101397156715, 0.01716030202805996, -0.034369632601737976, 0.1432483047246933, 0.06385640799999237, 0.00215210672467947, 0.05621777102351189, -0.07722332328557968, 0.09559419751167297, -0.045472677797079086, -0.03327452391386032, 0.06596653908491135, -0.14897866547107697, 0.023228228092193604, -0.09343960881233215, 0.04779040068387985, 0.09428286552429199, 0.060691993683576584, 0.09740922600030899, -0.1265997290611267, 0.008407880552113056, 0.012463631108403206, -0.07840999215841293, 0.003629501210525632, -0.06875956058502197, 0.015174830332398415, 0.12136998027563095, 0.1113160252571106, 0.04409747198224068, 0.012956123799085617, -0.09258116036653519, 0.03649759292602539, -0.09106810390949249, 0.018419982865452766], [-0.008236986584961414, -0.061910104006528854, -0.027111364528536797, 0.03970808535814285, -0.07039360702037811, -0.04235796630382538, 0.0872410461306572, -0.005535890348255634, 0.01727266237139702, -0.06112077832221985, -0.12685632705688477, -0.03206886351108551, 0.09725960344076157, 0.03849554806947708, -0.02344415709376335, -0.034894347190856934, 0.07845219224691391, 0.10539422184228897, 0.087314672768116, 0.051970940083265305, -0.05718740075826645, -0.004039233084768057, -0.14137084782123566, 0.13751956820487976, 0.09929028153419495, -0.10544363409280777, -0.005175957456231117, 0.002156814094632864, 0.060333311557769775, -0.09446573257446289, -0.12818466126918793, 0.10178008675575256, 0.14799310266971588, 0.01765807531774044, 0.013706798665225506, 0.05442739278078079, 0.09045173972845078, -0.03993895277380943, 0.092109814286232, -0.11435030400753021, 0.03446291759610176, 0.03313194215297699, -0.10285323113203049, -0.0001821982441470027, -0.1203639954328537, 0.1288023144006729, -0.04135793074965477, -0.011956109665334225, -0.04015437886118889, -0.00675202626734972, 0.0012686009285971522, -0.07891779392957687, -0.10369336605072021, -0.0967501774430275, 0.08522503823041916, -0.12261689454317093, 0.006093345582485199, 0.056735120713710785, 0.011491123586893082, -0.10733204334974289, -0.11437541246414185, -0.011931237764656544, -0.16416536271572113, -0.0777941346168518], [-0.018491830676794052, 0.06911811977624893, 0.0156314205378294, 0.036878377199172974, -0.006480707321316004, -0.08636566996574402, -0.0012407124741002917, 0.02259788103401661, 0.021323613822460175, 0.06796059012413025, 0.03891118988394737, -0.002504190895706415, 0.047605156898498535, 0.02193306013941765, -0.058107536286115646, 0.005763847380876541, 0.027058947831392288, -0.01603589579463005, -0.03522048145532608, -0.07795882970094681, -0.00018700941291172057, -0.07941535115242004, -0.03169375658035278, -0.0441814623773098, 0.06871966272592545, -0.097938671708107, 0.02698611468076706, -0.022094886749982834, -0.02496596984565258, 0.07236111909151077, 0.002266164869070053, -0.015701234340667725, 0.06653786450624466, 0.01635994017124176, -0.04501856863498688, -0.002705326536670327, -0.03248041123151779, 0.016238274052739143, -0.005151939112693071, -0.013381683267652988, -0.03167582303285599, -0.01214637327939272, 0.10200651735067368, 0.08245021849870682, -0.06428931653499603, 0.03808673098683357, 0.07403106242418289, -0.011374283581972122, -0.05855342000722885, 0.042180683463811874, -0.0010090720606967807, 0.020764591172337532, -0.01499596331268549, -0.03974857181310654, 0.033494360744953156, -0.06655334681272507, -0.013254714198410511, 0.08874311298131943, -0.04193028807640076, 0.010941160842776299, -0.016285531222820282, 0.050522420555353165, 0.10243905335664749, -0.05401742830872536], [-0.09432513266801834, -0.10430227220058441, -0.123545341193676, 0.05487123876810074, 0.0281801950186491, 0.060223523527383804, 0.07008756697177887, -0.10281610488891602, 0.0953870564699173, 0.02158220112323761, 0.004854549653828144, -0.08744825422763824, -0.05821056291460991, 0.011441615410149097, -0.005556461866945028, 0.0140384491533041, 0.12715494632720947, -0.11310843378305435, -0.1010141596198082, -0.0703793615102768, 0.05974239856004715, 0.029805419966578484, -0.07811162620782852, 0.0039933654479682446, -0.09174159169197083, -0.038612041622400284, 0.04684801027178764, -0.05584954097867012, -0.09329794347286224, 0.1332494020462036, 0.014721747487783432, -0.10749493539333344, -0.05277680605649948, -0.13098224997520447, -0.030337072908878326, -0.013515666127204895, -0.07845450192689896, -0.06097358837723732, -0.07567889243364334, -0.058300215750932693, -0.017827685922384262, -0.049148011952638626, 0.1636665314435959, -0.04805474728345871, 0.03806106373667717, 0.04910595342516899, -0.03567620366811752, -0.08456237614154816, -0.016924383118748665, -0.028575483709573746, 0.00163123884703964, 0.04432019963860512, 0.0977434441447258, -0.11025210469961166, 0.003964035306125879, 0.02435780130326748, 0.06554913520812988, 0.001593906432390213, 0.10249784588813782, -0.13116443157196045, -0.06541562080383301, 0.07614561915397644, 0.10079512745141983, 0.02098141796886921], [0.04923545941710472, 0.09535034745931625, 0.02507750503718853, -0.08247362077236176, -0.08141202479600906, -0.04395429417490959, -0.02112037129700184, 0.030434133484959602, -0.023464351892471313, -0.005124438554048538, 0.003987925127148628, -0.0013073799200356007, 0.030425548553466797, 0.048117902129888535, 0.07631585001945496, -0.062107354402542114, 0.031009171158075333, 0.05385059118270874, 0.07263127714395523, -0.05515356734395027, 0.02869443967938423, 0.06668909639120102, 0.11534164845943451, -0.06797914952039719, -0.023183057084679604, 0.0014419211074709892, 0.0027081905864179134, 0.0024628036189824343, -0.09378881752490997, 0.01523803174495697, 0.025823358446359634, 0.00034166566911153495, 0.07067817449569702, 0.08822660148143768, 0.03716389462351799, -0.05898526683449745, -0.027408506721258163, 0.013727488927543163, 0.01008558552712202, 0.01585962437093258, 0.03712606057524681, 0.07759711891412735, -0.05773163586854935, -0.0447380356490612, 0.08649203926324844, 0.004639264661818743, -0.022371146827936172, -0.06198237091302872, -0.047123901546001434, 0.07934527099132538, 0.009954177774488926, 0.040197208523750305, 0.05580826476216316, -0.05576496943831444, -0.08699207007884979, 0.018015986308455467, 0.07205075025558472, -0.03997015208005905, -0.017804011702537537, -0.05238741636276245, 0.029090946540236473, 0.06151088699698448, -0.010195677168667316, 0.05984186753630638], [-0.08226955682039261, 0.018204446882009506, 0.0010910501005128026, 0.0012832821812480688, 0.024978822097182274, 0.06261174380779266, -0.010548148304224014, -0.06323683261871338, -0.05898420512676239, -0.12609735131263733, -0.0019194455817341805, 0.010637705214321613, 0.045673493295907974, 0.05026654526591301, -0.12067762017250061, -0.09737398475408554, 0.08595458418130875, 0.041933491826057434, -0.07888710498809814, 0.011180405505001545, 0.02113696187734604, 0.031940314918756485, -0.13248097896575928, -0.060187533497810364, -0.017730819061398506, -0.00039127812488004565, -0.014595817774534225, -0.02178095653653145, -0.06541799753904343, 0.03585762530565262, 0.001640060916543007, 0.0331687293946743, -0.025525270029902458, -0.0556475929915905, 0.04014505073428154, 0.04358029365539551, -0.08746375888586044, -0.054656658321619034, -0.0045097218826413155, 0.004905674606561661, 0.011784196831285954, -0.01600571908056736, -0.01362690795212984, 0.022699888795614243, 0.024826593697071075, -0.027283160015940666, 0.09060928225517273, 0.0019252973143011332, -0.034974489361047745, 0.04128166288137436, 0.0038192258216440678, 0.08547504991292953, -0.09627750515937805, 0.052332229912281036, -0.07673513889312744, 0.07455848902463913, 0.07976952195167542, -0.05408380553126335, -0.07340612262487411, -0.10254039615392685, 0.07311835885047913, -0.0677100121974945, 0.04826095327734947, 0.003938534762710333], [-0.022828539833426476, 0.04832780733704567, 0.02759295143187046, 0.060583800077438354, 0.009263534098863602, -0.014613539911806583, 0.0022101132199168205, 0.003531127003952861, 0.006728719919919968, 0.03593628108501434, -0.05603323504328728, 0.0554104745388031, -0.042797405272722244, -0.03841251879930496, -0.0820176899433136, -0.07129563391208649, -0.0731404572725296, -0.06809849292039871, 0.03529135882854462, -0.03872555121779442, -0.025921782478690147, -0.042738646268844604, -0.03937365487217903, 0.008368433453142643, 0.05800434947013855, -0.043156955391168594, -0.1096336767077446, 0.019352203235030174, 0.01619095169007778, -0.026053080335259438, -0.03138893097639084, 0.055360596626996994, -0.006412561517208815, 0.09438002854585648, 0.053604625165462494, 0.033517949283123016, 0.04364786297082901, 0.011572343297302723, -0.010882911272346973, -0.034608833491802216, -0.03608384728431702, -0.04614808410406113, -0.036997340619564056, 0.02298039197921753, 0.0007961208466440439, -0.014137179590761662, 0.05454830825328827, 0.01786547154188156, 0.008639254607260227, -0.07319463789463043, 0.11485569924116135, 0.04834071919322014, -0.050359711050987244, -0.0894683226943016, -0.06573031097650528, 0.023182913661003113, 0.09706927835941315, 0.008989762514829636, 0.0076184822246432304, 0.07487832009792328, -0.020102180540561676, 0.0728384479880333, -0.07364696264266968, 0.039187632501125336], [-0.0144434729591012, -0.017310211434960365, -0.028325293213129044, -0.07103456556797028, -0.08416152000427246, 0.10209313780069351, 0.08447077125310898, 0.09804954379796982, -0.03558174520730972, -0.010781063698232174, 0.11198176443576813, -0.025831742212176323, -0.03388258069753647, 0.022726936265826225, 0.018787823617458344, -0.12338197231292725, 0.07608719170093536, 0.03378448262810707, -0.06541451066732407, 0.036855850368738174, 0.09727251529693604, 0.05669550225138664, -0.08459929376840591, -0.11818590015172958, 0.04877352714538574, 0.07493730634450912, -0.026463478803634644, 0.02000630460679531, -0.07818242162466049, -0.03884685039520264, 0.045807674527168274, -0.013012319803237915, -0.06118759140372276, -0.010378400795161724, -0.0009536890429444611, -0.04525922238826752, -0.10278652608394623, 0.028066102415323257, 0.04171637073159218, 0.11270934343338013, -0.05270754173398018, -0.0799596905708313, 0.09457089006900787, -0.027419835329055786, 0.014117090031504631, 0.09001162648200989, 0.07750976085662842, -0.04359107464551926, -0.1349453628063202, 0.011593405157327652, 0.0566963255405426, 0.03323085606098175, 0.09312675893306732, 0.07066303491592407, 0.09722123295068741, 0.1246994286775589, -0.04940585047006607, 0.061265889555215836, 0.07493239641189575, -0.13668514788150787, 0.10666988790035248, -0.03341669961810112, -0.01311198715120554, 0.06453059613704681], [0.02956032194197178, -0.0301212090998888, -0.050708819180727005, 0.016150783747434616, 0.08153054863214493, -0.04618978127837181, 0.02541710063815117, 0.030302785336971283, 0.006104787811636925, -0.04582992196083069, 0.07315129041671753, 0.049807120114564896, -0.01929333433508873, -0.013695862144231796, -0.02096824161708355, 0.002893216675147414, -0.05494822934269905, -0.07045017182826996, -0.02348032221198082, 0.004105609375983477, -0.03974620997905731, 0.03313727304339409, 0.06708338856697083, -0.07625830918550491, 0.02019711583852768, -0.0160661693662405, 0.10377907752990723, 0.00851165596395731, -0.09804461151361465, 0.06753815710544586, 0.048863980919122696, -0.05571472644805908, -0.14112970232963562, -0.0745760127902031, 0.016004452481865883, -0.0506468191742897, -0.046014949679374695, 0.04154212772846222, -0.06977866590023041, -0.05868731811642647, -0.013121417723596096, 0.0704738050699234, 0.03278070688247681, -0.010149375535547733, 0.045509230345487595, 0.002389358589425683, -0.007184488698840141, -0.07571379095315933, -0.035929303616285324, -0.0909632071852684, -0.054697781801223755, -0.03377069905400276, 0.03030276857316494, 0.020296726375818253, -0.04493599385023117, -0.03496270254254341, -0.04006816819310188, -0.12208432704210281, 0.02815902605652809, 0.11136774718761444, 0.041292790323495865, 0.006888171192258596, -0.058175668120384216, 0.06163908168673515], [0.09820745140314102, -0.11191685497760773, 0.09596719592809677, 0.09471692889928818, 0.004155698698014021, -0.10038810968399048, -0.08696542680263519, -0.07397963851690292, -0.05029258877038956, 0.048124514520168304, -0.08321461826562881, 0.09714273363351822, 0.010785271413624287, -0.011064132675528526, -0.06413380801677704, 0.005202116444706917, -0.10486921668052673, 0.06355336308479309, 0.034473635256290436, 1.4241884855437092e-05, 0.10036136955022812, 0.14130403101444244, -0.1238839253783226, 0.0315031036734581, 0.0904841423034668, 0.08351103961467743, -0.021156614646315575, 0.06602931767702103, 0.013830099254846573, 0.0882112979888916, -0.06128139793872833, -0.045398179441690445, 0.08323138952255249, -0.04219707101583481, 0.012496499344706535, -0.04601166024804115, -0.020574158057570457, -0.018353832885622978, -0.11101377755403519, -0.001581843476742506, -0.024832161143422127, 0.11718906462192535, 0.0017205489566549659, -0.017814308404922485, 0.013729277066886425, 0.10068988800048828, -0.009362101554870605, 0.019412213936448097, 0.09005925804376602, -0.11183103919029236, -0.00948359351605177, -0.09536314010620117, -0.08603721112012863, 0.1078881323337555, 0.11255578696727753, -0.0563725084066391, 0.11091908812522888, -0.05438363179564476, -0.05251884460449219, -0.027427783235907555, 0.033359967172145844, 0.0746537446975708, -0.05493687465786934, -0.02881196141242981], [0.07933799177408218, -0.16686326265335083, 0.0764106959104538, 0.03658110648393631, 0.04111646115779877, 0.0925605371594429, 0.057229749858379364, -0.10591845959424973, 0.011167949996888638, 0.11038459837436676, -0.040982846170663834, 0.1091519147157669, -0.06578101217746735, 0.020989693701267242, -0.08792420476675034, -0.030391983687877655, 0.054359614849090576, -0.05635162070393562, 0.07140960544347763, 0.0070984275080263615, 0.031671516597270966, 0.08415047079324722, -0.11080572754144669, -0.04766383022069931, 0.03618400916457176, -0.09357894957065582, -0.057505980134010315, -0.020230405032634735, 0.026832913979887962, 0.08852410316467285, -0.13701699674129486, 0.12762561440467834, -0.008320918306708336, -0.01124516036361456, -0.08943308889865875, 0.00020550824410747737, -0.09183647483587265, -0.056918270885944366, -0.07680722326040268, -0.04522709921002388, -0.09546605497598648, -0.06498870253562927, -0.11619570851325989, 0.06546969711780548, -0.02013646997511387, 0.11132197082042694, -0.001615655841305852, 0.011088804341852665, 0.16193810105323792, -0.1042184829711914, 0.1386464238166809, -0.1402059942483902, -0.057869650423526764, 0.023359520360827446, 0.05312087759375572, -0.09870128333568573, 0.09269712120294571, -0.06697242707014084, -0.03429046645760536, -0.10257106274366379, -0.09960497915744781, -0.03252953290939331, -0.1512104570865631, -0.057346079498529434], [-0.022534947842359543, -0.15220242738723755, 0.04721595719456673, 0.030804241076111794, -0.04671277478337288, -0.055562105029821396, -0.008604893460869789, -0.01993878185749054, -0.027095992118120193, -0.01444391068071127, 0.042242251336574554, 0.03754603490233421, 0.08784876018762589, -0.07777879387140274, -0.04640137776732445, 0.0016987352864816785, 0.03325941786170006, 0.08559174090623856, 0.05000712350010872, -0.06749050319194794, -0.031647179275751114, -0.08705376088619232, -0.0921480804681778, -0.1159387081861496, -0.03563465178012848, -0.0059378743171691895, -0.04897367209196091, -0.057925473898649216, 0.0805860087275505, -0.09074963629245758, -0.028943436220288277, -0.01986205205321312, 0.14230118691921234, -0.012803967110812664, 0.03305419906973839, 0.03192954510450363, 0.056025613099336624, 0.03316126763820648, -0.07923121005296707, 0.04136792942881584, 0.06522739678621292, 0.013183525763452053, 0.009912369772791862, 0.05646895617246628, -0.09730232506990433, -0.019094811752438545, -0.07208774238824844, 0.06430193036794662, -0.05777144804596901, 0.054434821009635925, 0.04918767884373665, 0.007940211333334446, 0.046396564692258835, -0.04207490757107735, -0.02114848978817463, 0.05229811742901802, -0.04784379526972771, -0.06306959688663483, 0.088593490421772, -0.08150667697191238, -0.047552935779094696, -0.02991260215640068, -0.04434068128466606, 0.08703058958053589], [-0.05494657903909683, -0.027096441015601158, -0.017887026071548462, -0.01533542387187481, -0.06063432618975639, 0.01941373199224472, 0.009631500579416752, 0.05502720922231674, -0.013096615672111511, -0.017550304532051086, -0.03952471911907196, -0.02434537746012211, -0.028746578842401505, 0.07432539761066437, 0.03848670423030853, -0.049766819924116135, 0.05022231116890907, -0.0863598883152008, -0.06885101646184921, -0.003963963128626347, 0.04173116758465767, -0.012574548833072186, 0.02674182690680027, 0.0015033503295853734, -0.0481710359454155, 0.01856102980673313, 0.06794317811727524, 0.0010943381348624825, 0.07192227244377136, 0.06361102312803268, -0.03330936282873154, -0.0650678426027298, 0.03441604971885681, -0.032088227570056915, 0.002095963340252638, 0.02681940421462059, -0.01176503486931324, 0.13083037734031677, 0.02764030732214451, -0.00157555949408561, -0.03970779851078987, -0.050917986780405045, 0.04206807166337967, 0.019793229177594185, -0.020471692085266113, -0.010579850524663925, 0.062240783125162125, 0.03612777963280678, 0.0528782419860363, -0.02038068324327469, 0.009184777736663818, 0.015169796533882618, 0.039983976632356644, -0.030863001942634583, -0.002355423988774419, -0.058706823736429214, 0.06551819294691086, -0.06580294668674469, 0.049655731767416, 0.1117367371916771, -0.02559986338019371, 0.03320349007844925, -0.11781363934278488, -0.03773736208677292], [-0.062353555113077164, 0.03997965157032013, -0.0416986308991909, -0.06522044539451599, 0.03186236321926117, -0.03092331625521183, 0.03015594743192196, 0.07834754884243011, -0.03185359761118889, -0.04223758727312088, 0.05360369756817818, 0.055273350328207016, 0.05316615104675293, 0.01844153180718422, 0.04070929065346718, -0.01882982812821865, 0.06297728419303894, -0.05387227237224579, 0.041946638375520706, -0.049078263342380524, -0.013121441937983036, -0.02892589010298252, -0.007812779396772385, -0.07180352509021759, 0.0017718152375891805, 0.018663622438907623, -0.033143386244773865, -0.028404060751199722, 0.036822862923145294, 0.022930031642317772, 0.016922950744628906, 0.03758993372321129, -0.05682767182588577, -0.006562019232660532, 0.03798740729689598, 0.01755954697728157, -0.04632769525051117, -0.005462489556521177, -0.13102449476718903, 0.03223032504320145, -0.046030230820178986, -0.0801384299993515, -0.062428414821624756, 0.07318134605884552, 0.073201984167099, -0.11062856763601303, -0.023351648822426796, -0.05155971273779869, 0.046550750732421875, 0.05635505169630051, -0.1363176852464676, -0.0013787479838356376, 0.11264558881521225, -0.018794076517224312, 0.0957014262676239, -0.01912609115242958, -0.13324803113937378, -0.057924430817365646, 0.03183235600590706, 0.017987536266446114, -0.047489650547504425, -0.03872518613934517, 0.004051109775900841, -0.037604328244924545], [-0.0807683914899826, 0.04184023663401604, -0.08674244582653046, 0.017885392531752586, 0.020881135016679764, -0.01604076661169529, -0.06966299563646317, 0.06600786745548248, 0.11160746961832047, 0.10386944562196732, -0.01187384407967329, -0.08492058515548706, -0.06519551575183868, 0.020948262885212898, -0.027204172685742378, -0.061191126704216, -0.050998277962207794, 0.06753260642290115, 0.07445037364959717, -0.07580255717039108, 0.004998660646378994, 0.07649961113929749, -0.045744799077510834, -0.13357296586036682, -0.04736555367708206, -0.0882817804813385, 0.06235197186470032, -0.10889555513858795, 0.07229180634021759, 0.12433602660894394, -0.003874520305544138, -0.06661420315504074, -0.14082355797290802, 0.06030452623963356, 0.060788121074438095, 0.11288495361804962, -0.10900060087442398, -0.03596784546971321, -0.00900328066200018, 0.015287085436284542, -0.05000532791018486, -0.08379660546779633, 0.12860098481178284, -0.04733339324593544, -0.07545167207717896, -0.07703723758459091, 0.032182417809963226, 0.08000089973211288, 0.02872207947075367, 0.0009471311932429671, -0.10575585812330246, -0.0442546047270298, 0.13210304081439972, 0.03908838704228401, -0.026822756975889206, 0.04330306872725487, -0.0428466759622097, -0.13624019920825958, 0.028587866574525833, -0.052564267069101334, 0.012825391255319118, 0.0587770938873291, 0.14188949763774872, -0.045811742544174194], [-0.046055201441049576, -0.06872835010290146, 0.01630110666155815, -0.06461858004331589, 0.000818585220258683, -0.020559081807732582, -0.04490002989768982, -0.03633759543299675, 0.03769935294985771, -0.004353663884103298, 0.02492227964103222, 0.02983066253364086, -0.0707893967628479, 0.03751620277762413, 0.003776462282985449, 0.04972453415393829, -0.03287532180547714, 0.06648997962474823, 0.014026351273059845, 0.04877200722694397, -0.03187365457415581, -0.042701996862888336, -0.030263740569353104, 0.012231594882905483, 0.04924082010984421, 0.047640636563301086, -0.08054101467132568, -0.03784247115254402, -0.07939425855875015, -0.029411468654870987, -0.013293293304741383, -0.09654945135116577, 0.06978873908519745, -0.006111911963671446, 0.052960414439439774, 0.05949920788407326, 0.08211676776409149, 0.09420016407966614, -0.023541508242487907, 0.03158107399940491, 0.07652818411588669, 0.008795268833637238, 0.02050466276705265, -0.07623790949583054, 0.03874186426401138, 0.05421597883105278, 0.01879008300602436, -0.031874362379312515, -0.060236893594264984, 0.018194086849689484, 0.06309143453836441, 0.046451982110738754, 0.049934398382902145, 0.05714526027441025, -0.04302605241537094, 0.01236612256616354, -0.05658327415585518, -0.011503980495035648, -0.10817170143127441, 0.049685604870319366, 0.03141007944941521, -0.02208974026143551, -0.06307148188352585, -0.006292904727160931], [-0.033572740852832794, 0.10609710961580276, -0.07230384647846222, -0.04637857899069786, -0.04593665897846222, 0.10604497045278549, 0.058856770396232605, -0.04296199977397919, -0.010288280434906483, -0.04910559952259064, 0.08956845104694366, -0.04243401437997818, -0.11469893902540207, 0.05072200670838356, 0.0731656402349472, -0.0648217424750328, -0.059887513518333435, 0.03191358968615532, -0.029848359525203705, -0.012183114886283875, -0.00998965185135603, -0.046189382672309875, 0.036562394350767136, -0.021905621513724327, -0.08793304115533829, 0.07882478833198547, -0.0021200382616370916, 0.012122883461415768, 0.12993459403514862, -0.10913122445344925, 0.011912042275071144, -0.034148942679166794, -0.049755923449993134, -0.006967642344534397, 0.023194624111056328, -0.030305959284305573, -0.09766240417957306, 0.05217995122075081, -0.060915056616067886, 0.03140291944146156, 0.02030733972787857, 0.037877704948186874, 0.03683029115200043, 0.07146141678094864, -0.05843214690685272, 0.06718269735574722, 0.06874438375234604, -0.0732426568865776, -0.008283569477498531, -0.0350518636405468, -0.11717508733272552, 0.07778186351060867, 0.09155060350894928, 0.008649235591292381, -0.09375076740980148, 0.01736867055296898, -0.050299473106861115, 0.07820295542478561, 0.03411004692316055, 0.029804246500134468, 0.07421660423278809, -0.005798145662993193, 0.0205197986215353, 0.02941066399216652], [-0.03998136520385742, 0.03346505016088486, 0.03306954726576805, -0.006115221418440342, 0.03640886768698692, 0.05901552364230156, 0.035261984914541245, 0.0366075299680233, 0.002556844847276807, -0.025742987170815468, -0.02112635038793087, -0.0021265260875225067, 0.03551789000630379, 0.008916071616113186, 0.052739836275577545, -0.050105735659599304, -0.06571368873119354, 0.002508473116904497, 0.0032384395599365234, -0.02347003109753132, 0.010389924049377441, -0.00555570749565959, 0.0710490494966507, -0.028795510530471802, -0.03618830814957619, -0.058258090168237686, 0.07482947409152985, -0.07871633023023605, -0.020096847787499428, 0.04641237109899521, 0.02756306156516075, -0.02512168325483799, 0.0034344391897320747, -0.017148343846201897, -0.049567949026823044, 0.0410400815308094, -0.012088282033801079, -0.061242155730724335, 0.05141971632838249, -0.0298947561532259, -0.04533366113901138, 0.010340597480535507, 0.02588227391242981, 0.07784070819616318, -0.051433298736810684, -0.022182896733283997, -0.01269848458468914, 0.0070548225194215775, 0.022407501935958862, 0.011040633544325829, 0.028706422075629234, 0.017103571444749832, 0.004047106485813856, 0.049995291978120804, -0.019127989187836647, 0.0034380238503217697, 0.053425755351781845, 0.03920680657029152, -0.023986997082829475, -0.08004400879144669, -0.0389002226293087, -0.013524110428988934, 0.09573482722043991, 0.06919097900390625], [0.06748321652412415, -0.04472988098859787, 0.013636700809001923, 0.0787004753947258, 0.05146531015634537, 0.017435528337955475, -0.025817783549427986, -0.040322043001651764, 0.03802281990647316, -0.07874144613742828, -0.037836555391550064, 0.0746966078877449, -0.053647130727767944, -0.06437679380178452, -0.11126267910003662, -0.045259829610586166, 0.1011619120836258, -0.02340775355696678, -0.03310266137123108, -0.0595829114317894, 0.07583334296941757, 0.005555076990276575, 0.03495079278945923, -0.01871403120458126, -0.0077477809973061085, -0.030039329081773758, -0.03852187842130661, -0.03371163457632065, 0.05898352712392807, -0.02998879924416542, -0.07340487837791443, 0.08820205181837082, 0.007479592226445675, -0.06572971493005753, -0.060767073184251785, -0.06840573996305466, 0.06462300568819046, -0.08423256129026413, 0.022461554035544395, -0.05087666213512421, 0.06751105934381485, -0.10760762542486191, -0.09263750165700912, -0.07247953116893768, 0.010905600152909756, -0.004690148867666721, 0.15168370306491852, 0.03823428228497505, 0.022668490186333656, 0.01779797486960888, 0.060275427997112274, 0.05079048499464989, 0.010161289945244789, -0.02256777696311474, 0.023697486147284508, 0.04558172449469566, -0.030177688226103783, -0.02432135120034218, 0.031744033098220825, -0.11395834386348724, -0.025770064443349838, -0.04471845179796219, -0.054255012422800064, -0.07097069919109344], [-0.029447229579091072, -0.02410929650068283, -0.059989020228385925, -0.10734464973211288, 0.017389483749866486, -0.04289821907877922, 0.08477670699357986, 0.008651506155729294, 0.025291185826063156, 0.024535078555345535, -0.007003661710768938, 0.07814783602952957, -0.06918676197528839, 0.06646773219108582, 0.11047745496034622, 0.06823485344648361, 0.056935906410217285, 0.0452829971909523, 0.03228680416941643, -0.030314048752188683, 0.06837411224842072, 