{"hyperparams": {}, "state_dict": {"rnn.weight_ih_l0": [[-0.10946889221668243, -0.027938662096858025, 0.10258660465478897, -0.05724143236875534, -0.04612480476498604, -0.030033625662326813, 0.08099319040775299, 0.10522069036960602, -0.10323121398687363], [0.0685102641582489, -0.022151844576001167, -0.08208135515451431, -0.0316871739923954, -0.036592669785022736, 0.05910665914416313, 0.002453065477311611, 0.043692417442798615, 0.008812922984361649], [0.07986985146999359, 0.02708064578473568, 0.07907850295305252, -0.04516556113958359, 0.052339207381010056, -0.0032594026997685432, -0.0675765797495842, -0.09594444185495377, 0.05128558352589607], [-0.054885637015104294, 0.0075134048238396645, 0.05069848150014877, -0.04016666114330292, -0.06271173804998398, 0.05816429853439331, -0.13099031150341034, 0.09098903834819794, -0.05506720021367073], [0.026008496060967445, -0.08267316967248917, 0.007411837112158537, -0.0553012453019619, 0.09969227761030197, -0.08837344497442245, -0.01908642239868641, -0.019618641585111618, 0.08735339343547821], [-0.0851248949766159, 0.03011358715593815, 0.09481088817119598, 0.04033414274454117, 0.08357825130224228, -0.055297255516052246, -0.06991193443536758, -0.05916394293308258, 0.0413176529109478], [-0.04869499057531357, -0.04577424004673958, 0.02588636800646782, 0.004758016671985388, -0.022309452295303345, -0.001991245662793517, -0.05422017723321915, 0.014511249959468842, 0.012454689480364323], [0.02640509605407715, 0.014759395271539688, -0.09126660972833633, -0.06118190661072731, -0.027640536427497864, 0.039036285132169724, -0.0853889063000679, 0.12094345688819885, -0.042490020394325256], [-0.08460520207881927, 0.009486939758062363, 0.009299631230533123, 0.04012206569314003, 0.13831759989261627, -0.11530572921037674, 0.04807278886437416, 0.08464108407497406, -0.13656753301620483], [0.026431400328874588, -0.11214692145586014, -0.1043718233704567, 0.0004994267364963889, 0.02216288261115551, 0.05161686986684799, 0.058877378702163696, 0.041883498430252075, 0.09564629197120667], [-0.054903656244277954, -0.020925160497426987, 0.0568275973200798, 0.0655343309044838, -0.02847537025809288, -0.03246563673019409, -0.00018494199321139604, 0.06113210320472717, -0.0007496664766222239], [0.09316793829202652, 0.01747123710811138, -0.04355844110250473, -0.005355047062039375, -0.038535214960575104, 0.03254002705216408, -0.09288767725229263, 0.09303691238164902, -0.04262019693851471], [0.06433311849832535, -0.012721072882413864, 0.008148407563567162, -0.02076239138841629, 0.010547476820647717, -0.014386438764631748, -0.04653247818350792, -0.0027898030821233988, -0.027421055361628532], [-0.08455174416303635, -0.02929520606994629, -0.04195874556899071, 0.02719128504395485, 0.04466520994901657, 0.07007601857185364, -0.11352303624153137, 0.06204733997583389, -0.1096019521355629], [0.02029615081846714, -0.0635492205619812, 0.06182851269841194, -0.016912009567022324, 0.02441084198653698, 0.040460143238306046, -0.047316133975982666, 0.0695279985666275, 0.04519492760300636], [0.08893416076898575, -0.073841392993927, -0.018207969143986702, -0.011576118879020214, -0.030854450538754463, 0.022930582985281944, -0.029791835695505142, 0.01861094869673252, 0.02100619487464428], [-0.01813865825533867, -0.02573293261229992, 0.11182409524917603, 0.00046698289224877954, 0.00360889476723969, -0.00019638468802440912, -0.04265931621193886, 0.08857071399688721, -0.04153070226311684], [0.05473528802394867, 0.06724713742733002, -0.08656254410743713, -0.04167627915740013, 0.06428098678588867, -0.0507168248295784, 0.07369054853916168, -0.03764777630567551, -0.02435488998889923], [0.05967269837856293, 0.10460788756608963, -0.06903451681137085, -9.926495113177225e-05, -0.006105402484536171, -0.03523584455251694, -0.05298935994505882, -0.047071199864149094, -0.030927542597055435], [0.09201018512248993, -0.020875733345746994, 0.09064074605703354, -0.017574114724993706, 0.10822803527116776, -0.08892223984003067, -0.12115306407213211, -0.11936583369970322, 0.0859241709113121], [-0.09309713542461395, 0.08322092890739441, -0.06262044608592987, -0.00290475832298398, 0.05196838825941086, -0.045135751366615295, -0.06914195418357849, 0.051330965012311935, 0.04870419576764107], [-0.049919843673706055, 0.13844484090805054, -0.07289637625217438, -0.03725283220410347, 0.05148590728640556, 0.024465152993798256, -0.04849528148770332, 0.07033402472734451, -0.0770377665758133], [0.06490107625722885, -0.05542004480957985, -0.0426086001098156, -0.012491191737353802, 0.057808518409729004, -0.07437055557966232, 0.04757653921842575, -0.02353328838944435, -0.001623895950615406], [-0.022428344935178757, -0.08174319565296173, -0.006545805372297764, -0.01822253316640854, 0.02313181944191456, 0.004566370975226164, 0.020083045586943626, -0.01798761449754238, 0.09809492528438568], [0.005603815894573927, 0.01655462197959423, 0.03663908317685127, -0.049138713628053665, -0.08444865792989731, 0.10387442260980606, -0.10444256663322449, -0.08487118780612946, -0.07994011789560318], [-0.010314659215509892, -0.024932749569416046, 0.11305075138807297, 0.010305267758667469, 0.033210389316082, -0.03832743316888809, -0.0452134944498539, -0.02788824588060379, 0.09925175458192825], [0.024559490382671356, 0.012883692048490047, -0.04000531882047653, -0.007236207835376263, 0.06403009593486786, -0.07680603116750717, -0.010912599973380566, -0.04420129582285881, 0.0015614796429872513], [-0.08443254232406616, -0.012313845567405224, 0.05823708698153496, 0.016486231237649918, -0.06648463755846024, 0.055805183947086334, -0.007110805716365576, 0.060203325003385544, -0.03659216687083244], [0.030480382964015007, -0.009288430213928223, 0.03905525431036949, 0.05000325292348862, 0.05570537596940994, 0.0160163976252079, 0.06631162762641907, -0.10401620715856552, 0.05791656672954559], [-0.018814116716384888, -0.015746433287858963, -0.0067025162279605865, 0.007779313717037439, 0.06901577115058899, -0.048214029520750046, 0.06028515100479126, 0.01112524326890707, -0.08067239075899124], [-0.06669746339321136, -0.14804905652999878, -0.14516612887382507, 0.02481284737586975, -0.12737658619880676, -0.07494064420461655, -0.15518556535243988, -0.032841093838214874, -0.0856810063123703], [-0.018588047474622726, 0.05006890371441841, 0.055021945387125015, -0.008237478323280811, 0.031352221965789795, -0.037079282104969025, 0.036211807280778885, -0.06987089663743973, -0.06912180781364441], [0.04342465102672577, -0.10333096235990524, -0.00622911611571908, -0.08536294102668762, 0.00156342051923275, -0.00244151521474123, 0.054318077862262726, -0.02176942117512226, -0.08656924962997437], [-0.015114104375243187, 0.03027702309191227, -0.05893572047352791, -0.009711109101772308, -0.0431499183177948, 0.0661676675081253, -0.012452841736376286, 0.0011895024217665195, 0.07436859607696533], [0.036006245762109756, 0.04151742905378342, -0.004158649127930403, 0.08469203859567642, -0.02180388942360878, 0.08805607259273529, -0.0011999469716101885, -0.08007590472698212, 0.0915004312992096], [0.06764326244592667, -0.06143736094236374, 0.049289535731077194, -0.006027297582477331, -0.03823493793606758, 0.03229742869734764, -0.07025356590747833, -0.006101276725530624, 0.0034574486780911684], [-0.09230854362249374, 0.06151159107685089, -0.0220209751278162, 0.004766550380736589, 0.009714811109006405, 0.010051888413727283, -0.07071245461702347, 0.004323382396250963, 0.06606224179267883], [0.007898010313510895, 0.044519707560539246, 0.05130767077207565, -0.0031471233814954758, -0.01966341771185398, 0.019672490656375885, -0.07703080028295517, 0.028408803045749664, -0.0744388997554779], [0.022631866857409477, 0.023391269147396088, -0.00297527969814837, -0.00028490464319474995, 0.030043188482522964, 0.010232371278107166, -0.018829355016350746, -0.030560048297047615, 0.0016160982195287943], [0.0860213041305542, 0.06936507672071457, 0.0999588742852211, -0.0074523077346384525, 0.024604294449090958, -0.030731137841939926, -0.04998672008514404, -0.061106808483600616, -0.08857984840869904], [0.019920099526643753, -0.022265024483203888, 0.08503276854753494, -0.043405041098594666, -0.018567126244306564, 0.07988577336072922, 0.05835921689867973, 0.08755261451005936, -0.12037167698144913], [-0.08199263364076614, 0.08340244740247726, 0.03580820932984352, -0.0011812044540420175, 0.018782293424010277, -0.005649172235280275, -0.0866321548819542, -0.003981242887675762, 0.06599269807338715], [-0.10504289716482162, -0.0349612757563591, -0.11788160353899002, -0.05628806725144386, 0.013003639876842499, -0.018702516332268715, 0.089321568608284, 0.09134390950202942, 0.006339794956147671], [0.12144412100315094, -0.040363725274801254, 0.026110723614692688, 0.061237167567014694, -0.04622870683670044, 0.07842516899108887, 0.009448068216443062, -0.04222891852259636, -0.0815005674958229], [-0.03248460590839386, -0.058481208980083466, 0.01275428757071495, 0.04630540683865547, 0.12128668278455734, -0.09028623253107071, -0.07348920404911041, -0.06856232136487961, 0.051403455436229706], [-0.001212141360156238, 0.019140973687171936, 0.0007296517724171281, -0.04446271061897278, 0.028789464384317398, 0.04643847420811653, 0.04022267088294029, -0.06326079368591309, 0.07379995286464691], [-0.09076292812824249, 0.03960232064127922, 0.10552705824375153, -0.03561092168092728, 0.0809929296374321, -0.01286581065505743, 0.08691635727882385, -0.04696256294846535, -0.013897497206926346], [0.05202602222561836, -0.0702495202422142, -0.04226045683026314, -0.00714110117405653, -0.004596436861902475, -0.031698085367679596, 0.056686099618673325, 0.08088021725416183, -0.043766140937805176], [-0.03787757828831673, 0.07701947540044785, -0.10496198385953903, 0.022025149315595627, 0.0905914157629013, -0.047593194991350174, 0.07674015313386917, -0.144378662109375, 0.060432370752096176], [0.0546690970659256, -0.09417090564966202, 0.018854251131415367, 0.0009965848876163363, -0.07101662456989288, -0.07920332998037338, -0.10554137825965881, 0.08771833777427673, 0.02995646372437477], [0.0018173137214034796, 0.01897902972996235, 0.05043964833021164, 0.03684243559837341, -0.06159428507089615, 0.07104585319757462, 0.06929153203964233, -0.09357479959726334, -0.08291108161211014], [-0.047015655785799026, -0.07850950211286545, -0.06033541262149811, -0.00953140202909708, -0.01608424261212349, 0.01560631487518549, 0.11734213680028915, -0.06145928055047989, 0.08049937337636948], [0.007535579148679972, 0.02797434665262699, 0.04055067151784897, -0.025839868932962418, -0.0444854311645031, 0.07511478662490845, -0.0333365872502327, -0.019841255620121956, -0.032113268971443176], [0.0732770785689354, -0.07973816245794296, -0.04258102923631668, -0.009656159207224846, 0.03902142494916916, -0.05662394315004349, -0.025054166093468666, 0.08414099365472794, -0.026845041662454605], [-0.09159598499536514, 0.05045967176556587, 0.06822793930768967, 0.07439347356557846, -0.009680522605776787, -0.03002193197607994, -0.04772312939167023, 0.01686815358698368, 0.06407155841588974], [-0.02349657192826271, -0.05389190465211868, 0.10591653734445572, 0.03430391848087311, -0.025457220152020454, 0.005584698636084795, -0.06415946781635284, -0.07891704887151718, 0.04628033563494682], [0.09628427773714066, -0.017646798864006996, -0.02590998448431492, -0.028704313561320305, 0.02392960712313652, -0.007447252050042152, 0.02676587738096714, -0.04755179211497307, -0.062403604388237], [-0.043040867894887924, 0.01691409945487976, 0.005816364195197821, 0.0011662053875625134, -0.0414494127035141, 0.012782757170498371, 0.014462287537753582, 0.06677182763814926, -0.041176166385412216], [-0.02319173514842987, -0.08299291133880615, 0.07612893730401993, 0.03438569977879524, -0.02915123663842678, 0.05534626916050911, -0.1020207405090332, 0.11191580444574356, 0.11133424937725067], [0.02223975583910942, 0.042520299553871155, 0.11949428915977478, 0.024587340652942657, -0.09275130182504654, 0.05916273221373558, -0.04213419184088707, -0.01841731183230877, -0.08253282308578491], [-0.017612263560295105, -0.014617953449487686, -0.009981239214539528, 0.04200011119246483, 0.10346296429634094, -0.028949832543730736, -0.05269481986761093, -0.032977744936943054, 0.01777196116745472], [0.09870666265487671, 0.06310887634754181, -0.06024503707885742, -0.01730135828256607, 0.023381229490041733, -0.0456368513405323, -0.054519060999155045, -0.07280656695365906, 0.012341911904513836], [-0.008398839272558689, 0.110158771276474, -0.07419972866773605, 0.01975547894835472, -0.029114004224538803, 0.018675757572054863, 0.02751145511865616, -0.0938718318939209, -0.015864137560129166], [0.009562571533024311, -0.05972014367580414, 0.07814107090234756, 0.03358635678887367, 0.01703743450343609, -0.03733710199594498, 0.039714306592941284, -0.030297808349132538, -0.013736638240516186]], "rnn.weight_hh_l0": [[0.01016048714518547, -0.021585699170827866, -0.12349189817905426, 0.11849271506071091, 0.0030736050102859735, -0.015727680176496506, 0.016146259382367134, -0.05106290429830551, 0.14654195308685303, 0.013141379691660404, -0.08637978136539459, 0.01616646535694599, -0.04886298626661301, 0.03963722661137581, 0.1700488030910492, -0.05716083198785782, -0.094113789498806, 0.03950222209095955, 0.07143769413232803, 0.003783221822232008, -0.06472623348236084, -0.11287851631641388, -0.048661407083272934, -0.048978470265865326, 0.038054198026657104, -0.003639019327238202, -0.09379324316978455, -0.05266052111983299, -0.137584388256073, 0.08599135279655457, -0.07868672907352448, -0.0230643842369318, 0.10866636782884598, 0.003481919877231121, 0.14588719606399536, 0.034593869000673294, 0.07785991579294205, -0.008647551760077477, -0.02185051515698433, -0.02515055425465107, -0.10350081324577332, 0.06770294904708862, 0.07714662700891495, 0.027324996888637543, 0.00019737784168682992, -0.03503686934709549, -0.15629497170448303, -0.15294884145259857, 0.0749424546957016, -0.013315477408468723, -0.021509794518351555, 0.1430743783712387, -0.008648766204714775, 0.036570701748132706, -0.05568643659353256, 0.13731074333190918, -0.11265770345926285, -0.03679592162370682, 0.07443805783987045, 0.12052963674068451, 0.015488510020077229, -0.08240196853876114, 0.01730458438396454, 0.03726518899202347], [-0.012236193753778934, -0.10414166748523712, -0.0019425780046731234, 0.022830557078123093, -0.09718813002109528, 0.05735837668180466, 0.0208833459764719, 0.03198441490530968, 0.0590762197971344, -0.0342942550778389, 0.03388353809714317, -0.028956279158592224, 0.008512523025274277, -0.038343943655490875, -0.00960374902933836, 0.025983229279518127, -0.000200143622350879, -0.027353713288903236, 0.04154164716601372, -0.005157816223800182, -0.01930636540055275, 0.02214273065328598, -0.01411851029843092, -0.025051068514585495, 0.029606865718960762, 0.025072384625673294, 0.010461115278303623, -0.07232214510440826, -0.07392416149377823, -0.012497630901634693, 0.032941367477178574, 0.019640039652585983, 0.03253883495926857, 0.04510906711220741, -0.07273857295513153, -0.035727351903915405, -0.002142659155651927, 0.0012471231166273355, 0.02871156483888626, -0.02796677127480507, -0.07283984124660492, 0.034897126257419586, -0.004998972173780203, -0.027702592313289642, -0.03947463631629944, 0.05209406465291977, -0.029150521382689476, -0.002177963964641094, -0.002658044220879674, 0.044169533997774124, -0.011624789796769619, -0.026819387450814247, -0.015079939737915993, 0.03420040011405945, 0.06948462128639221, 0.030379630625247955, -0.04030344635248184, -0.08715909719467163, 0.013721139170229435, 0.05383424460887909, 0.06309076398611069, -0.007035004440695047, -0.018105771392583847, -0.0119044603779912], [-0.003944637719541788, -0.14325349032878876, -0.04672263190150261, 0.14836585521697998, -0.10862664133310318, 0.05150552839040756, -0.00665329722687602, 0.0028378970455378294, 0.1552824229001999, 0.1051340401172638, -0.090445876121521, -0.02414385974407196, 0.00596150616183877, 0.02858278527855873, 0.023822244256734848, -0.0049152672290802, -0.07767896354198456, 0.10094570368528366, -0.05898156017065048, -0.04868010804057121, 0.04834946617484093, 0.07037763297557831, -0.05811687931418419, 0.04521693289279938, 0.06159420311450958, -0.13187997043132782, -0.05517619475722313, -0.03993164375424385, 0.03176643326878548, -0.04605990648269653, -0.04074844345450401, -0.08713388442993164, -0.029811015352606773, 0.029004840180277824, 0.007719243410974741, -0.03614821657538414, 0.032990895211696625, 0.05607235059142113, 0.025766927748918533, 0.06324316561222076, 0.0031132169533520937, -0.06619004160165787, 0.11968276649713516, 0.0035163401626050472, -0.09232556819915771, 0.04229234158992767, -0.1458323746919632, -0.07087359577417374, -0.016698548570275307, 0.12173973023891449, 0.10743004083633423, -0.044351428747177124, -0.02805890329182148, -0.003217663150280714, -0.11647974699735641, 0.1415829062461853, -0.0886337012052536, 0.04757281392812729, -0.12921865284442902, 0.029631175100803375, 0.038826022297143936, -0.012185249477624893, 0.042313352227211, -0.036203496158123016], [-0.051441311836242676, 0.03193752095103264, -0.06146136298775673, -0.14000211656093597, -0.0617084838449955, -0.05950342118740082, -0.04632589966058731, -0.12643636763095856, 0.026703668758273125, 0.08055508136749268, -3.4366254112683237e-05, -0.022956399247050285, -0.04418893903493881, -0.011200129985809326, -0.001952848513610661, -0.0938725620508194, 0.021769370883703232, 0.061842985451221466, 0.021499373018741608, -0.001116301165893674, 0.04890718683600426, -0.09940259158611298, 0.002459846204146743, -0.0434139110147953, 0.023407399654388428, 0.07768481224775314, -0.04976201429963112, -0.04586971178650856, 0.09540784358978271, -0.1022639349102974, -0.07340025901794434, 0.02952149510383606, -0.025183601304888725, 0.06949477642774582, 0.022130237892270088, 0.06430508196353912, 0.04060626029968262, 0.014026861637830734, -0.04026128351688385, 0.0835050418972969, -0.03130977600812912, -0.015260515734553337, -0.12238109856843948, -0.07492125779390335, -0.07847906649112701, 0.10513909161090851, 0.09465019404888153, -0.029754502698779106, 0.03462204337120056, 0.05448642000555992, -0.06157451495528221, -0.07823867350816727, 0.05404296889901161, 0.03166930004954338, 0.0791887566447258, 0.034975361078977585, -0.0682620033621788, -0.05691070854663849, 0.12689991295337677, -0.0493052639067173, 0.008398464880883694, -0.011817564256489277, -0.06833069771528244, 0.050507184118032455], [-0.0710129588842392, 0.03729894757270813, 0.10224563628435135, 0.08954114466905594, -0.037456195801496506, 0.0723591148853302, -0.03258081525564194, -0.03409511595964432, 0.03517770767211914, 0.035281021147966385, -0.0036963350139558315, -0.05806960165500641, 0.04807918146252632, 0.047286637127399445, 0.04756259173154831, -0.07902402430772781, -0.10405196994543076, -0.044917818158864975, 0.011234327219426632, 0.04711223766207695, -0.005433176178485155, 0.04679502919316292, -0.09266569465398788, -0.06023963540792465, -0.03400949761271477, -0.07673849910497665, -0.07115844637155533, 0.010846377350389957, -0.07394039630889893, -0.07188468426465988, -0.0911262035369873, -0.01589800976216793, 0.002720937132835388, -0.02999253012239933, -0.047474879771471024, -0.08451774716377258, 0.05439675599336624, 0.056674033403396606, 0.09650502353906631, 0.03975863754749298, 0.027437269687652588, -0.06834357231855392, 0.02049410715699196, 0.015726108103990555, 0.057261861860752106, 0.07947660237550735, -0.10950516164302826, -0.09619714319705963, -0.030702048912644386, 0.0684128925204277, 0.12338226288557053, 0.01657782308757305, -0.11293699592351913, 0.04649941995739937, -0.0201694518327713, -0.02478577382862568, -0.022111045196652412, -0.03970014676451683, 0.0165074672549963, 0.012385216541588306, 0.09067285060882568, -0.0033471884671598673, 0.026356957852840424, -0.03479216992855072], [0.10755857080221176, 0.12833407521247864, -0.09324969351291656, -0.011600913479924202, 0.08647201210260391, -0.15747641026973724, -0.05908128619194031, 0.018813475966453552, 0.06656119227409363, 0.08357957005500793, 0.0939411073923111, 0.06065383180975914, -0.10413816571235657, -0.015948591753840446, 0.03138772025704384, 0.0942612811923027, 0.017049115151166916, 0.023169420659542084, 0.08117340505123138, -0.053467053920030594, -0.07850331813097, -0.043299924582242966, 0.04606689512729645, 0.036256011575460434, 0.022191811352968216, -0.06460028886795044, -0.05357161909341812, -0.04404287785291672, 0.05472557246685028, -0.027171296998858452, 0.0019054955337196589, 0.09792936593294144, 0.0556916706264019, -0.10743170976638794, 0.04974249750375748, 0.06216825917363167, -0.025095801800489426, -0.04113748297095299, -0.10727982968091965, -0.026309296488761902, -0.09910555928945541, 0.08441776037216187, 0.07443317025899887, -0.034642159938812256, -0.07327452301979065, 0.08633054047822952, -0.009832723066210747, 0.08477232605218887, 0.03153904527425766, 0.037404563277959824, -0.005383043084293604, 0.08003794401884079, -0.01069596502929926, -0.0599568709731102, 0.11144857108592987, -0.029666895046830177, 0.07797858864068985, 0.12097848206758499, 0.07351946830749512, -0.0008490360924042761, -0.000573714729398489, 0.0006878256099298596, -0.05097614601254463, -0.09527881443500519], [-0.04527082294225693, 0.015848269686102867, -0.0017289702082052827, -0.043647412210702896, -0.02834765799343586, 0.03688638284802437, -0.11049710959196091, 0.007943431846797466, 0.1039891466498375, -0.1010061502456665, 0.015258131548762321, -0.01920109987258911, 0.04377208277583122, -0.066505566239357, 0.027656015008687973, 0.06287107616662979, -0.0460042767226696, 0.008789299055933952, -0.003092830767855048, -0.01623779907822609, 0.004426275845617056, -0.06144328787922859, -0.010242042131721973, 0.029838701710104942, -0.0481732040643692, -0.028270896524190903, -0.009638081304728985, 0.0098781269043684, 0.06230177730321884, -0.0221744142472744, -0.11580584943294525, -0.004337110091000795, 0.02304980717599392, 0.06458274275064468, -0.07075521349906921, -0.005484782624989748, 0.012199888937175274, -0.004117182455956936, 0.0009563732310198247, -0.026903746649622917, 0.04050606116652489, 0.017557932063937187, -0.04761515557765961, -0.024735409766435623, -0.020762253552675247, -0.05949382111430168, 0.034624453634023666, -0.014419599436223507, -0.0016441212501376867, 0.028643686324357986, 0.02079099789261818, -0.03659864515066147, 0.02908790297806263, 0.0011638569412752986, -0.062373265624046326, 0.01859126053750515, -0.0415467768907547, -0.055489540100097656, 0.09216625988483429, 0.08786797523498535, -0.03169381618499756, -0.015644224360585213, 0.03310588747262955, -0.03644276782870293], [-0.04688170552253723, 0.14190888404846191, 0.08600229769945145, -0.04008670151233673, -0.004805830307304859, -0.11638671159744263, 0.09981313347816467, -0.14413627982139587, -0.11144010722637177, 0.049854788929224014, 0.061491742730140686, 0.07177764922380447, 0.00465654581785202, 0.0619446225464344, -0.0808340534567833, 0.028721846640110016, 0.09424274414777756, 0.02043815515935421, 0.08527811616659164, 0.07185970991849899, 0.05053703859448433, -0.11109057068824768, -0.0023894929327070713, -0.10216615349054337, -0.03208401799201965, 0.008467510342597961, -0.07571172714233398, -0.05692584067583084, -0.09793680906295776, -0.09052645415067673, 0.061023812741041183, 0.09916042536497116, -0.06391176581382751, 0.07527775317430496, -0.054147716611623764, 0.12147128582000732, -0.04164724051952362, 0.013730364851653576, 0.00020704510097857565, -0.03534161299467087, 0.11510638892650604, -0.07112358510494232, 0.007012149319052696, 0.10089154541492462, -0.00766906701028347, 0.06860432773828506, 0.08046860247850418, -0.042603038251399994, 0.010903134942054749, 0.03533773496747017, -0.12170236557722092, -0.008409486152231693, 0.0033077786210924387, 0.03464147448539734, 0.1530364453792572, -0.047361280769109726, -0.014160345308482647, -0.05395890027284622, 0.0214000903069973, 0.006869559641927481, 0.038863081485033035, 0.006835415493696928, -0.06416329741477966, -0.003315109759569168], [-0.07232890278100967, -0.0482175350189209, 0.015103801153600216, -0.07380690425634384, 0.026768343523144722, -0.14121972024440765, -0.0239226333796978, 0.024111155420541763, 0.027726849541068077, 0.1188504621386528, 0.06199523061513901, 0.09160749614238739, -0.038230471312999725, -0.023966193199157715, -0.018422743305563927, 0.11269935965538025, -0.018373459577560425, -0.08766590803861618, -0.0033069499768316746, -0.02431386150419712, -0.05570079758763313, -0.030247269198298454, 0.08282792568206787, 0.004584010690450668, -0.011611021123826504, 0.11402072757482529, -0.04542461037635803, -0.023319438099861145, -0.034971777349710464, -0.1063918024301529, 0.030002104118466377, 0.07559053599834442, -0.06213616579771042, 0.043251968920230865, -0.05515916645526886, 0.06321826577186584, 0.0030147507786750793, -0.11161832511425018, -0.0658755674958229, -0.06709423661231995, 0.0991172194480896, -0.0070851934142410755, -0.10187014192342758, -0.09019330143928528, -0.022832801565527916, 0.03162946179509163, 0.1166745275259018, 0.0819842517375946, 0.03351468965411186, -0.12102263420820236, -0.028392894193530083, -0.09339598566293716, 0.0008599498542025685, -0.006365241017192602, 0.0019195870263502002, -0.051695115864276886, 0.01723666675388813, -0.0460398830473423, 0.011549163609743118, -0.0655399039387703, 0.0012660004431381822, -0.0319020114839077, -0.012068471871316433, 0.019466467201709747], [0.037221893668174744, 0.16838769614696503, -0.054055992513895035, 0.00633716257289052, 0.08313467353582382, 0.012594065628945827, 0.0781332328915596, 0.032389480620622635, -0.08806409686803818, 0.10095157474279404, 0.057168032974004745, -0.07001788914203644, 0.05985179543495178, -0.0327422209084034, -0.1616770178079605, -0.0011140882270410657, 0.02793426252901554, -0.038897935301065445, 0.00726516405120492, -0.10026697814464569, 0.08589762449264526, -0.08664201200008392, 0.05680612102150917, -0.08784308284521103, 0.15017057955265045, 0.1063554584980011, -0.057034995406866074, -0.044133301824331284, 0.05779855325818062, 0.06495046615600586, 0.06319627165794373, -0.07427781075239182, -0.1306333690881729, -0.09680517762899399, -0.06935831904411316, 0.06420719623565674, -0.08288463205099106, -0.053015533834695816, -0.027301210910081863, 0.061585817486047745, 0.08618613332509995, -0.004253894090652466, -0.08903602510690689, 0.0025664689019322395, 0.07856547832489014, -0.025267040356993675, 0.10747211426496506, 0.0491572804749012, -0.17122553288936615, 0.06991447508335114, 0.014376593753695488, -0.020367907360196114, 0.019024204462766647, 0.0018450195202603936, 0.11517040431499481, 0.026235787197947502, 0.11570965498685837, 0.007176293060183525, 0.0024344485718756914, -0.007228117901831865, -0.031611762940883636, 0.08337202668190002, -0.050483524799346924, 0.07439692318439484], [-0.03557663410902023, -0.009741751477122307, -0.025070972740650177, -0.004729941487312317, 0.0895170345902443, -0.07034215331077576, -0.01362887304276228, 0.005144198890775442, -0.08199448883533478, -0.05185837298631668, 0.01656400039792061, -0.017824687063694, 0.0013102147495374084, 0.07652834802865982, 0.051241904497146606, 0.04664972797036171, -0.00702857319265604, 0.07466581463813782, 0.018151789903640747, 0.043754033744335175, -0.039139289408922195, -0.015456576831638813, 0.03725433722138405, 0.0044917031191289425, 0.10454537719488144, -0.005291512701660395, 0.055529430508613586, -0.019880590960383415, 0.08396987617015839, -0.030300520360469818, -0.07277721166610718, -0.02664574608206749, 0.07228632271289825, 0.011397304013371468, 0.05987608805298805, -0.02266489714384079, -0.05872416868805885, 0.039574820548295975, -0.04140312969684601, 0.0327635258436203, -0.02762604132294655, 0.06018126755952835, -0.03710173815488815, 0.0013952443841844797, -0.02434966154396534, -0.01096942089498043, -0.005920733790844679, 0.005976402200758457, -0.0334828644990921, -0.01117886696010828, 0.013492139056324959, -0.007446277420967817, -0.003632886800915003, 0.0007711797370575368, -0.04114842414855957, -0.04908549413084984, 0.03740548714995384, 0.03770330175757408, -0.03973683714866638, -0.10618520528078079, 0.03802363574504852, -0.007081969641149044, 0.02967401035130024, -0.020192965865135193], [0.049259819090366364, -0.0441446378827095, 0.034088678658008575, -0.04582976922392845, 0.026839805766940117, -0.05832839012145996, 0.006406121421605349, 0.0015307941939681768, -0.01840679533779621, 0.006761015858501196, 0.0547892190515995, -0.05864103138446808, -0.010510161519050598, -0.029379229992628098, -0.00403642700985074, -0.0755508616566658, 0.0028794643003493547, 0.013068058528006077, 0.03245450556278229, 0.015037734061479568, 0.007933566346764565, -0.01669626124203205, 0.020365983247756958, -0.006754141300916672, -0.03577662259340286, 0.039719805121421814, 0.02720509096980095, -0.04115171357989311, -0.023347128182649612, -0.007498276885598898, 0.06437218934297562, 0.018080804497003555, 0.02583795040845871, 0.006483950652182102, -0.03832463175058365, -0.01990431919693947, 0.006901940330862999, 0.008552536368370056, -0.02951732650399208, -0.008982854895293713, 0.05170189589262009, -0.016053032130002975, 0.07402113080024719, 0.06276470422744751, -0.01588723063468933, 0.011097089387476444, 0.04180081933736801, 0.0069084931164979935, 0.055429328233003616, -0.018614834174513817, -0.018748871982097626, -0.011204764246940613, -0.05794140696525574, -0.009876081719994545, 0.0254452433437109, 0.00574802840128541, -0.03637353703379631, -0.04277677834033966, 0.004237201530486345, 0.053987767547369, 0.03743884712457657, 0.03176061809062958, 0.009875469841063023, 0.026208672672510147], [0.04016457125544548, -0.01984960027039051, 0.08473962545394897, -0.06507428735494614, -0.027671003714203835, -0.07074063271284103, -0.06598400324583054, 0.02183666080236435, 0.03831563517451286, -0.028288424015045166, 0.04107790067791939, -0.019442977383732796, -0.08449546992778778, -0.03359169885516167, -0.01572546735405922, 0.07216404378414154, -0.03607108071446419, -0.0065970695577561855, 0.0008040927350521088, -0.025350753217935562, -0.0010620169341564178, 0.07800823450088501, 0.03396182507276535, -0.031716592609882355, 0.004912375472486019, -0.017350543290376663, -0.034279171377420425, -0.06452283263206482, -0.0592825785279274, -0.05924096331000328, 0.01178607065230608, -0.045312199741601944, -0.07631446421146393, 0.023655863478779793, -0.10283462703227997, -0.018337350338697433, 0.07089725881814957, -0.05219133943319321, -0.035786744207143784, -0.02477896772325039, 0.08364273607730865, -0.01767253316938877, -0.06042814254760742, 0.062430489808321, 0.05652327835559845, -0.02607402391731739, -0.025348221883177757, 0.00737828528508544, -0.017265956848859787, -0.03641502559185028, -0.011082408018410206, 0.05866201967000961, -0.03121781162917614, -0.0005210613016970456, 0.051189541816711426, -0.027085095643997192, -0.01143504586070776, 0.03547036647796631, 0.09322790801525116, 0.015443332493305206, -0.07846063375473022, -0.009118469431996346, 0.0021733460016548634, 0.08022017031908035], [0.042284995317459106, 0.06564182788133621, 0.09134615212678909, 0.06828465312719345, -0.13052037358283997, 0.05591040849685669, -0.08971942216157913, -0.04400596022605896, 0.10315980762243271, -0.042097046971321106, -0.1348053365945816, -0.04001117870211601, 0.07745528966188431, -0.03637711703777313, -0.011992227286100388, 0.0548543781042099, -0.005791479721665382, 0.04404539614915848, -0.11868982017040253, -0.034019120037555695, 0.05156479775905609, -0.05118583142757416, -0.04252978041768074, 0.04195087030529976, -0.09232965111732483, -0.18531036376953125, 0.06355414539575577, 0.026852844282984734, -0.08135282248258591, 0.11946939677000046, 0.10668027400970459, 0.013707254081964493, 0.14540785551071167, -0.0677037462592125, 0.03925826773047447, 0.037328965961933136, -0.08361294120550156, 0.07214954495429993, 0.0409587137401104, 0.04899926111102104, 0.0893944501876831, -0.12239805608987808, 0.06469698995351791, 0.10249198973178864, -0.06383781135082245, -0.05326242372393608, -0.11193389445543289, -0.14768201112747192, 0.1706274151802063, 0.13494659960269928, 0.012340127490460873, 0.07228857278823853, -0.009095251560211182, -0.01441266480833292, -0.03890715911984444, 0.08751402050256729, 0.024301398545503616, -0.036626603454351425, -0.0979280173778534, -0.0074391611851751804, 0.11899691075086594, -0.10419020801782608, -0.017672566697001457, -0.07916336506605148], [0.07298803329467773, 0.029985418543219566, -0.060241151601076126, 0.025243161246180534, 0.010281315073370934, 0.0375659242272377, -0.0029940148815512657, 0.021608391776680946, 0.08336438238620758, 0.1364154815673828, 0.021314742043614388, 0.050763584673404694, -0.06566067039966583, 0.053319670259952545, 0.020957516506314278, -0.13610340654850006, 0.06546144187450409, -0.08223772048950195, 0.06635089963674545, -0.054860569536685944, -0.020840832963585854, -0.07196711748838425, 0.018105577677488327, -0.05585276335477829, 0.0830484926700592, -0.01300685666501522, 0.0772954523563385, -0.06244313716888428, -0.06686785817146301, -0.017376050353050232, 0.09395252168178558, -0.07027100026607513, 0.039874326437711716, 0.026991309598088264, 0.08424875885248184, -0.04135168716311455, -0.020201649516820908, -0.025480417534708977, -0.0012067266507074237, 0.05313586816191673, 0.022793127223849297, 0.014253578148782253, -0.011593346484005451, -0.053646717220544815, -0.01022761594504118, -0.10225784778594971, -0.09068220853805542, -0.005152815952897072, 0.008782697841525078, 0.006648389156907797, -0.09170745313167572, 0.018716011196374893, -0.0601620189845562, 0.0462736114859581, 0.015404895879328251, -0.07439107447862625, 0.024672159925103188, 0.01934424601495266, -0.11198364943265915, 0.08592202514410019, -0.06862137466669083, -0.043608274310827255, -0.037803370505571365, 0.11312549561262131], [-0.027346903458237648, 0.031864576041698456, -0.06306137144565582, 0.04253390058875084, -0.02262430638074875, 0.028895080089569092, -0.09756292402744293, 0.05969966575503349, 0.015791581943631172, 0.040399596095085144, -0.0651881992816925, -0.026248954236507416, 0.036905206739902496, -0.07300148904323578, 0.10893288999795914, -0.07943099737167358, 0.024924688041210175, 0.030899424105882645, 0.04575609043240547, -0.01349574327468872, 0.020354773849248886, 0.05230507627129555, -0.06162579357624054, 0.031289324164390564, -0.054908283054828644, -0.06449359655380249, -0.025165442377328873, -0.05128365010023117, -0.059269849210977554, 0.08654419332742691, -0.07212381064891815, 0.01265349518507719, 0.07257501780986786, 0.03334735706448555, 0.06769825518131256, 0.014041505753993988, -0.013829902745783329, -0.040678758174180984, 0.032537512481212616, -0.0016079238848760724, -0.0717974528670311, -0.04819522053003311, 0.02279059588909149, 0.10534556955099106, 0.08735409379005432, 0.06755931675434113, 0.041558295488357544, -0.034291405230760574, 0.030030829831957817, 0.031210975721478462, 0.039100997149944305, 0.010020751506090164, -0.005360881332308054, 0.03648283705115318, -0.05740167573094368, 0.0026816437020897865, -0.062072787433862686, -0.0217029619961977, -0.008064783178269863, -0.00484829768538475, 0.1267760843038559, 0.0020762719213962555, -0.018202461302280426, 0.03805093094706535], [0.0339609757065773, 0.049472589045763016, 0.06301847845315933, -0.09532099217176437, -0.014179184101521969, -0.03433414548635483, 0.034567322582006454, 0.07165645807981491, -0.042482517659664154, -0.129403218626976, -0.008023290894925594, -0.009759543463587761, 0.032215945422649384, 0.09695560485124588, 0.01612130180001259, 0.0615878589451313, -0.09499838948249817, -0.019589485600590706, -0.018257686868309975, -0.0015510269440710545, 0.06360159069299698, -0.007157798856496811, 0.08199367672204971, 0.012460540048778057, -0.03264128044247627, 0.0128488065674901, -0.02214452251791954, -0.008021702989935875, 0.05355704575777054, 0.013616460375487804, 0.050068266689777374, 0.06451396644115448, -0.007117395289242268, -0.0013408190570771694, -0.09411636739969254, 0.02026698738336563, -0.013565477915108204, -0.021349288523197174, -0.059274107217788696, 0.028805658221244812, -0.04823959991335869, -0.00573674077168107, 0.0313001424074173, 0.05074311047792435, 0.030682217329740524, 0.0398835651576519, -0.07654472440481186, 0.016826728358864784, 0.0432945117354393, 0.028618862852454185, -0.04722454771399498, 0.01185812521725893, -0.0308269951492548, 0.017334135249257088, -0.0471874438226223, 0.0556320920586586, -0.01562579721212387, -0.006786815356463194, 0.10480376332998276, 0.04324042424559593, -0.10759370028972626, 0.03777347505092621, 0.009488208219408989, -0.033977411687374115], [0.043254464864730835, -0.03395717591047287, 0.02805260941386223, -0.014314328320324421, 7.548621215391904e-05, 0.018583133816719055, 0.032890670001506805, -0.02314777299761772, 0.08634784817695618, -0.030468612909317017, 0.008164755068719387, -0.016813430935144424, 0.022375009953975677, 0.045638252049684525, 0.013537650927901268, 0.023994052782654762, 0.013485821895301342, -0.07007467746734619, -0.02179255709052086, -0.005398030858486891, -0.024234972894191742, 0.018887639045715332, -0.04168793559074402, -0.007222853135317564, 0.09300107508897781, 0.015694934874773026, -0.03433620184659958, 0.018075963482260704, -0.015579958446323872, -0.025208313018083572, -0.014963165856897831, -0.033295780420303345, -0.024756288155913353, -0.04175387695431709, 0.026091020554304123, 0.005949807818979025, 0.047104451805353165, 0.01918865740299225, -0.03563852608203888, 0.013799529522657394, -0.06174590811133385, -0.0019387793727219105, 0.048838261514902115, -0.03176354616880417, 0.07676076889038086, 0.06841039657592773, 0.08677630126476288, -0.02579432539641857, 0.046168237924575806, -0.014973283745348454, -0.02329370379447937, 0.032817039638757706, 0.03033437579870224, -0.004566378891468048, 0.014061599969863892, 0.009370806626975536, 0.04325994476675987, 0.023902682587504387, -0.0362471267580986, -0.02941777929663658, 0.04742598533630371, -0.020129812881350517, -0.0033844553399831057, -0.046278584748506546], [-0.03674277663230896, 0.04405876249074936, 0.04925807937979698, 0.036434534937143326, 0.03396071493625641, 0.017087837681174278, 0.05464152619242668, -0.0800800696015358, -0.03463583439588547, -0.10520636290311813, -0.0006295029306784272, 0.02518562041223049, 0.06132609397172928, -0.011569091118872166, -0.0328802764415741, 0.03862705081701279, 0.046755243092775345, 0.006160141434520483, -0.08908076584339142, -0.013441515155136585, -0.016570890322327614, 0.05813879147171974, -0.016028916463255882, 0.03529823571443558, -0.034181952476501465, 0.001118455664254725, -0.006388533860445023, -0.01183382235467434, 0.0907454639673233, -0.009045612998306751, -0.049460358917713165, 0.01507564540952444, -0.060005396604537964, -0.015996143221855164, -0.07517258822917938, 0.0601654052734375, -0.042543232440948486, 0.005639225710183382, 0.01770576275885105, -0.016642874106764793, -0.024967191740870476, 0.031073328107595444, -0.0008147988119162619, 0.047142237424850464, 0.07582452893257141, 0.02661718800663948, 0.019699333235621452, 0.006425756495445967, 0.045459479093551636, -0.03527158871293068, -0.042949575930833817, 0.0070116338320076466, 0.041226789355278015, -0.032192930579185486, 0.009412379004061222, -0.0005591603112407029, -0.00015644686936866492, 0.052479155361652374, 0.011711838655173779, -0.0790620893239975, 0.007255889475345612, 0.046145230531692505, -0.052220214158296585, -0.019812341779470444], [-0.035749174654483795, -0.1116773933172226, -0.08755110204219818, 0.15650181472301483, -0.004992094822227955, 0.14030471444129944, -0.0885077640414238, 0.03686058893799782, 0.0033430992625653744, -0.0005478254752233624, -0.017718568444252014, 0.03819756954908371, -0.07957281172275543, -0.06831376999616623, 0.028883932158350945, -0.1089405044913292, -0.010905671864748001, -0.017581427469849586, 0.016088347882032394, -0.10199006646871567, 0.0836552157998085, -0.023108255118131638, -0.0031993102747946978, 0.09911742061376572, 0.05475437268614769, -0.08094222843647003, -0.04890431463718414, 0.017392341047525406, -0.03299631550908089, -0.08493773639202118, -0.1266716867685318, -0.029489953070878983, 0.14188478887081146, 0.10891274362802505, 0.09568608552217484, -0.07849034667015076, 0.055742256343364716, 0.1326969414949417, 0.05014763027429581, 0.0377032607793808, -0.024497048929333687, -0.048983365297317505, 0.04328664019703865, 0.04707030579447746, -0.01564347930252552, -0.08847666531801224, -0.09996958076953888, -0.016834806650877, -0.02682998590171337, 0.03019961342215538, 0.07710563391447067, 0.09102562814950943, -0.1539122760295868, 0.07376337796449661, -0.16127124428749084, 0.01070350594818592, -0.10722163319587708, -0.09181700646877289, -0.040907248854637146, -0.008137131109833717, 0.1430162489414215, -0.05587099492549896, -0.07421088218688965, 0.044396672397851944], [-0.003838916542008519, -0.009159152396023273, -0.06768117100000381, 0.03391413018107414, 0.03128930926322937, 0.03784771263599396, 0.019003696739673615, -0.06905514746904373, -0.0205049067735672, 0.08127828687429428, -0.01694461889564991, 0.028175964951515198, 0.06007244810461998, -0.024916864931583405, -0.008345761336386204, 0.017539674416184425, -0.012955051846802235, 0.0369318388402462, -0.027560407295823097, -0.02811138518154621, -0.061743203550577164, -0.07880166918039322, -0.0191939789801836, 0.04299401491880417, -0.02310732752084732, 0.016901742666959763, -0.01185868214815855, 0.0011019723024219275, 0.051207318902015686, -0.04725101590156555, -0.03345600515604019, 0.01838952861726284, -0.06437109410762787, 0.015669576823711395, -0.05870548263192177, 0.044730160385370255, 0.015980342403054237, -0.05159086734056473, -0.007106942590326071, 0.0025224946439266205, 0.02674315683543682, 0.0008809700957499444, -0.07904153317213058, -0.04451361298561096, 0.016886528581380844, -0.0061478521674871445, -0.01390308327972889, 0.006771798245608807, -0.029926680028438568, 0.021232372149825096, -0.008603405207395554, 0.04443253204226494, -0.02736084908246994, -0.039715684950351715, 0.006260421592742205, 0.009328367188572884, 0.03653149679303169, -0.006297707092016935, 0.10479991137981415, -0.09592247009277344, -0.08553843945264816, 0.022577742114663124, -0.00401912210509181, -0.027342775836586952], [-0.08745893090963364, -0.034828975796699524, 0.00882364809513092, 0.014192063361406326, 0.03752857819199562, 0.00020520391990430653, 0.034409862011671066, 0.12508739531040192, -0.05778767541050911, -0.08140487223863602, -0.01874954253435135, -0.05366126820445061, -0.032960884273052216, -0.09998279064893723, 0.08372855931520462, -0.012498768977820873, 0.028653284534811974, 0.14380568265914917, -0.12562404572963715, 0.0033858362585306168, -0.06456287205219269, 0.08528991043567657, -0.08204049617052078, 0.10373729467391968, -0.08419574052095413, -0.10095223784446716, -0.05025497078895569, -0.010750697925686836, 0.09524884819984436, -0.054901327937841415, -0.04074717313051224, 0.022100260481238365, 0.07864194363355637, 0.009969756938517094, 0.05904250219464302, -0.04588952660560608, 0.11557350307703018, 0.1154557541012764, 0.022969486191868782, -0.0841858759522438, 0.012865191325545311, -0.09985452890396118, -0.09116415679454803, 0.11021560430526733, 0.08138658106327057, -0.12725701928138733, -0.09129290282726288, -0.0761507898569107, 0.09089821577072144, -0.04248383268713951, -0.02382907271385193, -0.04287876561284065, -0.15322577953338623, 0.015432381071150303, -0.13929785788059235, -0.040734294801950455, -0.0180369783192873, -0.1433251053094864, 0.061558764427900314, 0.0996483862400055, -0.02068672701716423, 0.018976660445332527, -0.006363097578287125, 0.0803203284740448], [-0.003932990599423647, -0.030051369220018387, -0.019990328699350357, -0.0387619324028492, 0.005963402334600687, -0.11125928908586502, 0.06709911674261093, 0.024015452712774277, -0.10755406320095062, 0.06074288859963417, -0.013638556934893131, -0.04650488868355751, -0.025536084547638893, 0.041747432202100754, -0.03320237621665001, 0.09274014830589294, 0.004996687639504671, 0.03155355527997017, -0.02676050364971161, 0.0247793048620224, 0.0027315851766616106, 0.05294286459684372, -0.00925046019256115, 0.06082988530397415, -0.03438076376914978, 0.03329770267009735, -0.062154002487659454, 0.03779138624668121, 0.04614327847957611, 0.00441391859203577, 0.020396117120981216, 0.044882334768772125, -0.09710482507944107, -0.024200068786740303, -0.05601993203163147, 0.04420875012874603, -0.0034796488471329212, -0.0364673025906086, -0.005468770861625671, -0.02374017983675003, 0.052077777683734894, 0.012488878332078457, -0.04041370004415512, -0.09295278787612915, 0.03717498853802681, 0.012335328385233879, 0.017139222472906113, 0.028645353391766548, 0.013331608846783638, -0.08048951625823975, 0.013364770449697971, -0.0336773507297039, 0.037234559655189514, -0.06104351580142975, 0.01960056833922863, -0.04182624816894531, -0.018445607274770737, -0.013227409683167934, 0.09914699196815491, -0.057731013745069504, -0.05121127888560295, 0.04974362626671791, 0.015229158103466034, -0.04250556603074074], [0.10753004997968674, -0.051302626729011536, -0.03208908811211586, 0.03717862069606781, 0.00033417015220038593, -0.046056557446718216, -0.04352289065718651, -0.10377451777458191, -0.008593021892011166, 0.07814499735832214, 0.05916590243577957, 0.04703005775809288, -0.0634605810046196, 0.08336492627859116, 0.006038598716259003, 0.04902298003435135, 0.006483089178800583, -0.015628425404429436, 0.023722819983959198, -0.026539277285337448, -0.04516259953379631, -0.019794253632426262, -0.024625139310956, -0.001184559310786426, 0.005757453385740519, 0.00321870855987072, 0.051821496337652206, 0.060473013669252396, -0.012544169090688229, -0.03879164531826973, -0.058971159160137177, -0.015303066000342369, 0.01264671515673399, -0.037729695439338684, 0.026727473363280296, -0.03005795180797577, 0.01663954369723797, -0.03815147653222084, 0.017431702464818954, -0.03108052909374237, 0.003074098378419876, -0.022598974406719208, -0.010679918341338634, -0.11154815554618835, 0.058314599096775055, 0.08501093089580536, -0.035037681460380554, -0.010886343196034431, -0.0165663193911314, -0.01203733216971159, -0.013743925839662552, 0.012277361936867237, 0.026931848376989365, 0.02022719383239746, 0.0172621700912714, 0.01368437334895134, -0.0140683613717556, 0.056829456239938736, 0.10365191102027893, -0.08717650920152664, -0.09490381181240082, 0.00016320159193128347, 0.05654015392065048, -0.08530344069004059], [0.011974435299634933, -0.11088850349187851, 0.06215658411383629, 0.054289404302835464, -0.07583331316709518, 0.028369691222906113, 0.06796693801879883, 0.014525151811540127, 0.08596081286668777, -0.10916958004236221, -0.01871555671095848, 0.04047041013836861, 0.02083825320005417, 0.04426904022693634, 0.005178609862923622, 0.054552312940359116, 0.005238921847194433, 0.007186899892985821, 0.03396250680088997, -0.0015663482481613755, 0.055821944028139114, 0.040694091469049454, 0.02531544491648674, 0.07383947819471359, 0.0021125879138708115, 0.004153598099946976, -0.0024436069652438164, -0.011261728592216969, 0.04946976527571678, 0.036171939224004745, 0.06913398951292038, 0.040832407772541046, -0.06643087416887283, 0.0022512059658765793, -0.05807860195636749, 0.05163601040840149, 0.06796210259199142, -0.04034531116485596, 0.07097988575696945, 0.03917397931218147, 0.10793399065732956, 0.016556788235902786, 0.10077515989542007, -0.05625327676534653, -0.12340126931667328, 0.06373528391122818, -0.02018035389482975, -0.07893715053796768, 0.12057744711637497, -0.009822734631597996, 0.1288308948278427, -0.05771816521883011, -0.05465077608823776, 0.004757327027618885, 0.05986849218606949, 0.07642734795808792, -0.1271887570619583, -0.0835392028093338, -0.015814974904060364, 0.1405203640460968, -0.06628003716468811, -0.01703885942697525, 0.041007280349731445, -0.024496600031852722], [0.003237426746636629, -0.027075156569480896, 0.043006207793951035, 0.014312389306724072, -0.07832590490579605, -0.06416891515254974, -0.045009732246398926, -0.00018874710076488554, 0.10562290251255035, 0.052529145032167435, -0.08099615573883057, -0.009807296097278595, -0.09802078455686569, 0.06619210541248322, -0.024635305628180504, -0.08994020521640778, -0.026753902435302734, 0.08651070296764374, 0.06072629615664482, 0.07534155249595642, -0.05796213820576668, 0.10103689879179001, 0.032201338559389114, -0.01599487103521824, -0.028627555817365646, -0.08087503910064697, -0.04922078549861908, -0.09023267030715942, 0.1030745655298233, 0.0147995101287961, 0.05316102132201195, -0.0217191930860281, 0.09509246796369553, -0.03043282963335514, 0.038388174027204514, 0.03850744292140007, 0.00981786660850048, 0.08126512914896011, 0.03760095685720444, -0.02708016335964203, 0.10235641151666641, -0.02365444228053093, -0.010867862962186337, -0.06988682597875595, 0.0018559708259999752, -0.08230433613061905, -0.0009462352027185261, 0.006421803496778011, -0.01876302808523178, 0.013066918589174747, -0.08238619565963745, -0.002499963855370879, -0.04229450970888138, 0.03612871840596199, -0.06829151511192322, 0.007892006076872349, -0.027402637526392937, -0.03468526154756546, 0.08394104987382889, 0.031435780227184296, 0.015124350786209106, -0.017482826486229897, 0.009795861318707466, 0.03649250790476799], [0.054436828941106796, 0.04839136824011803, 0.04180498793721199, -0.08637566864490509, 0.04374082759022713, -0.03639863058924675, 0.026982100680470467, -0.055936459451913834, -0.05587220564484596, 0.009946538135409355, -0.042306020855903625, 0.014067594893276691, 0.027893144637346268, -0.01187021005898714, 0.011179989203810692, 0.019020894542336464, 0.0145645122975111, 0.02071484550833702, -0.012048655189573765, 0.000820591114461422, -0.0068089840933680534, 0.015564803034067154, 0.007747652009129524, -0.02784537523984909, -0.05986101180315018, 0.009334761649370193, -0.0905635878443718, -0.012266574427485466, 0.09664826095104218, -0.04972423240542412, -0.07292116433382034, 0.013267727568745613, -0.10454907268285751, 0.06700656563043594, 0.011595913209021091, -0.012785051017999649, 0.00822050403803587, -0.005865666549652815, -0.003186600049957633, -0.004095364827662706, 0.06000547483563423, 0.0013591268798336387, 0.028337018564343452, -0.11085852235555649, 0.11426374316215515, 0.015411246567964554, -0.013928752392530441, 0.026101157069206238, -0.04178281128406525, 0.00923166424036026, -0.023981241509318352, -0.0412583164870739, 0.0023238002322614193, 0.00883971992880106, -0.022660305723547935, 0.007190288044512272, 0.023281332105398178, 0.01895482838153839, 0.038059983402490616, -0.048482563346624374, 0.022292617708444595, -0.021759437397122383, 0.003558363765478134, -0.021086987107992172], [-0.1329851746559143, -0.012362075969576836, 0.022336605936288834, 0.004083183594048023, 0.009635097347199917, 0.12873998284339905, -0.023465676233172417, 0.008686955086886883, 0.12812396883964539, 0.14563748240470886, -0.04298100620508194, -0.0010947348782792687, 0.0054798792116343975, -0.06680912524461746, 0.0809115618467331, -0.029855314642190933, -0.05132463574409485, -0.008459098637104034, 0.0509294793009758, 0.0028025249484926462, 0.01454490888863802, -0.04879172891378403, -0.008197221904993057, -0.01909487508237362, 0.07723556458950043, -0.05226379260420799, 0.01866915076971054, -0.062260378152132034, -0.1391327977180481, 0.03714008629322052, -0.10457242280244827, -0.059492822736501694, 0.10969646275043488, -0.025035180151462555, 0.03512132167816162, -0.0345839187502861, -0.01600678637623787, 0.04200784116983414, 0.059989165514707565, 0.018407024443149567, 0.021374301984906197, 0.01920684054493904, 0.13666807115077972, 0.1343601793050766, -0.13526983559131622, -0.060264188796281815, -0.12067379057407379, -0.03664866089820862, 0.0698787271976471, 0.07494251430034637, 0.08682508766651154, -0.036785729229450226, -0.07730342447757721, 0.029355205595493317, -0.03713134303689003, -0.012968206778168678, -0.06745322048664093, 0.034963227808475494, -0.03974561393260956, 0.10022041946649551, 0.06676441431045532, 0.006689975503832102, -0.01676183007657528, 0.02710554376244545], [-0.050430845469236374, 0.029583130031824112, -0.0010567139834165573, -0.020049002021551132, -0.07415121048688889, 0.1732698231935501, -0.09252095222473145, -0.020200343802571297, 0.11086506396532059, -0.05649880692362785, -0.07875959575176239, -0.01675233617424965, 0.0036950402427464724, -0.07008960098028183, 0.13822035491466522, -0.07109463214874268, 0.033205434679985046, 0.03917882218956947, -0.004154232330620289, 0.08378314226865768, 0.04791037365794182, 0.091249480843544, -0.03352301940321922, -0.03883220627903938, -0.031173860654234886, -0.14552851021289825, -0.05222509801387787, 0.053169362246990204, -0.04438168555498123, 0.0760495588183403, 0.012211625464260578, -0.02827649749815464, 0.15302541851997375, -0.06264054775238037, 0.006093288771808147, -0.05584663897752762, -0.05917852371931076, 0.04149682819843292, -0.0369810052216053, -0.025430746376514435, -0.0727744847536087, -0.006124787963926792, 0.11504141986370087, 0.05187024921178818, -0.019495896995067596, -0.04912592098116875, -0.13409964740276337, 0.019236896187067032, -0.051737189292907715, 0.13230612874031067, -0.015497722662985325, 0.11741870641708374, -0.06640025228261948, -0.022972028702497482, -0.13030408322811127, 0.039940156042575836, 0.00712165841832757, -0.016316358000040054, 0.032503604888916016, 0.07238895446062088, -0.05069911479949951, -0.07527998089790344, -0.03198767453432083, -0.1323956847190857], [0.1130715012550354, -0.037339646369218826, 0.06881614774465561, -0.043299295008182526, 0.11303795874118805, -0.10722139477729797, 0.06569670885801315, 0.019679870456457138, -0.011166871525347233, -0.07466978579759598, 0.08321581035852432, 0.03494730591773987, -0.004626607522368431, -0.0637441873550415, -0.03200281038880348, 0.09215633571147919, 0.008594993501901627, -0.03482187166810036, -0.03883069381117821, -0.06353539228439331, 0.03434522822499275, -0.0003506884095259011, 0.014995234087109566, 0.029617436230182648, -0.011167092248797417, -0.01268228143453598, -0.011891258880496025, 0.037211667746305466, -0.07100991904735565, 0.00927597377449274, -0.012984467670321465, 0.032425444573163986, -0.11527109146118164, -0.09460554271936417, 0.023715751245617867, -0.03809959813952446, 0.009765136055648327, -0.039172329008579254, -0.042191434651613235, -0.04192863404750824, 0.011582834646105766, -0.014706596732139587, 0.0852394849061966, -0.04124540835618973, -0.031104616820812225, 0.08515353500843048, -0.05950752645730972, -0.023522526025772095, -0.06543496996164322, 0.013380714692175388, -0.07436686754226685, -0.016177399083971977, -0.010460138320922852, -0.018736757338047028, -0.04435637965798378, 0.022042781114578247, 0.08464135974645615, 0.058855827897787094, 0.08135267347097397, -0.12587258219718933, 0.03471286967396736, 0.007072166074067354, -2.6680081646190956e-05, 0.08992769569158554], [-0.1306476593017578, 0.025085629895329475, -0.11648087203502655, 0.14716275036334991, 0.034407421946525574, 0.14686134457588196, 0.08078695833683014, 0.004239300265908241, -0.06777939200401306, 0.12872985005378723, -0.08741714805364609, -0.09285945445299149, -0.0014640178997069597, -0.01249631680548191, 0.10215586423873901, -0.013195335865020752, -0.045682843774557114, -0.04507885128259659, 0.034571707248687744, -0.07853531092405319, -0.01931985467672348, -0.00908467173576355, -0.010186836123466492, -0.05771321430802345, 0.055421993136405945, -0.10481764376163483, 0.054837290197610855, -0.007891093380749226, -0.11397648602724075, -0.09384949505329132, 0.07714764028787613, 0.006473754066973925, -0.017568860203027725, 0.015401008538901806, -0.0576532706618309, -0.021800735965371132, -0.02554047293961048, 0.036045584827661514, 0.08979363739490509, -0.059565842151641846, -0.0572856143116951, -0.0847993791103363, 0.03244611248373985, 0.03832574561238289, 0.10436619818210602, 0.037883318960666656, -0.08324737846851349, -0.0953952893614769, 0.10292785614728928, 0.061628032475709915, 0.05509251356124878, 0.07478927820920944, -0.093318410217762, -0.02708817832171917, -0.09950199723243713, 0.0516820065677166, 0.017257701605558395, 0.026262251660227776, 0.012774456292390823, -0.03384069353342056, -0.03139205649495125, 0.05156441032886505, 0.08508738875389099, -0.1264629065990448], [-0.08139815181493759, -0.011118217371404171, 0.048206694424152374, -0.010905012488365173, -0.0004518469504546374, 0.06432118266820908, -0.10287865996360779, 0.005198638420552015, 0.03182656317949295, 0.0731394961476326, -0.014375966973602772, -0.031320132315158844, -0.0015569449169561267, -0.022310741245746613, 0.004481651354581118, -0.0013262085849419236, -0.077413409948349, 0.0011574267409741879, 0.003670056350529194, 0.016263574361801147, 0.04017290845513344, -0.013737302273511887, 0.006048949901014566, 0.05126055330038071, 0.07921411097049713, -0.00012782239355146885, -0.03755687177181244, -0.03211134299635887, -0.08269751071929932, -0.004277115687727928, -0.06423033773899078, -0.11977861076593399, 0.004937272053211927, 0.006615843623876572, 0.08504852652549744, -0.013761022128164768, 0.015681251883506775, 0.017559245228767395, -0.04902217164635658, -0.003746143775060773, 0.03915050998330116, 0.0039049573242664337, 0.02069595456123352, 0.07000616192817688, -0.0509173683822155, 0.027930958196520805, 0.012903532013297081, -0.008861911483108997, -0.005242575891315937, 0.009868350811302662, 0.04700515791773796, 0.002520968671888113, 0.02955937571823597, -0.001893622917123139, -0.04563884437084198, 0.04825075715780258, 0.014858299866318703, -0.0018644962692633271, -0.11817385256290436, 0.06676937639713287, 0.008810755796730518, -0.01337892934679985, 0.0468732975423336, 0.019168591126799583], [0.05407712981104851, -0.01972987875342369, 0.05602915585041046, -0.06823275983333588, -0.0057726455852389336, -0.010035748593509197, 0.021149128675460815, -0.0005053991917520761, 0.008476722054183483, -0.04166950657963753, -0.03198442608118057, -0.024597851559519768, 0.05393689498305321, 0.023344306275248528, -0.01348639652132988, -0.03199233487248421, -0.011038648895919323, -0.06829223036766052, -0.025531673803925514, 0.03134412690997124, 0.03731813654303551, -0.037996020168066025, 0.006885780021548271, -0.0535760335624218, 0.07209804654121399, -0.019116265699267387, -0.009772427380084991, 0.004828545730561018, -0.012805413454771042, 0.049432989209890366, -0.034857332706451416, -0.037531156092882156, -0.016083015128970146, 0.02597237378358841, -0.007978069595992565, 0.016310464590787888, -0.025855401530861855, 0.04137549549341202, -0.001521322876214981, 0.04174577817320824, -0.07118784636259079, -0.01172958966344595, 0.04358747601509094, 0.09528828412294388, -0.018760651350021362, 0.03091716580092907, 0.03797260299324989, 0.033187415450811386, 0.02194048836827278, 0.030878696590662003, -0.012527440674602985, -0.04785510152578354, 0.06946786493062973, 0.004721516743302345, 0.0572926327586174, 0.03786669299006462, -0.030052516609430313, -0.027173807844519615, 0.0577179379761219, -0.03575434535741806, 0.018267596140503883, 0.008144879713654518, 0.0014282490592449903, 0.06961335241794586], [0.030158480629324913, 0.02906043827533722, 0.03219641000032425, -0.02083401568233967, 0.027287660166621208, -0.023795396089553833, -0.027791446074843407, -0.01709611341357231, 0.0313713364303112, 0.011898092925548553, 0.015978073701262474, -0.007823515683412552, -0.027910560369491577, -0.02022729255259037, -0.0059201386757195, 0.025408245623111725, 0.01799541711807251, 0.008274843916296959, -0.005152860190719366, -0.05424731597304344, -0.0021311365999281406, 0.08862630277872086, 0.008976895362138748, 0.008779861964285374, -0.02903025969862938, -0.010492012836039066, 0.021184472367167473, 0.015555006451904774, 0.009063185192644596, 0.00033711985452100635, 0.08634845167398453, 0.043838776648044586, -0.07227297872304916, -0.06855644285678864, 0.0572107657790184, 0.0042005483992397785, -0.007898326963186264, 0.020629864186048508, -0.0078041027300059795, 0.014331955462694168, 0.025069914758205414, 0.009100382216274738, -0.02741261012852192, -0.033583272248506546, 0.09108313173055649, -0.057590603828430176, 0.02958855777978897, -0.00802155677229166, -0.027548734098672867, -0.0070387227460742, -0.05092272162437439, 0.02839476801455021, 0.007791445124894381, 0.015301563777029514, 0.013464413583278656, -0.02683490328490734, -0.026304567232728004, 0.02596849948167801, -0.06613115966320038, -0.08544252812862396, 0.0011141267605125904, 0.010545742698013783, -0.017843885347247124, 0.03442513570189476], [0.09132178127765656, -0.050509288907051086, -0.05475683510303497, 0.017391353845596313, -0.015966955572366714, 0.054686710238456726, -0.08268743008375168, -0.07645254582166672, -0.1257319450378418, -0.12093865871429443, 0.05874668434262276, -0.06563078612089157, -0.005261285696178675, 0.05900717154145241, -0.07664348185062408, 0.044675063341856, 0.05729226768016815, 0.03275121748447418, -0.01663048006594181, 0.0022769991774111986, 0.04458602890372276, -0.04960430786013603, 0.0441596619784832, -0.010125710628926754, 0.014733540825545788, 0.05162086337804794, -0.04515349864959717, -0.07799799740314484, -0.10246092081069946, -0.08598285168409348, -0.0034655912313610315, -0.05623532831668854, 0.08528536558151245, -0.043995004147291183, -0.10014564543962479, 0.04254792630672455, -0.03240112587809563, -0.010915505699813366, -0.06117163598537445, 0.028280172497034073, 0.020580366253852844, 0.030904674902558327, 0.07399308681488037, 0.04266085848212242, 0.12501171231269836, -0.05476047471165657, -0.024906804785132408, 0.05317356809973717, -0.12216407060623169, -0.06455706059932709, -0.02756624110043049, 0.0025697785895317793, 0.06702175736427307, -0.05049406737089157, 0.11959787458181381, 0.022112799808382988, 0.09262461960315704, 0.07767672836780548, 0.024927424266934395, -0.013395424000918865, -0.0009692440507933497, -0.03612697869539261, -0.04712250828742981, 0.0914805456995964], [-0.045201536267995834, 0.04538871347904205, -0.007176076527684927, -0.08900769799947739, 0.048063237220048904, 0.006522045936435461, 0.052883148193359375, 0.044198326766490936, 0.047311361879110336, -0.04244218394160271, 0.02157963253557682, 0.005270030349493027, 0.029605954885482788, -0.07706032693386078, 0.0023948552552610636, -0.02673589624464512, 0.011788616888225079, 0.03171807527542114, -0.030965199694037437, 0.024439988657832146, 0.030687693506479263, 0.0889352485537529, -0.012958741746842861, -0.06573352962732315, -0.09158606827259064, -0.015984976664185524, 0.02554515190422535, 0.03359225392341614, 0.01350619737058878, 0.027093714103102684, 0.09584328532218933, -0.010727633722126484, 0.0348312184214592, 0.010373054072260857, 0.045657020062208176, -0.0954761952161789, 0.017659535631537437, -0.0020512398332357407, -0.06523054093122482, 0.006902956869453192, 0.04779293015599251, 0.024470016360282898, 0.021558314561843872, -0.01362290233373642, -0.07406963407993317, 0.043682076036930084, 0.06125800311565399, 0.0012523483019322157, 0.043619222939014435, 0.022141793742775917, -0.01016698032617569, -0.0639733150601387, -0.027616102248430252, -0.0037244015838950872, -0.06171432137489319, 0.022521214559674263, 0.050487976521253586, 0.026533285155892372, 0.053832944482564926, -0.05179339274764061, -0.0035142588894814253, -0.022087104618549347, 0.05923495069146156, -0.01920035108923912], [0.03861512616276741, -0.04506892338395119, -0.05797230079770088, 0.033915191888809204, -0.07046671956777573, 0.029459524899721146, 0.020772170275449753, -0.027469823136925697, 0.01974574662744999, 0.052040908485651016, 0.02564859762787819, -0.02002752013504505, -0.015234125778079033, -0.04194258898496628, 0.047661688178777695, -0.06813014298677444, 0.02904784493148327, 0.0026674754917621613, -0.05351170897483826, -0.05044671148061752, 0.007771786767989397, -0.11573578417301178, -0.024984287098050117, -0.02350768819451332, -0.0009652938460931182, -0.0649133026599884, 0.06853421777486801, -0.0001558531221235171, -0.052854280918836594, -0.023858221247792244, -0.05939863249659538, 0.015279274433851242, -0.02903621643781662, -0.021297641098499298, 0.09072721749544144, 0.008699779398739338, -0.08517425507307053, 0.018149325624108315, 0.03309112787246704, 0.036561645567417145, 0.023144176229834557, -0.022912664338946342, -0.03596818819642067, -0.06571266055107117, -0.10121762752532959, -0.022637156769633293, 0.021781250834465027, 0.0005847262218594551, 0.005411631427705288, 0.014458782970905304, 0.031261615455150604, -0.006711550056934357, -0.0399588868021965, 0.007232241798192263, -6.567763193743303e-05, -0.02458188124001026, 0.004030347336083651, -0.029566150158643723, -0.04406864941120148, -0.008821140043437481, 0.0374436229467392, 0.03171981871128082, -0.04700770601630211, -0.010781867429614067], [-0.0412181094288826, 0.016678454354405403, -0.05963080748915672, 0.0010487830732017756, -0.03196016699075699, 0.0034033465199172497, -0.016389353200793266, 0.021592454984784126, -0.03482849895954132, 0.08708307147026062, 0.040941715240478516, 0.005567948333919048, 0.005250648595392704, -0.06156506761908531, 0.03034054860472679, -0.032452505081892014, -0.04797681048512459, 0.007702312897890806, 0.012114167213439941, -0.0014647183706983924, 0.03734666854143143, 0.029193175956606865, -0.02908799611032009, -0.04071946442127228, 0.05016469210386276, -0.03638319671154022, 0.028308410197496414, 0.036481719464063644, 0.05979866161942482, 0.01901858113706112, 0.07084061205387115, -0.03275744989514351, -0.059779971837997437, 0.004346818663179874, 0.05172068998217583, -0.013559271581470966, 0.02699798345565796, -0.026440203189849854, 0.05100671574473381, 0.016186662018299103, 0.0495750866830349, 0.008234343491494656, 0.0007019314216449857, -0.009805981069803238, -0.0566057413816452, 0.03899344056844711, 0.08957505971193314, -0.000175581342773512, -0.034635990858078, 0.004620591178536415, -0.018728602677583694, -0.011996871791779995, 0.0018170183757320046, 0.005439684726297855, 0.02020304650068283, 0.020377306267619133, -0.06401675939559937, 0.05214238911867142, -0.009414488449692726, 0.04932301118969917, -0.05464870482683182, 0.011643622070550919, 0.023572714999318123, -0.07974961400032043], [0.106801338493824, 0.08879689872264862, -0.02014934830367565, 0.03925919905304909, 0.05202290788292885, 0.02005719393491745, 0.06309756636619568, -0.12882085144519806, -0.05045254901051521, -0.016210662201046944, -0.025970470160245895, 0.08612418174743652, 0.006303324829787016, 0.048760026693344116, -0.11134334653615952, 0.00023516172950621694, 0.11483806371688843, 0.038423556834459305, -0.011240486986935139, 0.012706020846962929, 0.04671551659703255, -0.12641923129558563, -0.0020149832125753164, 0.03293377906084061, -0.025538455694913864, -0.03266286849975586, -0.0058039771392941475, 0.013650767505168915, -0.11779438704252243, -0.005829899106174707, 0.08096375316381454, 0.0851619765162468, -0.11042040586471558, -0.053869377821683884, -0.023413458839058876, -0.05919540673494339, -0.045954808592796326, -0.07425427436828613, 0.003980285953730345, -0.007078619208186865, -0.05766889825463295, 0.09740875661373138, 0.011380568146705627, -0.026322267949581146, -0.02410501427948475, -0.008650099858641624, 0.05594111233949661, 0.06249428540468216, 0.0013217400992289186, 0.04776504635810852, -0.03657865896821022, -0.039571646600961685, 0.11263303458690643, 0.050259046256542206, 0.1228431910276413, -0.11698009818792343, 0.019989266991615295, 0.006821895949542522, 0.11259300261735916, -0.09678217023611069, -0.014525541104376316, 0.058900877833366394, -0.037849292159080505, 0.024985583499073982], [0.02591313049197197, -0.00762422289699316, -0.06731997430324554, -0.028705941513180733, -0.05028650537133217, 0.04642380401492119, -0.004983896855264902, -0.004942163359373808, -0.0629514753818512, 0.03848442807793617, -0.026220839470624924, -0.0161189716309309, 0.040399499237537384, 0.05598080903291702, -0.04254493489861488, -0.00993882305920124, -0.007174767553806305, 0.02081299014389515, 0.0495043583214283, -0.047437652945518494, -0.033109746873378754, -0.009002862498164177, 0.008712989278137684, -0.019406454637646675, 0.05203124135732651, 0.021276477724313736, -0.02246289700269699, 0.012933912687003613, -0.0022627406287938356, -0.04859231039881706, 0.043411992490291595, 0.04529727250337601, -0.07261926680803299, -0.001629415899515152, -0.061328768730163574, -0.005729902535676956, 0.04218059033155441, -0.009390330873429775, -0.010558388195931911, -0.09850651025772095, -0.0019319329876452684, 0.0007801445899531245, 0.04972042515873909, 0.06708309799432755, 0.011984323151409626, 0.030863536521792412, -0.04041615128517151, 0.015335734002292156, -0.014989395625889301, 0.006044648587703705, 0.02751738391816616, 0.011527151800692081, 0.03228047490119934, -0.03567960113286972, -0.054629284888505936, -0.003100555157288909, 0.024567456915974617, -0.055976539850234985, 0.07253117114305496, -0.03519732132554054, 0.011064120568335056, 0.02252793312072754, -0.009357725270092487, -0.003790792776271701], [0.07859925925731659, -0.1387166827917099, -0.10600676387548447, 0.02638615295290947, 0.032460737973451614, 0.1653883457183838, -0.04219970107078552, 0.16963055729866028, -0.03147434443235397, -0.017559098079800606, -0.033945925533771515, 0.03672599419951439, -0.01642276719212532, 0.08803696930408478, 0.03810764476656914, -0.09954530745744705, -0.09835419803857803, 0.02828884683549404, 0.042315345257520676, 0.07117341458797455, -0.05044615641236305, -0.12217088788747787, 0.016831496730446815, 0.05709909647703171, -0.05392732098698616, -0.12742911279201508, 0.044732775539159775, -0.0817117989063263, -0.019410263746976852, -0.08482733368873596, -0.09677644073963165, -0.06076047196984291, 0.09686040133237839, 0.07723773270845413, -0.05248109623789787, -0.06450800597667694, -0.013255339115858078, 0.08935374766588211, 0.04333588108420372, 0.06917733699083328, -0.0975772961974144, -0.08919591456651688, 0.042514681816101074, 0.14011764526367188, -0.05463510379195213, -0.11163625121116638, 0.05287187546491623, -0.06787765771150589, 0.12462493032217026, 0.011451702564954758, -0.004905203357338905, 0.0224717129021883, -0.012391739524900913, 0.08392775058746338, 0.02621164172887802, 0.014139516279101372, -0.07073556631803513, -0.03190590813755989, 0.024988871067762375, 0.005043058656156063, 0.1095014214515686, -0.08615775406360626, -0.060943856835365295, 0.05961659923195839], [-0.03496973216533661, 0.02186318300664425, 0.055632252246141434, 0.009096883237361908, 0.013913392089307308, -0.0803244560956955, -0.0010723298182711005, -0.03659600391983986, 0.01334436982870102, -0.11805099248886108, -0.0071428450755774975, -0.05137977376580238, 0.043841585516929626, 0.08835476636886597, 0.009564838372170925, -0.05871519446372986, 0.04858805984258652, -0.017784740775823593, -0.011955991387367249, -0.0296180322766304, -0.006895160768181086, -0.04606979712843895, 0.009294810704886913, -0.020057810470461845, -0.004170411266386509, 0.0018608587561175227, -0.03366686776280403, -0.019027186557650566, -0.04210292547941208, 0.009369785897433758, -0.02350405789911747, -0.043551005423069, 0.019429607316851616, -0.009807989932596684, -0.0572420135140419, -0.010560420341789722, -0.021069148555397987, -0.029644474387168884, -0.010508625768125057, -0.020239602774381638, 0.03086361661553383, -0.07036326825618744, -0.08779256790876389, 0.04588194563984871, -0.04688921198248863, -0.06048871949315071, -0.05164869502186775, -0.0011084901634603739, -0.02560669742524624, -0.0002182228781748563, -0.02195136249065399, 0.050110407173633575, -0.02934778667986393, 0.010257177986204624, -0.03146015852689743, -0.03329667076468468, -0.023832812905311584, 0.009363502264022827, 0.03966880962252617, -0.04554830119013786, -0.07641737908124924, -0.0377044640481472, 0.02322220616042614, -0.04347947984933853], [0.03916444629430771, 0.027990423142910004, -0.06209349259734154, -0.09935799241065979, 0.12099675834178925, -0.15300747752189636, 0.01936001144349575, 0.042818788439035416, 0.012876631692051888, 0.047786127775907516, 0.08924999833106995, 0.034751299768686295, 0.039556246250867844, -0.05162273347377777, 0.01757916994392872, 0.05881695821881294, 0.0798088014125824, -0.1041155681014061, -0.05494910478591919, -0.03274068608880043, -0.11145351082086563, -0.0368104949593544, -0.00482024485245347, 0.04542367160320282, 0.09077846258878708, 0.05378350242972374, -0.07683321833610535, -0.06253476440906525, -0.09201665967702866, 0.08596161752939224, -0.06420346349477768, -0.07849504053592682, -0.0927390307188034, 0.06791288405656815, 0.04980304092168808, 0.13925717771053314, 0.061153605580329895, 0.0820440798997879, 0.02480310946702957, -0.023192476481199265, -0.03547307848930359, -0.056849248707294464, 0.06438270956277847, 0.10463526099920273, -0.039498887956142426, -0.027628403156995773, 0.03092041052877903, 0.0016527378465980291, 0.026806892827153206, 0.037825457751750946, -0.06745705753564835, -0.03643989562988281, 0.0006637009209953249, 0.027855288237333298, 0.08524356037378311, -0.15746310353279114, 0.04947792738676071, 0.10765974968671799, -0.050422169268131256, -0.06746014207601547, 0.09492874890565872, 0.1305183321237564, -0.03224506601691246, 0.09550260007381439], [0.004202982876449823, 0.04338895529508591, -0.04248284548521042, -0.14911334216594696, 0.1450415998697281, -0.14657717943191528, 0.07785821706056595, -0.09370540827512741, -0.11951799690723419, 0.04126167297363281, 0.053990911692380905, -0.04047330468893051, 0.0874054953455925, -0.055009692907333374, -0.03336767479777336, 0.13155241310596466, 0.0716407373547554, -0.045620083808898926, 0.07587628811597824, 0.04253494367003441, -0.019327307119965553, -0.07335179299116135, 0.0486435629427433, 0.05659099668264389, 0.12747175991535187, 0.1622239351272583, -0.0466633178293705, -0.03902602940797806, 0.06893638521432877, 0.016828151419758797, 0.08321838080883026, 0.017286259680986404, 0.04451393336057663, -0.022034667432308197, -0.028144773095846176, -0.08136805891990662, 0.04164912551641464, -0.0997946485877037, 0.0023817785549908876, -0.0846208930015564, 0.1378983110189438, 0.058758240193128586, -0.07806748151779175, -0.07343478500843048, 0.13293230533599854, 0.1231282651424408, -0.021439604461193085, 0.08523635566234589, -0.031114360317587852, -0.07543265074491501, -0.1294504553079605, 0.012336157262325287, 0.15689119696617126, -0.07638560980558395, 0.11078184843063354, -0.06713905930519104, 0.03989812359213829, 0.1056070476770401, 0.017812535166740417, -0.2198081910610199, -0.014476502314209938, 0.11465219408273697, 0.015715109184384346, 0.04973773658275604], [-0.14454998075962067, -0.08444168418645859, 0.06463120132684708, 0.07470835000276566, -0.02982700616121292, 0.17964649200439453, -0.00022148930293042213, -0.009752148762345314, 0.05142294988036156, -0.08126363903284073, -0.11891268938779831, 0.05433690920472145, -0.03457779809832573, 0.049448296427726746, 0.12704364955425262, -0.06565065681934357, -0.02919509820640087, 0.10130689293146133, 0.03308622166514397, 0.06724538654088974, -0.03851843252778053, 0.05793384462594986, -0.01402956247329712, 0.05306011065840721, 0.004719428718090057, -0.025926293805241585, -0.0895259752869606, 0.033898983150720596, 0.007571659982204437, -0.0695987269282341, 0.012975271791219711, -0.08427631109952927, -0.04413264989852905, 0.057573046535253525, 0.09365896135568619, -0.0387788750231266, -0.016660695895552635, -0.05263746902346611, -0.0024997598957270384, 0.035418715327978134, -0.08607625961303711, -0.037386488169431686, 0.026511089876294136, 0.08135804533958435, 0.012520592659711838, 0.032047372311353683, -0.06267258524894714, -0.0471000038087368, 0.01874474808573723, 0.11596409231424332, 0.04635488614439964, 0.12370762228965759, 0.028282715007662773, 0.06824464350938797, -0.12093409150838852, -0.004722941666841507, 0.03000091388821602, 0.0018983804620802402, -0.005204656161367893, -0.016203124076128006, 0.08052022755146027, -0.02051522769033909, -0.03608405217528343, 0.08167612552642822], [-0.06794767081737518, -0.07626193016767502, -0.06710381805896759, 0.025930359959602356, 0.035067975521087646, 0.013461863622069359, 0.07626684010028839, 0.07969849556684494, 0.05300562083721161, -0.05666918307542801, 0.005473047029227018, 0.039433009922504425, 0.018503133207559586, 0.07230374217033386, 0.06572147458791733, -0.11575016379356384, 0.018554244190454483, -0.04462210461497307, 0.03934371471405029, -0.07690662890672684, 0.01871790736913681, -0.013262058608233929, 0.006248726509511471, -0.026395386084914207, 0.04643071070313454, -0.1199566051363945, -0.0536426305770874, -0.018179399892687798, -0.08038610965013504, -0.02263338677585125, 0.06762606650590897, -0.05602846294641495, -0.015513330698013306, 0.04707406461238861, 0.07517582178115845, -0.013769662007689476, 0.06183772534132004, 0.024682365357875824, -0.017244448885321617, -0.01016394142061472, 0.027330024167895317, -0.036021988838911057, 0.13666962087154388, 0.019002070650458336, -0.08176536858081818, -0.04700231924653053, 0.00494956411421299, -0.002068392001092434, -0.01794332079589367, 0.03944782167673111, -0.038403477519750595, 0.028821192681789398, -0.004041932988911867, -0.029368562623858452, -0.057521604001522064, 0.05058614909648895, -0.11933788657188416, -0.04822871461510658, 0.02680840715765953, 0.11053809523582458, 0.0330837108194828, -0.0022075350861996412, 0.033499278128147125, -0.08341813832521439], [-0.06559216231107712, 0.08524239808320999, -0.03848223388195038, -0.06617263704538345, -0.019423123449087143, -0.056777916848659515, -0.016149351373314857, -0.07433175295591354, -0.05486321449279785, 0.0017422122182324529, -0.05701805651187897, -0.02557688020169735, 0.0286400206387043, 0.02452138625085354, -0.04855525493621826, -0.00870604533702135, -0.022752966731786728, -0.04192808270454407, 0.009552537463605404, 0.00464831804856658, -0.03835444152355194, -0.08294273912906647, 0.019032247364521027, 0.07639061659574509, -0.026327405124902725, -0.06397834420204163, 0.028502685949206352, 0.07780801504850388, 0.019375165924429893, -0.0678286924958229, 0.012654832564294338, 0.03484484180808067, -0.07799793034791946, 0.002255568513646722, -0.001303427154198289, -0.020113565027713776, 0.018366539850831032, -0.05755135416984558, -0.002215254819020629, 0.032667286694049835, -0.07449688762426376, 0.06259171664714813, 0.011920247226953506, 0.03308219090104103, 0.046331390738487244, 0.051405470818281174, -0.030622905120253563, 0.03838561102747917, -0.02253597602248192, 0.05180428549647331, -0.028998248279094696, -0.029787475243210793, -0.04790669307112694, -0.01863798499107361, 0.054141342639923096, -0.00330592249520123, 0.00776703841984272, -0.04074791446328163, -0.0020013872999697924, -0.031498782336711884, 0.015840275213122368, -0.010402798652648926, 0.015150168910622597, 0.02176899090409279], [0.014870072714984417, -0.09056343883275986, -0.05470845848321915, 0.0882159098982811, -0.05057773366570473, 0.1414995938539505, -0.015665758401155472, -0.006769493222236633, -0.05548720806837082, -0.10104034841060638, -0.12487520277500153, -0.08167774975299835, -0.03701475262641907, -0.030352815985679626, -0.04358166828751564, 0.03357180207967758, 0.07082588970661163, 0.08567237108945847, -0.0514967143535614, 0.018067553639411926, 0.005442734807729721, -0.09098377823829651, -0.0752556249499321, 0.06577816605567932, 0.09303506463766098, -0.06273406744003296, 0.025998780503869057, -0.018462486565113068, 0.07150240242481232, 0.08375967293977737, 0.06816565990447998, -0.06306477636098862, -0.09488112479448318, 0.11218217760324478, 0.10844984650611877, -0.01870747283101082, 0.008070374839007854, -0.09814804792404175, 0.08894474804401398, -0.06490670889616013, 0.07761947065591812, 0.0005046472069807351, 0.058751046657562256, 0.06302361935377121, -0.11543087661266327, 0.021373769268393517, 0.03334546834230423, -0.11535608768463135, 0.11377694457769394, -0.04425080493092537, 0.08402246236801147, 0.11324192583560944, 0.055691465735435486, 0.03063618205487728, 0.010987767949700356, 0.09834646433591843, -0.051336366683244705, -0.0945243090391159, -0.08816538006067276, 0.0771058201789856, 0.03959213197231293, -0.07336583733558655, -0.02913546748459339, -0.024303417652845383], [0.0893484428524971, 0.09389019757509232, -0.07288192957639694, -0.11160638928413391, 0.056106533855199814, 0.05124732479453087, 0.06733038276433945, 0.0010739908320829272, -0.12006983906030655, 0.004160426091402769, 0.09357045590877533, -0.0361064150929451, 0.014425840228796005, 0.0386027917265892, 0.048312705010175705, -0.02084203064441681, -0.05746025964617729, -0.008766640909016132, 0.04727473109960556, -0.0497247576713562, -0.016785157844424248, 0.09863761067390442, 0.03827660530805588, 0.0670204684138298, -0.02990090288221836, 0.03052821382880211, 0.01857854053378105, 0.010440952144563198, -0.08456798642873764, -0.07856569439172745, -0.06748426705598831, 0.04438395798206329, -0.04928632825613022, 0.08024884015321732, -0.05816688761115074, 0.06281822919845581, -0.017039768397808075, 0.07331680506467819, -0.03596996143460274, -0.021247774362564087, -0.07980848848819733, -0.04420065879821777, 0.051646649837493896, 0.015120566822588444, -0.0901101678609848, 0.10504646599292755, 0.0760088860988617, 0.009157822467386723, -0.018323464319109917, -0.08394540846347809, -0.04146689176559448, 0.01716836914420128, -0.013420301489531994, 0.031238682568073273, 0.01924101822078228, -0.03967796266078949, 0.006925898604094982, 0.023321092128753662, 0.09276635944843292, -0.11337684094905853, 0.09056966006755829, -0.035405922681093216, 0.05581267178058624, 0.10322150588035583], [-0.08224872499704361, -0.06615772843360901, 0.009263098239898682, -0.11680955439805984, 0.0758533850312233, -0.06864537298679352, -0.09362971782684326, -0.10430429130792618, -0.028589412569999695, -0.1139853373169899, 0.03839603066444397, 0.08466478437185287, 0.10359606891870499, 0.08149813115596771, -0.01838577352464199, 0.0951586663722992, 0.04057661443948746, -0.03738412633538246, -0.09666350483894348, -0.04262065514922142, -0.04581794887781143, 0.11283238977193832, 0.058187294751405716, -0.056492775678634644, 0.10249088704586029, 0.1466730386018753, 0.03245149552822113, -0.026918742805719376, 0.015691092237830162, -0.0400589294731617, -0.011779788881540298, -0.07438265532255173, -0.03153141215443611, 0.06862356513738632, 0.06401706486940384, -0.015737075358629227, 0.0017315129516646266, -0.1011272445321083, 0.02195952832698822, 0.07958224415779114, 0.10055312514305115, 0.07191304862499237, 0.03812804073095322, -0.02822374925017357, 0.04355505853891373, -0.02904076874256134, 0.10047312080860138, -0.054076287895441055, 0.04499219357967377, -0.05528273060917854, -0.0784328281879425, -0.09922359138727188, 0.10950679332017899, 0.023890750482678413, 0.08375415951013565, -0.09008698910474777, 0.1410674899816513, 0.03581463545560837, 0.02221198007464409, -0.040884874761104584, 0.09449762850999832, 0.06540190428495407, 0.08867836743593216, 0.0744570642709732], [0.06894494593143463, -0.03847189620137215, 0.013236358761787415, -0.07451053708791733, 0.06027105078101158, 0.060249391943216324, 0.004916147794574499, 0.03742644563317299, -0.07241277396678925, 0.03640418127179146, 0.007662891410291195, 0.019261332228779793, -0.031068751588463783, -0.06866511702537537, 0.03707573190331459, 0.08136598020792007, -0.013816900551319122, -0.01197824813425541, -0.001901462790556252, -0.015269184485077858, 0.01896926946938038, -0.042765725404024124, -0.003840079065412283, -0.07874053716659546, -0.001976657658815384, 0.031258393079042435, 0.05005699768662453, -0.0721721202135086, -0.06292755156755447, 0.023131238296628, -0.0521826446056366, -0.03462950512766838, -0.04114765673875809, -0.0565766841173172, -0.03649298474192619, 0.019034069031476974, -9.494874393567443e-05, 0.02757466584444046, -0.026949264109134674, -0.05818495154380798, 0.05571913719177246, 0.04009313881397247, 0.08334297686815262, 0.03334357962012291, 0.06188536807894707, -0.11169958859682083, -0.06538072973489761, -0.009262796491384506, 0.00698341429233551, 0.06582842022180557, 0.023363836109638214, -0.06476052105426788, -0.03837994113564491, -0.03650126978754997, -0.08198918402194977, -0.04599136859178543, -0.019655928015708923, -0.04647406190633774, -0.11783837527036667, -0.07133534550666809, 0.06052012741565704, -0.03667490556836128, -0.005021748133003712, 0.10203427076339722], [0.04020106792449951, -0.037685640156269073, -0.0037288630846887827, 0.04313405975699425, 0.023925159126520157, 0.0035692218225449324, 0.05262739956378937, -0.0370296947658062, 0.03353980928659439, 0.032586727291345596, 0.005006115883588791, -0.06383460760116577, -0.05686517432332039, 0.01820073276758194, 0.05662858486175537, -0.10886145383119583, -0.011855145916342735, 0.04184051975607872, 0.07268261164426804, -0.09554304927587509, -0.04460003226995468, -0.07243363559246063, 0.03799113258719444, -0.016787372529506683, -0.0029491931200027466, -0.07047859579324722, -0.05848945304751396, -0.01363989058881998, 0.0639447569847107, 0.01573682203888893, -0.100130595266819, -0.015537390485405922, 0.10697173327207565, 0.06129435449838638, 0.08794146776199341, 0.06152092665433884, 0.02415306679904461, -0.03236587718129158, 0.023582037538290024, 0.08619298785924911, -0.10643492639064789, 0.016588006168603897, -0.028439955785870552, 0.12425597012042999, -0.0652364045381546, -0.0469379723072052, 0.041089072823524475, -0.05271971598267555, -0.023567141965031624, 0.019610511139035225, -0.027729501947760582, -0.06049233675003052, 0.060890357941389084, -0.00802483782172203, 0.012481758370995522, 0.0764068141579628, -0.03895273804664612, -0.03759802505373955, -0.04996797442436218, 0.06560608744621277, 0.13829727470874786, 0.04159661754965782, -0.029891299083828926, 0.0782008171081543], [-0.08754483610391617, -0.06277052313089371, 0.03610159829258919, 0.08881302177906036, -0.061079349368810654, 0.06015679985284805, 0.0026630787178874016, -0.029561107978224754, -0.09402166306972504, -0.009486502036452293, -0.0432555116713047, 0.07197408378124237, -0.032057985663414, -0.03946566581726074, 0.07734391838312149, -0.094182088971138, 0.04014023765921593, 0.02892465889453888, -0.014163666404783726, -0.0062623643316328526, -0.03778327256441116, -0.04201245307922363, -0.03129574656486511, -0.016776645556092262, 0.015370871871709824, 0.044052403420209885, 0.011940378695726395, 0.063480906188488, 0.04206753894686699, 0.014818783849477768, -0.007543907500803471, -0.031818486750125885, -0.08408205211162567, -0.04374967887997627, -0.009620601311326027, -0.014599266462028027, 0.04621461033821106, 0.027044538408517838, 0.05739004164934158, 0.0044434466399252415, -0.052603527903556824, -0.05325207859277725, 0.008479525335133076, -0.01832188293337822, -0.01625012792646885, 0.03238840773701668, -0.002204074990004301, 0.024264061823487282, 0.027704449370503426, -0.038750484585762024, 0.08661802113056183, 0.05748463794589043, -0.041803110390901566, 0.04699739068746567, 0.0009980170289054513, -0.06343884766101837, -0.1021701768040657, 0.02407860942184925, -0.020123852416872978, -0.04701472818851471, -0.034578997641801834, -0.027169765904545784, -0.0299371350556612, -0.07415458559989929], [-0.08581756055355072, -0.05141274258494377, -0.05285239219665527, 0.07288127392530441, 0.016935920342803, 0.02535133622586727, -0.020983945578336716, 0.003448865143582225, -0.01821071282029152, 0.040858421474695206, -0.018278352916240692, -0.014611730352044106, -0.035596366971731186, -0.051086992025375366, -0.014326146803796291, 0.008341718465089798, -0.02078608050942421, 0.00687958300113678, 0.0007935363100841641, 0.009615116752684116, -0.0370868481695652, 0.004596305079758167, 0.002752552041783929, -0.017276698723435402, 0.06727313995361328, 0.024472346529364586, -0.014605211094021797, -0.03536783531308174, -0.01119760237634182, -0.04348253458738327, -0.0740143284201622, 0.004791420418769121, -0.054256316274404526, -0.045719750225543976, -0.061627794057130814, 0.01997598074376583, -0.010090618394315243, 0.04146547615528107, -0.040065426379442215, -0.030407531186938286, -0.0582289882004261, 0.013790049590170383, -0.05035708472132683, 0.04300439730286598, -0.038098979741334915, 0.05514608696103096, 0.023268086835741997, -0.006559714674949646, -0.02226606197655201, -0.021425554528832436, -0.045836616307497025, 0.05302107706665993, 0.0354764498770237, -0.08872289955615997, 0.027766330167651176, 0.009180443361401558, -0.03052516281604767, 0.017492305487394333, -0.07945562154054642, 0.07251739501953125, 0.02366633526980877, -0.01236475259065628, 0.04554251208901405, -0.009419680573046207], [-0.0037819405551999807, -0.06106436625123024, -0.009265881963074207, 0.011723112314939499, -0.03288709744811058, 0.00863153487443924, -0.007153313606977463, -0.054453346878290176, 0.06873204559087753, 0.003710966557264328, 0.053434066474437714, 0.027772247791290283, -0.01711161807179451, -0.03364980220794678, -0.05329575762152672, -0.022160951048135757, 0.09343423694372177, -0.08554966747760773, 0.08225414901971817, -0.0026455491315573454, 0.0063391695730388165, 0.009832407347857952, 0.06183844432234764, -0.03101106733083725, 0.09334079921245575, 0.05825794115662575, -0.0274399071931839, -0.031582385301589966, -0.0278303325176239, -0.06678945571184158, -0.01822882518172264, 0.055004019290208817, 0.04229004308581352, -0.013056641444563866, 0.08997781574726105, 0.02618992142379284, 0.014982870779931545, -0.013487221673130989, 0.028391804546117783, 0.057711828500032425, -0.06894996017217636, 0.032856207340955734, 0.033647846430540085, -0.09327661991119385, -0.08821181207895279, 0.05746736377477646, -0.07967647165060043, 0.04333842173218727, -0.05170782655477524, -0.05391727387905121, 0.012930560857057571, -0.03562135249376297, 0.022947991266846657, -0.011799663305282593, -0.056167107075452805, -0.025898311287164688, 0.05723639577627182, -0.012212434783577919, -0.045407894998788834, 0.07184411585330963, 0.0654359832406044, -0.016003765165805817, -0.08443718403577805, -0.043564699590206146], [-0.02004214935004711, -0.027743322774767876, 0.062181685119867325, 0.02685484290122986, 0.07364401966333389, 0.06360412389039993, -0.05991671234369278, 0.04545118287205696, -0.0419326014816761, -0.03779897466301918, -0.04577035829424858, -0.055739741772413254, 0.01442178338766098, -0.06564996391534805, -0.07841135561466217, 0.01477564312517643, 0.029146069660782814, -0.10304876416921616, -0.07904281467199326, 0.04249875992536545, -0.0102259935811162, 0.09513714909553528, 0.04774516075849533, 0.00862844567745924, -0.10938142985105515, -0.03063088096678257, -0.045364733785390854, 0.06994422525167465, -0.03210402652621269, 0.0944085642695427, -0.02981826290488243, -0.016506101936101913, -0.02663422003388405, -0.021515285596251488, 0.06052779778838158, -0.026290465146303177, -0.036487821489572525, -0.04927890747785568, 0.02073821611702442, 0.09620780497789383, -0.034832585602998734, -0.009502267464995384, 0.11033926904201508, -0.0888064056634903, 0.038799531757831573, 0.08195866644382477, -0.06424116343259811, 0.0024901346769183874, -0.051002759486436844, 0.0011279904283583164, 0.05438724160194397, 0.05446717515587807, 0.04341825097799301, 0.018606062978506088, -0.07107484340667725, -0.09432197362184525, 0.06445632129907608, 0.010839407332241535, -0.003103632712736726, -0.08846854418516159, 0.048850636929273605, 0.011628780514001846, 0.021457837894558907, -0.008480285294353962], [-0.02823546901345253, 0.036395277827978134, 0.09534551948308945, -0.053992193192243576, 0.009778734296560287, -0.05123378708958626, -0.04300522804260254, -0.033481698483228683, 0.020785236731171608, -0.07808048278093338, 0.03501731529831886, 0.005372034851461649, -0.04375556483864784, -0.0721750408411026, -0.0099036218598485, -0.015111607499420643, 0.057324983179569244, 0.031169304624199867, -0.0059826429933309555, -0.026311153545975685, -0.017518658190965652, -0.07078508287668228, -0.02755403332412243, 0.028288019821047783, -0.03264850005507469, -0.031282685697078705, -0.047825079411268234, -0.05374394357204437, 0.07819300889968872, -0.07674995809793472, 0.007837492041289806, -0.026699606329202652, 0.006640620529651642, -0.02570328488945961, -0.07650725543498993, 0.004150590393692255, -0.051497552543878555, -0.02714512310922146, -0.02665458805859089, 0.0037934810388833284, 0.0005311830318532884, 0.015191767364740372, 0.08977404236793518, 0.038408949971199036, -0.007615482900291681, 0.02593315951526165, 0.06829135119915009, -0.03478418290615082, 0.0391840934753418, -0.0668192207813263, -0.010284763760864735, -0.040701206773519516, -0.016354192048311234, -0.0399152897298336, -0.025972293689846992, -0.06622566282749176, -0.0768253281712532, 0.05945632606744766, 0.05754190310835838, -0.08431044965982437, 0.02645457535982132, -0.012964355759322643, -0.02010497823357582, -0.08200524747371674], [-0.103335440158844, 0.002408508211374283, -0.03579476848244667, 0.10187682509422302, 0.031337983906269073, 0.0004758654977194965, -0.02731080912053585, 0.07496566325426102, 0.002112084534019232, 0.06439326703548431, -0.044725507497787476, 0.021050505340099335, -0.02940990962088108, -0.054681647568941116, -0.015322455205023289, 0.025074386969208717, -0.020702814683318138, -0.024198537692427635, 0.019694479182362556, 0.04312470927834511, 0.014110554940998554, -0.004736863076686859, 0.06003763899207115, -0.019539814442396164, -0.08902604132890701, -0.06200467422604561, 0.01993042230606079, -0.052294060587882996, 0.01245152112096548, -0.03692064806818962, 0.03526484966278076, 0.02202437072992325, 0.005846401676535606, -0.01990954391658306, -0.01912599802017212, -0.01241393480449915, -0.0004325642657931894, 0.012443985790014267, -0.00831262394785881, -0.03523524850606918, -0.005931192077696323, 0.027829620987176895, 0.011129841208457947, -0.025748426094651222, 0.04456273466348648, -0.04333914816379547, 0.032627906650304794, -0.0046061305329203606, 0.08395848423242569, -0.002436327515169978, 0.035559576004743576, 0.03146515041589737, 0.013052747584879398, 0.018017061054706573, -0.06521309167146683, -0.03428395465016365, -0.032546985894441605, -0.06878508627414703, -0.07981285452842712, -0.01901186630129814, 0.08346780389547348, -0.02089381404221058, -0.03817977011203766, 0.031801462173461914], [-0.004941108170896769, -0.07041294872760773, -0.05257658287882805, 0.08798492699861526, -0.018864503130316734, 0.012988903559744358, 0.057832226157188416, 0.06649898737668991, 0.1494896113872528, -0.08562475442886353, -0.10583049803972244, 0.048684261739254, 0.07728967070579529, -0.021158896386623383, -0.0026963013224303722, 0.02432386949658394, 0.018501384183764458, 0.10903935879468918, -0.11867152899503708, 0.08382754772901535, 0.03935181722044945, 0.1001657247543335, -0.1523352414369583, -0.02659064158797264, 0.08586057275533676, -0.0009761418332345784, -0.05615127831697464, 0.11251076310873032, -0.01757197454571724, -0.08124832808971405, -0.045598354190588, 0.0690329372882843, 0.034368038177490234, -0.031610384583473206, 0.0048593562096357346, -0.011420006863772869, -0.05724608153104782, -0.00792180746793747, 0.033309996128082275, 0.0035606203600764275, -0.046526432037353516, 0.061320655047893524, 0.0035336813889443874, 0.03765113279223442, 0.016132116317749023, 0.014063759706914425, -0.14958062767982483, -0.0283330250531435, -0.04095931351184845, -0.03286588937044144, 0.021025219932198524, -0.0020266782958060503, -0.004797762725502253, -0.0029403537046164274, -0.026309233158826828, 0.01208430714905262, -0.11233272403478622, 0.05706974118947983, 0.06231939420104027, 0.10020004957914352, 0.0945807546377182, -0.05502667650580406, -0.04068689048290253, -0.14077597856521606], [0.06445934623479843, -0.03425563499331474, -0.03531772643327713, -0.05741862207651138, -0.048851680010557175, -0.04787227883934975, 0.05498594045639038, 0.05630961060523987, -0.0646202564239502, 0.02759435959160328, 0.020519448444247246, 0.07086975127458572, -0.08519477397203445, 0.1029314249753952, 0.035567354410886765, -0.06298325210809708, -0.027919339016079903, 0.06526441872119904, 0.018478605896234512, 0.03147256746888161, 0.029790595173835754, 0.0004881424247287214, 0.12212487310171127, -0.05490559712052345, 0.11558157950639725, 0.050882186740636826, -0.06204696372151375, 0.08522917330265045, 0.02190694585442543, 0.09726608544588089, 0.043047692626714706, 0.089366614818573, -0.10454162210226059, 0.07294487208127975, 0.004866635426878929, -0.015937702730298042, 0.07131775468587875, -0.09581539034843445, -0.00917548406869173, -0.05002550408244133, 0.0021812226623296738, 0.10668334364891052, -0.014438013546168804, 0.09760890901088715, 0.10333747416734695, -0.09775945544242859, 0.033937107771635056, 0.0168522410094738, 0.015993980690836906, -0.02524922974407673, 0.03826268017292023, 0.017613021656870842, 0.13010570406913757, -0.06995239853858948, 0.06988237798213959, -0.031430408358573914, -0.011627299711108208, 0.08939116448163986, -0.05395554006099701, -0.1008388102054596, -0.06722544878721237, 0.0379166454076767, 0.02649061009287834, 0.11387285590171814], [0.10017497837543488, 0.004970882553607225, 0.06742418557405472, 0.002861951244994998, -0.041887592524290085, 0.052503060549497604, 0.060684554278850555, 0.0465342216193676, -0.14621229469776154, -0.11214517802000046, 0.08417125791311264, -0.07391711324453354, -0.07141603529453278, -0.10262471437454224, 0.04206305742263794, -0.06921141594648361, -0.026309285312891006, -0.06169366464018822, 0.04119617119431496, -0.0018317463109269738, -0.0900987908244133, 0.050261639058589935, 0.05557553097605705, -0.11881527304649353, -0.035939157009124756, 0.17175760865211487, 0.03889049217104912, -0.028193892911076546, 0.053003307431936264, -0.02998347394168377, 0.015827631577849388, 0.04309176281094551, -0.057501938194036484, 0.0857941135764122, -0.038606517016887665, 0.013352438807487488, 0.059128087013959885, -0.04480613395571709, 0.029151370748877525, 0.0659257024526596, 0.07772458344697952, 0.01584674045443535, -0.0011193783720955253, -0.1414763331413269, 0.09578454494476318, 0.057630907744169235, 0.03214176744222641, 0.14040258526802063, 0.03095218352973461, -0.07601137459278107, -0.1582084745168686, -0.10553238540887833, 0.13286182284355164, -0.020637081936001778, -0.048010457307100296, -0.17055557668209076, 0.082102470099926, 0.10857229679822922, 0.0881616398692131, -0.05722733587026596, 0.06505340337753296, 0.12154550105333328, -0.05671704187989235, 0.005011304281651974], [0.02922719717025757, 0.052839770913124084, -0.03321231156587601, 0.14177747070789337, -0.08911324292421341, 0.04597994312644005, 0.055707573890686035, 0.029737625271081924, 0.003328092396259308, 0.005513081327080727, 0.06533326953649521, 0.06890909373760223, 0.07050017267465591, 0.04378256946802139, -0.008189786225557327, 0.003242071019485593, -0.050712645053863525, 0.05786561965942383, -0.08534880727529526, 0.0653609037399292, 0.06255009025335312, 0.007453314960002899, 0.011367641389369965, 0.0723191648721695, -0.042708318680524826, -0.006691601127386093, 0.018201611936092377, 0.023643994703888893, 0.07694961130619049, 0.0769658163189888, -0.10007042437791824, 0.0161424707621336, 0.04109250009059906, 0.0944223552942276, 0.030799508094787598, -0.032654207199811935, 0.002160106785595417, 0.04960913583636284, 0.02889624796807766, 0.022639963775873184, -0.06733521074056625, 0.05620471388101578, -0.06557248532772064, 0.10009980201721191, 0.0013831669930368662, -0.08399679511785507, -0.09801075607538223, 0.029980774968862534, 0.03937316685914993, -0.028731657192111015, 0.0325896330177784, -0.06635424494743347, 0.07054650038480759, -0.03826974332332611, -0.12716762721538544, -0.006762336473912001, 0.061352070420980453, -0.036485783755779266, -0.11544672399759293, 0.004512927494943142, 0.10144151747226715, -0.006793058943003416, -0.008849920704960823, -0.09779844433069229], [0.026606855913996696, -0.058065369725227356, -0.006566287018358707, 0.09809719026088715, 0.018527677282691002, -0.03857693821191788, -0.07292336225509644, -0.009538219310343266, 0.00367164914496243, 0.027762187644839287, 0.05170906335115433, -0.022251151502132416, 0.05438549816608429, 0.008810254745185375, 