{"hyperparams": {}, "state_dict": {"rnn.weight_ih_l0": [[0.004858737345784903, -0.10677499324083328, 0.027496647089719772, 0.09879859536886215, 0.0577712282538414, -0.11635155230760574, -0.05265873298048973, 0.04295458644628525, -0.07796113938093185], [0.0735219269990921, -0.06960703432559967, 0.07422506809234619, 0.013634848408401012, -0.10351778566837311, -0.1197783499956131, -0.10135316103696823, -0.037932105362415314, -0.034924425184726715], [0.013104491867125034, -0.04050687327980995, -0.11775853484869003, 0.11160179227590561, -0.10208620131015778, -0.02922705188393593, -0.08135338872671127, -0.04642036557197571, 0.015571394003927708], [0.12175733596086502, 0.03728051856160164, -0.09680367261171341, 0.08138107508420944, 0.054072584956884384, -0.07512040436267853, 0.006494688335806131, 0.11434759199619293, -0.008087264373898506], [0.021663296967744827, -0.12221383303403854, 0.09019970148801804, 0.11068549752235413, 0.0882691815495491, -0.07603587955236435, 0.11214469373226166, -0.021314505487680435, 0.04199502617120743], [-0.10852852463722229, 0.005210625473409891, 0.08197974413633347, 0.036265164613723755, -0.10651900619268417, 0.002798852976411581, 0.10517717152833939, -0.06638188660144806, 0.10243282467126846], [-0.07825406640768051, 0.03289201483130455, 0.009781490080058575, -0.030309921130537987, 0.049154508858919144, 0.06335204839706421, -0.1137261614203453, 0.06474380940198898, -0.011987916193902493], [-0.009168943390250206, 0.121512271463871, 0.10330162942409515, 0.06851653754711151, -0.10381633043289185, -0.007081585470587015, -0.06990210711956024, 0.028718847781419754, -0.02858702465891838], [-0.012553705833852291, 0.056977108120918274, 0.04041121155023575, -0.07306282222270966, 0.08268191665410995, -0.09823751449584961, -0.04323752969503403, -0.08501098304986954, 0.07426299154758453], [-0.035608090460300446, 0.1252293437719345, 0.12097813189029694, 0.021361468359827995, 0.012080530636012554, -0.12326791137456894, 0.11242391914129257, -0.0484284907579422, 0.04298271983861923], [-0.014492865651845932, -0.012886733748018742, -0.10319064557552338, 0.07597005367279053, -0.016070136800408363, 0.050888776779174805, -0.010982387699186802, 0.022623853757977486, -0.02785850688815117], [-0.12167688459157944, -0.0484185628592968, 0.1099681556224823, 0.05473580211400986, -0.12137513607740402, 0.05953769385814667, 0.09227930009365082, -0.06885135173797607, 0.10637829452753067], [0.05697540566325188, -0.0695638582110405, -0.07954508811235428, 0.09665969759225845, -0.011478408239781857, 0.0654209777712822, 0.12052248418331146, 0.0772521123290062, 0.040140438824892044], [-0.021555596962571144, -0.08354417234659195, -0.012690942734479904, -0.10801013559103012, -0.005802798550575972, -0.09528714418411255, 0.1163661926984787, -0.12161251902580261, 0.07478928565979004], [0.0891028568148613, -0.11064286530017853, 0.0804174393415451, -0.09497640281915665, 0.1052389070391655, -0.10034215450286865, 0.0660710483789444, -0.11205590516328812, 0.0472547747194767], [0.06946176290512085, -0.0764729231595993, 0.010332964360713959, -0.09587764739990234, 0.03676881268620491, -0.07343733310699463, 0.02130058780312538, 0.09496625512838364, -0.02450636960566044], [0.07952376455068588, -0.040495000779628754, 0.052025195211172104, -0.017662450671195984, 0.03696957230567932, 0.07090641558170319, -0.06895595788955688, -0.04413243755698204, -0.0015368679305538535], [0.03215057775378227, -0.04072439670562744, -0.04044850543141365, 0.08427396416664124, 0.11425774544477463, -0.10348115861415863, 0.07553821802139282, -0.0024843518622219563, 0.10928015410900116], [0.1122475117444992, 0.019177589565515518, 0.02943386510014534, -0.01657281629741192, 0.0856044813990593, 0.06439416855573654, -0.0631510391831398, 0.0005047812592238188, 0.063349649310112], [0.08483729511499405, 0.07882832735776901, -0.10100158303976059, -0.023526735603809357, -0.006090452894568443, 0.061477623879909515, 0.13186100125312805, 0.06696853041648865, 0.1362600028514862], [-0.05120637267827988, 0.046689219772815704, 0.0008992941002361476, 0.026210248470306396, -0.08508973568677902, 0.01580120623111725, -0.09195511788129807, -0.03793790936470032, 0.028508098796010017], [-0.025146495550870895, -0.045486073940992355, 0.04906545579433441, -0.017941894009709358, -0.08400300145149231, -0.05098302289843559, 0.019425436854362488, -0.07835473865270615, -0.0965728834271431], [0.1276806741952896, 0.03724547103047371, 0.06288497895002365, -0.11176817864179611, 0.026842953637242317, -0.00027561213937588036, 0.0314895361661911, 0.10102604329586029, 0.016349710524082184], [0.006250194273889065, -0.05877985060214996, 0.0031498121097683907, 0.05698467791080475, 0.09300750494003296, -0.03325191140174866, 0.11739970743656158, 0.05616191029548645, -0.05125800520181656], [0.03340819105505943, -0.08969265222549438, -0.024410687386989594, -0.06570956856012344, 0.06376272439956665, 0.03990998864173889, -0.08743476867675781, -0.06786437332630157, -0.09030835330486298], [-0.005591517314314842, -0.10649995505809784, -0.02955702133476734, 0.08952640742063522, 0.008867531083524227, -0.02533707022666931, 0.0035693964455276728, 0.09931757301092148, 0.12157276272773743], [0.09733869135379791, 0.07301422953605652, -0.05031788349151611, 0.014365431852638721, 0.005273333750665188, -0.06473656743764877, -0.08741988986730576, -0.094182588160038, -0.011036413721740246], [-0.002304819878190756, -0.04653089866042137, 0.039984747767448425, -0.026203596964478493, 0.01763218268752098, -0.030504466965794563, -0.012353534810245037, 0.09394833445549011, -0.022713644430041313], [-0.101341113448143, -0.08538272976875305, 0.09366568177938461, -0.11289018392562866, 0.0023909586016088724, -0.011946750804781914, -0.11020616441965103, 0.0735718384385109, 0.04467129334807396], [-0.05944989249110222, -0.04670321196317673, -0.0008667041547596455, -0.08579121530056, 0.08319111168384552, 0.023878412321209908, 0.05649837106466293, 0.018236709758639336, 0.05730336904525757], [0.10763117671012878, 0.06648111343383789, 0.061002522706985474, 0.09479893743991852, -0.1119316890835762, -0.01510451640933752, -0.07304754853248596, -0.06463847309350967, -0.09278640151023865], [-0.047781992703676224, 0.11757442355155945, 0.0200523491948843, -0.057842422276735306, 0.09103018045425415, -0.07746036350727081, -0.07367344945669174, 0.08032248914241791, -0.06315318495035172], [0.10827691107988358, 0.08836916089057922, -0.09560955315828323, 0.05666469410061836, -0.026446575298905373, -0.046338219195604324, 0.10601969808340073, -0.07918329536914825, -0.059650108218193054], [-0.0874977558851242, -0.024854321032762527, -0.04002897068858147, -0.05472646281123161, 0.049404487013816833, 0.003538901451975107, -0.03299387916922569, -0.011301874183118343, -0.06128358095884323], [0.03944357484579086, -0.012581290677189827, 0.027957385405898094, -0.034098733216524124, -0.03432795777916908, 0.11643385887145996, -0.060068439692258835, 0.03822336718440056, 0.045554473996162415], [-0.07447847723960876, 0.016332417726516724, -0.04705119878053665, -0.02876887284219265, 0.11184077709913254, -0.03592286631464958, 0.03574730455875397, -0.04676645249128342, -0.0012374306097626686], [-0.08378765732049942, 0.10155942291021347, 0.10854021459817886, -0.05166231095790863, -0.07480664551258087, 0.13217425346374512, -0.12294404953718185, -0.059393465518951416, 0.054665930569171906], [-0.08783546090126038, 0.08085732907056808, -0.03205162286758423, -0.09216683357954025, -0.0026310652028769255, 0.108101025223732, -0.09735844284296036, 0.054168492555618286, -0.04298945516347885], [0.08784334361553192, -0.007017564959824085, 0.026218945160508156, -0.025387469679117203, -0.046017035841941833, 0.004426856525242329, -0.055500492453575134, -0.03862505033612251, 0.019118793308734894], [-0.11888065189123154, -0.005695038940757513, -0.0578138642013073, -0.05194137990474701, 0.06329326331615448, 0.029371822252869606, 0.06557001173496246, 0.069398894906044, 0.04916764423251152], [0.04342147707939148, -0.07624909281730652, -0.010154832154512405, -0.06171439215540886, -0.04379432275891304, -0.027528898790478706, -0.12519274652004242, 0.09900903701782227, -0.06713666766881943], [-0.11862589418888092, -0.08150846511125565, -0.04683154076337814, -0.053705450147390366, 0.09421012550592422, -0.034767258912324905, -0.00779324397444725, 0.05551353096961975, -0.10881675779819489], [0.059218961745500565, 0.06299881637096405, -0.06908798217773438, 0.035235557705163956, -0.10207146406173706, 0.07171814143657684, 0.020999424159526825, -0.04152980074286461, 0.10639780759811401], [0.0416644848883152, 0.05245991796255112, -0.13275738060474396, 0.04779275134205818, 0.09095044434070587, 0.04425115883350372, 0.0741088017821312, -0.13389495015144348, -0.06961756199598312], [0.08181926608085632, -0.07841704785823822, 0.018254052847623825, 0.012902136892080307, -0.09370877593755722, 0.06621253490447998, -0.09875700622797012, -0.024961290881037712, 0.04104122892022133], [0.0853654220700264, 0.04606831818819046, -0.0006147769745439291, -0.08824022114276886, 0.04080655425786972, 0.04913657158613205, 0.014246546663343906, -0.1156148836016655, -0.05147337168455124], [-0.07448889315128326, 0.0744781419634819, 0.06040771305561066, -0.12121395766735077, -0.061064109206199646, -0.1261969655752182, -0.024968914687633514, 0.08687114715576172, -0.0750439465045929], [-0.09907688200473785, -0.010857620276510715, 0.05946267396211624, 0.01264858990907669, -0.12097447365522385, -0.01562761515378952, -0.05695988982915878, -0.11826711148023605, -0.05066681653261185], [-0.050991155207157135, 0.08294078707695007, -0.051495686173439026, -0.09362928569316864, -0.054332707077264786, 0.08438341319561005, 0.1116136983036995, -0.10013929754495621, 0.05849526822566986], [-0.05763160064816475, -0.1438376009464264, -0.0267636738717556, -0.03734399005770683, -0.11302660405635834, -0.09704381972551346, -0.10580652207136154, -0.06489602476358414, 0.07689027488231659], [-0.10736048221588135, 0.09138990938663483, -0.0597686693072319, 0.05702866241335869, -0.020454417914152145, 0.04394097253680229, 0.11273416876792908, -0.068321593105793, 0.00554779963567853], [0.08546706289052963, -0.09263402968645096, -0.10461319983005524, -0.06752646714448929, -0.02463557943701744, -0.04011501744389534, -0.0738806501030922, 0.059240151196718216, -0.05853636562824249], [-0.015078169293701649, 0.08947402983903885, 0.10860924422740936, 0.03051726333796978, -0.010200596414506435, -0.09537898749113083, 0.08057305216789246, -0.08042012155056, -0.08413209766149521], [0.04104076325893402, -0.14279776811599731, 0.09179644286632538, -0.100574791431427, -0.09349653124809265, 0.050791963934898376, 0.01699300855398178, -0.05172855406999588, 0.04693056270480156], [0.08162291347980499, 0.10548041760921478, -0.027492625638842583, -0.02200797200202942, 0.002947877161204815, -0.04901693016290665, -0.00019885419169440866, -0.07580319046974182, 0.08408976346254349], [0.12248935550451279, -0.11523032933473587, -0.016134995967149734, -0.053397033363580704, 0.12383194267749786, 0.11426535993814468, 0.005290002562105656, -0.05592423304915428, -0.09119933843612671], [0.10819607973098755, -0.11342892050743103, 0.05586829036474228, -0.03315874934196472, 0.08874078094959259, -0.00870551634579897, -0.019762273877859116, -0.07240616530179977, -0.11167659610509872], [0.08050568401813507, 0.06132112815976143, -0.10676302760839462, 0.06130920350551605, -0.035473745316267014, -0.0705229640007019, -0.04797343537211418, -0.07475030422210693, -0.0947270616889], [0.05341944843530655, -0.004127063788473606, 0.10765907913446426, 0.011211012490093708, 0.029364412650465965, -0.13429737091064453, 0.009740910492837429, 0.06506165117025375, -0.0734507367014885], [-0.02051844820380211, 0.07033182680606842, -0.012095433659851551, -0.07108336687088013, -0.07321992516517639, -0.08893060684204102, -0.03575122728943825, -0.10528495907783508, -0.0739860087633133], [0.036499425768852234, -0.07361043989658356, 0.11204072088003159, 0.05356888473033905, 0.028856050223112106, -0.002623162465170026, 0.0642080307006836, 0.0038708499632775784, -0.119955874979496], [-0.035015203058719635, -0.08507663011550903, 0.05905022472143173, -0.10917669534683228, 0.06014435365796089, 0.02694549225270748, -0.021664489060640335, -0.039022646844387054, -0.10525866597890854], [0.013340948149561882, -0.09899266809225082, -0.10150037705898285, -0.08114756643772125, 0.04180331155657768, 0.05742533132433891, 0.02747654914855957, 0.08048257976770401, -0.019244510680437088], [-0.12211541086435318, -0.023187624290585518, 0.025729423388838768, 0.09963926672935486, -0.07693987339735031, -0.04400673881173134, 0.02382698655128479, 0.03353387862443924, 0.04381267726421356]], "rnn.weight_hh_l0": [[-0.054175250232219696, 0.08280646055936813, 0.03401856869459152, -0.00717697199434042, 0.05818710848689079, -0.0711369439959526, -0.08583857864141464, -0.09899867326021194, 0.07436541467905045, -0.015834258869290352, 0.05007978528738022, -0.10861200094223022, 0.03229492902755737, 0.032932430505752563, -0.11873040348291397, 0.06793323159217834, 0.016666162759065628, 0.12084037065505981, 0.08092382550239563, 0.007607727311551571, 0.019670402631163597, 0.07564752548933029, 0.11333006620407104, 0.11510671675205231, -0.12134407460689545, 0.051292672753334045, 0.031771089881658554, 0.06964849680662155, 0.09361035376787186, -0.12909448146820068, -0.04191132262349129, -0.09954507648944855, -0.0914030522108078, -0.0599166601896286, 0.037661291658878326, 0.04085477069020271, 0.10823598504066467, -0.014736139215528965, -0.0451258160173893, 0.12161470949649811, -0.04131976515054703, -0.051288146525621414, -0.0657108873128891, 0.04201730340719223, -0.07676248997449875, 0.10579576343297958, -0.032485347241163254, 0.13240300118923187, 0.014709269627928734, -0.06953676789999008, -0.0372176468372345, 0.05255292356014252, -0.06905178725719452, -0.0012817565584555268, 0.10193349421024323, -0.07248304784297943, 0.06479048728942871, -0.06942897289991379, 0.069771409034729, 0.02519870176911354, 0.023302515968680382, -0.02982392907142639, -0.06821421533823013, -0.11816732585430145], [-0.027430661022663116, -0.08097341656684875, 0.03740926459431648, 0.0990801602602005, -0.06119033321738243, -0.03638268634676933, -0.037307653576135635, 0.06857405602931976, -0.08600015938282013, -0.11253810673952103, -0.02106686495244503, 0.06623488664627075, 0.002939577680081129, -0.03945011645555496, -0.014761021360754967, -0.09631720930337906, -0.01220923475921154, -0.08830971270799637, 0.002220032038167119, -0.02687995135784149, 0.0065848310478031635, -0.06465291231870651, -0.006054918747395277, -0.05109601840376854, -0.10982316732406616, 0.0026878758799284697, -0.012161048129200935, -0.043263062834739685, 0.029624830931425095, 0.10685429722070694, 0.032236676663160324, 0.046875353902578354, -0.10768149048089981, -0.004460470285266638, -0.05371829867362976, 0.05889475718140602, 0.10346877574920654, -0.015970349311828613, 0.05347583070397377, 0.07454182952642441, -0.07184559851884842, 0.13182485103607178, 0.013885937631130219, -0.09557913988828659, 0.06067420914769173, -0.08109044283628464, 0.040781207382678986, -0.009558984078466892, -0.10331659018993378, 0.02187875658273697, -0.11317537724971771, -0.1310817450284958, 0.08804353326559067, -0.08176199346780777, 0.12154410034418106, -0.07306733727455139, -0.05391108989715576, 0.04752214625477791, 0.04543256759643555, 0.07635452598333359, -0.014898937195539474, 0.042803943157196045, 0.012294731102883816, -0.05270111933350563], [-0.11701185256242752, -0.11417363584041595, 0.03864447399973869, 0.06279639899730682, 0.08599063754081726, 0.03127356246113777, 0.11226308345794678, 0.046481870114803314, 0.10925020277500153, 0.04902956634759903, 0.051760438829660416, 0.03501460701227188, 0.07650744915008545, 0.011908420361578465, 0.051599953323602676, 0.12106677889823914, 0.07719040662050247, -0.06605026125907898, 0.06717813014984131, 0.023537762463092804, -0.09787172824144363, -0.0376720167696476, 0.11801175028085709, 0.03622731938958168, -0.0587744303047657, 0.09460105001926422, -0.07433164864778519, -0.08970008045434952, -0.028430165722966194, 0.09272382408380508, 0.06269087642431259, -0.08927302062511444, -0.12649480998516083, -0.09459944069385529, -0.08202751725912094, -0.12145344167947769, -0.06457483768463135, -0.03195938095450401, 0.026555925607681274, -0.07348722219467163, 0.06256313621997833, 0.00777630927041173, 0.06352033466100693, 0.05119480565190315, -0.1121738851070404, -0.013167065568268299, -0.09517873078584671, 0.10752435773611069, 0.017149055376648903, -0.07940217107534409, 0.11561606824398041, 0.02774871699512005, 0.08701261878013611, -0.11535829305648804, 0.09937717765569687, 0.0760343000292778, -0.10228188335895538, -0.1409224271774292, 0.0007529013091698289, -0.04371735826134682, -0.05760500952601433, 0.10393064469099045, 0.057569537311792374, -0.014880893751978874], [-0.09426980465650558, 0.03944511339068413, 0.0364777036011219, -0.009591917507350445, 0.08111752569675446, 0.006306649185717106, 0.09391655027866364, -0.09536345303058624, 0.10065019875764847, -0.03313695639371872, -0.06456989794969559, -0.04453912377357483, -0.06954101473093033, -0.02921740524470806, 0.09136156737804413, -0.10513927787542343, 0.002756620291620493, 0.03351055830717087, 0.11716882139444351, -0.10626034438610077, -0.0094901816919446, 0.021066490560770035, -0.006810904946178198, -0.003645173739641905, -0.05125097557902336, -0.0068192994222044945, 0.00683937082067132, -0.043669261038303375, 0.009792511351406574, -0.045895468443632126, -0.003264901926741004, 0.07267926633358002, 0.04572989046573639, -0.09778950363397598, -0.027267513796687126, 0.05693110078573227, 0.0481216162443161, -0.09479068964719772, -0.06455536931753159, -0.05418698489665985, 0.04206418991088867, -0.1276516169309616, 0.01221736054867506, 0.03528951108455658, 0.07059251517057419, -0.02291378751397133, 0.11510735750198364, -0.0339495986700058, 0.008837075904011726, 0.02543499320745468, -0.04155370593070984, 0.08521846681833267, 0.006424398627132177, 0.06707855314016342, 0.008725912310183048, -0.054600782692432404, -0.014451338909566402, -0.06040016934275627, -0.014777486212551594, -0.06663515418767929, 0.08960594981908798, 0.054472584277391434, -0.00918487086892128, 0.06306299567222595], [-0.04602370038628578, 0.0637076199054718, -0.1129756048321724, -0.03232971206307411, 0.023531673476099968, 0.017565244808793068, 0.11676273494958878, 0.01744387112557888, -0.0780118778347969, -0.11916729807853699, -0.04675859212875366, 0.10754004120826721, -0.006817515008151531, 0.05276259034872055, -0.07421977072954178, 0.0029617254622280598, -0.08745225518941879, -0.02944394201040268, -0.00016681467241141945, -0.0703854188323021, -0.09634960442781448, -0.1089184358716011, -0.061358463019132614, 0.05328340455889702, 0.10848310589790344, -0.10585720092058182, 0.006502897944301367, -0.08727314323186874, -0.06708816438913345, -0.03515778109431267, -0.03662651404738426, 0.07153185456991196, 0.10038959980010986, 0.13218452036380768, 0.0018914316315203905, -0.09668964147567749, 0.10884898900985718, 0.005808729212731123, -0.0941535234451294, -0.006172406952828169, -0.020613983273506165, 0.05267683044075966, 0.02154495380818844, 0.05436892807483673, -0.10360172390937805, -0.09412188827991486, 0.021571306511759758, 0.13714087009429932, -0.11300405114889145, -0.05952960625290871, 0.059018027037382126, 0.030925001949071884, 0.07184969633817673, -0.0699143037199974, -0.01947334222495556, -0.103056401014328, 0.09317497909069061, 0.01179850846529007, -0.08378780633211136, -0.12012778967618942, 0.09603342413902283, 0.016372863203287125, 0.06641808152198792, -0.008795465342700481], [-0.005102853290736675, 0.06570762395858765, -0.060996163636446, -0.05673728883266449, -0.1019982174038887, 0.020366862416267395, 0.00589406955987215, -0.017827847972512245, 0.008304105140268803, 0.027154238894581795, -0.027515877038240433, 0.10835506021976471, 0.08239711076021194, -0.014386594295501709, -0.01826796680688858, -0.10132786631584167, 0.10367579758167267, -0.005422039423137903, 0.03241640701889992, 0.060843341052532196, -0.0945102795958519, 0.03915199637413025, 0.09630085527896881, 0.05291421711444855, 0.04583043232560158, -0.13279877603054047, -0.011364276520907879, -0.08275912702083588, 0.028242871165275574, -0.04847488924860954, -0.07742229104042053, 0.09532832354307175, -0.12891913950443268, -0.09211546182632446, -0.0751257911324501, 0.1298288255929947, 0.017252357676625252, 0.07591992616653442, 0.00950954481959343, -0.11506973206996918, 0.04536498710513115, 0.01839141920208931, 0.016875695437192917, 0.018661001697182655, 0.02665140852332115, -0.008740701712667942, -0.037560466676950455, 0.13369622826576233, 0.09424513578414917, -0.06837540119886398, -0.13042163848876953, 0.0740993544459343, -0.062228959053754807, -0.028667431324720383, -0.035369873046875, 0.07206118851900101, 0.0259459987282753, 0.0952601283788681, -0.007349539082497358, -0.08835966140031815, 0.03995271772146225, -0.07575460523366928, 0.06982806324958801, -0.11907710134983063], [-0.0494583360850811, 0.1342380940914154, -0.023857906460762024, 0.02780378982424736, -0.06370121985673904, -0.10054076462984085, -0.0086774667724967, -0.040419962257146835, -0.12842123210430145, -0.049666181206703186, 0.01889704167842865, -0.09234585613012314, 0.09662454575300217, 0.11753786355257034, 0.01297714188694954, 0.10534121096134186, -0.11548948287963867, -0.08133416622877121, -0.09295622259378433, -0.084888756275177, 0.02551409974694252, 0.0552201084792614, -0.12050625681877136, -0.026406556367874146, -0.04886449873447418, -0.06135614588856697, -0.0006174089503474534, -0.1048448234796524, -0.0880260244011879, -0.025537028908729553, -0.11821087449789047, -0.11639901995658875, 0.06165582686662674, -0.02474426105618477, 0.13288947939872742, 0.03987223654985428, -0.018879225477576256, -0.010789401829242706, 0.039407651871442795, 0.08229480683803558, -0.12671628594398499, 0.05496295914053917, 0.008687004446983337, 0.014204674400389194, -0.1174280047416687, 0.11236034333705902, 0.08598121255636215, 0.06919675320386887, 0.024775870144367218, 0.10186517983675003, 0.10893919318914413, -0.021534714847803116, 0.11114880442619324, 0.009693602100014687, -0.10712545365095139, -0.07408085465431213, -0.1111438125371933, -0.008872604928910732, -0.07068126648664474, 0.10166504979133606, -0.05125473812222481, -0.09350666403770447, -0.07984105497598648, -0.05711830034852028], [-0.08326113969087601, -0.09630740433931351, -0.052335843443870544, -0.04679708182811737, 0.061142414808273315, 0.12182272225618362, 0.04009823128581047, 0.11272615194320679, -0.04003281146287918, 0.12438390403985977, -0.006028918083757162, 0.025600817054510117, -0.06647425889968872, 0.09714645147323608, -0.04445268586277962, -0.027631886303424835, -0.1121697798371315, 0.05619077384471893, -0.0018286763224750757, 0.12188414484262466, -0.0348372645676136, -0.039105165749788284, -0.02601349726319313, 0.08658250421285629, 0.0377679318189621, 0.0533265545964241, 0.03719198703765869, -0.07731711864471436, 0.06819529831409454, 0.034511055797338486, -0.1208626925945282, 0.0977887287735939, 0.05144746974110603, 0.06024368852376938, -0.11503708362579346, -0.13451659679412842, -0.008895961567759514, -0.0011616528499871492, -0.10149767249822617, 0.0803804025053978, -0.02924327738583088, -0.0850415900349617, -0.04485735297203064, 0.09937993437051773, 0.04726570099592209, -0.11659335345029831, -0.053107988089323044, 0.025559810921549797, -0.02660934068262577, -0.012461382895708084, 0.046557918190956116, 0.06447912007570267, -0.10069891065359116, -0.019104309380054474, 0.10017597675323486, 0.12031720578670502, -0.05992113798856735, -0.03335728123784065, 0.06671591103076935, 0.027511075139045715, 0.02072741836309433, -0.047113437205553055, 0.09501486271619797, 0.12013949453830719], [-0.09546838700771332, -0.024331171065568924, 0.10270591825246811, -0.002545855473726988, -0.008915435522794724, 0.08675672113895416, -0.06489083170890808, -0.08138394355773926, -0.046263471245765686, -0.051762327551841736, -0.08933191746473312, -0.08158741891384125, 0.06643965095281601, 0.08062702417373657, 0.06063130870461464, -0.083821140229702, 0.0671515092253685, 0.11094096302986145, 0.07237745076417923, 0.0068957689218223095, -0.11872004717588425, 0.09812688082456589, 0.015844035893678665, -0.08456190675497055, -0.11970000714063644, 0.08149972558021545, -0.09543704241514206, 0.0792662501335144, -0.014938993379473686, 0.053182005882263184, -0.07188064604997635, 0.03371542692184448, 0.068153515458107, 0.042469363659620285, 0.07113877683877945, -0.0393519289791584, -0.013552933931350708, -0.05786231532692909, -0.025345733389258385, -0.10379798710346222, -0.058920055627822876, 0.0837511271238327, -0.1431235522031784, -0.01675284095108509, -0.08944543451070786, -0.09807319194078445, 0.04845498874783516, 9.497386054135859e-05, -0.09085312485694885, -0.03343607857823372, 0.010177510790526867, 0.06195760890841484, 0.014407658018171787, -0.03727813437581062, -0.06018812209367752, 0.008612485602498055, -0.05679040029644966, 0.07086866348981857, -0.020766565576195717, -0.0032094845082610846, -0.013291931711137295, 0.03683633357286453, -0.12045200914144516, -0.06656430661678314], [0.06905961781740189, 0.050399210304021835, 0.06356744468212128, 0.09793749451637268, -0.032071951776742935, 0.0646786317229271, -0.015181349590420723, 0.014425765722990036, 0.059745609760284424, 0.045551836490631104, -0.03293723240494728, 0.03595426678657532, -0.0027538221329450607, 0.08053814619779587, -0.0670216754078865, 0.001355402753688395, -0.08115497976541519, -0.06642568111419678, 0.058272819966077805, -0.04679222032427788, -0.06130532547831535, -0.04439267888665199, -0.017570462077856064, -0.039701152592897415, 0.06866710633039474, 0.06764845550060272, -0.07034612447023392, 0.07871295511722565, 0.028241528198122978, -0.02658579684793949, 0.06549646705389023, -0.010309920646250248, 0.11811957508325577, -0.04528737813234329, 0.05109928548336029, 0.03241715580224991, -0.08794689178466797, 0.11220066249370575, -0.09485446661710739, 0.11546096950769424, 0.09812118858098984, 0.03503860533237457, -0.017808087170124054, -0.08710603415966034, -0.058637019246816635, 0.0026156895328313112, -0.05383297801017761, 0.06711477786302567, -0.07359875738620758, -0.029313737526535988, -0.07597801089286804, -0.02779478207230568, 0.01274052169173956, 0.12055344134569168, -0.04433945193886757, -0.04624968767166138, 0.06635044515132904, -0.10108787566423416, -0.12648655474185944, -0.045497994869947433, -0.014472383074462414, -0.13104906678199768, -0.017945028841495514, 0.0633917972445488], [-0.08586559444665909, -0.11472523957490921, 0.03938910365104675, 0.07805429399013519, -0.08306654542684555, -0.015502809546887875, -0.09515926241874695, 0.1131303608417511, 0.04622211679816246, 0.05338437482714653, 0.030060674995183945, 0.14340239763259888, -0.06889691203832626, 0.022072216495871544, -0.04393203929066658, 0.04700325056910515, -0.002377926604822278, 0.061361853033304214, -0.01760558784008026, -0.015780994668602943, 0.06199657544493675, -0.07137154787778854, 0.051841359585523605, 0.03597650304436684, -0.0782872661948204, 0.055718906223773956, 0.04938214644789696, 0.039305172860622406, 0.08575250953435898, -0.07387004792690277, -0.10396299511194229, 0.06553702056407928, 0.03243442252278328, -0.025729969143867493, 0.009293812327086926, -0.12269815802574158, 0.045592937618494034, -0.027726659551262856, -0.0367606095969677, 0.0017328340327367187, -0.037309832870960236, -0.06526907533407211, -0.11759457737207413, -0.023630676791071892, -0.0992531105875969, -0.014716126956045628, -0.008876325562596321, -0.015861282125115395, 0.11320412904024124, -0.09967534244060516, 0.00964149460196495, -0.007277993485331535, 0.0944678857922554, 0.04116157069802284, 0.0626191794872284, -0.05168277025222778, -0.024030610918998718, 0.09233603626489639, 0.10392193496227264, -0.08082583546638489, 0.01365648303180933, -0.09308405220508575, -0.0796748697757721, -0.0911104753613472], [-0.0648619681596756, 0.029812538996338844, 0.09716331958770752, -0.044367000460624695, -0.11013782769441605, -0.04375934228301048, -0.1263144165277481, 0.07025012373924255, -0.09668790549039841, -0.06529468297958374, 0.10387492924928665, 0.03923191875219345, -0.1344073861837387, 0.10084144026041031, 0.02331661619246006, -0.009985698387026787, 0.0918130949139595, 0.09827736020088196, 0.0191034022718668, 0.010047143325209618, -0.09052199870347977, -0.07383076101541519, -0.06901269406080246, 0.03763390704989433, 0.050418876111507416, -0.005667595658451319, -0.01478045154362917, -0.00198912201449275, -0.1380014419555664, 0.07555752992630005, -0.010900712572038174, -0.07868538051843643, 0.08566946536302567, -0.048360664397478104, -0.10017598420381546, 0.08814900368452072, -0.04295404627919197, -0.017796698957681656, 0.05163875222206116, -0.074379101395607, 0.08446183800697327, -0.04440810903906822, -0.037871576845645905, -0.027998575940728188, 0.04777348041534424, -0.026361431926488876, -0.020385444164276123, -0.00868306402117014, 0.08927274495363235, -0.03622697666287422, 0.13129322230815887, -0.0878678485751152, 0.07353340089321136, -0.07600820064544678, -0.08811010420322418, -0.0401722751557827, -0.0689149871468544, -0.010533608496189117, -0.0791366919875145, 0.05700385197997093, 0.017265472561120987, 0.13085173070430756, -0.003943775314837694, -0.07397628575563431], [0.08767955750226974, 0.07628247141838074, -0.021213414147496223, -0.006913832854479551, -0.019657304510474205, 0.07400800287723541, -0.05832652002573013, 0.10842132568359375, 0.08715324103832245, -0.05552266165614128, -0.11433480679988861, 0.08472926914691925, 0.029205719009041786, -0.044163916260004044, 0.06337685883045197, 0.05688885971903801, 0.054597675800323486, 0.06642703711986542, 0.10931310802698135, -0.11091932654380798, -0.017438970506191254, 0.08190400153398514, 0.04543321952223778, 0.10301728546619415, -0.0693722814321518, 0.12054230272769928, -0.0017579480772837996, 0.09694120287895203, -0.02504372037947178, -0.0990399420261383, 0.08681152015924454, 0.05481507629156113, 0.04080141708254814, -0.018024757504463196, 0.02762690931558609, -0.08755654841661453, -0.09876209497451782, -0.03098289668560028, -0.004073795396834612, -0.015450443141162395, 0.08776409924030304, 0.11157341301441193, 0.09658307582139969, -0.022202948108315468, -0.03928067162632942, -0.12360846251249313, -0.027698157355189323, 0.020275456830859184, -0.08244897425174713, 0.023562217131257057, -0.004848701413720846, 0.014768127351999283, -0.06718654185533524, 0.04125199839472771, -0.016912156715989113, -0.027134036645293236, -0.0800824761390686, 0.05040885880589485, 0.1061161458492279, -0.034888699650764465, -0.11863809823989868, 0.06775664538145065, 0.009402207098901272, 0.0015449944185093045], [0.10497915744781494, -0.022841328755021095, -0.02187379077076912, -0.11471676081418991, 0.019718913361430168, -0.10801412165164948, 0.08430970460176468, -0.009004765190184116, -0.04756367206573486, -0.1266176551580429, 0.11794891208410263, 0.0805692970752716, 0.011446700431406498, -0.08269323408603668, -0.06406500190496445, -0.039848826825618744, 0.02110913023352623, -0.047314248979091644, -0.11854736506938934, 0.022144749760627747, 0.09935475885868073, -0.009250392206013203, -0.003908622544258833, -0.0018278948264196515, 0.10930656641721725, 0.027165770530700684, -0.07257804274559021, 0.12143915146589279, -0.03150920197367668, -0.053174953907728195, 0.025886008515954018, 0.08969976752996445, 0.07118165493011475, 0.1310356706380844, 0.015676015987992287, 0.022142279893159866, -0.003131880657747388, 0.10457446426153183, 0.10277260839939117, 0.11110595613718033, -0.02590896561741829, 0.06833556294441223, -0.010900827124714851, 0.10054311156272888, -0.10069261491298676, -0.003976492211222649, 0.03591020405292511, 0.10129369050264359, -0.04674786329269409, -0.04999573156237602, 0.10305885970592499, 0.11732064932584763, -0.07145172357559204, 0.005575689021497965, -0.028221629559993744, 0.0774744302034378, -0.09147194772958755, -0.025953922420740128, -0.0612311027944088, 0.03355974331498146, 0.0682511255145073, 0.000981746008619666, -0.10039084404706955, 0.098512664437294], [0.09116293489933014, -0.11480538547039032, 0.05871102958917618, 0.014577420428395271, -0.11922278255224228, 0.036053843796253204, 0.061742085963487625, 0.09990312159061432, 0.060419365763664246, -0.038825880736112595, 0.025492070242762566, 0.03860435634851456, 0.05038239061832428, 0.014487546868622303, -0.031226037070155144, 0.06441660225391388, 0.0874164029955864, -0.04639342427253723, -0.009219144470989704, 0.11682206392288208, -0.07226647436618805, -0.07702561467885971, -0.05707283318042755, 0.013766269199550152, 0.10211329162120819, -0.007217411417514086, -0.08964919298887253, -0.10173135995864868, 0.027793848887085915, -0.021022096276283264, -0.04811668023467064, -0.057519279420375824, 0.09473209828138351, -0.09759656339883804, 0.014230849221348763, -0.12055937945842743, 0.06316426396369934, -0.04478239268064499, -0.009909918531775475, -0.08466777950525284, -0.09269135445356369, 0.09768544882535934, 0.06250874698162079, 0.08963442593812943, 0.08902063220739365, -0.09447567909955978, 0.05861883610486984, 0.00971385557204485, -0.0466817244887352, -0.05393621325492859, -0.057260699570178986, 0.04768862947821617, -0.08764031529426575, 0.058801740407943726, 0.12303470075130463, -0.06163737550377846, -0.05365573614835739, -0.011208919808268547, -0.0788545235991478, 0.09162823110818863, 0.02994442544877529, -0.08314220607280731, -0.023425906896591187, -0.08869574218988419], [0.12448304146528244, 0.12096507847309113, 0.07967545092105865, 0.10105367004871368, 0.02681792341172695, 0.06240955367684364, -0.10494130104780197, -0.12202522903680801, 0.014625992625951767, -0.012543362565338612, -0.0006778985261917114, -0.12738797068595886, -0.008385462686419487, 0.10250557959079742, 0.08636557310819626, 0.04127989709377289, 0.09449931234121323, 0.06439685076475143, 0.005417261738330126, -0.03840501978993416, 0.058262746781110764, -0.05724577605724335, -0.09412453323602676, -0.0869041159749031, -0.08999384194612503, 0.1051250696182251, -0.11429706960916519, 0.014025036245584488, 0.071988046169281, 0.04879952222108841, 0.12442730367183685, -0.06749752908945084, -0.037421874701976776, 0.00991671159863472, 0.039183732122182846, -0.03021148405969143, 0.03947490081191063, 0.08655302226543427, -0.04087458923459053, -0.0014807224506512284, -0.1031990647315979, -0.04457315430045128, 0.042375389486551285, 0.06095997616648674, -0.0007504443055950105, 0.07758353650569916, -0.05538297817111015, -0.06961067765951157, -0.044758256524801254, -0.003782428801059723, 0.0004893806762993336, -0.0852036401629448, -0.08851102739572525, -0.11062684655189514, -0.04217875376343727, -0.021866891533136368, -0.01060217060148716, 0.0398637093603611, 0.004783506039530039, -0.020372530445456505, -0.0746631845831871, -0.11372648179531097, 0.11493033915758133, -0.08481544256210327], [-0.10515832901000977, 0.1396685093641281, -0.10993349552154541, -0.0035433240700513124, -0.12111293524503708, -0.09228719770908356, -0.03578494116663933, -0.046453963965177536, -0.06862066686153412, -0.050958383828401566, -0.030357250943779945, 0.009283587336540222, 0.04832792282104492, 0.05631302669644356, -0.03119186870753765, -0.04293139651417732, -0.049649812281131744, -0.025305647403001785, 0.05675267428159714, 0.10440001636743546, -0.002462489763274789, -0.01177181676030159, 0.046247709542512894, -0.011760776862502098, 0.025774944573640823, -0.11054591089487076, -0.0487821027636528, 0.12035273015499115, 0.05528749153017998, -0.02634618990123272, -0.03800901770591736, 0.04049980267882347, -0.06551273167133331, 0.02392028085887432, 0.05056320130825043, -0.09637655317783356, -0.015592044219374657, 0.08929193764925003, -0.06066080555319786, -0.10925132781267166, 0.08472234755754471, -0.06373154371976852, 0.01135989185422659, -0.14090701937675476, -0.0856032520532608, 0.024779530242085457, 0.05723406746983528, -0.08676284551620483, 0.01963859610259533, 0.0602400042116642, 0.04177958145737648, -0.05618016794323921, -0.09267248213291168, 0.10073339939117432, -0.09774952381849289, 0.012069745920598507, 0.1103590726852417, -0.042890165001153946, 0.06359827518463135, -0.08282583951950073, -0.07704699784517288, 0.0859266147017479, 0.04374074935913086, -0.09187569469213486], [0.07376269996166229, 0.03889637067914009, 0.12284933775663376, 0.06575262546539307, 0.058563247323036194, -0.09252903610467911, -0.016162168234586716, 0.10787038505077362, -0.03935530036687851, -0.015858476981520653, 0.03251843526959419, 0.06813635677099228, -0.03592868894338608, -0.05344254523515701, -0.08905380964279175, -0.003643209347501397, 0.049269899725914, -0.12106845527887344, 0.06666654348373413, 0.04477233067154884, 0.08803420513868332, 0.07187295705080032, -0.05236127972602844, -0.07126671820878983, -0.0787929967045784, -0.06708592176437378, -0.03521474450826645, -0.021183233708143234, 0.058827754110097885, 0.04486759006977081, 0.014148893766105175, 0.062226779758930206, -0.002139915945008397, -0.0798298567533493, 0.10401346534490585, 0.0970098003745079, -0.07651233673095703, -0.04164622351527214, -0.0951995998620987, 0.092427559196949, 0.016384268179535866, 0.07497972249984741, 0.00959080457687378, -0.03748028725385666, -0.013899140991270542, -0.03189563378691673, 0.04968676343560219, 0.0760028213262558, -0.027872223407030106, 0.0962485820055008, 0.06880520284175873, 0.0527472160756588, -0.062228523194789886, 0.04981211945414543, -0.012414583005011082, 0.07475914061069489, -0.09531331062316895, 0.06298660486936569, 0.11691424995660782, -0.10215377062559128, -0.0348261334002018, -0.027351628988981247, 0.011525949463248253, -0.006749947089701891], [-0.107202909886837, -0.06026596575975418, 0.07961785048246384, 0.06915193051099777, -0.04711112380027771, -0.08943724632263184, -0.013926154002547264, -0.10819514840841293, 0.11436604708433151, -0.12372370809316635, -0.07149345427751541, -0.014997373335063457, -0.053547073155641556, -0.004056568257510662, -0.02986638993024826, 0.11181640625, -0.06697508692741394, -0.0018819631077349186, -0.05093565583229065, 0.03453201800584793, -0.08355825394392014, 0.10572569817304611, 0.11933783441781998, -0.0007593905320391059, 0.11955481767654419, 0.0426790751516819, -2.076654891425278e-05, -0.06059664115309715, 0.09322433918714523, 0.04924686625599861, 0.0054295482113957405, 0.05158580467104912, 0.10416077077388763, 0.12267334014177322, 0.07798425853252411, 0.05045611038804054, -0.09786757081747055, 0.056433238089084625, -0.04227780923247337, -0.06405051797628403, 0.12459847331047058, 0.1287619024515152, 0.13837756216526031, 0.03191404789686203, -0.11633042246103287, -0.12338151782751083, -0.048622407019138336, 0.11623439192771912, 0.07467523217201233, 0.00020296216825954616, 0.01990075595676899, -0.07514633238315582, 0.018673619255423546, 0.10153930634260178, 0.12258559465408325, -0.036607276648283005, -0.030872724950313568, 0.02861461602151394, -0.021586788818240166, -0.0634150579571724, 0.11568877100944519, 0.050937965512275696, -0.07798699289560318, 0.005816455464810133], [-0.13676226139068604, -0.03920748084783554, -0.06750660389661789, 0.0643465518951416, 0.0897289589047432, 0.016553426161408424, -0.11590683460235596, 0.12967045605182648, -0.025275390595197678, 0.0789312794804573, 0.061342496424913406, 0.03152307868003845, 0.14576658606529236, -0.10278419405221939, 0.06860615313053131, 0.12675102055072784, -0.07412486523389816, -0.08956354856491089, 0.08115500211715698, 0.1324235051870346, -0.06034069135785103, -0.09858421981334686, 0.1255437433719635, 0.12540151178836823, -0.022182142361998558, 0.09516631066799164, -0.02965286187827587, -0.047915268689394, -0.09515026956796646, 0.04018646851181984, 0.08746737986803055, 0.0808502733707428, -0.019955264404416084, -0.025495702400803566, -0.05707724764943123, 0.06921228021383286, 0.07409393042325974, -0.05661103501915932, -0.0049357181414961815, -0.016308220103383064, -0.05520479008555412, 0.04691115394234657, 0.09718675166368484, -0.08934176713228226, -0.043322883546352386, -0.13817285001277924, 0.055560603737831116, 0.09630903601646423, 0.1007441058754921, -0.04854520782828331, -0.12778447568416595, -0.07208718359470367, -0.0419318787753582, -0.06932526081800461, -0.08801119029521942, -0.12733787298202515, 0.11934211105108261, 0.017110051587224007, -0.06758896261453629, 0.036196306347846985, 0.02153392694890499, -0.12456196546554565, -0.07827901095151901, 0.03824272379279137], [-0.12459293007850647, 0.08506190776824951, 0.0884942039847374, 0.012113457545638084, 0.013093696907162666, -0.016520537436008453, 0.11218604445457458, -0.06444702297449112, -0.055423907935619354, 0.10036640614271164, 0.10618752986192703, 0.08813580870628357, 0.0697161853313446, -0.043208204209804535, 0.08615270256996155, -0.03837226331233978, -0.03503458946943283, 0.102450892329216, 0.0962052047252655, -0.025842446833848953, 0.018514057621359825, 0.04494330286979675, -0.05806967616081238, -0.0005645767669193447, -0.02480318397283554, -0.039526499807834625, 0.11305998265743256, 0.013490360230207443, -0.09064813703298569, 0.10492979735136032, 0.019666660577058792, 0.006739927921444178, 0.10525674372911453, -0.0731356292963028, -0.09648160636425018, 0.003258876036852598, 0.11796502768993378, -0.010457254946231842, 0.017228882759809494, 0.12139912694692612, -0.07450401037931442, 0.06884864717721939, -0.08388035744428635, -0.058435507118701935, -0.1048719584941864, -0.08191824704408646, 0.10293057560920715, 0.07448088377714157, 0.03177712857723236, 0.0182217825204134, 0.03449486196041107, -0.06362659484148026, 0.06749507784843445, 0.004296452738344669, 0.11156383156776428, 0.04884001612663269, -0.007065421901643276, 0.054875850677490234, -0.11013121902942657, -0.05223003029823303, 0.07361327856779099, -0.10802650451660156, -0.07542800903320312, -0.028974762186408043], [-0.07942120730876923, 0.06247244402766228, 0.04897404834628105, 0.08574240654706955, 0.039424534887075424, 0.01021912693977356, -0.04432064667344093, 0.030919602140784264, -0.07168997079133987, 0.01839141733944416, -0.07762212306261063, 0.06401316076517105, -0.00034385875915177166, -0.03979930281639099, 0.02265647053718567, -0.08438479900360107, -0.009999369271099567, -0.02381458319723606, 0.0764746218919754, 0.06532818078994751, 0.06091295927762985, -0.11736033111810684, -0.029416512697935104, 0.002070590853691101, -0.08504904806613922, -0.028808988630771637, -0.023672014474868774, -0.05031634122133255, 0.02448398992419243, 0.10366305708885193, 0.016511140391230583, -0.13575626909732819, 0.07148747891187668, 0.003848724765703082, 0.005972322542220354, -0.04957005754113197, -0.044311609119176865, -0.09019160270690918, -0.09502041339874268, 0.11902061104774475, -0.08339063823223114, 0.08257504552602768, -0.008274811320006847, 0.12191963195800781, -0.05586159974336624, -0.004877837840467691, -0.037409380078315735, 0.011314455419778824, 0.03158175200223923, 0.06759608536958694, 0.0503958985209465, 0.032583221793174744, 0.026415547356009483, -0.03051181696355343, 0.01036309264600277, 0.021987615153193474, 0.02411140501499176, 0.004526723641902208, -0.011890450492501259, 0.029679816216230392, -0.03828197345137596, -0.05269867554306984, -0.07367512583732605, 0.11800535768270493], [0.09989076852798462, -0.09562896192073822, 0.07904002070426941, -0.08147173374891281, 0.10923220962285995, -0.06858662515878677, 0.023162757977843285, 0.07055927067995071, 0.07389990240335464, -0.09157449752092361, 0.09717115759849548, -0.024831492453813553, -0.020094582810997963, -0.033016957342624664, 0.08033175766468048, 0.08597775548696518, 0.11064532399177551, 0.12655040621757507, -0.11199713498353958, -0.034177206456661224, -0.09935369342565536, -0.04910672828555107, -0.10065752267837524, -0.09722936898469925, 0.09586808830499649, -0.03596760332584381, 0.14147961139678955, -0.024747394025325775, -0.09336097538471222, 0.04289845749735832, -0.004363723564893007, -0.09823160618543625, -0.09570629894733429, 0.11736812442541122, -0.08645346015691757, -0.015356144867837429, 0.01601894572377205, 0.11416435986757278, -0.035971928387880325, 0.10497662425041199, -0.07494005560874939, -0.11410710215568542, 0.03608902171254158, -0.023143049329519272, -0.12720170617103577, 0.10190173983573914, -0.026452038437128067, -0.036934833973646164, 0.08891467750072479, -0.10333830863237381, -0.08822941035032272, 0.056136369705200195, -0.08289304375648499, -0.056667182594537735, 0.11392173171043396, 0.1076541468501091, 0.0130046047270298, -0.07055137306451797, -0.027476444840431213, 0.0008099806145764887, -0.06749189645051956, -0.10701092332601547, -0.09738437086343765, -0.08115529268980026], [-0.04750985652208328, 0.12388737499713898, 0.031937237828969955, 0.08483514189720154, 0.031874578446149826, -0.010521573014557362, 0.029362259432673454, 0.09192458540201187, -0.07223476469516754, -0.02175302803516388, -0.10384484380483627, 0.04780525341629982, 0.05526338145136833, 0.11890330910682678, -0.07044537365436554, -0.061721500009298325, 0.07946299761533737, -0.04202405363321304, 0.12241332232952118, -0.017216024920344353, 0.12306132167577744, -0.08101539313793182, -0.09052619338035583, 0.003825624007731676, 0.06542236357927322, -0.03570670261979103, -0.011274226009845734, 0.026979736983776093, 0.03527851402759552, -0.038409795612096786, -0.06019536778330803, -0.03707435354590416, 0.09737788140773773, 0.11356692761182785, 0.03623023256659508, 0.015769997611641884, 0.07995790988206863, 0.08073366433382034, -0.06196774169802666, 0.07577863335609436, -0.008136226795613766, 0.007564719300717115, -0.06643354147672653, 0.11112155765295029, -0.11542972922325134, -0.01132418867200613, 0.1116713285446167, 0.054369326680898666, -0.09622988849878311, -0.1130269393324852, 0.019131120294332504, 0.11749186366796494, -0.07666616141796112, 0.02484302781522274, -0.03881201148033142, -0.11614734679460526, -0.09698822349309921, -0.01387069933116436, 0.019962128251791, -0.036631692200899124, 0.018562255427241325, 0.05703749135136604, 0.09095091372728348, 0.04180542752146721], [0.061312492936849594, 0.048152487725019455, 0.037147630006074905, 0.09834586828947067, 0.005492475815117359, 0.1049216166138649, 0.0885101929306984, 0.062822125852108, -0.07957135885953903, -0.03247532993555069, 0.07242900878190994, 0.005789425224065781, 0.05075215548276901, -0.032149992883205414, -0.035351917147636414, -0.06465016305446625, 0.027290288358926773, -0.02721329964697361, 0.014075408689677715, -0.07048315554857254, 0.0974215567111969, 0.019218767061829567, -0.02972548082470894, -0.04320194199681282, -0.13333232700824738, 0.017741598188877106, -0.02431708760559559, 0.07438290119171143, 0.08393431454896927, -0.07800783962011337, 0.03068014793097973, 0.08158452063798904, 0.10171816498041153, -0.003241471014916897, -0.0606391541659832, -0.08112160116434097, -0.03316180780529976, 0.08605615049600601, -0.03282669559121132, -0.059956446290016174, -0.09642819315195084, 0.014163225889205933, 0.10626428574323654, -0.13167980313301086, -0.08611635863780975, -0.08603072166442871, 0.06710401177406311, -0.11064374446868896, 0.09132564812898636, -0.055914852768182755, 0.025930266827344894, 0.018299812451004982, -0.010671836324036121, -0.03735831379890442, -0.05647152289748192, -0.0979328379034996, 0.07015423476696014, 0.03233974799513817, -0.013230095617473125, -0.045044656842947006, -0.05933374539017677, -0.1282586008310318, 0.03563910350203514, 0.0743793398141861], [0.06348320841789246, -0.07916519790887833, -0.018701305612921715, 0.048211272805929184, 0.07854989171028137, 0.056579235941171646, -0.06530224531888962, -0.0712973102927208, 0.06594693660736084, 0.07463513314723969, 0.0804176777601242, -0.060228150337934494, 0.023613395169377327, 0.055356308817863464, 0.07192996889352798, -0.029326647520065308, -0.022258009761571884, -0.0024087668862193823, -0.019733605906367302, 0.06297307461500168, 0.03416890650987625, -0.1138906180858612, -0.022565947845578194, -0.07304299622774124, 0.05155361071228981, 0.0862855315208435, 0.0014280715258792043, 0.06380981206893921, 0.03416629880666733, 0.06041907146573067, -0.003206649562343955, 0.0019272246863692999, -0.0643792599439621, 0.06859377771615982, -0.05530779808759689, 0.07750517129898071, 0.010429805144667625, -0.10042425245046616, 0.0050651864148676395, 0.13041849434375763, -0.050933659076690674, -0.026592453941702843, 0.06642124056816101, 0.018448976799845695, -0.052609000355005264, 0.06704218685626984, 0.017556803300976753, -0.11557859182357788, 0.12959982454776764, -0.06268516927957535, -0.02549879252910614, 0.04473187029361725, 0.09214264154434204, -0.07676736265420914, 0.03316834941506386, 0.11320478469133377, -0.03999916464090347, -0.02690574713051319, 0.10664292424917221, -0.09535504877567291, 0.059871334582567215, -0.07617105543613434, 0.09499717503786087, -0.020236456766724586], [-0.10162106901407242, 0.06327582895755768, 0.033982910215854645, 0.09901154786348343, -0.0787319466471672, 0.0326206311583519, 0.07486236840486526, 0.008974231779575348, 0.021330690011382103, 0.028554050251841545, -0.029868535697460175, -0.016456779092550278, 0.09865424036979675, -0.05560489743947983, -0.10571224242448807, 0.0228358693420887, -0.027102239429950714, 0.04764079302549362, 0.06984096020460129, -0.0636182427406311, 0.013781638815999031, 0.04932393878698349, 0.06927809864282608, -0.12028730660676956, -0.11711720377206802, -0.0038479731883853674, 0.009173375554382801, 0.016817878931760788, -0.020157383754849434, 0.010821252129971981, -0.07737673074007034, 0.007167170289903879, -0.12118803709745407, 0.06739576905965805, 0.03729461878538132, -0.07105651497840881, -0.06575652956962585, -0.06645073741674423, -0.0629187822341919, -0.07315518707036972, 0.012139243073761463, -0.07097198814153671, -0.06435509026050568, -0.0964449793100357, 0.11399886757135391, 0.04516873508691788, 0.031009914353489876, -0.020351016893982887, 0.10544770956039429, -0.04306340217590332, -0.10496554523706436, -0.013529020361602306, -0.1116914227604866, -0.006457306910306215, 0.017046552151441574, -0.05109233036637306, 0.10702443867921829, 0.06689929217100143, 0.11159168928861618, -0.03834981098771095, -0.061438459903001785, -0.001988200703635812, 0.04673875868320465, -0.04407501593232155], [-0.10027177631855011, 0.10495887696743011, -0.12092866748571396, 0.05887661874294281, 0.08704658597707748, -0.0758436843752861, 0.031409285962581635, 0.10487868636846542, -0.000116375093057286, 0.025378229096531868, 0.0024057086557149887, 0.05150534212589264, -0.11228776723146439, 0.048719052225351334, 0.05884489789605141, 0.04936743527650833, -0.03024161234498024, 0.07397575676441193, 0.04165485501289368, -0.12171613425016403, -0.003663675393909216, -0.10628902167081833, -0.11047681421041489, 0.10360430181026459, -0.09609661251306534, 0.10250212252140045, -0.07995110750198364, -0.0016608332516625524, 0.034311551600694656, 0.0020954215433448553, -0.004668806679546833, -0.05635334923863411, -0.036004651337862015, 0.02160564623773098, -0.005752722267061472, -0.06999076157808304, 0.05628925934433937, -0.06553681194782257, 0.08714275062084198, -0.07489658892154694, 0.07612232118844986, -0.1065496951341629, -0.09179674088954926, -0.001422362052835524, 0.0739838033914566, -0.051425546407699585, 0.06824764609336853, 0.047232892364263535, -0.023394644260406494, 0.06840213388204575, -0.030848240479826927, -0.11503578722476959, 0.01712345890700817, 0.08167040348052979, -0.08868329226970673, 0.010771676898002625, -0.030237996950745583, -0.0076352683827281, -0.03185679763555527, 0.028722569346427917, 0.08773168921470642, -0.062348391860723495, -0.12124262005090714, 0.046764712780714035], [0.06512469053268433, -0.11702873557806015, 0.00036435152287594974, -0.04613661393523216, 0.017811395227909088, -0.04581023007631302, 0.003609673585742712, 0.005613003857433796, 0.09863544255495071, -0.12115722894668579, -0.04073749855160713, 0.06540827453136444, -0.004741520155221224, 0.05832973122596741, -0.11167773604393005, 0.081328846514225, 0.046446312218904495, 0.002072433941066265, -0.05560271069407463, 0.042404890060424805, 0.08684400469064713, -0.05123761668801308, -0.11607716977596283, 0.07703335583209991, -0.08693121373653412, -0.0791090577840805, 0.03792005777359009, -0.05714524909853935, 0.003670796286314726, -0.00040517732850275934, 0.025562012568116188, -0.02603158913552761, 0.04423926770687103, 0.0033114368561655283, 0.0006313338526524603, -0.07499142736196518, 0.002232184400781989, -0.06862221658229828, -0.09565673768520355, -0.0507739894092083, 0.02366103231906891, -0.09688115119934082, 0.07149865478277206, -0.09347265213727951, 0.020913880318403244, -0.027477623894810677, 0.09877198934555054, -0.10620850324630737, 0.07698044180870056, 0.07088146358728409, 0.0394798181951046, 0.0013146415585651994, -0.08994898945093155, -0.04071812331676483, 0.01697906292974949, 0.04289660230278969, -4.0565595554653555e-05, 0.05349801480770111, -0.05789016932249069, 0.03459258750081062, 0.012060485780239105, 0.023531965911388397, 0.06438285112380981, 0.07251906394958496], [-0.08442814648151398, -0.12720760703086853, 0.05061950534582138, 0.08313144743442535, 0.06670062243938446, -0.004201792646199465, -0.05431020259857178, 0.12192665040493011, 0.0424862839281559, 0.029647711664438248, 0.051890335977077484, -0.0862308144569397, -0.06977209448814392, 0.11923746019601822, 0.029871469363570213, -0.07200589030981064, 0.04131780564785004, -0.006814912427216768, -0.0825231522321701, 0.033104728907346725, 0.042201634496450424, -0.03293607011437416, -0.09455811232328415, -0.015412122011184692, 0.08553219586610794, 0.04675111174583435, 0.09631592035293579, -0.08617269992828369, -0.018837373703718185, 0.10848277062177658, -0.07432038336992264, -0.12058526277542114, 0.026726076379418373, -0.06058783829212189, -0.07510662078857422, 0.04016615450382233, -0.03394051268696785, -0.020726360380649567, -0.05199989676475525, -0.07992023229598999, 0.00784385111182928, -0.0982443168759346, 0.040151529014110565, -0.001590532367117703, 0.10558728873729706, 0.054859355092048645, -0.12157601863145828, -0.031362541019916534, -0.09952299296855927, 0.06592483073472977, 0.08639833331108093, -0.013261181302368641, 0.100225068628788, -0.04472102224826813, -0.006678878329694271, 0.11410007625818253, 0.030115650966763496, -0.03366644307971001, -0.012792946770787239, 0.01751965656876564, -0.03591161221265793, -0.020272977650165558, -0.035141460597515106, -0.05208165571093559], [-0.13096404075622559, -0.10780532658100128, 0.03320245444774628, -0.05300973728299141, -0.010124333202838898, 0.10458898544311523, -0.0758817195892334, -0.011492030695080757, -0.054161060601472855, 0.08609193563461304, 0.06042852997779846, -0.05760857090353966, -0.022749755531549454, -0.0010728437919169664, -0.016487475484609604, -0.03275057673454285, -0.07384175807237625, 0.07879709452390671, -0.09015598893165588, 0.019649676978588104, 0.015448786318302155, -0.025224903598427773, 0.07422208786010742, 0.08305837959051132, -0.024434491991996765, -0.1059737354516983, -0.08945291489362717, -0.11622357368469238, 0.015852635726332664, 0.08844301104545593, -0.0665540024638176, 0.062481366097927094, -0.07253465056419373, -0.11984588205814362, 0.026769109070301056, 0.0028701876290142536, 0.04530644044280052, 0.04433485120534897, -0.07573731243610382, -0.007770889904350042, -0.06414475291967392, 0.003565473249182105, -0.08558309078216553, 0.01920144632458687, -0.10039576888084412, 0.022837765514850616, -0.026902250945568085, -0.09184188395738602, -0.05042745918035507, 0.07807552069425583, 0.06553779542446136, 0.07021275907754898, -0.08918479084968567, -0.0015023475280031562, 0.01664241962134838, 0.025716599076986313, 0.10423215478658676, 0.10716724395751953, 0.0768485888838768, -0.04197826236486435, -0.09404145181179047, 0.027954770252108574, 0.09555446356534958, 0.07964786142110825], [-0.06508100777864456, 0.10106778144836426, 0.04351203143596649, 0.03914375230669975, -0.1092773899435997, 0.06671872735023499, -0.11910726875066757, 0.013177684508264065, 0.04447461664676666, 0.08619435876607895, 0.015940751880407333, 0.04369603097438812, -0.12365475296974182, -0.12568950653076172, -0.09379848092794418, 0.024304181337356567, 0.01387711614370346, -0.08237488567829132, -0.09126852452754974, 0.03811808302998543, 0.07161208242177963, -0.024828417226672173, -0.09015421569347382, -0.12154056131839752, -0.014818438328802586, -0.10249342024326324, -0.05248835310339928, -0.03962790220975876, -0.0817805826663971, 0.1354956179857254, -0.090400330722332, 0.07922280579805374, -0.03022853098809719, -0.12178290635347366, 0.05273384228348732, -0.041064631193876266, 0.049352843314409256, -0.0853196308016777, 0.06388943642377853, -0.09514658153057098, -0.031798943877220154, 0.06506013125181198, -0.06430869549512863, -0.08225797861814499, -0.07219954580068588, 0.019898351281881332, 0.10432389378547668, -0.09879519045352936, 0.05672295019030571, 0.07075883448123932, 0.014456045813858509, 0.0019370784284546971, -0.0738125890493393, -0.04104055091738701, -0.1146354079246521, -0.12389513850212097, -0.08338789641857147, 0.021295730024576187, 0.08599452674388885, -0.09143281728029251, -0.03287374600768089, -0.04454489052295685, -0.11522656679153442, 0.007988803088665009], [-0.09176550805568695, -0.0914587676525116, -0.023269999772310257, 0.05390376225113869, 0.07331252843141556, 0.09596248716115952, -0.09670469164848328, 0.05635492876172066, -0.03632164001464844, -0.054641805589199066, 0.12355460971593857, -0.07229066640138626, 0.11187677085399628, -0.024579819291830063, 0.105473592877388, -0.037818457931280136, 0.008606386370956898, -0.052458178251981735, -0.025905780494213104, -0.08485553413629532, 0.06065024435520172, 0.07121346890926361, -0.0015272819437086582, -0.11566034704446793, -0.07284017652273178, 0.09943853318691254, 0.01274522952735424, -0.09509899467229843, -0.09944074600934982, -0.042862631380558014, 0.061621248722076416, 0.04141111671924591, -0.08285779505968094, 0.03513692319393158, 0.051463935524225235, -0.02503831870853901, -0.08186258375644684, -0.0033048433251678944, 0.09226816892623901, 0.0015941091114655137, -0.042773161083459854, -0.06931284070014954, -0.089760422706604, 0.0287800133228302, 0.01717495732009411, -0.11201836913824081, -0.022799015045166016, 0.09340531378984451, -0.08528297394514084, 0.057550761848688126, -0.004381017759442329, -0.09377377480268478, -0.06822718679904938, -0.005720673594623804, 0.12034118920564651, -0.04835638776421547, 0.10223910212516785, 0.06718996912240982, -0.0229506716132164, -0.11365284025669098, 0.034858860075473785, 0.08554185926914215, 0.05419544130563736, 0.08255349099636078], [-0.047330692410469055, 0.12479101866483688, 0.07054062932729721, -0.012463086284697056, 0.0007612506160512567, -0.020404338836669922, 0.07399295270442963, 0.011676859110593796, 0.060786060988903046, -0.0906941220164299, 0.014759273268282413, -0.0899808257818222, -0.011896152049303055, 0.025586241856217384, -0.03758283331990242, 0.017267517745494843, -0.07263962179422379, -0.036427080631256104, 0.06918580830097198, -0.08980445563793182, 0.09543818980455399, 0.07309245318174362, -0.032364796847105026, 0.08958457410335541, -0.10755077749490738, 0.028781920671463013, -0.02757842093706131, -0.023146018385887146, 0.018025923520326614, 0.0945935770869255, -0.005988214164972305, 0.0563356876373291, -0.018502051010727882, -0.03564644604921341, 0.010755728930234909, -0.09120417386293411, -0.012418536469340324, 0.008712098002433777, -0.038698356598615646, -0.06886449456214905, -0.045802041888237, 0.004916980396956205, 0.08621076494455338, 0.1369311511516571, 0.06298309564590454, 0.0027439293917268515, -0.05136445164680481, -0.10785303264856339, 0.01559144351631403, 0.01892271265387535, -0.06168023496866226, -0.01885969564318657, -0.06310009956359863, 0.10309433192014694, -0.05841870978474617, 0.03148834779858589, -0.011989444494247437, -0.06469142436981201, -0.08313581347465515, 0.08358636498451233, -0.08913230150938034, 0.14552250504493713, -0.017321817576885223, -0.02066658064723015], [0.024830132722854614, 0.1184406727552414, 0.06006116047501564, -0.06066906824707985, 0.08716379851102829, -0.0042258999310433865, 0.04025835916399956, -0.11531966179609299, 0.08898654580116272, -0.024341540411114693, -0.006005630362778902, -0.09404220432043076, -0.03060518205165863, 0.06634381413459778, 0.14064547419548035, 0.0484750010073185, -0.10071209818124771, -0.0700083002448082, -0.12632429599761963, -0.08681070804595947, 0.05690127983689308, 0.06289716064929962, -0.04345601797103882, -0.02451133169233799, 0.1250683218240738, 0.015809908509254456, -0.05757301300764084, -0.015587485395371914, -0.052156001329422, 0.01744719222187996, 0.12969237565994263, 0.05285961180925369, 0.109186552464962, 0.07421934604644775, 0.06724358350038528, 0.11804050952196121, -0.08228769898414612, 0.07306478172540665, 0.0911785289645195, 0.019945411011576653, 0.038198813796043396, -0.09630914777517319, 0.13140004873275757, -0.0016531317960470915, -0.06139066815376282, 0.07028870284557343, -0.008162178099155426, 0.019386330619454384, -0.10748608410358429, 0.06783094257116318, 0.009842036291956902, 0.12574760615825653, 0.018147064372897148, 0.04118086025118828, -0.07385306060314178, -0.0003332066989969462, 0.0888546034693718, -0.02407279796898365, 0.029603969305753708, 0.006192738190293312, 0.11867208033800125, -0.07602515816688538, 0.08817620575428009, -0.06494796276092529], [-0.08854735642671585, 0.022847281768918037, 0.015744049102067947, -0.068513885140419, 0.10098446905612946, -0.02646879106760025, -0.10627798736095428, 0.07418785989284515, 0.019586605951189995, -0.023232584819197655, 0.0815410315990448, 0.11115621775388718, -0.05657295882701874, -0.05026745796203613, -0.0450860895216465, 0.0034534467849880457, -0.027405984699726105, -0.02239975333213806, -0.052857257425785065, -0.07234104722738266, -0.0823211818933487, 0.06973906606435776, 0.09729421883821487, 0.11138893663883209, -0.07711779326200485, -0.07201381772756577, -0.07018034905195236, -0.1074025109410286, -0.024850932881236076, -0.12742018699645996, -0.05632903054356575, -0.048118893057107925, -0.049316518008708954, 0.005191957112401724, -0.04479376971721649, 0.02252686209976673, -0.10450313985347748, 0.02984333224594593, -0.06137721613049507, 0.0017313287826254964, 0.0034391512162983418, -0.026526667177677155, 0.037732455879449844, -0.11565355956554413, 0.09912127256393433, -0.05369611084461212, 0.006922448053956032, 0.07773596048355103, 0.018327860161662102, 0.047696009278297424, 0.09614662826061249, -0.025215469300746918, -0.007180341985076666, 0.08935674279928207, 0.026298247277736664, -0.06899383664131165, -0.03695628419518471, 0.061131801456213, -0.09964293986558914, -0.02885756641626358, -0.03021920658648014, 0.10188458859920502, 0.005200626328587532, -0.060006033629179], [-0.017557309940457344, 0.05947963148355484, 0.015273225493729115, 0.03097374737262726, -0.02569151110947132, -0.0868159681558609, 0.09747322648763657, -0.0022619955707341433, -0.035689160227775574, -0.009909160435199738, 0.0554521270096302, 0.0380336157977581, 0.003921517636626959, 0.04440908133983612, -0.01040295884013176, 0.11133217066526413, 0.02743133157491684, 0.07550492137670517, 0.11754893511533737, 0.08797907829284668, 0.0024236964527517557, 0.07271908223628998, 0.05887660011649132, 0.102178193628788, -0.09629460424184799, 0.021683862432837486, 0.07731162011623383, 0.04156685620546341, -0.0002558920532464981, 0.09193529188632965, 0.10052524507045746, -0.08157239109277725, 0.0024099773727357388, 0.08543504774570465, 0.013242918998003006, 0.004850542172789574, -0.08571844547986984, -0.044246286153793335, 0.10505639761686325, 0.0793183296918869, -0.04002254828810692, 0.06512857973575592, 0.10588511824607849, 0.02401338517665863, 0.0523272342979908, 0.08579563349485397, -0.08792971819639206, -0.04427698627114296, 0.03816066309809685, 0.05171661451458931, -0.07377807050943375, 0.04449304938316345, -0.04701700806617737, 0.11389173567295074, -0.076456718146801, 0.08675657957792282, -0.04200790449976921, 0.04915845766663551, -0.03906441852450371, 0.017990227788686752, -0.054953183978796005, -0.0984485074877739, -0.08834473043680191, 0.0956609845161438], [0.0363241545855999, -0.03342857211828232, -0.09023131430149078, -0.0192783884704113, -0.1202651783823967, -0.02367517538368702, -0.01891850307583809, 0.09044620394706726, 0.11639446020126343, 0.1229863166809082, 0.014378208667039871, 0.10501671582460403, -0.01455124095082283, 0.0014856156194582582, 0.009559139609336853, -0.0012493515387177467, -0.05750800296664238, -0.005044837482273579, -0.053915634751319885, -0.019737770780920982, 0.049584295600652695, 0.0305753443390131, 0.029953300952911377, 0.09186039865016937, 0.016129888594150543, -0.051469773054122925, 0.030649380758404732, 0.11460908502340317, -0.1101929098367691, -0.0746370479464531, -0.10999339073896408, 0.13049577176570892, -0.07452188432216644, 0.0584498830139637, 0.014571649953722954, -0.04625403508543968, -0.10809562355279922, -0.10799743980169296, 0.11342069506645203, 0.08832722157239914, 0.06769982725381851, 0.03598477691411972, 0.094709113240242, 0.016453256830573082, -0.06680931895971298, -0.10173634439706802, 0.10450783371925354, 0.024608930572867393, -0.09787438064813614, -0.08827788382768631, 0.08805224299430847, 0.016252269968390465, 0.05975986644625664, 0.1161169782280922, 0.10601820051670074, -0.036506325006484985, -0.11253148317337036, -0.05597781389951706, 0.03241220489144325, 0.003586038015782833, 0.026380863040685654, -0.02126099169254303, 0.06829715520143509, 0.04951450228691101], [0.09546486288309097, 0.0813421830534935, -0.03415587916970253, 0.09372033178806305, 0.10797124356031418, 0.0034107938408851624, 0.1183251366019249, 0.08700402826070786, -0.02603546902537346, -0.12005500495433807, -0.08369080722332001, -0.11533636599779129, 0.10860508680343628, 0.09482946246862411, 0.01827116496860981, -0.09950181096792221, -0.01834176667034626, 0.06647058576345444, 0.033307041972875595, 0.06834384799003601, -0.13127979636192322, 0.06412433832883835, 0.04191044718027115, -0.06354833394289017, 0.08123553544282913, -0.005903191398829222, 0.025630362331867218, -0.00857491884380579, 0.09042368084192276, 0.011275235563516617, 0.11549670249223709, 0.07518704980611801, 0.10546255856752396, 0.050509776920080185, -0.10915608704090118, 0.05998788774013519, 0.03841005265712738, 0.04662233963608742, -0.030793258920311928, 0.05161381885409355, 0.0724191814661026, 0.07027547061443329, 0.07376918196678162, -0.11477403342723846, -0.12237643450498581, -0.0822463184595108, 0.094905786216259, -0.09066147357225418, -0.048124998807907104, 0.12136910855770111, 0.08644682168960571, -0.0641455128788948, -0.02491871453821659, 0.043114036321640015, -0.06586442142724991, 0.017824606969952583, 0.006544163450598717, -0.08056695014238358, -0.02450810745358467, 0.046104419976472855, 0.06867142021656036, -0.08448445051908493, -0.017647238448262215, -0.07512339949607849], [-0.10018479824066162, 0.012804774567484856, -0.07299793511629105, -0.09222590178251266, 0.08432173728942871, -0.039657510817050934, -0.11971137672662735, -0.024077599868178368, 0.02582172304391861, 0.018428238108754158, 0.05205468460917473, 0.05293593555688858, -0.007386044133454561, 0.0941266342997551, 0.08689209818840027, 0.07106009870767593, 0.08220867812633514, -0.04739616438746452, 0.11190232634544373, -0.10461093485355377, -0.047746967524290085, -0.0842575952410698, 0.1200585588812828, -0.07792971283197403, -0.0661037415266037, -0.09961608052253723, 0.008162294514477253, -0.09500052034854889, 0.09602844715118408, 0.02478664182126522, -0.10385958105325699, -0.058947961777448654, -0.04158696532249451, -0.09124401956796646, -0.008296921849250793, 0.1385895162820816, 0.007564473431557417, 0.020016254857182503, 0.032797206193208694, -0.02839021384716034, -0.1090957373380661, 0.014493465423583984, -0.01912420243024826, -0.021702822297811508, -0.07803387939929962, 0.09514696151018143, -0.008970580995082855, -0.04177287966012955, -0.02746051736176014, 0.07716478407382965, 0.05037253350019455, -0.0031792991794645786, -0.05084320157766342, -0.03492842987179756, 0.05860541760921478, -0.030115744099020958, -0.07435014843940735, 0.1291966438293457, -0.09302788227796555, -0.07016369700431824, 0.09006473422050476, -0.10324545949697495, -0.019900713115930557, 0.049924325197935104], [-0.029399991035461426, -0.06567272543907166, 0.01838715188205242, -0.030023029074072838, 0.09282805770635605, 0.10245173424482346, 0.020279282703995705, -0.01580076664686203, 0.09955057501792908, -0.0447053387761116, 0.0021608888637274504, 0.05637114495038986, 0.016454869881272316, 0.03935796767473221, -0.07533010840415955, 0.10202883929014206, -0.03172989934682846, -0.10709061473608017, -0.07063234597444534, 0.027586976066231728, 0.038333307951688766, -0.020332256332039833, -0.0818251371383667, -0.08568630367517471, -0.05859356001019478, -0.03539149835705757, -0.10545647144317627, -0.06819329410791397, -0.10208733379840851, -0.09487241506576538, -0.025003939867019653, -0.022805042564868927, -0.0498742051422596, 0.10481416434049606, 0.07979923486709595, 0.13151699304580688, -0.09923530369997025, -0.043159931898117065, -0.08874840289354324, 0.033401232212781906, -0.12130337953567505, -0.11146426200866699, 0.0021390244364738464, 0.01938552036881447, -0.06504485756158829, -0.048765867948532104, 0.013279249891638756, -0.052179619669914246, -0.00350403250195086, 0.03928941860795021, -0.0003214298631064594, 0.04732630029320717, 0.001339927432127297, 0.0633731484413147, -0.048576369881629944, -0.014234713278710842, 0.0517919696867466, -0.04039274528622627, 0.013814020901918411, -0.028636181727051735, -0.07325313240289688, 0.04769301787018776, 0.0977940633893013, 0.11840372532606125], [-0.0009650437859818339, -0.08423087745904922, -0.06511133164167404, -0.0873955711722374, 0.1255362182855606, -0.06660108268260956, 0.10966455936431885, -0.05619865283370018, 0.08018755167722702, -0.008394842967391014, -0.016142111271619797, -0.07027899473905563, -0.12505051493644714, 0.13852712512016296, 0.055288754403591156, 0.06169893965125084, -0.07883104681968689, -0.03217998892068863, -0.07793200016021729, 0.026435643434524536, 0.10071230679750443, 0.05919940024614334, -0.08879974484443665, -0.05477384477853775, -0.043485186994075775, -0.030139802023768425, 0.0053447335958480835, 0.09520468860864639, 0.0002828737488016486, -0.015666764229536057, 0.0039227851666510105, -0.07221098989248276, -0.10574682056903839, -0.03275831788778305, -0.04319402202963829, 0.1277645379304886, 0.07231031358242035, -0.09356331080198288, -0.07674630731344223, 0.11471939086914062, 0.032792828977108, 0.11909538507461548, 0.0404532253742218, -0.10046162456274033, 0.09051018953323364, -0.04473321512341499, -0.11664186418056488, 0.08853653073310852, -0.1317862719297409, -0.05730050057172775, 0.06292493641376495, -0.03623772785067558, -0.10968952625989914, 0.07585054636001587, 0.015932690352201462, 0.09244760125875473, 0.04610886797308922, 0.13540233671665192, 0.0977473109960556, -0.04741404950618744, 0.017760857939720154, -0.07373224198818207, 0.10076624900102615, 0.046040430665016174], [-0.021482719108462334, 0.09204176813364029, 0.09051266312599182, -0.0747477188706398, 0.03477161005139351, 0.03309530019760132, -0.04001344367861748, -0.04228629544377327, -0.06937200576066971, -0.09320654720067978, 0.08173214644193649, 0.14642533659934998, 0.11226344853639603, 0.024974195286631584, 0.07894949615001678, -0.1149846538901329, 0.08681283891201019, 0.013582597486674786, -0.07331644743680954, 0.004909951239824295, -0.12036066502332687, -0.09506266564130783, -0.07866380363702774, 0.06789283454418182, 0.09212155640125275, 0.12003912776708603, 0.04856666177511215, 0.05191190168261528, 0.07854482531547546, -0.08225986361503601, 0.10517364740371704, -0.022308994084596634, -0.023093441501259804, -0.12668786942958832, -0.01559071708470583, 0.062288448214530945, 0.03580333665013313, 0.1149107813835144, -0.1319190263748169, -0.06642939150333405, 0.0999719426035881, 0.03381317853927612, 0.0061268131248652935, 0.012385929003357887, -0.10360052436590195, -0.06978797167539597, 0.1123402789235115, -0.03249027580022812, -0.04382951557636261, -0.022327493876218796, 0.13316218554973602, 0.07232914865016937, -0.04593431204557419, -0.04268636554479599, 0.028838705271482468, -0.026759475469589233, 0.060589749366045, 0.004088273271918297, -0.039024338126182556, -0.07429106533527374, 0.022472133859992027, -0.015436637215316296, 0.07083529233932495, -0.0989965870976448], [-0.06023804098367691, -0.09227219969034195, -0.05760630592703819, 0.09122900664806366, -0.13431797921657562, 0.09695522487163544, 0.0060408045537769794, 0.059988804161548615, -0.08259689807891846, 0.047355443239212036, -0.12292075902223587, 0.09804702550172806, -0.08179553598165512, -0.08619914948940277, -0.042888861149549484, 0.053658489137887955, 0.0691298171877861, 0.030207574367523193, -0.05185294151306152, 0.05878951773047447, 0.027958938851952553, 0.03803813084959984, -0.07495996356010437, -0.05992836505174637, 0.09793665260076523, -0.0902102068066597, 0.0428151935338974, 0.08230868726968765, -0.048962630331516266, -0.07847597450017929, 0.07613246142864227, -0.10260903090238571, 0.0015011969953775406, -0.024898899719119072, 0.004716627299785614, 0.03915637359023094, -0.08522412925958633, 0.11862506717443466, -0.024694962427020073, -0.07522563636302948, 0.0799744725227356, -0.04658796638250351, -0.013343906961381435, 0.09081916511058807, -0.0004910838324576616, 0.07763580232858658, 0.05952150747179985, -0.0029619112610816956, -0.027804534882307053, 0.08102342486381531, -0.025498753413558006, 0.0017126095481216908, -0.09523436427116394, 0.09136997163295746, 0.0300667155534029, 0.07541422545909882, 0.019798845052719116, -0.08695070445537567, 0.01676381565630436, -0.059455543756484985, -0.03363408148288727, 0.002294932957738638, -0.0708003044128418, 0.04724380373954773], [0.06446018815040588, 0.03211645036935806, -0.09480343014001846, 0.08920598775148392, -0.10607165098190308, -0.052300214767456055, 0.04827776551246643, 0.04791412502527237, -0.12347989529371262, -0.06686956435441971, 0.08681351691484451, -0.07032635062932968, -0.0011173782404512167, -0.061213426291942596, -0.03512416407465935, 0.0915374830365181, 0.043225210160017014, 0.05549221485853195, 0.010714986361563206, 0.05220252275466919, -0.08975723385810852, -0.10206643491983414, -0.09002594649791718, 0.04101854935288429, -0.06910954415798187, 0.0784025639295578, 0.09891657531261444, -0.030581196770071983, -0.08381498605012894, 0.09437256306409836, 0.036516208201646805, -0.07618290930986404, -0.022223712876439095, 0.09589093923568726, 0.038082778453826904, 0.055070798844099045, 0.09276766330003738, 0.11703234910964966, 0.08539532870054245, -0.044794414192438126, -0.0043562026694417, -0.06178687512874603, -0.09655725955963135, -0.1029677614569664, 0.01276713889092207, -0.10522244870662689, -0.05282433703541756, 0.07340794056653976, -0.015735991299152374, 0.07171306014060974, 0.10964632034301758, -0.09824702143669128, 0.0433574877679348, -0.05160294100642204, 0.0839659720659256, 0.047123320400714874, 0.002693358575925231, -0.07911812514066696, -0.14444448053836823, 0.07349718362092972, 0.017127463594079018, -0.10384582728147507, 0.09703952819108963, 0.11494001746177673], [-0.08514425158500671, 0.003183566266670823, -0.038520291447639465, -0.1124192550778389, 0.023826031014323235, -0.043535247445106506, 0.01843520626425743, -0.0411413237452507, -0.08347772806882858, -0.004838110413402319, 0.027760805562138557, -0.020565727725625038, 0.13682419061660767, 0.06873906403779984, 0.0384100116789341, -0.05025557801127434, 0.1270797997713089, -0.0071074324660003185, 0.051211800426244736, -0.06991387158632278, 0.07642127573490143, -0.11987844109535217, -0.0016442002961412072, -0.06689123809337616, 0.1203014925122261, -0.020815260708332062, 0.1095496118068695, 0.04363591969013214, -0.009274366311728954, 0.10816538333892822, -0.024774406105279922, -0.10148085653781891, -0.0834023654460907, 0.10391983389854431, -0.025145726278424263, 0.016624456271529198, -0.03256363794207573, 0.03081285022199154, 0.03249847888946533, 0.009971092455089092, -0.09895119071006775, 0.02601253241300583, 0.05623485520482063, 0.010244227014482021, -0.03585909307003021, -0.11441585421562195, 0.039843060076236725, 0.0035387645475566387, 0.04589996114373207, -0.06766604632139206, -0.07298509776592255, -0.009872290305793285, -0.03774100914597511, -0.0009644596138969064, -0.00458569684997201, -0.018261317163705826, -0.009708534926176071, -0.1335936337709427, -0.033160317689180374, -0.10686960816383362, -0.08523957431316376, 0.07340884953737259, 0.0768139585852623, -0.07465675473213196], [-0.12895506620407104, -0.02224624902009964, -0.10356613248586655, 0.00890857633203268, -0.07796884328126907, 0.08806486427783966, -0.054913464933633804, -0.08877090364694595, -0.00880767684429884, -0.11703457683324814, -0.07240281999111176, 0.10301758348941803, 0.11945797502994537, 0.016978049650788307, -0.00021545613708440214, 0.10815227776765823, 0.020619498565793037, -0.053414952009916306, -0.10987523198127747, 0.0582023523747921, -0.08704327046871185, 0.025638261809945107, -0.02254091389477253, 0.09778450429439545, -0.11400575190782547, 0.04162836819887161, -0.0713750571012497, 0.12070496380329132, 0.10027085989713669, -0.06334873288869858, 0.061259083449840546, 0.07543375343084335, 0.07116373628377914, -0.10549941658973694, -0.053526390343904495, 0.005557291675359011, -0.07659570872783661, 0.004612104967236519, -0.07549649477005005, -0.10206369310617447, -0.04116157069802284, 0.027985161170363426, -0.044738467782735825, 0.007452136836946011, 0.03112296387553215, 0.0840643048286438, 0.05257728323340416, -0.03612928092479706, 0.04127095639705658, -0.0678681805729866, 0.05758040398359299, -0.04203719645738602, -0.010326005518436432, 0.04194280505180359, 0.10630793124437332, -0.0908036082983017, -0.014805193059146404, -0.06285782903432846, 0.0974622517824173, -0.013631134293973446, -0.03451200947165489, 0.09126352518796921, 0.053831905126571655, -0.02979215234518051], [-0.02568596787750721, 0.11342329531908035, 0.07470261305570602, 0.10844074934720993, -0.03928522393107414, 0.05912625417113304, 0.035719968378543854, 0.10030500590801239, -0.13495223224163055, -0.05721767991781235, 0.06392736732959747, -0.020525483414530754, -0.008048120886087418, -0.09808789193630219, 0.010207977145910263, 0.0011633482063189149, 0.020169829949736595, -0.06789666414260864, -0.05743734911084175, 0.059232696890830994, -0.09767850488424301, 0.008018077351152897, 0.10096774250268936, -0.03314175084233284, 0.039463214576244354, -0.034109774976968765, 0.0008924200083129108, -0.050285689532756805, -0.01681930013000965, 0.0735137015581131, -0.09602973610162735, 0.07486084848642349, -0.026419110596179962, -0.005316218826919794, -0.09643246233463287, -0.07838963717222214, -0.12463970482349396, 0.0830170065164566, -0.1028490886092186, 0.08200860023498535, -0.04045961797237396, -0.08859392255544662, 0.10771846771240234, -0.09974652528762817, -0.04585135355591774, 0.08612658083438873, -0.03356943652033806, -0.12222094088792801, -0.08329213410615921, 0.0008950571645982563, -0.09484609961509705, 0.030672891065478325, 0.06098466366529465, -0.05368775874376297, -0.11849386245012283, 0.03842665255069733, -0.02864702045917511, 0.024027051404118538, 0.04146445170044899, 0.10257264226675034, 0.02943142130970955, 0.02705446258187294, -0.06798326224088669, 0.10065226256847382], [0.0819244533777237, 0.047305021435022354, -0.044308923184871674, 0.07649575173854828, 0.12495779991149902, 0.032706569880247116, -0.10338930040597916, -0.06694290041923523, -0.09795873612165451, -0.032915662974119186, -0.07571571320295334, 0.052191440016031265, -0.0369655080139637, -0.061255332082509995, 0.10924836248159409, 0.10221181064844131, -0.11340127140283585, 0.05551264062523842, 0.0582776702940464, -0.1219344213604927, 0.11504235118627548, 0.05052313581109047, 0.09632784128189087, -0.04912576824426651, -0.0063155642710626125, -0.040280189365148544, -0.08183550834655762, 0.00833639781922102, 0.03502408415079117, -0.09833583980798721, 0.0005911380867473781, 0.027149736881256104, 0.04134941101074219, -0.10750578343868256, -0.017438655719161034, 0.09224521368741989, -0.08004391938447952, -0.07796382158994675, 0.02210770733654499, 0.0021801930852234364, 0.020789701491594315, 0.07152442634105682, 0.01385765615850687, -0.05552573874592781, -0.09552063792943954, 0.1322207897901535, -0.002974930452182889, 0.0002490098122507334, -0.009861147962510586, 0.020368415862321854, -0.000977625255472958, 0.03532551974058151, 0.01586081273853779, 0.0810910314321518, 0.04166664555668831, 0.1186496838927269, -0.1129445806145668, 0.06363433599472046, 0.12971757352352142, -0.01394114550203085, 0.07587248831987381, -0.03056291677057743, 0.044326797127723694, 0.07363554835319519], [0.10417107492685318, 0.02188548818230629, -0.09943313151597977, -0.0696120411157608, 0.12398673593997955, -0.011465048417448997, -0.06411312520503998, -0.09253599494695663, -0.03617405518889427, -0.04905025288462639, 0.0025535093154758215, 0.08975318819284439, -0.04083975777029991, 0.07228169590234756, -0.129803866147995, -0.003031661966815591, 0.02958071418106556, -0.11569220572710037, -0.05514143034815788, 0.07281288504600525, 0.0021097082644701004, 0.08936671167612076, -0.04862480238080025, 0.09808187186717987, 0.032133549451828, -0.11962682008743286, -0.0926692858338356, -0.0697905421257019, 0.08114162087440491, -0.0330902561545372, 0.08781450986862183, -0.09460686892271042, -0.07154273241758347, 0.10011963546276093, -0.07583726942539215, 0.07237695902585983, 0.02891603671014309, -0.07328695803880692, -0.02586175501346588, -0.062191739678382874, -0.05514813959598541, 0.12992575764656067, -0.04259625822305679, 0.1403297781944275, -0.04195127636194229, 0.059117767959833145, -0.13070502877235413, 0.0819307416677475, -0.07185574620962143, 0.038079146295785904, 0.05004233494400978, 0.07371356338262558, -0.05429897829890251, 0.036262404173612595, -0.07952475547790527, -0.026447657495737076, 0.007431047037243843, 0.16969050467014313, -0.05695787072181702, -0.08619485050439835, -0.02001473866403103, 0.04246361181139946, -0.04239608347415924, 0.07934702187776566], [-0.10532315075397491, 0.03521226346492767, -0.04515215381979942, 0.015612651593983173, -0.06619615107774734, -0.06515586376190186, -0.053109705448150635, -0.10511405766010284, 0.12042530626058578, 0.030554138123989105, -0.010318946093320847, -0.015184948220849037, 0.030006764456629753, 0.1095661148428917, -0.012920673936605453, 0.019688935950398445, 0.05606088042259216, 0.02747318334877491, 0.03508036956191063, -0.040074512362480164, -0.10908162593841553, 0.03656521439552307, 0.10390900820493698, -0.061760056763887405, -0.036375485360622406, -0.03139900416135788, 0.1549369841814041, -0.045962315052747726, 0.050185199826955795, -0.10322388261556625, 0.04171580821275711, 0.0135293984785676, -0.10734456777572632, 0.11700951308012009, 0.0437118262052536, -0.10693438351154327, -0.038187913596630096, 0.003200848586857319, -0.0032623964361846447, -0.11322289705276489, 0.12536631524562836, -0.08449685573577881, -0.059490472078323364, 0.07668231427669525, 0.04541359096765518, -2.403112011961639e-05, 0.05165380984544754, 0.05881403759121895, -0.01841985620558262, -0.05978573113679886, 0.05338408797979355, 0.06411170959472656, 0.05375431105494499, 0.08924786001443863, 0.07216206938028336, 0.04906671866774559, -0.010861625894904137, -0.1327841430902481, 0.02553395740687847, 0.027365490794181824, -0.0702182799577713, -0.0803307443857193, 0.06605179607868195, 0.006663839798420668], [0.08908042311668396, -0.13813911378383636, -0.057022906839847565, 0.02235436998307705, 0.11414176225662231, -0.07215824723243713, 0.04377569630742073, 0.1238558292388916, -0.1076301708817482, 0.10486503690481186, -0.027539346367120743, -0.08291705697774887, 0.06774775683879852, 0.10570728778839111, -0.06315162777900696, 0.07261485606431961, 0.04446125030517578, -0.09253247827291489, -0.09109226614236832, 0.007762806955724955, 0.03378472477197647, -0.06050758808851242, 0.08418872207403183, -0.08762295544147491, 0.0712662860751152, -0.10576771944761276, 0.1158050149679184, -0.07999414205551147, -0.09682514518499374, -0.03088463842868805, 0.09191740304231644, 0.07823661714792252, -0.07036202400922775, -0.11831432580947876, 0.05704224854707718, -0.06199505925178528, -0.002159732859581709, -0.07330336421728134, -0.004447160288691521, 0.0019095286261290312, -0.09058704227209091, -0.11876681447029114, 0.06448563933372498, -0.02175241708755493, -0.11062438786029816, -0.10053782165050507, -0.08053681254386902, -0.037821847945451736, -0.0990762859582901, -0.02953326888382435, -0.07785215228796005, -0.010820835828781128, 0.0064720395021140575, -0.0851568952202797, -0.10662727802991867, -0.07083602249622345, -0.10012885928153992, -0.07162836194038391, 0.10944783687591553, 0.11824501305818558, -0.07996959984302521, 0.06075681373476982, 0.03270766884088516, -0.018846670165657997], [-0.04299820959568024, 0.034056298434734344, 0.05238030478358269, -0.041228994727134705, -0.07343733310699463, -0.07470724731683731, 0.05768420174717903, -0.09618744999170303, 0.10177049785852432, 0.05497073009610176, -0.07408668845891953, -0.00359187088906765, -0.07788705080747604, 0.07515726238489151, 0.017737586051225662, 0.07936187833547592, 0.03304445743560791, 0.09985542297363281, 0.10491089522838593, -0.06654588133096695, 0.030987335368990898, 0.1160089522600174, 0.13331420719623566, 0.11794792860746384, 0.07153993844985962, 0.058496493846178055, 0.037018027156591415, 0.10659096390008926, 0.12931062281131744, -0.09012288600206375, -0.0940074771642685, -0.010457387194037437, 0.09885850548744202, 0.010025468654930592, -0.08676961064338684, -0.02086544781923294, 0.07178684324026108, 0.003760973922908306, 0.0006301751127466559, -0.06659088283777237, 0.07950451970100403, 0.03269767388701439, -0.0890674963593483, 0.045202672481536865, 0.08461830765008926, -0.03553784266114235, 0.0805225521326065, 0.07085403054952621, -0.03384320065379143, -0.046700164675712585, -0.0435255691409111, 0.03125946596264839, -0.08298579603433609, -0.109504334628582, 0.02175031043589115, 0.007879884913563728, 0.08266501873731613, -0.10934031754732132, -0.11344736069440842, 0.07606259733438492, 0.035052791237831116, 0.02197401598095894, 0.079979807138443, 0.08917582035064697], [-0.04717322811484337, 0.04140122979879379, 0.023471033200621605, -0.10424698889255524, -0.0054003167897462845, -0.12682054936885834, 0.14401906728744507, -0.05439076945185661, 0.04627552255988121, -0.016652176156640053, -0.09860958904027939, -0.056291066110134125, 0.0821257159113884, 0.09067332744598389, 0.09306731075048447, -0.05772356316447258, -0.032547976821660995, 0.02196909487247467, -0.05796249955892563, 0.08460309356451035, -0.0680033266544342, -0.013170826248824596, -0.11725099384784698, -0.09658200293779373, 0.12515601515769958, -0.09102235734462738, 0.07994968444108963, -0.009533698670566082, 0.03499642759561539, -0.031331866979599, 0.12272537499666214, 0.0932164117693901, -0.020899388939142227, 0.12657108902931213, 0.109233058989048, 0.027384966611862183, 0.038086097687482834, 0.029461026191711426, -0.009931836277246475, -0.015232598409056664, 0.055965691804885864, 0.14755971729755402, 0.11658548563718796, 0.12419329583644867, 0.004701646976172924, 0.0876513123512268, -0.12616190314292908, -0.05728118494153023, -0.12614016234874725, -0.06692642718553543, 0.008669042028486729, -0.08535710722208023, 0.06298269331455231, 0.08791226148605347, 0.021657926961779594, 0.020585838705301285, 0.022235995158553123, -0.09486018121242523, 0.0198823232203722, 0.09481596946716309, 0.0727182924747467, -0.027936559170484543, 0.032596152275800705, 0.03362424671649933], [0.04847664386034012, 0.01855560392141342, -0.1103476732969284, -0.06178795173764229, 0.13065627217292786, 0.06970486044883728, 0.04652604088187218, -0.04697119817137718, 0.0837450698018074, 0.08821161836385727, 0.05647524818778038, 0.004034923389554024, 0.10135884582996368, -0.06021362170577049, 0.0895826667547226, 0.029858361929655075, -0.06435035169124603, 0.08534692972898483, 0.03385605290532112, -0.13884055614471436, 0.03662851080298424, 0.11243702471256256, 0.05106586962938309, 0.002732890658080578, 0.03907912224531174, -0.02680356614291668, -0.03929617255926132, 0.08514948934316635, 0.01715857908129692, -0.07203240692615509, 0.04762548208236694, -0.08148996531963348, 0.08467011153697968, -0.07639632374048233, 0.06632847338914871, 0.09635822474956512, 0.029908031225204468, 0.06315752863883972, 0.06874844431877136, 0.08767092227935791, 0.047737784683704376, -0.02121923677623272, -0.1329432874917984, -0.016339551657438278, -0.002111451467499137, -0.03612648323178291, -0.04728332906961441, -0.09216535091400146, 0.00041631641215644777, -0.00534931942820549, -0.11291155964136124, 0.06699689477682114, -0.02625054493546486, 0.0768822431564331, 0.03756803274154663, -0.09045174717903137, -0.08034827560186386, 0.033214960247278214, 0.03476092591881752, -0.021735025569796562, -0.03236646205186844, -0.05734853819012642, 0.05882597714662552, -0.06188936531543732], [0.08607104420661926, 0.024094579741358757, 0.08338876068592072, 0.10232794284820557, 0.0515449121594429, 0.0638577789068222, -0.02924446016550064, -0.0976932942867279, 0.04692942276597023, -0.02080403082072735, -0.0771164745092392, 0.005752673372626305, 0.10044166445732117, 0.0988750010728836, -0.06915963441133499, -0.01072409376502037, 0.10426598787307739, -0.07220795750617981, -0.1116366758942604, -0.07596957683563232, 0.052549317479133606, 0.08352349698543549, 0.04568253085017204, 0.036093950271606445, 0.06440967321395874, -0.02111547812819481, 0.06965968012809753, -0.003597432980313897, 0.050190918147563934, 0.05716949701309204, -0.12014656513929367, 0.0015196515014395118, -0.11243876814842224, -0.036878425627946854, 0.09723769128322601, -0.057255249470472336, 0.13068093359470367, -0.012354937382042408, 0.04550613462924957, -0.08004061877727509, 0.02809116058051586, 0.12823393940925598, -0.00614463584497571, -0.01257485430687666, 0.05793815106153488, -0.1280338317155838, -0.08455788344144821, 0.05703667178750038, 0.03914353623986244, -0.029791677370667458, 0.05702931433916092, -0.06712417304515839, 0.08603819459676743, 0.022999873384833336, -0.04914748668670654, -0.028860779479146004, -0.08141647279262543, -0.032328732311725616, 0.060285888612270355, 0.06239373981952667, 0.07591570913791656, -0.08146370202302933, -0.09496660530567169, -0.11501792818307877], [0.10879167914390564, -0.032573312520980835, 0.029520947486162186, -0.05451727658510208, 0.07876120507717133, 0.059320591390132904, -0.12738023698329926, -0.09709164500236511, -0.09290484338998795, 0.031788699328899384, 0.038024842739105225, 0.055503491312265396, -0.05289371684193611, -0.09134581685066223, 0.006278887391090393, 0.009494170546531677, 0.0361752025783062, -0.03139084205031395, -0.07364605367183685, 0.012377439066767693, 0.03637418523430824, -0.0026468781288713217, 0.04888748750090599, 0.02954922430217266, 0.08668678253889084, 0.13633862137794495, -0.09851673990488052, 0.03139536827802658, -0.09901835024356842, 0.11825751513242722, 0.10851749777793884, -0.10201109200716019, 0.03252207115292549, -0.030666295439004898, 0.10993936657905579, 0.009727693162858486, -0.10984273254871368, -0.03454023227095604, -0.022613346576690674, 0.12799914181232452, 0.022822773084044456, -0.010961687192320824, -0.03242356330156326, 0.019722027704119682, -0.11464212834835052, -0.1028163731098175, -0.10978863388299942, -0.12978456914424896, -0.02068108692765236, 0.06913537532091141, 0.035517312586307526, 0.011193852871656418, 0.11895745247602463, -0.06821558624505997, 0.07288143783807755, -0.00912152137607336, 0.02601524628698826, 0.02778005786240101, -0.09287441521883011, -0.08364401012659073, 0.11404391378164291, 0.07851061969995499, 0.0823678970336914, 0.12307509034872055], [-0.04869189113378525, -0.07355420291423798, -0.08747100085020065, -0.018770301714539528, -0.034461576491594315, -0.017666993662714958, 0.04057984799146652, 0.012347097508609295, 0.05548854544758797, -0.05857974663376808, -0.10530626773834229, 0.08359845727682114, -0.0863301157951355, -0.07932677865028381, 0.0972677543759346, 0.05103787034749985, -0.07392959296703339, 0.08881090581417084, 0.017141904681921005, -0.04154560714960098, 0.054724499583244324, 0.07107874751091003, 0.0039345440454781055, 0.07698284089565277, -0.06446380913257599, -0.1300724893808365, 0.12774452567100525, -0.00021260017820168287, 0.026086177676916122, 0.11219418048858643, 0.07879999279975891, -0.0569174662232399, -0.03509227931499481, 0.08297096937894821, 0.08166574686765671, 0.09927048534154892, 0.010006099939346313, -0.06385242938995361, -0.07472984492778778, -0.05640999227762222, -0.11216020584106445, -0.0596451498568058, 0.008275771513581276, -0.10743548721075058, -0.013856621459126472, -0.042227838188409805, 0.10928218811750412, -0.0025562194641679525, 0.06476056575775146, -0.020971745252609253, -0.06512732058763504, 0.07814960926771164, 0.0918925330042839, -0.054594915360212326, -0.03550801798701286, 0.056814976036548615, -0.10791327059268951, -0.09952487796545029, 0.060406748205423355, -0.08311145007610321, -0.013124174438416958, 0.09362179040908813, 0.10158086568117142, 0.10531119257211685], [-0.025924010202288628, -0.014223242178559303, 0.04996771737933159, -0.035433944314718246, 0.0480528362095356, -0.038154151290655136, -0.02746647596359253, 0.13029444217681885, -0.07794851809740067, 0.11007653921842575, -0.03366607427597046, -0.086542509496212, -0.026392851024866104, -0.11477648466825485, 0.0063212160021066666, 0.02740263007581234, 0.034764744341373444, -0.08831878006458282, 0.007048927713185549, -0.08216041326522827, -0.024258146062493324, 0.03831006959080696, -0.06345312297344208, -0.053247082978487015, -0.0253042783588171, 0.03155068680644035, 0.1482921689748764, -0.06805403530597687, 0.09815018624067307, -0.0008855977794155478, 0.0343775749206543, 0.0702173039317131, 0.08990208059549332, 0.028553495183587074, -0.04921524599194527, -0.12690025568008423, -0.07427789270877838, -0.008957384154200554, -0.03688232600688934, 0.04020923376083374, -0.07239875942468643, -0.03255179524421692, 0.08409718424081802, -0.1321585774421692, -0.11934436112642288, -0.09665738791227341, 0.037405092269182205, -0.011632288806140423, 0.06823956966400146, 0.07115546613931656, -0.08334080874919891, -0.0365271233022213, 0.08429648727178574, -0.014223102480173111, 0.021518010646104813, -0.06436924636363983, -0.09876184165477753, 0.09403384476900101, -0.1361842006444931, -0.033215153962373734, -0.05504729598760605, -0.05239873751997948, -0.014418521896004677, -0.09507853537797928], [0.02085772342979908, 0.0763305053114891, 0.12193691730499268, 0.01317665632814169, 0.09559555351734161, 0.09601687639951706, -0.052565112709999084, 0.03403574973344803, -0.01001855917274952, 0.09282900393009186, -0.05848019942641258, 0.08755467087030411, -0.06498830765485764, -0.0114121800288558, 0.1206606850028038, -0.04729952663183212, -0.06630537658929825, -0.11203329265117645, -0.1158813089132309, -0.03725101053714752, 0.1363377720117569, -0.05493619665503502, 0.07778318226337433, -0.040984924882650375, -0.06434790790081024, -0.0051163844764232635, -0.07126904278993607, -0.09979274868965149, -0.07436897605657578, -0.09597330540418625, 0.03456427901983261, -0.0855327919125557, 0.10864221304655075, 0.03303252160549164, 0.012829641811549664, 0.1447373777627945, -0.013507724739611149, -0.07597335427999496, 0.008097970858216286, -0.03079868108034134, -0.1046094074845314, -0.058866944164037704, -0.028442831709980965, -0.06872614473104477, 0.05386762320995331, 0.09726937115192413, 0.03300214186310768, 0.07874102145433426, -0.10677607357501984, -0.1076609194278717, -0.03110472857952118, -0.012346643023192883, 0.07623978704214096, 0.019649341702461243, -0.06504055857658386, -0.08614528924226761, -0.11567601561546326, -0.07145232707262039, 0.0007889991975389421, 0.07422419637441635, 0.0350288562476635, 0.021535208448767662, -0.09588006138801575, -0.09810931980609894], [-0.030601032078266144, 0.021985026076436043, 0.06503400206565857, 0.033584464341402054, 0.09978584945201874, 0.017465567216277122, -0.09615588933229446, 0.024478543549776077, -0.0947132408618927, 0.0551505982875824, 0.04476594179868698, -0.07864218205213547, 0.005207936279475689, -0.060655802488327026, 0.014596415683627129, 0.049064427614212036, 0.06763006746768951, -0.10648402571678162, -0.012070328928530216, 0.07690823823213577, 0.05749102681875229, -0.12983852624893188, 0.10598868131637573, -0.08998936414718628, 0.10923148691654205, -0.07317792624235153, -0.04301472380757332, 0.09871549159288406, 0.10802610218524933, -0.043923694640398026, 0.07486617565155029, -0.11752788722515106, -0.039518799632787704, -0.020434333011507988, -0.09787426888942719, -0.043826356530189514, -0.08914712816476822, 0.12650984525680542, -0.10809174925088882, 0.07787101715803146, -0.07836642116308212, 0.03786224126815796, 0.06415480375289917, 0.03449949249625206, -0.072471983730793, 0.102105513215065, 0.10534188151359558, -0.07459412515163422, 0.024461496621370316, -0.11245802789926529, 0.056386109441518784, -0.034889303147792816, -0.05477341637015343, -0.10058926045894623, 0.10041835904121399, -0.017626581713557243, 0.02614932879805565, 0.02464458905160427, 0.05361499264836311, 0.1036514937877655, -0.054722268134355545, -0.11213228851556778, -0.021409383043646812, -0.05191982537508011], [0.025666212663054466, 0.09986564517021179, 0.02508433721959591, 0.01806854084134102, -0.11433377861976624, 0.06857934594154358, 0.032095056027173996, 0.062147367745637894, 0.026239676401019096, -0.00012997844896744937, 0.06637153774499893, -0.032856475561857224, 0.07801492512226105, 0.003966446500271559, 0.022074323147535324, 0.07783256471157074, 0.05396560579538345, -0.020742855966091156, -0.0498913936316967, 0.12095770984888077, 0.11849451065063477, -0.1074066162109375, 0.01540304534137249, 0.05338364467024803, 0.029067890718579292, -0.0606713630259037, -0.07721304893493652, 0.040020838379859924, 0.08614284545183182, 0.07400358468294144, -0.10059892386198044, -0.08988579362630844, -0.06999140977859497, -0.041426099836826324, -0.1235194057226181, -0.029067615047097206, 0.034148234874010086, 0.0174985583871603, -0.05743224546313286, 0.011786205694079399, 0.02188355103135109, 0.014747491106390953, 0.03794120252132416, 0.02818106859922409, -0.0654221624135971, 0.08843624591827393, -0.014541948214173317, 0.10078519582748413, 0.08155017346143723, 0.04649488255381584, 0.060116808861494064, -0.08338691294193268, 0.017269372940063477, 0.0967186987400055, 0.02852504700422287, 0.06262259185314178, -0.04918742924928665, -0.037411533296108246, -0.004683362785726786, 0.030285563319921494, -0.06716931611299515, 0.060621101409196854, -0.02623854950070381, -0.13019898533821106], [0.0017233429243788123, 0.02950333058834076, -0.08653871715068817, -0.0025002954062074423, -0.008836446329951286, -0.09497277438640594, -0.03975013643503189, 0.014197597280144691, -0.11552266031503677, -0.029762081801891327, 0.010166356340050697, 0.0054519884288311005, 0.06906437873840332, -0.03192364424467087, 0.009819007478654385, 0.060319967567920685, 0.047735247761011124, 0.03937453404068947, -0.018881862983107567, 0.06128851696848869, -0.100791797041893, 0.01486283726990223, 0.024387968704104424, -0.049483295530080795, -0.11235278844833374, 0.07895020395517349, 0.08654585480690002, 0.019041381776332855, -0.01645873859524727, 0.09948068112134933, -0.11498740315437317, 0.05586625635623932, 0.08792637288570404, -0.008350027725100517, -0.07148675620555878, 0.0363624207675457, 0.03814711794257164, 0.027561243623495102, -0.11086797714233398, 0.053417693823575974, 0.008364541456103325, 0.003597188973799348, 0.00287971762008965, 0.02902315743267536, -0.025991177186369896, 0.0179587472230196, 0.07467728853225708, 0.04909449443221092, 