{"hyperparams": {}, "state_dict": {"rnn.weight_ih_l0": [[0.11288070678710938, 0.04002540558576584, 0.011764022521674633, -0.06591837853193283, -0.04091225191950798, 0.10080672800540924, -0.05272514373064041, -0.08048895001411438, -0.08907958120107651], [-0.045288555324077606, 0.038650915026664734, -0.04153309389948845, -0.10482713580131531, 0.10065239667892456, -0.027066580951213837, 0.07503208518028259, -0.08548720926046371, 0.012371531687676907], [-0.03687276691198349, 0.011422953568398952, 0.014263881370425224, -0.0555570162832737, -0.07370393723249435, 0.08226629346609116, -0.0926850363612175, 0.04880541190505028, 0.04055807739496231], [0.04884211719036102, -0.01012860331684351, 0.035189270973205566, 0.01156354509294033, 0.050577662885189056, 0.03220666944980621, 0.057398565113544464, -0.013954280875623226, -0.08551008999347687], [0.10240118950605392, 0.058854520320892334, -0.03185391426086426, -0.0391390323638916, -0.09504794329404831, -0.08785761892795563, 0.017360836267471313, 0.06526642292737961, -0.05527562275528908], [0.009729168377816677, 0.018671831116080284, -0.10303895175457001, 0.04018678888678551, -0.10187634080648422, 0.016860557720065117, 0.05699022486805916, 0.013957087881863117, -0.1042027547955513], [-0.0049908943474292755, -0.11130610853433609, 0.07004223763942719, 0.0812157690525055, 0.08146939426660538, 0.09979536384344101, 0.07388219237327576, -0.044106751680374146, -0.114799365401268], [-0.05042643845081329, -0.08649647235870361, 0.07732884585857391, -0.05154482275247574, 0.07774398475885391, 0.0991339460015297, 0.09491553902626038, 0.03028932400047779, 0.07090514898300171], [0.028609009459614754, 0.009229928255081177, 0.08869180828332901, -0.07558528333902359, 0.012145601212978363, -0.09656640142202377, -0.050661031156778336, 0.026943044736981392, -0.022969074547290802], [-0.07664588838815689, -0.013776500709354877, 0.0975494459271431, -0.09299832582473755, -0.010594870895147324, -0.09380397200584412, -0.06882456690073013, -0.05750812590122223, 0.10896019637584686], [-0.015128976665437222, -0.0718497708439827, -0.05327010899782181, 0.09503283351659775, 0.09384053945541382, 0.06418148428201675, 0.06045229732990265, 0.019634326919913292, -0.04274899140000343], [-0.10062198340892792, 0.0243217833340168, 0.04450550302863121, 0.11277439445257187, 0.022831451147794724, -0.07872962206602097, 0.06989280134439468, 0.045372627675533295, 0.01563645526766777], [0.06561511009931564, -0.09558727592229843, 0.0908241793513298, 0.05695348232984543, 0.05359483137726784, -0.12829333543777466, -0.0847855880856514, -0.044836293905973434, 0.023834560066461563], [-0.01059685554355383, -0.027286019176244736, -0.028576990589499474, -0.04500102624297142, -0.07202459126710892, -0.013841884210705757, -0.0356803797185421, -0.09811308234930038, -0.07939689606428146], [-0.006473135203123093, -0.06830941885709763, -0.005126718897372484, -0.09260321408510208, 0.037150926887989044, 0.045618221163749695, -0.11721470952033997, 0.03764742240309715, -0.07344025373458862], [0.05274670943617821, -0.042022887617349625, -0.04794517904520035, -0.07174511253833771, 0.06192198395729065, 0.04147743433713913, 0.09896308928728104, -0.1060374453663826, 0.08628347516059875], [-0.02508501708507538, -0.058794017881155014, 0.07693697512149811, 0.07397735863924026, 0.09489846974611282, 0.03416184335947037, -0.04467131569981575, 0.023557642474770546, 0.05618349462747574], [0.12306760251522064, 0.04211804270744324, -0.11583633720874786, 0.04969687759876251, 0.0017398030031472445, 0.11108263581991196, -0.08485064655542374, 0.022889042273163795, 0.09214013069868088], [-0.0029710896778851748, -0.009869447909295559, 0.02280803956091404, -0.014788664877414703, 0.08990521728992462, 0.06014341115951538, -0.1142289787530899, 0.03142469748854637, 0.10461055487394333], [0.050433941185474396, 0.021670592948794365, 0.012708267197012901, 0.020939284935593605, 0.07275524735450745, -0.042837515473365784, 0.0973331555724144, -0.025191349908709526, -0.10563716292381287], [0.07626576721668243, -0.03638279438018799, -0.02938663214445114, 0.08032789081335068, -0.0036697734612971544, -0.05601624399423599, -0.11181680858135223, 0.08812200278043747, 0.0755125880241394], [0.10597159713506699, -0.031614650040864944, 0.05283317714929581, -0.05913107842206955, -0.08528760075569153, 0.010478812269866467, 0.05130411684513092, -0.03694930672645569, 0.003286892781034112], [0.03617275133728981, 0.10250271111726761, -0.08432174474000931, -0.05452388897538185, 0.044854871928691864, -0.01974634639918804, 0.0027723750099539757, -0.08270163089036942, -0.03671807050704956], [-0.0951339602470398, -0.1036430150270462, 0.041415926069021225, -0.10144355893135071, -0.11273206025362015, 0.12493368238210678, -0.012723442167043686, 0.06065674126148224, 0.08620960265398026], [0.05339733511209488, -0.04189043492078781, -0.13062189519405365, -0.07646354287862778, -0.03679439797997475, -0.019464407116174698, 0.07566963136196136, 0.009441140107810497, -0.021053481847047806], [-0.09575136750936508, -0.05336394160985947, 0.06394077092409134, 0.08888116478919983, -0.026404904201626778, -0.0073384568095207214, 0.0060932268388569355, 0.0947546660900116, 0.05976420268416405], [0.03505143150687218, -0.011317893862724304, -0.07162104547023773, -0.02193610556423664, 0.019874848425388336, 0.08709930628538132, 0.07907107472419739, 0.04288395121693611, 0.02777564711868763], [-0.06701595336198807, -0.015457985922694206, -0.03006795234978199, -0.03838265687227249, -0.0327938012778759, -0.11110883951187134, 0.06829416751861572, -0.05527588725090027, 0.0002602794556878507], [-0.019540222361683846, -0.11972793191671371, 0.0025553961750119925, 0.09221383929252625, 0.00257619796320796, -0.08868135511875153, 0.030954228714108467, -0.07302276045084, 0.016390375792980194], [-0.08395333588123322, -0.07722746580839157, 0.09017328172922134, -0.0817888006567955, 0.10281719267368317, -0.010470718145370483, 0.010057356208562851, 0.010657410137355328, -0.06263969838619232], [-0.06621859967708588, -0.05836759880185127, 0.03300425410270691, 0.03915680944919586, -0.08025690168142319, 0.1021488755941391, -0.0967949628829956, 0.06414778530597687, -0.0500822514295578], [0.11780336499214172, -0.029810762032866478, 0.08965929597616196, -0.043100859969854355, -0.0032023033127188683, -0.04511405900120735, -0.03015706315636635, 0.0788460299372673, -0.011105665937066078], [0.1055673286318779, 0.052776407450437546, -0.02418660745024681, -0.017134124413132668, -0.10169918835163116, 0.05692002922296524, -0.09586082398891449, 0.016362814232707024, 0.09000465273857117], [-0.09919194132089615, -0.0620456263422966, 0.06341222673654556, 0.01964995637536049, -0.08701159060001373, 0.02069113776087761, 0.05560103803873062, 0.09288909286260605, 0.06716492772102356], [-0.011199047788977623, 0.013714444823563099, -0.07263022661209106, -0.06048427149653435, -0.09678931534290314, 0.06861789524555206, 0.09072474390268326, -0.10924489051103592, 0.06863582134246826], [0.035882480442523956, -0.11014921963214874, 0.08201513439416885, 0.0994415283203125, -0.10175985842943192, -0.02381623350083828, 0.051276031881570816, 7.411782280541956e-05, 0.0271768681704998], [0.00783393532037735, 0.0019988161511719227, -0.10787292569875717, -0.02233441360294819, 0.0854271799325943, -0.10561557114124298, -0.1287267804145813, 0.08501105010509491, -0.05270078033208847], [-0.0478772409260273, 0.10929591208696365, -0.04196136072278023, -0.09891123324632645, -0.043944135308265686, -0.008693033829331398, -0.10437547415494919, 0.041424866765737534, -0.06201895698904991], [0.01569730043411255, 0.09026110172271729, -0.09077197313308716, -0.0009457098203711212, 0.00838726107031107, -0.06841012090444565, -0.024122187867760658, -0.10420891642570496, -0.06793281435966492], [-0.061686672270298004, 0.062410835176706314, 0.005384364165365696, -0.07459360361099243, -0.0805026963353157, 0.08128606528043747, 0.034707821905612946, 0.08970526605844498, -0.10259339213371277], [0.08644145727157593, 0.09559787809848785, -0.0333859845995903, 0.05626632645726204, -0.05404319986701012, 0.04678679257631302, 0.06515771895647049, -0.0952259823679924, -0.06810913234949112], [0.023149827495217323, -0.010394438169896603, 0.07659785449504852, 0.04953090846538544, -0.053086355328559875, 0.10234162211418152, -0.1335945576429367, 0.07820826768875122, -0.0032649647910147905], [0.08655330538749695, -0.10739581286907196, 0.08248548209667206, 0.06544476002454758, -0.08962132036685944, 0.07374132424592972, 0.07408569008111954, -0.1006888598203659, 0.06964264065027237], [0.09688497334718704, 0.09929519146680832, 0.0728669986128807, 0.03784388676285744, -0.07052124291658401, -0.011096754111349583, -0.045328255742788315, -0.056029755622148514, -0.06490594148635864], [-0.0752759650349617, 0.08516725152730942, 0.0462581142783165, 0.029706915840506554, -0.08965449780225754, -0.00045914671500213444, -0.0910353809595108, -0.05997910350561142, 0.08256804198026657], [-0.0106271430850029, 0.12101755291223526, 0.030713308602571487, -0.040235720574855804, 0.1176263764500618, -0.02457667700946331, 0.005556551273912191, -0.11355600506067276, -0.0941152423620224], [-0.005233506206423044, -0.07934453338384628, 0.042885228991508484, -0.07068514078855515, -0.11748790740966797, -0.07825697213411331, -0.09730323404073715, 0.08836837857961655, 0.10699013620615005], [-0.008127005770802498, -0.09206317365169525, 0.08846303075551987, -0.052257806062698364, -0.06921053677797318, -0.06035201624035835, -0.09855439513921738, -0.02117556519806385, -0.03137291222810745], [0.0005985387833788991, -0.1005057618021965, 0.08359788358211517, -0.11426244676113129, -0.12534482777118683, -0.019966991618275642, -0.11163867264986038, -0.04646638035774231, 0.04076189175248146], [-0.0940823182463646, 0.005464271642267704, -0.08066058158874512, 0.09900769591331482, 0.05555613711476326, 0.03446996212005615, 0.03242374584078789, 0.01733272895216942, -0.021546440199017525], [0.14202763140201569, -0.05364004150032997, -0.08356641978025436, 0.009563179686665535, -0.0875367671251297, -0.05513817444443703, -0.07770564407110214, -0.007164227310568094, -0.03506350517272949], [-0.08448188006877899, 0.0024770337622612715, 0.012680848129093647, 0.050514012575149536, -0.029632987454533577, -0.10299339890480042, -0.028865430504083633, 0.05236120894551277, 0.016048217192292213], [0.00309065287001431, 0.016733774915337563, 0.013327058404684067, 0.040467407554388046, -0.03438238799571991, 0.09101552516222, -0.0034053493291139603, -0.0995018407702446, 0.017412617802619934], [-0.05003514885902405, 0.10362498462200165, -0.0735584944486618, 0.03532871976494789, -0.018318479880690575, 0.10027318447828293, 0.06783582270145416, -0.11255887895822525, 0.05386717617511749], [-0.009874318726360798, 0.10770155489444733, 0.09693767130374908, 0.11137381941080093, -0.08741280436515808, -0.04484475776553154, -0.11179319769144058, -0.1052108108997345, -0.0642785057425499], [0.05151474103331566, 0.08390145003795624, -0.08711497485637665, -0.11412019282579422, 0.005356995854526758, 0.03274024650454521, 0.09147237986326218, -0.09900975227355957, 0.09731633961200714], [0.10022550821304321, 0.05917159095406532, -0.06696314364671707, -0.11318375170230865, 0.08878810703754425, 0.10517348349094391, -0.083370640873909, 0.009955095127224922, 0.10631496459245682], [-0.11881040781736374, 0.09979241341352463, 0.0989290252327919, -0.07861791551113129, 0.02268737182021141, -0.07936476916074753, 0.009557629004120827, 0.030507968738675117, -0.0538644939661026], [0.10466159135103226, -0.0844910517334938, 0.010691298171877861, -0.07759476453065872, 0.038409456610679626, 0.07144631445407867, -0.020681167021393776, -0.002048001391813159, 0.09641902893781662], [-0.04936830699443817, 0.03775401413440704, -0.10158287733793259, 0.01688462123274803, -0.021237945184111595, 0.1183570995926857, 0.12386681139469147, -0.078836590051651, -0.03058384358882904], [0.044437065720558167, -0.09045450389385223, 0.05547354370355606, 0.05862869322299957, -0.020678849890828133, -0.07190804183483124, 0.028611499816179276, 0.06408125907182693, -0.06518368422985077], [0.06655609607696533, -0.08630941808223724, -0.014293360523879528, -0.06411530077457428, 0.1189659908413887, 0.0074195112101733685, -0.09299053996801376, 0.06703022122383118, 0.10365623235702515], [-0.09764281660318375, -0.025162149220705032, -0.0361253097653389, -0.012513356283307076, -0.048597950488328934, -0.06136193498969078, -0.026875898241996765, -0.032906245440244675, -0.026181312277913094], [0.08119237422943115, -0.017310652881860733, 0.12237583100795746, -0.030063781887292862, 0.0024444388691335917, -0.08836110681295395, 0.10588108748197556, -0.09361151605844498, -0.07311441004276276]], "rnn.weight_hh_l0": [[-0.07341340184211731, 0.09413116425275803, 0.10438796132802963, 0.06318632513284683, -0.08588824421167374, -0.04508024826645851, -0.027520863339304924, -0.035168688744306564, 0.10859153419733047, -0.05804266035556793, 0.03311750292778015, 0.02877655066549778, -0.09341162443161011, 0.058990225195884705, 0.01978643611073494, 0.1231229156255722, -0.0487959198653698, -0.05857942998409271, -0.06645190715789795, 0.06802462786436081, -0.012210624292492867, 0.05857639014720917, 0.02676367200911045, 0.021062586456537247, -0.01809626631438732, -0.04166487976908684, 0.03961002826690674, 0.1056644544005394, 0.08827250450849533, -0.09905305504798889, 0.027557160705327988, 0.05569934844970703, 0.051714010536670685, 0.07281885296106339, -0.012993873097002506, -0.040194544941186905, -0.02765694633126259, 0.05254164710640907, 0.04953228682279587, 0.1322994828224182, 0.04950258135795593, -0.0036403622943907976, -0.09771284461021423, -0.06546956300735474, -0.0906710997223854, 0.01099884882569313, 0.03281549736857414, 0.0028918550815433264, 0.10396266728639603, -0.05375785008072853, -0.024832582101225853, 0.048056282103061676, 0.09254666417837143, -0.008753041736781597, 0.05919205769896507, 0.06904814392328262, -0.00673954002559185, -0.10141142457723618, 0.005840005353093147, -0.04063720628619194, 0.046834833920001984, -0.10600407421588898, -0.027448195964097977, -0.0841321125626564], [-0.12423473596572876, -0.05330770090222359, -0.038044098764657974, 0.13447818160057068, 0.10214270651340485, -0.012308361940085888, -0.0699903815984726, -0.018602043390274048, 0.0025286755990236998, 0.056263264268636703, -0.018498336896300316, -0.10679391771554947, 0.05136356130242348, 0.00020901688549201936, 0.10637049376964569, -0.0379471518099308, 0.00024439572007395327, 0.07239249348640442, -0.045614223927259445, -0.028962835669517517, -0.08048426359891891, -0.061720144003629684, -0.05147579312324524, -0.09832479059696198, -0.020971108227968216, 0.026453517377376556, 0.09891407936811447, 0.06615853309631348, -0.031479593366384506, -0.0916370078921318, 0.12001781910657883, 0.06914616376161575, 0.0691891759634018, -0.05065716430544853, 0.08869025111198425, -0.0070047746412456036, 0.0663953348994255, -0.1056634932756424, 0.05180047079920769, -0.07547249644994736, 0.02786010131239891, -0.014075510203838348, -0.09723379462957382, -0.11863227188587189, 0.13036906719207764, -0.08760610222816467, 0.09837530553340912, 0.08279590308666229, 0.0002202019968535751, -0.09652059525251389, -0.05567444488406181, 0.11448924988508224, -0.04125766456127167, -0.07896611094474792, -0.05859106406569481, -0.018689600750803947, 0.009707573801279068, -0.11199861764907837, 0.08151447772979736, -0.033490441739559174, -0.04342499002814293, -0.013691692613065243, 0.06241484731435776, 0.08638569712638855], [0.047942258417606354, 0.05081286281347275, -0.026109818369150162, 0.06576395779848099, 0.018531516194343567, 0.026030488312244415, 0.09983225166797638, 0.02093326859176159, -0.046423375606536865, 0.07654096931219101, -0.1199304461479187, 0.1273457556962967, -0.004735284019261599, 0.07005763053894043, -0.08773180097341537, 0.04909436032176018, 0.06914196163415909, 0.06492617726325989, -0.09110327064990997, 0.10739699751138687, 0.08038084208965302, -0.07423184812068939, 0.09821093827486038, 0.0743836984038353, -0.08873502910137177, -0.0760318785905838, -0.004144923761487007, 0.102475605905056, -0.04402121528983116, -0.05225728079676628, -0.07612985372543335, -0.05137818306684494, 0.08057154715061188, -0.10851912200450897, 0.05915028229355812, -0.08112388849258423, 0.034851595759391785, 0.0408981516957283, -0.0799383819103241, -0.05959829315543175, -0.029498016461730003, 0.08715254068374634, -0.0031163981184363365, 0.035609323531389236, -0.0050949049182236195, 0.0767376571893692, 0.01148261409252882, -0.11651086807250977, -0.07314100116491318, 0.028470361605286598, 0.02434999868273735, 0.04015498235821724, -0.11706547439098358, 0.03837195038795471, 0.013931105844676495, -0.044894520193338394, -0.001591746462509036, 0.07765375077724457, 0.055776145309209824, 0.024202758446335793, 0.019414294511079788, -0.051475249230861664, 0.02716129459440708, -0.06771344691514969], [0.015002367086708546, 0.0129450848326087, -0.07545088976621628, 0.061337098479270935, 0.032481662929058075, -0.07937674224376678, 0.12864769995212555, 0.10064049065113068, 0.11135528981685638, 0.1158948540687561, 0.10999643057584763, 0.0779370591044426, -0.0851052850484848, 0.06979361921548843, -0.10180453956127167, 0.059028610587120056, 0.04235473647713661, 0.09077105671167374, -0.009747480973601341, 0.08076035976409912, 0.014389090240001678, 0.10070721060037613, -0.03151227906346321, -0.11523478478193283, -0.07930862158536911, 0.08136357367038727, -0.034710220992565155, -0.012770705856382847, -0.047670330852270126, 0.03311794996261597, 0.012987090274691582, 0.026793917641043663, -0.06660616397857666, -0.08225294202566147, 0.039668042212724686, -0.07181016355752945, 0.09070007503032684, -0.032201435416936874, -0.10237875580787659, 0.008758277632296085, 0.061868518590927124, -0.13256677985191345, 0.11419245600700378, 0.0475868321955204, 0.040937408804893494, 0.05728135630488396, -0.1245066374540329, -0.11419376730918884, -0.058294203132390976, -0.035758018493652344, 0.13664619624614716, 0.08621755242347717, 0.04805978760123253, 0.08825095742940903, 0.018101464956998825, -0.11062014847993851, 0.08585119247436523, -0.06558210402727127, 0.0961223915219307, -0.05182512477040291, -0.08058112859725952, 0.06295986473560333, -0.0051198601722717285, -0.037454042583703995], [-0.04636014997959137, -0.04150830954313278, 0.026418577879667282, -0.03238479793071747, -0.0963890552520752, 0.104559026658535, 0.07624635100364685, -0.03943445533514023, 0.10219205915927887, 0.03062211535871029, 0.020633192732930183, 0.112247034907341, 0.09728282690048218, -0.04168668016791344, -0.025732439011335373, -0.06295221298933029, 0.12502823770046234, 0.07613353431224823, 0.0531536266207695, 0.02003379352390766, -0.036446329206228256, -0.016643892973661423, 0.01411902904510498, 0.008314709179103374, -0.04141249880194664, 0.03981626406311989, 0.034280188381671906, 0.029049497097730637, -0.09793829172849655, 0.05986449494957924, -0.06874054670333862, -0.03600536659359932, -0.0545758381485939, 0.09247525036334991, -0.1347886174917221, -0.06645426154136658, 0.019826369360089302, -0.036023885011672974, 0.06328321248292923, 0.030338484793901443, -0.01847204938530922, 0.08412088453769684, 0.10111110657453537, 0.06993172317743301, -0.08433890342712402, -0.12143177539110184, -0.0971749871969223, 0.09512687474489212, -0.11083295941352844, -0.04923274740576744, -0.09449274837970734, -0.012028521858155727, -0.08340735733509064, -0.051749054342508316, -0.004926283843815327, 0.11390247941017151, -0.0409756675362587, 0.05323529615998268, 0.043911077082157135, -0.08312381058931351, -0.058672837913036346, 0.020788224413990974, -0.09226790815591812, -0.001160082989372313], [0.008183053694665432, -0.0021992623805999756, -0.0033387222792953253, -0.08144756406545639, -0.10955944657325745, -0.020216142758727074, 0.027215810492634773, 0.11168395727872849, -0.08225385844707489, -0.12560944259166718, -0.0444975346326828, 0.03786502033472061, 0.09197287261486053, 0.0524483360350132, -0.09869736433029175, -0.05827457830309868, -0.08147471398115158, 0.07730753719806671, 0.08877742290496826, -0.09063047915697098, -0.06541351228952408, -0.0940815806388855, 0.0974004939198494, -0.030810734257102013, 0.036535680294036865, -0.09159684181213379, 0.1332056075334549, 0.01620521768927574, 0.05644582584500313, -0.08086231350898743, -0.0509035624563694, 0.04174768179655075, -0.0973634123802185, 0.08890023082494736, -0.0018578143790364265, -0.006988575216382742, -0.1252097636461258, -0.1280214488506317, 0.09478352963924408, -0.07978668063879013, -0.0008655710844323039, -0.02693997137248516, -0.013384577818214893, 0.06159428879618645, 0.020529190078377724, -0.09411370009183884, -0.10427146404981613, -0.08235908299684525, -0.1270534098148346, -0.06902128458023071, 0.014950208365917206, -0.08262594044208527, -0.04573076218366623, -0.09316331148147583, 0.09546899795532227, -0.05493556708097458, -0.029360266402363777, -0.04712623357772827, 0.052121300250291824, -0.10599463433027267, -0.10226820409297943, 0.019820747897028923, 0.0614139623939991, 0.0722508579492569], [-0.018131131306290627, 0.03695191442966461, 0.04314907267689705, -0.04784791171550751, -0.05176522582769394, 0.02319837361574173, -0.013170179910957813, 0.0385018065571785, -0.0654255673289299, -0.08419524878263474, 0.051342472434043884, 0.09631389379501343, 0.0035620094276964664, 0.062411632388830185, 0.08647743612527847, -0.044922202825546265, 0.03822154179215431, -0.09471696615219116, -0.034003082662820816, 0.07373620569705963, 0.0495891198515892, 0.045997489243745804, -0.011985909193754196, 0.08695622533559799, -0.08181808888912201, 0.11501283943653107, 0.0195693951100111, -0.11684320122003555, -0.07584796100854874, -0.08555463701486588, -0.10853803157806396, 0.09751862287521362, 0.08916237950325012, -0.0598062127828598, 0.13826723396778107, -0.007850767113268375, -0.003498938400298357, -0.0829218402504921, 0.07243520021438599, 0.014114939607679844, -0.02434713952243328, -0.0943521112203598, 0.0665496364235878, 0.09092526882886887, 0.0992894098162651, -0.11262603104114532, 0.0444902628660202, 0.058870960026979446, -0.011897261254489422, 0.050833843648433685, 0.028691455721855164, 0.015418766997754574, 0.021728573366999626, -0.009659698233008385, -0.0021660022903233767, -0.12530682981014252, -0.03453373163938522, 0.011196578852832317, -0.07493040710687637, -0.04422333091497421, -0.07308094948530197, 0.0057682148180902, -0.08357162028551102, 0.08137990534305573], [0.0676560178399086, -0.033328935503959656, -0.060012336820364, 0.015508608892560005, -0.015186207368969917, -0.03598353639245033, 0.016816554591059685, -0.031121887266635895, -0.07183116674423218, -0.015622701495885849, 0.0029906267300248146, 0.01533321850001812, -0.05073302239179611, 0.0049944850616157055, -0.010916291736066341, -0.06307118386030197, 0.03617902845144272, -0.026986928656697273, -0.004245668184012175, 0.11248648166656494, -0.09534906595945358, 0.07769565284252167, -0.10183597356081009, -0.002791389124467969, 0.023455539718270302, 0.15566949546337128, 0.02985178306698799, -0.028600849211215973, -0.09394372999668121, 0.019517412409186363, 0.020863307639956474, 0.05780607834458351, -0.015185260213911533, 0.10621146857738495, -0.01543408166617155, 0.046838220208883286, 0.11528284102678299, 0.09321393072605133, 0.10012097656726837, -0.09520457684993744, -0.1206933930516243, -0.06371219456195831, 0.09747961908578873, 0.08144376426935196, 0.012966906651854515, 0.04968986660242081, 0.023850973695516586, 0.04623521864414215, 0.09904808551073074, -0.12609513103961945, -0.11233368515968323, -0.0513177327811718, 0.1288650780916214, 0.0830739364027977, -0.031031565740704536, 0.013233902864158154, -0.037502605468034744, 0.03835897520184517, 0.07796842604875565, 0.053918324410915375, -0.007075583562254906, -0.0938308835029602, -0.00771290110424161, -0.0065048737451434135], [-0.04167332872748375, -0.021917160600423813, 0.13766944408416748, 0.0904565379023552, 0.03176358714699745, -0.07675520330667496, -0.07140296697616577, -0.0814746841788292, -0.1044568344950676, 0.07320833951234818, -0.07770344614982605, -0.05420628935098648, -0.018242299556732178, 0.00978385005146265, 0.1418459415435791, 0.028003770858049393, 0.10267240554094315, -0.08163892477750778, -0.02973456308245659, 0.1259460747241974, -0.005587256513535976, 0.024430619552731514, 0.12015803158283234, -0.012491542845964432, 0.0401173010468483, 0.05132821947336197, -0.03079070895910263, -0.015537641011178493, 0.03642924502491951, -0.14876125752925873, 0.0807439386844635, -0.050642240792512894, 0.08001864701509476, -0.023635948076844215, -0.018420105800032616, 0.11177542060613632, 0.0320262536406517, -0.09003870189189911, -0.050823427736759186, -0.0008473552297800779, -0.008817904628813267, -0.09296483546495438, -0.0705617144703865, -0.09369895607233047, -0.10796355456113815, -0.13191105425357819, 0.059443362057209015, -0.007979256100952625, 0.020248210057616234, 0.04811951890587807, -0.028809059411287308, -0.03125324845314026, 0.05553819611668587, -0.03711722046136856, 0.0455390028655529, -0.058807119727134705, 0.06628213077783585, -0.09161676466464996, -0.08721567690372467, 0.09001494199037552, -0.04694131016731262, -0.0657232329249382, 0.02858087234199047, -0.08297821134328842], [0.02712222933769226, 0.0665334090590477, -0.031181009486317635, -0.06078534573316574, 0.08397473394870758, 0.09548528492450714, 0.03576699271798134, 0.12461287528276443, -0.09164285659790039, -0.057313770055770874, -0.04681205004453659, 0.04714181274175644, -0.13533087074756622, -0.09143467992544174, -0.07761870324611664, 0.08275089412927628, 0.021059904247522354, -0.048469025641679764, -0.03875521942973137, 0.035474423319101334, 0.11659844219684601, 0.022706367075443268, -0.06890664249658585, -0.003977344371378422, 0.07127760350704193, 0.07434915006160736, 0.057785581797361374, 0.10880709439516068, -0.10074422508478165, -0.009889873676002026, 0.10525484383106232, 0.10559684783220291, 0.0888645127415657, -0.03771444410085678, -0.1244884580373764, 0.13714739680290222, 0.050421006977558136, -0.011458500288426876, -0.01626613736152649, 0.0025104419328272343, -0.03584124147891998, -0.07076843082904816, 0.03140701726078987, 0.12129177898168564, 0.06123637035489082, 0.027124986052513123, -0.11813182383775711, 0.03257248178124428, -0.08715919405221939, -0.06583672016859055, -0.03693273663520813, 0.0878729522228241, -0.05688501521945, 0.026207847520709038, -0.025283822789788246, -0.04712511599063873, 0.07273692637681961, 0.10019061714410782, 0.04763667285442352, 0.05236009880900383, 0.0640360563993454, 0.11114425957202911, -0.05601739138364792, -0.015776319429278374], [-0.09454172104597092, -0.011439683847129345, 0.12029720097780228, -0.07820609956979752, -0.03848694637417793, -0.0016819544835016131, -0.10165531933307648, -0.0075267343781888485, -0.03058304265141487, 0.0058339377865195274, 0.0030445086304098368, -0.035373345017433167, -0.06823533773422241, 0.05346333235502243, 0.10255259275436401, 0.09882892668247223, 0.053257085382938385, -0.04805538058280945, 0.041303858160972595, -0.1023339182138443, -0.05803743377327919, 0.10015471279621124, 0.10955362021923065, -0.037132374942302704, 0.14302793145179749, -0.08765155076980591, 0.05024257302284241, -0.12164638191461563, 0.02318444475531578, -0.041828058660030365, -0.133284792304039, -0.0892249345779419, 0.02664901502430439, 0.05765596032142639, 0.02941257134079933, 0.1395590752363205, 0.033766310662031174, 0.0559830516576767, 0.03344442695379257, 0.09714234620332718, -0.06242463365197182, -0.01635080948472023, -0.02501133643090725, 0.08661075681447983, -0.011763249523937702, -0.042448945343494415, -0.07266352325677872, -0.09056584537029266, -0.07410059869289398, 0.08361777663230896, 0.011635023169219494, 0.07233872264623642, 0.010359570384025574, 0.06188400089740753, 0.06903897225856781, -0.006211203522980213, 0.042471177875995636, 0.02983972057700157, 0.035585954785346985, 0.08286978304386139, 0.07636093348264694, 0.03639834746718407, 0.064866803586483, 0.07439979165792465], [-0.031690824776887894, -0.1071355938911438, 0.08981099724769592, 0.050634920597076416, 0.0616324208676815, -0.12170242518186569, 0.10869680345058441, -0.0916188508272171, -0.02639620564877987, -0.1092282086610794, 0.004052468575537205, -0.06971141695976257, 0.11104203760623932, -0.029728032648563385, -0.08308907598257065, -0.055659372359514236, -0.013589421287178993, -0.03978613764047623, 0.0127200772985816, 0.12327955663204193, 0.08493784815073013, 0.09766269475221634, 0.013183893635869026, -0.08015081286430359, 0.031314458698034286, 0.13226668536663055, 0.05447819083929062, 0.07471789419651031, 0.06968566030263901, 0.011929417960345745, -0.10839364677667618, 0.028239956125617027, 0.10768808424472809, -0.1207926943898201, 0.1122414842247963, -0.027973948046565056, -0.08868046849966049, 0.01938655413687229, -0.0443095788359642, 0.04110042378306389, 0.06138785555958748, -0.011660229414701462, 0.0728575810790062, -0.026623912155628204, -0.0058564250357449055, -0.038621291518211365, -0.0030968233477324247, 0.13466185331344604, -0.08286578208208084, 0.02027500979602337, -0.1299082338809967, 0.04207775369286537, -0.04206063598394394, 0.06701625883579254, -0.12559910118579865, -0.10076744854450226, 0.07058741897344589, -0.09191083908081055, 0.05481205880641937, -0.055270966142416, -0.06241314113140106, -0.15516644716262817, -0.10351591557264328, -0.11991886794567108], [-0.11903077363967896, -0.09257756173610687, -0.10859885811805725, -0.03317201882600784, 0.052451182156801224, -0.07406894862651825, 0.10594051331281662, 0.05973130092024803, -0.045934733003377914, 0.07327505201101303, 0.010757522657513618, -0.03405243530869484, -0.09408707171678543, -0.08939607441425323, -0.09153304994106293, 0.10126376897096634, -0.0729939341545105, 0.10701526701450348, -0.03028777241706848, 0.036076560616493225, 0.09262927621603012, 0.09778817743062973, 0.044044747948646545, -0.04531259834766388, 0.11042911559343338, 0.0365617573261261, -0.049427926540374756, 0.0434846505522728, 0.12949378788471222, -0.09633908420801163, 0.028738131746649742, 0.057269927114248276, -0.039404068142175674, -0.03408646956086159, -0.07345831394195557, -0.09380349516868591, 0.11180103570222855, 0.07222051918506622, -0.12106818705797195, 0.09032212942838669, -0.08635593205690384, 0.10296513140201569, -0.07504530996084213, -0.08059076219797134, 0.09548503160476685, -0.03604595735669136, 0.11341560631990433, 0.008699980564415455, 0.026531295850872993, -0.10288531333208084, -0.046182285994291306, -0.10939179360866547, 0.05500325560569763, 0.040900662541389465, 0.03757242485880852, -0.09846062958240509, 0.014255956746637821, 0.07385922223329544, 0.1420120745897293, 0.09389632940292358, 0.03364115208387375, 0.06251287460327148, -0.06642141193151474, -0.015990620478987694], [-0.09807150810956955, 0.04332208260893822, -0.011770849116146564, -0.023382795974612236, 0.086036317050457, -0.14314350485801697, 0.07275789976119995, -0.030214209109544754, -0.12392958998680115, 0.0935749039053917, 0.054348524659872055, 0.06523770838975906, 0.10243073105812073, -0.00858952384442091, 0.08648315817117691, 0.1185777336359024, -0.07355967164039612, 0.06813059002161026, 0.08583338558673859, 0.05342188477516174, -0.053546689450740814, -0.08680568635463715, -0.0726652443408966, -0.07431676238775253, -0.03395742177963257, -0.061770908534526825, 0.11565250158309937, 0.06511593610048294, -0.0888729989528656, -0.06364334374666214, -0.024944644421339035, -0.12644940614700317, -0.08081312477588654, 0.06348877400159836, -0.09309335798025131, 0.09325767308473587, -0.12639330327510834, 0.10282835364341736, -0.04269944503903389, 0.10066905617713928, -0.10061950981616974, 0.019155113026499748, -0.031547851860523224, 0.09653627127408981, 0.09395520389080048, 0.02190098725259304, 0.029120877385139465, 0.0794716402888298, 0.03998037427663803, 0.07780957221984863, 0.06335708498954773, 0.041232313960790634, 0.09935701638460159, -0.01315937377512455, 0.01952274888753891, -0.045261163264513016, -0.12243764102458954, -0.11648004502058029, 0.02866017445921898, -0.002504895441234112, -0.05845427140593529, -0.05032813921570778, -0.02673262730240822, 0.012624002061784267], [0.04534861817955971, 0.04841584339737892, -0.06392208486795425, 0.005308549385517836, 0.09816096723079681, -0.04147958382964134, 0.06491472572088242, -0.056566160172224045, 0.009463728405535221, -0.10734184086322784, 0.07566897571086884, 0.09547848254442215, -0.026412712410092354, -0.12390728294849396, -0.07337737083435059, -0.002474977867677808, -0.06721937656402588, -0.09727948158979416, 0.12585380673408508, -0.009939477778971195, 0.027470551431179047, 0.006634586490690708, 0.003847922198474407, 0.00995758455246687, -0.07009052485227585, -0.0682680606842041, 0.016420025378465652, -0.005437696818262339, -0.03551902621984482, -0.0008379489299841225, -0.12302185595035553, -0.0863514319062233, 0.0011660762829706073, 0.08898338675498962, -0.10492678731679916, 0.07207107543945312, -0.14860893785953522, 0.06416209042072296, 0.0024802922271192074, 0.0051599838770926, -0.09137008339166641, 0.13423563539981842, -0.11775753647089005, -0.08834442496299744, -0.062347859144210815, -0.03765161707997322, 0.08030321449041367, -0.04369770362973213, -0.09388569742441177, -0.04601994529366493, 0.0484953373670578, -0.06298279017210007, 0.08618748188018799, 0.027612993493676186, 0.00618850439786911, 0.06844687461853027, -0.11977483332157135, 0.0781143307685852, 0.05490681156516075, 0.10833702236413956, 0.08648906648159027, -0.002322101267054677, -0.06783261895179749, -0.06429573148488998], [-0.06407348066568375, -0.0795295387506485, -0.020748507231473923, 0.006045172922313213, -0.03860774636268616, 0.08665013313293457, 0.06859299540519714, -0.08350713551044464, -0.012584719806909561, 0.0753381997346878, -0.07870861887931824, -0.04195517674088478, 0.027938582003116608, 0.06220731511712074, 0.10201789438724518, 0.03185805678367615, -0.021673772484064102, -0.04021204262971878, 0.02239910513162613, 0.0034754963126033545, -0.06639405339956284, -0.04431743174791336, 0.03852716088294983, 0.0786699503660202, 0.062357135117053986, 0.08440171927213669, 0.04620904475450516, -0.05502914637327194, -0.06544706225395203, 0.06475836038589478, 0.02297244779765606, 0.04702424257993698, -0.0538606122136116, 0.0694480910897255, -0.10077300667762756, 0.1052585020661354, -0.04932606965303421, 0.06840793043375015, 0.018216682597994804, 0.1297934502363205, 0.05006401240825653, 0.0757947638630867, -0.049441780894994736, -0.09244102984666824, -0.015898829326033592, -0.002548414980992675, 0.11765539646148682, -0.052202749997377396, -0.0940392017364502, -0.005692631471902132, 0.08408921957015991, -0.05484269559383392, -0.09841731935739517, 0.033363837748765945, 0.050522513687610626, -0.09279399365186691, -0.029615307226777077, 0.005360461305826902, -0.019904643297195435, 0.04820556566119194, -0.11427964270114899, 0.017477121204137802, -0.02958163619041443, 0.04325300455093384], [0.08632047474384308, -0.10518006235361099, -0.021938858553767204, 0.13959676027297974, -0.10701633244752884, 0.027338223531842232, -0.05317051336169243, -0.0646439716219902, -0.05402887612581253, -0.0212229173630476, -0.05068180337548256, 0.10396406799554825, -0.047055404633283615, 0.011444009840488434, 0.01070657093077898, -0.014245375990867615, -0.017245285212993622, 0.023240601643919945, -0.02250143326818943, -0.1014261543750763, 0.0479063056409359, -0.043982185423374176, 0.10012418776750565, -0.0429038442671299, 0.04790389910340309, -0.017187176272273064, -0.0874066948890686, -0.02229498326778412, 0.05466967076063156, -0.06993325799703598, -0.06687505543231964, -0.12638838589191437, -0.013097475282847881, -0.002657686360180378, 0.016309980303049088, -0.015690593048930168, -0.0330059751868248, -0.04368004947900772, 0.09954347461462021, -0.08193997293710709, 0.0762961357831955, -0.03905408829450607, -0.0017350934213027358, 0.0044874572195112705, 0.07090388238430023, -0.04457460343837738, -0.04435647651553154, 0.06619846820831299, -0.10357946902513504, -0.03681402653455734, -0.12082217633724213, 0.05149064213037491, 0.08626473695039749, -0.07237043976783752, -0.05559072270989418, 0.10874450951814651, -0.02316395938396454, -0.010171669535338879, -0.051079049706459045, -0.060935910791158676, -0.13225609064102173, -0.02398032322525978, -0.06633944064378738, -0.007850958965718746], [-0.12552781403064728, -0.05274319276213646, 0.0672544315457344, -0.04270491003990173, -0.02247309684753418, -0.046038877218961716, -0.06522179394960403, -0.0531894713640213, 0.024165818467736244, -0.11670853197574615, -0.11156043410301208, -0.07882516086101532, 0.004969671834260225, -0.11695531010627747, 0.05838031321763992, 0.06745791435241699, 0.0681491568684578, 0.06790752708911896, 0.116042859852314, -0.0986681655049324, -0.03700883686542511, 0.0451165996491909, 0.03874814510345459, 0.10006004571914673, -0.08257989585399628, 0.006010481156408787, -0.031771332025527954, -0.11523541063070297, 0.04339854419231415, -0.11161062121391296, 0.0794663056731224, -0.1021069884300232, -0.08422037959098816, -0.09369032084941864, -0.052905768156051636, -0.015099024400115013, 0.0869213119149208, -0.05581243336200714, -0.07572940737009048, -0.03849804401397705, 0.0859692171216011, 0.08410067111253738, -0.02345263957977295, -0.029642807319760323, -0.09304890036582947, -0.06973365694284439, -0.0932679995894432, 0.05048549547791481, 0.019176462665200233, -0.034999359399080276, -0.07586219161748886, 0.04874158650636673, -0.07565956562757492, -0.05836167186498642, -0.14410701394081116, 0.07007129490375519, -0.03758906573057175, -0.09312456101179123, -0.11338825523853302, -0.08364442735910416, 0.06385306268930435, -0.034447021782398224, 0.11991135776042938, 0.09376542270183563], [-0.09571370482444763, -0.08170843869447708, 0.10166487097740173, 0.07973802834749222, 0.07159371674060822, -0.09294306486845016, -0.06898617744445801, -0.06956681609153748, 0.05187908932566643, 0.08143049478530884, 0.0328613817691803, 0.08671806752681732, -0.11439049988985062, -0.10660459846258163, -0.11917539685964584, -0.09360980987548828, -0.11088497936725616, -0.07623416930437088, -0.06675086170434952, -0.04059145227074623, 0.06886746734380722, 0.07541143894195557, -0.10182996839284897, -0.1167207658290863, 0.0239237193018198, -0.015203896909952164, 0.041758328676223755, 0.11415869742631912, -0.07434774935245514, -0.0013913854490965605, 0.017394518479704857, -0.10368148982524872, -0.006116523407399654, 0.13852912187576294, -0.0808044895529747, -0.08971436321735382, -0.037808872759342194, 0.11151988804340363, -0.09323562681674957, -0.043792132288217545, 0.08316098153591156, 0.024154970422387123, -0.0927593782544136, 0.010673279874026775, -0.09228256344795227, 0.14088350534439087, -0.11898088455200195, -0.10061261057853699, 0.1381572186946869, -0.10352500528097153, 0.08627159148454666, -0.006724577862769365, -0.0857136994600296, -0.09904445707798004, -0.04921196401119232, -0.07624466717243195, -0.11348773539066315, -0.018697543069720268, 0.13267220556735992, 0.0006624990492127836, 0.11115541309118271, 0.09776412695646286, -0.08593922108411789, 0.037231989204883575], [0.05621552839875221, 0.09884195774793625, -0.09890567511320114, -0.058280814439058304, -0.05233050510287285, 0.12495706230401993, -0.006849342025816441, 0.06607993692159653, 0.005348416976630688, 0.005597636569291353, -0.10810604691505432, -0.04854414612054825, -0.07649572193622589, 0.06008829548954964, -0.10599838942289352, -0.010443052276968956, 0.10828432440757751, 0.06467106938362122, 0.008893107064068317, -0.03830759599804878, -0.11980809271335602, -0.017386000603437424, 0.03800404816865921, -0.022166335955262184, 0.057174768298864365, -0.11312408745288849, 0.06645504385232925, -0.0040062908083200455, 0.0832071304321289, -0.011095862835645676, -0.08560902625322342, -0.07833831757307053, 0.07032685726881027, 0.09790963679552078, -0.07258249074220657, -0.07984796166419983, -0.0005009910673834383, 0.05240090936422348, -0.06691071391105652, -0.043268729001283646, 0.0033212420530617237, -0.10012417286634445, -0.06020042672753334, -0.0006635747267864645, 0.014284475706517696, -0.08338305354118347, -0.0014115198282524943, 0.09914672374725342, 0.12006635218858719, 0.12049051374197006, -0.043962616473436356, 0.019174544140696526, 0.0019746350590139627, 0.12941214442253113, 0.12277422100305557, -0.11022641509771347, -0.041644759476184845, -0.023668836802244186, -0.03385188430547714, 0.015551452524960041, 0.07146360725164413, -0.041537027806043625, 0.0676715299487114, -0.05535029247403145], [0.017868416383862495, 0.10337348282337189, 0.035019028931856155, 0.12904112040996552, 0.11461827903985977, -0.0795329213142395, -0.059704408049583435, -0.1093241348862648, 0.05964270979166031, 0.1040220558643341, 0.02259032242000103, -0.03937969356775284, 0.092073455452919, -0.10440612584352493, -0.09599238634109497, -0.05848882719874382, 0.08911647647619247, 0.04194149374961853, -0.09699845314025879, -0.014430691488087177, 0.017954831942915916, 0.049884118139743805, -0.03760949894785881, -0.07535573095083237, 0.1110873743891716, 0.08568505197763443, -0.08020909875631332, -0.06000681594014168, -0.07908682525157928, 0.05334870144724846, 0.08492281287908554, -0.10875092446804047, 0.11208593100309372, -0.030359016731381416, 0.05534710735082626, -0.013187001459300518, -0.054024022072553635, -0.10919927805662155, 0.09040293842554092, -0.05301930010318756, -0.07648415863513947, -0.0557611882686615, -0.04405822232365608, 0.10979311913251877, -0.06518564373254776, -0.04423202946782112, -0.050323911011219025, -0.006288156844675541, -0.09561675786972046, -0.09778722375631332, -0.10804179310798645, -0.11423718184232712, 0.04517476633191109, 0.023205703124403954, -0.042366985231637955, 0.0703105479478836, -0.044815342873334885, 0.006486684549599886, -0.07291676849126816, -0.11930009722709656, -0.01509601715952158, 0.08681424707174301, 0.0804935097694397, 0.011043268255889416], [0.06652376800775528, 0.06499754637479782, -0.11498416215181351, -0.00294286641292274, 0.058556005358695984, 0.11595896631479263, 0.06755691766738892, 0.009207389317452908, 0.11910513043403625, -0.023332558572292328, -0.03158890828490257, 0.10719458013772964, 0.013220825232565403, -0.0940965786576271, 0.008730283938348293, 0.015890130773186684, -0.0045294007286429405, -0.03316688537597656, -0.02085675485432148, 0.02069622091948986, -0.07007438689470291, -0.14698073267936707, 0.09539323300123215, 0.07194767892360687, 0.05911197513341904, 0.09878546744585037, -0.11785119026899338, 0.06029750779271126, 0.05414136126637459, 0.017948050051927567, 0.02521296590566635, 0.06652726233005524, 0.02690090611577034, -0.10398068279027939, 0.05156261473894119, 0.006955208256840706, 0.0678013265132904, 0.1105198785662651, -0.05972662195563316, -0.0993313267827034, -0.1133563295006752, 0.10373722016811371, 0.04337847977876663, -0.1263381838798523, -0.003699490800499916, 0.1083431988954544, 0.03893103823065758, 0.04006747901439667, 0.10435420274734497, -0.03651661053299904, 0.037675805389881134, -0.017654918134212494, 0.0669342577457428, 0.10087670385837555, 0.03629280626773834, -0.04311160743236542, 0.04423945024609566, -0.05266750231385231, -0.0006762835546396673, 0.00545899011194706, 0.0413898341357708, 0.10939846932888031, -0.01097807101905346, 0.06724359840154648], [0.10354485362768173, -0.04469018802046776, 0.028563516214489937, -0.022236688062548637, 0.04816516861319542, -0.12226179242134094, -0.09693937748670578, 0.034087102860212326, 0.06406144052743912, -0.01566794142127037, 0.07719708979129791, 0.08074014633893967, 0.09282563626766205, -0.06282812356948853, 0.09033244848251343, -0.015709243714809418, -0.09829148650169373, 0.11399877816438675, -0.05068659409880638, -0.08763774484395981, -0.05701935663819313, 0.0782046765089035, -0.04912082105875015, 0.13048282265663147, 0.1069486141204834, -0.0030295311007648706, -0.01900171861052513, 0.04613697528839111, -0.0659656897187233, -0.08818738162517548, -0.12740105390548706, -0.021115832030773163, 0.07798104733228683, -0.06272854655981064, -0.07835494726896286, -0.06299611181020737, -0.033291734755039215, -0.114303357899189, -0.1224578246474266, -0.07435894757509232, -0.10681619495153427, 0.09226814657449722, -0.0944872722029686, -0.07867317646741867, 0.12691296637058258, -0.12228114157915115, 0.10824141651391983, 0.03610718250274658, 0.020971106365323067, 0.04518754035234451, -0.10486815869808197, -0.010790142230689526, 0.06340715289115906, 0.0077714757062494755, -0.03860000520944595, -0.014351874589920044, -0.08117353916168213, 0.08901384472846985, 0.03697102889418602, 0.0893019288778305, -0.02932928316295147, -0.012269305065274239, -0.09031815826892853, -0.01251788716763258], [0.0088976314291358, -0.05091142654418945, -0.05607133358716965, 0.09919863939285278, 0.061541635543107986, -0.10219892114400864, -0.03676091134548187, -0.09936743229627609, -0.02161439135670662, -0.016825221478939056, 0.03364163637161255, 0.09587837010622025, 0.02155163139104843, 0.058519210666418076, -0.08610600233078003, -0.052208516746759415, 0.058829087764024734, -0.05068123713135719, 0.0461464524269104, 0.06903433054685593, 0.08667179942131042, -0.08083850145339966, -0.1264219880104065, -0.02603706158697605, -0.128375843167305, 0.15277543663978577, -0.11939477920532227, 0.03679000586271286, -0.09696837514638901, 0.05800909548997879, 0.021338654682040215, 0.03187184035778046, -0.12765298783779144, -0.0017701230244711041, 0.05171694979071617, 0.06730983406305313, -0.033580854535102844, -0.02740173041820526, 0.07865104079246521, 0.019768735393881798, 0.04324585571885109, -0.04213819280266762, -0.03309360891580582, -0.02046237885951996, 0.05774162709712982, 0.08058707416057587, 0.005001811310648918, -0.06476740539073944, 0.029615646228194237, -0.062468644231557846, 0.02666562795639038, -0.07983268797397614, -0.005033278837800026, 0.12036709487438202, 0.00805958453565836, -0.1406366527080536, -0.07121976464986801, 0.08081860095262527, -0.03256489709019661, -0.10866168141365051, 0.09074868261814117, 0.07066304981708527, -0.04862991347908974, -0.025046611204743385], [-0.030727753415703773, -0.09205757081508636, 0.02230420522391796, -0.030274096876382828, 0.08705314248800278, 0.11013130843639374, 0.04945090413093567, 0.05545081943273544, 0.016918767243623734, 0.07795913517475128, -0.06937754899263382, -0.02203872613608837, 0.042233601212501526, 0.027865782380104065, -0.00541044631972909, 0.047802429646253586, -0.08105053752660751, 0.13786011934280396, -0.01713910698890686, -0.0013990921434015036, 0.06812211126089096, 0.06808662414550781, 0.11151152849197388, 0.019660091027617455, 0.06937175244092941, 0.05155657231807709, -0.03254356607794762, 0.03892270475625992, -0.06990572810173035, -0.11276036500930786, -0.004810660146176815, -0.03803263604640961, 0.09410375356674194, 0.012391572818160057, 0.05292196199297905, 0.06567972153425217, -0.03537590801715851, 0.09736645966768265, 0.03891381993889809, 0.033357154577970505, 0.0938258096575737, 0.027565687894821167, 0.0524921640753746, -0.03537270054221153, -0.03487676382064819, 0.08540799468755722, -0.09800839424133301, -0.11148681491613388, -0.08508046716451645, 0.036108750849962234, -0.052260622382164, -0.014465691521763802, -0.020197242498397827, 0.08880740404129028, -0.06753039360046387, 0.019077006727457047, 0.010942756198346615, 0.04926775023341179, 0.11117410659790039, 0.11437036097049713, 0.14715586602687836, -0.01802181638777256, 0.020032256841659546, -0.016904320567846298], [0.010721624828875065, 0.08261317014694214, 0.03304335102438927, 0.0029568444006145, -0.08098926395177841, -0.06085797771811485, 0.11673795431852341, -0.0966385006904602, 0.11739107221364975, -0.1067579910159111, 0.0347379706799984, 0.10159558802843094, -0.03709612786769867, 0.12078464031219482, 0.09305883944034576, -0.12205284833908081, -0.04316473752260208, -0.1123105138540268, 0.05311581864953041, 0.08428671956062317, -0.09686926007270813, -0.12392090260982513, -0.043231621384620667, -0.107285276055336, 0.04382321238517761, 0.10604792088270187, 0.03091071918606758, 0.1339750587940216, -0.0676194429397583, 0.035171303898096085, 0.06528598070144653, 0.09666632115840912, -0.023663941770792007, -0.08437635749578476, 0.11740881204605103, 0.10764288157224655, -0.11090356856584549, 0.08679398894309998, 0.10355107486248016, -0.06755539029836655, 0.06146197021007538, -0.1347953826189041, -0.030327532440423965, 0.07788287103176117, 0.07476909458637238, 0.02777630090713501, -0.04776080325245857, 0.029994530603289604, -0.0772956907749176, 0.10453907400369644, -0.00011622893362073228, 0.0949450135231018, 0.12276455760002136, 0.09894414246082306, 0.07391297072172165, 0.052014850080013275, -0.06477800011634827, -0.008405902422964573, -0.05458657443523407, 0.027832482010126114, -0.007259129546582699, -0.06298734992742538, 0.031735893338918686, -0.060777824372053146], [-0.04238218441605568, 0.07886863499879837, -0.09209013730287552, 0.07213252037763596, -0.08273079246282578, 0.0039815641939640045, -0.047840796411037445, -0.017296191304922104, 0.002147946273908019, -0.009581939317286015, -0.12284017354249954, -0.011492287740111351, 0.09751709550619125, -0.09928502887487411, -0.043031930923461914, -0.0909845158457756, -0.0492381751537323, -0.07581967115402222, -0.07049881666898727, 0.004300826694816351, 0.036760833114385605, 0.11957882344722748, -0.04601467028260231, -0.09777005016803741, -0.004877935629338026, -0.0797974169254303, -0.17336179316043854, -0.026133855804800987, -0.08808383345603943, 0.03144831210374832, 0.0957096740603447, 0.09610460698604584, -0.023987632244825363, 0.04072290658950806, 0.0693282037973404, -0.07622666656970978, 0.005161266773939133, 0.11176007241010666, -0.0493285171687603, 0.07315713912248611, -0.06202753260731697, 0.0055866846814751625, 0.08893045037984848, 0.10163746029138565, 0.05282940715551376, 0.004819478373974562, -0.0978480651974678, 0.005081191658973694, -0.016594184562563896, 0.01755567640066147, 0.03552632033824921, 0.07295094430446625, 0.08491698652505875, 0.014341703616082668, 0.10385479032993317, -0.05334121361374855, 0.11969095468521118, 0.019526755437254906, -0.1230643168091774, 0.043173838406801224, 0.041066866368055344, 0.036425814032554626, 0.08652464300394058, 0.10548293590545654], [-0.03643013909459114, -0.10606611520051956, -0.022230353206396103, 0.06486686319112778, 0.09563656896352768, 0.06786037981510162, -0.006054916884750128, -0.05904337018728256, 0.10672197490930557, 0.12145452946424484, -0.10559755563735962, -0.11262290924787521, -0.10280051082372665, -0.11272415518760681, -0.001518571050837636, -0.033959925174713135, 0.06326321512460709, 0.08961217850446701, 0.11129047721624374, 0.020710647106170654, 0.04612904414534569, -0.08674316853284836, -0.023590896278619766, -0.10816454887390137, 0.014952351339161396, -0.0720575749874115, 0.1129157543182373, -0.02372872829437256, -0.07182615995407104, 0.10619748383760452, 0.12651564180850983, 0.0406295582652092, -0.10961922258138657, -0.10089577734470367, -0.009834895841777325, 0.03420879691839218, 0.07068321853876114, 0.012905479408800602, -0.09792925417423248, 0.0731034055352211, 0.021277304738759995, 0.02623044140636921, 0.04239800199866295, -0.09658525884151459, 0.0824904516339302, 0.04349089041352272, 0.043489668518304825, 0.1050121858716011, -0.10290331393480301, -0.019694877788424492, -0.021547337993979454, -0.0763811469078064, 0.027580250054597855, -0.041948478668928146, -0.05669626221060753, -0.05089185759425163, -0.09559032320976257, -0.0157758966088295, 0.03518228977918625, 0.010336779057979584, 0.11932870000600815, 0.07300662249326706, -0.11003997921943665, -0.09092240780591965], [-0.11663538217544556, 0.12350854277610779, 0.11608751118183136, -0.005531301721930504, 0.10637460649013519, -0.03215659037232399, 0.0551070012152195, -0.004321034997701645, 0.10370054841041565, -0.045534051954746246, 0.037043411284685135, -0.030159980058670044, 0.08479839563369751, -0.1168125793337822, 0.04337139427661896, 0.020965980365872383, -0.06230958551168442, -0.011328455060720444, -0.10323101282119751, -0.024589646607637405, 0.006490671541541815, 0.13684383034706116, -0.021013693884015083, 0.04323587194085121, 0.01623879373073578, -0.06589753180742264, 0.08795706927776337, -0.10800083726644516, 0.02651585079729557, -0.01491618063300848, -0.12413011491298676, 0.08063306659460068, 0.1288335919380188, -0.12687192857265472, -0.006990224123001099, -0.11100098490715027, -0.1298481971025467, 0.1197461485862732, 0.041071709245443344, -0.0981183871626854, 0.055436648428440094, 0.12329389899969101, -0.0633898600935936, 0.04236498102545738, -0.01744190603494644, -0.06422406435012817, 0.09866312146186829, 0.013548897579312325, -0.08215589821338654, -0.0688786432147026, -0.07556062936782837, -0.02669263258576393, -0.015348552726209164, -0.08727436512708664, 0.05577436834573746, 0.01796511746942997, 0.04163791984319687, 0.10584421455860138, 0.09356679022312164, -0.06522825360298157, -0.11116811633110046, 0.04761457070708275, -0.07018288224935532, 0.1126747727394104], [0.1258569210767746, -0.06640435755252838, 0.030247408896684647, 0.07801313698291779, -0.0653211921453476, 0.10708849877119064, 0.024026690050959587, -0.10628952085971832, 0.10003180801868439, -0.04686255753040314, -0.05932536721229553, 0.052486784756183624, 0.07050805538892746, -0.09461022168397903, -0.010794552974402905, 0.06407126784324646, -0.11289627104997635, -0.020689524710178375, -0.13728003203868866, 0.058443810790777206, 0.029465479776263237, 0.0020563004072755575, -0.10435125231742859, -0.13080160319805145, 0.08224443346261978, -0.01401151530444622, -0.03917614743113518, -0.031753335148096085, 0.05901682376861572, 0.009026449173688889, -0.10190924257040024, 0.08522916585206985, 0.08987651765346527, 0.055617302656173706, -0.08584330976009369, 0.040111273527145386, -0.08274754136800766, 0.08117818832397461, -0.07663153856992722, 0.14304810762405396, 0.04620038717985153, -0.12242987751960754, 0.07327095419168472, -0.004397794138640165, -0.09416630119085312, -0.09552446752786636, -0.033635079860687256, 0.035065945237874985, 0.03157320246100426, 0.09417647123336792, 0.02288120798766613, 0.027536381036043167, -0.03701573610305786, 0.06366938352584839, 0.060598134994506836, 0.0020185543689876795, 0.03736744076013565, 0.0059564015828073025, 0.06177707761526108, -0.10667097568511963, 0.10264276713132858, 0.049801841378211975, -0.09740044176578522, -0.04748344048857689], [0.0015820454573258758, -0.10599377751350403, -0.03465421497821808, -0.1298588216304779, -0.05814811587333679, 0.050238944590091705, -0.010248405858874321, 0.02191811054944992, -0.08318207412958145, 0.042140815407037735, -0.012751028873026371, 0.11961280554533005, 0.017104580998420715, -0.011066991835832596, 0.07909384369850159, 0.025177113711833954, -0.01679854467511177, 0.04993759095668793, 0.07320438325405121, -0.05559300258755684, 0.04567288979887962, -0.04467256739735603, -0.1007051020860672, 0.07613068073987961, -0.022200699895620346, 0.0477948859333992, 0.0489283911883831, -0.0010173183400183916, 0.011838545091450214, 0.049839116632938385, -0.05560273677110672, 0.025835070759058, 0.06408098340034485, 0.10814063251018524, 0.04995281249284744, -0.07777339220046997, -0.09362497180700302, 0.026970945298671722, 0.0355524979531765, 0.007042552810162306, -0.09008577466011047, 0.09065212309360504, -0.0025948877446353436, 0.11962626874446869, -0.1358131319284439, -0.10094552487134933, -0.1076909527182579, 0.0016065114177763462, 0.029927151277661324, 0.08775819092988968, 0.01141419354826212, -0.09042038768529892, -0.11083424836397171, 0.09353422373533249, 0.05516110733151436, -0.004150634631514549, 0.006932064890861511, 0.09681418538093567, 0.0495796799659729, 0.14445838332176208, 0.0727708488702774, 0.10034917294979095, -0.01861610822379589, 0.03304794430732727], [0.11839215457439423, -0.04760991409420967, -0.003907772246748209, -0.0466354563832283, -0.025545042008161545, 0.005807137116789818, 0.012823805212974548, -0.0030713167507201433, 0.07053764909505844, -0.03489847481250763, 0.13232380151748657, -0.010652689263224602, 0.0565808042883873, 0.01590089686214924, 0.10532566905021667, 0.10298670083284378, 0.12066072970628738, 0.08243374526500702, -0.02133658155798912, -0.006017776671797037, 0.04036974534392357, 0.0579674206674099, -0.12063923478126526, 0.05123304948210716, -0.022089924663305283, -0.14242540299892426, -0.07088825106620789, -0.1172475814819336, 0.1188117116689682, 0.022188961505889893, -0.12061019241809845, -0.041668035089969635, 0.029063178226351738, 0.08999016880989075, 0.05101676657795906, 0.07330773770809174, -0.08931201696395874, 0.12703363597393036, 0.07977528870105743, -0.03742966428399086, -0.11152323335409164, 0.05818099156022072, 0.10882695019245148, -0.06238511577248573, -0.013896921649575233, 0.10762906819581985, -0.09725070744752884, -0.050112560391426086, 0.1342320591211319, 0.12450392544269562, -0.012888721190392971, -0.010332942008972168, 0.058820802718400955, -0.029745928943157196, 0.10226453840732574, -0.02148181013762951, 0.08215153217315674, 0.07865633815526962, -0.050532467663288116, 0.0630565956234932, -0.015885649248957634, 0.0414656326174736, -0.009737784042954445, -0.07097719609737396], [0.08933167904615402, 0.10293333977460861, -0.035902999341487885, 0.009761480614542961, -0.11399122327566147, 0.028787177056074142, -0.12466953694820404, 0.031998831778764725, -0.05848889425396919, -0.12270769476890564, -0.04433457925915718, 0.014969167299568653, -0.11743319034576416, 0.010111256502568722, -0.09723702073097229, -0.03017793968319893, 0.004152435343712568, 0.015755878761410713, -0.017018156126141548, -0.019048793241381645, -0.03323589637875557, -0.023393146693706512, -0.036528926342725754, 0.05098135396838188, -0.020793206989765167, 0.09766188263893127, 0.08412488549947739, -0.11167394369840622, 0.06061525642871857, -0.11638180911540985, -0.033988021314144135, 0.021326951682567596, -0.04949827864766121, 0.008943981491029263, -0.06904878467321396, 0.0691448524594307, 0.08129670470952988, 0.024982115253806114, -0.014881310053169727, 0.05168066918849945, -0.11625941097736359, 0.13121232390403748, 0.010223456658422947, 0.08467265218496323, 0.11560329049825668, -0.1106448844075203, 0.06332451105117798, -0.11710198223590851, 0.024958821013569832, 0.014335187152028084, 0.05956502631306648, 0.030957091599702835, 0.007245136424899101, 0.010324523784220219, 0.012772497721016407, 0.010485718958079815, 0.04648461192846298, -0.07030729204416275, -0.1102302297949791, -0.05298980325460434, -0.06083182618021965, -0.014712831936776638, -0.07993395626544952, -0.13084782660007477], [0.022392386570572853, -0.06646973639726639, 0.11555283516645432, -0.09838537126779556, -0.007747843395918608, -0.001129605807363987, -0.07845815271139145, -0.10129337012767792, 0.007185380905866623, 0.04130085930228233, 0.06015421822667122, 0.042745500802993774, 0.05389644578099251, -0.10543820261955261, -0.007584282662719488, 0.07223596423864365, -0.025033043697476387, -0.0793459564447403, -0.048878055065870285, -0.0726243332028389, 0.08720408380031586, -0.07319584488868713, -0.0711698904633522, -0.07716916501522064, -0.0011945714941248298, 0.031961265951395035, -0.00884914305061102, -0.13188926875591278, -0.06966015696525574, 0.028987769037485123, 0.07740060985088348, -0.04289912432432175, 0.04817720502614975, 0.011503715068101883, -0.14461149275302887, 0.13223308324813843, 0.0032691359519958496, 0.07301560789346695, -0.13061867654323578, 0.11013617366552353, -0.05186392366886139, 0.0066904425621032715, -0.06146358326077461, -0.03231003135442734, 0.04056723788380623, 0.09482897818088531, -0.11016502976417542, -0.0561118982732296, -0.02153870090842247, 0.07325662672519684, 0.07197563350200653, 0.08468660712242126, -0.13114038109779358, 0.0383223220705986, -0.0715968981385231, 0.07979269325733185, 0.05177746340632439, 0.11307182908058167, 0.09882743656635284, -0.07249196618795395, -0.047907035797834396, 0.040011558681726456, -0.09069344401359558, 0.09148099273443222], [0.002097407588735223, -0.017228472977876663, 0.10745758563280106, 0.050764668732881546, 0.005097897257655859, -0.10631497949361801, 0.0018355295760557055, 0.10278516262769699, -0.06016373634338379, 0.054421573877334595, 0.06466216593980789, -0.14305894076824188, 0.08232580125331879, 0.03388841077685356, -0.0696999654173851, 0.06830798089504242, 0.06750326603651047, 0.07202266901731491, 0.02082781121134758, 0.07428456842899323, 0.017955336719751358, 0.07041741162538528, -0.09948740154504776, -0.06246194243431091, -0.07883941382169724, 0.04553398862481117, 0.09490126371383667, 0.017666388303041458, -0.00619527418166399, -0.05154532566666603, 0.09074226021766663, -0.012211669236421585, -0.06332359462976456, 0.10133945196866989, -0.10354164242744446, -0.058373451232910156, 0.11183184385299683, 0.08728573471307755, 0.05310033634305, 0.00352927902713418, 0.086615189909935, -0.08125089108943939, 0.0783759132027626, -0.020847521722316742, -0.07304057478904724, -0.015606995671987534, 0.03322054445743561, 0.02355196140706539, -0.11398938298225403, 0.03399103507399559, 0.04751920327544212, 0.027102138847112656, 0.08383005857467651, -0.07469771802425385, -0.015307409688830376, 0.06797290593385696, -0.04161356762051582, -0.08672536164522171, -0.09126514941453934, -0.002519736299291253, 0.09577024728059769, -0.05743970349431038, 0.09713349491357803, -0.05143330618739128], [-0.03851905092597008, 0.08066894114017487, -0.05908259376883507, -0.01821521483361721, 0.07208225131034851, 0.05739745870232582, 0.004362204112112522, -0.056453678756952286, -0.04423185810446739, -0.03350042179226875, -0.008008772507309914, 0.006494350731372833, -0.06283324956893921, -0.028313759714365005, 0.0030953367240726948, -0.10733724385499954, 0.12328903377056122, -0.1134854257106781, -0.08257824182510376, 0.03011411987245083, 0.07525790482759476, -0.007001061923801899, 0.13264162838459015, 0.055260006338357925, -0.04379754513502121, 0.021494250744581223, 0.07414136081933975, 0.03389227017760277, 0.0004442865902092308, -0.06271538883447647, -0.08514532446861267, -0.08454488217830658, -0.063991479575634, -0.0728086531162262, -0.101386658847332, -0.05090311914682388, 0.041214168071746826, -0.11587250232696533, 0.086300328373909, -0.039225950837135315, 0.03547309711575508, 0.06010572984814644, -0.07927919924259186, -0.04169813543558121, -0.014869113452732563, -0.02057011052966118, 0.05830561742186546, -0.01022241823375225, 0.060450341552495956, -0.04805945232510567, 0.01070547103881836, -0.05815986171364784, -0.11516466736793518, -0.07171469926834106, -0.06378855556249619, -0.12108220905065536, -0.0684385895729065, -0.05181411653757095, -0.11781357228755951, -0.10953181236982346, 0.023932643234729767, -0.035020291805267334, 0.09733328968286514, -0.08481165766716003], [0.036249417811632156, 0.007852079346776009, 0.06597533822059631, 0.1357032209634781, -0.10140102356672287, 0.10378961265087128, 0.1128247007727623, 0.04506588354706764, -0.09412690997123718, -0.031077058985829353, 0.032746631652116776, 0.02612772211432457, -0.07938971370458603, 0.08282740414142609, 0.016155313700437546, -0.05739955976605415, -0.020781539380550385, 0.03849552199244499, -0.017018334940075874, 0.009252941235899925, -0.07968296110630035, 0.042297735810279846, -0.05449594184756279, -0.018341900780797005, 0.06427629292011261, 0.13057222962379456, 0.11552882194519043, 0.053881093859672546, 0.05498634651303291, 0.01087869144976139, 0.07655297964811325, -0.11232633888721466, -0.045046571642160416, 0.04883641004562378, 0.0015407577157020569, 0.03098013624548912, 0.023291798308491707, 0.07943247258663177, 0.08158944547176361, -0.010357154533267021, -0.0009250211878679693, 0.1257721185684204, -0.10270683467388153, -0.0418398380279541, 0.10297537595033646, 0.04433111473917961, -0.08502452075481415, 0.11438670754432678, 0.08036649972200394, -0.12371952086687088, -0.012248934246599674, -0.08516453206539154, -0.09799975901842117, -0.028350479900836945, 0.04806771129369736, -0.11430981010198593, 0.09322269260883331, -0.13669703900814056, -0.12332850694656372, -0.04723206162452698, -0.026073215529322624, 0.058252111077308655, -0.06937302649021149, -0.046120721846818924], [-0.07611214369535446, 0.04900674521923065, 0.1276911497116089, -0.011830057017505169, -0.12369431555271149, 0.010797685943543911, -0.055924054235219955, -0.09344428777694702, -0.04494234919548035, 0.02320212498307228, 0.13202932476997375, -0.10165870934724808, -0.11448690295219421, 0.04169917106628418, 0.12185345590114594, -0.025451069697737694, -0.006990873254835606, -0.10669717192649841, 0.05351126194000244, -0.12301285564899445, 0.01372077502310276, -0.024226123467087746, 0.017510248348116875, 0.09337123483419418, 0.07473525404930115, -0.04355016350746155, -0.00583905354142189, 0.0819571316242218, -0.06935494393110275, -0.1062321811914444, -0.052464671432971954, -0.11500619351863861, -0.017371637746691704, 0.040268465876579285, 0.06988554447889328, -0.062052227556705475, 0.033483151346445084, 0.04895583167672157, 0.09921420365571976, -0.02978254109621048, 0.05312217026948929, 0.003792770439758897, -0.0010128655703738332, -0.10060553252696991, 0.06525591015815735, 0.04685783013701439, 0.027551643550395966, 0.11069532483816147, -0.03889418765902519, -0.061208415776491165, -0.12207607924938202, 0.10561633110046387, 0.08892683684825897, 0.04107523709535599, 0.017116522416472435, -0.025631260126829147, -0.018833806738257408, 0.08239191025495529, 0.09870509803295135, 0.025820091366767883, -0.123934805393219, -0.03285601735115051, 0.03509683161973953, 0.029963316395878792], [-0.013428487814962864, 0.11221067607402802, 0.045516662299633026, 0.027918891981244087, 0.07988955825567245, 0.03476681560277939, -0.06567831337451935, -0.032495833933353424, 0.10683046281337738, -0.119684599339962, -0.022767743095755577, -0.019505999982357025, 0.04838791489601135, -0.013446558266878128, 0.0608164444565773, 0.12024001032114029, 0.06900475174188614, -0.09828811883926392, 0.0905153751373291, 0.06612855941057205, 0.10897994041442871, 0.053479406982660294, 0.06809423863887787, -0.07535427063703537, -0.10591252148151398, 0.04124346747994423, 0.06445901095867157, -0.11742404848337173, -0.03100387565791607, -0.0682365894317627, -0.10354603081941605, 0.04751594364643097, -0.03382742404937744, -0.04586847871541977, 0.0629429742693901, 0.1187916249036789, -0.06360204517841339, -0.01645851321518421, -0.04396642744541168, -0.04445413127541542, -0.035164836794137955, 0.036125797778367996, 0.05807606503367424, 0.09409663081169128, 0.057618822902441025, -0.10153045505285263, -0.11078894138336182, -0.029083913192152977, 0.056947652250528336, -0.09985636174678802, 0.0625787004828453, -0.09482807666063309, 0.08575190603733063, 0.0159891527146101, -0.0011309698456898332, -0.06597072631120682, -0.11859415471553802, -0.011031308211386204, 0.14104636013507843, 0.01111694611608982, 0.14415603876113892, -0.07406622171401978, -0.01974380575120449, 0.009150595404207706], [0.04585856571793556, -0.1037532389163971, 0.06622699648141861, 0.0029345774091780186, 0.0625215396285057, 0.033846840262413025, 0.026536958292126656, -0.1085643544793129, 0.07563314586877823, 0.08669043332338333, 0.05418872460722923, 0.12803812325000763, -0.022500865161418915, -0.03805549442768097, -0.017526015639305115, 0.09634598344564438, 0.014799173921346664, 0.07680132240056992, -0.03604668006300926, 0.02106868475675583, -0.017758799716830254, -0.05506531894207001, 0.057507630437612534, 0.04825078696012497, -0.0033504043240100145, 0.0018969683442264795, 0.041390325874090195, 0.007732799742370844, 0.11589030921459198, -0.004830311052501202, -0.058479513972997665, 0.09442354738712311, 0.004352948162704706, -0.015283425338566303, 0.018140552565455437, 0.040449876338243484, 0.11035654693841934, 0.12167410552501678, -0.006510539911687374, -0.04772762209177017, -0.036760441958904266, -0.07120588421821594, -0.032685719430446625, -0.003135550767183304, -0.006944718770682812, 0.0942024290561676, -0.04201706498861313, -0.00044647089089266956, -0.11423469334840775, 0.005336448550224304, 0.03801020607352257, 0.06972595304250717, -0.1256043165922165, -0.07419431954622269, 0.0038190274499356747, 0.030265579000115395, -0.11098016798496246, 0.11225651949644089, -0.04564530402421951, -0.03971460461616516, -0.07660510390996933, 0.08663666248321533, -0.01551672350615263, -0.006448789034038782], [0.11235817521810532, 0.030348116531968117, 0.058731868863105774, -0.020924242213368416, -0.04573730379343033, -0.08742452412843704, -0.095196433365345, -0.08522102236747742, -0.11325176060199738, 0.09027258306741714, -0.10824456065893173, 0.013684176839888096, -0.04335561394691467, 0.0490182489156723, 0.12418905645608902, -0.08004274219274521, -0.10274327546358109, 0.05554156005382538, -0.05283745750784874, 0.05884767323732376, -0.03864454850554466, 0.0018565410282462835, 0.08283185958862305, -0.020321132615208626, -0.021054701879620552, -0.05411940813064575, -0.0932704359292984, -0.12602917850017548, 0.1207713633775711, 0.04450680688023567, -0.07641863822937012, 0.11730992048978806, 0.04674529656767845, -0.07566434144973755, 0.027041323482990265, -0.02078085206449032, -0.018008025363087654, -0.07615215331315994, -0.05602389574050903, 0.026433277875185013, -0.05100671947002411, -0.05880296602845192, 0.08735603094100952, 0.005686755757778883, 0.08894888311624527, 0.0631532147526741, -0.050286367535591125, 0.0001348477671854198, -0.04820575192570686, 0.1253194361925125, 0.019350619986653328, 0.050183653831481934, -0.0014572357758879662, 0.0455252081155777, 0.05172528699040413, -0.014719149097800255, -0.05888662487268448, 0.04209459200501442, -0.013767166063189507, -0.03214568272233009, -0.0659860372543335, -0.12297429889440536, -0.05127602443099022, 0.030587119981646538], [-0.07304433733224869, -0.057756513357162476, -0.05209864303469658, -0.082532599568367, -0.05961599946022034, -0.09547515958547592, -0.10440171509981155, -0.10521141439676285, 0.11021722108125687, -0.05898663029074669, -0.05359207093715668, 0.06006547436118126, 0.007518424186855555, 0.0894535481929779, -0.04074755311012268, 0.06544497609138489, -0.13533249497413635, 0.056162279099226, 0.08006264269351959, -0.05648403987288475, -0.07798159867525101, 0.09601772576570511, 0.010920659638941288, 0.11496876925230026, 0.03528991714119911, 0.12107042968273163, -0.013603062368929386, -0.06818731129169464, -0.033018097281455994, 0.02615751139819622, 0.06715048849582672, -0.0869423970580101, -0.14238975942134857, -0.009409966878592968, -0.05859034135937691, -0.007297840900719166, 0.07967564463615417, -0.011408885940909386, 0.010803602635860443, -0.15173596143722534, 0.06770657747983932, -0.025833433493971825, 0.07208485156297684, -0.09246028959751129, 0.08765368908643723, -0.0035212025977671146, 0.00016813218826428056, -0.06687821447849274, 0.004276176914572716, 0.018014846369624138, -0.045520152896642685, 0.12366201728582382, 0.12112805992364883, -0.06265867501497269, -0.12180127948522568, -0.010067288763821125, 0.09394015371799469, -0.045439377427101135, -0.08407270908355713, -0.12573739886283875, 0.08190267533063889, 0.061498187482357025, -0.055660542100667953, 0.08815944194793701], [0.010178315453231335, 0.0035344071220606565, 0.023079117760062218, -0.093377485871315, -0.04478384181857109, 0.011852019466459751, 0.049520205706357956, -0.06249960884451866, -0.0037836094852536917, 0.017967285588383675, -0.04605429619550705, -0.08863188326358795, -0.12241310626268387, -0.04606296867132187, -0.04200753942131996, 0.12038062512874603, 0.05329705774784088, -0.0853726789355278, -0.0981367826461792, 0.01262034010142088, -0.10738348215818405, -0.03905403986573219, 0.09063912183046341, 0.08760924637317657, 0.10336243361234665, -0.09539015591144562, -0.015200048685073853, -0.01991788111627102, 0.04501254856586456, 0.07238953560590744, -0.115572988986969, 0.038867153227329254, -0.07385877519845963, -0.10429521650075912, -0.07309430092573166, 0.0857890173792839, 0.03142460435628891, 0.13668133318424225, -0.10833369940519333, 0.10838577151298523, 0.04048888012766838, 0.08107871562242508, 0.012377536855638027, -0.02823428064584732, 0.004718169569969177, -0.09318707883358002, 0.09385722130537033, -0.06277640163898468, -0.06944127380847931, 0.074960857629776, 0.025253260508179665, -0.024675725027918816, -0.029913978651165962, 0.07835788279771805, -0.09359647333621979, -0.04163523018360138, 0.07770049571990967, -0.050918594002723694, -0.07706587761640549, -0.08683700859546661, -0.05435014143586159, 0.11910508573055267, 0.05897357687354088, -0.06681860238313675], [0.07658280432224274, 0.05648678541183472, -0.06472920626401901, -0.1279333084821701, 0.011666348204016685, 0.04741020128130913, 0.10710221529006958, -0.1245296522974968, 0.10527991503477097, 0.05095921829342842, -0.006817074026912451, -0.06655846536159515, -0.0923672765493393, 0.12814614176750183, 0.09352561831474304, 0.03384292125701904, 0.0752718597650528, 0.08968649059534073, -0.061127711087465286, -0.09067609906196594, 0.049476683139801025, 0.11171874403953552, -0.11204928159713745, -0.06772444397211075, -0.008005145937204361, -0.013318679295480251, -0.007108863443136215, -0.10166338086128235, -0.043591223657131195, 0.0036817071959376335, 0.06191539764404297, 0.004436897113919258, 0.039312537759542465, -0.022501671686768532, -0.03771239146590233, 0.09463826566934586, 0.050668951123952866, -0.06937962770462036, 0.04546648636460304, 0.10342947393655777, 0.051907867193222046, 0.09455214440822601, -0.02278117462992668, -0.11820179969072342, -0.11381041258573532, 0.03868088871240616, -0.09229067713022232, 0.09029214829206467, -0.036485910415649414, -0.11082954704761505, 0.050495874136686325, 0.09298394620418549, 0.11574091762304306, -0.1296866089105606, -0.07398033887147903, 0.060757827013731, -0.08790391683578491, 0.06908546388149261, 0.04873007908463478, 0.06551477313041687, 0.10519783943891525, -0.12136707454919815, -0.06844715774059296, 0.10389800369739532], [-0.06997997313737869, -0.012382377870380878, 0.021179085597395897, -0.006757828872650862, 0.0558428019285202, 0.07701357454061508, 0.08855248987674713, -0.009617837145924568, 0.10145532339811325, -0.06780268996953964, -0.0380246527493, -0.06457534432411194, 0.08512835204601288, -0.11105254292488098, 0.02896067313849926, -0.02616216242313385, -0.0005224441410973668, -0.027300164103507996, 0.07356327772140503, -0.055530570447444916, 0.04473523423075676, 0.060881178826093674, -0.06744856387376785, 0.006814591120928526, -0.10242504626512527, 0.10065353661775589, 0.10206734389066696, 0.14300325512886047, -0.04314166307449341, -0.056427210569381714, 0.057476721704006195, 0.10244923084974289, -0.08390352129936218, 0.039517950266599655, 0.06512895226478577, 0.07386422157287598, 0.02443760260939598, 0.04581638053059578, 0.029944809153676033, 0.029741201549768448, -0.03631909564137459, 0.015820354223251343, -0.059721384197473526, 0.04665939137339592, -0.02166125923395157, -0.07300403714179993, 0.05779886245727539, 0.05985310673713684, -0.10992014408111572, -0.06756182760000229, 0.1012478917837143, -0.08058247715234756, 0.07748211175203323, 0.09610448777675629, 0.037315092980861664, 0.01697557419538498, 0.07129150629043579, 0.028675822541117668, 0.11039099097251892, 0.047751545906066895, -0.028361504897475243, 0.10147961974143982, -0.01843957044184208, 0.04265574738383293], [-0.03908192366361618, -0.019764428958296776, -0.03430585190653801, -0.02567160874605179, 0.058228034526109695, -0.03670568764209747, -0.11158385127782822, 0.04972149804234505, 0.037764739245176315, -0.11827049404382706, 0.13566765189170837, -0.094046950340271, -0.06989624351263046, 0.10683500021696091, 0.13405413925647736, 0.012595928274095058, 0.02156948111951351, 0.12593698501586914, -0.06790124624967575, -0.07273600995540619, -0.0993620827794075, 0.08035272359848022, 0.07330507040023804, 0.029039449989795685, 0.018824761733412743, -0.14632532000541687, 0.0926486924290657, 0.056611575186252594, 0.12024491280317307, 0.11688660085201263, 0.11512652784585953, 0.0160028375685215, 0.07009120285511017, 0.07695963978767395, -0.05360899865627289, 0.14663773775100708, 0.031971391290426254, -0.11232320219278336, 0.07426804304122925, -0.007929747924208641, -0.08523157238960266, 0.09077833592891693, 0.026263590902090073, 0.11667903512716293, -0.00962825771421194, -0.02209879644215107, -0.12775392830371857, 0.07641922682523727, -0.07575362175703049, -0.06348081678152084, -0.02498386986553669, 0.06563118100166321, 0.06398667395114899, 0.11129378527402878, 0.05441907420754433, -0.057008352130651474, 0.0018533256370574236, 0.0520160086452961, 0.009379349648952484, -0.005087845493108034, -0.07033798098564148, -0.0060674580745399, -0.06035582348704338, 0.1015668585896492], [0.09304986894130707, 0.1037352904677391, -0.14187075197696686, 0.1096058338880539, 0.09656732529401779, 0.06064410135149956, -0.1372661292552948, -0.10155201703310013, 0.016106316819787025, -0.006930237635970116, 0.0073710111901164055, 0.011622193269431591, -0.04827577993273735, -0.12786197662353516, -0.10380218178033829, -0.07554646581411362, -0.07268069684505463, 0.017470693215727806, 0.1256808489561081, -0.06903664767742157, 0.05254221335053444, -0.0032908369321376085, 0.07533711194992065, 0.08909391611814499, -0.09553097933530807, -0.06583135575056076, 0.06504562497138977, 0.032227057963609695, -0.10770846903324127, -0.0884508490562439, -0.02045406587421894, 0.07673802971839905, -0.011390086263418198, 0.0555695965886116, -0.06705670058727264, 0.08842141926288605, 0.04910958930850029, 0.06312084197998047, 0.05524744838476181, -0.08314453065395355, 0.006688961759209633, 0.07375243306159973, -0.027742743492126465, -0.005589399486780167, 0.07157356292009354, 0.10573944449424744, -0.09560604393482208, 0.02199433371424675, -0.14037774503231049, -0.05872397869825363, 0.09406673163175583, 0.013312899507582188, 0.04726603627204895, 0.07238292694091797, -0.10866980999708176, -0.026763852685689926, -0.0994412750005722, -0.034067388623952866, 0.06584849953651428, -0.11299934983253479, 0.08737930655479431, -0.001209851703606546, 0.09137304127216339, -0.03833964467048645], [0.03198334947228432, 0.020885547623038292, 0.1188395619392395, 0.028980309143662453, 0.03769564628601074, -0.061545200645923615, -0.041260361671447754, -0.07386366277933121, 0.01974993199110031, 0.10127346962690353, 0.04988609254360199, 0.06915169954299927, 0.09729978442192078, 0.12540222704410553, 0.003775262739509344, -0.08153007179498672, -0.0434984415769577, -0.02772885002195835, 0.07179252058267593, -0.09677369892597198, 0.10568248480558395, -0.02888745814561844, -0.06322163343429565, -0.10914591699838638, -0.05747874826192856, 0.027280272915959358, -0.008836233988404274, 0.04920659214258194, -0.009601973928511143, -0.08340755850076675, 0.004544914700090885, 0.0994139164686203, -0.1226123571395874, -0.03655150160193443, -0.10924041271209717, 0.09500632435083389, -0.08638551086187363, 0.11984460055828094, -0.13441778719425201, -0.03457527607679367, 0.111077681183815, 0.11095549911260605, 0.0195769052952528, 0.026087068021297455, -0.14177052676677704, 0.11600953340530396, 0.04825518652796745, -0.10425951331853867, 0.0634777620434761, 0.09942930191755295, -0.006256865803152323, -0.09986244887113571, -0.11788670718669891, 0.09451967477798462, 0.1275554597377777, -0.08277348428964615, 0.014641713351011276, -0.016658775508403778, -0.006660496816039085, 0.12798170745372772, -0.06330245733261108, -0.05300189182162285, -0.10832976549863815, -0.05615009367465973], [-0.03246305137872696, 0.1121363639831543, -0.09515096992254257, -0.07464765012264252, -0.04194797948002815, -0.1155366376042366, -0.08299680799245834, -0.06124354153871536, 0.05331108719110489, -0.043747562915086746, -0.02969704009592533, 0.03372771665453911, 0.05135304853320122, -0.014180856756865978, 0.01171433087438345, 0.07360681891441345, -0.10600963979959488, -0.012529907748103142, 0.10963994264602661, -0.08180488646030426, 0.020966999232769012, -0.01622588187456131, 0.07988937199115753, 0.03174431249499321, -0.03755791112780571, 0.05947358161211014, 0.12235289067029953, -0.08690330386161804, -0.060092587023973465, -0.1191210150718689, 0.10234761983156204, 0.00854321476072073, 0.047725360840559006, 0.10852369666099548, -0.00011622476449701935, 0.03340030834078789, 0.036428891122341156, 0.010106784291565418, -0.047468580305576324, 0.012141392566263676, -0.1292479932308197, -0.02600918337702751, -0.04205974191427231, -0.03684014827013016, 0.1270308494567871, -0.01483726967126131, 0.07940059155225754, 0.004885196685791016, 0.036618150770664215, -0.00044744357001036406, 0.03345080837607384, 0.05689209699630737, 0.07465686649084091, -0.02208908647298813, -0.09922975301742554, -0.022290552034974098, 0.0663159191608429, -0.06326582282781601, 0.04740331321954727, 0.11168692260980606, -0.020631343126296997, 0.0021551670506596565, 0.10234663635492325, -0.09802395105361938], [-0.048786818981170654, 0.07790765911340714, -0.051619648933410645, 0.06683419644832611, 0.026668710634112358, -0.029223337769508362, -0.09476128220558167, 0.12426862865686417, -0.06868003308773041, -0.09033095091581345, -0.041751086711883545, -0.058836281299591064, 0.029661407694220543, 0.1173086166381836, -0.06080096215009689, 0.054713450372219086, 0.014610313810408115, -0.08862490952014923, -0.09451496601104736, -0.0607495941221714, -0.04500743746757507, 0.013802655972540379, 0.1331157386302948, -0.023951875045895576, -0.017463723197579384, -0.03721138462424278, 0.028044208884239197, -0.022751353681087494, 0.113317109644413, 0.05473581328988075, 0.07257738709449768, 0.060612406581640244, 0.1208399087190628, 0.036310356110334396, -0.13845914602279663, 0.009447598829865456, 0.05255509912967682, 0.0762501209974289, -0.06972826272249222, -0.0029237603303045034, 0.03218362480401993, -0.05281158909201622, -0.07666557282209396, 0.00428449921309948, 0.0546262152493, 0.04874043166637421, -0.05173526704311371, -0.10975106805562973, -0.09463292360305786, 0.006761076394468546, 0.09123702347278595, 0.07924734055995941, 0.05174986273050308, -0.004739291965961456, 0.08633476495742798, -0.07488108426332474, 0.0482683889567852, 0.09869049489498138, 0.014513562433421612, -0.05219458416104317, 0.09001097083091736, 0.13282012939453125, -0.02190454490482807, -0.10107852518558502], [-0.041505247354507446, -0.08361226320266724, -0.06621097773313522, -0.062390733510255814, -0.00026385323144495487, 0.12373635917901993, -0.07048526406288147, 0.1364317536354065, 0.09667348116636276, -0.1306973397731781, 0.11972960829734802, -0.028283461928367615, -0.04291620850563049, 0.09740347415208817, 0.1160038411617279, -0.07178909331560135, 0.07282823324203491, 0.11140601336956024, -0.09646125882863998, -0.04511195793747902, 0.166721910238266, 0.05977289751172066, 0.04573173448443413, 0.050983212888240814, -0.05235070735216141, -0.05786269158124924, 0.06555649638175964, 0.005479834042489529, -0.05202977731823921, -0.04395700991153717, -0.10816413164138794, 0.045654721558094025, 0.06944763660430908, 0.013967281207442284, -0.07226134836673737, 0.10678795725107193, 0.0850406289100647, -0.13896609842777252, -0.06735287606716156, 0.003049394814297557, 0.01419869065284729, -0.039533261209726334, 0.08261790126562119, 0.025698544457554817, 0.05072007328271866, -0.025214510038495064, -0.004125677514821291, -0.16013801097869873, 0.0712071880698204, -0.1431656926870346, -0.06457605212926865, 0.022429989650845528, 0.054940029978752136, 0.018261007964611053, 0.09353057295084, 0.01574932225048542, -0.13805152475833893, 0.04488080367445946, 0.019213330000638962, -0.062200699001550674, 0.027737868949770927, 0.042083464562892914, 0.01435418426990509, -0.09035593271255493], [0.12942317128181458, 0.0534454844892025, 0.1276681125164032, -0.13117626309394836, 0.10525670647621155, -0.08335406333208084, -0.1000070571899414, 0.11067651212215424, 0.008531033992767334, -0.005253266543149948, 0.11725232005119324, -0.10496670752763748, -0.031478818506002426, 0.027309494093060493, -0.01885239966213703, -0.04947409778833389, 0.05797729268670082, -0.07261529564857483, 0.03321108967065811, -0.1256031095981598, 0.12462519109249115, 0.09052136540412903, 0.09812590479850769, 0.05211794376373291, -0.002179545583203435, 0.017269978299736977, 0.04093021899461746, 0.0933104082942009, -0.0340852215886116, -0.11457551270723343, 0.1178523600101471, -0.07917293906211853, 0.11343548446893692, 0.03959646821022034, -0.10278802365064621, 0.0010653857607394457, -0.08519439399242401, 0.027349641546607018, -0.02453196793794632, -0.004879063926637173, 0.12454333156347275, -0.08926792442798615, 0.07894756644964218, 0.014795894734561443, -0.11939074099063873, 0.12453195452690125, -0.12683728337287903, 0.11467061936855316, 0.003531849943101406, 0.08025024831295013, 0.118552565574646, -0.06965985894203186, 0.0542227067053318, 0.10884801298379898, 0.0496491864323616, 0.030351215973496437, 0.024149008095264435, 0.1023881807923317, 0.09486687928438187, 0.012764655984938145, 0.1366054266691208, -0.051655832678079605, -0.052667904645204544, -0.09049633145332336], [0.020265212282538414, 0.1100011020898819, -0.03723856434226036, -0.046072397381067276, 0.015970170497894287, 0.06201566010713577, -0.11285818368196487, 0.08987662941217422, -0.0032821125350892544, -0.04511362686753273, 0.08570495247840881, -0.08878616243600845, -0.04031879082322121, -0.02579049952328205, -0.027271920815110207, -0.12588617205619812, 0.12204542011022568, 0.03314616531133652, -0.08847612887620926, -0.011874253861606121, -0.03744811192154884, -0.12068241089582443, 0.017455579712986946, 0.05788758397102356, 0.033017247915267944, -0.09853306412696838, 0.05671560391783714, -0.0156523659825325, 0.07872877269983292, 0.0669371485710144, -0.012129317037761211, 0.11275490373373032, -0.017040131613612175, 0.1375279277563095, 0.0648917406797409, 0.02334359660744667, -0.07266128063201904, 0.03713556379079819, -0.00030355353374034166, -0.00043671156163327396, -0.04655776172876358, -0.08407910913228989, 0.04354274272918701, 0.03251540660858154, 0.03220607712864876, 0.06296037137508392, 0.08225759863853455, 0.0355810709297657, 0.10070345550775528, 0.05971404165029526, 0.014979513362050056, -0.09084364026784897, -0.048194073140621185, -0.04327743127942085, 0.08601243048906326, 0.08218713849782944, -0.10181406140327454, -0.07564963400363922, -0.065303273499012, -0.06200338900089264, -0.06414318829774857, 0.032727114856243134, -0.05268826708197594, -0.02602546289563179], [0.11779113858938217, -0.09902124106884003, 0.08106952160596848, 0.019730577245354652, -0.0325126126408577, 0.07843934744596481, -0.072707898914814, -0.006370456889271736, -0.04660928621888161, 0.10753698647022247, 0.06646259874105453, -0.014165576547384262, 0.08894441276788712, -0.04046386107802391, -0.10608577728271484, 0.08251769095659256, -0.08114763349294662, 0.009165019728243351, -0.10086864978075027, -0.004594425670802593, -0.04275636002421379, 0.02271093986928463, -0.11497873812913895, 0.006445556879043579, -0.008811620064079762, 0.049417320638895035, -0.12746000289916992, -0.08683494478464127, 0.08143216371536255, 0.1029384508728981, 0.05343478545546532, 0.04379773139953613, -0.035027600824832916, 0.10046254843473434, 0.09029939025640488, 0.13171334564685822, -0.032183241099119186, -0.09870168566703796, 0.0015883053420111537, 0.03876370191574097, -0.04298318922519684, 0.09715806692838669, 0.0550280436873436, 0.009942533448338509, -0.0752418264746666, 0.13480505347251892, 0.1127144992351532, 0.08460158109664917, -0.013029399327933788, -0.03577941283583641, 0.1253572404384613, -0.008846573531627655, -0.09391240030527115, 0.07928221672773361, 0.0468435063958168, -0.10620752722024918, -0.08840371668338776, 0.04847545549273491, -0.009517372585833073, 0.05978579446673393, -0.07837142795324326, -0.07011943310499191, -0.07864651083946228, -0.05783393606543541], [0.014253746718168259, 0.09950510412454605, -0.06257408112287521, -0.10914801806211472, -0.0023693139664828777, 0.06327318400144577, -0.07089467346668243, 0.08170585334300995, -0.11408287286758423, 0.0980597659945488, 0.003353209001943469, 0.10153409093618393, -0.030606532469391823, 0.010031442157924175, 0.059741996228694916, -0.05982634797692299, 0.10655204206705093, 0.037131261080503464, -0.01888187602162361, -0.05651174858212471, -0.019916454330086708, 0.07747697085142136, 0.0483735017478466, -0.08921439200639725, -0.051590822637081146, 0.0008798551862128079, 0.09676306694746017, -0.05605704337358475, 0.01033097319304943, -0.05370960757136345, -0.05649162828922272, -0.09256685525178909, 0.08860259503126144, 0.03804275393486023, -0.08078065514564514, -0.032661162316799164, -0.05204407498240471, -0.06410179287195206, -0.015269032679498196, 0.012975123710930347, -0.057435497641563416, -0.04392850399017334, 0.04306219890713692, 0.05211479589343071, 0.04592118412256241, -0.03908401355147362, 0.08926595747470856, -0.09366690367460251, 0.11927003413438797, 0.05250765383243561, -0.010225441306829453, -0.016134968027472496, 0.10010287910699844, -0.06348667293787003, 0.0021361366380006075, 0.07827433198690414, 0.06165003776550293, 0.13223372399806976, 0.06173565611243248, 0.07714757323265076, -0.018866010010242462, 0.12073619663715363, 0.04059420898556709, -0.008730430155992508], [0.010566968470811844, 0.015035652555525303, -0.0048811850138008595, 0.05765315890312195, 0.04482113942503929, -0.0783865675330162, 0.04114525020122528, 0.1027229055762291, -0.01579519733786583, 0.04988645762205124, 0.002161856973543763, -0.0964607298374176, -0.03930319473147392, 0.015768008306622505, 0.03505808487534523, -0.08916723728179932, 0.0049926587380468845, -0.05259976536035538, 0.1357083022594452, -0.046433933079242706, 0.03837699815630913, -0.011770891025662422, -0.022694535553455353, 0.11664425581693649, 0.06789568811655045, 0.03666960075497627, -0.02719806879758835, -0.03006051667034626, -0.018028318881988525, 0.022347958758473396, -0.01846773736178875, 0.08688610047101974, 0.09871149808168411, -0.11919326335191727, 0.08315479755401611, -0.07259294390678406, 0.021094119176268578, -0.05364338308572769, -0.013918695971369743, -0.05071021616458893, -0.07490203529596329, 0.07602335512638092, 0.01372134406119585, -0.029248811304569244, -0.09735313057899475, -0.04437103122472763, 0.025214780122041702, 0.0019889920949935913, 0.05022928863763809, -0.06639208644628525, -0.10130688548088074, -0.04143838584423065, 0.05908520519733429, 0.05651033669710159, 0.08591149747371674, 0.03182291239500046, 0.06708639115095139, -0.12535610795021057, 0.07141589373350143, 0.09304971992969513, -0.1033104956150055, 0.10794626176357269, 0.08844341337680817, -0.11709541827440262], [0.09338018298149109, 0.00700309406965971, -0.07168923318386078, -0.042860064655542374, -0.015303777530789375, -0.04483328387141228, 0.10154568403959274, -0.07011120021343231, 0.023075677454471588, 0.03603701665997505, -0.018151959404349327, 0.03758998215198517, 0.013478940352797508, 0.03962026908993721, 0.10653813928365707, -0.12028958648443222, 0.05209602415561676, -0.032254114747047424, -0.10348537564277649, -0.06139532849192619, -0.04827020317316055, -0.07681579142808914, 0.09357983618974686, 0.02288615144789219, 0.06251679360866547, 0.044268589466810226, 0.03144831582903862, 0.07788719981908798, -0.04805982857942581, -0.07916891574859619, -0.02328704483807087, 0.052689798176288605, 0.1007368415594101, 0.10578377544879913, -0.12683218717575073, 0.0375119186937809, 0.14574187994003296, -0.07196515798568726, -0.010607603006064892, -0.07395283132791519, -0.10629765689373016, 0.05486670508980751, -0.08531966060400009, 0.10969533771276474, 0.06697272509336472, 0.09531369805335999, 0.09183383733034134, 0.01998460292816162, 0.027004368603229523, -0.08207608014345169, 0.049939852207899094, 0.039813995361328125, -0.07423760741949081, -0.09113485366106033, 0.06532052159309387, -0.05978398397564888, -0.07947953045368195, -0.05023772642016411, 0.007000091020017862, -0.022694898769259453, -0.03021043911576271, 0.052779421210289, 0.0430726557970047, -0.12581303715705872], [-0.03278128430247307, 0.1273396909236908, -0.06085866689682007, -0.07928267866373062, 0.02600378356873989, -0.028033316135406494, 0.11404375731945038, -0.05701009929180145, -0.11727294325828552, -0.030575331300497055, 0.01901347003877163, -0.10351918637752533, -0.1028793677687645, -0.1186956837773323, -0.11737959831953049, -0.09525776654481888, 0.09331012517213821, -0.06662275642156601, -0.0929192528128624, 0.005687827710062265, 0.06839781999588013, 0.0617256797850132, -0.04506999999284744, -0.05897784233093262, 0.11746188998222351, 0.09697159379720688, -0.09519753605127335, 0.0049625239335000515, -0.003538258373737335, 0.04213592782616615, -0.05529874563217163, -0.10705838352441788, 0.07114435732364655, 0.07387704402208328, -0.007058398798108101, 0.08558107912540436, 0.06463568657636642, -0.05500868335366249, -0.05059389770030975, -0.09457872062921524, 0.04206746444106102, 0.08113719522953033, -0.09542903304100037, -0.12928450107574463, 0.11117337644100189, -0.11582283675670624, -0.020239170640707016, -0.12211257219314575, 0.06211263686418533, -0.11287469416856766, -0.013810892589390278, 0.07093595713376999, -0.02955273911356926, 0.040022604167461395, -0.09393473714590073, 0.01355106383562088, 0.05920198932290077, 0.028844617307186127, 0.06418668478727341, 0.10435301065444946, 0.07126711308956146, 0.053550153970718384, -0.08988746255636215, 0.05972248315811157], [0.0011544836452230811, 0.12437079101800919, -0.05052259564399719, -0.008059697225689888, -0.11141284555196762, -0.025946209207177162, 0.09705362468957901, 0.01940649189054966, -0.1037970632314682, 0.011509078554809093, 0.003585117869079113, -0.04149577021598816, -0.02700875885784626, 0.09230919182300568, -0.12062855809926987, -0.10235623270273209, 0.020095808431506157, 0.06661076098680496, -0.06099114194512367, 0.05377795174717903, -0.050579532980918884, -0.04378919675946236, -0.0929468646645546, 0.03772444278001785, -0.10249409824609756, -0.03128747269511223, 0.013634836301207542, 0.0632677674293518, 0.04329201951622963, -0.12921927869319916, -0.11237996816635132, 0.010418054647743702, -0.07202600687742233, 0.07728249579668045, -0.05325735732913017, -0.010541004128754139, 0.06854153424501419, 0.022327467799186707, -0.04409255087375641, -0.12866060435771942, -0.11960095912218094, -0.03697024658322334, 0.009026345796883106, -0.013285189867019653, -0.048473309725522995, -0.1331145316362381, 0.1272132694721222, -0.08375127613544464, -0.0043020774610340595, 0.026919323951005936, -0.11651206016540527, 0.019469933584332466, -0.037225596606731415, 0.011494062840938568, 0.05387748405337334, -0.019989127293229103, 0.0892956554889679, -0.019401604309678078, 0.08212313801050186, -0.07908757030963898, -0.06569027900695801, -0.053720664232969284, -0.015149344690144062, -0.0631975531578064], [-0.023431070148944855, -0.07786102592945099, 0.06915360689163208, -0.05291243642568588, 0.053775541484355927, -0.12467532604932785, 0.027937721461057663, -0.02689921297132969, 0.059670183807611465, -0.10139264911413193, 0.007285588886588812, 0.024118244647979736, 0.12086567282676697, -0.06684450805187225, -0.12695178389549255, 0.02068178914487362, 0.05109971761703491, 0.00190578808542341, 0.11632499098777771, -0.061152294278144836, 0.029581937938928604, -0.0043357801623642445, -0.10849227756261826, 0.009045114740729332, 0.009939221665263176, 0.021027399227023125, 0.03341182693839073, -0.05632118135690689, -0.05156441777944565, 0.006958716083317995, -0.10006046295166016, 0.05728622153401375, -0.04040786996483803, -0.034794311970472336, 0.019075747579336166, -0.08565827459096909, -0.025221750140190125, 0.10460451245307922, 0.10983102023601532, 0.02389301359653473, 0.07178737223148346, 0.1277139037847519, 0.004639672115445137, -0.05436527356505394, 0.061774082481861115, -0.08452677726745605, -0.09640192240476608, -0.05897214636206627, -0.09195858240127563, 0.016551325097680092, 0.06464552879333496, 0.12087894231081009, -0.09351018071174622, -0.0904107317328453, 0.05712246522307396, 0.005662247072905302, 0.11951655894517899, -0.006312319077551365, 0.06773234903812408, 0.05636073276400566, -0.1447901725769043, 0.04680570214986801, -0.08560144901275635, 0.1077553853392601], [0.010938028804957867, 0.050383057445287704, 0.11403246223926544, 0.004506081808358431, -0.020231978967785835, 0.036931321024894714, 0.014516528695821762, -0.02027386985719204, -0.08934181183576584, 0.019144020974636078, -0.03729429095983505, -0.04254817217588425, 0.08592143654823303, 0.03370601311326027, 0.04288635402917862, 0.05910326912999153, 0.020682318136096, -0.07802370190620422, -0.027342168614268303, 0.13258400559425354, 0.08440051972866058, 0.12705865502357483, 0.11484027653932571, -0.00872047059237957, -0.012053161859512329, 0.05140196904540062, 0.026564285159111023, -0.004279778338968754, 0.06966514885425568, 0.041644468903541565, 0.08214686065912247, 0.013994965702295303, -0.022684399038553238, -0.07590417563915253, -0.04690970852971077, -0.015944086015224457, 0.02307124063372612, -0.06608657538890839, 0.05644012615084648, 0.08798965811729431, 0.07424721866846085, -0.054521963000297546, 0.1141359880566597, -0.0867111086845398, 0.13484075665473938, -0.038267068564891815, -0.06122036278247833, -0.033397529274225235, -0.1081792488694191, 0.10251707583665848, -0.04615643247961998, 0.06524474918842316, 0.062174465507268906, 0.011005689390003681, -0.03401360288262367, 0.06256934255361557, 0.10224580764770508, -0.12314298003911972, 0.10031864792108536, -0.09550699591636658, -0.03720932453870773, -0.028983399271965027, 0.001735555357299745, 0.07462498545646667], [0.045485250651836395, 0.03932952135801315, -0.08971335738897324, -0.03523223102092743, 0.041430793702602386, -0.027996864169836044, -0.06565708667039871, 0.1098141074180603, -0.08647915720939636, 0.044675782322883606, 0.08613286167383194, 0.04064684361219406, 0.0873580276966095, 0.009310388937592506, -0.057395923882722855, 0.11978646367788315, -0.03535927087068558, 0.05612946301698685, 0.13232077658176422, 0.13254253566265106, -0.12206198275089264, -0.10292480140924454, -0.04321608319878578, -0.08694122731685638, 0.10572433471679688, -0.007978888228535652, 0.01986265741288662, 0.1007821336388588, 0.01944715343415737, -0.0738804042339325, -0.07144259661436081, -0.12179074436426163, -0.0997207835316658, -0.07925625890493393, -0.040773287415504456, -0.021792760118842125, -0.12707960605621338, -0.06484540551900864, -0.09652643650770187, 0.08727387338876724, 0.07008060067892075, 0.019768303260207176, 0.1030002012848854, 0.004658018704503775, -0.08147086948156357, -0.06674361228942871, 0.10316849499940872, -0.02051306702196598, -0.03682665154337883, 0.09986871480941772, -0.01225376408547163, 0.10043947398662567, -0.014796404168009758, -0.04881894215941429, 0.000524950388353318, -0.09496021270751953, -0.05671525001525879, 0.0890844464302063, -0.12092454731464386, -0.08818241208791733, -0.04106907173991203, 0.10243915021419525, 0.08068981766700745, 0.10047532618045807], [-0.03446419537067413, 0.0033210793044418097, -0.04384038969874382, 0.0035563556011766195, 0.09282855689525604, -0.14574743807315826, -0.05525527521967888, 0.09723670780658722, 0.059397485107183456, -0.057618238031864166, 0.0030093740206211805, -0.10499762743711472, -0.05274108424782753, 0.08180485665798187, -0.14059337973594666, 0.06104588136076927, -0.08571019768714905, 0.01542665995657444, 0.1357811689376831, -0.0889795571565628, 0.07296472787857056, 0.1265823394060135, -0.014097918756306171, 0.03517597168684006, -0.03153903782367706, -0.0780891701579094, 0.010330392979085445, 0.04236573353409767, 0.050947289913892746, -0.01657971739768982, -0.021065153181552887, -0.03389621898531914, -0.010274749249219894, 0.11244985461235046, 0.14734621345996857, 0.08467736095190048, 0.09334823489189148, -0.10197652876377106, -0.04520659148693085, -0.10585333406925201, -0.019474605098366737, 0.10305196791887283, 0.12266910821199417, -0.1271033138036728, 0.08761267364025116, 0.06735730171203613, -0.1105543002486229, -0.0569801889359951, 0.06444822996854782, 0.00481112627312541, 0.06526914238929749, 0.06700557470321655, 