{"hyperparams": {}, "state_dict": {"rnn.weight_ih_l0": [[-0.07475150376558304, 0.07497917115688324, 0.0344674251973629, 0.05647701025009155, 0.12123984843492508, -0.08668811619281769, -0.03862185403704643, -0.02586289681494236, -0.022553812712430954], [0.06095518544316292, 0.0185258612036705, -0.07516393810510635, -0.02997414954006672, 0.0781477615237236, 0.04807033762335777, 0.029640421271324158, -0.10086504369974136, 0.08892857283353806], [-0.1926567256450653, -0.12149780988693237, 0.002856738632544875, 0.054508741945028305, -0.1246301531791687, 0.05429958924651146, -0.18020249903202057, -0.20077431201934814, -0.1742624044418335], [-0.056831080466508865, 0.06623353064060211, 0.04020022228360176, -0.015113404020667076, -0.04863426089286804, 0.03224655240774155, 0.004346990026533604, -0.009705066680908203, 0.04568815603852272], [0.007468063849955797, 0.06614550948143005, -0.007985268719494343, 0.07039593160152435, -0.06912701576948166, -0.044076401740312576, 0.01674853451550007, 0.0224759504199028, 0.07390091568231583], [0.0515424981713295, 0.09421812742948532, -0.06483002007007599, -0.04096822813153267, -0.014829016290605068, 0.0627569854259491, -0.06137505918741226, -0.09667275100946426, 0.08302395045757294], [0.003320891410112381, -0.004418256692588329, 0.048373498022556305, -0.027598872780799866, 0.08559177070856094, -0.1042112335562706, -0.03767785429954529, -0.019006507471203804, 0.045282162725925446], [-0.0008853047620505095, 0.061599455773830414, -0.03196733444929123, -0.0634225457906723, 0.08310267329216003, -0.04473847150802612, 0.05563650280237198, -0.09844061732292175, -0.0933062955737114], [-0.10262957215309143, 0.07683955878019333, 0.011622022837400436, -0.016907423734664917, 0.0003315882058814168, 0.031078509986400604, -0.06095290929079056, 0.011925289407372475, 0.032572634518146515], [-0.013130662962794304, 0.02082984335720539, -0.002762631978839636, -0.015132597647607327, -0.023827042430639267, 0.07437845319509506, 0.028319034725427628, -0.09224651753902435, 0.0728079155087471], [-0.029661929234862328, 0.02196647599339485, -0.024128135293722153, 0.10338811576366425, 0.03169875964522362, 0.04148084670305252, 0.07080495357513428, -0.08817608654499054, -0.036844756454229355], [-0.008179140277206898, -0.005598061252385378, -0.10019019991159439, -0.03661476448178291, 0.05462970212101936, -0.014518242329359055, -0.04342852160334587, 0.0742843747138977, 0.07467468827962875], [0.04800030589103699, -0.04140935838222504, 0.02578902430832386, 0.03255691006779671, -0.00885743834078312, -0.030815884470939636, -0.0048426431603729725, 0.0005292692221701145, -0.03434225544333458], [0.05682076886296272, -0.1045602336525917, 0.018451213836669922, 0.06065241992473602, 0.05809517949819565, -0.00036240534973330796, 0.03988781198859215, 0.020489515736699104, -0.014179286547005177], [-0.06913677603006363, 0.09558038413524628, -0.06932596862316132, -0.009973082691431046, -0.07858309894800186, 0.11452747136354446, -0.07020408660173416, -0.03860950097441673, 0.07942015677690506], [-0.01023925095796585, -0.002115073148161173, -0.04362056031823158, -0.04014422371983528, 0.11257193237543106, 0.09255946427583694, -0.08400220423936844, -0.11725090444087982, 0.09458941966295242], [0.036866672337055206, -0.11515062302350998, 0.02418951503932476, -0.003236965276300907, -0.03863132372498512, 0.003928500693291426, 0.008852803148329258, -0.01489327009767294, -0.005711103789508343], [-0.055856578052043915, 0.0016442430205643177, -0.08518540114164352, 0.014344967901706696, -0.013232019729912281, 0.0033637089654803276, -0.003600245574489236, -0.015557179227471352, 0.005837191827595234], [-0.025515930727124214, -0.007743868511170149, 0.1049436628818512, -0.06838806718587875, 0.0622333325445652, 0.055545393377542496, -0.08071792870759964, -0.015963604673743248, -0.014049953781068325], [0.06464388966560364, 0.030557310208678246, -0.053466301411390305, 0.02657739818096161, 0.07897070050239563, -0.051814936101436615, -0.04841087758541107, -0.059538453817367554, 0.0597732849419117], [-0.10326970368623734, -0.11679159104824066, 0.09650615602731705, -0.037792157381772995, -0.037972401827573776, 0.08230839669704437, -0.012307561933994293, -0.043813467025756836, 0.09673012048006058], [0.09359431266784668, -0.02061990462243557, 0.03428220748901367, -0.04700235649943352, -0.09499941766262054, 0.09951087087392807, -0.07219778001308441, 0.01601574569940567, 0.07890528440475464], [0.026664791628718376, 0.014148623682558537, -0.07246018201112747, -0.04502261057496071, 0.042617782950401306, -0.012763340026140213, 0.07217972725629807, 0.014662952162325382, -0.059358324855566025], [0.03952682763338089, 0.018757324665784836, -0.0011866536224260926, 0.016032427549362183, -0.044597700238227844, -0.013146140612661839, -0.059634730219841, -0.009476409293711185, 0.03781919926404953], [-0.03924302011728287, -0.017873547971248627, -0.04590611159801483, 0.009729398414492607, -0.05618668720126152, 0.007712200749665499, 0.09836137294769287, 0.041198570281267166, 0.048854678869247437], [0.09999153763055801, 0.0022133835591375828, -0.09559430181980133, 0.06470942497253418, 0.04592641070485115, 0.01074522640556097, -0.008990546688437462, -0.020944099873304367, 0.05653434991836548], [0.07535318285226822, 0.003897076938301325, 0.007014766801148653, -0.0032742831390351057, -0.042863134294748306, 0.018659647554159164, -0.09549041837453842, 0.008814221248030663, 0.04486759006977081], [0.02794257551431656, 0.05781486630439758, 0.008292251266539097, 0.0949353575706482, -0.11223988980054855, -0.051332395523786545, 0.08006615191698074, 0.07905972003936768, -0.07168563455343246], [-0.08452993631362915, 0.08822869509458542, 0.09975124895572662, 0.03007177822291851, -0.03388559818267822, -0.08193014562129974, -0.06227913498878479, -0.0746554359793663, -0.1002342700958252], [-0.1130976602435112, 0.01695900782942772, -0.015037269331514835, 0.03219148889183998, -0.005657598376274109, 0.04138394072651863, -0.019328691065311432, 0.10409939289093018, 0.034979429095983505], [0.09147042781114578, -0.020180847495794296, 0.03593364730477333, 0.06566232442855835, -0.08599481731653214, 0.11394310742616653, -0.07575766742229462, -0.04303363710641861, 0.0054116263054311275], [-0.008600170724093914, 0.01828945428133011, 0.03354706987738609, -0.008412037044763565, 0.07704043388366699, -0.04116936773061752, -0.048525370657444, 0.005353606306016445, -0.06314818561077118], [0.05091005936264992, -0.032463617622852325, 0.038239192217588425, -0.04869174212217331, -0.05333968624472618, 0.013853427022695541, -0.028900064527988434, 0.012342485599219799, 0.038564350455999374], [0.10525883734226227, -0.06500660628080368, -0.056392356753349304, -0.07264471054077148, -0.006738064344972372, -0.02080516144633293, 0.04174745827913284, -0.01631942205131054, -0.09185537695884705], [-0.0631880834698677, 0.08520475029945374, 0.011380445212125778, 0.0014989866176620126, 0.059197183698415756, 0.02011660858988762, 0.07374484091997147, -0.1029917299747467, -0.032701525837183], [-0.03128721937537193, -0.012097997590899467, -0.05969633534550667, -0.00937307346612215, -0.10228174924850464, 0.03263458237051964, -0.09212514758110046, 0.028126593679189682, -0.10064580291509628], [-0.056372642517089844, 0.10923367738723755, 0.08671138435602188, -0.004191848449409008, 0.07798020541667938, -0.06902841478586197, 0.014286069199442863, -0.030046585947275162, -0.005964036565274], [-0.010102015919983387, 0.08860871195793152, 0.0993809774518013, 0.006268729455769062, -0.007069265935570002, 0.04314279556274414, -0.11482259631156921, 0.05419539287686348, -0.08297016471624374], [0.044976845383644104, -0.07052671164274216, -0.05907820165157318, 0.016609597951173782, -0.015361644327640533, 0.030795546248555183, 0.06934569776058197, -0.05545434355735779, 0.04223492741584778], [0.05769341439008713, 0.002784189535304904, -0.08737475425004959, 0.056219056248664856, 0.005524402018636465, 0.0654667541384697, 0.026500264182686806, -0.07548147439956665, 0.05996942147612572], [0.018879063427448273, 0.00608028145506978, 0.09065986424684525, 0.020249443128705025, 0.007053318899124861, 0.04124254360795021, -0.10008098185062408, 0.062307726591825485, -0.020077567547559738], [-0.06378302723169327, -0.005567195359617472, 0.023566976189613342, -0.0010481007630005479, 0.025230424478650093, -0.04975144565105438, -0.06172909587621689, 0.022615257650613785, 0.04072853922843933], [0.03210946545004845, -0.057354655116796494, -0.025035792961716652, 0.056966327130794525, -0.10980572551488876, 0.11627377569675446, -0.023009300231933594, -0.06829080730676651, -0.03370930999517441], [0.035402148962020874, 0.0674213245511055, 0.0360780730843544, 0.009367789141833782, 0.03573762625455856, -0.034060314297676086, -0.09939025342464447, -0.0732959732413292, -0.04451528564095497], [-0.07156351953744888, -0.016495028510689735, 0.08859773725271225, 0.014631343074142933, -0.09436849504709244, 0.05778912827372551, -0.028920670971274376, -0.023479977622628212, 0.09139732271432877], [-0.076588474214077, 0.06433239579200745, 0.03966701403260231, 0.034853558987379074, -0.030534636229276657, -0.011440545320510864, -0.033608317375183105, 0.028101421892642975, -0.012053870595991611], [0.01559063233435154, 0.1075134128332138, -0.06477119773626328, -0.002591181080788374, 0.0815000981092453, -0.08286838978528976, -0.0006386267486959696, 0.0958857387304306, 0.10143255442380905], [-0.04677155986428261, -0.026704344898462296, -0.06617267429828644, -0.03355580195784569, 0.023917442187666893, 0.008631644770503044, -0.056042008101940155, 0.062288280576467514, -0.010580064728856087], [-0.07270558923482895, -0.03315439447760582, -0.04838778078556061, 0.0789349302649498, -0.11941908299922943, 0.06740563362836838, -0.008622455410659313, 0.08418189734220505, -0.04396556317806244], [0.029744978994131088, -0.0970158651471138, 0.08050846308469772, -0.03564457595348358, -0.10685402899980545, 0.12489312887191772, 0.01752777211368084, -0.11758517473936081, 0.06665720045566559], [-0.07848154753446579, 0.09968056529760361, 0.004525319207459688, -0.028092188760638237, -0.08292737603187561, 0.10049176216125488, 0.08693374693393707, -0.03439714014530182, -0.10276848822832108], [0.07550007104873657, -0.014910212717950344, 0.01116254273802042, 0.06144063174724579, -0.008055675774812698, -0.046879541128873825, 0.0010491778375580907, -0.027725156396627426, -0.09922955185174942], [0.02711574174463749, 0.024046193808317184, -0.10684856027364731, -0.012336470186710358, 0.07097146660089493, 0.11749347299337387, -0.019947107881307602, -0.08869857341051102, -0.10157951712608337], [-0.030306724831461906, 0.0037959900218993425, 0.13139480352401733, -0.022177593782544136, 0.08500462025403976, -0.03828885033726692, 0.03736346960067749, -0.0392613559961319, -0.061225250363349915], [-0.006326018832623959, -0.0847761482000351, 0.06428596377372742, -0.06609779596328735, 0.022013753652572632, -0.011119150556623936, -0.045721396803855896, -0.013224820606410503, -0.08374958485364914], [-0.061101265251636505, 0.02410573698580265, -0.0705309733748436, 0.026739338412880898, -0.033898282796144485, 0.05353391543030739, 0.0005493544158525765, 0.010934427380561829, -0.06077542528510094], [0.07727022469043732, 0.07767416536808014, 0.09274101257324219, 0.004283064045011997, -0.08593270927667618, 0.11583162844181061, -0.11387559026479721, -0.03258522227406502, -0.02767796255648136], [0.011696813628077507, 0.05785159766674042, -0.061189815402030945, -0.01900959201157093, 0.06315580755472183, -0.013418436050415039, -0.0619015172123909, 0.1003163605928421, -0.07554133236408234], [0.03971301019191742, -0.07893659174442291, -0.03172161430120468, -0.012056661769747734, 0.03309003636240959, -0.09914857894182205, -0.07156137377023697, 0.00738886371254921, -0.011993814259767532], [0.0681510865688324, -0.07842021435499191, -0.06390920281410217, 0.0666438415646553, -0.052300672978162766, -0.04293898493051529, 0.09761830419301987, -0.0602596215903759, -0.09576479345560074], [0.05969836562871933, -0.033026911318302155, -0.08959115296602249, -0.0029228422790765762, -0.022535670548677444, 0.05202249065041542, -0.07231148332357407, 0.09763580560684204, -0.02727574296295643], [-0.10463423281908035, 0.07906820625066757, -0.020961031317710876, -0.011248060502111912, 0.011221837252378464, 0.03881833702325821, 0.09492385387420654, -0.06572209298610687, 0.0036621650215238333], [0.01011358667165041, -0.05122828856110573, -0.08908960223197937, -0.06943884491920471, -0.1080813780426979, -0.04731864854693413, -0.08513658493757248, 0.006575851235538721, 0.06121540069580078], [0.023855911567807198, -0.05743539705872536, 0.05067723989486694, 0.0385478213429451, -0.06012506037950516, -0.03916860744357109, -0.1231030598282814, 0.03969552367925644, 0.04121233895421028]], "rnn.weight_hh_l0": [[-0.025090759620070457, -0.04520562291145325, -0.10687176883220673, -0.049086857587099075, 0.0025641866959631443, -0.04370660334825516, -0.018254710361361504, 0.10155569761991501, 0.1109294667840004, 0.03184010088443756, -0.06779324263334274, -0.12742143869400024, -0.0461120642721653, 0.11395680159330368, -0.041985828429460526, -0.07358088344335556, -0.0266362763941288, -0.01606146991252899, -0.006074489094316959, 0.15589401125907898, 0.08156472444534302, 0.08640092611312866, 0.0626252144575119, 0.055081360042095184, -0.027584008872509003, -0.04513578861951828, 0.09439004212617874, -0.06380914896726608, -0.07985711842775345, -0.03744984418153763, -0.12299506366252899, -0.009174047037959099, -0.0998847633600235, -0.11550543457269669, -0.10225050151348114, 0.028288090601563454, 0.013382558710873127, 0.11320222914218903, -0.0165244247764349, -0.08381718397140503, 0.01499309204518795, 0.011003061197698116, -0.009890022687613964, 0.04322255402803421, 0.09971340000629425, -0.09157758951187134, -0.07389546930789948, 0.04386245086789131, -0.04655894637107849, -0.05737416073679924, -0.028068656101822853, 0.10548665374517441, 0.053074855357408524, -0.04319862276315689, -0.0912470668554306, -0.058584075421094894, 0.014548180624842644, 0.08577215671539307, -0.08260010927915573, 0.14248234033584595, -0.0007425296353176236, 0.1098763570189476, 0.16573366522789001, 0.06211484596133232], [-0.100107342004776, -0.10074540227651596, 0.09530079364776611, 0.012701030820608139, 0.0108295027166605, 0.06334111094474792, 0.08856313675642014, 0.043487172573804855, 0.007523022126406431, 0.07108276337385178, -0.025518780574202538, -0.061755914241075516, -0.06092134118080139, -0.032363343983888626, -0.001705086906440556, -0.09957277774810791, -0.05804680287837982, -0.06067561358213425, -0.005574050825089216, 0.022643769159913063, -0.045170269906520844, -0.024985216557979584, -0.0021431646309792995, 0.010099285282194614, 0.038750551640987396, -0.01051793247461319, 0.04186448082327843, 0.05274461209774017, 0.0209855604916811, -0.035536713898181915, -0.026679227128624916, 0.06271559745073318, -0.09529287368059158, -0.01833655685186386, 0.036165766417980194, -0.0581110343337059, 0.03555843234062195, -0.014756849966943264, -0.061627041548490524, -0.02115797996520996, 0.06364865601062775, -0.028131261467933655, -0.09769806265830994, 0.014582336880266666, -0.019024888053536415, 0.073374904692173, -0.06991083174943924, -0.04957769066095352, 0.009042083285748959, 0.05154985934495926, 0.05213308334350586, 0.03249325603246689, -0.09998097270727158, -0.03631484508514404, 0.05757911875844002, -0.01579604484140873, -0.05695716664195061, -0.04959278553724289, 0.08390813320875168, 0.05396878719329834, 0.03752792626619339, -0.0867229476571083, -0.042777810245752335, -0.02602430060505867], [-0.0938182920217514, 0.10333232581615448, 0.21223123371601105, 0.08189348131418228, -0.13064078986644745, 0.04668355733156204, 0.09421659260988235, 0.11112834513187408, 0.0067307837307453156, -0.08153069764375687, -0.07622099667787552, 0.03802894428372383, 0.05277949944138527, -0.1473282277584076, -0.11971944570541382, 0.13660791516304016, 0.07303908467292786, 0.07979040592908859, -0.07557432353496552, 0.035833220928907394, -0.07711430639028549, -0.036780864000320435, 0.06427650153636932, -0.020578870549798012, 0.022487299516797066, -0.10314507782459259, 0.006004909053444862, 0.04570247232913971, 0.04961833357810974, -0.16766345500946045, -0.10936339199542999, -0.03940450772643089, 0.053590819239616394, 0.1871872991323471, -0.07230941951274872, 0.09038792550563812, -0.011657368391752243, -0.05091409757733345, -0.05542421713471413, 0.02168036252260208, -0.014618718065321445, -0.008415540680289268, 0.12196507304906845, 0.01644008792936802, -0.016452139243483543, -0.05516037344932556, -0.20118531584739685, 0.15721197426319122, 0.04759819060564041, 0.03212883695960045, 0.02558482065796852, 0.018341220915317535, -0.05124882236123085, 0.04947853088378906, 0.17174477875232697, -0.014102058485150337, -0.11993639916181564, -0.11044985800981522, 0.14897535741329193, 0.011329840868711472, -0.06863346695899963, 0.06890320777893066, 0.09987885504961014, 0.07776374369859695], [0.00169107795227319, 0.01606815867125988, 0.09126933664083481, -0.09295249730348587, -0.037644416093826294, 0.06590253859758377, 0.07090924680233002, 0.003747026901692152, 0.0002714096335694194, -0.004473360255360603, -0.01704436168074608, 0.013553791679441929, -0.021900301799178123, -0.04766227677464485, -0.019311221316456795, 0.0240015909075737, 0.07212648540735245, -0.01830144040286541, 0.055601753294467926, -0.025889769196510315, -0.0841187983751297, 0.020082291215658188, -0.022630535066127777, 0.024428296834230423, -0.06504645198583603, -0.04212217405438423, -0.06998836249113083, -0.0748656764626503, -0.002582024782896042, -0.005332718603312969, -0.08397726714611053, 0.03961830213665962, -0.07071149349212646, 0.004587168805301189, 0.025810690596699715, 0.08465353399515152, 0.09816623479127884, 0.012873250059783459, 0.07409181445837021, -0.025230707600712776, -0.07279206067323685, -0.03169702738523483, 0.0936419740319252, 0.06285259872674942, -0.10343270748853683, 0.05365586653351784, 0.041207455098629, -0.03802713379263878, -0.04143219441175461, -0.027931014075875282, 0.07416734099388123, 0.0993383601307869, -0.10593096911907196, -0.0556507371366024, -0.05976336821913719, 0.07742801308631897, 0.03704196214675903, 0.07538122683763504, 0.08199793100357056, 0.004054250195622444, -0.0486883707344532, 0.009584329091012478, -0.09870541095733643, -0.03639206290245056], [0.09109524637460709, 0.005020052660256624, 0.059251803904771805, -0.024279817938804626, -0.08271649479866028, 0.02782711759209633, -0.047533657401800156, -0.10694395005702972, -0.020230261608958244, 0.06394247710704803, -0.10656513273715973, -0.02044099196791649, 0.07516132295131683, 0.030407702550292015, -0.052266642451286316, 0.12487712502479553, 0.018213167786598206, -0.04471816495060921, 0.04651271924376488, -0.07567811757326126, 0.044761013239622116, 0.036877840757369995, -0.005916426423937082, 0.04371856153011322, -0.06891072541475296, 0.0010054183658212423, -0.05241715908050537, 0.11894109845161438, 0.07016891986131668, 0.014399658888578415, -0.0035875579342246056, 0.09904441982507706, 0.06147128716111183, -0.02388179488480091, -0.046452656388282776, 0.09433682262897491, -0.040024783462285995, 0.053410567343235016, 0.004139384254813194, -0.07618390023708344, -0.0309599582105875, 0.05790853872895241, 0.11635785549879074, -0.04370834305882454, 0.008694902993738651, -0.007266220171004534, -0.11668812483549118, 0.005158889573067427, 0.06462898850440979, 0.05546599626541138, 0.13156628608703613, -0.022377725690603256, 0.07336075603961945, 0.0746794044971466, 0.08291436731815338, 0.030500497668981552, -0.07181648910045624, -0.07965657114982605, -0.02287384867668152, -0.041909001767635345, -0.030272653326392174, -0.07203064858913422, -0.11400867998600006, 0.016816861927509308], [0.0897572934627533, -0.08912577480077744, -0.0022427805233746767, -0.08170292526483536, -0.007095956709235907, -0.0949978455901146, 0.003444229019805789, -0.05767083540558815, 0.09556490927934647, -0.07546074688434601, 0.07981107383966446, -0.06017589196562767, 0.04768863320350647, 0.01894555427134037, -0.0003645546385087073, -0.10017164051532745, 0.039245933294296265, -0.033089734613895416, -0.08131687343120575, 0.09271291643381119, -0.08085763454437256, 0.07447504252195358, 0.07077915221452713, -0.03505280613899231, -0.05662344768643379, -0.07922817766666412, -0.006478812079876661, -0.129733607172966, -0.04257604479789734, 0.08654042333364487, -0.011565052904188633, -0.06184183433651924, 0.07775408029556274, 0.0954805463552475, 0.010949949733912945, 0.06868702918291092, 0.03299705311655998, 0.08236896991729736, 0.06642647087574005, -0.021867133677005768, -0.027400026097893715, 0.034424539655447006, 0.01728338934481144, -0.013330651447176933, -0.02581954188644886, -0.09750710427761078, 0.10667745769023895, -0.06176059693098068, 0.014794277027249336, -0.13806140422821045, -0.07339256256818771, -0.008553959429264069, 0.037227414548397064, 0.008913597092032433, -0.05804307013750076, 0.0025201805401593447, -0.028455177322030067, 0.021905837580561638, -0.01272830180823803, 0.08558918535709381, 0.03193710744380951, -0.10173852741718292, -0.0008174623362720013, -0.08334318548440933], [-0.04490182548761368, 0.01351713016629219, 0.05478343740105629, -0.03594192862510681, -0.06843522936105728, -0.024194402620196342, -0.040418487042188644, -0.026783084496855736, -0.049353111535310745, 0.05560266971588135, -0.051429908722639084, 0.024688255041837692, 0.09811930358409882, 0.02800796367228031, -0.013203807175159454, 0.017549796029925346, -0.06907077133655548, 0.016521958634257317, 0.05024569854140282, 0.005477939732372761, 0.03951535001397133, 0.07785150408744812, -0.02711893618106842, -0.029409188777208328, 0.016064945608377457, -0.0026779421605169773, -0.04585220664739609, 0.11939409375190735, -0.005650926381349564, -0.006450512912124395, 0.03930581733584404, 0.07632849365472794, -0.017056506127119064, 0.008647363632917404, 0.05794418230652809, -0.01708925887942314, -0.06160855293273926, 0.010906949639320374, 0.03224325552582741, 0.031879983842372894, -0.04267299920320511, -0.07584267854690552, 0.012154100462794304, 0.048751432448625565, -0.004636678844690323, 0.011820543557405472, -0.0293485838919878, 0.06553681194782257, -0.014144416898488998, -0.0598510317504406, 0.013707495294511318, -0.0059274411760270596, 0.08046458661556244, 0.02770700491964817, -0.038841623812913895, 0.012339848093688488, 0.031631648540496826, 0.009032251313328743, 0.05082816258072853, 0.0036035659722983837, -0.05705588310956955, -0.05060003325343132, 0.07714278995990753, 0.02053399197757244], [-0.014834615401923656, -0.0580296516418457, 0.02225182019174099, -0.014035598374903202, -0.16176220774650574, -0.05386229231953621, 0.0063938479870557785, -0.0379466749727726, -0.15252380073070526, 0.07494930922985077, 0.04023458808660507, 0.08325193077325821, -0.01758567988872528, 0.032057106494903564, -0.05570052191615105, -0.0017138047842308879, -0.038727860897779465, 0.08733969926834106, 0.10042724758386612, -0.04020800068974495, 0.039226021617650986, -0.06917514652013779, -0.027738314121961594, -0.011337954550981522, 0.044961001724004745, 0.03038465790450573, 0.04647085815668106, -0.029142875224351883, 0.044560112059116364, -0.10043656826019287, 0.10995171964168549, 0.07129847258329391, 0.054315824061632156, 0.11666355282068253, 0.09387796372175217, 0.11366455256938934, -0.06690891832113266, -0.0551542192697525, 0.07990600913763046, 0.0817159041762352, -0.050049781799316406, 0.03031100146472454, -0.11955679208040237, -0.12419702857732773, 0.05803019180893898, 0.04854106903076172, -0.1048341616988182, 0.07662491500377655, -0.0400974415242672, -0.036086443811655045, 0.07692568749189377, 0.03449379280209541, 0.03154118359088898, -0.02356533892452717, 0.11942996829748154, 0.06068628653883934, -0.05653902143239975, -0.0006417095428332686, -0.015304261818528175, -0.07366025447845459, -0.10618901252746582, -0.0415351577103138, -0.16554707288742065, -0.045047108083963394], [-0.07441573590040207, -0.05525505915284157, -0.006860475521534681, 0.06040245667099953, -0.09481368213891983, 0.05169626325368881, 0.008062276057898998, -0.1397569626569748, 0.014987979084253311, 0.10621092468500137, -0.04497917369008064, 0.009929653257131577, -0.02772417478263378, 0.018861347809433937, -0.06266479939222336, 0.09547756612300873, -0.10871830582618713, 0.018810996785759926, -0.018612531945109367, -0.12781408429145813, 0.07811193913221359, -0.040011726319789886, -0.08778630197048187, -0.05183479189872742, 0.013035530224442482, -0.020853711292147636, 0.06539740413427353, 0.08163844048976898, 0.11354443430900574, -0.027430318295955658, 0.017901843413710594, 0.06752876192331314, -0.024825185537338257, 0.09503144770860672, 0.10054857283830643, -0.09704174101352692, -0.07150674611330032, -0.07597295939922333, -0.012111250311136246, 0.002384727355092764, 0.03985815495252609, -0.056345004588365555, -0.08986073732376099, 0.020284432917833328, 0.001035940833389759, 0.07946523278951645, -0.025082560256123543, 0.08315780013799667, 0.021605446934700012, 0.01635204255580902, 0.09525499492883682, 0.02550089918076992, 0.04022730141878128, -0.11408097296953201, 0.05406268313527107, -0.10936236381530762, -0.07946696877479553, -0.009628262370824814, -0.10289354622364044, 0.012116977944970131, -0.0011336468160152435, 0.05654549598693848, -0.03889310732483864, 0.05755213648080826], [0.03160189464688301, -0.0415705069899559, -0.03891739249229431, 0.020100172609090805, -0.006093037314713001, -0.025213979184627533, -0.007503075059503317, 0.11353709548711777, 0.010375621728599072, -0.08385768532752991, -0.03724994882941246, -0.014922578819096088, -0.07750773429870605, -0.041826896369457245, 0.003501680213958025, -0.07570859789848328, -0.004968266002833843, 0.04892077296972275, -0.01961807906627655, -0.051732491701841354, -0.001335591427050531, -0.004732691217213869, -0.02710093930363655, -0.01692400500178337, 0.013135351240634918, 0.03817017003893852, 0.030659867450594902, -0.002889747731387615, -0.01752532832324505, -0.01526279654353857, -0.035441938787698746, 0.010329948738217354, -0.029143139719963074, -0.03136513754725456, -0.0516602098941803, 0.01636379398405552, -0.044080231338739395, -0.03399829566478729, 0.029190534725785255, 0.054887305945158005, -0.00891480315476656, 0.010661560110747814, -0.05122177302837372, 0.04026881977915764, 0.01612284779548645, -0.028340402990579605, -0.03246881067752838, -0.025779344141483307, -0.019616667181253433, -0.010177562944591045, -0.04001067206263542, 0.04130932688713074, 0.015395539812743664, 0.004178106319159269, 0.07634806632995605, 0.020389726385474205, -0.030650781467556953, -0.012930873781442642, -0.036061543971300125, -0.04455645754933357, -7.065041427267715e-05, 0.03578278422355652, -0.0007594650378450751, -0.006514535751193762], [0.0011865163687616587, 0.004350355826318264, 0.07626207172870636, 0.03277859091758728, -0.0063819726929068565, -0.003938606008887291, 0.07086799293756485, 0.033583275973796844, -0.06628894805908203, 0.11232241988182068, 0.025449426844716072, 0.0718948021531105, -0.06865472346544266, 0.031181147322058678, 0.002418884076178074, 0.0325189083814621, -0.058756884187459946, -0.024756379425525665, -0.07341679185628891, -0.1895165592432022, 0.11034515500068665, -0.04376496002078056, 0.04859093949198723, 0.04685932770371437, -0.027508193626999855, -0.015018926933407784, 0.07280158996582031, -0.028782004490494728, 0.06357568502426147, -0.03841110318899155, 0.1376468688249588, 0.001050698570907116, 0.08740566670894623, -0.044357769191265106, 0.05091884359717369, 0.02007029578089714, 0.05700850859284401, 0.06215609610080719, -0.08460485935211182, -0.06209157407283783, 0.06512461602687836, 0.01061434019356966, 0.03539663925766945, -0.10466592758893967, -0.09406536817550659, 0.03543701395392418, -0.03147629275918007, 0.056986551731824875, 0.00941179133951664, 0.01641775667667389, 0.14627684652805328, 0.04280336946249008, -0.06769488751888275, -0.022730860859155655, -0.013537624850869179, -0.017244672402739525, 0.043048303574323654, 0.003511678660288453, 0.08837846666574478, 0.0589045025408268, 0.04561733826994896, -0.08067645877599716, -0.1449316442012787, 0.03400410711765289], [0.12264630943536758, -0.0319262258708477, -0.023751448839902878, -0.0842713937163353, 0.008206543512642384, 0.005172582808881998, -0.052277833223342896, 0.015185156837105751, -0.07793761789798737, 0.03380326181650162, -0.1161167323589325, 0.03271692246198654, -0.07024393230676651, 0.016408082097768784, -0.06693308055400848, 0.0660407617688179, -0.06382697075605392, 0.02129179611802101, -0.09867101162672043, -0.07882977277040482, -0.016978532075881958, 0.036253735423088074, 0.004628402180969715, -0.04309054836630821, -0.06015348806977272, -0.08208996057510376, 0.027694616466760635, -0.14878138899803162, 0.06022904813289642, -0.01250272337347269, -0.006180403754115105, -0.025763878598809242, 0.11244720220565796, -0.08058460056781769, 0.08101646602153778, 0.010241623967885971, -0.06986081600189209, -0.06961424648761749, 0.0795062780380249, -0.024800075218081474, 0.044481512159109116, -0.030136844143271446, 0.011113443411886692, -0.01673305034637451, -0.015625564381480217, -0.0855843797326088, -0.06737899780273438, 0.05391419306397438, 0.05722074955701828, -0.05383232980966568, -0.012625430710613728, -0.06223846971988678, -0.06905288994312286, 0.027628310024738312, 0.07840628176927567, 0.008913738653063774, 0.018624264746904373, -0.006449580658227205, 0.03985254094004631, -0.02503812499344349, 0.02153487130999565, -0.10285493731498718, -0.16822931170463562, -0.07644054293632507], [-0.08606220036745071, 0.022940045222640038, -0.012288417667150497, 0.02797047048807144, 0.06241893768310547, 0.02116573601961136, -0.04933159425854683, -0.038963235914707184, 0.042566198855638504, 0.0215288233011961, -0.00458289310336113, 0.048262789845466614, -0.06162025406956673, -0.01069575548171997, 0.031309280544519424, 0.01731618121266365, -0.04768460988998413, 0.04946811497211456, -0.029546497389674187, 0.01531226560473442, 0.07832729071378708, -0.03724031150341034, -0.0043219816870987415, 0.007294468581676483, 0.009358195587992668, -0.002283665118739009, 0.030921807512640953, 0.059881504625082016, -0.025309406220912933, -0.013720166869461536, 0.019745800644159317, 0.005886860657483339, -0.10386583209037781, 0.0003062774776481092, 0.04588231444358826, 0.055389855057001114, -0.04323437437415123, -0.005488664377480745, -0.03469721972942352, 0.014224712736904621, -0.03241487964987755, 0.05742274969816208, 0.054090715944767, -0.04675837978720665, 0.0019255097722634673, 0.028948383405804634, 0.057000648230314255, -0.038298655301332474, 0.0036120859440416098, 0.06401505321264267, 0.04183533042669296, -0.0881497859954834, 0.016608109697699547, -0.008681955747306347, -0.027706941589713097, -0.007742688525468111, -0.07878374308347702, 0.02665599249303341, 0.034719739109277725, 0.1122983768582344, -0.04038288816809654, 0.009976708330214024, 0.011167189106345177, 0.0372014157474041], [-0.06329140067100525, 0.016918933019042015, -0.07913084328174591, -0.01148790679872036, 0.006053742486983538, 0.028589287772774696, -0.010604995302855968, -0.011889376677572727, -0.006602383218705654, -0.059370674192905426, 0.0097395284101367, 0.020948687568306923, -0.054288990795612335, -0.012892178259789944, -0.025468919426202774, -0.02832876145839691, 0.08741400390863419, 0.03386305645108223, 0.012692720629274845, -0.0013428068486973643, -0.011845977045595646, -0.07305896282196045, -0.0022843179758638144, -0.045008379966020584, -0.005523475352674723, -0.0801837295293808, -0.02838030643761158, 0.008969671092927456, 0.033451154828071594, -0.04366263747215271, -0.02905908040702343, 0.017523447051644325, -0.09765706956386566, 0.041617900133132935, 0.03328823298215866, 0.08431636542081833, -0.025175666436553, 0.014252872206270695, -0.005458164028823376, -0.05248914659023285, -0.017874842509627342, -0.02039199508726597, 0.04425812512636185, -0.03592846542596817, 0.018955647945404053, 0.04453905671834946, -0.07507016509771347, 0.0241225752979517, -0.00011269884271314368, 0.09184333682060242, -0.013063633814454079, -0.10543812066316605, -0.10139590501785278, -0.07198705524206161, -0.015316400676965714, -0.020758671686053276, -0.07864411175251007, -0.06575201451778412, -0.025095529854297638, 0.059551902115345, -0.06905773282051086, 0.0046258168295025826, -0.0451761856675148, -0.030290504917502403], [-0.053692854940891266, 0.07748276740312576, -0.06723998486995697, -0.002949716290459037, -0.12826430797576904, -0.0010074978927150369, 0.024588532745838165, 0.0006882718880660832, -0.05086885392665863, -0.005095727741718292, -0.06830789893865585, -0.04625196009874344, -0.0020071007311344147, -0.03644658625125885, -0.09487348794937134, 0.03745587170124054, -0.00861999299377203, 0.018885372206568718, -0.04211024194955826, -0.09367566555738449, 0.05064733326435089, -0.0032796405721455812, -0.0630706250667572, 0.00655286805704236, -0.026308860629796982, 0.02178070694208145, 0.0408012680709362, 0.016381653025746346, -0.0897073820233345, 0.0027534407563507557, 0.05342387035489082, -0.036843135952949524, 0.02428009733557701, -0.014899316243827343, 0.02504321001470089, 0.06045770272612572, -0.027742723003029823, 0.10461889207363129, -0.00618515070527792, -0.041208915412425995, -0.014443972148001194, -0.04301767796278, -0.06410937756299973, -0.009266411885619164, 0.011222593486309052, 0.002794336061924696, -0.0032856257166713476, -0.0230628103017807, -0.03028394840657711, -0.09040823578834534, 0.04683971777558327, 0.061080023646354675, -0.1458214670419693, 0.043507762253284454, 0.05993932485580444, -0.05173970013856888, -0.026364034041762352, -0.06020467355847359, -0.030919015407562256, -0.04452278092503548, 0.05451388657093048, -0.029034212231636047, -0.1434498131275177, 0.019851822406053543], [-0.09199590981006622, -0.08082586526870728, 0.006567361298948526, 0.05740056559443474, -0.03876795247197151, 0.08843273669481277, -0.05850828438997269, 0.13037119805812836, 0.006568314507603645, 0.06792128831148148, 0.026080626994371414, -0.0392751470208168, 0.07742151618003845, -0.09320162981748581, 0.028592262417078018, -0.11075875908136368, 0.07825645804405212, -0.1128736212849617, 0.07754671573638916, 0.11291514337062836, 0.0024352623149752617, 0.03059009462594986, 0.08664888888597488, -0.11272682249546051, 0.04711437597870827, 0.037155233323574066, -0.07630535960197449, -0.09547391533851624, -0.1702789068222046, 0.16702376306056976, -0.10902813822031021, 0.001426264294423163, 0.07935205101966858, 0.006019200664013624, -0.1544279158115387, 0.03620104119181633, 0.013869717717170715, -0.0745352953672409, 0.08534590154886246, -0.09956209361553192, 0.04894272983074188, -0.07434392720460892, -0.03554283082485199, 0.10885205119848251, 0.015437554568052292, -0.02787528559565544, -0.01338257733732462, -0.10127966105937958, 0.09272319078445435, 0.06739188730716705, -0.13367155194282532, -0.0808909684419632, 0.1139313131570816, -0.06335412710905075, -0.056901704519987106, -0.05591201409697533, -0.038159068673849106, -0.042612072080373764, -0.11120762676000595, -0.07874418795108795, 0.09767892956733704, 0.003768456634134054, 0.05384308472275734, -0.01750253513455391], [-0.08381643891334534, -0.0021737467031925917, -0.08963560312986374, -0.04102514311671257, 0.049984779208898544, 0.045778367668390274, 0.038153503090143204, 0.0998947024345398, -0.008017408661544323, -0.017019720748066902, 0.015351038426160812, 0.011562969535589218, -0.012637924402952194, -0.0051841288805007935, 0.004478422459214926, -0.008771374821662903, -0.08364909142255783, -0.05365908890962601, -0.01902099885046482, 0.0868648961186409, 0.03141561150550842, -0.010737539269030094, 0.0052608102560043335, -0.008518725633621216, 0.003844144754111767, 0.034396540373563766, -0.008098265156149864, 0.10410866141319275, -0.04583478718996048, -0.002998166251927614, -0.05814181640744209, -0.01107003539800644, -0.04888280853629112, 0.018135227262973785, -0.032963741570711136, 0.00495229521766305, 0.04943082854151726, 0.013199517503380775, 0.02493901737034321, -0.010902401059865952, -0.013349460437893867, 0.007240430451929569, 0.08051743358373642, 0.02407943829894066, -0.04320969805121422, 0.042443111538887024, 0.07296186685562134, -0.06887416541576385, -0.014229020103812218, -0.0035831923596560955, -0.03463883697986603, 0.021752197295427322, 0.06737726181745529, 0.014766979031264782, -0.006850030738860369, 0.010246987454593182, 0.006238656118512154, 0.031201347708702087, 0.07117708772420883, 0.10929922759532928, 0.0440332256257534, 0.08464040607213974, 0.08826201409101486, -0.06683981418609619], [-0.08509024232625961, 0.04336219280958176, -0.09845239669084549, -0.09426999092102051, -0.018693048506975174, -0.02416500262916088, -0.06899546831846237, -0.11375437676906586, -0.04540909081697464, -0.0356229692697525, -0.05729387700557709, 0.0014005075208842754, -0.030051209032535553, -0.01726404018700123, -0.023985136300325394, 0.018544739112257957, -0.06844177097082138, -0.034210219979286194, 0.0678521990776062, -0.09127575159072876, 0.03776296228170395, -0.06956155598163605, 0.07910168915987015, -0.05602632835507393, 0.0230924841016531, -0.10150869190692902, -0.014709743671119213, -0.03198171406984329, 0.0015528993681073189, 0.004579079803079367, 0.07663337141275406, -0.03675967454910278, -0.06798237562179565, -0.07710745185613632, -0.00565867917612195, -0.0713629201054573, 0.05791984125971794, 0.08948632329702377, -0.046497892588377, 0.03234337270259857, -0.07059500366449356, 0.011930827051401138, 0.09736721962690353, 0.0497438982129097, 0.008826617151498795, -0.00098041829187423, -0.0514613538980484, 0.09215940535068512, 0.0766388550400734, 0.02825883962213993, -0.07454800605773926, 0.006355713587254286, -0.13127721846103668, -0.007232042029500008, 0.059477996081113815, 0.02231070213019848, 0.023013833910226822, 0.02770262211561203, -0.07799970358610153, -0.09808745980262756, 0.08573000133037567, -0.06644199043512344, -0.09943356364965439, -0.04491451755166054], [0.01288670115172863, -0.03404076769948006, -0.05477045103907585, -0.05096210911870003, 0.06133470684289932, -0.0724644884467125, -0.022140955552458763, -0.0405709370970726, -0.015914682298898697, -0.03757879510521889, -0.04345852881669998, -0.04156889393925667, 0.014350049197673798, -0.008120195008814335, -0.005265126004815102, 0.09806262701749802, -0.004633295815438032, 0.02912495844066143, -0.08642970770597458, 0.017532669007778168, -0.12931354343891144, 0.002231493592262268, 0.07957952469587326, 0.07960652559995651, -0.022336216643452644, 0.07909645140171051, 0.09553052484989166, -0.10913638025522232, -0.11558536440134048, 0.05290621519088745, -0.037555526942014694, 0.015343530103564262, 0.11489314585924149, 0.06106128543615341, 0.06578397005796432, 0.08103303611278534, -0.06505101174116135, 0.11659524589776993, 0.0022480774205178022, -0.028402378782629967, 0.011402713134884834, -0.08346360176801682, -0.11425063014030457, 0.08490805327892303, -0.0024655505549162626, -0.11817707121372223, -0.04773453623056412, 0.012652397155761719, -0.043508172035217285, -0.10015344619750977, 0.09485947340726852, 0.07580935209989548, -0.1421402096748352, -0.0702768936753273, 0.11901974678039551, 0.033749960362911224, -0.004779275506734848, -0.04486238583922386, -0.08323229849338531, -0.02567525953054428, 0.011687792837619781, -0.02968495711684227, -0.10903482884168625, -0.08630169928073883], [-0.09465306997299194, -0.07884368300437927, 0.04920200631022453, -0.0418299064040184, -0.09954206645488739, -0.09321574121713638, 0.10248490422964096, 0.00423515634611249, 0.08354873955249786, 0.10964824259281158, -0.09678641706705093, -0.04174670949578285, 0.11968846619129181, -0.019353661686182022, -0.1018008440732956, -0.02488052286207676, 0.004382969345897436, 0.109627366065979, -0.05151049792766571, -0.08492998033761978, 0.026842748746275902, -0.1125926822423935, 0.015382184647023678, 0.009460453875362873, -0.004722743295133114, -0.05917053669691086, 0.017568441107869148, -0.06792724132537842, -0.009546568617224693, -0.038470830768346786, -0.05087463557720184, 0.03126654401421547, -0.11047551035881042, 0.0549473874270916, -0.06397835910320282, -0.08000292629003525, -0.018578382208943367, 0.045186709612607956, 0.03954518958926201, -0.0649392232298851, -0.042922817170619965, -0.10560214519500732, -0.010120473802089691, -0.1264633685350418, -0.01763990707695484, -0.05744506046175957, 0.0657811388373375, -0.06018181890249252, 0.08595623821020126, -0.018045568838715553, 0.07853206247091293, -0.07721832394599915, 0.0646936297416687, -0.07342914491891861, 0.1257466971874237, -0.10182803869247437, 0.05415907874703407, -0.013016478158533573, -0.0737212672829628, 0.09364034235477448, 0.03767158091068268, -0.10622115433216095, 0.05323176831007004, 0.12961766123771667], [-0.052306048572063446, -0.11312893778085709, -0.092404305934906, 0.07163240760564804, 0.02966395579278469, -0.06459984183311462, 0.007261131424456835, 0.07613102346658707, 0.023856494575738907, -0.08931844681501389, 0.11922911554574966, -0.1129106655716896, -0.07071289420127869, 0.05963483452796936, -0.05267411097884178, -0.040173497051000595, -0.05741782486438751, 0.02527295984327793, -0.14006604254245758, -0.015456710010766983, 0.010639023035764694, 0.006217374932020903, -0.060969557613134384, -0.012699886225163937, 0.06517818570137024, 0.03798316791653633, 0.10236242413520813, -0.10068710148334503, -0.09997019916772842, 0.12480943650007248, 0.0688278079032898, -0.022949811071157455, -0.053751468658447266, -0.013475078158080578, -0.046151868999004364, -0.1106080561876297, 0.12751291692256927, 0.07087758928537369, 0.060914162546396255, -0.044602397829294205, -0.025106139481067657, -0.04833373427391052, -0.11472734063863754, 0.07915093004703522, 0.007334406021982431, 0.09303414076566696, -0.020408567041158676, -0.09901133924722672, 0.005983931478112936, -0.12274903059005737, -0.060731545090675354, -0.06109189987182617, 0.12179514765739441, 0.042257968336343765, 0.021781472489237785, 0.03468068689107895, 0.02993660978972912, 0.043912824243307114, -0.045063477009534836, -0.09779759496450424, 0.0960002914071083, -0.06430594623088837, 0.024235889315605164, -0.11057796329259872], [0.10334865748882294, 0.02154669538140297, 0.0659751147031784, 0.046269163489341736, -0.16376928985118866, -0.028598301112651825, 0.05221583694219589, -0.049341194331645966, -0.12320732325315475, -0.08645333349704742, 0.08301388472318649, 0.12404698133468628, 0.1194775179028511, 0.06814125180244446, 0.06038738042116165, -0.07021898031234741, -0.08321934938430786, 0.09275737404823303, -0.01746344193816185, -0.004510561469942331, 0.04446392133831978, -0.17797113955020905, -0.07243581116199493, 0.0023474490735679865, -0.0947781577706337, -0.07287497818470001, -0.015047934837639332, 0.005675203632563353, 0.12029767036437988, 0.04569218307733536, 0.0015683055389672518, 0.022227006033062935, 0.09544000029563904, 0.1072026789188385, 0.08988180011510849, 0.07548531889915466, 0.06085049360990524, 0.09052984416484833, 0.03836440294981003, 0.12085794657468796, -0.09773922711610794, 0.061452195048332214, -0.04799827188253403, -0.04924541711807251, 0.015158042311668396, 0.013587228022515774, -0.0457242950797081, 0.12057831883430481, 0.007727041374891996, -0.025852950289845467, 0.09309118986129761, -0.007211014162749052, -0.04211404547095299, -0.12270376086235046, 0.044854048639535904, 0.03102867305278778, -0.055025652050971985, 0.057287998497486115, 0.06480805575847626, -0.027428608387708664, -0.020901303738355637, -0.007506194524466991, -0.05006618797779083, 0.06578290462493896], [-0.004894332494586706, 0.019878581166267395, 0.019267084077000618, -0.06063702702522278, -0.029370777308940887, 0.04059157520532608, 0.030761437490582466, -0.08622555434703827, -0.028658388182520866, 0.06719924509525299, -0.037292301654815674, 0.03493031486868858, -0.05173177644610405, -0.02511579915881157, 0.058667682111263275, -0.12786491215229034, -0.018769552931189537, -0.07960151135921478, -0.03248729929327965, -0.05500204488635063, 0.0007836914155632257, 0.055430226027965546, -0.05211145430803299, 0.023197021335363388, -0.03156735375523567, -0.059161122888326645, -0.024292290210723877, -0.0642542764544487, 0.0713617280125618, 0.017560062929987907, 0.025724750012159348, -0.043716754764318466, 0.0742555633187294, 0.0713372603058815, -0.041622500866651535, -0.061109721660614014, 0.02210354059934616, 0.019941506907343864, 0.04625457897782326, 0.01564454846084118, 0.05612093582749367, -0.008386712521314621, 0.025553308427333832, 0.0701650008559227, 0.0021628199610859156, -0.0635853111743927, -0.029823949560523033, 0.017548559233546257, 0.04404324293136597, -0.030888039618730545, -0.009762043133378029, 0.05409357696771622, 0.06869679689407349, 0.02457018755376339, -0.06692037731409073, -0.04213600978255272, 0.04282991588115692, 0.10326669365167618, 0.07961590588092804, 0.10729153454303741, 0.031111426651477814, -0.04365834221243858, -0.038343582302331924, 0.01534778531640768], [0.0014947215095162392, -0.01600605435669422, 0.012530962005257607, 0.05181409791111946, -0.07153517752885818, 0.04682282730937004, -0.005686660762876272, 0.12530198693275452, 0.06577747315168381, 0.0201129000633955, 0.06680241227149963, 0.06439618021249771, -0.10867846012115479, -0.03497959300875664, 0.02446693927049637, -0.12158500403165817, 0.032026734203100204, 0.03171068802475929, 0.03279745206236839, 0.09332341700792313, -0.029901595786213875, 0.07987213879823685, -0.03298255428671837, -0.05507493019104004, -0.036728907376527786, 0.018988974392414093, -0.01718812622129917, 0.09790997207164764, -0.07612334936857224, 0.07179056853055954, -0.004316866863518953, -0.0036057159304618835, -0.007309498731046915, 0.0016653931234031916, -0.06943967938423157, 0.012277578935027122, -0.0027738020289689302, -0.030558232218027115, 0.03342004120349884, -0.018058601766824722, 0.018559778109192848, 0.08414491266012192, 0.10281934589147568, 0.013195158913731575, 0.062300555408000946, 0.10250148922204971, 0.025252146646380424, -0.020075488835573196, -0.06966845691204071, 0.0485793836414814, -0.09766849130392075, -0.05578145012259483, 0.054383840411901474, -0.08519057929515839, -0.08238787949085236, -0.002784613287076354, 0.03604072332382202, -0.004913928918540478, 0.03043465130031109, 0.12445826828479767, 0.0022128194104880095, 0.06171136721968651, 0.08715829253196716, 0.06114649400115013], [0.03138197585940361, 0.021585827693343163, 0.08259693533182144, -0.004655657801777124, 0.07622974365949631, 0.04135358706116676, -0.06361345946788788, 0.002364227781072259, 0.04966283217072487, -0.06697088479995728, -0.011283565312623978, -0.022581255063414574, -0.025039896368980408, -0.027044793590903282, 0.01084937248378992, 0.07499714940786362, -0.04716911539435387, 0.0043840850703418255, -0.026798902079463005, 0.05066732317209244, -0.010909981094300747, 0.05515969172120094, 0.06677920371294022, -0.03626486659049988, -0.045237667858600616, -0.08504668623209, 0.0028858406003564596, -0.08806091547012329, -0.03608838468790054, -0.023310618475079536, -0.0816047191619873, -0.023330653086304665, -0.05791975185275078, -0.0750850960612297, 0.06254654377698898, -0.018346955999732018, -0.006071596872061491, -0.020496470853686333, 0.016713542863726616, 0.00565963052213192, 0.06591260433197021, 0.020111672580242157, 0.06613235175609589, -0.052534621208906174, -0.037399325519800186, -0.068502277135849, -0.05568113923072815, -0.05975973606109619, -0.02468203566968441, 0.011986416764557362, 0.0062821535393595695, -0.020145850256085396, -0.030241498723626137, -0.015982750803232193, -0.05175866186618805, -0.0019029740942642093, 0.00315795186907053, 0.02967856079339981, -0.013071614317595959, -0.03930585831403732, -0.001461145468056202, 0.04734935984015465, 0.024099625647068024, -0.005555408541113138], [0.0306426752358675, 0.0625455304980278, -0.023655731230974197, 0.06264021247625351, -0.13766662776470184, -0.05156911537051201, -0.03371788561344147, -0.021129127591848373, 0.01215063314884901, -0.03257468342781067, 0.05737634003162384, -0.013594373129308224, -0.0039450679905712605, 0.037474341690540314, -0.047040052711963654, 0.033380717039108276, -0.06863337010145187, 0.08113795518875122, -0.09633027017116547, -0.13450202345848083, 0.02801182121038437, 0.008569998666644096, -0.02101089619100094, 0.024349844083189964, 0.02464153990149498, 0.008260529488325119, 0.010598471388220787, -0.115208201110363, -0.008707909844815731, -0.10819730162620544, -0.036911386996507645, 0.02070424146950245, 0.08728848397731781, -0.0710793063044548, 0.09344971179962158, 0.027412351220846176, -0.063021719455719, -0.07473398745059967, 0.03913455829024315, -0.052408624440431595, 0.03606751188635826, 0.02608669362962246, -0.06234655901789665, -0.029887907207012177, 0.05129244923591614, -0.05819373577833176, -0.03837466984987259, 0.027998749166727066, 0.014710988849401474, 0.008674905635416508, 0.001104994909837842, -0.10256803780794144, -0.14529910683631897, 0.04664360359311104, 0.06672286987304688, 0.0015853217337280512, -0.06708883494138718, -0.06595034152269363, -0.01328309252858162, -0.030841059982776642, 0.003001441713422537, -0.09176850318908691, -0.0056404429487884045, 0.010064239613711834], [0.056215159595012665, 0.009059615433216095, 0.023607777431607246, -0.04692468419671059, -0.0245804600417614, 0.02823077142238617, -0.022167174145579338, -0.03783779591321945, 0.03304870054125786, -0.00027600114117376506, 0.014819402247667313, 0.023740163072943687, -0.028743399307131767, 0.09053584933280945, -0.025742871686816216, 0.07258683443069458, -0.043292198330163956, -0.06951618194580078, 0.03046881966292858, 0.04113440588116646, 0.013378951698541641, -0.06856738775968552, 0.006971116643399, 0.00836221408098936, -0.03841497004032135, 0.012442367151379585, -0.0995807945728302, -0.004677726421505213, 0.0816030278801918, -0.03902898728847504, -0.031219230964779854, -0.024049581959843636, 0.057586658746004105, 0.07454881072044373, -0.03285636752843857, 0.010181130841374397, 0.06725626438856125, -0.03563535213470459, 9.337529627373442e-05, -0.04863414168357849, 0.0008855447522364557, 0.029862307012081146, -0.011732855811715126, 0.07278244197368622, -0.014181684702634811, 0.028171177953481674, 0.0022533945739269257, -0.0405832976102829, 0.04448377341032028, -0.06564036756753922, -0.009702685289084911, 0.026062171906232834, 0.0488608255982399, -0.04922759532928467, 0.012301761656999588, 0.003690112615004182, 0.039649661630392075, 0.05306475982069969, 0.05309893190860748, -0.06255750358104706, -0.002841026522219181, 0.013935869559645653, 0.02103140950202942, 0.06127186119556427], [-0.09211939573287964, -0.018486985936760902, 0.07677958905696869, -0.06859774887561798, 0.05331715568900108, -0.09537912905216217, -0.04776414856314659, 0.0006387052126228809, 0.08725841343402863, 0.034480493515729904, 0.030299806967377663, -0.1095721423625946, 0.06061943992972374, 0.09329348802566528, 0.05257438123226166, 0.1323418766260147, 0.07387453317642212, -0.030622849240899086, 0.037560563534498215, 0.06140875443816185, -0.05662994459271431, 0.04629242792725563, 0.09135405719280243, -0.11610887944698334, -0.038115594536066055, 0.033608973026275635, 0.018380556255578995, -0.04618571698665619, 0.043780528008937836, 0.029451455920934677, 0.08537627011537552, -0.027264468371868134, 0.01953965239226818, -0.027343211695551872, 0.02639186382293701, 0.01908637210726738, -0.03590639680624008, 0.059519149363040924, -0.10277067124843597, -0.09497867524623871, -0.036033205687999725, -0.025589104741811752, -0.032242145389318466, -0.03706718981266022, 0.07143505662679672, -0.1200622096657753, 0.1463124006986618, -0.08574988692998886, 0.06387357413768768, -0.1482286900281906, -0.009220626205205917, -0.06886045634746552, -0.0999741330742836, -0.02933334745466709, 0.006044930312782526, -0.0605473592877388, 0.024464178830385208, -0.006189095787703991, 0.04793665558099747, -0.0020072178449481726, -0.04272087663412094, -0.039451081305742264, -0.05828065797686577, -0.07470249384641647], [0.07175271958112717, -0.0038965113926678896, -0.06444007158279419, -0.0077179428189992905, 0.04053984954953194, -0.025163810700178146, -0.08306664973497391, 0.05808393657207489, 0.09516795724630356, 0.10026217997074127, -0.050442107021808624, 0.08112325519323349, 0.042496126145124435, 0.04874900355935097, 0.01820072904229164, 0.07543809711933136, 0.008928539231419563, -0.1275327205657959, -0.05174104496836662, -0.042020928114652634, -0.10692089796066284, -0.07206390053033829, -0.004597437102347612, -0.008415655232965946, -0.005264665000140667, -0.006520348601043224, -0.010334549471735954, -0.09507207572460175, 0.010801897384226322, 0.032959386706352234, 0.04285239055752754, 0.08578618615865707, 0.1437738537788391, -0.11096175760030746, 0.08460741490125656, 0.11259686946868896, 0.01059485599398613, -0.07597246766090393, -0.07782815396785736, 0.02497362159192562, 0.08703847974538803, -0.017731204628944397, 0.07183218747377396, 0.023375611752271652, 0.08969119936227798, -0.08135993778705597, 0.11343252658843994, 0.04810240492224693, -0.029727471992373466, 0.00841220561414957, -0.05713644251227379, -0.1006748154759407, -0.08822919428348541, 0.04819845035672188, 0.09339379519224167, 0.09791863709688187, 0.003164744470268488, 0.07923998683691025, -0.1101771742105484, 0.047879308462142944, -0.07726991921663284, 0.0010799146257340908, -0.07227753102779388, -0.10593655705451965], [0.09378931671380997, -0.030266448855400085, -0.020792819559574127, 0.05517227575182915, 0.018111400306224823, -0.058702502399683, 0.10055423527956009, -0.11151836812496185, -0.0726785659790039, 0.09140556305646896, -0.0007751798257231712, -0.05240505188703537, -0.05889856070280075, -0.11055756360292435, 0.0566704235970974, -0.01408261526376009, 0.003061144845560193, 0.027116864919662476, -0.12296073883771896, -0.10782024264335632, 0.10196276009082794, -0.05377181991934776, -0.09980360418558121, -0.05691429600119591, 0.0020285143982619047, -0.02263808436691761, -0.06191875785589218, 0.019357876852154732, 0.0057302433997392654, -0.09539631754159927, 0.02930852584540844, 0.04529872164130211, 0.08515516668558121, -0.05263616889715195, 0.046386878937482834, 0.01904263347387314, -0.0583207942545414, -0.014179922640323639, 0.028252579271793365, -0.025908036157488823, -0.058758411556482315, 0.04641444981098175, 0.10586658865213394, 0.0336746983230114, -0.08673008531332016, 0.04757983610033989, 0.027150675654411316, 0.08218970149755478, -0.04620513319969177, -0.04629508778452873, 0.14682917296886444, 0.08183189481496811, 0.045890968292951584, -0.1001879945397377, 0.13087983429431915, 0.03144148364663124, -0.09371006488800049, 0.02710002101957798, 0.028111962601542473, -0.08252280205488205, -0.07102996855974197, -0.1431211233139038, -0.1440017819404602, 0.05898238345980644], [-0.013102725148200989, 0.03432978317141533, -0.06392601877450943, -0.05478530004620552, 0.020688118413090706, 0.003239617682993412, 0.08247070014476776, 0.07918058335781097, -0.07027682662010193, -0.03311638534069061, 0.017359770834445953, -0.041597992181777954, 0.0027623677160590887, 0.04803631454706192, -0.08488193899393082, -0.0247836634516716, 0.04736647382378578, -0.026763219386339188, 0.02764907293021679, 0.03725674748420715, 0.024180937558412552, 0.021395202726125717, -0.019721267744898796, 0.023458294570446014, 0.006090574897825718, -0.08505459874868393, 0.01439411286264658, 0.04461570829153061, 0.05477292090654373, -0.02637048438191414, 0.028367873281240463, -0.044355910271406174, 0.08880449086427689, -0.030320286750793457, -0.0345611497759819, -0.06734434515237808, 0.00025011145044118166, -0.09098758548498154, -0.0024659668561071157, -0.05660518258810043, -0.05402550846338272, 0.049522027373313904, 0.07232247292995453, -0.019380832090973854, 0.07336995005607605, 0.06015705317258835, -0.06554454565048218, -0.01026223972439766, -0.012552586384117603, -0.08163287490606308, 0.011389187537133694, -0.03983383625745773, 0.08050856739282608, 0.007334044668823481, 0.07200613617897034, 0.027685021981596947, -0.04106913134455681, -0.025233175605535507, -0.057633478194475174, -0.08282680064439774, -0.0044014169834554195, 0.05672970414161682, -0.005664791911840439, 0.04707878455519676], [-0.0638294667005539, -0.0008756531169638038, -0.11016133427619934, 0.08432233333587646, -0.06754246354103088, -0.01006981823593378, 0.031067319214344025, 0.08349113166332245, 0.02124609611928463, 0.059360090643167496, 0.02724592760205269, -0.022999564185738564, 0.04866974428296089, -0.07133855670690536, -0.02870139107108116, 0.10331382602453232, 0.015652170404791832, 0.018367266282439232, -0.05382264778017998, -0.07123647630214691, -0.013115509413182735, 0.06477193534374237, -0.03198312968015671, -0.024586832150816917, 0.016209688037633896, 0.00835316814482212, 0.024737488478422165, 0.07489021122455597, 0.04202822968363762, 0.04928382858633995, 0.07129346579313278, -0.11756943166255951, 0.014179904013872147, -0.06870456039905548, -0.08369660377502441, 0.033545151352882385, -0.03030596859753132, -0.05255153775215149, -0.022247226908802986, -0.015968631953001022, 0.024851733818650246, 0.11606580018997192, 0.0768001601099968, -0.08869452774524689, 0.009525452740490437, 0.003572695655748248, 0.023341624066233635, -0.009724169969558716, 0.04535538703203201, 0.10420823842287064, -0.008375676348805428, -0.029558053240180016, -0.06319373846054077, -0.008709866553544998, 0.005207260604947805, 0.04931047931313515, -0.019772375002503395, -0.00960406381636858, -0.09295909851789474, -0.051764123141765594, -0.07185550779104233, -0.07819307595491409, 0.01205406617373228, 0.075767882168293], [-0.09484930336475372, -0.02312731184065342, 0.03202659264206886, 0.05433974787592888, -0.023079773411154747, -0.030691197142004967, -0.0071695102378726006, -0.05665931478142738, -0.09800267964601517, -0.07492272555828094, -0.06917910277843475, -0.03646478056907654, -0.010886474512517452, 0.08217590302228928, -0.011667079292237759, 0.002939546713605523, 0.07776693254709244, 0.07500879466533661, -0.05214213952422142, 0.08619683980941772, 0.04190867021679878, 0.08906490355730057, -0.0831143781542778, 0.00278783543035388, -0.021871717646718025, -0.004036370664834976, 0.05842655897140503, 0.12815368175506592, 0.07314910739660263, -0.08700358122587204, 0.003896300680935383, -0.06437426805496216, -0.11164439469575882, 0.07792086154222488, 0.038108110427856445, 0.0629376545548439, 0.09471643716096878, -0.027863793075084686, 0.026843704283237457, 0.11777195334434509, 0.0776771828532219, -0.01913289725780487, -0.03402452543377876, -0.011350912973284721, -0.021431056782603264, -0.04439334198832512, -0.09888570010662079, -0.021014027297496796, -0.008681852370500565, -0.03180959075689316, -0.06770754605531693, 0.07493828237056732, -0.025042779743671417, -0.03677549213171005, 0.08269654959440231, 0.001018545008264482, 0.020814280956983566, -0.09416786581277847, -0.03423254191875458, 0.05434040725231171, 0.09084964543581009, 0.10098312795162201, -0.09349676966667175, -0.05919613316655159], [-9.592116111889482e-05, -0.013820922002196312, 0.011741898022592068, -0.0686093121767044, 0.06673712283372879, 0.0223788283765316, -0.05797275900840759, 0.04232478514313698, -0.0034609145950526, 0.05100150406360626, 0.08284985274076462, -0.05537732318043709, 0.08926797658205032, 0.04677138850092888, 0.03441502898931503, -0.07198821753263474, -0.03954242914915085, -0.07308170944452286, -0.0680808275938034, -0.027504602447152138, 0.03905314952135086, -0.049821637570858, -0.08939358592033386, 0.03344743698835373, -0.017877129837870598, 0.006992196198552847, -0.03200238570570946, -0.07631496340036392, 0.0011419934453442693, 0.043099693953990936, -0.007975720800459385, 0.0009760050452314317, 0.08814367651939392, -0.012364959344267845, -0.0589764341711998, 0.0175301693379879, 0.03790316358208656, 0.05279769375920296, 0.042868997901678085, -0.0646834596991539, 0.0702688917517662, -0.052194856107234955, 0.05887690186500549, 0.035099782049655914, -0.022724296897649765, -4.798688314622268e-05, -0.013559211976826191, -0.0032934024930000305, 0.013560622930526733, -0.05425679311156273, -0.006129363551735878, -0.019134629517793655, -0.07422544807195663, -0.004915698431432247, 0.05539161339402199, -0.06743618100881577, -0.007116604596376419, 0.028739135712385178, -0.07891468703746796, 0.07535695284605026, 0.05291054770350456, -0.07344378530979156, -0.082192063331604, -0.0036536252591758966], [0.10096155852079391, -0.09678879380226135, -0.029916465282440186, 0.07762529700994492, 0.06481068581342697, -0.001527164364233613, 0.04892713204026222, -0.0975470244884491, -0.05951279401779175, -0.06845744699239731, 0.01565134897828102, -0.0748804435133934, 0.037058670073747635, -0.09535694122314453, -0.07889819145202637, 0.10538016259670258, -0.037225235253572464, 0.029234090819954872, 0.08727582544088364, 0.1416931301355362, 0.062445446848869324, 0.006807548459619284, 0.0008817187044769526, -0.007752751931548119, -0.0278726015239954, 0.0030016915407031775, -0.0298498272895813, 0.051303137093782425, -0.11697466671466827, 0.10029716044664383, -0.08285043388605118, -0.028503796085715294, 0.04878006875514984, -0.08015906810760498, 0.07535605132579803, 0.0960446149110794, 0.01739814318716526, 0.10274270176887512, 0.0011940381955355406, -0.009187963791191578, -0.10446900129318237, -0.006201635114848614, -0.012072422541677952, 0.11258069425821304, 0.02008660137653351, -0.02873876504600048, -0.07674509286880493, -0.08068233728408813, 0.10409925878047943, -0.05854005366563797, -0.06064727157354355, -0.05806674808263779, -0.09240799397230148, -0.0237212423235178, -0.06562664359807968, -0.024716148152947426, 0.0244757067412138, 0.006990971975028515, 0.0002908458118326962, -0.004636330064386129, 0.05120852589607239, -0.04524817317724228, 0.07082544267177582, -0.0003115505969617516], [-0.07346780598163605, 0.006915505509823561, 0.10730800777673721, 0.09419054538011551, 0.037706419825553894, -0.03470509871840477, -0.005224141292273998, -0.03370989114046097, 0.03965752199292183, -0.057356107980012894, -0.09915577620267868, -0.07221122086048126, 0.05965239927172661, 0.12078803032636642, 0.10496612638235092, -0.05452996492385864, 0.03567614406347275, 0.04542900621891022, -0.0049317204393446445, 0.022813882678747177, -0.1262558400630951, 0.06567271053791046, -0.015498741529881954, -0.04961298778653145, 0.005099787376821041, 0.04494764655828476, 0.10752549767494202, -0.020443929359316826, 0.04760510101914406, -0.029220307245850563, -0.11291539669036865, -0.08751927316188812, -0.0538531094789505, -0.08803475648164749, -0.1333806812763214, -0.14330501854419708, 0.12136784940958023, 0.02233785204589367, 0.020370274782180786, 0.053283024579286575, 0.06663932651281357, 0.09550527483224869, -0.0979241207242012, 0.09155064076185226, -0.020855771377682686, 0.03174600377678871, 0.14841732382774353, -0.02233854867517948, -0.00403660349547863, 0.0745488777756691, -0.080386683344841, 0.007710365112870932, 0.06730300188064575, 0.024866724386811256, -0.1361130326986313, 0.047513581812381744, 0.1311124712228775, 0.05627232789993286, -0.13218413293361664, -0.03714268282055855, -0.018054071813821793, 0.11002222448587418, -0.019237007945775986, -0.13240031898021698], [-0.05633898451924324, 0.0906127467751503, 0.08068066835403442, -0.07234738767147064, 0.08708982169628143, 0.04240500181913376, 0.05124116316437721, 0.009155811741948128, -0.06375093758106232, 0.09166674315929413, -0.10877746343612671, 0.12145698070526123, 0.11087065935134888, -0.030198005959391594, -0.09497631341218948, 0.10251038521528244, -0.09723781049251556, -0.028655169531702995, 0.03288448229432106, -0.09528499841690063, 0.01031582709401846, -0.013982112519443035, -0.06594494730234146, 0.047691307961940765, -0.06114824488759041, 0.025828523561358452, 0.03514401242136955, -0.030743924900889397, -0.04569143056869507, -0.10808324813842773, 0.1519363820552826, 0.01618826761841774, -0.03337861970067024, 0.08716993033885956, 0.06902623921632767, 0.0932561606168747, -0.034067004919052124, -0.027333252131938934, 0.024668803438544273, 0.0010449695400893688, 0.04432233050465584, -0.039979271590709686, 0.01844826340675354, -0.08295121043920517, -0.028580786660313606, 0.026725606992840767, -0.05124961957335472, 0.09231867641210556, 0.07672587782144547, -0.0584256611764431, -0.04893888533115387, 0.04357355087995529, 0.029898550361394882, -0.0691499188542366, 0.10187092423439026, 0.01039146352559328, 0.09624030441045761, -0.04372040927410126, 0.03863563761115074, 0.08038253337144852, 0.03945119306445122, -0.05017552897334099, -0.13405007123947144, 0.08856276422739029], [0.051233913749456406, 0.015347371809184551, -0.00927798543125391, -0.025826070457696915, -0.1262996643781662, 0.05784846842288971, 0.06376965343952179, -0.04531845077872276, -0.07050534337759018, 0.07669339329004288, -0.09577372670173645, -0.012334316037595272, 0.003200108651071787, 0.028133578598499298, -0.048913296312093735, -0.00990555714815855, -0.04982038959860802, 0.008214077912271023, 0.0032420982606709003, 0.07002845406532288, 0.022254664450883865, -0.10023941099643707, -0.04301169514656067, 0.03879166021943092, 0.048430435359478, 0.07268071919679642, -0.053730737417936325, -0.04245474562048912, 0.05589791014790535, -0.06863443553447723, 0.09427355229854584, 0.00835700985044241, -0.058012954890728, 0.12132491916418076, -0.025019250810146332, -0.07579132914543152, -0.09491228312253952, -0.12073975056409836, -0.008234265260398388, -0.07197936624288559, -0.10567930340766907, -0.004536645952612162, -0.019114447757601738, -0.015003591775894165, -0.0022615529596805573, -0.07763943821191788, -0.09272768348455429, 0.04785299673676491, -0.02247537299990654, -0.017806071788072586, 0.003855401184409857, 0.054576028138399124, 0.06338689476251602, -0.007524134591221809, -0.01938125491142273, 0.06141291558742523, 0.05005161464214325, -0.06945328414440155, 0.06428071856498718, 0.1299673467874527, -0.06623182445764542, -0.02853870950639248, -0.04118609055876732, 0.024353915825486183], [-0.011996367946267128, 0.011893264949321747, 0.007017417345196009, 0.007466963957995176, 0.05822358280420303, -0.0055411034263670444, -0.033312540501356125, -0.034405022859573364, -0.05079086497426033, -0.0028255931101739407, 0.004471990279853344, 0.014787403866648674, 0.06995434314012527, -0.06713330745697021, 0.011680686846375465, -0.07474078238010406, -0.04213477298617363, -0.0328451432287693, -0.04256420210003853, 0.011198419146239758, 0.009219192899763584, -0.004990872461348772, 0.011758011765778065, -0.0004330928495619446, 0.02185855433344841, 0.044690489768981934, 0.006609864998608828, 0.07115241885185242, 0.07116737216711044, -0.045348361134529114, 0.059437140822410583, 0.04748396575450897, -0.04854584112763405, -0.051847971975803375, 0.03966681286692619, -0.0795578807592392, -0.05216768756508827, -0.01679358072578907, -0.02203117497265339, -0.006304274313151836, -0.061750803142786026, -0.0033689625561237335, 0.04317734017968178, -0.004175248555839062, -0.015670686960220337, -0.008667346090078354, 0.031616296619176865, 0.07016691565513611, -0.0107595045119524, -0.044599927961826324, 0.00945268850773573, 0.004014667589217424, -0.029966192319989204, 0.004761463031172752, -0.04125109687447548, -0.017974747344851494, 0.016327455639839172, 0.011294052936136723, 0.03242361918091774, -0.053756095468997955, -0.00125458266120404, -0.06551490724086761, -0.032265983521938324, -0.01867731846868992], [0.01766423135995865, -0.0608813501894474, 0.011427211575210094, 0.07680778950452805, 0.10920006036758423, 0.026655560359358788, -0.05143008381128311, 0.04946805164217949, 0.020030423998832703, -0.01060754619538784, -0.0580916702747345, -0.028294438496232033, -0.019916437566280365, -0.01655280776321888, 0.09213880449533463, 0.03054284304380417, 0.1098019927740097, -0.12386080622673035, -0.10587286949157715, 0.1073036640882492, -0.03650035336613655, -0.06919547915458679, -0.03146998584270477, 0.054002322256565094, 0.02551857754588127, 0.07354375720024109, 0.04208391532301903, -0.031351249665021896, 0.014928868971765041, 0.0001782570470822975, -0.07849175482988358, 0.040960896760225296, -0.04967040196061134, -0.04763133078813553, -0.014431717805564404, 0.057983770966529846, -0.0903823971748352, 0.058642759919166565, -0.06612224876880646, -0.002931574359536171, 0.08346784114837646, 0.06883750110864639, 0.038583699613809586, 0.0759519562125206, -0.004506932571530342, -0.09346206486225128, -0.016393234953284264, -0.05963527411222458, 0.009795865043997765, 0.013969622552394867, 0.011247299611568451, -0.08156059682369232, -0.1094159409403801, 0.011325154453516006, 0.010192913934588432, 0.00944371148943901, 0.02174951322376728, 0.044144779443740845, 0.03865385800600052, -0.08945459127426147, 0.048505909740924835, -0.01104084961116314, -0.08739566802978516, -0.029459021985530853], [0.002810484729707241, -0.04471411556005478, 0.022997992113232613, 0.08942007273435593, -0.026379000395536423, -0.013663586229085922, 0.07919206470251083, 0.07452048361301422, 0.014002520591020584, -0.048487935215234756, 0.025378353893756866, -0.09890518337488174, -0.07678713649511337, -0.030872944742441177, 0.04624498263001442, 0.10264512896537781, -0.028649311512708664, 0.004652013070881367, -0.02289896085858345, -0.07135676592588425, -0.017392529174685478, 0.03610598295927048, 0.02883991040289402, 0.05540802329778671, 0.016445839777588844, 0.009224466048181057, -0.013020431622862816, -0.029431940987706184, -0.08250220865011215, 0.043139856308698654, 0.0035551979672163725, -0.09255215525627136, 0.02799489162862301, -0.08967921882867813, -0.012097606435418129, -0.05960213765501976, -0.011212524957954884, 0.045923713594675064, -0.014854853972792625, -0.028859253972768784, -0.06537625938653946, 0.0808277577161789, -0.0010595524217933416, -0.04041988402605057, 0.04708776995539665, 0.11239732056856155, -0.059290431439876556, 0.03863116726279259, -0.014364341273903847, -0.04983554407954216, -0.04020468145608902, -0.02192067727446556, -0.03732931241393089, 0.007728373631834984, 0.0247721616178751, 0.02749817818403244, -0.025143152102828026, -0.06196221709251404, 0.0006826908211223781, -0.11946580559015274, 0.0015293755568563938, -0.011059701442718506, -0.09638912975788116, 0.007332189939916134], [0.013073781505227089, 0.0752037912607193, -0.07080145180225372, 0.018909385427832603, -0.02834058180451393, -0.007218499202281237, -0.05326291173696518, 0.034700147807598114, -0.03681398183107376, 0.061837125569581985, -0.040292609483003616, -0.04888954013586044, -0.01159140095114708, -0.030147835612297058, 0.06540965288877487, 0.0798954963684082, -0.036738887429237366, 0.0534512959420681, -0.034690190106630325, 0.01788058876991272, -0.014935974963009357, 0.05364280194044113, -0.040758490562438965, 0.10951951891183853, -0.03484315052628517, 0.06886709481477737, -0.08746417611837387, -0.07996323704719543, 0.02318275161087513, -0.06303274631500244, 0.08261021971702576, -0.0024847278837114573, -0.07444821298122406, 0.002454279223456979, 0.05176904425024986, -0.08415478467941284, 0.016074014827609062, 0.040609732270240784, -0.021176522597670555, 0.06335065513849258, -0.06387710571289062, -0.07568888366222382, -0.023464657366275787, -0.06793319433927536, 0.003470222232863307, 0.06470736861228943, 0.06349725276231766, -0.012825416401028633, -0.017277076840400696, -0.07822121679782867, 0.028575103729963303, 0.002754226792603731, 0.042597174644470215, -0.05916982889175415, -0.01796850748360157, 0.02863066829741001, 0.02921738103032112, -0.05095137283205986, -0.0027661873027682304, -0.009446033276617527, -0.016637200489640236, -0.011410221457481384, 0.07077006995677948, 0.08927051723003387], [-0.027264120057225227, -0.017918117344379425, -0.09365946054458618, -0.032934315502643585, 0.033119697123765945, -0.012448021210730076, -0.049969807267189026, 0.05181138962507248, 0.055998295545578, 0.10137667506933212, 0.0642758384346962, -0.08872649073600769, 0.03248642757534981, -0.10805194079875946, 0.0017348740948364139, 0.07195860147476196, 0.096926748752594, -0.09688545018434525, -0.14649470150470734, -0.0594017319381237, -0.0900203138589859, 0.03859224170446396, 0.05452888831496239, -0.0036844932474195957, 0.02265804633498192, 0.09452297538518906, 0.047826074063777924, 0.029760051518678665, -0.13443449139595032, 0.01925133541226387, -0.023949122056365013, 0.0031874573323875666, -0.003104632953181863, -0.07724930346012115, -0.004061440005898476, 0.08704634755849838, 0.062245626002550125, 0.11504702270030975, 0.02524355612695217, -0.1138870120048523, 0.024373237043619156, -0.05349833518266678, -0.14620500802993774, -0.03941671922802925, -0.010386312380433083, -0.03168853744864464, 0.12034427374601364, 0.02757478691637516, -0.03216428682208061, -0.02736596204340458, 0.05845413729548454, -0.07634440064430237, 0.02656341902911663, 0.06833267956972122, -0.04436364769935608, -0.049747396260499954, 0.048031195998191833, -0.02257678471505642, -0.09538131952285767, -0.15386442840099335, 0.07903526723384857, 0.06448245793581009, 0.015615544281899929, -0.09979869425296783], [-0.021704230457544327, -0.084466852247715, -0.10246554017066956, -0.033818695694208145, 0.11943493038415909, -0.08393140882253647, -0.07411044090986252, 0.040414828807115555, -0.018516022711992264, -0.09428603202104568, 0.007753598038107157, -0.024531278759241104, 0.029943834990262985, -0.007277319207787514, 0.08559709042310715, -0.07859101891517639, 0.007506812456995249, -0.05176130309700966, 0.07997786998748779, 0.06437224894762039, 0.0240146704018116, 0.06822779029607773, 0.03458394110202789, 0.031571052968502045, 0.0444001704454422, 0.101739302277565, 0.025912044569849968, -0.10833494365215302, -0.0005037883529439569, -0.026650702580809593, 0.0634644478559494, 0.04990585893392563, -0.010242289863526821, 0.017919374629855156, -0.09528960287570953, -0.08762767910957336, -0.048786211758852005, 0.005580033175647259, 0.07868862897157669, -0.05041562765836716, 0.06505963206291199, 0.03783819079399109, -0.00518442178145051, 0.04443563148379326, 0.14232642948627472, 0.07040218263864517, -0.038201939314603806, -0.09655028581619263, -0.06542668491601944, -0.047964535653591156, 0.010129059664905071, 0.04619956761598587, 0.041385404765605927, -0.06059187650680542, 0.06705357879400253, 0.09584154933691025, -0.08683916926383972, 0.011939619667828083, 0.015310347080230713, 0.05712875723838806, -0.0635402575135231, 0.10613275319337845, 0.11778726428747177, 0.015776049345731735], [0.0013853138079866767, 0.0627255067229271, 0.024051586166024208, 0.017146216705441475, -0.04001983627676964, 0.054169993847608566, -0.044698793441057205, -0.007977363653481007, 0.04832913726568222, -0.09067270159721375, 0.02964347042143345, -0.061994921416044235, 0.011561963707208633, 0.017532458528876305, -0.045110348612070084, -0.03284015506505966, 0.07185402512550354, 0.040520910173654556, -0.041142478585243225, 0.05762958154082298, -0.016401780769228935, 0.004902332555502653, -0.0025293617509305477, -0.04831744730472565, 0.025644544512033463, 0.019929587841033936, -0.01424943283200264, -0.08593976497650146, 0.05534231290221214, 0.00503016309812665, 0.041868939995765686, 0.03443586826324463, 0.06457053124904633, -0.008192808367311954, 0.04404645413160324, -0.005334682296961546, -0.051637690514326096, 0.023212533444166183, -0.01080250646919012, 0.06393057852983475, -0.0207814984023571, -0.044965002685785294, -0.08164744824171066, -0.0522937998175621, -0.08755835145711899, 0.018830105662345886, 0.04911024123430252, -0.030272355303168297, -0.05250447988510132, 0.01137484610080719, -0.01311615388840437, -0.06765090674161911, 0.07808337360620499, -0.06720058619976044, 0.051332298666238785, 0.04647991433739662, -0.043205175548791885, -0.06986238807439804, -0.03378090634942055, 0.032211653888225555, -0.05359061807394028, -0.04558512195944786, -0.0001565787533763796, -0.03112061135470867], [0.08110988140106201, 0.011853842064738274, -0.03623621165752411, -0.06919451057910919, -0.11783790588378906, 0.03514563664793968, 0.062217384576797485, 0.0403711311519146, -0.053523655980825424, -0.04184186831116676, 0.01295364461839199, 0.057757046073675156, -0.011721691116690636, 0.01450712326914072, 0.00032147017191164196, 0.014121751300990582, 0.05281339958310127, -0.03867700323462486, 0.027050940319895744, 0.0023499871604144573, 0.03933749720454216, -0.09391821920871735, -0.03874441981315613, -0.0035156523808836937, 0.033671651035547256, -0.08082237094640732, -0.005510317627340555, -0.023846033960580826, -0.049503784626722336, -0.07567094266414642, -0.019341925159096718, 0.04338252916932106, 0.0016673911595717072, -0.05072646588087082, -0.04163679480552673, -0.02419464848935604, 0.02433856576681137, -0.01564554125070572, -0.00023742945631965995, 0.07147123664617538, -0.06308912485837936, -0.02333376556634903, 0.06505069136619568, -0.012361596338450909, -0.06672884523868561, -0.010962098836898804, -0.012735818512737751, 0.01848485693335533, 0.057283658534288406, 0.01885920763015747, 0.019431428983807564, -0.03336167335510254, 0.013565967790782452, 0.0608011819422245, -0.04317443445324898, -0.021833274513483047, 0.03625041991472244, 0.06779170781373978, 0.04874871298670769, 0.021188786253333092, -0.04743055999279022, -0.11654964834451675, 0.06438914686441422, -0.020673921331763268], [-0.06230813264846802, 0.10134641081094742, 0.09386219084262848, -0.07760850340127945, -0.05223579332232475, 0.0868576392531395, -0.034648098051548004, 0.043934520334005356, -0.0002671105321496725, 0.007738336455076933, 0.08298997581005096, 0.07648925483226776, -0.06810914725065231, -0.0735500305891037, 0.026281464844942093, -0.038046348839998245, 0.08115991950035095, -0.038188859820365906, 0.03935222327709198, -0.04304082319140434, 0.0988333448767662, -0.0647207573056221, 0.047225989401340485, 0.09466810524463654, -0.016694948077201843, -0.01207053754478693, -0.08070579171180725, -0.003141646506264806, -0.00014431159070227295, 0.030870743095874786, 0.05853492394089699, 0.022577853873372078, -0.022928446531295776, -0.02303692139685154, -0.05256954953074455, 0.10163187235593796, -0.06624262034893036, -0.041870031505823135, -0.07097555696964264, 0.08282824605703354, -0.041509151458740234, 0.08563032746315002, 0.04856934770941734, 0.0019305046880617738, 0.05998210981488228, -0.11055560410022736, 0.0042811003513634205, -0.07850545644760132, -0.033131372183561325, -0.009507404640316963, 0.04078922048211098, 0.07044509798288345, -0.11873418092727661, -0.027787502855062485, 0.1290334165096283, -0.11238271743059158, -0.02735055424273014, 0.05844728648662567, -0.05488557368516922, 0.0621425025165081, 0.09957225620746613, -0.0998324453830719, 0.09451441466808319, -0.010031224228441715], [-0.09365775436162949, -0.118590347468853, 0.06878987699747086, 0.03996094688773155, 0.17754621803760529, 0.010263687931001186, -0.021953316405415535, -0.10192698240280151, 0.10889095067977905, 0.06553008407354355, 0.09969191998243332, 0.06751962751150131, -0.06066899001598358, 0.04050740227103233, 0.05861245095729828, -0.022191403433680534, -0.04177412763237953, -0.11755761504173279, 0.03982742503285408, -0.008601008914411068, 0.04594549164175987, -0.030778029933571815, 0.10631964355707169, -0.0481887087225914, 0.07640904933214188, -0.06209464743733406, -0.022088490426540375, 0.049105774611234665, 0.043253153562545776, 0.08452579379081726, 9.017124102683738e-05, -0.06745850294828415, 0.08907671272754669, -0.09803842008113861, 0.06389737874269485, 0.06750055402517319, 0.12015718966722488, -0.005579405929893255, 0.08028429001569748, -0.13993260264396667, 0.06670621037483215, -0.011338197626173496, -0.038921378552913666, 0.086834616959095, 0.08685959875583649, -0.09826504439115524, 0.09741256386041641, 0.024212906137108803, -0.08429813385009766, -0.06161586940288544, -0.13264206051826477, 0.03218213468790054, -0.0711180567741394, 0.06357395648956299, -0.10683845728635788, 0.08665703237056732, 0.08574420213699341, 0.09968447685241699, -0.11329246312379837, -0.01385013572871685, 0.1101498082280159, 0.07916781306266785, 0.1503339558839798, 0.029187656939029694], [0.011897999793291092, 0.06763608008623123, -0.09515166282653809, 0.0710003525018692, -0.08526765555143356, -0.08783839643001556, -0.08745790272951126, -0.08374336361885071, -0.06413953006267548, 0.06796629726886749, -0.020418766885995865, 0.018484756350517273, -0.10677541047334671, 0.10886697471141815, 0.0956391990184784, 0.04390496015548706, -0.07189249992370605, -0.0711744949221611, 0.01672828197479248, -0.029737912118434906, 0.08400572091341019, -0.12808671593666077, 0.06371401250362396, 0.08069813996553421, 0.07055425643920898, -0.021170904859900475, -0.10907744616270065, 0.06660351902246475, 0.10266920924186707, -0.04350045695900917, 0.038862962275743484, -0.021601874381303787, -0.01577284187078476, 0.06752362102270126, -0.07427322119474411, -0.05950541794300079, 0.018995633348822594, -0.08054959028959274, -0.09647946059703827, -0.01692604459822178, -0.06315561383962631, -0.08682744204998016, -0.04029904305934906, -0.07363930344581604, 0.04637273773550987, -0.03356511518359184, 0.08881814777851105, 0.08698039501905441, -0.09305817633867264, 0.007502416148781776, 0.12966065108776093, -0.02843860164284706, -0.10229923576116562, -0.025468233972787857, 0.05609449744224548, -0.006830912549048662, 0.06211785972118378, -0.047365687787532806, -0.017763249576091766, -0.013927459716796875, 0.09963659942150116, -0.004275307524949312, -0.10669927299022675, 0.06639595329761505], [0.052690036594867706, -0.11815682798624039, -0.055925991386175156, 0.0384540930390358, 0.07111833989620209, -0.038747068494558334, -0.10002332180738449, -0.057715028524398804, -0.07104939967393875, -0.010032297112047672, 0.11391542851924896, 0.02687072567641735, -0.06038840860128403, -0.0824483335018158, 0.10935542732477188, 0.05416722595691681, 0.012432542629539967, 0.019478781148791313, -0.06601466983556747, 0.0340966135263443, 0.059831783175468445, 0.047750718891620636, 0.06404513120651245, -0.03280123695731163, 0.06536079943180084, 0.10950002074241638, 0.0963861495256424, -0.0520828552544117, 0.0043110111728310585, -0.07630659639835358, -0.03842742368578911, 0.021481316536664963, 0.028948239982128143, 0.04685569182038307, -0.00748733663931489, -0.0685669481754303, -0.014119631610810757, -0.05419721081852913, 0.08786378055810928, 0.02018097974359989, 0.04409763962030411, 0.10045501589775085, -0.07163585722446442, 0.09415007382631302, 0.0721970796585083, 0.02492036484181881, -0.07472895830869675, -0.04828281328082085, -0.07061132788658142, -0.038345757871866226, -0.0915888324379921, 0.07034095376729965, 0.04466834291815758, 0.10768958926200867, -0.09802225232124329, 0.11542941629886627, 0.0685524269938469, -0.06687720865011215, -0.03522296994924545, -0.12026532739400864, -0.061569694429636, 0.12006641179323196, 0.04449990391731262, -0.099747434258461], [0.07845462113618851, 0.042281825095415115, 0.012338463217020035, -0.07340983301401138, 0.10593908280134201, -0.00575272087007761, -0.10198967903852463, 0.12918086349964142, -0.04578062891960144, 0.04958633705973625, -0.03333258628845215, 0.013836040161550045, -0.03601416200399399, -0.0666252076625824, -0.010929870419204235, -0.04480481147766113, 0.04593838378787041, 0.04205816611647606, -0.04745732620358467, -0.05251091346144676, 0.08550296723842621, 0.06319034099578857, -0.036716148257255554, 0.009077709168195724, 0.0074544502422213554, 0.06183255463838577, 0.05817406252026558, 0.020802153274416924, -0.13502639532089233, -0.04205809906125069, -0.006501089781522751, -0.09626146405935287, 0.009159510023891926, -0.02960747852921486, -0.07051432132720947, -0.05781341344118118, 0.039304353296756744, 0.07963638007640839, -0.014852352440357208, -0.06353900581598282, 0.045811623334884644, -0.039483580738306046, 0.08705735951662064, -0.06326934695243835, 0.03829612210392952, -0.040242280811071396, 0.06574833393096924, 0.04104900732636452, -0.09553328901529312, -0.10541190952062607, -0.09060028195381165, -0.06729412078857422, 0.06487300246953964, 0.006757021881639957, -0.040372755378484726, -0.0617552250623703, -0.050528787076473236, 0.07704857736825943, 0.03894329071044922, 0.09827118366956711, 0.06647774577140808, 0.023929782211780548, -0.012764504179358482, -0.09930315613746643], [-0.038366980850696564, -0.0293714702129364, -0.10507222265005112, -0.03509907424449921, 0.10043733566999435, -0.06264917552471161, 0.06471391022205353, -0.007698612287640572, -0.03235336393117905, -0.017509635537862778, 0.10166657716035843, 0.07455717772245407, -0.03244272992014885, 0.06791214644908905, -0.0513722188770771, -0.07196425646543503, 0.01243751309812069, -0.05753246322274208, 0.0180725809186697, 0.09758592396974564, -0.06573852151632309, -0.0008740389603190124, -0.017743360251188278, -0.04820381477475166, -0.05350314825773239, -0.019367679953575134, -0.05359021574258804, -0.07518250495195389, 0.05869186297059059, -0.042843762785196304, -0.02253892458975315, 0.08600785583257675, 0.03476281836628914, 0.08945513516664505, -0.03759418800473213, -0.03991597890853882, 0.057649917900562286, -0.025142239406704903, -0.01695859804749489, 0.0195554681122303, -0.06353569030761719, 0.01049712672829628, 0.02963920868933201, 0.016655394807457924, 0.026723382994532585, 0.08304382115602493, -0.04214164987206459, -0.04651549458503723, -0.02274361252784729, -0.07085692882537842, 0.020876696333289146, -0.006328500807285309, 0.12062041461467743, 0.02619601972401142, -0.0925154909491539, 0.011152236722409725, -0.04981759935617447, 0.017986947670578957, 0.01824694499373436, 0.04344552382826805, 0.047213468700647354, 0.02530355378985405, 0.06898041814565659, 0.03677596524357796], [-0.09463328123092651, 0.14509102702140808, -0.08967272192239761, 0.08240808546543121, -0.06607643514871597, -0.01336947362869978, 0.06064087897539139, -0.00023615792451892048, -0.14549237489700317, 0.02455315552651882, -0.02985651232302189, -0.03554198518395424, -0.03452875837683678, -0.01450499240309, 0.023722607642412186, 0.09199479222297668, -0.0855170413851738, -0.02273496799170971, -0.04198061674833298, -0.19722455739974976, -0.0014956204686313868, -0.05417611822485924, -0.04487588256597519, 0.055965933948755264, -0.0008733883732929826, 0.06712936609983444, -0.0782720297574997, -0.03606434911489487, 0.12023205310106277, 0.0543256551027298, 0.028995893895626068, 0.04792145639657974, -0.025075072422623634, -0.08050665259361267, 0.016352208331227303, -0.0832894891500473, -0.13162589073181152, -0.12448713928461075, 0.058336395770311356, 0.052536170929670334, -0.044489119201898575, -0.019166139885783195, 0.007092707324773073, 0.04446209594607353, 0.06606072187423706, 0.040468763560056686, -0.040080901235342026, -0.04687574878334999, 0.006604901980608702, 0.06977973133325577, -0.04214589670300484, -0.05837467312812805, -0.11965353786945343, -0.048755768686532974, 0.041220422834157944, 0.028768185526132584, 0.031475115567445755, -0.11265020817518234, -0.09861594438552856, -0.10998993366956711, -0.036567170172929764, -0.00794999673962593, -0.1066417470574379, 0.07897651195526123], [-0.08000057190656662, 0.06345418095588684, 0.08173436671495438, 0.020286304876208305, -0.11214829236268997, 0.00243700435385108, -0.020083699375391006, 0.04062530770897865, -0.0005661332979798317, 0.015468657948076725, -0.06776531040668488, -0.04261009767651558, 0.009135124273598194, -0.040319960564374924, 0.03960810974240303, -0.06205737590789795, -0.05516354739665985, -0.028209809213876724, -0.04520831257104874, -0.13030798733234406, 0.0370296873152256, -0.04794347286224365, 0.041648123413324356, -0.05178133770823479, 0.016419291496276855, -0.09454343467950821, -0.0073804608546197414, 0.026608534157276154, 0.06473004817962646, 0.002386470092460513, 0.1150667667388916, -0.028152773156762123, -0.10354269295930862, -0.021940242499113083, -0.0013517983024939895, 0.1019449383020401, -0.05421792343258858, -0.017685474827885628, 0.04048064351081848, -0.019922520965337753, 0.037168655544519424, -0.009995587170124054, -0.09272743761539459, 0.05241445079445839, 0.04624268412590027, -0.008986959233880043, 0.015720702707767487, -0.07840082049369812, 0.026664074510335922, 0.058286864310503006, 0.008459039032459259, 0.003384633921086788, -0.07149431854486465, -0.016161950305104256, -0.07009167224168777, -0.04232016205787659, 0.04316563531756401, 0.05500023066997528, -0.04194340854883194, 0.018720902502536774, -0.061806757003068924, -0.0152999022975564, 0.058562006801366806, 0.05930020287632942], [-0.08303455263376236, -0.060316815972328186, -0.044004954397678375, 0.04011964052915573, -0.00017133477376773953, 0.00407053530216217, 0.056278493255376816, -0.0632719025015831, -0.0576300211250782, -0.03732377663254738, -0.06747650355100632, -0.06733039021492004, 0.054077960550785065, 0.0301524568349123, -0.055877044796943665, -0.05490880459547043, 0.01682097837328911, -0.008479672484099865, 0.06117977201938629, -0.012286233715713024, 0.013132341206073761, 0.011892152018845081, 0.018623249605298042, 0.09206154942512512, 0.007165899965912104, 0.07365761697292328, 0.007535546086728573, 0.029414979740977287, -0.04888572171330452, -0.07229088246822357, 0.07642259448766708, 0.01183234341442585, -0.055328480899333954, 0.020194023847579956, 0.03774441033601761, -0.0038334568962454796, -0.042080339044332504, 0.04673732444643974, 0.044710613787174225, -0.016901889815926552, -0.01376831904053688, -0.0033094119280576706, -0.07476324588060379, 0.031367361545562744, 0.02656240016222, 0.05969855561852455, -0.043823886662721634, -0.03166186437010765, -0.03497635945677757, -0.023573625832796097, 0.021227261051535606, 0.0382259301841259, 0.06726832687854767, -0.037698980420827866, -0.08468827605247498, 0.00933766458183527, -0.05830813944339752, -0.07228244841098785, -0.049095746129751205, -0.06691771000623703, -0.014178291894495487, -0.09307684749364853, -0.07299749553203583, 0.053045306354761124], [-0.07880756258964539, -0.05809955671429634, -0.10297325998544693, 0.01848580688238144, 0.04510908201336861, 0.00182344822678715, 0.0353269949555397, -0.008906334638595581, 0.052992116659879684, 0.040357060730457306, -0.03791334107518196, 0.05307219922542572, -0.00496695889160037, -0.028205737471580505, 0.07182052731513977, -0.08776078373193741, 0.02419837936758995, -0.07742542028427124, 0.02176637575030327, 0.10230427980422974, -0.03847181797027588, 0.0037288162857294083, 0.007794605102390051, -0.0705655887722969, 0.0465887188911438, 0.058625467121601105, 0.038461849093437195, 0.0823642686009407, -0.04683147743344307, 0.014885918237268925, -0.06609343737363815, -0.009282754734158516, -0.06865458935499191, 0.016932567581534386, -0.03736818954348564, 0.06379978358745575, -0.032100774347782135, -0.03511837497353554, -0.007754046469926834, -0.013647823594510555, -0.010571940802037716, -0.029678044840693474, -0.060772854834795, -0.07512765377759933, 0.027740955352783203, 0.08508825302124023, 0.07277192175388336, -0.08056004345417023, 0.02479611523449421, -0.029776467010378838, -0.05001632124185562, -0.008930769748985767, -0.09805980324745178, 0.056228119879961014, -0.06695965677499771, -0.01908670924603939, 0.04726162925362587, -0.010465489700436592, -0.06049114093184471, -0.059728365391492844, 0.047801122069358826, 0.049093231558799744, -0.02796606719493866, 0.021643828600645065], [0.08241754025220871, 0.00903870165348053, 0.08962827920913696, 0.0777326449751854, 0.07119502872228622, 0.02265665866434574, -0.033115290105342865, -0.11369673907756805, 0.04873126745223999, 0.041101690381765366, -0.10867130756378174, 0.024422861635684967, 0.07537571340799332, -0.05859779193997383, 0.02004830166697502, 0.06465773284435272, 0.0362698994576931, -0.005414470564574003, 0.040673594921827316, -0.04799981415271759, 0.07817443460226059, -0.08918599784374237, 0.026272688060998917, -0.0032596075907349586, -0.052390918135643005, -0.036312974989414215, -0.019372332841157913, 0.06072617322206497, 0.06867125630378723, -0.02688167244195938, 0.10241684317588806, -0.06736502796411514, -0.12013263255357742, 0.10238076746463776, 0.08321203291416168, 0.07198601216077805, 0.019540729001164436, 0.004476431291550398, -0.06056875362992287, 0.02583984099328518, 0.011878130957484245, 0.025086304172873497, 0.033622633665800095, 0.04971186816692352, -0.009371872060000896, 0.027880020439624786, 0.04640163481235504, 0.0728742927312851, 0.01669677346944809, -0.02418198436498642, 0.04891021177172661, 0.037657205015420914, -0.07529868185520172, 0.03585228696465492, 0.04919501766562462, -0.07239842414855957, 0.0137527110055089, 0.05069193243980408, -0.052637454122304916, 0.10314130783081055, 0.06556358933448792, -0.09840241074562073, 0.027747446671128273, -0.039831362664699554], [-0.07200028747320175, -0.026905031874775887, -0.06218433752655983, -0.032235946506261826, -0.0675569549202919, -0.006328875664621592, -0.0044047958217561245, 0.06795746088027954, -0.0190101470798254, -0.036442916840314865, -0.12221035361289978, -0.03932321444153786, 0.00041328350198455155, 0.039573341608047485, -0.03697077929973602, -0.050581950694322586, -0.004621321801096201, 0.1146407201886177, -0.014220018871128559, 0.016422929242253304, 0.006307111121714115, 0.017791563645005226, 0.014207282103598118, -0.03256168216466904, 0.03624909371137619, -0.014561479911208153, 0.003266184823587537, 0.050097111612558365, 0.019610943272709846, 0.07754245400428772, 0.06775618344545364, 0.020121073350310326, 0.07465653866529465, -0.06915178894996643, 0.047624021768569946, -0.08893241733312607, -0.04253667965531349, -0.017157213762402534, 0.05079759284853935, 0.05087973177433014, 0.01075152400881052, 0.008745734579861164, 0.07702222466468811, -0.044227126985788345, 0.07370814681053162, -0.03586597368121147, -0.11762383580207825, 0.011646893806755543, 0.020045148208737373, 0.047681860625743866, 0.0121809933334589, -0.031156344339251518, 0.0934930220246315, -0.03917854279279709, 0.046932343393564224, 0.01955990493297577, -0.05740782991051674, -0.0527721643447876, 0.00803091749548912, -0.035198260098695755, -0.018576154485344887, -0.015229672193527222, 0.04291611164808273, -0.044620126485824585], [-0.05890743061900139, -0.030664801597595215, -0.07314825803041458, 0.03414664417505264, 0.001480995211750269, -0.04891397804021835, -0.035704851150512695, -0.03647322952747345, -0.007046794518828392, 0.031671490520238876, 0.02697381004691124, 0.009203718043863773, -0.047251056879758835, 0.05326102674007416, 0.01783834584057331, 0.020196925848722458, -0.04365773871541023, 0.04833729937672615, 0.022061210125684738, 0.03793662413954735, 0.02721087448298931, 0.03896283358335495, -0.01931602880358696, -0.04170098900794983, 0.031247586011886597, 0.04589812457561493, 0.0006756024085916579, 0.03614633157849312, 0.00224677799269557, -0.04773732274770737, -0.06810250133275986, 0.06388988345861435, -0.006516440771520138, 0.009740582667291164, -0.023025790229439735, -0.02980225905776024, -0.011897814460098743, -0.05594959110021591, 0.04233286902308464, 0.0008645617053844035, -0.04148399084806442, -0.020355749875307083, 0.04811154678463936, -0.013497082516551018, 0.03848952054977417, 0.04796648398041725, -0.023862291127443314, -0.004869947209954262, -0.0159512497484684, -0.027706889435648918, 0.04776154085993767, -0.02001776173710823, -0.0965871810913086, -4.8024754505604506e-05, 0.019552044570446014, 0.036848798394203186, 0.006975074764341116, -0.030639486387372017, -0.04578198865056038, 0.0031523851212114096, 0.03233558312058449, -0.036936260759830475, 0.009791572578251362, -0.025900257751345634], [-0.007444440387189388, 0.11921356618404388, -0.10110846906900406, 0.06609421968460083, -0.1052115336060524, -0.05102387070655823, 0.026919877156615257, -0.07831156998872757, -0.0754719227552414, 0.07123219966888428, -0.021219508722424507, 0.04443325474858284, 0.07150546461343765, -0.05048646777868271, 0.05086759105324745, -0.024851582944393158, -0.05163908749818802, 0.0844329297542572, -0.03647221624851227, -0.17490825057029724, -0.06326797604560852, -0.1622229963541031, -0.048874855041503906, -0.049633100628852844, -0.039491206407547, 0.07413109391927719, -0.07689256966114044, -0.10082318633794785, -0.009048649109899998, 0.04299566149711609, 0.048359427601099014, 0.11848872900009155, -0.010640776716172695, -0.026248367503285408, 0.11000078171491623, -0.04302573949098587, -0.098795086145401, 0.011749249882996082, 0.08688731491565704, 0.1341642141342163, -0.05328070744872093, 0.006945394445210695, 0.06702445447444916, -0.09112995862960815, -0.03348645195364952, -0.050446707755327225, 0.01967395469546318, -0.01583976484835148, 0.04374607652425766, -0.0113741559907794, 0.12588119506835938, -0.0502554252743721, 0.023005180060863495, -0.05185241252183914, 0.03621304780244827, 0.05312016233801842, -0.07327349483966827, 0.018122553825378418, 0.09307640790939331, -0.13126234710216522, 0.04921842738986015, -0.014625027775764465, -0.05610581487417221, 0.08727061748504639], [0.03838501498103142, -0.04782404750585556, -0.05268480256199837, -0.0035381950438022614, 0.006485754624009132, -0.07414400577545166, 0.05686115473508835, -0.02778051607310772, 0.05359470844268799, 0.03486490622162819, 0.03810880333185196, -0.01011350005865097, -0.08571773022413254, -0.0975666269659996, -0.039688143879175186, 0.0027291704900562763, 0.007402270101010799, -0.012786746956408024, -0.033162254840135574, -0.03976916894316673, 0.062132831662893295, -0.05755557864904404, 0.07776034623384476, -0.07211185991764069, -0.025461345911026, 0.06211158633232117, 0.06409905850887299, 0.0161651149392128, 0.006682529114186764, 0.0474930964410305, -0.10680616647005081, 0.002662390237674117, 0.05435745418071747, -0.019042376428842545, 0.053694065660238266, -0.04969222843647003, 0.043938204646110535, -0.056377749890089035, -0.05635928735136986, 0.009760740213096142, -0.0728130042552948, 0.01712021417915821, -0.007794026751071215, 0.055165618658065796, 0.10621841251850128, 0.011964501813054085, 0.031113211065530777, -0.08929320424795151, -0.01876525580883026, 0.004100620746612549, -0.09005630016326904, 0.010803049430251122, -0.05425885319709778, 0.0421595461666584, -0.017488881945610046, -0.04868605360388756, -0.06567174941301346, -0.04426658898591995, -0.0029988205060362816, 0.019182905554771423, 0.013706957921385765, 0.04470498487353325, -0.004020247608423233, -0.027040831744670868], [-0.0444670170545578, 0.09691730886697769, 0.05849020928144455, -0.021518653258681297, -0.15803401172161102, 0.03458163142204285, 0.019690830260515213, -0.04146619886159897, -0.003911885898560286, -0.012208913452923298, -0.0672590583562851, 0.014780116267502308, -0.07461046427488327, 0.04330991208553314, 0.02103128656744957, 0.13234864175319672, -0.05716397985816002, -0.01765212044119835, -0.016177618876099586, -0.15227574110031128, 0.06863896548748016, -0.05409662425518036, 0.011342191137373447, 0.04937504604458809, 0.0328562892973423, -0.02298927865922451, -0.025565937161445618, 0.10496217012405396, 0.08672810345888138, -0.004042862448841333, 0.1279345452785492, -0.025871194899082184, 0.05143941566348076, -0.06619451195001602, 0.0805864930152893, -0.07809988409280777, -0.10560106486082077, 0.03965672850608826, -0.030495038256049156, 0.022208722308278084, -0.051687054336071014, -0.03250821307301521, 0.07525286078453064, -0.05992269515991211, 0.007617384660989046, 0.09692804515361786, 0.0029506676364690065, -0.0009093064581975341, -0.10390200465917587, 0.019299916923046112, 0.034057654440402985, -0.044240642338991165, -0.04688027873635292, -0.0502588152885437, 0.023527558892965317, -0.07227245718240738, -0.02589617855846882, -0.030153492465615273, -0.08916976302862167, 0.052326709032058716, -0.07964304834604263, -0.14526259899139404, -0.1371028572320938, 0.0018630896229296923], [-0.09407880902290344, 0.011282498948276043, -0.08745607733726501, 0.04296669736504555, 0.039702631533145905, 0.11651168763637543, -0.03546706959605217, -0.09510351717472076, 0.014287242665886879, 0.019620848819613457, 0.06346607953310013, 0.05968211963772774, 0.10714507848024368, -0.11881408840417862, -0.06815094500780106, -0.04470696672797203, -0.013621572405099869, 0.1184750497341156, 0.08053311705589294, 0.04209389165043831, 0.09201697260141373, 